//Numpy array shape [128]
//Min -0.130126953125
//Max 0.341308593750
//Number of zeros 0

#ifndef B2_H_
#define B2_H_

#ifndef __SYNTHESIS__
model_default_t b2[128];
#else
model_default_t b2[128] = {0.0268707275, -0.0166015625, -0.1276855469, 0.0661010742, 0.2362060547, -0.0476684570, 0.2316894531, -0.0730590820, 0.2443847656, -0.0323486328, 0.0056304932, 0.1505126953, 0.0844726562, 0.0374755859, -0.0731811523, 0.2958984375, 0.2041015625, 0.2746582031, 0.2443847656, 0.1812744141, -0.0631713867, 0.0302124023, 0.0710449219, 0.2512207031, 0.2175292969, 0.2004394531, 0.2198486328, 0.2286376953, 0.1840820312, 0.2403564453, -0.0580444336, 0.1285400391, 0.2291259766, -0.0449829102, -0.0080566406, -0.0002934933, -0.0044212341, -0.0617675781, 0.1050415039, -0.0312194824, 0.3093261719, 0.1281738281, -0.0120010376, -0.0392456055, -0.0500183105, -0.1203002930, 0.1350097656, 0.1200561523, -0.0842895508, -0.0656738281, -0.0290679932, -0.1301269531, 0.1463623047, 0.1232299805, 0.0134048462, 0.0166625977, 0.2814941406, 0.2539062500, 0.1403808594, -0.0372619629, 0.1396484375, 0.0726318359, 0.2299804688, 0.2792968750, 0.2792968750, 0.2039794922, -0.0191497803, 0.1275634766, -0.0679321289, 0.1468505859, -0.0097045898, -0.0097503662, -0.0046005249, 0.3413085938, -0.0612792969, -0.0657958984, 0.1984863281, 0.0656127930, -0.0037117004, 0.0102691650, -0.0170898438, -0.0158996582, 0.0936279297, 0.1132202148, -0.0453796387, 0.2066650391, 0.0232543945, -0.0908203125, 0.2258300781, -0.0429992676, -0.0278320312, 0.2817382812, 0.1238403320, 0.0740966797, 0.2966308594, -0.0581054688, -0.0403137207, -0.0620117188, -0.0717773438, 0.2290039062, -0.0172424316, -0.0294647217, 0.1988525391, 0.0974731445, -0.0458068848, -0.0405578613, -0.0523376465, 0.1304931641, 0.0871582031, -0.0532531738, 0.2583007812, -0.0602111816, -0.0228881836, -0.0447082520, 0.1650390625, 0.1789550781, 0.1345214844, -0.0144729614, 0.1141357422, -0.0678710938, 0.0946044922, -0.0136413574, -0.0260162354, -0.0547485352, -0.0343322754, 0.1324462891, 0.2230224609, -0.0168304443};
#endif

#endif
