//Numpy array shape [4, 128]
//Min -0.415527343750
//Max 0.477294921875
//Number of zeros 384

#ifndef W2_H_
#define W2_H_

#ifndef __SYNTHESIS__
model_default_t w2[512];
#else
model_default_t w2[512] = {-0.3457031250, -0.0000000000, -0.0000000000, -0.0000000000, 0.0000000000, -0.0000000000, 0.0000000000, 0.0000000000, -0.0000000000, 0.2038574219, -0.0000000000, -0.0000000000, -0.0000000000, -0.0000000000, -0.0000000000, 0.0000000000, 0.0000000000, 0.3566894531, 0.0000000000, -0.3095703125, -0.0000000000, -0.0000000000, -0.0000000000, 0.0000000000, 0.0000000000, 0.0000000000, 0.3210449219, 0.0000000000, 0.0000000000, 0.0000000000, -0.3681640625, -0.2036132812, 0.0000000000, -0.0000000000, -0.0000000000, -0.3735351562, -0.2263183594, -0.0000000000, 0.0000000000, -0.0000000000, 0.3742675781, 0.0000000000, -0.0000000000, -0.0000000000, 0.0000000000, -0.0000000000, -0.0000000000, -0.0000000000, -0.0000000000, -0.0000000000, 0.0000000000, 0.0000000000, -0.0000000000, -0.0000000000, -0.3369140625, -0.0000000000, 0.0000000000, -0.0000000000, -0.0000000000, -0.0000000000, -0.0000000000, -0.0000000000, 0.0000000000, -0.0000000000, 0.0000000000, 0.0000000000, -0.0000000000, -0.0000000000, 0.0000000000, -0.3234863281, -0.0000000000, 0.0000000000, 0.0000000000, 0.1411132812, 0.0000000000, -0.0000000000, 0.0000000000, -0.0000000000, -0.0000000000, -0.3300781250, -0.0000000000, -0.0000000000, -0.3032226562, -0.0000000000, -0.0000000000, -0.0924682617, -0.2125244141, -0.0000000000, 0.0000000000, -0.0000000000, -0.0000000000, 0.0000000000, 0.0000000000, 0.2963867188, -0.0000000000, -0.0000000000, 0.0000000000, -0.0000000000, -0.0000000000, 0.0000000000, 0.0000000000, 0.0000000000, -0.3283691406, -0.3542480469, -0.0000000000, -0.0000000000, -0.0000000000, -0.0000000000, -0.0000000000, -0.0000000000, 0.0000000000, 0.0000000000, -0.0000000000, 0.0000000000, -0.0000000000, 0.0000000000, -0.0000000000, -0.2033691406, 0.0000000000, 0.0000000000, -0.0000000000, -0.2500000000, -0.0000000000, -0.0000000000, -0.0000000000, -0.0000000000, 0.0000000000, -0.0000000000, 0.2232666016, 0.0000000000, -0.0000000000, 0.0000000000, -0.2651367188, -0.0000000000, -0.2313232422, -0.0000000000, -0.0000000000, 0.0000000000, -0.0000000000, -0.2863769531, -0.0000000000, 0.0000000000, -0.0000000000, 0.0000000000, 0.0000000000, -0.0000000000, -0.3469238281, 0.2988281250, -0.0000000000, 0.0000000000, 0.0000000000, -0.2824707031, -0.2770996094, 0.0000000000, -0.3942871094, -0.2186279297, 0.0000000000, -0.2607421875, -0.0000000000, 0.2329101562, -0.2487792969, 0.0000000000, -0.0000000000, 0.2646484375, 0.0000000000, 0.0000000000, -0.3054199219, -0.0000000000, -0.0000000000, 0.0000000000, -0.0000000000, -0.0000000000, -0.0000000000, -0.0000000000, -0.0000000000, 0.0000000000, -0.0000000000, -0.0000000000, 0.0000000000, -0.0000000000, -0.0000000000, 0.0000000000, 0.0000000000, 0.0000000000, 0.0000000000, 0.3613281250, -0.0000000000, -0.0000000000, -0.2174072266, 0.0000000000, -0.0000000000, -0.3925781250, -0.1856689453, -0.0000000000, -0.0000000000, 0.0000000000, -0.0000000000, 0.0000000000, -0.0000000000, -0.0000000000, -0.0000000000, 0.0000000000, 0.2084960938, -0.0000000000, 0.0000000000, -0.0000000000, 0.0000000000, 0.0000000000, -0.0000000000, 0.0000000000, 0.0000000000, 0.3579101562, -0.0000000000, 0.0000000000, 0.0000000000, -0.0000000000, 0.0000000000, 0.0000000000, 0.0000000000, -0.3728027344, -0.1971435547, -0.0000000000, -0.0000000000, -0.0000000000, -0.0000000000, -0.0000000000, -0.0000000000, 0.0000000000, -0.0000000000, -0.0000000000, 0.0000000000, 0.3085937500, -0.0000000000, -0.0000000000, -0.0000000000, -0.0000000000, 0.0000000000, -0.0000000000, 0.0000000000, 0.0000000000, 0.0000000000, 0.0000000000, 0.0000000000, -0.0000000000, 0.0000000000, -0.0000000000, -0.0000000000, 0.0000000000, -0.1918945312, -0.0000000000, -0.0000000000, 0.1983642578, -0.0000000000, 0.2375488281, 0.0000000000, 0.0000000000, -0.0000000000, 0.0000000000, 0.4018554688, -0.0000000000, -0.0000000000, 0.0000000000, 0.0000000000, 0.0000000000, 0.3544921875, -0.0000000000, 0.4360351562, 0.0000000000, -0.2666015625, 0.0000000000, 0.0000000000, -0.0000000000, 0.0000000000, 0.0000000000, 0.0000000000, -0.4155273438, 0.0000000000, -0.0000000000, -0.2763671875, 0.0000000000, 0.0000000000, 0.0000000000, 0.0000000000, -0.0000000000, -0.0000000000, 0.3300781250, -0.0000000000, 0.0000000000, -0.0000000000, 0.0000000000, 0.3330078125, -0.3630371094, -0.0000000000, 0.2235107422, 0.2493896484, -0.2268066406, 0.0000000000, -0.0000000000, 0.0000000000, 0.0000000000, -0.0000000000, 0.3498535156, -0.2136230469, -0.3906250000, 0.3249511719, 0.0000000000, -0.0000000000, 0.3132324219, 0.3334960938, -0.3374023438, -0.0000000000, -0.0000000000, -0.2595214844, -0.0000000000, -0.0000000000, -0.0000000000, 0.3137207031, 0.0000000000, 0.4367675781, 0.3662109375, -0.0000000000, 0.0000000000, 0.0000000000, -0.3542480469, 0.0000000000, -0.0000000000, -0.0000000000, -0.0000000000, 0.0000000000, -0.0000000000, 0.0000000000, 0.3933105469, -0.0000000000, -0.0000000000, -0.0000000000, -0.0000000000, 0.0000000000, -0.0000000000, -0.0000000000, -0.3117675781, 0.0000000000, 0.0000000000, 0.0000000000, 0.3547363281, -0.0000000000, 0.0000000000, -0.0000000000, 0.0000000000, 0.0000000000, 0.0000000000, 0.0000000000, 0.0000000000, -0.0000000000, 0.0000000000, 0.3759765625, -0.0000000000, -0.0000000000, -0.0000000000, -0.4028320312, -0.3210449219, -0.0000000000, 0.0000000000, 0.0000000000, 0.3398437500, -0.0000000000, 0.0000000000, -0.0000000000, -0.1964111328, -0.0000000000, -0.0000000000, -0.0000000000, 0.0000000000, 0.2021484375, -0.2626953125, 0.0000000000, -0.0000000000, 0.0000000000, -0.2005615234, 0.0000000000, 0.0000000000, 0.2263183594, -0.3981933594, 0.0000000000, 0.0000000000, -0.0000000000, 0.0000000000, 0.3369140625, -0.3984375000, -0.0000000000, 0.3830566406, -0.2252197266, 0.0000000000, 0.3256835938, 0.0000000000, 0.0000000000, -0.1975097656, -0.1900634766, -0.0000000000, 0.3518066406, -0.3110351562, 0.0000000000, 0.0000000000, 0.0000000000, -0.3535156250, 0.0000000000, -0.4094238281, -0.0000000000, 0.0000000000, 0.0000000000, 0.0000000000, 0.3950195312, -0.2519531250, -0.0000000000, 0.0000000000, -0.0000000000, -0.0000000000, -0.0000000000, -0.0000000000, 0.0000000000, -0.0000000000, -0.3195800781, -0.0000000000, 0.2922363281, 0.0000000000, 0.0000000000, -0.0000000000, 0.4191894531, 0.3371582031, 0.0000000000, 0.3139648438, -0.0000000000, -0.0000000000, 0.3303222656, 0.0000000000, 0.0000000000, 0.3593750000, 0.0000000000, -0.3942871094, -0.3652343750, -0.0000000000, -0.0000000000, -0.0000000000, 0.0000000000, -0.0000000000, 0.2415771484, -0.2900390625, 0.3554687500, 0.3994140625, -0.3403320312, 0.0000000000, 0.4772949219, -0.3613281250, -0.0000000000, -0.0000000000, -0.0000000000, 0.3041992188, 0.0000000000, -0.3271484375, 0.0000000000, 0.4284667969, -0.0000000000, -0.0000000000, -0.0000000000, -0.0000000000, 0.3203125000, -0.0000000000, -0.0000000000, -0.0000000000, 0.3581542969, -0.0000000000, -0.0000000000, 0.4404296875, -0.2441406250, -0.0000000000, 0.0000000000, 0.0000000000, 0.0000000000, 0.3120117188, 0.4128417969, -0.0000000000, 0.0000000000, 0.0000000000, 0.0000000000, -0.0000000000, 0.0000000000, -0.0000000000, -0.0000000000, -0.0000000000, -0.0000000000, 0.3500976562, -0.0000000000, 0.0000000000, -0.0000000000, -0.2751464844, -0.0000000000, 0.0000000000, 0.0000000000, 0.2663574219, -0.0000000000, 0.0000000000, 0.0000000000, -0.2507324219, -0.0000000000, -0.0000000000, -0.0000000000, 0.0000000000, 0.0000000000, 0.0000000000, 0.0000000000, -0.0000000000, -0.0000000000, 0.0000000000};
#endif

#endif
