//Numpy array shape [128, 3]
//Min -0.480712890625
//Max 0.464355468750
//Number of zeros 288

#ifndef W4_H_
#define W4_H_

#ifndef __SYNTHESIS__
model_default_t w4[384];
#else
model_default_t w4[384] = {0.4018554688, -0.3444824219, -0.0000000000, -0.2409667969, -0.0000000000, 0.2949218750, -0.0000000000, -0.4069824219, 0.0000000000, 0.4411621094, -0.0000000000, -0.0000000000, -0.0000000000, 0.3212890625, 0.0000000000, -0.0000000000, -0.4321289062, 0.4589843750, 0.0000000000, 0.3024902344, -0.0000000000, -0.0000000000, -0.0000000000, -0.0000000000, -0.4245605469, -0.0000000000, 0.0000000000, -0.0000000000, 0.0000000000, -0.0000000000, -0.0000000000, -0.0000000000, 0.3867187500, 0.0000000000, -0.0000000000, 0.0000000000, 0.0000000000, -0.0000000000, -0.0000000000, -0.0000000000, 0.0000000000, -0.0000000000, -0.0000000000, -0.4182128906, 0.0000000000, 0.0000000000, 0.0000000000, -0.4565429688, -0.3308105469, 0.3879394531, -0.0000000000, -0.3669433594, 0.0000000000, -0.0000000000, -0.3820800781, -0.0000000000, 0.0000000000, 0.3500976562, -0.0000000000, -0.0000000000, 0.0000000000, -0.2227783203, 0.0000000000, 0.0000000000, -0.3803710938, -0.0000000000, 0.0000000000, -0.0000000000, -0.0000000000, -0.3273925781, 0.2683105469, 0.0000000000, -0.4113769531, 0.3088378906, 0.2954101562, -0.3752441406, 0.3977050781, -0.0000000000, -0.0000000000, 0.2086181641, 0.3559570312, 0.0000000000, 0.3862304688, -0.3491210938, -0.0000000000, 0.0000000000, -0.3366699219, -0.4384765625, -0.0000000000, 0.0000000000, 0.0000000000, -0.3488769531, 0.0000000000, 0.0000000000, 0.0000000000, -0.0000000000, -0.0000000000, 0.3203125000, 0.0000000000, -0.0000000000, -0.0000000000, 0.0000000000, -0.0000000000, -0.0000000000, 0.3374023438, 0.0000000000, -0.4216308594, -0.0000000000, 0.0000000000, -0.0000000000, -0.0000000000, -0.0000000000, -0.0000000000, 0.0000000000, -0.0000000000, -0.0000000000, 0.0000000000, 0.0000000000, -0.0000000000, -0.0000000000, -0.3647460938, 0.0000000000, -0.0000000000, -0.0000000000, 0.0000000000, -0.2895507812, -0.0000000000, -0.0000000000, 0.3461914062, -0.0000000000, -0.4436035156, 0.4643554688, 0.0000000000, -0.0000000000, 0.0000000000, -0.0000000000, -0.3923339844, 0.0000000000, 0.0000000000, -0.0000000000, -0.0000000000, 0.4025878906, -0.0000000000, -0.0000000000, -0.0000000000, -0.0000000000, 0.3937988281, 0.0000000000, -0.0000000000, 0.0000000000, 0.0000000000, 0.0000000000, 0.0000000000, -0.0000000000, -0.0000000000, 0.0000000000, -0.4245605469, -0.0000000000, 0.3896484375, 0.3630371094, -0.0000000000, -0.0000000000, 0.3767089844, -0.0000000000, -0.0000000000, 0.2648925781, -0.2014160156, -0.3283691406, 0.0000000000, 0.0000000000, -0.4291992188, 0.3305664062, 0.0000000000, -0.4807128906, -0.0000000000, 0.0000000000, -0.0000000000, 0.0000000000, -0.0000000000, -0.2192382812, -0.0000000000, -0.0000000000, 0.0000000000, 0.0000000000, -0.0000000000, -0.0000000000, -0.4316406250, -0.0000000000, 0.0000000000, -0.4045410156, -0.0000000000, 0.0000000000, 0.0000000000, -0.0000000000, -0.3666992188, -0.2734375000, 0.0000000000, -0.0000000000, -0.0000000000, -0.0000000000, 0.3940429688, 0.0000000000, -0.3823242188, -0.4011230469, 0.0000000000, -0.0000000000, -0.0000000000, 0.0000000000, -0.0000000000, -0.3815917969, -0.0000000000, -0.0000000000, -0.0000000000, -0.0000000000, -0.0000000000, 0.0000000000, -0.0000000000, 0.0000000000, 0.2459716797, 0.3659667969, 0.4221191406, -0.0000000000, 0.0000000000, -0.0000000000, -0.0000000000, -0.0000000000, -0.0000000000, 0.4252929688, -0.0000000000, 0.0000000000, -0.3203125000, -0.0000000000, 0.0000000000, -0.0000000000, 0.3000488281, 0.0000000000, -0.0000000000, 0.3395996094, -0.0000000000, 0.0000000000, -0.0000000000, -0.0000000000, 0.4370117188, 0.2474365234, -0.0000000000, 0.0000000000, 0.0000000000, -0.3242187500, -0.3422851562, 0.3977050781, -0.0000000000, -0.0000000000, -0.0000000000, -0.3613281250, 0.0000000000, 0.0000000000, 0.2568359375, -0.0000000000, 0.0000000000, -0.0000000000, 0.0000000000, -0.0000000000, -0.0000000000, 0.3645019531, 0.0000000000, 0.0000000000, -0.4709472656, -0.0000000000, -0.0000000000, -0.0000000000, 0.0000000000, -0.0000000000, 0.0000000000, -0.3952636719, -0.0000000000, 0.0000000000, -0.0000000000, -0.0000000000, 0.0000000000, -0.0000000000, 0.0000000000, 0.3383789062, -0.3884277344, 0.0000000000, 0.0000000000, -0.0000000000, -0.0000000000, 0.0000000000, -0.0000000000, -0.0000000000, 0.0000000000, 0.0000000000, 0.0000000000, 0.0000000000, -0.0000000000, -0.0000000000, 0.4147949219, -0.0000000000, 0.0000000000, -0.2998046875, 0.0000000000, 0.0000000000, -0.0000000000, -0.0000000000, -0.0000000000, -0.0000000000, 0.3491210938, -0.0000000000, -0.0000000000, 0.3601074219, -0.0000000000, -0.0000000000, -0.0000000000, -0.0000000000, -0.0000000000, -0.0000000000, -0.0000000000, 0.4326171875, -0.0000000000, -0.0000000000, -0.0000000000, -0.4064941406, -0.0000000000, 0.0000000000, 0.1965332031, 0.0000000000, -0.2929687500, 0.0000000000, -0.0000000000, -0.0000000000, -0.0000000000, 0.0000000000, -0.3005371094, 0.0000000000, -0.0000000000, -0.0000000000, 0.0000000000, -0.0000000000, 0.0000000000, -0.0000000000, -0.0000000000, 0.0000000000, -0.0000000000, 0.0000000000, -0.0000000000, -0.2746582031, 0.0000000000, -0.0000000000, -0.0000000000, 0.0000000000, 0.0000000000, 0.0000000000, -0.0000000000, -0.0000000000, -0.0000000000, 0.0000000000, -0.0000000000, -0.0000000000, -0.0000000000, 0.0000000000, -0.0000000000, -0.0000000000, 0.0000000000, 0.0000000000, -0.0000000000, 0.0000000000, -0.0000000000, -0.0000000000, 0.0000000000, 0.0000000000, -0.0000000000, -0.0000000000, -0.0000000000, -0.0000000000, 0.0000000000, 0.3637695312, -0.0000000000, -0.0000000000, -0.0000000000, 0.3415527344, -0.0000000000, -0.0000000000, 0.0000000000, -0.0000000000};
#endif

#endif
