//Numpy array shape [4, 128]
//Min -0.328125000000
//Max 0.338867187500
//Number of zeros 0

#ifndef W2_H_
#define W2_H_

#ifndef __SYNTHESIS__
model_default_t w2[512];
#else
model_default_t w2[512] = {0.2244873047, 0.1512451172, -0.1005859375, 0.1520996094, -0.0293273926, -0.2038574219, -0.0348205566, -0.1704101562, 0.0234680176, -0.2585449219, -0.0511779785, 0.0814819336, 0.0428771973, 0.2222900391, -0.0325927734, -0.2309570312, 0.0590209961, -0.1718750000, -0.0430297852, -0.0080032349, -0.1033935547, -0.1325683594, -0.2142333984, -0.1296386719, -0.0616455078, -0.2517089844, -0.1800537109, 0.0782470703, -0.1901855469, -0.0583190918, 0.0206604004, -0.1027221680, -0.0497741699, -0.1195678711, -0.1882324219, -0.1188964844, -0.1613769531, 0.2521972656, -0.0030117035, 0.0806274414, -0.0472412109, -0.2363281250, 0.1365966797, 0.1953125000, -0.0279083252, -0.0874023438, 0.0950317383, -0.1844482422, 0.1328125000, -0.0116500854, 0.1658935547, 0.1948242188, -0.0930175781, -0.1893310547, 0.1990966797, 0.0103988647, -0.0204162598, -0.0844726562, 0.1352539062, 0.2348632812, -0.0892333984, 0.0325012207, -0.1342773438, -0.1684570312, -0.1820068359, -0.0919189453, -0.0395202637, -0.2006835938, 0.1812744141, -0.1413574219, -0.2384033203, -0.1308593750, -0.0521545410, 0.0183715820, -0.1535644531, -0.1745605469, 0.1087646484, 0.2583007812, 0.0419006348, -0.0231781006, -0.0033264160, -0.1977539062, -0.2239990234, 0.0924072266, -0.1903076172, 0.0448608398, 0.1617431641, 0.0561218262, 0.1365966797, -0.2568359375, -0.1612548828, -0.0874633789, 0.2629394531, 0.1036376953, 0.1795654297, 0.1092529297, -0.0151367188, 0.1145019531, 0.1885986328, -0.0545654297, -0.0574035645, 0.0646362305, 0.1694335938, -0.0510864258, -0.1325683594, -0.2347412109, -0.1127929688, 0.2054443359, 0.0684204102, 0.2629394531, -0.0029563904, -0.0667724609, -0.0961914062, -0.2329101562, 0.1145629883, 0.0849609375, 0.0685424805, -0.0362548828, 0.0534667969, -0.1236572266, -0.0044403076, -0.0209197998, -0.1805419922, -0.2565917969, 0.0470886230, -0.2644042969, -0.2170410156, -0.1705322266, -0.0522460938, -0.1364746094, -0.0576477051, -0.3281250000, 0.0333557129, 0.0395812988, -0.0600585938, 0.0758056641, 0.1311035156, 0.0112228394, -0.0056533813, 0.0595397949, 0.1190795898, -0.0487976074, -0.0394897461, 0.2585449219, 0.0857543945, 0.1300048828, -0.0848999023, 0.0960693359, -0.1513671875, -0.1610107422, 0.1363525391, -0.1534423828, 0.1400146484, 0.2822265625, -0.1707763672, 0.1466064453, -0.0561523438, -0.2453613281, -0.1787109375, -0.0919189453, -0.1956787109, -0.0195159912, -0.0562744141, -0.0269317627, -0.2139892578, -0.1062011719, 0.0678710938, 0.1451416016, -0.1440429688, 0.0725097656, 0.0284118652, -0.1210937500, -0.2307128906, -0.0146865845, 0.1362304688, 0.1492919922, 0.0770874023, -0.0158691406, 0.0558471680, 0.0415039062, -0.1379394531, 0.2470703125, -0.0307006836, -0.1147460938, -0.2242431641, -0.2607421875, -0.0664672852, -0.0064430237, 0.1911621094, 0.0934448242, 0.2224121094, 0.2370605469, -0.0133361816, 0.2191162109, -0.0919189453, -0.0764160156, -0.1145019531, 0.0927124023, 0.1428222656, -0.0864257812, 0.2551269531, -0.1813964844, -0.0422058105, 0.1942138672, 0.1577148438, -0.1839599609, -0.0708007812, -0.0382995605, -0.1800537109, 0.1982421875, -0.1654052734, -0.1601562500, -0.1328125000, -0.0751953125, 0.1127319336, -0.0425415039, -0.2059326172, 0.1229858398, -0.1329345703, -0.0630493164, -0.0061340332, -0.1041870117, -0.2683105469, 0.0058555603, -0.0698852539, -0.0002632141, 0.0709228516, 0.0421447754, -0.0240325928, 0.1319580078, -0.1372070312, 0.0494384766, 0.0149078369, -0.0402526855, 0.0812988281, -0.1132812500, 0.0859985352, -0.1667480469, -0.0617370605, -0.0196380615, -0.0100555420, -0.0913085938, 0.1523437500, 0.2180175781, -0.1343994141, 0.1176757812, -0.2548828125, -0.2384033203, -0.0446777344, -0.2587890625, 0.1774902344, -0.0589599609, -0.0715332031, 0.2729492188, 0.1281738281, 0.0668945312, 0.2103271484, -0.0078811646, 0.0684814453, 0.3190917969, -0.1419677734, 0.1242065430, 0.1420898438, -0.2895507812, 0.1287841797, -0.2900390625, -0.0519409180, -0.1326904297, -0.2274169922, 0.2055664062, 0.0678100586, -0.1453857422, 0.0579223633, -0.2304687500, -0.2526855469, -0.0884399414, -0.0585327148, 0.1715087891, -0.2065429688, 0.2773437500, -0.1604003906, 0.0324096680, -0.1864013672, 0.1472167969, -0.2800292969, 0.0006132126, 0.0974121094, 0.3364257812, -0.0117797852, 0.3125000000, -0.1130981445, 0.1971435547, 0.0765991211, 0.0156860352, 0.0784301758, -0.1922607422, 0.2646484375, 0.1311035156, 0.2895507812, -0.1282958984, 0.2182617188, 0.0601196289, 0.0488891602, -0.1641845703, -0.0581970215, 0.1269531250, 0.1171875000, 0.2343750000, -0.2170410156, -0.1495361328, 0.0400695801, 0.2089843750, 0.0357666016, 0.0932617188, 0.0531005859, 0.1845703125, -0.0788574219, -0.2651367188, 0.0939941406, -0.1000366211, -0.0100784302, 0.0380859375, -0.0915527344, -0.0509338379, 0.0869750977, -0.3137207031, 0.0060195923, 0.1528320312, -0.1539306641, 0.0352783203, -0.0888061523, -0.0610351562, -0.1279296875, 0.0301055908, -0.1137695312, 0.1252441406, -0.2088623047, -0.2298583984, -0.0351867676, 0.0186920166, -0.1770019531, 0.0114288330, 0.2680664062, 0.2224121094, -0.0418701172, -0.1370849609, 0.2226562500, -0.0505981445, 0.2524414062, 0.1491699219, -0.1975097656, 0.0851440430, 0.2329101562, -0.2310791016, -0.0109634399, 0.2442626953, 0.2004394531, 0.0305633545, -0.0045890808, -0.1295166016, 0.2873535156, -0.1704101562, -0.2526855469, 0.1055908203, 0.2993164062, 0.2252197266, -0.2321777344, 0.1199951172, 0.2690429688, -0.1950683594, -0.0949707031, -0.1446533203, 0.2232666016, -0.0711059570, -0.0790405273, 0.0927734375, -0.1207885742, -0.0290527344, -0.3083496094, -0.0310821533, -0.1352539062, 0.0585021973, 0.0051651001, -0.2303466797, 0.1139526367, -0.2788085938, 0.3244628906, 0.1135253906, -0.1079101562, -0.1318359375, 0.3183593750, -0.2166748047, 0.0910034180, 0.0321960449, 0.3388671875, 0.0146789551, -0.2425537109, 0.1853027344, 0.2573242188, 0.1165771484, 0.1009521484, -0.1441650391, 0.0922851562, 0.1379394531, -0.0213317871, 0.1180419922, -0.2858886719, 0.3146972656, -0.2127685547, 0.0074882507, -0.1887207031, -0.1909179688, 0.0750732422, 0.1500244141, -0.2553710938, 0.2578125000, -0.0913085938, 0.1413574219, 0.1168212891, 0.3122558594, 0.1267089844, -0.1500244141, -0.0609130859, -0.2727050781, -0.0044555664, -0.1290283203, 0.1553955078, -0.0723266602, 0.1181030273, -0.0500183105, 0.0334167480, -0.0711669922, -0.0476989746, 0.2089843750, 0.1474609375, 0.1030273438, -0.1181030273, -0.0247192383, -0.1903076172, 0.1630859375, 0.2281494141, -0.0802612305, 0.2749023438, 0.0675659180, -0.0924682617, 0.0642089844, 0.0272521973, -0.2231445312, 0.0486450195, -0.1472167969, -0.0184631348, -0.1215820312, 0.1586914062, -0.0974731445, -0.2095947266, 0.0996704102, -0.2191162109, 0.2770996094, -0.1362304688, 0.0127182007, -0.0917358398, -0.0039787292, 0.0213623047, 0.0758666992, -0.0961303711, -0.2990722656, -0.0595092773, -0.2418212891, -0.1668701172, -0.0813598633, -0.1247558594, 0.0149383545, 0.1167602539, 0.0699462891, 0.0444030762, -0.1270751953, 0.1801757812, 0.0673217773, -0.0583496094, 0.1199340820, 0.0114288330, -0.3107910156, 0.2673339844, 0.1983642578, 0.2257080078, -0.1149291992, 0.1021728516, 0.0141677856, 0.1617431641, -0.0324707031, 0.0253753662, 0.1555175781, 0.1479492188, 0.2661132812, -0.1895751953, 0.1665039062, 0.2482910156, -0.0703735352, 0.0877685547, -0.2534179688, 0.2391357422, 0.1243286133, 0.0750732422, -0.0109252930, 0.0557861328, -0.0700073242, 0.0769653320, -0.1705322266, -0.0487365723, 0.0671386719, -0.2012939453, -0.2314453125};
#endif

#endif
