//Numpy array shape [128, 3]
//Min -0.360351562500
//Max 0.330566406250
//Number of zeros 0

#ifndef W4_H_
#define W4_H_

#ifndef __SYNTHESIS__
model_default_t w4[384];
#else
model_default_t w4[384] = {-0.1441650391, 0.0080795288, 0.2059326172, 0.1353759766, -0.0115432739, -0.0419311523, -0.2218017578, -0.2280273438, 0.2792968750, 0.0147781372, 0.2425537109, 0.2322998047, 0.2130126953, -0.3110351562, -0.2121582031, -0.0192108154, 0.1052246094, -0.2127685547, 0.0054130554, -0.2927246094, 0.1552734375, 0.0469055176, -0.2060546875, -0.2727050781, -0.1339111328, 0.1893310547, 0.1055908203, 0.1011352539, -0.2293701172, -0.1356201172, 0.0567321777, -0.1292724609, 0.2824707031, -0.0827636719, -0.0686035156, 0.1322021484, 0.2629394531, -0.1965332031, 0.0527648926, -0.2963867188, 0.1234130859, 0.2031250000, -0.0367126465, -0.2546386719, 0.0043563843, 0.1573486328, 0.0729980469, -0.2609863281, 0.0373229980, -0.1462402344, -0.1397705078, 0.2504882812, -0.1662597656, 0.0232849121, 0.1323242188, 0.0697631836, -0.1075439453, -0.0441284180, -0.0819702148, -0.1472167969, -0.0533752441, -0.0940551758, -0.0060577393, -0.1545410156, -0.1518554688, -0.0952148438, 0.1309814453, -0.2081298828, 0.1293945312, -0.0559997559, 0.0637817383, 0.2565917969, 0.2401123047, -0.2482910156, -0.0097808838, 0.2454833984, 0.0799560547, -0.2420654297, -0.0097579956, 0.0834960938, -0.2176513672, -0.0609436035, 0.1673583984, -0.2873535156, 0.0892333984, -0.0015716553, -0.2883300781, -0.2005615234, 0.0349121094, 0.1252441406, -0.0341186523, 0.0314025879, -0.0704345703, -0.1017456055, -0.2379150391, 0.1163330078, -0.0154418945, 0.3142089844, -0.1993408203, -0.0776977539, -0.1405029297, 0.3305664062, 0.0878906250, -0.0711669922, 0.0567321777, -0.2078857422, -0.2438964844, 0.1243286133, -0.2387695312, 0.0967407227, -0.0735473633, -0.3254394531, 0.1186523438, -0.2626953125, 0.0196228027, 0.0068321228, 0.0976562500, 0.1921386719, -0.2521972656, -0.0621643066, -0.2271728516, -0.1121826172, 0.0650024414, 0.1441650391, 0.3049316406, -0.3425292969, -0.1231689453, 0.1187744141, 0.2614746094, -0.1766357422, 0.2521972656, -0.0550842285, -0.2177734375, -0.0833740234, 0.0866699219, -0.0897827148, -0.1340332031, -0.1718750000, 0.1257324219, -0.0061149597, -0.0342407227, 0.1027221680, -0.0878295898, 0.1450195312, 0.0790405273, -0.0116043091, 0.1337890625, 0.0098114014, -0.1977539062, 0.2609863281, -0.2404785156, -0.1851806641, 0.1646728516, 0.1145019531, 0.1309814453, 0.2551269531, 0.0385742188, -0.0466308594, -0.2149658203, 0.1250000000, -0.1468505859, -0.1252441406, -0.1282958984, 0.2805175781, -0.2678222656, -0.1517333984, 0.1364746094, 0.0919799805, -0.3342285156, 0.2092285156, 0.2724609375, -0.1500244141, 0.2619628906, 0.0797729492, -0.3195800781, -0.1249389648, -0.0321960449, -0.1295166016, -0.0737915039, 0.2509765625, 0.1743164062, -0.2264404297, -0.1801757812, 0.1784667969, -0.0571289062, -0.2868652344, 0.1201782227, 0.1600341797, -0.0519409180, 0.0699462891, -0.1722412109, -0.1672363281, -0.0704345703, 0.1834716797, -0.0388183594, 0.2958984375, -0.2376708984, -0.0625610352, -0.1500244141, 0.1480712891, -0.0260314941, 0.1760253906, -0.0289459229, 0.0508728027, -0.2636718750, 0.1597900391, 0.1196899414, 0.1110229492, -0.2305908203, 0.1053466797, 0.0305175781, -0.2629394531, -0.1139526367, -0.2291259766, 0.1317138672, -0.0341186523, 0.2763671875, 0.0100555420, -0.0557556152, -0.2963867188, -0.1336669922, 0.1690673828, 0.1809082031, 0.1875000000, -0.0424804688, 0.0707397461, -0.0915527344, -0.2705078125, -0.0870361328, -0.0960693359, -0.1782226562, -0.1561279297, 0.2856445312, 0.1912841797, -0.0933227539, 0.1544189453, -0.1293945312, -0.0347900391, -0.2294921875, -0.0736083984, 0.1203002930, 0.1370849609, -0.0437011719, 0.1870117188, -0.1079711914, 0.1389160156, 0.0721435547, 0.0985717773, -0.0816040039, -0.1136474609, 0.1844482422, -0.3603515625, 0.2031250000, -0.0819702148, -0.1929931641, -0.1390380859, 0.1339111328, -0.0272369385, -0.1989746094, -0.0042495728, 0.0767211914, 0.0587768555, -0.2253417969, 0.0559692383, -0.0991821289, 0.1580810547, -0.0496215820, 0.2352294922, 0.1062622070, -0.1934814453, -0.1739501953, 0.2243652344, 0.0925292969, 0.1395263672, -0.0676269531, -0.0473022461, -0.0298309326, 0.1007690430, 0.1591796875, -0.1096801758, -0.1652832031, 0.0497436523, -0.1588134766, 0.2705078125, -0.2219238281, -0.0842895508, -0.1873779297, 0.2766113281, -0.0061950684, -0.1861572266, 0.0495605469, 0.0750732422, -0.2335205078, -0.0083236694, -0.1585693359, -0.1727294922, 0.1967773438, -0.2174072266, -0.0968627930, 0.2282714844, 0.1224975586, -0.1645507812, 0.1606445312, -0.1418457031, 0.1667480469, -0.0212707520, -0.3225097656, 0.1586914062, -0.0121917725, 0.1663818359, -0.1323242188, -0.0729980469, -0.2553710938, -0.2919921875, 0.0718994141, 0.1771240234, 0.1989746094, -0.1845703125, 0.0711059570, -0.2534179688, -0.1916503906, -0.2534179688, -0.0278930664, -0.0161132812, -0.3156738281, 0.1416015625, 0.1435546875, -0.2607421875, 0.1323242188, 0.1978759766, -0.0114059448, -0.1988525391, -0.1995849609, -0.1931152344, -0.1282958984, 0.3198242188, 0.1240844727, -0.3251953125, 0.1079101562, 0.2243652344, 0.0867309570, 0.1111450195, 0.1462402344, -0.0268554688, 0.0864257812, 0.2043457031, -0.2067871094, -0.0621032715, -0.0807495117, -0.2078857422, 0.0037784576, -0.1798095703, -0.0539550781, -0.1540527344, -0.2551269531, 0.1821289062, -0.1649169922, -0.2326660156, 0.3029785156, 0.1341552734, -0.1405029297, -0.1343994141, -0.1562500000, -0.0553894043, 0.2902832031, -0.0750732422, 0.0418701172, -0.1065063477, -0.1741943359, 0.0494689941, 0.2558593750, -0.1962890625, 0.1301269531, -0.0771484375, -0.1530761719, 0.1004028320, 0.0964355469, -0.2425537109, 0.2727050781, -0.0520935059, -0.2333984375, 0.1435546875, -0.1845703125, 0.0854492188};
#endif

#endif
