//Numpy array shape [32, 10]
//Min -4.457031250000
//Max 3.115234375000
//Number of zeros 0

#ifndef W9_H_
#define W9_H_

#ifndef __SYNTHESIS__
model_default_t w9[320];
#else
model_default_t w9[320] = {-0.5825195312, -1.6181640625, 1.6357421875, 1.4404296875, -2.2812500000, -1.6542968750, -3.6074218750, 1.5000000000, -0.9111328125, -2.8906250000, -0.7583007812, 0.8901367188, -0.5717773438, 0.3266601562, -0.8413085938, 0.6220703125, -0.1497802734, -1.6601562500, 0.3713378906, 0.6323242188, 1.0439453125, -0.3969726562, -0.4719238281, -0.4909667969, -0.6059570312, -0.2144775391, -1.4570312500, 0.3317871094, 0.4528808594, 0.4614257812, -0.7382812500, 1.4521484375, -1.1406250000, -0.4995117188, 2.9296875000, 0.0047760010, 0.3552246094, -0.8173828125, -0.5815429688, -4.1406250000, -1.3066406250, -2.3378906250, 0.6679687500, -1.0996093750, -2.4687500000, 0.3642578125, -0.4216308594, 0.1931152344, 2.0996093750, 0.0894775391, 0.6928710938, -2.3613281250, -2.5742187500, -3.3164062500, 0.4494628906, 0.2058105469, 1.3574218750, -1.1171875000, -1.1552734375, 0.6088867188, -0.5151367188, 2.9609375000, -1.0820312500, 0.1502685547, 0.3227539062, -0.4902343750, 1.1357421875, -1.7011718750, 0.7485351562, 1.3007812500, 0.1994628906, -0.1745605469, 0.2502441406, -0.9165039062, -0.4658203125, 0.0788574219, -1.1191406250, 0.3132324219, 0.1599121094, -0.7246093750, -1.1835937500, -2.7363281250, 0.5273437500, 1.0136718750, -1.4658203125, -1.0507812500, -0.8964843750, -0.9858398438, 0.3845214844, -0.4028320312, -0.0933837891, -0.4042968750, 0.3803710938, -0.8188476562, -0.4931640625, -3.5898437500, -0.9628906250, -0.1374511719, -0.1560058594, 0.8168945312, -0.5205078125, -1.0947265625, -0.9267578125, -1.1093750000, -1.6240234375, -0.6782226562, 0.1407470703, 2.1171875000, -1.4101562500, 1.2666015625, -0.1809082031, -0.2305908203, 0.7568359375, 1.3730468750, 1.1210937500, -4.4570312500, -1.1435546875, 0.2915039062, 0.7207031250, -0.0664672852, 1.4472656250, -2.9941406250, -0.6328125000, -0.0732421875, -2.9160156250, 0.7734375000, -1.1250000000, -1.8876953125, 2.2226562500, -0.0170288086, -1.0224609375, 0.8041992188, -0.9785156250, -0.9184570312, 1.3339843750, -1.2187500000, 1.0722656250, -1.0693359375, -1.6572265625, -1.2773437500, -2.6503906250, 0.8408203125, -1.1289062500, 0.8461914062, -2.6875000000, 0.1254882812, 2.2167968750, -1.2470703125, -1.8701171875, 0.8041992188, -0.1501464844, 0.1704101562, -0.4697265625, -2.3222656250, -1.1279296875, 3.1152343750, 0.5976562500, -0.7041015625, -0.1926269531, -2.9765625000, -3.4726562500, -0.0196990967, -1.0830078125, 1.7353515625, 1.8583984375, 0.8403320312, -2.7753906250, 0.3493652344, -0.9526367188, 1.1962890625, 0.0709838867, 0.3884277344, -0.8051757812, -1.0878906250, -0.9804687500, -0.4423828125, 0.3586425781, 1.8681640625, 1.6962890625, -2.1250000000, -2.5742187500, 1.1093750000, 1.1591796875, 0.0846557617, -1.9843750000, 0.9702148438, -1.4931640625, 0.1239013672, -0.8710937500, -3.7363281250, 0.6137695312, -1.7841796875, -2.0214843750, -0.0675659180, -0.7309570312, -0.8159179688, 1.9824218750, -1.4208984375, -0.7719726562, -0.8144531250, -0.4477539062, -2.9902343750, 0.7998046875, -1.3027343750, 0.4057617188, 0.1650390625, 0.6845703125, -1.4443359375, -0.2766113281, 0.8100585938, 1.0595703125, -0.5258789062, 0.4775390625, -1.3818359375, -0.9155273438, -1.3964843750, 0.4050292969, -1.2021484375, 1.1474609375, -1.4121093750, 1.9150390625, 1.8642578125, -2.1152343750, 0.1142578125, -0.3381347656, -0.8457031250, -1.4726562500, -0.5263671875, -0.4064941406, -3.8964843750, -0.8955078125, 0.8491210938, 1.8564453125, -0.4357910156, 0.4323730469, 0.2634277344, 0.9609375000, -0.6821289062, -1.1826171875, -1.2294921875, 0.9594726562, -3.8847656250, -2.7910156250, 2.1308593750, -0.0173645020, 0.9726562500, -1.6738281250, 0.1524658203, -2.2246093750, -0.3786621094, 1.5673828125, 0.3288574219, -2.0742187500, -1.1035156250, 0.4318847656, -0.7666015625, -2.4335937500, 2.4316406250, -3.3652343750, 0.5239257812, 0.2536621094, -0.3745117188, 0.4094238281, -1.2431640625, -0.0994262695, 0.4238281250, -0.0556640625, -0.9213867188, -3.2968750000, 0.0026912689, -0.1960449219, 0.1281738281, 1.2900390625, -0.5366210938, 0.1358642578, 1.2519531250, -0.1947021484, -2.2089843750, -1.7050781250, -0.0552978516, -0.4753417969, -3.3398437500, 0.3190917969, 0.0971679688, 0.5434570312, -0.6079101562, 1.2558593750, -1.8222656250, 0.5551757812, 0.2778320312, 0.1145019531, 0.7138671875, 0.9384765625, -2.7441406250, -0.0277709961, -1.3740234375, -1.6669921875, 1.1142578125, -2.6914062500, 1.0722656250, -1.3544921875, 1.2197265625, -1.2705078125, -0.4423828125, 0.9096679688, -0.3710937500, -2.3828125000, -0.1311035156, 0.7363281250, 0.9550781250, 2.0507812500, -0.5161132812, 2.5761718750, -2.7480468750, -0.0736694336, -1.3388671875, 0.5820312500, -0.4616699219, -1.6347656250, -2.6464843750};
#endif

#endif
