//Numpy array shape [144, 10]
//Min -1.271484375000
//Max 1.200195312500
//Number of zeros 0

#ifndef W6_H_
#define W6_H_

#ifndef __SYNTHESIS__
dense_weight_t w6[1440];
#else
dense_weight_t w6[1440] = {-0.2109375000, -0.4775390625, -0.3322753906, -0.2092285156, -0.0567321777, -0.0613708496, 0.1016235352, -0.1110839844, 0.2154541016, -0.0479736328, 0.0082626343, -0.4841308594, 0.1211547852, -0.2348632812, 0.2888183594, -0.3769531250, 0.2619628906, -0.1475830078, 0.1217041016, -0.5903320312, -0.1150512695, 0.0602111816, -0.1007690430, -0.2905273438, 0.0945434570, 0.0144653320, 0.1204833984, 0.0767822266, -0.1325683594, 0.0085220337, 0.1634521484, -0.0533752441, -0.1857910156, -0.2905273438, -0.0764160156, -0.2534179688, 0.1021728516, 0.1163940430, 0.3806152344, -0.0836181641, 0.2230224609, 0.1315917969, 0.3598632812, -0.1220092773, -0.3027343750, -0.0502319336, -0.0083923340, -0.1430664062, 0.1718750000, 0.0711669922, -0.4924316406, -0.3562011719, 0.1186523438, -0.0418395996, -0.2636718750, 0.0248565674, -0.4592285156, 0.0868530273, -0.1094360352, 0.2912597656, -0.6323242188, 0.0466308594, -0.1088867188, 0.1359863281, -0.5439453125, 0.0545043945, 0.2609863281, 0.1948242188, -0.4484863281, 0.0600280762, 0.2272949219, -0.0761108398, -0.0462646484, 0.3186035156, -0.4062500000, -0.2222900391, -0.1973876953, 0.1853027344, -0.0359191895, 0.3613281250, -0.5102539062, 0.0351562500, -0.0779418945, 0.1932373047, -0.0821533203, -0.6616210938, -0.5039062500, -0.4589843750, -0.5390625000, 0.0593261719, -0.1823730469, 0.0829467773, -0.5229492188, 0.2827148438, 0.1906738281, 0.1219482422, -0.1335449219, 0.1890869141, -0.5083007812, 0.1629638672, -0.3581542969, -0.0227966309, 0.0794067383, 0.0851440430, -0.0642089844, 0.2429199219, 0.3244628906, 0.1427001953, 0.2626953125, 0.0618286133, -0.2646484375, -0.1287841797, -0.2297363281, 0.1212768555, -0.1712646484, 0.5561523438, -0.2553710938, 0.1032104492, -0.4235839844, 0.0689697266, -0.3359375000, 0.2563476562, -0.1250000000, 0.2917480469, -0.1646728516, -0.0473632812, 0.2423095703, -0.0341796875, -0.1813964844, 0.1862792969, 0.4826660156, 0.0678100586, 0.2000732422, -0.2150878906, -0.0027809143, -0.1668701172, 0.2324218750, -0.2680664062, -0.5854492188, -0.2092285156, -0.2819824219, 0.0669555664, -0.3322753906, 0.1572265625, 0.0614013672, 0.2248535156, 0.3071289062, 0.1638183594, -0.1491699219, -0.2145996094, -0.1396484375, -0.3037109375, 0.1602783203, -0.0250701904, -0.2393798828, -0.0977783203, 0.0090866089, -0.0909423828, -0.1431884766, 0.0074119568, 0.1324462891, -0.1539306641, -0.3505859375, -0.1768798828, 0.2868652344, -0.1006469727, -0.0584411621, 0.2142333984, 0.1456298828, 0.0716552734, 0.0553283691, 0.1512451172, 0.0069465637, -0.1677246094, 0.1325683594, -0.1772460938, -0.3732910156, -0.2065429688, 0.2496337891, -0.1181640625, -0.5019531250, 0.1127929688, -0.2924804688, -0.1433105469, -0.5068359375, -0.0936279297, -0.3037109375, -0.1218261719, -0.1292724609, -0.1173706055, -0.1904296875, -0.0603332520, -0.3691406250, -0.2387695312, -0.3125000000, 0.1188354492, 0.4465332031, -0.2285156250, 0.1140136719, 0.0346679688, 0.1256103516, -0.2377929688, -0.3898925781, -0.0899658203, -0.7529296875, 0.8046875000, -0.0492553711, 0.5185546875, -0.7539062500, 0.0241699219, -0.1650390625, 0.1414794922, -0.5073242188, -0.2182617188, -0.2171630859, 0.0220489502, -0.2239990234, -0.1695556641, 0.0561828613, 0.3432617188, 0.1251220703, 0.0565185547, 0.1145629883, 0.1854248047, -0.4848632812, 0.0830688477, -0.7690429688, -0.0870971680, -0.8740234375, 0.6411132812, -0.1947021484, 0.5585937500, -0.9780273438, -0.0528564453, -0.0782470703, 0.1379394531, 0.2841796875, -0.0170745850, -0.2314453125, 0.1416015625, 0.0603637695, -0.3586425781, 0.4101562500, -0.4582519531, 0.3430175781, -0.0126342773, -0.4291992188, -0.0619812012, 0.0317993164, 0.0653076172, -0.5219726562, -0.3505859375, -0.8061523438, 0.1448974609, 0.2851562500, 0.3449707031, 0.0702514648, -0.0572204590, 0.0620422363, -0.1271972656, 0.2498779297, 0.1505126953, -0.0336303711, 0.1823730469, 0.3784179688, 0.2631835938, 0.5668945312, 0.3686523438, 0.2524414062, 0.1237792969, -0.1293945312, 0.2602539062, -0.3666992188, 0.0169372559, -0.1828613281, 0.1199340820, -0.3454589844, 0.0372619629, -0.0545043945, -0.3913574219, 0.0559997559, 0.1882324219, 0.0946655273, 0.1370849609, 0.3256835938, -0.3671875000, -0.0081863403, -0.1950683594, -0.2749023438, -0.0946044922, -0.0578613281, 0.0043563843, -0.1092529297, 0.1002197266, 0.2119140625, -0.0667114258, 0.0336303711, -0.0838012695, 0.3249511719, 0.0250549316, 0.1636962891, -0.2296142578, 0.4394531250, -0.2956542969, 0.0625610352, 0.0201263428, 0.3913574219, -0.4794921875, 0.0623168945, -0.0930786133, -0.1117553711, -0.1499023438, 0.0078659058, 0.2238769531, -0.0165100098, 0.3305664062, 0.2717285156, 0.2010498047, 0.0068511963, -0.0903930664, 0.0967407227, 0.1077880859, 0.0332946777, 0.0440063477, 0.0936279297, 0.1536865234, 0.3613281250, -0.1594238281, -0.1510009766, -0.2961425781, 0.3232421875, -0.2203369141, -0.3432617188, -0.1907958984, 0.0760498047, -0.2670898438, 0.4091796875, -0.2216796875, 0.2326660156, 0.1193237305, 0.7290039062, -0.2227783203, -0.6337890625, -0.2180175781, 0.3640136719, -0.3044433594, -0.4440917969, -0.3183593750, -0.1561279297, -0.1759033203, -0.2749023438, -0.0565490723, -0.3962402344, 0.0505065918, 0.1536865234, 0.2705078125, -0.8134765625, 0.0055923462, -0.0580139160, 0.1391601562, 0.4389648438, -0.1139526367, 0.1790771484, 0.1989746094, 0.8784179688, -0.2448730469, -0.9833984375, 0.2399902344, 0.3820800781, -0.0883178711, -0.6640625000, -0.1270751953, 0.4011230469, 0.0637207031, -0.2495117188, -0.0795288086, -0.4228515625, 0.0147933960, -0.3850097656, 0.0061836243, 0.3286132812, 0.2666015625, 0.0344543457, 0.1047363281, -0.2082519531, 0.1894531250, 0.2027587891, 0.3803710938, -0.0523071289, 0.0591125488, -0.0762329102, 0.1915283203, -0.2238769531, 0.1314697266, -0.1003417969, 0.2451171875, 0.2155761719, 0.3322753906, -0.3312988281, 0.3483886719, 0.2155761719, 0.2127685547, 0.0404663086, 0.2384033203, 0.7817382812, 0.0939941406, -0.0989379883, -0.1370849609, -0.1184692383, 0.1490478516, 0.3613281250, 0.1557617188, -0.0803222656, 0.1688232422, -0.0540771484, 0.1383056641, -0.2753906250, 0.0932617188, 0.0574951172, 0.0455627441, -0.1657714844, -0.2089843750, -0.0962524414, -0.2371826172, 0.4956054688, 0.0710449219, 0.3027343750, -0.2049560547, 0.7646484375, -0.0207977295, -0.1540527344, -0.2585449219, 0.0925903320, 0.1864013672, -0.0772094727, -0.0811157227, -0.1579589844, 0.1048583984, 0.5058593750, -0.0706176758, -0.0589294434, 0.0287780762, 0.4033203125, 0.0192108154, 0.0751953125, -0.2126464844, 0.3828125000, -0.1519775391, -0.0657348633, -0.0612487793, 0.1929931641, -0.4340820312, -0.0640258789, -0.0043373108, -0.2010498047, -0.4291992188, 0.2985839844, 0.0542907715, 0.3505859375, 0.0653076172, 0.4494628906, 0.0701293945, 0.1750488281, 0.1855468750, 0.2788085938, -0.0345153809, 0.1364746094, 0.0474853516, 0.1409912109, 0.2178955078, 0.2330322266, -0.1237792969, -0.1835937500, -0.0101318359, 0.2142333984, 0.0496826172, -0.3320312500, -0.3427734375, 0.1114501953, 0.0662231445, -0.0564880371, -0.2413330078, 0.0613403320, 0.1751708984, 0.7290039062, -0.2512207031, -0.9311523438, -0.0196075439, 0.7744140625, -0.1140136719, -1.2714843750, -0.1279296875, 0.2971191406, 0.4323730469, -0.5004882812, 0.2849121094, 0.3007812500, 0.1200561523, 0.0233154297, 0.2761230469, -0.6440429688, -0.0961914062, 0.0986938477, -0.0047149658, 0.4416503906, -0.2636718750, 0.6542968750, -0.1057739258, 0.4580078125, -0.1654052734, 0.0153121948, -0.4187011719, 0.0123519897, 0.1405029297, -0.3105468750, -0.2106933594, 0.1739501953, -0.1580810547, -0.0512084961, -0.1920166016, 0.2050781250, 0.0874633789, 0.1342773438, -0.1341552734, 0.0569152832, -0.2331542969, 0.0273284912, -0.2181396484, 0.2304687500, 0.2004394531, 0.5429687500, 0.3732910156, 0.5585937500, -0.3242187500, 0.2269287109, -0.1959228516, 0.3803710938, -0.3010253906, -0.2237548828, -0.6997070312, 0.4509277344, -0.1396484375, -0.1319580078, -0.3403320312, -0.1562500000, 0.0865478516, -0.0045318604, 0.0195465088, -0.7890625000, 0.0624389648, 0.0849609375, 0.1127929688, 0.8046875000, 0.0466613770, 0.2944335938, -0.0373535156, 0.1541748047, 0.2792968750, -0.1928710938, 0.1597900391, 0.0307922363, 0.1050415039, -0.1888427734, 0.1195678711, 0.0071868896, 0.2678222656, -0.5043945312, 0.0766601562, 0.0872802734, -0.1084594727, -0.0457458496, 0.1634521484, -0.7192382812, 0.1030273438, 0.0197143555, 0.1647949219, -0.2875976562, -0.0590515137, 0.1182250977, -0.3100585938, 0.3430175781, -0.3298339844, -0.2454833984, -0.4611816406, 0.7045898438, -0.4804687500, -0.6533203125, -0.5434570312, 0.4921875000, -0.4799804688, -0.7661132812, -0.2966308594, 0.2988281250, -0.3203125000, -0.8569335938, -0.1767578125, 0.1745605469, -0.1059570312, -0.3454589844, -0.3679199219, 0.2253417969, 0.1398925781, 0.0173034668, 0.1203002930, -0.2333984375, -0.1630859375, 0.2500000000, 0.1361083984, -0.4636230469, 0.0913696289, 0.1044921875, 0.0908203125, -0.9218750000, 0.0731201172, -0.4228515625, 0.1547851562, -0.4909667969, 0.1335449219, -0.3813476562, 0.5581054688, -0.2929687500, 0.2990722656, -0.4057617188, 0.4143066406, -0.1558837891, -0.1119995117, -0.4777832031, -0.1126098633, -0.1968994141, 0.0339050293, -0.0162963867, -0.1516113281, -0.2983398438, 0.1359863281, 0.3298339844, 0.2890625000, -0.5639648438, 0.0198822021, 0.1627197266, 0.1232299805, -0.5668945312, 0.2312011719, 0.1671142578, 0.6196289062, -0.2631835938, 0.0213165283, -0.3701171875, -0.0053176880, 0.1636962891, 0.2648925781, 0.0336914062, 0.1196289062, -0.2412109375, 0.3706054688, 0.3666992188, 0.3498535156, 0.1041259766, 0.1591796875, 0.4423828125, 0.1994628906, 0.1138916016, 0.1120605469, 0.2164306641, -0.1002197266, -0.2805175781, 0.3952636719, 0.3833007812, 0.2287597656, 0.0525817871, 0.1369628906, -0.0943603516, 0.1771240234, 0.2145996094, -0.1013793945, -0.3239746094, 0.0668334961, -0.0546264648, -0.1832275391, -0.2482910156, -0.0958251953, 0.2983398438, -0.4953613281, -0.4106445312, -0.3229980469, 0.0186309814, 0.1078491211, -0.4228515625, 0.1579589844, -0.4423828125, -0.2427978516, -0.1694335938, -0.0187225342, 0.2871093750, -0.2297363281, -0.0593261719, -0.1107788086, -0.2919921875, -0.5424804688, -0.3784179688, -0.3540039062, 0.5112304688, -0.1480712891, -0.4182128906, -0.0619201660, -0.1738281250, -0.1253662109, -0.2543945312, -0.1889648438, -1.2128906250, -0.0725097656, 0.0094375610, -0.1115722656, -0.3666992188, 0.0372009277, 0.3703613281, -0.1687011719, 0.1416015625, 0.1083374023, 0.1061401367, -0.1074218750, 0.1629638672, -0.0090179443, -0.1992187500, -0.4023437500, -0.0060462952, -0.0541992188, -0.2034912109, -0.1444091797, -0.0010547638, 0.0610046387, -0.0220489502, -0.3168945312, -0.1468505859, -0.1643066406, 0.1320800781, -0.1757812500, 0.1104125977, -0.0737304688, 0.0776367188, -0.0603332520, -0.2365722656, -0.2276611328, 0.2287597656, -0.1346435547, -0.4035644531, -0.1250000000, -0.4353027344, -0.4162597656, -0.0573425293, -0.1622314453, 0.0043487549, -0.0729980469, -0.0993652344, 0.0867309570, 0.1599121094, -0.0733032227, 0.1324462891, 0.1353759766, 0.0919799805, -0.2335205078, 0.1884765625, 0.3098144531, -0.1618652344, -0.0306091309, 0.6567382812, 0.3564453125, -0.2785644531, 0.0552978516, -0.2739257812, 0.0145568848, -0.2037353516, 0.0207672119, -0.5620117188, 0.0648193359, 0.1954345703, -0.1854248047, -0.0685424805, 0.5361328125, 0.1633300781, -0.0921020508, 0.3203125000, -0.1065673828, 0.2707519531, -0.2836914062, 0.5151367188, -0.3566894531, 0.4323730469, -0.6953125000, 0.5820312500, -0.3244628906, -0.6264648438, -0.3073730469, 0.2897949219, -0.1375732422, 0.0760498047, -0.1133422852, 0.0606994629, 0.0938110352, 0.6733398438, -0.0895385742, 0.0982055664, 0.0643310547, 0.2236328125, -0.0267791748, 0.2929687500, -0.3959960938, -0.0729980469, -0.3903808594, 0.1022949219, -0.3315429688, 0.2042236328, -0.6669921875, 0.0847778320, -0.4274902344, 0.1203002930, -0.3979492188, 0.5205078125, -0.0310363770, 0.3293457031, -0.0891113281, 1.2001953125, -0.3256835938, 0.3300781250, -0.4191894531, 0.6474609375, -0.2668457031, -0.1530761719, -0.5541992188, 0.1478271484, 0.1870117188, -0.2014160156, -0.0880737305, -0.3835449219, 0.0969238281, -0.2536621094, 0.1763916016, -0.7753906250, 0.0092163086, 0.3479003906, 0.0767211914, 0.1936035156, -0.2634277344, 0.0697021484, -0.1895751953, 0.4377441406, -0.0480651855, -0.3901367188, 0.0588378906, 0.1984863281, 0.1900634766, -0.2785644531, 0.2363281250, 0.0596313477, 0.1889648438, -0.3422851562, 0.0942993164, 0.0598754883, 0.1788330078, -0.1896972656, 0.2135009766, -0.6948242188, 0.2500000000, 0.0583190918, 0.3588867188, -0.1671142578, -0.0201416016, -0.0967407227, -0.0800170898, -0.1009521484, 0.1650390625, 0.1060791016, 0.1400146484, -0.1815185547, 0.1253662109, -0.1882324219, -0.1022949219, 0.0440063477, -0.0671386719, -0.1657714844, -0.2172851562, 0.1301269531, -0.0176849365, -0.0197296143, -0.0599365234, 0.0364379883, -0.0729980469, -0.1745605469, 0.0324096680, 0.1608886719, 0.1319580078, 0.1687011719, 0.0277099609, -0.1624755859, -0.1122436523, 0.0233612061, -0.0111312866, 0.0969238281, -0.1185913086, -0.0395812988, -0.2111816406, 0.1597900391, 0.0251007080, -0.0530090332, -0.1943359375, 0.1340332031, 0.1100463867, -0.0700073242, -0.1970214844, -0.1428222656, 0.1230468750, -0.2226562500, -0.2028808594, 0.0538024902, 0.1422119141, 0.0645141602, 0.1807861328, -0.1112060547, 0.1015625000, -0.1005249023, -0.1258544922, -0.0005764961, -0.0600585938, -0.1340332031, -0.0404968262, -0.1531982422, -0.2076416016, 0.1339111328, -0.1428222656, 0.0051269531, -0.1022338867, 0.1187744141, 0.0405273438, -0.2128906250, 0.0460815430, -0.2011718750, 0.0852661133, -0.0162811279, 0.0354919434, 0.1204833984, -0.0740966797, 0.0331726074, -0.1414794922, -0.0364685059, 0.0791015625, 0.1250000000, -0.2224121094, 0.0236968994, 0.1398925781, 0.1540527344, -0.1854248047, -0.1984863281, 0.0574951172, -0.1793212891, -0.1262207031, 0.0290374756, -0.1805419922, 0.1181640625, 0.0157012939, 0.0996093750, 0.1577148438, 0.0427856445, -0.0582275391, 0.0233001709, 0.0484008789, 0.0932617188, -0.0627441406, 0.0838012695, -0.2373046875, 0.0108184814, -0.2199707031, 0.0759277344, -0.0960693359, 0.0904541016, -0.0456542969, -0.1687011719, 0.0531616211, -0.1441650391, -0.1551513672, -0.1117553711, 0.1105346680, 0.0520019531, -0.0714111328, 0.0064048767, -0.1114501953, 0.0736083984, 0.1240234375, 0.0695800781, -0.0518188477, 0.0975341797, -0.0073585510, 0.1408691406, -0.2001953125, -0.2009277344, 0.0964355469, 0.1566162109, -0.0748291016, 0.1580810547, -0.1015014648, -0.0469970703, 0.1505126953, -0.1107177734, -0.0103302002, -0.0435791016, -0.0797119141, -0.1279296875, -0.1012573242, -0.0990600586, -0.0205383301, -0.1297607422, 0.0005626678, 0.1693115234, 0.0480346680, 0.0710449219, 0.1876220703, 0.1027832031, 0.1535644531, -0.1437988281, -0.2319335938, -0.0718994141, -0.2802734375, -0.0789184570, 0.1361083984, -0.1394042969, -0.3188476562, -0.3024902344, -0.3149414062, -0.2905273438, -0.1810302734, -0.4355468750, -0.5507812500, -0.0348205566, -0.2509765625, 0.2824707031, 0.0867309570, 0.3945312500, 0.0006718636, 0.2749023438, -0.0573120117, 0.7895507812, -0.0675048828, 0.5605468750, -0.0208892822, 0.7822265625, -0.0450439453, 0.4433593750, 0.0604553223, 0.0812377930, -0.4362792969, 0.3259277344, -0.0091094971, -0.2266845703, 0.1887207031, -0.0392456055, -0.2489013672, -0.2788085938, 0.0445556641, 0.2087402344, -0.0142211914, 0.6411132812, 0.2255859375, 0.4929199219, -0.1821289062, 0.2224121094, -0.1194458008, -0.0424194336, -0.1265869141, -0.6596679688, 0.0952758789, -0.3518066406, 0.2668457031, -0.2143554688, 0.5048828125, -0.1656494141, 0.4145507812, 0.0922851562, 0.5986328125, -0.5014648438, 0.1178588867, -0.0866699219, 0.0594177246, 0.4682617188, -0.0065078735, 0.1455078125, 0.2548828125, 0.0006518364, 0.3254394531, -0.5493164062, 0.1627197266, -0.1257324219, -0.4621582031, -0.8515625000, -0.0969848633, -0.0343627930, -0.1407470703, -1.0068359375, -0.3857421875, 0.3498535156, 0.2924804688, 0.2205810547, 0.2714843750, 0.0752563477, -0.1571044922, -0.0752563477, 0.1185302734, -0.1145019531, -0.2014160156, -0.1953125000, 0.0236511230, -0.2687988281, -0.1424560547, -0.7255859375, 0.1054687500, -0.0844116211, -0.2210693359, -0.5957031250, -0.1260986328, -0.3701171875, 0.2951660156, -0.2551269531, 0.1695556641, 0.0160522461, -0.0071334839, -0.2724609375, 0.0082855225, -0.2644042969, -0.3757324219, -0.0972900391, 0.0261230469, 0.1123657227, 0.2456054688, 0.0103454590, -0.0276641846, 0.1657714844, 0.1379394531, -0.3571777344, 0.1610107422, -0.4604492188, -0.0928344727, -0.5053710938, 0.0144271851, -0.6645507812, -0.1540527344, 0.1870117188, 0.0156860352, -0.5507812500, -0.3171386719, 0.0649414062, -0.2012939453, -0.2019042969, -0.4924316406, -0.0802001953, -0.2617187500, -0.1431884766, 0.1574707031, -0.2088623047, 0.1188964844, -0.1798095703, -0.2056884766, -0.1901855469, -0.0184020996, 0.0148696899, -0.0999145508, 0.0668945312, 0.1056518555, -0.0377197266, -0.0542297363, 0.0742797852, 0.1508789062, 0.0628051758, -0.1610107422, 0.0844726562, -0.1370849609, 0.0852050781, 0.0138854980, -0.0374145508, 0.0988159180, -0.1982421875, 0.0055694580, -0.0850830078, 0.1212768555, -0.1458740234, -0.0283660889, 0.0396118164, 0.1467285156, -0.0600280762, -0.1900634766, -0.1347656250, -0.1540527344, -0.1284179688, -0.0256042480, 0.0842285156, 0.1419677734, 0.0917358398, -0.1931152344, -0.1962890625, -0.0737915039, 0.1073608398, -0.0826416016, -0.0629272461, -0.1291503906, -0.0378417969, -0.0619812012, -0.0791015625, 0.1131591797, -0.1331787109, 0.0377502441, -0.1195678711, 0.1523437500, -0.1325683594, 0.0532226562, -0.2213134766, -0.2395019531, 0.1187133789, 0.1269531250, -0.1229248047, 0.0125885010, 0.0262298584, 0.0275421143, -0.1468505859, -0.0797119141, -0.2376708984, -0.1718750000, 0.1354980469, 0.1154174805, 0.1278076172, -0.1965332031, -0.2236328125, -0.0058326721, 0.1411132812, -0.0110092163, 0.0151672363, 0.1088867188, 0.0641479492, -0.2272949219, 0.1308593750, -0.1778564453, 0.1335449219, 0.0718383789, 0.0486145020, -0.2379150391, 0.1257324219, -0.0171356201, -0.0449829102, -0.2182617188, 0.0393066406, -0.1873779297, -0.2126464844, 0.1687011719, 0.0339050293, 0.1604003906, -0.1851806641, 0.1571044922, 0.0217285156, 0.1433105469, -0.0589599609, 0.0979614258, 0.0302124023, -0.0087432861, 0.0870361328, -0.2211914062, 0.0039100647, -0.1201782227, -0.1535644531, -0.0603027344, -0.1950683594, 0.0136718750, -0.0510559082, 0.0086593628, 0.1502685547, 0.1313476562, -0.1766357422, -0.0598449707, -0.0270690918, -0.0183258057, -0.1866455078, -0.0942993164, 0.0642700195, 0.1348876953, -0.2180175781, -0.0036296844, -0.1986083984, 0.1434326172, 0.1083984375, -0.1322021484, -0.1038208008, -0.0634155273, -0.1111450195, 0.1037597656, -0.0797729492, 0.1520996094, -0.0626220703, -0.0517883301, 0.0504760742, -0.1481933594, -0.1948242188, -0.0651245117, -0.4167480469, -0.3986816406, -0.3027343750, -0.0509643555, -0.7495117188, -0.4853515625, -0.6806640625, -0.8759765625, 0.1525878906, 0.1497802734, 0.0838012695, -0.3928222656, -0.2395019531, -0.2329101562, -0.0330505371, -0.8300781250, -0.1200561523, -0.0681152344, 0.1545410156, -0.5141601562, -0.0277557373, -0.2282714844, -0.6796875000, -0.2481689453, -0.3696289062, -0.2619628906, -0.6713867188, -0.3461914062, -0.1264648438, -0.1203613281, -0.7050781250, 0.0665283203, 0.2355957031, 0.0499267578, -0.4570312500, -0.1564941406, 0.6425781250, 0.1531982422, 0.3183593750, 0.2388916016, 0.1882324219, -0.0474548340, 0.4987792969, 0.0109710693, -0.0921020508, -0.2619628906, 0.3642578125, -0.1829833984, -0.3122558594, 0.2922363281, -0.3811035156, 0.0426940918, -0.1619873047, 0.0482482910, -0.2423095703, 0.1905517578, 0.0408020020, -0.0538940430, 0.0662231445, 0.2331542969, 0.0490722656, 0.0724487305, 0.0667114258, 0.0699462891, 0.0833740234, 0.1128540039, 0.0850830078, -0.0532531738, -0.5366210938, -0.2885742188, 0.1723632812, -0.1710205078, -0.5112304688, 0.1705322266, -0.0854492188, 0.0336608887, -0.3200683594, 0.1617431641, 0.6005859375, -0.1455078125, 0.5136718750, -0.3305664062, 0.6542968750, -0.1197509766, -0.3654785156, 0.3149414062, -0.3337402344, 0.0491638184, -0.5170898438, 0.3166503906, -0.3237304688, 0.2524414062, -1.0244140625, 0.0471801758, 0.3100585938, 0.2663574219, -1.0390625000, -0.0243225098, -0.0181579590, 0.0031089783, 0.0291290283, -0.1207885742, 0.2661132812, -0.2524414062, 0.6352539062, -0.3896484375, -0.3278808594, -0.3332519531, -0.0566406250, -0.1484375000, -0.8139648438, 0.1461181641, -1.1875000000, 0.0401916504, -0.2238769531, 0.1588134766, -0.4936523438, -0.0615844727, 0.0022964478, -0.0023994446, 0.0241699219, -0.0195159912, 0.0852050781, 0.1171264648, 0.3920898438, -0.0597229004, -0.2800292969, -0.0389709473, 0.3522949219, -0.1423339844, -0.5322265625, -0.0856933594, -0.5097656250, -0.0979614258, -0.1513671875, -0.0142517090, -0.1433105469, -0.0031814575, 0.1523437500, -0.0786132812, 0.2890625000, 0.2440185547, 0.2177734375, -0.0266418457};
#endif

#endif
