//Numpy array shape [3, 3, 4, 8]
//Min -1.058593750000
//Max 1.514648437500
//Number of zeros 0

#ifndef W5_H_
#define W5_H_

#ifndef __SYNTHESIS__
model_default_t w5[288];
#else
model_default_t w5[288] = {0.3566894531, 0.3005371094, -0.0371093750, -0.2888183594, 0.5209960938, -0.2622070312, -0.0091018677, 0.1728515625, 0.3242187500, -0.3867187500, -0.0091247559, 0.7773437500, -0.1616210938, -0.3366699219, 0.2230224609, 0.5112304688, -0.1166381836, -0.2052001953, 0.0683593750, -0.0135803223, -0.2199707031, 0.8383789062, -0.4719238281, -0.1207885742, 0.5410156250, 0.3461914062, 0.4104003906, -0.1470947266, 0.3918457031, 0.1671142578, 0.3386230469, -0.0021190643, 0.1259765625, 0.2839355469, 0.0508422852, -0.2419433594, 0.3247070312, 0.0284729004, -0.2587890625, 0.6069335938, -0.2602539062, -0.2174072266, -0.3000488281, 0.7436523438, 0.0088043213, -0.0950317383, 0.4091796875, -0.2880859375, -0.0948486328, -0.0607604980, 0.1994628906, -0.2915039062, 0.0751342773, 0.0075073242, -0.3928222656, -0.3781738281, 0.4389648438, 0.6572265625, -0.2452392578, -0.1679687500, 0.2338867188, 0.1125488281, 0.3107910156, 0.1853027344, -0.3330078125, 0.2169189453, 0.0626220703, -0.1561279297, 0.0335388184, 0.3525390625, -0.2124023438, -0.1439208984, -0.3432617188, 0.0183715820, 0.0196990967, 0.6337890625, 0.1590576172, 0.4140625000, -0.1145019531, 0.4062500000, -0.1019897461, 0.2028808594, 0.3974609375, 0.0854492188, -0.0604553223, 0.5327148438, -0.4328613281, -0.5781250000, -0.2846679688, 0.6293945312, -0.2320556641, -0.0544738770, -0.1322021484, 0.2917480469, 0.1795654297, -0.6166992188, 0.2087402344, -0.2978515625, -0.3937988281, -0.5517578125, -0.1012573242, 0.5581054688, -0.1057739258, 0.1584472656, -0.3625488281, -0.6074218750, 0.3840332031, 0.2111816406, -0.2954101562, -0.8110351562, 0.0861206055, 0.5039062500, 0.2866210938, -0.1322021484, 0.0862426758, 0.3264160156, 0.4455566406, -0.1907958984, 0.2893066406, 0.0438537598, -0.0167083740, 0.2069091797, -0.0374450684, 0.1822509766, -0.2145996094, -0.3859863281, 0.2883300781, 0.2844238281, 0.0606994629, 0.0383605957, -0.8286132812, -0.4541015625, -0.0640869141, 0.1240844727, 0.5654296875, 0.0490112305, -0.2915039062, -0.6064453125, 0.3210449219, 0.6347656250, -0.3845214844, -0.4077148438, -0.2177734375, 0.5351562500, 0.2105712891, 0.2449951172, -0.3825683594, 1.5146484375, 0.5288085938, 0.4797363281, -0.1926269531, -0.4562988281, 0.3986816406, 0.4023437500, -0.3862304688, 0.2387695312, -0.7988281250, 0.3859863281, 0.2158203125, 0.1909179688, -0.0803222656, 0.2558593750, -0.3249511719, -0.2047119141, 0.1000366211, -0.3000488281, 0.4462890625, 0.1156616211, 0.1611328125, -0.0652465820, -1.0410156250, 0.3168945312, -0.3164062500, -0.0143356323, -0.2902832031, 0.3896484375, -0.1890869141, 0.0927124023, 0.1628417969, 0.7724609375, 0.1040039062, 0.4003906250, -0.2829589844, 0.0169219971, -0.1412353516, 0.4658203125, -0.3916015625, -0.1556396484, -0.4204101562, 0.1835937500, 0.1380615234, -0.3881835938, 0.6118164062, -0.3247070312, 0.1571044922, 0.0082321167, -0.6669921875, -0.0294647217, -0.0442810059, -0.1688232422, -0.4914550781, -0.4240722656, 0.3100585938, -0.0246734619, -0.4331054688, -1.0585937500, 0.4238281250, 0.0320434570, 0.4948730469, 0.1673583984, 0.2135009766, -0.1960449219, -0.1547851562, -0.2122802734, -0.1453857422, 0.3071289062, 0.0231628418, -0.6391601562, -0.0548095703, 0.0691528320, -0.3708496094, 0.1363525391, -0.1712646484, 0.2337646484, 0.3085937500, -0.1517333984, 0.1688232422, 0.0653076172, 0.5815429688, -0.5727539062, 1.0849609375, -0.2624511719, -0.7309570312, -0.1473388672, 0.8276367188, 0.3212890625, 0.1621093750, 0.6328125000, -0.8232421875, 0.1503906250, 0.0326538086, -0.2365722656, -0.1104736328, -0.0905151367, -0.2880859375, 0.4946289062, -0.4467773438, 0.6284179688, 0.1072998047, -0.6015625000, 0.0854492188, -0.1007080078, -0.2590332031, 0.6606445312, 0.6289062500, 0.4213867188, 0.6176757812, 0.0114822388, -0.1285400391, 0.3222656250, -0.1593017578, -0.1374511719, 0.3549804688, -0.1201171875, -0.6127929688, -0.4716796875, 0.7456054688, -0.2413330078, 0.0588989258, 0.9853515625, -0.6889648438, 0.4445800781, -0.6376953125, 0.1158447266, -0.2785644531, 0.0027236938, -0.1868896484, 0.3591308594, -0.1710205078, 0.7500000000, -0.0364379883, 0.1083984375, -0.0527343750, 0.2021484375, -0.0534667969, 0.1989746094, 0.7402343750, -0.0493774414};
#endif

#endif
