//Numpy array shape [32, 10]
//Min -1.572265625000
//Max 1.206054687500
//Number of zeros 0

#ifndef W9_H_
#define W9_H_

#ifndef __SYNTHESIS__
model_default_t w9[320];
#else
model_default_t w9[320] = {-0.3188476562, -0.3059082031, -0.2951660156, -0.2768554688, 0.0339355469, -0.3876953125, 1.0009765625, 0.6718750000, -0.1525878906, -0.1773681641, -0.6152343750, 0.0489501953, 0.4091796875, 0.2773437500, -0.2396240234, 0.5156250000, -0.8608398438, -0.1888427734, 0.6176757812, -0.2602539062, -0.2661132812, 0.4821777344, 0.1956787109, -0.4121093750, -0.6103515625, -0.2663574219, -0.5322265625, 0.5366210938, -0.1259765625, -0.7299804688, -0.3352050781, 0.1135864258, 0.2169189453, 0.5644531250, -0.3264160156, -0.5004882812, -1.0996093750, 0.3923339844, -0.0339965820, 0.1650390625, -0.4262695312, -0.1392822266, 0.6606445312, 0.6806640625, -0.3640136719, -0.6762695312, -0.4501953125, 0.6889648438, -1.0107421875, -0.4252929688, 0.0122680664, -0.9257812500, 0.1411132812, -0.2457275391, 0.2354736328, -0.3444824219, -0.2083740234, -0.1488037109, 0.2824707031, 0.5986328125, 0.3161621094, 0.2442626953, -0.6508789062, -0.3947753906, 0.2851562500, 0.5366210938, 0.2030029297, -0.5034179688, -0.2235107422, 0.2066650391, -0.1411132812, -0.0493469238, -0.1411132812, -0.3842773438, 0.2072753906, 0.3156738281, -0.3164062500, 0.1044311523, -0.0183868408, -0.0718994141, 0.2432861328, 0.3322753906, 0.1479492188, 0.4006347656, -0.3901367188, -0.3288574219, 0.0564270020, -0.0892944336, -0.4650878906, 0.2062988281, 0.5830078125, -0.3818359375, 0.5087890625, -0.5405273438, -0.4824218750, -0.0748901367, -1.0380859375, 0.3337402344, -0.2305908203, -0.0312042236, 0.3332519531, 0.1372070312, 0.2517089844, -0.3757324219, -1.3750000000, 0.4460449219, 1.2060546875, -0.1749267578, -0.5332031250, -0.3366699219, 0.2812500000, -0.9262695312, -0.2687988281, -0.3293457031, -1.3847656250, 0.5722656250, -0.3178710938, -0.0717773438, -0.0374145508, 0.1155395508, -0.3505859375, -0.0574340820, -0.2873535156, -0.6831054688, -0.2602539062, 0.1307373047, 0.3151855469, 0.4931640625, -0.9921875000, -0.1416015625, -0.2956542969, -0.1809082031, -0.1673583984, 0.6899414062, -0.2294921875, 0.4008789062, 0.4326171875, 0.0832519531, 0.0011768341, -0.3071289062, -0.0590515137, 0.3776855469, 0.1810302734, -0.1914062500, 0.3220214844, -1.5722656250, -1.0136718750, 0.1679687500, -0.2631835938, -0.4047851562, 0.1453857422, -0.2095947266, -0.2854003906, -0.0006923676, 0.1011962891, 0.2263183594, 0.3032226562, 0.1799316406, -0.0094070435, -0.5034179688, 0.3618164062, 0.3369140625, 0.2308349609, -0.4711914062, 0.2871093750, -0.1485595703, -0.2214355469, 0.0176239014, 0.0540161133, -0.0956420898, 0.3579101562, -0.5615234375, -0.4558105469, -0.3840332031, 0.3757324219, -0.1027221680, 0.4355468750, -0.1561279297, -0.2404785156, 0.5205078125, -0.0204315186, 0.6689453125, -0.9619140625, 0.3798828125, 0.1992187500, 0.2219238281, -0.4060058594, -0.6992187500, -0.2580566406, 0.1240844727, -0.7416992188, -0.3513183594, 0.0545349121, 0.3288574219, 0.4453125000, 0.1781005859, -0.5000000000, 0.3635253906, -0.4641113281, 0.5981445312, -0.3408203125, 0.0935668945, -0.2364501953, 0.2365722656, 0.3261718750, 0.1557617188, -0.8457031250, 0.1133422852, -0.1809082031, 0.3745117188, 0.2963867188, -0.6274414062, -0.2675781250, -0.2259521484, -0.4396972656, -0.1959228516, 0.1533203125, -0.4697265625, 0.4423828125, -0.2431640625, -0.0701904297, -0.1387939453, -0.0411682129, -1.0097656250, -0.3232421875, -0.8579101562, 0.4768066406, -0.0777587891, 0.3417968750, -0.2597656250, 0.6708984375, -0.4506835938, -0.0098114014, 0.1577148438, -0.1282958984, 0.2152099609, 0.4362792969, -1.1884765625, -0.2377929688, -0.0989990234, -1.1464843750, 0.3264160156, -0.5415039062, -0.0681152344, 0.1184692383, 0.0121459961, -0.6708984375, -0.3208007812, 0.1723632812, -0.1568603516, 0.0637817383, -0.2978515625, 0.4890136719, -0.3637695312, 0.0276489258, -0.4965820312, 0.1558837891, -0.0819702148, -0.2182617188, 0.2651367188, -0.4831542969, 1.0947265625, 0.0406799316, -0.0290374756, -0.4423828125, 0.1638183594, -0.2670898438, -0.5576171875, 0.2668457031, -0.5595703125, -0.0687255859, -0.0167388916, 0.2866210938, 0.1364746094, 0.5605468750, -0.0839843750, 0.2766113281, -0.1605224609, 0.2993164062, -0.0996704102, -0.2252197266, 0.2230224609, -0.1700439453, -0.1623535156, 0.2187500000, -0.0513000488, -0.5668945312, 0.7846679688, -0.4343261719, 0.2261962891, -0.1657714844, 0.2636718750, 0.1197509766, 0.2176513672, -0.1798095703, -0.3266601562, -0.0500183105, -0.0124893188, 0.3220214844, -0.2819824219, -0.2788085938, -0.1033935547, -0.6196289062, 0.3176269531, -0.2354736328, 0.5976562500, -0.0682373047, -0.0862426758, -0.1884765625, 0.0565185547, -0.1315917969, 0.1760253906, 0.6206054688, -0.5732421875, 0.0578613281, -0.1374511719, 0.2095947266, -0.2401123047, -0.2258300781, -0.9736328125};
#endif

#endif
