//Numpy array shape [64]
//Min -0.535156250000
//Max 0.462158203125
//Number of zeros 0

#ifndef B10_H_
#define B10_H_

#ifndef __SYNTHESIS__
model_default_t b10[64];
#else
model_default_t b10[64] = {0.1339111328, 0.1594238281, -0.1267089844, -0.0733642578, 0.0980224609, -0.0736083984, -0.1488037109, -0.2041015625, -0.2094726562, -0.0061187744, -0.0944213867, 0.0101013184, 0.3754882812, -0.2031250000, 0.2448730469, 0.1571044922, -0.0114135742, -0.1925048828, 0.1099853516, -0.2636718750, -0.1577148438, -0.4689941406, -0.0621337891, -0.3247070312, 0.1663818359, -0.2158203125, 0.2144775391, 0.0333862305, 0.0993041992, 0.0095138550, -0.2770996094, -0.2080078125, -0.0079956055, -0.0639038086, 0.4621582031, 0.0557250977, -0.1568603516, -0.3515625000, 0.2866210938, -0.1486816406, -0.0179901123, -0.1832275391, 0.1977539062, -0.0997924805, 0.0526428223, -0.1420898438, -0.0877075195, 0.0304870605, -0.0105743408, 0.0792846680, -0.1254882812, -0.0364990234, 0.1159667969, -0.1533203125, -0.0995483398, -0.2271728516, -0.5351562500, 0.1213378906, 0.3085937500, -0.0479736328, 0.1740722656, 0.2023925781, 0.2006835938, -0.1082153320};
#endif

#endif
