//Numpy array shape [128]
//Min -0.034484863281
//Max 0.042388916016
//Number of zeros 0

#ifndef B2_H_
#define B2_H_

#ifndef __SYNTHESIS__
model_default_t b2[128];
#else
model_default_t b2[128] = {-0.0252685547, 0.0213928223, 0.0213165283, 0.0354614258, 0.0260620117, -0.0302429199, -0.0283966064, -0.0283050537, -0.0253753662, -0.0008082390, -0.0306701660, 0.0215911865, 0.0327758789, 0.0377197266, 0.0083999634, -0.0318298340, 0.0122756958, 0.0351257324, 0.0338745117, -0.0204315186, 0.0347290039, 0.0159912109, -0.0233764648, 0.0246429443, 0.0259857178, 0.0367736816, -0.0214385986, -0.0277404785, 0.0319519043, -0.0065536499, 0.0321044922, -0.0334472656, 0.0158691406, -0.0228881836, -0.0141448975, -0.0235748291, 0.0266571045, 0.0317687988, 0.0115356445, 0.0251159668, -0.0289154053, -0.0329284668, -0.0204315186, 0.0363464355, 0.0231781006, 0.0344848633, 0.0360107422, -0.0344848633, 0.0372314453, -0.0043830872, 0.0285949707, 0.0273284912, -0.0133819580, 0.0190277100, 0.0174560547, 0.0094375610, 0.0423889160, 0.0002546310, 0.0368957520, 0.0386657715, 0.0317993164, 0.0178680420, -0.0200195312, 0.0386962891, 0.0318908691, -0.0296020508, 0.0014410019, 0.0275726318, 0.0300445557, -0.0244903564, 0.0307769775, 0.0147552490, -0.0290527344, 0.0384521484, 0.0350036621, 0.0341186523, -0.0204010010, 0.0258941650, 0.0138320923, -0.0265350342, 0.0193481445, 0.0238037109, -0.0313110352, -0.0290679932, -0.0276794434, 0.0380859375, -0.0267791748, -0.0317382812, 0.0319824219, 0.0356445312, -0.0112915039, 0.0378417969, -0.0162658691, 0.0280151367, 0.0350036621, -0.0200958252, 0.0038967133, 0.0249023438, -0.0173187256, -0.0239105225, 0.0329589844, 0.0238647461, -0.0309753418, 0.0057449341, 0.0237274170, 0.0172729492, 0.0290374756, -0.0301818848, 0.0365295410, 0.0343017578, -0.0204620361, -0.0109252930, 0.0330200195, 0.0149765015, -0.0192565918, 0.0289916992, -0.0239562988, -0.0260925293, -0.0081329346, -0.0279846191, 0.0290374756, -0.0171051025, 0.0335998535, -0.0006589890, 0.0214385986, -0.0023651123, -0.0239715576, 0.0279998779};
#endif

#endif
