//Numpy array shape [3, 3, 32, 1]
//Min -0.204589843750
//Max 0.212646484375
//Number of zeros 0

#ifndef W10_H_
#define W10_H_

#ifndef __SYNTHESIS__
model_default_t w10[288];
#else
model_default_t w10[288] = {-0.6785222888, -0.3891207278, -0.4916142523, -0.3074769378, -0.3336127102, -0.2670419216, -0.2667602599, -0.2090005726, -0.5718932152, -0.1194153577, -0.4157156944, -0.3317818940, -0.2290568501, -0.8193553090, -0.2096607834, -0.9888332486, -0.2305931598, -0.7333987355, -0.2307463288, -0.5327213407, -0.1804231703, -0.8172600865, -0.5628910065, -0.2434898168, -1.0556768179, -0.3333622813, -0.7293828726, -0.2852495015, -0.3979729116, -0.1498059332, -0.5216284394, -0.3784031570, 0.6649830937, 0.3813562393, 0.4818046093, 0.3013415635, 0.3269558251, 0.2617133856, 0.2614373267, 0.2048301846, 0.5604816675, 0.1170325503, 0.4074205160, 0.3251615465, 0.2244862616, 0.8030059338, 0.2054772228, 0.9691020846, 0.2259919196, 0.7187645435, 0.2261420339, 0.5220914483, 0.1768230200, 0.8009525537, 0.5516591072, 0.2386312336, 1.0346119404, 0.3267103732, 0.7148287892, 0.2795576453, 0.3900317848, 0.1468167156, 0.5112198591, 0.3708525002, 0.1424219906, 0.0816765353, 0.1031899452, 0.0645394847, 0.0700253844, 0.0560521632, 0.0559930392, 0.0438692681, 0.1200405210, 0.0250653122, 0.0872588158, 0.0696410984, 0.0480790883, 0.1719828695, 0.0440078452, 0.2075563222, 0.0484015569, 0.1539405733, 0.0484337099, 0.1118183360, 0.0378708653, 0.1715430915, 0.1181509495, 0.0511085689, 0.2215868235, 0.0699728206, 0.1530976295, 0.0598739348, 0.0835346058, 0.0314443000, 0.1094899252, 0.0794269070, -1.2560213804, -0.7203063965, -0.9100334644, -0.5691745281, -0.6175547838, -0.4943247437, -0.4938033521, -0.3868836462, -1.0586388111, -0.2210513055, -0.7695366144, -0.6141657233, -0.4240100980, -1.5167191029, -0.3881057501, -1.8304418325, -0.4268539548, -1.3576037884, -0.4271374941, -0.9861273170, -0.3339836299, -1.5128406286, -1.0419747829, -0.4507271051, -1.9541770220, -0.6170911789, -1.3501700163, -0.5280290246, -0.7366927266, -0.2773076892, -0.9655930996, -0.7004669309, 0.3257219493, 0.1867958754, 0.2359974831, 0.1476030946, 0.1601494700, 0.1281924248, 0.1280572116, 0.1003298983, 0.2745350897, 0.0573248714, 0.1995626688, 0.1592705846, 0.1099578366, 0.3933282793, 0.1006468311, 0.4746854901, 0.1106953397, 0.3520651758, 0.1107688621, 0.2557307780, 0.0866114274, 0.3923224807, 0.2702136040, 0.1168863252, 0.5067735314, 0.1600292474, 0.3501373529, 0.1369328946, 0.1910453141, 0.0719137490, 0.2504056692, 0.1816509366, 0.7826700211, 0.4488476515, 0.5670731068, 0.3546721935, 0.3848195672, 0.3080307245, 0.3077058196, 0.2410804778, 0.6596742272, 0.1377446502, 0.4795247018, 0.3827077448, 0.2642152309, 0.9451197386, 0.2418420166, 1.1406111717, 0.2659873664, 0.8459695578, 0.2661640346, 0.6144897938, 0.2081166655, 0.9427029490, 0.6492902040, 0.2808635533, 1.2177147865, 0.3845306933, 0.8413372636, 0.3290329874, 0.4590585530, 0.1727999449, 0.6016941667, 0.4364849925, -0.8810896277, -0.5052895546, -0.6383816600, -0.3992716670, -0.4332100451, -0.3467651010, -0.3463993669, -0.2713959813, -0.7426272631, -0.1550658345, -0.5398241878, -0.4308326840, -0.2974399030, -1.0639671087, -0.2722533047, -1.2840412855, -0.2994348705, -0.9523489475, -0.2996337712, -0.6917609572, -0.2342870384, -1.0612463951, -0.7309374809, -0.3161817193, -1.3708405495, -0.4328848422, -0.9471341372, -0.3704084158, -0.5167844892, -0.1945292652, -0.6773563623, -0.4913723171, 1.1143804789, 0.6390777826, 0.8074094653, 0.5049890280, 0.5479134321, 0.4385799766, 0.4381173849, 0.3432549834, 0.9392567277, 0.1961234659, 0.6827563643, 0.5449065566, 0.3761946857, 1.3456795216, 0.3443392813, 1.6240239143, 0.3787178695, 1.2045075893, 0.3789694309, 0.8749222159, 0.2963204682, 1.3422384262, 0.9244717956, 0.3998988569, 1.7338054180, 0.5475021005, 1.1979119778, 0.4684834480, 0.6536163092, 0.2460358441, 0.8567036390, 0.6214756370, -0.9701359272, -0.5563560724, -0.7028989792, -0.4396235943, -0.4769919217, -0.3818105161, -0.3814077973, -0.2988243103, -0.8176800013, -0.1707373857, -0.5943809152, -0.4743742645, -0.3275003135, -1.1714957952, -0.2997682691, -1.4138114452, -0.3296968937, -1.0485969782, -0.3299159110, -0.7616729736, -0.2579649687, -1.1685000658, -0.8048088551, -0.3481362462, -1.5093829632, -0.4766338468, -1.0428551435, -0.4078432918, -0.5690127015, -0.2141891420, -0.7458125353, -0.5410322547, 1.7944650650, 1.0290944576, 1.3001556396, 0.8131738901, 0.8822942376, 0.7062367797, 0.7054918408, 0.5527367592, 1.5124666691, 0.3158137500, 1.0994292498, 0.8774523735, 0.6057789326, 2.1669213772, 0.5544827580, 2.6151337624, 0.6098419428, 1.9395948648, 0.6102470160, 1.4088701010, 0.4771590531, 2.1613800526, 1.4886587858, 0.6439492702, 2.7919127941, 0.8816319108, 1.9289741516, 0.7543897033, 1.0525054932, 0.3961866796, 1.3795330524, 1.0007499456, 0.8774444461, 0.5031991005, 0.6357406378, 0.3976198435, 0.4314178228, 0.3453305066, 0.3449662626, 0.2702731788, 0.7395549417, 0.1544243097, 0.5375908613, 0.4290502667, 0.2962093651, 1.0595654249, 0.2711269557, 1.2787290812, 0.2981960773, 0.9484089613, 0.2983941436, 0.6888990402, 0.2333177626, 1.0568559170, 0.7279134989, 0.3148736358, 1.3651692867, 0.4310939610, 0.9432157278, 0.3688759804, 0.5146464705, 0.1937244833, 0.6745540500, 0.4893394411, 0.1730153859, 0.0992213115, 0.1253559738, 0.0784030855, 0.0850673988, 0.0680926144, 0.0680207983, 0.0532927401, 0.1458261907, 0.0304495431, 0.1060027108, 0.0846005678, 0.0584068634, 0.2089261711, 0.0534610860, 0.2521410882, 0.0587986037, 0.1870082468, 0.0588376597, 0.1358378083, 0.0460058302, 0.2083919197, 0.1435307264, 0.0620871000, 0.2691854537, 0.0850035399, 0.1859842390, 0.0727353394, 0.1014785096, 0.0381987877, 0.1330092400, 0.0964884460, 0.3002057672, 0.1721627861, 0.2175100744, 0.1360402554, 0.1476037800, 0.1181501672, 0.1180255488, 0.0924703255, 0.2530287206, 0.0528341942, 0.1839294583, 0.1467937529, 0.1013440341, 0.3625159860, 0.0927624255, 0.4374998808, 0.1020237580, 0.3244853318, 0.1020915285, 0.2356975079, 0.0798265189, 0.3615889847, 0.2490457892, 0.1077297628, 0.4670742154, 0.1474929750, 0.3227085471, 0.1262059361, 0.1760793328, 0.0662802160, 0.2307895571, 0.1674208790, 0.9071265459, 0.5202212930, 0.6572464108, 0.4110704958, 0.4460117817, 0.3570123017, 0.3566357493, 0.2794159651, 0.7645725012, 0.1596481651, 0.5557764769, 0.4435641468, 0.3062295020, 1.0954082012, 0.2802985907, 1.3219857216, 0.3082834184, 0.9804916382, 0.3084881902, 0.7122030854, 0.2412104011, 1.0926071405, 0.7525373101, 0.3255251348, 1.4113500118, 0.4456769526, 0.9751227498, 0.3813542724, 0.5320558548, 0.2002777755, 0.6973727942, 0.5058927536, -1.6642804146, -0.9544358253, -1.2058321238, -0.7541798353, -0.8182856441, -0.6550007463, -0.6543098688, -0.5126368403, -1.4027403593, -0.2929021418, -1.0196679831, -0.8137950301, -0.5618309379, -2.0097157955, -0.5142562389, -2.4254112244, -0.5655992031, -1.7988814116, -0.5659748912, -1.3066595793, -0.4425421655, -2.0045766830, -1.3806596994, -0.5972321033, -2.5893654823, -0.8176713586, -1.7890311480, -0.6996603012, -0.9761484265, -0.3674441874, -1.2794508934, -0.9281476736, 1.5736718178, 0.9024734497, 1.1401828527, 0.7131199837, 0.7737357020, 0.6193405390, 0.6186872721, 0.4847273529, 1.3263709545, 0.2769556642, 0.9641541243, 0.7694895864, 0.5312431455, 1.9003006220, 0.4862585366, 2.2933645248, 0.5348062515, 1.7009447813, 0.5351614952, 1.2355210781, 0.4184488356, 1.8954412937, 1.3054924011, 0.5647169948, 2.4483926296, 0.7731548548, 1.6916308403, 0.6615687013, 0.9230039120, 0.3474394083, 1.2097936869, 0.8776165247, -1.0170023441, -0.5832331777, -0.7368554473, -0.4608614743, -0.5000349879, -0.4002554715, -0.3998332918, -0.3132602572, -0.8571814895, -0.1789855659, -0.6230949759, -0.4972909093, -0.3433215916, -1.2280896902, -0.3142498136, -1.4821114540, -0.3456242979, -1.0992538929, -0.3458538651, -0.7984687686, -0.2704270482, -1.2249493599, -0.8436884880, -0.3649544120, -1.5823000669, -0.4996596575, -1.0932346582, -0.4275458753, -0.5965012312, -0.2245364487, -0.7818421721, -0.5671691298, -1.7226030827, -0.9878829122, -1.2480890751, -0.7806091905, -0.8469614983, -0.6779544950, -0.6772394180, -0.5306016207, -1.4518977404, -0.3031665385, -1.0554009676, -0.8423135281, -0.5815196633, -2.0801439285, -0.5322777033, -2.5104069710, -0.5854199529, -1.8619210720, -0.5858088136, -1.3524498940, -0.4580505192, -2.0748245716, -1.4290432930, -0.6181613803, -2.6801066399, -0.8463256955, -1.8517255783, -0.7241790891, -1.0103564262, -0.3803208172, -1.3242876530, -0.9606735110, 1.3049707413, 0.7483780384, 0.9454991221, 0.5913562775, 0.6416220069, 0.5135894418, 0.5130477548, 0.4019612074, 1.0998959541, 0.2296660691, 0.7995268703, 0.6381008625, 0.4405345321, 1.5758284330, 0.4032309353, 1.9017775059, 0.4434892237, 1.4105120897, 0.4437838197, 1.0245584249, 0.3469995856, 1.5717988014, 1.0825823545, 0.4682927728, 2.0303347111, 0.6411403418, 1.4027885199, 0.5486072302, 0.7654029727, 0.2881148756, 1.0032240152, 0.7277653813, -2.2725028992, -1.3032408953, -1.6465116739, -1.0298000574, -1.1173337698, -0.8943752646, -0.8934319019, -0.6999834776, -1.9153814316, -0.3999452293, -1.3923125267, -1.1112020016, -0.7671558857, -2.7441799641, -0.7021946907, -3.3117945194, -0.7723012567, -2.4562947750, -0.7728142738, -1.7841871977, -0.6042722464, -2.7371628284, -1.8852312565, -0.8154946566, -3.5356667042, -1.1164950132, -2.4428448677, -0.9553559422, -1.3328884840, -0.5017291307, -1.7470349073, -1.2673455477, -1.8340411186, -1.0517907143, -1.3288300037, -0.8311080933, -0.9017528296, -0.7218124866, -0.7210511565, -0.5649271011, -1.5458234549, -0.3227788806, -1.1236766577, -0.8968041539, -0.6191390753, -2.2147116661, -0.5667116642, -2.6728093624, -0.6232917309, -1.9823718071, -0.6237057447, -1.4399421215, -0.4876825809, -2.2090485096, -1.5214904547, -0.6581512690, -2.8534872532, -0.9010758996, -1.9715168476, -0.7710274458, -1.0757180452, -0.4049243927, -1.4099580050, -1.0228210688, 0.6878955960, 0.3944961727, 0.4984055758, 0.3117245138, 0.3382213414, 0.2707309127, 0.2704453468, 0.2118877620, 0.5797935128, 0.1210649982, 0.4214584827, 0.3363652229, 0.2322211117, 0.8306741118, 0.2125570923, 1.0024932623, 0.2337786406, 0.7435301542, 0.2339339256, 0.5400804877, 0.1829155833, 0.8285499811, 0.5706669092, 0.2468534559, 1.0702602863, 0.3379674256, 0.7394587398, 0.2891900241, 0.4034706056, 0.1518753916, 0.5288343430, 0.3836305141, 2.9432141781, 1.6878821850, 2.1324665546, 1.3337373734, 1.4471058846, 1.1583430767, 1.1571213007, 0.9065780640, 2.4806909561, 0.5179858804, 1.8032425642, 1.4391644001, 0.9935758710, 3.5541031361, 0.9094418287, 4.2892441750, 1.0002398491, 3.1812508106, 1.0009043217, 2.3107759953, 0.7826184034, 3.5450146198, 2.4416422844, 1.0561814308, 4.5791907310, 1.4460196495, 3.1638309956, 1.2373217344, 1.7262799740, 0.6498105526, 2.2626583576, 1.6413925886, -2.1454427242, -1.2303740978, -1.5544518232, -0.9722218513, -1.0548614264, -0.8443689346, -0.8434783220, -0.6608459949, -1.8082885742, -0.3775834739, -1.3144655228, -1.0490725040, -0.7242626548, -2.5907473564, -0.6629335284, -3.1266252995, -0.7291203737, -2.3189585209, -0.7296046615, -1.6844297647, -0.5704861283, -2.5841224194, -1.7798241377, -0.7698987126, -3.3379805088, -1.0540695190, -2.3062603474, -0.9019401073, -1.2583640814, -0.4736764729, -1.6493546963, -1.1964857578, 2.4974620342, 1.4322509766, 1.8095027208, 1.1317417622, 1.2279405594, 0.9829110503, 0.9818742871, 0.7692760825, 2.1049883366, 0.4395365119, 1.5301400423, 1.2212017775, 0.8430979848, 3.0158312321, 0.7717061639, 3.6396348476, 0.8487527370, 2.6994478703, 0.8493165374, 1.9608070850, 0.6640902162, 3.0081193447, 2.0718536377, 0.8962219357, 3.8856687546, 1.2270187140, 2.6846663952, 1.0499283075, 1.4648334980, 0.5513961911, 1.9199769497, 1.3928023577, 1.8819490671, 1.0792649984, 1.3635410070, 0.8528178930, 0.9253079891, 0.7406673431, 0.7398861051, 0.5796838403, 1.5862026215, 0.3312103748, 1.1530287266, 0.9202300906, 0.6353119612, 2.2725634575, 0.5815150142, 2.7426271439, 0.6395730376, 2.0341544151, 0.6399978995, 1.4775556326, 0.5004215837, 2.2667522430, 1.5612341166, 0.6753432155, 2.9280247688, 0.9246134162, 2.0230157375, 0.7911678553, 1.1038174629, 0.4155016541, 1.4467883110, 1.0495387316, 2.4453880787, 1.4023876190, 1.7717733383, 1.1081440449, 1.2023371458, 0.9624166489, 0.9614015222, 0.7532361150, 2.0610978603, 0.4303718507, 1.4982354641, 1.1957389116, 0.8255187869, 2.9529490471, 0.7556155324, 3.5637457371, 0.8310556412, 2.6431622505, 0.8316076398, 1.9199228287, 0.6502434611, 2.9453978539, 2.0286538601, 0.8775350451, 3.8046498299, 1.2014346123, 2.6286890507, 1.0280365944, 1.4342906475, 0.5398992300, 1.8799440861, 1.3637614250, -0.0191371422, -0.0109748179, -0.0138655594, -0.0086721247, -0.0094092609, -0.0075316890, -0.0075237448, -0.0058946824, -0.0161297582, -0.0033680080, -0.0117249051, -0.0093576247, -0.0064603528, -0.0231092162, -0.0059133028, -0.0278891940, -0.0065036830, -0.0206848849, -0.0065080030, -0.0150249498, -0.0050886809, -0.0230501220, -0.0158758592, -0.0068674218, -0.0297744628, -0.0094021978, -0.0205716193, -0.0080452180, -0.0112244850, -0.0042251484, -0.0147120832, -0.0106725367, -0.4697061777, -0.2693683207, -0.3403193057, -0.2128505111, -0.2309429497, -0.1848594099, -0.1846644282, -0.1446803659, -0.3958923221, -0.0826651230, -0.2877786160, -0.2296755761, -0.1585642993, -0.5671976209, -0.1451373994, -0.6845184565, -0.1596278101, -0.5076943040, -0.1597338468, -0.3687756360, -0.1248976961, -0.5657472014, -0.3896605372, -0.1685554981, -0.7307909131, -0.2307695895, -0.5049142838, -0.1974635869, -0.2754962146, -0.1037029549, -0.3610965908, -0.2619490623, 1.9340229034, 1.1091284752, 1.4012703896, 0.8764154911, 0.9509114623, 0.7611617446, 0.7603588700, 0.5957238078, 1.6300932169, 0.3403750062, 1.1849333048, 0.9456930161, 0.6528911591, 2.3354456425, 0.5976056457, 2.8185162544, 0.6572701335, 2.0904397964, 0.6577067375, 1.5184397697, 0.5142683387, 2.3294734955, 1.6044337749, 0.6940300465, 3.0090436935, 0.9501975775, 2.0789930820, 0.8130595684, 1.1343601942, 0.4269986451, 1.4868211746, 1.0785796642, 1.6361604929, 0.9383095503, 1.1854581833, 0.7414371371, 0.8044598103, 0.6439337730, 0.6432545781, 0.5039752722, 1.3790395260, 0.2879532278, 1.0024394989, 0.8000450730, 0.5523381829, 1.9757593870, 0.5055673122, 2.3844313622, 0.5560427904, 1.7684872150, 0.5564121008, 1.2845821381, 0.4350649118, 1.9707070589, 1.3573319912, 0.5871412158, 2.5456151962, 0.8038558960, 1.7588034868, 0.6878387928, 0.9596552849, 0.3612357974, 1.2578331232, 0.9124656320, 0.8670296669, 0.4972264171, 0.6281947494, 0.3929003179, 0.4262971282, 0.3412316144, 0.3408717215, 0.2670651972, 0.7307768464, 0.1525913924, 0.5312100053, 0.4239576757, 0.2926935256, 1.0469889641, 0.2679088116, 1.2635512352, 0.2946566641, 0.9371519089, 0.2948523760, 0.6807222366, 0.2305484116, 1.0443116426, 0.7192736268, 0.3111362457, 1.3489654064, 0.4259771109, 0.9320203066, 0.3644976318, 0.5085378885, 0.1914250851, 0.6665474772, 0.4835312665, -0.4387222230, -0.2515995502, -0.3178703189, -0.1988099217, -0.2157089114, -0.1726652533, -0.1724831313, -0.1351365894, -0.3697774708, -0.0772121549, -0.2687954307, -0.2145251334, -0.1481046826, -0.5297827125, -0.1355634779, -0.6393645406, -0.1490980387, -0.4742044806, -0.1491970718, -0.3444495201, -0.1166588813, -0.5284279585, -0.3639567494, -0.1574368179, -0.6825846434, -0.2155469805, -0.4716078639, -0.1844379902, -0.2573232353, -0.0968622416, -0.3372770250, -0.2446697205, -2.7724120617, -1.5899300575, -2.0087139606, -1.2563371658, -1.3631266356, -1.0911214352, -1.0899705887, -0.8539670110, -2.3367302418, -0.4879258573, -1.6985957623, -1.3556460142, -0.9359161258, -3.3478493690, -0.8566645980, -4.0403285027, -0.9421933889, -2.9966347218, -0.9428192377, -2.1766757965, -0.7372010350, -3.3392884731, -2.2999475002, -0.9948885441, -4.3134489059, -1.3621033430, -2.9802258015, -1.1655167341, -1.6260995865, -0.6121003628, -2.1313505173, -1.5461384058, -0.1689796597, -0.0969068930, -0.1224319488, -0.0765742660, -0.0830831379, -0.0665042996, -0.0664341524, -0.0520496443, -0.1424246728, -0.0297392812, -0.1035301164, -0.0826271847, -0.0570444763, -0.2040528059, -0.0522140637, -0.2462596893, -0.0574270785, -0.1826461256, -0.0574652217, -0.1326692849, -0.0449327081, -0.2035310119, -0.1401827484, -0.0606388673, -0.2629064918, -0.0830207616, -0.1816460043, -0.0710387304, -0.0991114378, -0.0373077728, -0.1299066991, -0.0942377746, -2.9078040123, -1.6675750017, -2.1068105698, -1.3176909685, -1.4296956062, -1.1444067955, -1.1431998014, -0.8956708908, -2.4508454800, -0.5117539167, -1.7815475464, -1.4218496084, -0.9816220403, -3.5113430023, -0.8985002041, -4.2376399040, -0.9882058501, -3.1429767609, -0.9888622761, -2.2829747200, -0.7732025981, -3.5023641586, -2.4122664928, -1.0434744358, -4.5240979195, -1.4286223650, -3.1257665157, -1.2224353552, -1.7055108547, -0.6419925690, -2.2354359627, -1.6216447353, -0.3934179544, -0.2256183624, -0.2850457132, -0.1782799959, -0.1934339255, -0.1548351347, -0.1546718180, -0.1211818382, -0.3315927386, -0.0692389160, -0.2410385311, -0.1923723966, -0.1328107864, -0.4750751555, -0.1215646341, -0.5733411312, -0.1337015629, -0.4252361953, -0.1337903738, -0.3088802695, -0.1046122089, -0.4738603234, -0.3263731003, -0.1411792487, -0.6120981574, -0.1932887137, -0.4229077101, -0.1653921753, -0.2307509780, -0.0868598521, -0.3024484217, -0.2194041312, -1.6861513853, -0.9669784904, -1.2216783762, -0.7640908360, -0.8290390968, -0.6636084318, -0.6629084349, -0.5193736553, -1.4211744070, -0.2967512906, -1.0330678225, -0.8244894743, -0.5692142248, -2.0361263752, -0.5210142732, -2.4572846889, -0.5730319619, -1.8225212097, -0.5734125972, -1.3238309622, -0.4483577907, -2.0309195518, -1.3988035917, -0.6050806046, -2.6233935356, -0.8284167647, -1.8125416040, -0.7088548541, -0.9889764190, -0.3722729087, -1.2962646484, -0.9403448701, -0.5056371093, -0.2899740934, -0.3663526177, -0.2291328609, -0.2486093193, -0.1990005523, -0.1987906545, -0.1557479352, -0.4261767566, -0.0889887288, -0.3097927272, -0.2472449839, -0.1706939489, -0.6105863452, -0.1562399268, -0.7368818521, -0.1718388051, -0.5465312004, -0.1719529480, -0.3969857395, -0.1344519556, -0.6090250015, -0.4194682837, -0.1814494282, -0.7866939902, -0.2484226972, -0.5435385704, -0.2125688940, -0.2965707481, -0.1116358861, -0.3887192607, -0.2819873095, 1.8746587038, 1.0750842094, 1.3582589626, 0.8495141864, 0.9217235446, 0.7377980947, 0.7370198965, 0.5774382949, 1.5800579786, 0.3299273252, 1.1485621929, 0.9166652560, 0.6328508854, 2.2637598515, 0.5792623162, 2.7320027351, 0.6370954514, 2.0262744427, 0.6375186443, 1.4718317986, 0.4984830320, 2.2579710484, 1.5551861525, 0.6727270484, 2.9166820049, 0.9210315943, 2.0151791573, 0.7881029844, 1.0995414257, 0.4138920605, 1.4411836863, 1.0454729795, -0.0134252906, -0.0076991706, -0.0097271148, -0.0060837609, -0.0066008847, -0.0052837105, -0.0052781375, -0.0041352999, -0.0113155199, -0.0023627607, -0.0082253795, -0.0065646600, -0.0045321351, -0.0162118226, -0.0041483631, -0.0195651241, -0.0045625325, -0.0145110795, -0.0045655631, -0.0105404621, -0.0035698656, -0.0161703657, -0.0111374008, -0.0048177065, -0.0208876971, -0.0065959296, -0.0144316209, -0.0056439666, -0.0078743203, -0.0029640708, -0.0103209773, -0.0074871113, 2.2870836258, 1.3116027117, 1.6570758820, 1.0364073515, 1.1245026588, 0.9001137018, 0.8991642594, 0.7044746876, 1.9276707172, 0.4025113285, 1.4012458324, 1.1183316708, 0.7720780373, 2.7617871761, 0.7067000270, 3.3330433369, 0.7772564888, 2.4720547199, 0.7777727246, 1.7956348658, 0.6081492901, 2.7547247410, 1.8973271847, 0.8207269907, 3.5583522320, 1.1236585379, 2.4585185051, 0.9614856839, 1.3414405584, 0.5049483180, 1.7582441568, 1.2754770517, 2.0225484371, 1.1598963737, 1.4654104710, 0.9165314436, 0.9944372773, 0.7960022092, 0.7951626182, 0.6229917407, 1.7047070265, 0.3559549153, 1.2391709089, 0.9889799356, 0.6827757955, 2.4423453808, 0.6249597073, 2.9475274086, 0.6873552203, 2.1861248016, 0.6878117919, 1.5879429579, 0.5378078222, 2.4361000061, 1.6778731346, 0.7257977128, 3.1467759609, 0.9936907887, 2.1741542816, 0.8502755761, 1.1862829924, 0.4465435445, 1.5548770428, 1.1279492378, 0.5207385421, 0.2986344993, 0.3772941530, 0.2359761745, 0.2560343146, 0.2049439251, 0.2047277540, 0.1603995115, 0.4389050007, 0.0916464776, 0.3190450370, 0.2546292245, 0.1757919043, 0.6288222075, 0.1609061956, 0.7588896751, 0.1769709587, 0.5628539920, 0.1770885140, 0.4088421762, 0.1384675056, 0.6272141933, 0.4319961667, 0.1868686229, 0.8101894855, 0.2558421195, 0.5597719550, 0.2189175040, 0.3054281771, 0.1149700209, 0.4003288150, 0.2904091775, 0.7149739861, 0.4100251496, 0.5180248618, 0.3239952922, 0.3515351117, 0.2813880146, 0.2810912132, 0.2202285379, 0.6026165485, 0.1258306205, 0.4380488396, 0.3496059477, 0.2413622886, 0.8633728623, 0.2209242135, 1.0419554710, 0.2429811358, 0.7727985382, 0.2431425303, 0.5613402724, 0.1901158988, 0.8611651063, 0.5931307077, 0.2565706074, 1.1123901606, 0.3512712121, 0.7685669065, 0.3005737364, 0.4193528891, 0.1578538418, 0.5496514440, 0.3987317979, 0.1476293802, 0.0846628770, 0.1069628894, 0.0668992475, 0.0725857243, 0.0581016019, 0.0580403171, 0.0454732627, 0.1244295686, 0.0259817764, 0.0904492661, 0.0721873865, 0.0498370044, 0.1782710850, 0.0456169099, 0.2151452154, 0.0501712672, 0.1595691144, 0.0502045937, 0.1159067526, 0.0392555408, 0.1778152287, 0.1224709079, 0.0529772565, 0.2296887189, 0.0725312382, 0.1586953551, 0.0620631129, 0.0865888894, 0.0325939991, 0.1134932190, 0.0823310018, 0.6753978729, 0.3873289227, 0.4893504977, 0.3060610890, 0.3320764899, 0.2658122778, 0.2655318975, 0.2080381811, 0.5692597628, 0.1188654825, 0.4138014019, 0.3302541077, 0.2280021012, 0.8155823946, 0.2086953372, 0.9842798710, 0.2295313329, 0.7300216556, 0.2296838015, 0.5302683115, 0.1795923710, 0.8134968281, 0.5602990389, 0.2423686087, 1.0508157015, 0.3318272233, 0.7260242105, 0.2839359939, 0.3961403370, 0.1491161138, 0.5192264318, 0.3766606748, 1.8819490671, 1.0792649984, 1.3635410070, 0.8528178930, 0.9253079891, 0.7406673431, 0.7398861051, 0.5796838403, 1.5862026215, 0.3312103748, 1.1530287266, 0.9202300906, 0.6353119612, 2.2725634575, 0.5815150142, 2.7426271439, 0.6395730376, 2.0341544151, 0.6399978995, 1.4775556326, 0.5004215837, 2.2667522430, 1.5612341166, 0.6753432155, 2.9280247688, 0.9246134162, 2.0230157375, 0.7911678553, 1.1038174629, 0.4155016541, 1.4467883110, 1.0495387316, -0.1761398166, -0.1010131165, -0.1276197433, -0.0798189417, -0.0866036043, -0.0693222806, -0.0692491606, -0.0542551391, -0.1484596133, -0.0309994202, -0.1079169810, -0.0861283392, -0.0594616123, -0.2126991004, -0.0544265211, -0.2566944361, -0.0598604269, -0.1903853565, -0.0599001907, -0.1382908672, -0.0468366370, -0.2121552080, -0.1461226940, -0.0632083118, -0.2740465999, -0.0865385905, -0.1893428713, -0.0740488470, -0.1033110768, -0.0388886072, -0.1354112178, -0.0982308984, 1.2383162975, 0.7101528049, 0.8972054720, 0.5611513257, 0.6088495851, 0.4873566329, 0.4868426025, 0.3814300597, 1.0437160730, 0.2179353237, 0.7586891055, 0.6055083275, 0.4180331528, 1.4953391552, 0.3826349378, 1.8046395779, 0.4208369553, 1.3384667635, 0.4211164713, 0.9722266793, 0.3292757571, 1.4915153980, 1.0272868872, 0.4443735778, 1.9266304970, 0.6083925366, 1.3311376572, 0.5205858350, 0.7263081670, 0.2733986974, 0.9519819021, 0.6905930042, 0.7488220334, 0.4294363856, 0.5425489545, 0.3393337429, 0.3681773543, 0.2947093546, 0.2943985164, 0.2306545079, 0.6311454177, 0.1317876279, 0.4587867558, 0.3661568463, 0.2527887523, 0.9042463303, 0.2313831151, 1.0912833214, 0.2544842362, 0.8093840480, 0.2546532750, 0.5879150629, 0.1991162896, 0.9019340277, 0.6212104559, 0.2687170804, 1.1650524139, 0.3679009676, 0.8049520850, 0.3148033619, 0.4392057061, 0.1653268933, 0.5756728053, 0.4176083803, 0.1697607636, 0.0973548442, 0.1229978874, 0.0769282281, 0.0834671855, 0.0668117180, 0.0667412505, 0.0522902422, 0.1430830359, 0.0298767518, 0.1040086821, 0.0830091313, 0.0573081635, 0.2049960345, 0.0524554215, 0.2473980337, 0.0576925352, 0.1834903955, 0.0577308573, 0.1332825422, 0.0451404080, 0.2044718266, 0.1408307552, 0.0609191693, 0.2641217709, 0.0834045261, 0.1824856550, 0.0713671073, 0.0995695814, 0.0374802276, 0.1305071861, 0.0946733877, 1.8975712061, 1.0882240534, 1.3748598099, 0.8598971963, 0.9329890609, 0.7468156219, 0.7460279465, 0.5844958425, 1.5993697643, 0.3339597583, 1.1626001596, 0.9278689623, 0.6405857205, 2.2914280891, 0.5863422155, 2.7653939724, 0.6448822021, 2.0510399342, 0.6453105211, 1.4898208380, 0.5045756102, 2.2855684757, 1.5741939545, 0.6809492707, 2.9523303509, 0.9322886467, 2.0398089886, 0.7977353930, 1.1129802465, 0.4189507365, 1.4587981701, 1.0582510233, 3.1577584743, 1.8109195232, 2.2879116535, 1.4309594631, 1.5525920391, 1.2427799702, 1.2414691448, 0.9726626873, 2.6615200043, 0.5557442307, 1.9346890450, 1.5440716743, 1.0660021305, 3.8131778240, 0.9757351875, 4.6019067764, 1.0731519461, 3.4131467342, 1.0738646984, 2.4792189598, 0.8396670222, 3.8034269810, 2.6196246147, 1.1331713200, 4.9129891396, 1.5514265299, 3.3944571018, 1.3275157213, 1.8521164656, 0.6971781850, 2.4275939465, 1.7610411644, -1.1779105663, -0.6755112410, -0.8534393311, -0.5337780714, -0.5791496038, -0.4635831416, -0.4630941749, -0.3628237247, -0.9928030968, -0.2073043287, -0.7216798663, -0.5759713650, -0.3976413012, -1.4223958254, -0.3639698327, -1.7166084051, -0.4003083110, -1.2731757164, -0.4005742073, -0.9248009920, -0.3132135272, -1.4187585115, -0.9771752954, -0.4226968288, -1.8326485157, -0.5787148476, -1.2662041187, -0.4951913953, -0.6908785105, -0.2600621879, -0.9055437446, -0.6569055319, 1.0305415392, 0.5909976363, 0.7466651201, 0.4669968486, 0.5066919327, 0.4055840075, 0.4051562250, 0.3174306452, 0.8685929775, 0.1813683808, 0.6313901544, 0.5039112568, 0.3478921950, 1.2444391251, 0.3184333742, 1.5018426180, 0.3502255380, 1.1138880253, 0.3504581749, 0.8090986609, 0.2740271986, 1.2412569523, 0.8549203873, 0.3698129952, 1.6033649445, 0.5063115358, 1.1077886820, 0.4332377315, 0.6044423580, 0.2275256664, 0.7922506928, 0.5747197270, -1.8777831793, -1.0768759251, -1.3605226278, -0.8509300947, -0.9232597351, -0.7390277982, -0.7382482886, -0.5784006715, -1.5826914310, -0.3304772079, -1.1504764557, -0.9181930423, -0.6339056492, -2.2675328255, -0.5802277923, -2.7365560532, -0.6381573081, -2.0296514034, -0.6385811567, -1.4742848873, -0.4993138611, -2.2617344856, -1.5577781200, -0.6738482714, -2.9215431213, -0.9225666523, -2.0185377598, -0.7894164920, -1.1013740301, -0.4145818949, -1.4435856342, -1.0472154617, 0.8394305110, 0.4813987911, 0.6081981659, 0.3803935945, 0.4127273262, 0.3303695917, 0.3300211430, 0.2585640252, 0.7075148821, 0.1477341205, 0.5143005848, 0.4104623199, 0.2833765447, 1.0136613846, 0.2593807876, 1.2233301401, 0.2852771878, 0.9073206186, 0.2854666710, 0.6590535641, 0.2232096344, 1.0110692978, 0.6963778138, 0.3012322187, 1.3060253859, 0.4124174714, 0.9023523927, 0.3528950214, 0.4923502207, 0.1853316724, 0.6453300118, 0.4681395888, -0.7394487262, -0.4240609705, -0.5357576609, -0.3350861669, -0.3635687232, -0.2910203636, -0.2907133996, -0.2277673185, -0.6232451200, -0.1301379949, -0.4530439377, -0.3615735173, -0.2496245056, -0.8929275274, -0.2284868062, -1.0776233673, -0.2512987554, -0.7992526889, -0.2514656782, -0.5805558562, -0.1966238618, -0.8906441927, -0.6134345531, -0.2653534412, -1.1504690647, -0.3632957935, -0.7948761582, -0.3108628392, -0.4337080121, -0.1632574201, -0.5684669018, -0.4123810232, 1.4934781790, 0.8564836979, 1.0820796490, 0.6767796874, 0.7343063951, 0.5877791643, 0.5871592164, 0.4600258172, 1.2587795258, 0.2628420889, 0.9150211811, 0.7302766442, 0.5041711926, 1.8034620285, 0.4614789784, 2.1764955521, 0.5075527430, 1.6142652035, 0.5078898668, 1.1725593805, 0.3971248269, 1.7988502979, 1.2389650345, 0.5359392166, 2.3236234188, 0.7337551713, 1.6054259539, 0.6278553605, 0.8759679794, 0.3297340274, 1.1481430531, 0.8328934908, 0.4840264618, 0.2775807679, 0.3506948948, 0.2193398476, 0.2379838973, 0.1904953718, 0.1902944446, 0.1490913481, 0.4079622030, 0.0851854011, 0.2965523601, 0.2366778702, 0.1633985788, 0.5844902396, 0.1495623142, 0.7053879499, 0.1644945145, 0.5231727958, 0.1646037698, 0.3800188005, 0.1287055463, 0.5829955935, 0.4015404284, 0.1736943871, 0.7530711293, 0.2378052473, 0.5203080177, 0.2034838200, 0.2838954926, 0.1068646312, 0.3721056283, 0.2699353099, 2.2183461189, 1.2721829414, 1.6072731018, 1.0052584410, 1.0907062292, 0.8730611205, 0.8721402287, 0.6833019257, 1.8697353601, 0.3904139996, 1.3591318130, 1.0847206116, 0.7488735318, 2.6787824631, 0.6854604483, 3.2328698635, 0.7538962960, 2.3977580070, 0.7543970942, 1.7416676283, 0.5898715854, 2.6719324589, 1.8403036594, 0.7960603237, 3.4514071941, 1.0898873806, 2.3846285343, 0.9325885177, 1.3011239767, 0.4897722900, 1.7054007053, 1.2371430397, 1.9392303228, 1.1121149063, 1.4050433636, 0.8787752390, 0.9534717798, 0.7632111907, 0.7624061704, 0.5973278284, 1.6344822645, 0.3412914872, 1.1881237030, 0.9482392669, 0.6546490788, 2.3417339325, 0.5992146730, 2.8261051178, 0.6590398550, 2.0960683823, 0.6594776511, 1.5225282907, 0.5156530142, 2.3357458115, 1.6087536812, 0.6958987713, 3.0171456337, 0.9527560472, 2.0845906734, 0.8152487874, 1.1374144554, 0.4281483591, 1.4908244610, 1.0814837217, 0.4290885627, 0.2460748255, 0.3108903766, 0.1944443583, 0.2109722793, 0.1688737869, 0.1686956733, 0.1321692020, 0.3616577089, 0.0755167007, 0.2628931105, 0.2098144889, 0.1448525339, 0.5181494951, 0.1325867176, 0.6253250837, 0.1458240747, 0.4637916982, 0.1459209323, 0.3368859589, 0.1140972301, 0.5168244839, 0.3559648395, 0.1539797485, 0.6675961018, 0.2108138949, 0.4612520933, 0.1803880185, 0.2516728044, 0.0947352946, 0.3298709393, 0.2392971516, 0.5811442137, 0.3332760930, 0.4210602641, 0.2633494139, 0.2857342958, 0.2287174165, 0.2284761667, 0.1790058613, 0.4898179770, 0.1022774726, 0.3560542464, 0.2841662169, 0.1961837709, 0.7017655373, 0.1795713156, 0.8469208479, 0.1974995881, 0.6281450391, 0.1976307780, 0.4562678635, 0.1545297503, 0.6999710798, 0.4821076989, 0.2085453868, 0.9041714668, 0.2855198085, 0.6247054935, 0.2443119287, 0.3408578336, 0.1283065379, 0.4467669427, 0.3240966201, -2.0298388004, -1.1640772820, -1.4706925154, -0.9198350906, -0.9980217218, -0.7988713980, -0.7980287671, -0.6252373457, -1.7108516693, -0.3572379649, -1.2436375618, -0.9925447702, -0.6852368712, -2.4511489868, -0.6272123456, -2.9581518173, -0.6898328066, -2.1940047741, -0.6902910471, -1.5936667919, -0.5397463441, -2.4448809624, -1.6839209795, -0.7284138799, -3.1581184864, -0.9972725511, -2.1819911003, -0.8533403873, -1.1905590296, -0.4481531382, -1.5604816675, -1.1320149899, -0.4395033419, -0.2520475090, -0.3184362650, -0.1991638839, -0.2160929590, -0.1729726642, -0.1727902293, -0.1353771985, -0.3704358339, -0.0773496255, -0.2692739964, -0.2149070799, -0.1483683735, -0.5307259560, -0.1358048320, -0.6405028701, -0.1493634880, -0.4750487804, -0.1494626999, -0.3450627923, -0.1168665811, -0.5293688178, -0.3646047711, -0.1577171236, -0.6837999225, -0.2159307450, -0.4724475443, -0.1847663671, -0.2577813864, -0.0970346928, -0.3378775120, -0.2451053411, -1.9340229034, -1.1091284752, -1.4012703896, -0.8764154911, -0.9509114623, -0.7611617446, -0.7603588700, -0.5957238078, -1.6300932169, -0.3403750062, -1.1849333048, -0.9456930161, -0.6528911591, -2.3354456425, -0.5976056457, -2.8185162544, -0.6572701335, -2.0904397964, -0.6577067375, -1.5184397697, -0.5142683387, -2.3294734955, -1.6044337749, -0.6940300465, -3.0090436935, -0.9501975775, -2.0789930820, -0.8130595684, -1.1343601942, -0.4269986451, -1.4868211746, -1.0785796642, -2.4308075905, -1.3940258026, -1.7612090111, -1.1015367508, -1.1951681376, -0.9566782117, -0.9556691647, -0.7487449646, -2.0488085747, -0.4278057516, -1.4893022776, -1.1886092424, -0.8205966353, -2.9353420734, -0.7511101365, -3.5424969196, -0.8261004686, -2.6274025440, -0.8266491890, -1.9084752798, -0.6463663578, -2.9278359413, -2.0165581703, -0.8723027110, -3.7819643021, -1.1942709684, -2.6130154133, -1.0219068527, -1.4257386923, -0.5366800427, -1.8687348366, -1.3556300402, 0.7816285491, 0.4482503831, 0.5663185120, 0.3542002439, 0.3843075037, 0.3076208234, 0.3072963655, 0.2407596707, 0.6587964296, 0.1375613660, 0.4788866043, 0.3821984828, 0.2638636529, 0.9438620806, 0.2415202111, 1.1390933990, 0.2656334043, 0.8448438644, 0.2658098638, 0.6136720777, 0.2078397423, 0.9414485097, 0.6484262347, 0.2804898024, 1.2160943747, 0.3840190172, 0.8402177095, 0.3285951614, 0.4584476948, 0.1725699902, 0.6008935571, 0.4359041452, -0.8087069392, -0.4637793601, -0.5859377980, -0.3664709926, -0.3976212740, -0.3182778955, -0.3179422021, -0.2491004467, -0.6816194654, -0.1423269808, -0.4954769313, -0.3954392076, -0.2730048299, -0.9765608907, -0.2498873323, -1.1785556078, -0.2748359144, -0.8741122484, -0.2750184536, -0.6349318624, -0.2150400430, -0.9740636349, -0.6708900332, -0.2902069688, -1.2582242489, -0.3973228037, -0.8693258762, -0.3399788737, -0.4743299484, -0.1785484403, -0.6217106581, -0.4510054290, 1.1799935102, 0.6767057776, 0.8549485207, 0.5347220302, 0.5801737309, 0.4644029140, 0.4639130831, 0.3634653091, 0.9945587516, 0.2076709121, 0.7229560614, 0.5769898295, 0.3983444571, 1.4249111414, 0.3646134436, 1.7196439505, 0.4010162055, 1.2754271030, 0.4012825787, 0.9264363647, 0.3137673736, 1.4212673903, 0.9789032936, 0.4234443009, 1.8358893394, 0.5797381997, 1.2684432268, 0.4960670471, 0.6921002269, 0.2605220675, 0.9071450830, 0.6580671668, 1.2695605755, 0.7280709147, 0.9198431373, 0.5753099322, 0.6242116690, 0.4996532798, 0.4991262555, 0.3910540342, 1.0700503588, 0.2234341055, 0.7778317928, 0.6207860708, 0.4285806715, 1.5330685377, 0.3922893107, 1.8501729965, 0.4314551950, 1.3722380400, 0.4317418039, 0.9967572093, 0.3375838101, 1.5291482210, 1.0532066822, 0.4555856884, 1.9752418995, 0.6237430573, 1.3647240400, 0.5337208509, 0.7446338534, 0.2802968919, 0.9760016203, 0.7080175281, 0.9795091748, 0.5617314577, 0.7096902728, 0.4438711703, 0.4816005528, 0.3854995072, 0.3850929141, 0.3017114997, 0.8255802989, 0.1723870188, 0.6001237035, 0.4789575934, 0.3306645751, 1.1828145981, 0.3026645780, 1.4274713993, 0.3328823745, 1.0587283373, 0.3331035078, 0.7690321207, 0.2604573965, 1.1797899008, 0.8125847578, 0.3514998853, 1.5239664316, 0.4812390208, 1.0529310703, 0.4117838144, 0.5745103955, 0.2162586004, 0.7530184984, 0.5462596416, 0.8920251131, 0.5115608573, 0.6463048458, 0.4042271674, 0.4385867715, 0.3510689437, 0.3506986499, 0.2747643888, 0.7518442869, 0.1569904238, 0.5465241671, 0.4361798763, 0.3011315465, 1.0771723986, 0.2756323218, 1.2999780178, 0.3031512499, 0.9641689062, 0.3033526242, 0.7003466487, 0.2371948510, 1.0744179487, 0.7400094271, 0.3201059401, 1.3878545761, 0.4382575452, 0.9588893652, 0.3750056624, 0.5231984258, 0.1969436407, 0.6857632399, 0.4974709153, 0.1801755279, 0.1033275351, 0.1305437684, 0.0816477537, 0.0885878727, 0.0709105954, 0.0708357990, 0.0554982349, 0.1518611312, 0.0317096822, 0.1103895828, 0.0881017148, 0.0608239993, 0.2175724804, 0.0556735471, 0.2625758350, 0.0612319522, 0.1947474778, 0.0612726249, 0.1414593905, 0.0479097590, 0.2170161158, 0.1494706720, 0.0646565408, 0.2803255618, 0.0885213688, 0.1936810911, 0.0757454559, 0.1056781486, 0.0397796258, 0.1385137737, 0.1004815698, -0.0688025802, -0.0394570827, -0.0498499870, -0.0311783515, -0.0338285342, -0.0270782150, -0.0270496551, -0.0211927872, -0.0579903238, -0.0121087907, -0.0421538241, -0.0336428881, -0.0232265051, -0.0830831304, -0.0212597325, -0.1002682969, -0.0233822893, -0.0743670836, -0.0233978201, -0.0540182702, -0.0182950199, -0.0828706771, -0.0570774935, -0.0246900171, -0.1070462838, -0.0338031389, -0.0739598721, -0.0289244745, -0.0403546952, -0.0151904132, -0.0528934449, -0.0383703113, -2.1579406261, -1.2375413179, -1.5635069609, -0.9778852463, -1.0610061884, -0.8492876291, -0.8483918309, -0.6646956205, -1.8188222647, -0.3797830045, -1.3221225739, -1.0551835299, -0.7284816504, -2.6058392525, -0.6667953134, -3.1448388100, -0.7333676815, -2.3324668407, -0.7338548303, -1.6942420006, -0.5738093853, -2.5991756916, -1.7901921272, -0.7743835449, -3.3574252129, -1.0602097511, -2.3196949959, -0.9071941376, -1.2656943798, -0.4764357507, -1.6589626074, -1.2034555674, -1.7767598629, -1.0189409256, -1.2873276472, -0.8051506877, -0.8735890985, -0.6992686391, -0.6985310912, -0.5472831726, -1.4975438118, -0.3126977682, -1.0885816813, -0.8687949777, -0.5998020172, -2.1455414295, -0.5490119457, -2.5893313885, -0.6038249135, -1.9204578400, -0.6042259932, -1.3949694633, -0.4724511504, -2.1400549412, -1.4739708900, -0.6375957131, -2.7643663883, -0.8729332685, -1.9099419117, -0.7469465137, -1.0421209335, -0.3922776878, -1.3659218550, -0.9908760786, 2.0944104195, 1.2011079788, 1.5174770355, 0.9490961432, 1.0297700167, 0.8242844343, 0.8234150410, 0.6451268792, 1.7652759552, 0.3686021268, 1.2831991911, 1.0241187811, 0.7070350647, 2.5291228294, 0.6471647620, 3.0522542000, 0.7117772102, 2.2637987137, 0.7122499943, 1.6443631649, 0.5569163561, 2.5226554871, 1.7374885082, 0.7515856028, 3.2585821152, 1.0289969444, 2.2514028549, 0.8804861903, 1.2284320593, 0.4624094069, 1.6101224422, 1.1680256128, 0.9810714126, 0.5626273751, 0.7108221650, 0.4445790946, 0.4823686481, 0.3861143589, 0.3857070804, 0.3021926880, 0.8268970251, 0.1726619601, 0.6010808349, 0.4797214866, 0.3311919570, 1.1847009659, 0.3031472862, 1.4297480583, 0.3334133029, 1.0604169369, 0.3336347640, 0.7702586651, 0.2608727813, 1.1816716194, 0.8138807416, 0.3520604968, 1.5263969898, 0.4820065498, 1.0546103716, 0.4124405682, 0.5754266977, 0.2166035175, 0.7542194724, 0.5471308827, 0.3285860121, 0.1884383708, 0.2380726039, 0.1489009708, 0.1615576446, 0.1293196082, 0.1291832179, 0.1012120992, 0.2769490480, 0.0578289293, 0.2013174146, 0.1606710553, 0.1109246910, 0.3967868090, 0.1015318111, 0.4788593650, 0.1116686761, 0.3551608622, 0.1117428541, 0.2579794228, 0.0873730034, 0.3957721591, 0.2725895643, 0.1179141030, 0.5112295747, 0.1614363790, 0.3532161117, 0.1381369382, 0.1927251816, 0.0725460798, 0.2526074648, 0.1832481772, 1.6153309345, 0.9263641834, 1.1703664064, 0.7319980860, 0.7942184210, 0.6357360482, 0.6350654960, 0.4975593090, 1.3614833355, 0.2842873633, 0.9896777272, 0.7898598909, 0.5453065038, 1.9506064653, 0.4991310239, 2.3540756702, 0.5489639044, 1.7459731102, 0.5493285656, 1.2682284117, 0.4295262098, 1.9456185102, 1.3400521278, 0.5796664953, 2.5132076740, 0.7936222553, 1.7364126444, 0.6790820956, 0.9474381804, 0.3566370010, 1.2418199778, 0.9008492231, 0.6092640758, 0.3494023681, 0.4414341450, 0.2760921121, 0.2995601594, 0.2397843897, 0.2395314723, 0.1876674443, 0.5135188699, 0.1072263792, 0.3732827008, 0.2979162037, 0.2056765407, 0.7357219458, 0.1882602572, 0.8879008889, 0.2070560306, 0.6585391760, 0.2071935683, 0.4783453345, 0.1620069891, 0.7338406444, 0.5054355264, 0.2186362892, 0.9479216933, 0.2993352711, 0.6549332142, 0.2561334670, 0.3573509455, 0.1345149279, 0.4683847129, 0.3397787213, 1.2164452076, 0.6976101995, 0.8813591003, 0.5512403250, 0.5980961323, 0.4787490070, 0.4782440364, 0.3746932745, 1.0252820253, 0.2140861750, 0.7452892065, 0.5948138833, 0.4106498957, 1.4689286947, 0.3758768737, 1.7727662325, 0.4134041667, 1.3148269653, 0.4136787653, 0.9550552964, 0.3234601021, 1.4651724100, 1.0091429949, 0.4365251064, 1.8926025629, 0.5976471901, 1.3076273203, 0.5113912821, 0.7134802341, 0.2685699761, 0.9351680875, 0.6783958077, 1.5038928986, 0.8624564409, 1.0896254778, 0.6814991832, 0.7394270897, 0.5918780565, 0.5912537575, 0.4632337987, 1.2675576210, 0.2646750212, 0.9214020967, 0.7353692651, 0.5076870322, 1.8160384893, 0.4646971226, 2.1916732788, 0.5110921264, 1.6255223751, 0.5114316344, 1.1807361841, 0.3998941779, 1.8113945723, 1.2476049662, 0.5396766067, 2.3398270607, 0.7388719916, 1.6166213751, 0.6322337389, 0.8820765615, 0.3320334256, 1.1561496258, 0.8387016654, -0.0571510531, -0.0327751338, -0.0414080322, -0.0258983839, -0.0280997660, -0.0224925950, -0.0224688705, -0.0176038463, -0.0481698252, -0.0100582009, -0.0350151919, -0.0279455595, -0.0192931611, -0.0690132380, -0.0176594555, -0.0832881406, -0.0194225628, -0.0617732257, -0.0194354635, -0.0448704287, -0.0151968095, -0.0688367561, -0.0474115796, -0.0205088314, -0.0889182910, -0.0280786715, -0.0614349730, -0.0240261964, -0.0335207433, -0.0126179596, -0.0439360850, -0.0318724066, -2.8890573978, -1.6568241119, -2.0932278633, -1.3091957569, -1.4204783440, -1.1370288134, -1.1358295679, -0.8898965120, -2.4350450039, -0.5084546804, -1.7700618505, -1.4126830101, -0.9752935171, -3.4887056351, -0.8927075863, -4.2103199959, -0.9818348885, -3.1227140427, -0.9824870825, -2.2682564259, -0.7682177424, -3.4797844887, -2.3967146873, -1.0367470980, -4.4949312210, -1.4194120169, -3.1056149006, -1.2145543098, -1.6945154667, -0.6378536820, -2.2210242748, -1.6111900806, -0.6993518472, -0.4010661244, -0.5067060590, -0.3169159889, -0.3438540697, -0.2752396762, -0.2749493718, -0.2154165506, -0.5894494057, -0.1230812222, -0.4284774959, -0.3419670761, -0.2360885292, -0.8445082307, -0.2160970271, -1.0191887617, -0.2376720011, -0.7559129000, -0.2378298789, -0.5490750074, -0.1859618723, -0.8423486948, -0.5801708698, -0.2509645522, -1.0880844593, -0.3435959518, -0.7517737150, -0.2940061986, -0.4101900458, -0.1544047296, -0.5376415849, -0.3900195062, -2.0506684780, -1.1760226488, -1.4857842922, -0.9292741418, -1.0082631111, -0.8070691824, -0.8062179089, -0.6316533089, -1.7284078598, -0.3609038293, -1.2563993931, -1.0027298927, -0.6922685504, -2.4763019085, -0.6336486340, -2.9885075092, -0.6969116330, -2.2165191174, -0.6973745823, -1.6100205183, -0.5452850461, -2.4699695110, -1.7012008429, -0.7358886600, -3.1905260086, -1.0075062513, -2.2043819427, -0.8620970845, -1.2027760744, -0.4527519345, -1.5764948130, -1.1436313391, 1.4278650284, 0.8188557625, 1.0345405340, 0.6470466852, 0.7020460963, 0.5619562268, 0.5613635182, 0.4398154914, 1.2034775019, 0.2512946427, 0.8748214841, 0.6981933713, 0.4820214212, 1.7242304087, 0.4412048161, 2.0808753967, 0.4852543771, 1.5433456898, 0.4855767190, 1.1210452318, 0.3796779215, 1.7198213339, 1.1845334768, 0.5123937726, 2.2215394974, 0.7015190721, 1.5348947048, 0.6002717614, 0.8374840617, 0.3152478039, 1.0977015495, 0.7963019609, -0.8347438574, -0.4787110984, -0.6048024893, -0.3782697916, -0.4104230106, -0.3285250962, -0.3281785846, -0.2571204305, -0.7035647035, -0.1469092965, -0.5114291906, -0.4081706703, -0.2817944288, -1.0080019236, -0.2579326332, -1.2165001631, -0.2836844623, -0.9022549391, -0.2838729024, -0.6553739905, -0.2219634205, -1.0054243803, -0.6924898624, -0.2995504141, -1.2987337112, -0.4101149142, -0.8973144293, -0.3509247601, -0.4896013439, -0.1842969358, -0.6417270899, -0.4655258954, 0.0546124540, 0.0313192941, 0.0395687222, 0.0247480012, 0.0268515982, 0.0214934945, 0.0214708224, 0.0168219004, 0.0460301638, 0.0096114241, 0.0334598497, 0.0267042406, 0.0184361767, 0.0659477264, 0.0168750379, 0.0795885548, 0.0185598303, 0.0590293109, 0.0185721572, 0.0428773239, 0.0145217804, 0.0657790899, 0.0453055985, 0.0195978470, 0.0849686190, 0.0268314406, 0.0587060824, 0.0229589734, 0.0320317782, 0.0120574804, 0.0419844836, 0.0304566622, 1.8423730135, 1.0565688610, 1.3348666430, 0.8348836899, 0.9058493972, 0.7250915766, 0.7243267894, 0.5674934983, 1.5528458357, 0.3242452443, 1.1287813187, 0.9008782506, 0.6219517589, 2.2247729301, 0.5692861676, 2.6849515438, 0.6261232495, 1.9913774729, 0.6265391707, 1.4464836121, 0.4898980558, 2.2190837860, 1.5284024477, 0.6611412168, 2.8664503098, 0.9051693678, 1.9804731607, 0.7745301127, 1.0806049109, 0.4067639112, 1.4163633585, 1.0274676085, 1.8788247108, 1.0774732828, 1.3612772226, 0.8514020443, 0.9237717986, 0.7394376397, 0.7386577129, 0.5787214637, 1.5835692883, 0.3306604922, 1.1511144638, 0.9187023044, 0.6342571974, 2.2687904835, 0.5805495977, 2.7380738258, 0.6385112405, 2.0307772160, 0.6389353871, 1.4751025438, 0.4995907843, 2.2629888058, 1.5586421490, 0.6742219925, 2.9231636524, 0.9230783582, 2.0196571350, 0.7898543477, 1.1019848585, 0.4148118198, 1.4443863630, 1.0477962494, 0.1105918512, 0.0634225011, 0.0801278427, 0.0501154400, 0.0543752871, 0.0435249656, 0.0434790552, 0.0340648480, 0.0932124481, 0.0194634199, 0.0677571893, 0.0540768839, 0.0373338051, 0.1335461140, 0.0341724530, 0.1611691862, 0.0375842080, 0.1195361167, 0.0376091748, 0.0868278593, 0.0294070374, 0.1332046241, 0.0917451829, 0.0396862254, 0.1720639914, 0.0543344691, 0.1188815683, 0.0464926027, 0.0648653060, 0.0244167577, 0.0850198269, 0.0616756454, 2.5016279221, 1.4346400499, 1.8125211000, 1.1336295605, 1.2299888134, 0.9845505953, 0.9835121036, 0.7705593109, 2.1084995270, 0.4402696788, 1.5326923132, 1.2232388258, 0.8445043564, 3.0208618641, 0.7729933858, 3.6457059383, 0.8501685262, 2.7039506435, 0.8507332206, 1.9640778303, 0.6651979089, 3.0131371021, 2.0753095150, 0.8977168798, 3.8921501637, 1.2290655375, 2.6891443729, 1.0516796112, 1.4672769308, 0.5523159504, 1.9231796265, 1.3951256275, -1.4174503088, -0.8128830791, -1.0269947052, -0.6423271298, -0.6969254017, -0.5578573346, -0.5572689176, -0.4366074800, -1.1946994066, -0.2494617105, -0.8684405684, -0.6931008101, -0.4785055816, -1.7116539478, -0.4379866719, -2.0656976700, -0.4817149639, -1.5320885181, -0.4820349216, -1.1128684282, -0.3769085705, -1.7072770596, -1.1758935452, -0.5086563826, -2.2053356171, -0.6964022517, -1.5236992836, -0.5958934426, -0.8313754797, -0.3129483759, -1.0896949768, -0.7904937267, 0.1294035316, 0.0742106736, 0.0937575921, 0.0586400777, 0.0636245236, 0.0509285629, 0.0508748479, 0.0398592800, 0.1090678945, 0.0227741506, 0.0792826936, 0.0632753670, 0.0436842889, 0.1562623084, 0.0399851911, 0.1885840744, 0.0439772829, 0.1398692131, 0.0440064967, 0.1015972793, 0.0344091766, 0.1558627337, 0.1073510423, 0.0464368537, 0.2013320774, 0.0635767654, 0.1391033381, 0.0544009991, 0.0758989006, 0.0285700504, 0.0994817093, 0.0721666813, -1.2716435194, -0.7292654514, -0.9213522673, -0.5762538314, -0.6252357960, -0.5004730821, -0.4999451637, -0.3916956186, -1.0718059540, -0.2238007039, -0.7791079879, -0.6218045950, -0.4292838275, -1.5355837345, -0.3929329515, -1.8532085419, -0.4321630895, -1.3744894266, -0.4324501455, -0.9983925819, -0.3381376565, -1.5316570997, -1.0549346209, -0.4563331902, -1.9784827232, -0.6247664094, -1.3669631481, -0.5345965624, -0.7458555698, -0.2807567716, -0.9776029587, -0.7091791630, 2.0444195271, 1.1724389791, 1.4812568426, 0.9264424443, 1.0051907301, 0.8046098351, 0.8037611842, 0.6297284961, 1.7231410742, 0.3598040640, 1.2525708675, 0.9996743798, 0.6901590228, 2.4687559605, 0.6317177415, 2.9794008732, 0.6947879791, 2.2097647190, 0.6952494979, 1.6051143408, 0.5436234474, 2.4624428749, 1.6960169077, 0.7336462140, 3.1808037758, 1.0044361353, 2.1976647377, 0.8594701290, 1.1991109848, 0.4513722956, 1.5716909170, 1.1401463747, 1.4330724478, 0.8218421340, 1.0383135080, 0.6494064331, 0.7046064138, 0.5640056729, 0.5634107590, 0.4414194822, 1.2078665495, 0.2522110939, 0.8780119419, 0.7007396817, 0.4837793410, 1.7305186987, 0.4428138733, 2.0884642601, 0.4870240986, 1.5489741564, 0.4873476028, 1.1251336336, 0.3810625970, 1.7260935307, 1.1888533831, 0.5142624378, 2.2296414375, 0.7040774822, 1.5404924154, 0.6024609804, 0.8405383229, 0.3163974881, 1.1017048359, 0.7992060184, 0.8555734158, 0.4906564653, 0.6198942661, 0.3877088428, 0.4206643701, 0.3367228508, 0.3363676965, 0.2635364234, 0.7211208940, 0.1505751610, 0.5241910219, 0.4183558524, 0.2888261080, 1.0331548452, 0.2643688917, 1.2468557358, 0.2907632887, 0.9247691035, 0.2909564376, 0.6717276573, 0.2275021225, 1.0305129290, 0.7097696662, 0.3070251346, 1.3311412334, 0.4203485847, 0.9197053313, 0.3596814573, 0.5018184781, 0.1888957471, 0.6577402353, 0.4771422744, 0.7717345357, 0.4425763190, 0.5591499209, 0.3497166932, 0.3794428408, 0.3037268817, 0.3034065366, 0.2377120852, 0.6504572034, 0.1358200759, 0.4728247523, 0.3773605227, 0.2605236173, 0.9319145083, 0.2384629846, 1.1246744394, 0.2622709572, 0.8341495991, 0.2624451816, 0.6059041023, 0.2052088529, 0.9295314550, 0.6402183175, 0.2769393027, 1.2007007599, 0.3791580200, 0.8295820355, 0.3244357407, 0.4526445568, 0.1703855693, 0.5932872891, 0.4303863943, 1.3299661875, 0.7627124786, 0.9636092186, 0.6026831269, 0.6539116502, 0.5234267712, 0.5228746533, 0.4096603692, 1.1209633350, 0.2340651006, 0.8148410320, 0.6503230929, 0.4489725232, 1.6060118675, 0.4109544456, 1.9382041693, 0.4519838393, 1.4375290871, 0.4522840679, 1.0441828966, 0.3536460400, 1.6019051075, 1.1033182144, 0.4772624671, 2.0692238808, 0.6534207463, 1.4296575785, 0.5591152906, 0.7800635695, 0.2936334312, 1.0224397182, 0.7417050004, 0.1383862644, 0.0793621168, 0.1002659202, 0.0627106652, 0.0680411160, 0.0544638485, 0.0544064008, 0.0426261723, 0.1166390032, 0.0243550520, 0.0847862214, 0.0676677227, 0.0467167012, 0.1671095043, 0.0427608229, 0.2016749233, 0.0470300317, 0.1495784521, 0.0470612720, 0.1086498052, 0.0367977433, 0.1666821688, 0.1148029789, 0.0496603362, 0.2153078467, 0.0679900423, 0.1487593949, 0.0581773259, 0.0811675340, 0.0305532832, 0.1063873768, 0.0771762356, -1.6132479906, -0.9251696467, -1.1688572168, -0.7310541868, -0.7931942940, -0.6349162459, -0.6342465878, -0.4969176948, -1.3597277403, -0.2839207947, -0.9884015322, -0.7888413668, -0.5446033478, -1.9480911493, -0.4984874129, -2.3510401249, -0.5482560396, -1.7437217236, -0.5486202240, -1.2665930986, -0.4289723635, -1.9431096315, -1.3383240700, -0.5789189935, -2.5099668503, -0.7925988436, -1.7341735363, -0.6782063842, -0.9462164640, -0.3561771214, -1.2402186394, -0.8996875882, -2.4266417027, -1.3916367292, -1.7581907511, -1.0996489525, -1.1931198835, -0.9550386667, -0.9540313482, -0.7474617362, -2.0452973843, -0.4270725846, -1.4867498875, -1.1865721941, -0.8191903234, -2.9303114414, -0.7498229146, -3.5364258289, -0.8246846795, -2.6228995323, -0.8252324462, -1.9052045345, -0.6452586055, -2.9228181839, -2.0131020546, -0.8708077669, -3.7754828930, -1.1922242641, -2.6085374355, -1.0201555490, -1.4232952595, -0.5357602835, -1.8655322790, -1.3533067703, 0.0707553476, 0.0405769609, 0.0512648411, 0.0320632607, 0.0347886607, 0.0278467555, 0.0278173834, 0.0217942838, 0.0596362166, 0.0124524655, 0.0433502458, 0.0345977470, 0.0238857251, 0.0854412168, 0.0218631309, 0.1031141356, 0.0240459293, 0.0764777884, 0.0240619015, 0.0555514283, 0.0188142732, 0.0852227286, 0.0586974770, 0.0253907740, 0.1100844964, 0.0347625464, 0.0760590136, 0.0297454149, 0.0415000543, 0.0156215513, 0.0543946773, 0.0394593440, -1.7173956633, -0.9848965406, -1.2443161011, -0.7782493830, -0.8444011807, -0.6759050488, -0.6751921177, -0.5289976001, -1.4475086927, -0.3022500873, -1.0522105694, -0.8397672176, -0.5797617435, -2.0738556385, -0.5306686759, -2.5028181076, -0.5836502314, -1.8562924862, -0.5840379000, -1.3483614922, -0.4566658437, -2.0685524940, -1.4247233868, -0.6162927151, -2.6720049381, -0.8437672853, -1.8461278677, -0.7219899297, -1.0073020458, -0.3791711330, -1.3202843666, -0.9577694535, 2.5307893753, 1.4513636827, 1.8336495161, 1.1468441486, 1.2443267107, 0.9960274696, 0.9949768782, 0.7795416713, 2.1330783367, 0.4454018772, 1.5505589247, 1.2374980450, 0.8543486595, 3.0560758114, 0.7820041180, 3.6882038116, 0.8600788713, 2.7354705334, 0.8606501818, 1.9869729280, 0.6729521155, 3.0482609272, 2.0995013714, 0.9081814885, 3.9375207424, 1.2433927059, 2.7204916477, 1.0639390945, 1.4843809605, 0.5587542653, 1.9455980062, 1.4113885164, 0.4387222230, 0.2515995502, 0.3178703189, 0.1988099217, 0.2157089114, 0.1726652533, 0.1724831313, 0.1351365894, 0.3697774708, 0.0772121549, 0.2687954307, 0.2145251334, 0.1481046826, 0.5297827125, 0.1355634779, 0.6393645406, 0.1490980387, 0.4742044806, 0.1491970718, 0.3444495201, 0.1166588813, 0.5284279585, 0.3639567494, 0.1574368179, 0.6825846434, 0.2155469805, 0.4716078639, 0.1844379902, 0.2573232353, 0.0968622416, 0.3372770250, 0.2446697205, -1.3830815554, -0.7931731939, -1.0020931959, -0.6267527342, -0.6800271273, -0.5443310738, -0.5437569022, -0.4260211289, -1.1657316685, -0.2434130460, -0.8473836184, -0.6762952805, -0.4669032991, -1.6701517105, -0.4273668826, -2.0156109333, -0.4700348675, -1.4949401617, -0.4703471065, -1.0858848095, -0.3677697182, -1.6658809185, -1.1473817825, -0.4963230491, -2.1518630981, -0.6795166731, -1.4867542982, -0.5814448595, -0.8112171888, -0.3053603768, -1.0632733107, -0.7713267207, 1.4580678940, 0.8361765742, 1.0564235449, 0.6607332826, 0.7168960571, 0.5738430023, 0.5732377172, 0.4491186440, 1.2289340496, 0.2566101253, 0.8933261037, 0.7129618526, 0.4922173321, 1.7607021332, 0.4505373538, 2.1248910427, 0.4955186844, 1.5759911537, 0.4958478510, 1.1447581053, 0.3877090216, 1.7561997175, 1.2095892429, 0.5232321620, 2.2685306072, 0.7163578868, 1.5673614740, 0.6129689813, 0.8551988602, 0.3219160438, 1.1209206581, 0.8131456971, 0.6092640758, 0.3494023681, 0.4414341450, 0.2760921121, 0.2995601594, 0.2397843897, 0.2395314723, 0.1876674443, 0.5135188699, 0.1072263792, 0.3732827008, 0.2979162037, 0.2056765407, 0.7357219458, 0.1882602572, 0.8879008889, 0.2070560306, 0.6585391760, 0.2071935683, 0.4783453345, 0.1620069891, 0.7338406444, 0.5054355264, 0.2186362892, 0.9479216933, 0.2993352711, 0.6549332142, 0.2561334670, 0.3573509455, 0.1345149279, 0.4683847129, 0.3397787213, -1.5736718178, -0.9024734497, -1.1401828527, -0.7131199837, -0.7737357020, -0.6193405390, -0.6186872721, -0.4847273529, -1.3263709545, -0.2769556642, -0.9641541243, -0.7694895864, -0.5312431455, -1.9003006220, -0.4862585366, -2.2933645248, -0.5348062515, -1.7009447813, -0.5351614952, -1.2355210781, -0.4184488356, -1.8954412937, -1.3054924011, -0.5647169948, -2.4483926296, -0.7731548548, -1.6916308403, -0.6615687013, -0.9230039120, -0.3474394083, -1.2097936869, -0.8776165247, -2.0579586029, -1.1802035570, -1.4910664558, -0.9325778484, -1.0118476152, -0.8099383712, -0.8090840578, -0.6338989139, -1.7345526218, -0.3621868789, -1.2608659267, -1.0062947273, -0.6947296262, -2.4851052761, -0.6359013319, -2.9991319180, -0.6993892193, -2.2243990898, -0.6998537779, -1.6157442331, -0.5472236276, -2.4787504673, -1.7072488070, -0.7385048270, -3.2018687725, -1.0110880136, -2.2122187614, -0.8651619554, -1.2070521116, -0.4543614984, -1.5820994377, -1.1476969719, 1.0727213621, 0.6151870489, 0.7772259116, 0.4861109257, 0.5274307132, 0.4221844673, 0.4217391610, 0.3304229975, 0.9041442871, 0.1887917370, 0.6572327614, 0.5245362520, 0.3621313274, 1.2953736782, 0.3314667642, 1.5633126497, 0.3645601869, 1.1594792604, 0.3648023307, 0.8422148824, 0.2852430642, 1.2920612097, 0.8899120688, 0.3849493563, 1.6689902544, 0.5270347595, 1.1531301737, 0.4509700537, 0.6291820407, 0.2368382365, 0.8246773481, 0.5982428789, 1.4039111137, 0.8051185608, 1.0171849728, 0.6361917853, 0.6902685165, 0.5525287986, 0.5519460440, 0.4324370921, 1.1832878590, 0.2470789105, 0.8601454496, 0.6864804029, 0.4739349782, 1.6953046322, 0.4338031113, 2.0459666252, 0.4771137238, 1.5174543858, 0.4774306417, 1.1022385359, 0.3733084202, 1.6909694672, 1.1646616459, 0.5037978292, 2.1842708588, 0.6897503138, 1.5091451406, 0.5902015567, 0.8234343529, 0.3099591732, 1.0792864561, 0.7829431295, -0.1598667353, -0.0916807875, -0.1158293039, -0.0724446848, -0.0786025375, -0.0629177839, -0.0628514215, -0.0492426530, -0.1347438395, -0.0281354692, -0.0979468226, -0.0781711787, -0.0539681166, -0.1930484176, -0.0493982024, -0.2329791188, -0.0543300845, -0.1727961749, -0.0543661751, -0.1255145520, -0.0425095260, -0.1925547570, -0.1326228231, -0.0573686659, -0.2487281710, -0.0785435289, -0.1718499959, -0.0672076717, -0.0937664509, -0.0352957956, -0.1229009405, -0.0891556144, -0.3403026462, -0.1951576471, -0.2465617210, -0.1542104334, -0.1673184186, -0.1339308470, -0.1337895840, -0.1048210859, -0.2868244052, -0.0598909743, -0.2084959298, -0.1664002091, -0.1148800105, -0.4109353125, -0.1051522046, -0.4959343970, -0.1156505272, -0.3678250909, -0.1157273427, -0.2671783566, -0.0904885158, -0.4098844826, -0.2823095024, -0.1221186444, -0.5294588208, -0.1671928167, -0.3658109605, -0.1430625916, -0.1995973140, -0.0751329064, -0.2616148889, -0.1897823960, 0.8649467230, 0.4960318804, 0.6266855597, 0.3919564188, 0.4252730012, 0.3404118419, 0.3400527835, 0.2664236128, 0.7290211916, 0.1522247940, 0.5299338102, 0.4229391515, 0.2919903696, 1.0444736481, 0.2672652006, 1.2605156898, 0.2939487696, 0.9349004626, 0.2941440344, 0.6790868640, 0.2299945354, 1.0418027639, 0.7175456285, 0.3103887737, 1.3457247019, 0.4249537587, 0.9297811985, 0.3636219800, 0.5073161721, 0.1909652054, 0.6649461389, 0.4823696315, -2.7036745548, -1.5505102873, -1.9589111805, -1.2251882553, -1.3293302059, -1.0640687943, -1.0629464388, -0.8327943087, -2.2787947655, -0.4758284986, -1.6564818621, -1.3220349550, -0.9127116203, -3.2648448944, -0.8354250193, -3.9401550293, -0.9188332558, -2.9223380089, -0.9194435477, -2.1227085590, -0.7189233303, -3.2564961910, -2.2429239750, -0.9702218771, -4.2065038681, -1.3283321857, -2.9063360691, -1.1366196871, -1.5857830048, -0.5969243646, -2.0785071850, -1.5078043938, 0.2618013024, 0.1501384974, 0.1896846294, 0.1186370179, 0.1287212521, 0.1030355543, 0.1029268801, 0.0806408599, 0.2206594944, 0.0460752659, 0.1603998989, 0.1280148476, 0.0883793831, 0.3161403537, 0.0808955953, 0.3815317750, 0.0889721513, 0.2829748392, 0.0890312493, 0.2055453956, 0.0696145445, 0.3153319359, 0.2171860635, 0.0939482003, 0.4073227644, 0.1286246181, 0.2814253569, 0.1100607738, 0.1535540074, 0.0578011759, 0.2012653053, 0.1460032016, 0.2897909880, 0.1661900878, 0.2099641860, 0.1313207448, 0.1424831003, 0.1140512899, 0.1139309928, 0.0892623290, 0.2442506403, 0.0510012656, 0.1775485575, 0.1417011768, 0.0978281945, 0.3499395549, 0.0895443037, 0.4223220944, 0.0984843448, 0.3132282495, 0.0985497609, 0.2275206745, 0.0770571679, 0.3490447104, 0.2404058576, 0.1039923877, 0.4508704245, 0.1423761398, 0.3115130961, 0.1218275875, 0.1699707806, 0.0639808178, 0.2227829844, 0.1616127044, 2.0819127560, 1.1939406395, 1.5084220171, 0.9434327483, 1.0236251354, 0.8193657994, 0.8185015321, 0.6412772536, 1.7547421455, 0.3664026260, 1.2755420208, 1.0180076361, 0.7028160691, 2.5140311718, 0.6433029771, 3.0340409279, 0.7075299025, 2.2502901554, 0.7079998851, 1.6345510483, 0.5535930991, 2.5076024532, 1.7271206379, 0.7471007705, 3.2391374111, 1.0228567123, 2.2379682064, 0.8752321601, 1.2211018801, 0.4596501291, 1.6005145311, 1.1610558033, 2.2995812893, 1.3187699318, 1.6661309004, 1.0420707464, 1.1306475401, 0.9050323367, 0.9040777683, 0.7083242536, 1.9382045269, 0.4047108591, 1.4089028835, 1.1244426966, 0.7762970924, 2.7768788338, 0.7105618119, 3.3512566090, 0.7815037966, 2.4855632782, 0.7820228934, 1.8054469824, 0.6114725471, 2.7697780132, 1.9076950550, 0.8252118230, 3.5777966976, 1.1297987700, 2.4719529152, 0.9667396545, 1.3487708569, 0.5077075958, 1.7678519487, 1.2824468613, -2.4995450974, -1.4334455729, -1.8110119104, -1.1326856613, -1.2289646864, -0.9837307930, -0.9826931953, -0.7699176669, -2.1067440510, -0.4399030805, -1.5314161777, -1.2222203016, -0.8438011408, -3.0183465481, -0.7723497748, -3.6426703930, -0.8494606018, -2.7016992569, -0.8500248790, -1.9624423981, -0.6646440625, -3.0106282234, -2.0735814571, -0.8969693780, -3.8889093399, -1.2280421257, -2.6869053841, -1.0508040190, -1.4660551548, -0.5518561006, -1.9215782881, -1.3939640522, 2.1319036484, 1.2226096392, 1.5446422100, 0.9660864472, 1.0482044220, 0.8390403986, 0.8381553888, 0.6566756368, 1.7968770266, 0.3752006888, 1.3061703444, 1.0424520969, 0.7196920514, 2.5743980408, 0.6587499976, 3.1068942547, 0.7245191336, 2.3043241501, 0.7250003815, 1.6737998724, 0.5668860078, 2.5678150654, 1.7685922384, 0.7650401592, 3.3169157505, 1.0474176407, 2.2917063236, 0.8962482214, 1.2504229546, 0.4706872404, 1.6389461756, 1.1889351606, 1.8517462015, 1.0619442463, 1.3416579962, 0.8391312361, 0.9104580283, 0.7287805676, 0.7280119061, 0.5703806877, 1.5607461929, 0.3258948624, 1.1345241070, 0.9054615498, 0.6251160502, 2.2360916138, 0.5721824765, 2.6986114979, 0.6293087602, 2.0015087128, 0.6297267675, 1.4538427591, 0.4923904836, 2.2303736210, 1.5361783504, 0.6645048261, 2.8810336590, 0.9097745419, 1.9905490875, 0.7784706354, 1.0861026049, 0.4088333845, 1.4235692024, 1.0326950550, -1.7309348583, -0.9926610589, -1.2541257143, -0.7843847871, -0.8510580659, -0.6812335849, -0.6805150509, -0.5331680179, -1.4589202404, -0.3046329021, -1.0605057478, -0.8463875651, -0.5843322873, -2.0902049541, -0.5348522067, -2.5225491524, -0.5882514715, -1.8709267378, -0.5886422396, -1.3589913845, -0.4602660239, -2.0848600864, -1.4359552860, -0.6211513281, -2.6930696964, -0.8504191637, -1.8606820107, -0.7276817560, -1.0152432919, -0.3821603358, -1.3306930065, -0.9653200507, -1.4705656767, -0.8433437943, -1.0654786825, -0.6663966775, -0.7230408788, -0.5787616372, -0.5781511664, -0.4529682398, -1.2394677401, -0.2588096559, -0.9009832144, -0.7190729976, -0.4964363575, -1.7757939100, -0.4543991089, -2.1431043148, -0.4997659922, -1.5894997120, -0.5000979900, -1.1545703411, -0.3910322487, -1.7712528706, -1.2199571133, -0.5277169943, -2.2879750729, -0.7224981189, -1.5807960033, -0.6182230115, -0.8625291586, -0.3246753216, -1.1305285692, -0.8201155066, 0.6592549682, 0.3780712783, 0.4776543975, 0.2987458408, 0.3241394460, 0.2594589889, 0.2591853440, 0.2030657977, 0.5556537509, 0.1160244420, 0.4039110243, 0.3223606050, 0.2225525528, 0.7960888743, 0.2037072480, 0.9607542753, 0.2240452468, 0.7125731707, 0.2241940647, 0.5175941586, 0.1752998680, 0.7940531969, 0.5469071269, 0.2365756780, 1.0256998539, 0.3238961101, 0.7086712718, 0.2771495581, 0.3866720498, 0.1455520391, 0.5068162680, 0.3676580191, -2.9098870754, -1.6687695980, -2.1083197594, -1.3186348677, -1.4307197332, -1.1452265978, -1.1440186501, -0.8963125348, -2.4526011944, -0.5121205449, -1.7828236818, -1.4228681326, -0.9823251963, -3.5138583183, -0.8991438746, -4.2406754494, -0.9889137149, -3.1452281475, -0.9895706177, -2.2846100330, -0.7737564445, -3.5048730373, -2.4139945507, -1.0442218781, -4.5273385048, -1.4296456575, -3.1280057430, -1.2233109474, -1.7067326307, -0.6424524784, -2.2370374203, -1.6228064299, -0.0507720076, -0.0291168634, -0.0367861800, -0.0230076760, -0.0249633454, -0.0199820325, -0.0199609566, -0.0156389531, -0.0427932367, -0.0089355316, -0.0311068911, -0.0248263516, -0.0171397105, -0.0613101646, -0.0156883541, -0.0739917383, -0.0172546692, -0.0548782647, -0.0172661301, -0.0398621112, -0.0135005824, -0.0611533858, -0.0421196260, -0.0182196908, -0.0789934695, -0.0249446053, -0.0545777641, -0.0213444568, -0.0297792461, -0.0112095764, -0.0390320569, -0.0283148941, 3.4764504433, 1.9936838150, 2.5188157558, 1.5753768682, 1.7092850208, 1.3682056665, 1.3667625189, 1.0708272457, 2.9301297665, 0.6118319035, 2.1299445629, 1.6999047995, 1.1735867262, 4.1980171204, 1.0742098093, 5.0663471222, 1.1814581156, 3.7576131821, 1.1822428703, 2.7294304371, 0.9244090915, 4.1872820854, 2.8840062618, 1.2475348711, 5.4088249207, 1.7080019712, 3.7370376587, 1.4614932537, 2.0390384197, 0.7675398588, 2.6725950241, 1.9387716055, 2.4495542049, 1.4047766924, 1.7747915983, 1.1100319624, 1.2043853998, 0.9640561938, 0.9630393386, 0.7545193434, 2.0646090508, 0.4311050177, 1.5007878542, 1.1977759600, 0.8269251585, 2.9579796791, 0.7569027543, 3.5698168278, 0.8324714303, 2.6476652622, 0.8330243826, 1.9231935740, 0.6513511539, 2.9504156113, 2.0321099758, 0.8790299892, 3.8111312389, 1.2034813166, 2.6331672668, 1.0297878981, 1.4367340803, 0.5408189893, 1.8831466436, 1.3660846949, 1.4955611229, 0.8576782346, 1.0835887194, 0.6777235866, 0.7353305221, 0.5885989666, 0.5879781246, 0.4606674314, 1.2605351210, 0.2632086873, 0.9162973166, 0.7312951684, 0.5048743486, 1.8059773445, 0.4621226192, 2.1795310974, 0.5082606077, 1.6165167093, 0.5085982084, 1.1741946936, 0.3976787031, 1.8013591766, 1.2406929731, 0.5366866589, 2.3268642426, 0.7347785234, 1.6076650620, 0.6287310719, 0.8771896958, 0.3301939070, 1.1497442722, 0.8340551257, 0.0988101363, 0.0566658936, 0.0715915635, 0.0447764769, 0.0485825092, 0.0388881080, 0.0388470925, 0.0304358080, 0.0832822248, 0.0173899196, 0.0605387948, 0.0483158976, 0.0333565138, 0.1193190143, 0.0305319522, 0.1439993083, 0.0335802399, 0.1068015471, 0.0336025469, 0.0775777996, 0.0262742098, 0.1190138981, 0.0819712728, 0.0354583226, 0.1537334472, 0.0485460423, 0.1062167287, 0.0415395945, 0.0579549968, 0.0218155608, 0.0759623870, 0.0551051386, -2.7474164963, -1.5755956173, -1.9906039238, -1.2450102568, -1.3508369923, -1.0812841654, -1.0801435709, -0.8462678790, -2.3156628609, -0.4835268259, -1.6832816601, -1.3434238434, -0.9274781346, -3.3176658154, -0.8489411473, -4.0039019585, -0.9336987734, -2.9696176052, -0.9343190193, -2.1570513248, -0.7305545807, -3.3091821671, -2.2792117596, -0.9859188795, -4.2745594978, -1.3498229980, -2.9533567429, -1.1550086737, -1.6114389896, -0.6065818071, -2.1121346951, -1.5321987867, 0.0986799523, 0.0565912351, 0.0714972392, 0.0447174832, 0.0485185012, 0.0388368741, 0.0387959108, 0.0303957090, 0.0831725001, 0.0173670072, 0.0604590327, 0.0482522398, 0.0333125666, 0.1191618070, 0.0304917246, 0.1438095868, 0.0335359983, 0.1066608354, 0.0335582718, 0.0774755925, 0.0262395944, 0.1188570932, 0.0818632692, 0.0354116037, 0.1535309106, 0.0484820791, 0.1060767844, 0.0414848663, 0.0578786395, 0.0217868183, 0.0758623108, 0.0550325364, -2.5349552631, -1.4537527561, -1.8366678953, -1.1487319469, -1.2463750839, -0.9976670146, -0.9966146946, -0.7808248401, -2.1365895271, -0.4461350441, -1.5531111956, -1.2395350933, -0.8557550311, -3.0611064434, -0.7832913995, -3.6942749023, -0.8614946604, -2.7399733067, -0.8620668650, -1.9902436733, -0.6740598679, -3.0532786846, -2.1029572487, -0.9096764326, -3.9440023899, -1.2454394102, -2.7249698639, -1.0656903982, -1.4868242741, -0.5596740246, -1.9488005638, -1.4137117863, -0.7790248394, -0.4467571974, -0.5644320250, -0.3530203402, -0.3830273449, -0.3065961003, -0.3062727153, -0.2399576753, -0.6566019058, -0.1371031255, -0.4772913754, -0.3809253275, -0.2629846931, -0.9407179952, -0.2407156825, -1.1352989674, -0.2647485733, -0.8420295715, -0.2649244070, -0.6116278768, -0.2071474046, -0.9383124709, -0.6462662816, -0.2795554698, -1.2120434046, -0.3827398121, -0.8374188542, -0.3275005817, -0.4569205344, -0.1719951481, -0.5988919139, -0.4344521165, -1.6309530735, -0.9353232384, -1.1816852093, -0.7390773892, -0.8018994927, -0.6418843865, -0.6412073374, -0.5023713112, -1.3746504784, -0.2870367765, -0.9992490411, -0.7974987626, -0.5505802631, -1.9694710970, -0.5039582253, -2.3768424988, -0.5542730689, -1.7628587484, -0.5546412468, -1.2804937363, -0.4336802363, -1.9644348621, -1.3530119658, -0.5852725506, -2.5375134945, -0.8012974858, -1.7532057762, -0.6856496334, -0.9566010237, -0.3600860834, -1.2538298368, -0.9095615149, 0.0878746286, 0.0503945723, 0.0636683851, 0.0398209803, 0.0432057902, 0.0345842876, 0.0345478095, 0.0270674191, 0.0740652159, 0.0154653434, 0.0538388491, 0.0429686829, 0.0296648853, 0.1061137468, 0.0271529220, 0.1280626357, 0.0298638493, 0.0949816108, 0.0298836865, 0.0689921156, 0.0233663935, 0.1058423966, 0.0728993490, 0.0315340795, 0.1367194653, 0.0431733578, 0.0944615155, 0.0369423293, 0.0515410043, 0.0194011908, 0.0675554872, 0.0490065478, 0.7253887653, 0.4159978330, 0.5255707502, 0.3287148178, 0.3566558063, 0.2854868770, 0.2851857543, 0.2234365344, 0.6113946438, 0.1276635379, 0.4444297254, 0.3546985388, 0.2448781282, 0.8759493232, 0.2241423428, 1.0571333170, 0.2465205491, 0.7840555906, 0.2466842979, 0.5695171356, 0.1928852499, 0.8737093806, 0.6017706394, 0.2603079975, 1.1285939217, 0.3563880622, 0.7797623277, 0.3049520850, 0.4254614413, 0.1601532400, 0.5576580167, 0.4045399725, 1.2049889565, 0.6910402179, 0.8730586171, 0.5460488796, 0.5924633741, 0.4742402434, 0.4737400115, 0.3711645007, 1.0156261921, 0.2120699435, 0.7382702231, 0.5892120600, 0.4067824781, 1.4550945759, 0.3723369539, 1.7560706139, 0.4095108211, 1.3024441004, 0.4097828269, 0.9460607767, 0.3204138279, 1.4513736963, 0.9996390939, 0.4324139953, 1.8747783899, 0.5920186639, 1.2953122854, 0.5065751076, 0.7067607641, 0.2660406232, 0.9263608456, 0.6720067859, 1.8569536209, 1.0649305582, 1.3454308510, 0.8414910436, 0.9130183458, 0.7308300138, 0.7300591469, 0.5719847083, 1.5651352406, 0.3268113434, 1.1377146244, 0.9080078602, 0.6268739700, 2.2423799038, 0.5737915039, 2.7062005997, 0.6310784817, 2.0071372986, 0.6314976215, 1.4579311609, 0.4937751591, 2.2366459370, 1.5404982567, 0.6663734913, 2.8891355991, 0.9123329520, 1.9961467981, 0.7806597948, 1.0891568661, 0.4099830985, 1.4275724888, 1.0355991125, -0.4762153924, -0.2731012404, -0.3450354934, -0.2158002108, -0.2341433764, -0.1874212176, -0.1872235239, -0.1466853619, -0.4013786316, -0.0838107020, -0.2917666733, -0.2328584343, -0.1607616991, -0.5750579238, -0.1471487284, -0.6940045953, -0.1618399471, -0.5147299767, -0.1619474441, -0.3738861680, -0.1266285330, -0.5735874176, -0.3950604796, -0.1708913594, -0.7409182787, -0.2339676172, -0.5119114518, -0.2002000511, -0.2793140709, -0.1051400825, -0.3661006987, -0.2655791938, -2.1225302219, -1.2172341347, -1.5378509760, -0.9618389010, -1.0435959101, -0.8353514075, -0.8344703317, -0.6537884474, -1.7889767885, -0.3735510409, -1.3004275560, -1.0378687382, -0.7165278196, -2.5630793571, -0.6558536887, -3.0932343006, -0.7213336229, -2.2941927910, -0.7218127847, -1.6664407253, -0.5643935800, -2.5565249920, -1.7608163357, -0.7616764903, -3.3023321629, -1.0428124666, -2.2816305161, -0.8923076987, -1.2449252605, -0.4686177969, -1.6317402124, -1.1837077141, 0.8972325325, 0.5145472288, 0.6500778198, 0.4065869451, 0.4411471188, 0.3531183898, 0.3527459204, 0.2763683796, 0.7562333345, 0.1579068750, 0.5497146249, 0.4387261868, 0.3028894663, 1.0834606886, 0.2772413790, 1.3075668812, 0.3049209714, 0.9697974324, 0.3051235080, 0.7044350505, 0.2385795265, 1.0806900263, 0.7443293929, 0.3219746351, 1.3959563971, 0.4408159554, 0.9644870758, 0.3771948516, 0.5262527466, 0.1980933398, 0.6897665262, 0.5003749728, 1.5882525444, 0.9108352065, 1.1507471800, 0.7197273374, 0.7809046507, 0.6250789762, 0.6244196296, 0.4892185330, 1.3386602402, 0.2795217633, 0.9730873704, 0.7766191959, 0.5361652970, 1.9179077148, 0.4907639027, 2.3146133423, 0.5397614241, 1.7167047262, 0.5401199460, 1.2469686270, 0.4223259091, 1.9130033255, 1.3175883293, 0.5699493289, 2.4710779190, 0.7803184390, 1.7073044777, 0.6676983833, 0.9315559268, 0.3506585658, 1.2210028172, 0.8857479692, -3.0452790260, -1.7464145422, -2.2064161301, -1.3799886703, -1.4972887039, -1.1985120773, -1.1972478628, -0.9380164146, -2.5667164326, -0.5359485745, -1.8657753468, -1.4890717268, -1.0280311108, -3.6773521900, -0.9409794807, -4.4379868507, -1.0349261761, -3.2915701866, -1.0356136560, -2.3909089565, -0.8097580075, -3.6679487228, -2.5263135433, -1.0928076506, -4.7379879951, -1.4961646795, -3.2735464573, -1.2802295685, -1.7861438990, -0.6723446846, -2.3411228657, -1.6983127594, 1.8611195087, 1.0673196316, 1.3484492302, 0.8433788419, 0.9150666595, 0.7324695587, 0.7316969633, 0.5732678771, 1.5686464310, 0.3275445104, 1.1402670145, 0.9100449085, 0.6282802820, 2.2474105358, 0.5750787854, 2.7122716904, 0.6324942112, 2.0116400719, 0.6329143643, 1.4612019062, 0.4948828816, 2.2416634560, 1.5439542532, 0.6678684354, 2.8956172466, 0.9143797159, 2.0006248951, 0.7824111581, 1.0916002989, 0.4109028578, 1.4307751656, 1.0379223824, 1.1435418129, 0.6558013558, 0.8285379410, 0.5182036757, 0.5622513294, 0.4500568509, 0.4495821297, 0.3522373438, 0.9638353586, 0.2012556642, 0.7006229162, 0.5591658354, 0.3860390186, 1.3808935881, 0.3533500135, 1.6665216684, 0.3886282444, 1.2360273600, 0.3888863623, 0.8978174329, 0.3040746450, 1.3773623705, 0.9486635923, 0.4103634953, 1.7791761160, 0.5618292689, 1.2292592525, 0.4807428420, 0.6707202792, 0.2524741590, 0.8791220784, 0.6377385259, 1.2008230686, 0.6886511445, 0.8700402975, 0.5441610217, 0.5904151201, 0.4726006687, 0.4721021950, 0.3698813021, 1.0121148825, 0.2113367766, 0.7357178330, 0.5871750116, 0.4053761363, 1.4500639439, 0.3710497022, 1.7499995232, 0.4080950320, 1.2979413271, 0.4083661139, 0.9427900314, 0.3193060756, 1.4463559389, 0.9961831570, 0.4309190512, 1.8682968616, 0.5899719000, 1.2908341885, 0.5048237443, 0.7043173313, 0.2651208639, 0.9231582284, 0.6696835160, 2.2266778946, 1.2769610882, 1.6133097410, 1.0090341568, 1.0948027372, 0.8763402104, 0.8754158616, 0.6858683228, 1.8767577410, 0.3918803334, 1.3642365932, 1.0887945890, 0.7516862154, 2.6888437271, 0.6880348921, 3.2450122833, 0.7567278147, 2.4067637920, 0.7572304606, 1.7482091188, 0.5920870900, 2.6819679737, 1.8472155333, 0.7990502119, 3.4643702507, 1.0939809084, 2.3935849667, 0.9360912442, 1.3060108423, 0.4916118085, 1.7118059397, 1.2417895794, 0.7394487262, 0.4240609705, 0.5357576609, 0.3350861669, 0.3635687232, 0.2910203636, 0.2907133996, 0.2277673185, 0.6232451200, 0.1301379949, 0.4530439377, 0.3615735173, 0.2496245056, 0.8929275274, 0.2284868062, 1.0776233673, 0.2512987554, 0.7992526889, 0.2514656782, 0.5805558562, 0.1966238618, 0.8906441927, 0.6134345531, 0.2653534412, 1.1504690647, 0.3632957935, 0.7948761582, 0.3108628392, 0.4337080121, 0.1632574201, 0.5684669018, 0.4123810232, 0.6467572451, 0.3709040284, 0.4685993195, 0.2930824161, 0.3179946244, 0.2545403540, 0.2542718649, 0.1992162019, 0.5451200008, 0.1138249263, 0.3962539434, 0.3162495196, 0.2183335572, 0.7809971571, 0.1998455077, 0.9425409436, 0.2197979391, 0.6990646720, 0.2199439406, 0.5077819824, 0.1719766557, 0.7790000439, 0.5365392566, 0.2320908308, 1.0062552691, 0.3177559078, 0.6952367425, 0.2718955278, 0.3793417811, 0.1427927613, 0.4972083867, 0.3606881797, 0.7191399336, 0.4124142230, 0.5210431814, 0.3258830905, 0.3535833955, 0.2830275595, 0.2827290297, 0.2215117365, 0.6061277986, 0.1265637875, 0.4406011999, 0.3516429663, 0.2427686304, 0.8684034348, 0.2222114652, 1.0480265617, 0.2443968952, 0.7773013711, 0.2445592433, 0.5646110177, 0.1912236363, 0.8661828041, 0.5965867043, 0.2580655813, 1.1188716888, 0.3533179462, 0.7730450630, 0.3023250699, 0.4217962921, 0.1587736011, 0.5528540611, 0.4010550678, 0.0380464606, 0.0218189824, 0.0275660530, 0.0172410086, 0.0187065061, 0.0149737149, 0.0149579216, 0.0117191896, 0.0320674963, 0.0066959206, 0.0233102273, 0.0186038483, 0.0128437961, 0.0459433198, 0.0117562097, 0.0554463752, 0.0129299406, 0.0411235206, 0.0129385293, 0.0298710316, 0.0101167830, 0.0458258390, 0.0315627195, 0.0136530884, 0.0591944680, 0.0186924636, 0.0408983380, 0.0159946606, 0.0223153457, 0.0083999969, 0.0292490236, 0.0212180205, 2.3558211327, 1.3510224819, 1.7068786621, 1.0675561428, 1.1582992077, 0.9271662831, 0.9261883497, 0.7256474495, 1.9856061935, 0.4146086574, 1.4433597326, 1.1519427299, 0.7952826023, 2.8447916508, 0.7279396653, 3.4332168102, 0.8006166220, 2.5463514328, 0.8011484146, 1.8496019840, 0.6264270544, 2.8375170231, 1.9543505907, 0.8453936577, 3.6652970314, 1.1574296951, 2.5324082375, 0.9903827906, 1.3817570210, 0.5201243758, 1.8110874891, 1.3138110638, -0.9638870358, -0.5527724624, -0.6983714700, -0.4367918968, -0.4739195108, -0.3793511987, -0.3789510727, -0.2968994975, -0.8124131560, -0.1696376354, -0.5905523896, -0.4713187218, -0.3253908157, -1.1639498472, -0.2978373766, -1.4047048092, -0.3275732398, -1.0418426991, -0.3277908266, -0.7567668557, -0.2563033700, -1.1609735489, -0.7996249199, -0.3458938301, -1.4996607304, -0.4735637605, -1.0361379385, -0.4052162766, -0.5653475523, -0.2128095031, -0.7410086393, -0.5375473499, -0.6707112193, -0.3846412301, -0.4859548509, -0.3039373159, -0.3297722042, -0.2639677823, -0.2636893392, -0.2065945864, -0.5653096437, -0.1180406660, -0.4109300077, -0.3279624581, -0.2264199853, -0.8099229932, -0.2072471827, -0.9774498940, -0.2279386073, -0.7249559164, -0.2280900031, -0.5265887380, -0.1783461571, -0.8078519106, -0.5564110279, -0.2406867892, -1.0435240269, -0.3295246363, -0.7209863067, -0.2819657326, -0.3933914900, -0.1480813771, -0.5156235099, -0.3740470111, 3.5951788425, 2.0617725849, 2.6048388481, 1.6291794777, 1.7676608562, 1.4149328470, 1.4134403467, 1.1073982716, 3.0302002430, 0.6327272654, 2.2026870251, 1.7579602003, 1.2136673927, 4.3413882256, 1.1108964682, 5.2393741608, 1.2218074799, 3.8859438896, 1.2226190567, 2.8226463795, 0.9559797049, 4.3302869797, 2.9825015068, 1.2901409864, 5.5935478210, 1.7663339376, 3.8646655083, 1.5114064217, 2.1086761951, 0.7937530279, 2.7638700008, 2.0049848557, 0.9998179674, 0.5733782053, 0.7244047523, 0.4530742466, 0.4915858805, 0.3934923410, 0.3930772841, 0.3079670668, 0.8426976204, 0.1759612411, 0.6125664711, 0.4888881445, 0.3375204802, 1.2073385715, 0.3089399040, 1.4570680857, 0.3397842646, 1.0806796551, 0.3400099576, 0.7849769592, 0.2658576369, 1.2042512894, 0.8294326067, 0.3587877452, 1.5555638075, 0.4912168384, 1.0747621059, 0.4203215837, 0.5864220858, 0.2207424343, 0.7686312795, 0.5575855970, 1.2226940393, 0.7011938095, 0.8858866692, 0.5540720224, 0.6011685729, 0.4812083244, 0.4807007611, 0.3766180575, 1.0305489302, 0.2151859254, 0.7491177320, 0.5978694558, 0.4127593935, 1.4764745235, 0.3778077662, 1.7818728685, 0.4155278206, 1.3215811253, 0.4158038199, 0.9599614143, 0.3251217306, 1.4726989269, 1.0143269300, 0.4387675226, 1.9023249149, 0.6007173061, 1.3143445253, 0.5140182972, 0.7171453238, 0.2699496150, 0.9399720430, 0.6818807125, -0.0061227460, -0.0035112884, -0.0044361539, -0.0027745636, -0.0030104034, -0.0024096922, -0.0024071506, -0.0018859474, -0.0051605627, -0.0010775621, -0.0037512716, -0.0029938829, -0.0020669282, -0.0073935734, -0.0018919050, -0.0089228824, -0.0020807914, -0.0066179316, -0.0020821735, -0.0048070895, -0.0016280750, -0.0073746671, -0.0050793299, -0.0021971662, -0.0095260562, -0.0030081435, -0.0065816939, -0.0025739910, -0.0035911670, -0.0013517960, -0.0047069909, -0.0034145766, 0.5030334592, 0.2884809077, 0.3644661307, 0.2279529870, 0.2473291457, 0.1979758292, 0.1977670044, 0.1549459398, 0.4239822328, 0.0885304958, 0.3081974983, 0.2459718436, 0.1698149890, 0.6074422598, 0.1554353982, 0.7330874205, 0.1709539443, 0.5437169671, 0.1710675061, 0.3949415386, 0.1337596178, 0.6058889031, 0.4173083007, 0.1805150956, 0.7826430202, 0.2471434772, 0.5407397151, 0.2114742994, 0.2950436175, 0.1110610366, 0.3867176175, 0.2805352509, 0.8607808352, 0.4936428070, 0.6236672401, 0.3900686204, 0.4232247174, 0.3387722969, 0.3384149671, 0.2651404142, 0.7255099416, 0.1514916271, 0.5273814201, 0.4209021330, 0.2905840278, 1.0394431353, 0.2659779489, 1.2544445992, 0.2925330102, 0.9303976297, 0.2927273214, 0.6758161187, 0.2288867980, 1.0367851257, 0.7140896320, 0.3088938296, 1.3392431736, 0.4229069948, 0.9253030419, 0.3618706167, 0.5048727393, 0.1900454462, 0.6617435217, 0.4800463617, -2.2350099087, -1.2817392349, -1.6193464994, -1.0128097534, -1.0988992453, -0.8796193004, -0.8786914945, -0.6884347200, -1.8837802410, -0.3933466971, -1.3693412542, -1.0928686857, -0.7544988990, -2.6989047527, -0.6906093955, -3.2571544647, -0.7595593929, -2.4157693386, -0.7600638866, -1.7547506094, -0.5943025351, -2.6920034885, -1.8541275263, -0.8020401597, -3.4773330688, -1.0980743170, -2.4025411606, -0.9395939112, -1.3108977079, -0.4934513271, -1.7182111740, -1.2464361191, -1.6715706587, -0.9586167336, -1.2111141682, -0.7574834824, -0.8218701482, -0.6578699946, -0.6571760774, -0.5148824453, -1.4088850021, -0.2941851914, -1.0241345167, -0.8173598647, -0.5642920136, -2.0185191631, -0.5165089369, -2.4360358715, -0.5680767894, -1.8067612648, -0.5684541464, -1.3123834133, -0.4444807172, -2.0133576393, -1.3867076635, -0.5998482704, -2.6007082462, -0.8212531805, -1.7968679667, -0.7027251720, -0.9804244041, -0.3690537512, -1.2850555182, -0.9322134256, 1.2039475441, 0.6904429197, 0.8723040819, 0.5455769300, 0.5919513106, 0.4738303423, 0.4733305573, 0.3708436787, 1.0147483349, 0.2118866593, 0.7376321554, 0.5887027979, 0.4064309001, 1.4538369179, 0.3720151484, 1.7545528412, 0.4091568589, 1.3013184071, 0.4094286561, 0.9452431202, 0.3201368749, 1.4501192570, 0.9987751245, 0.4320402443, 1.8731580973, 0.5915069580, 1.2941927910, 0.5061372519, 0.7061499357, 0.2658106685, 0.9255601764, 0.6714259982, 0.9336842299, 0.5354516506, 0.6764883995, 0.4231052697, 0.4590695202, 0.3674644530, 0.3670768738, 0.2875963449, 0.7869566679, 0.1643221378, 0.5720477700, 0.4565502107, 0.3151949048, 1.1274782419, 0.2885048091, 1.3606891632, 0.3173089325, 1.0091972351, 0.3175196946, 0.7330539823, 0.2482722551, 1.1245950460, 0.7745690942, 0.3350554407, 1.4526697397, 0.4587249160, 1.0036711693, 0.3925190866, 0.5476326942, 0.2061412483, 0.7177895308, 0.5207036138, 1.4632753134, 0.8391629457, 1.0601965189, 0.6630930305, 0.7194564342, 0.5758923888, 0.5752849579, 0.4507226348, 1.2333230972, 0.2575266063, 0.8965165615, 0.7155081630, 0.4939752519, 1.7669903040, 0.4521464407, 2.1324799061, 0.4972884059, 1.5816197395, 0.4976187348, 1.1488465071, 0.3890936971, 1.7624719143, 1.2139091492, 0.5251008272, 2.2766323090, 0.7189163566, 1.5729591846, 0.6151582003, 0.8582531810, 0.3230657578, 1.1249239445, 0.8160497546, -2.0871200562, -1.1969270706, -1.5121948719, -0.9457924962, -1.0261855125, -0.8214152455, -0.8205488324, -0.6428812742, -1.7591311932, -0.3673190773, -1.2787325382, -1.0205539465, -0.7045739889, -2.5203194618, -0.6449120641, -3.0416297913, -0.7092996240, -2.2559187412, -0.7097707391, -1.6386394501, -0.5549777746, -2.5138745308, -1.7314406633, -0.7489694357, -3.2472393513, -1.0254151821, -2.2435660362, -0.8774213195, -1.2241561413, -0.4607998431, -1.6045178175, -1.1639599800, 2.4495542049, 1.4047766924, 1.7747915983, 1.1100319624, 1.2043853998, 0.9640561938, 0.9630393386, 0.7545193434, 2.0646090508, 0.4311050177, 1.5007878542, 1.1977759600, 0.8269251585, 2.9579796791, 0.7569027543, 3.5698168278, 0.8324714303, 2.6476652622, 0.8330243826, 1.9231935740, 0.6513511539, 2.9504156113, 2.0321099758, 0.8790299892, 3.8111312389, 1.2034813166, 2.6331672668, 1.0297878981, 1.4367340803, 0.5408189893, 1.8831466436, 1.3660846949, -2.2475075722, -1.2889064550, -1.6284015179, -1.0184731483, -1.1050441265, -0.8845379353, -0.8836050034, -0.6922843456, -1.8943139315, -0.3955461979, -1.3769984245, -1.0989798307, -0.7587178946, -2.7139966488, -0.6944711804, -3.2753677368, -0.7638067007, -2.4292778969, -0.7643139958, -1.7645628452, -0.5976257920, -2.7070565224, -1.8644953966, -0.8065249920, -3.4967777729, -1.1042145491, -2.4159758091, -0.9448479414, -1.3182280064, -0.4962106049, -1.7278190851, -1.2534059286, 0.4371600151, 0.2507036626, 0.3167384267, 0.1981019974, 0.2149408013, 0.1720504165, 0.1718689501, 0.1346554011, 0.3684607446, 0.0769372210, 0.2678382993, 0.2137612402, 0.1475773007, 0.5278962255, 0.1350807548, 0.6370878816, 0.1485671252, 0.4725159407, 0.1486658007, 0.3432230055, 0.1162434742, 0.5265462995, 0.3626607656, 0.1568762064, 0.6801540256, 0.2147794515, 0.4699285626, 0.1837812364, 0.2564069629, 0.0965173319, 0.3360760212, 0.2437984943, -0.2783347368, -0.1596201360, -0.2016637176, -0.1261292696, -0.1368503422, -0.1095425263, -0.1094269827, -0.0857335404, -0.2345947176, -0.0489850417, -0.1705295742, -0.1360993236, -0.0939607769, -0.3361054659, -0.0860043615, -0.4056265354, -0.0945909768, -0.3008454740, -0.0946538076, -0.2185261399, -0.0740108863, -0.3352459967, -0.2309019417, -0.0998812765, -0.4330462813, -0.1367476135, -0.2991981208, -0.1170114055, -0.1632513553, -0.0614514761, -0.2139757425, -0.1552236974, 0.8862969875, 0.5082759261, 0.6421546340, 0.4016314447, 0.4357703924, 0.3488145471, 0.3484466374, 0.2729999721, 0.7470163107, 0.1559823006, 0.5430146456, 0.4333789647, 0.2991978228, 1.0702553988, 0.2738623619, 1.2916301489, 0.3012045920, 0.9579774737, 0.3014046550, 0.6958493590, 0.2356716990, 1.0675185919, 0.7352574468, 0.3180503845, 1.3789424896, 0.4354432821, 0.9527318478, 0.3725975752, 0.5198387504, 0.1956789643, 0.6813596487, 0.4942764044, 2.0069262981, 1.1509373188, 1.4540916681, 0.9094521403, 0.9867562652, 0.7898538709, 0.7890207767, 0.6181797385, 1.6915398836, 0.3532055318, 1.2295995951, 0.9813410640, 0.6775020361, 2.4234807491, 0.6201325059, 2.9247608185, 0.6820461154, 2.1692392826, 0.6824991107, 1.5756777525, 0.5336537957, 2.4172835350, 1.6649131775, 0.7201916575, 3.1224701405, 0.9860154986, 2.1573610306, 0.8437080383, 1.1771202087, 0.4430944622, 1.5428671837, 1.1192369461, 0.7649649382, 0.4386940598, 0.5542451143, 0.3466489911, 0.3761143982, 0.3010626137, 0.3007450700, 0.2356268913, 0.6447514296, 0.1346286833, 0.4686771631, 0.3740503490, 0.2582383156, 0.9237397909, 0.2363712043, 1.1148089170, 0.2599703372, 0.8268325329, 0.2601430118, 0.6005891562, 0.2034087777, 0.9213776588, 0.6346023679, 0.2745099962, 1.1901683807, 0.3758320510, 0.8223050237, 0.3215897977, 0.4486739933, 0.1688909531, 0.5880830288, 0.4266110659, -1.0216890574, -0.5859208703, -0.7402511239, -0.4629852474, -0.5023393035, -0.4020999670, -0.4016758502, -0.3147038519, -0.8611316085, -0.1798103899, -0.6259663701, -0.4995825589, -0.3449037373, -1.2337491512, -0.3156979680, -1.4889415503, -0.3472170234, -1.1043195724, -0.3474476635, -0.8021483421, -0.2716732621, -1.2305942774, -0.8475764394, -0.3666362464, -1.5895917416, -0.5019622445, -1.0982725620, -0.4295161366, -0.5992500782, -0.2255711704, -0.7854450941, -0.5697827935, 1.4247406721, 0.8170639873, 1.0322767496, 0.6456307769, 0.7005099058, 0.5607265830, 0.5601351261, 0.4388530850, 1.2008440495, 0.2507447600, 0.8729072213, 0.6966655850, 0.4809666574, 1.7204575539, 0.4402393699, 2.0763220787, 0.4841925502, 1.5399684906, 0.4845141768, 1.1185921431, 0.3788471222, 1.7160580158, 1.1819415092, 0.5112725496, 2.2166783810, 0.6999840140, 1.5315361023, 0.5989582539, 0.8356514573, 0.3145579696, 1.0952996016, 0.7945594788, -1.8298752308, -1.0494016409, -1.3258116245, -0.8292202950, -0.8997045755, -0.7201729417, -0.7194133401, -0.5636439323, -1.5423121452, -0.3220457137, -1.1211242676, -0.8947671652, -0.6177327633, -2.2096812725, -0.5654243827, -2.6667382717, -0.6218759418, -1.9778689146, -0.6222890615, -1.4366713762, -0.4865748286, -2.2040307522, -1.5180344582, -0.6566563249, -2.8470058441, -0.8990291953, -1.9670386314, -0.7692760825, -1.0732746124, -0.4040046334, -1.4067554474, -1.0204977989, -1.2112377882, -0.6946238279, -0.8775861859, -0.5488805771, -0.5955358148, -0.4766995609, -0.4761967659, -0.3730892837, -1.0208929777, -0.2131697088, -0.7420987487, -0.5922676325, -0.4088919759, -1.4626404047, -0.3742678165, -1.7651773691, -0.4116344750, -1.3091983795, -0.4119078815, -0.9509668946, -0.3220754266, -1.4589002132, -1.0048230886, -0.4346564114, -1.8845007420, -0.5950887799, -1.3020296097, -0.5092021227, -0.7104259133, -0.2674202621, -0.9311648011, -0.6754917502, -0.9383708239, -0.5381393433, -0.6798840165, -0.4252290726, -0.4613738358, -0.3693089485, -0.3689194024, -0.2890399396, -0.7909067869, -0.1651469469, -0.5749191642, -0.4588418901, -0.3167770207, -1.1331375837, -0.2899529636, -1.3675191402, -0.3189016879, -1.0142629147, -0.3191134930, -0.7367336154, -0.2495184541, -1.1302399635, -0.7784571052, -0.3367372453, -1.4599614143, -0.4610274732, -1.0087090731, -0.3944893479, -0.5503815413, -0.2071759701, -0.7213925123, -0.5233173370, 1.2247771025, 0.7023883462, 0.8873957992, 0.5550159812, 0.6021926999, 0.4820280969, 0.4815196693, 0.3772596717, 1.0323045254, 0.2155525088, 0.7503939271, 0.5988879800, 0.4134625793, 1.4789898396, 0.3784513772, 1.7849084139, 0.4162357152, 1.3238326311, 0.4165121913, 0.9615967870, 0.3256755769, 1.4752078056, 1.0160549879, 0.4395149946, 1.9055656195, 0.6017406583, 1.3165836334, 0.5148939490, 0.7183670402, 0.2704094946, 0.9415733218, 0.6830423474, -1.4320310354, -0.8212448359, -1.0375589132, -0.6489344835, -0.7040943503, -0.5635957718, -0.5630013347, -0.4410986900, -1.2069888115, -0.2520278096, -0.8773738742, -0.7002304196, -0.4834277630, -1.7292610407, -0.4424920678, -2.0869464874, -0.4866701365, -1.5478484631, -0.4869934022, -1.1243159771, -0.3807856739, -1.7248390913, -1.1879894733, -0.5138887167, -2.2280209064, -0.7035657763, -1.5393729210, -0.6020231247, -0.8399274945, -0.3161675632, -1.1009042263, -0.7986252308, 0.4400240779, 0.2523461580, 0.3188135624, 0.1993998587, 0.2163489908, 0.1731776148, 0.1729949564, 0.1355375946, 0.3708747327, 0.0774412751, 0.2695930600, 0.2151617110, 0.1485441625, 0.5313547254, 0.1359657347, 0.6412617564, 0.1495404691, 0.4756116271, 0.1496398002, 0.3454716206, 0.1170050502, 0.5299959779, 0.3650367558, 0.1579039842, 0.6846100688, 0.2161865830, 0.4730072916, 0.1849852800, 0.2580868006, 0.0971496627, 0.3382778466, 0.2453957498, 1.3976622820, 0.8015349507, 1.0126575232, 0.6333600283, 0.6871960759, 0.5500695109, 0.5494892597, 0.4305123091, 1.1780210733, 0.2459791452, 0.8563168645, 0.6834248900, 0.4718254805, 1.6877588034, 0.4318722486, 2.0368597507, 0.4749900699, 1.5107001066, 0.4753055573, 1.0973323584, 0.3716467917, 1.6834429502, 1.1594777107, 0.5015553832, 2.1745486259, 0.6866801977, 1.5024279356, 0.5875745416, 0.8197692037, 0.3085795343, 1.0744825602, 0.7794582248, -1.8590365648, -1.0661251545, -1.3469400406, -0.8424349427, -0.9140424728, -0.7316498160, -0.7308780551, -0.5726262927, -1.5668908358, -0.3271779120, -1.1389907598, -0.9090263844, -0.6275771260, -2.2448952198, -0.5744351149, -2.7092361450, -0.6317863464, -2.0093886852, -0.6322060227, -1.4595665932, -0.4943290055, -2.2391548157, -1.5422263145, -0.6671209931, -2.8923764229, -0.9133563638, -1.9983859062, -0.7815354466, -1.0903785229, -0.4104429781, -1.4291738272, -1.0367606878, 2.8807256222, 1.6520459652, 2.0871911049, 1.3054201603, 1.4163818359, 1.1337497234, 1.1325539351, 0.8873301148, 2.4280223846, 0.5069882870, 1.7649571896, 1.4086089134, 0.9724808335, 3.4786443710, 0.8901330829, 4.1981773376, 0.9790033698, 3.1137082577, 0.9796536565, 2.2617149353, 0.7660022974, 3.4697489738, 2.3898026943, 1.0337572098, 4.4819679260, 1.4153186083, 3.0966584682, 1.2110515833, 1.6896286011, 0.6360141635, 2.2146189213, 1.6065435410, -2.4578859806, -1.4095548391, -1.7808283567, -1.1138075590, -1.2084819078, -0.9673352838, -0.9663149714, -0.7570857406, -2.0716316700, -0.4325713813, -1.5058925152, -1.2018500566, -0.8297377825, -2.9680407047, -0.7594772577, -3.5819592476, -0.8353029490, -2.6566708088, -0.8358578086, -1.9297350645, -0.6535666585, -2.9604511261, -2.0390219688, -0.8820198774, -3.8240942955, -1.2075747252, -2.6421236992, -1.0332906246, -1.4416209459, -0.5426585078, -1.8895519972, -1.3707312346, 1.2206110954, 0.6999992728, 0.8843774796, 0.5531281233, 0.6001444459, 0.4803885520, 0.4798818529, 0.3759764731, 1.0287933350, 0.2148193419, 0.7478415966, 0.5968509316, 0.4120562375, 1.4739592075, 0.3771641254, 1.7788373232, 0.4148199260, 1.3193297386, 0.4150954783, 0.9583260417, 0.3245678544, 1.4701900482, 1.0125989914, 0.4380200505, 1.8990840912, 0.5996938944, 1.3121054173, 0.5131426454, 0.7159236073, 0.2694897354, 0.9383707047, 0.6807190776, -0.5686464906, -0.3261088729, -0.4120052159, -0.2576859891, -0.2795894742, -0.2237987667, -0.2235627025, -0.1751562804, -0.4792842567, -0.1000779569, -0.3483971953, -0.2780551314, -0.1919647604, -0.6866738200, -0.1757095754, -0.8287075162, -0.1932522953, -0.6146365404, -0.1933806539, -0.4464556575, -0.1512065232, -0.6849179268, -0.4717397988, -0.2040605396, -0.8847268820, -0.2793795764, -0.6112709641, -0.2390579134, -0.3335275650, -0.1255472600, -0.4371590614, -0.3171268106, 1.1018826962, 0.6319105625, 0.7983543873, 0.4993255734, 0.5417686105, 0.4336613417, 0.4332039356, 0.3394053876, 0.9287229776, 0.1939239502, 0.6750993133, 0.5387954712, 0.3719756901, 1.3305877447, 0.3404775262, 1.6058105230, 0.3744705617, 1.1909990311, 0.3747192919, 0.8651100397, 0.2929972708, 1.3271852732, 0.9141038656, 0.3954139948, 1.7143609524, 0.5413619280, 1.1844774485, 0.4632294178, 0.6462860107, 0.2432765514, 0.8470957279, 0.6145057678, -2.0569171906, -1.1796061993, -1.4903118610, -0.9321058989, -1.0113354921, -0.8095284700, -0.8086746335, -0.6335781217, -1.7336747646, -0.3620035946, -1.2602279186, -1.0057854652, -0.6943780184, -2.4838476181, -0.6355795264, -2.9976141453, -0.6990352869, -2.2232732773, -0.6994996071, -1.6149265766, -0.5469466448, -2.4774961472, -1.7063847780, -0.7381310463, -3.2002484798, -1.0105763674, -2.2110991478, -0.8647240996, -1.2064412832, -0.4541315734, -1.5812988281, -1.1471161842, 0.6259277463, 0.3589586616, 0.4535075724, 0.2836433649, 0.3077532351, 0.2463425994, 0.2460827529, 0.1928002238, 0.5275638103, 0.1101590693, 0.3834921420, 0.3060643375, 0.2113018781, 0.7558442950, 0.1934092492, 0.9121853709, 0.2127190977, 0.6765505075, 0.2128603905, 0.4914282858, 0.1664379537, 0.7539114952, 0.5192593932, 0.2246160805, 0.9738477468, 0.3075222075, 0.6728459001, 0.2631388307, 0.3671246469, 0.1381939650, 0.4811952114, 0.3490718305, -0.4926186502, -0.2825082242, -0.3569202721, -0.2232334614, -0.2422084659, -0.1938769519, -0.1936724484, -0.1517379433, -0.4152041376, -0.0866975710, -0.3018166125, -0.2408792526, -0.1662991494, -0.5948657990, -0.1522172689, -0.7179096341, -0.1674145311, -0.5324598551, -0.1675257385, -0.3867647052, -0.1309902668, -0.5933446288, -0.4086683691, -0.1767777205, -0.7664392591, -0.2420266420, -0.5295442939, -0.2070959508, -0.2889350355, -0.1087616384, -0.3787110448, -0.2747270763, 3.0723574162, 1.7619434595, 2.2260353565, 1.3922593594, 1.5106024742, 1.2091691494, 1.2078937292, 0.9463571906, 2.5895395279, 0.5407142043, 1.8823657036, 1.5023125410, 1.0371723175, 3.7100508213, 0.9493466020, 4.4774489403, 1.0441286564, 3.3208384514, 1.0448222160, 2.4121687412, 0.8169583082, 3.7005639076, 2.5487773418, 1.1025248766, 4.7801179886, 1.5094684362, 3.3026545048, 1.2916132212, 1.8020261526, 0.6783230901, 2.3619399071, 1.7134140730, -0.8071447611, -0.4628834724, -0.5848059058, -0.3657630682, -0.3968531787, -0.3176630735, -0.3173280060, -0.2486192584, -0.6803027391, -0.1420520395, -0.4945197999, -0.3946753144, -0.2724774480, -0.9746744037, -0.2494046092, -1.1762789488, -0.2743049860, -0.8724237084, -0.2744871974, -0.6337053776, -0.2146246433, -0.9721820354, -0.6695940495, -0.2896463573, -1.2557936907, -0.3965552747, -0.8676465154, -0.3393221200, -0.4734136760, -0.1782035232, -0.6205096245, -0.4501342177, -0.2258703411, -0.1295327097, -0.1636513323, -0.1023546606, -0.1110548824, -0.0888944268, -0.0888006613, -0.0695732906, -0.1903750449, -0.0397516601, -0.1383857876, -0.1104454324, -0.0762497410, -0.2727516294, -0.0697930679, -0.3291683793, -0.0767611563, -0.2441379130, -0.0768121406, -0.1773352921, -0.0600602850, -0.2720541656, -0.1873783320, -0.0810542628, -0.3514196873, -0.1109715179, -0.2428010851, -0.0949554667, -0.1324794739, -0.0498682447, -0.1736426204, -0.1259649694, 3.6285061836, 2.0808851719, 2.6289856434, 1.6442819834, 1.7840471268, 1.4280492067, 1.4265429974, 1.1176638603, 3.0582900047, 0.6385926604, 2.2231059074, 1.7742565870, 1.2249180079, 4.3816328049, 1.1211943626, 5.2879428864, 1.2331336737, 3.9219665527, 1.2339527607, 2.8488123417, 0.9648416042, 4.3704285622, 3.0101492405, 1.3021005392, 5.6454000473, 1.7827078104, 3.9004909992, 1.5254170895, 2.1282234192, 0.8011111021, 2.7894911766, 2.0235710144, 2.4453880787, 1.4023876190, 1.7717733383, 1.1081440449, 1.2023371458, 0.9624166489, 0.9614015222, 0.7532361150, 2.0610978603, 0.4303718507, 1.4982354641, 1.1957389116, 0.8255187869, 2.9529490471, 0.7556155324, 3.5637457371, 0.8310556412, 2.6431622505, 0.8316076398, 1.9199228287, 0.6502434611, 2.9453978539, 2.0286538601, 0.8775350451, 3.8046498299, 1.2014346123, 2.6286890507, 1.0280365944, 1.4342906475, 0.5398992300, 1.8799440861, 1.3637614250, 1.4184918404, 0.8134803772, 1.0277493000, 0.6427990794, 0.6974374652, 0.5582672358, 0.5576784015, 0.4369283020, 1.1955772638, 0.2496450096, 0.8690786958, 0.6936100721, 0.4788571596, 1.7129116058, 0.4383085072, 2.0672154427, 0.4820688963, 1.5332143307, 0.4823891222, 1.1136860847, 0.3771854937, 1.7085314989, 1.1767575741, 0.5090301037, 2.2069561481, 0.6969138980, 1.5248187780, 0.5963312387, 0.8319863081, 0.3131783307, 1.0904957056, 0.7910745740, -1.6757366657, -0.9610058069, -1.2141325474, -0.7593713403, -0.8239184022, -0.6595095396, -0.6588138938, -0.5161656737, -1.4123963118, -0.2949183583, -1.0266869068, -0.8193969131, -0.5656983852, -2.0235497952, -0.5177961588, -2.4421069622, -0.5694925785, -1.8112641573, -0.5698708296, -1.3156541586, -0.4455884695, -2.0183753967, -1.3901636600, -0.6013432145, -2.6071896553, -0.8232998848, -1.8013461828, -0.7044765353, -0.9828678370, -0.3699735105, -1.2882580757, -0.9345366955, 1.8121701479, 1.0392479897, 1.3129836321, 0.8211970925, 0.8909994364, 0.7132048607, 0.7124525905, 0.5581903458, 1.5273894072, 0.3189297318, 1.1102766991, 0.8861097693, 0.6117558479, 2.1883013248, 0.5599535704, 2.6409358978, 0.6158589721, 1.9587318897, 0.6162680387, 1.4227707386, 0.4818669558, 2.1827054024, 1.5033466816, 0.6503028274, 2.8194594383, 0.8903305531, 1.9480063915, 0.7618328929, 1.0628900528, 0.4000956714, 1.3931442499, 1.0106239319, 3.0182006359, 1.7308855057, 2.1867969036, 1.3677178621, 1.4839749336, 1.1878550053, 1.1866019964, 0.9296756387, 2.5438933372, 0.5311830044, 1.8491849899, 1.4758310318, 1.0188899040, 3.6446533203, 0.9326123595, 4.3985242844, 1.0257236958, 3.2623016834, 1.0264049768, 2.3696491718, 0.8025577068, 3.6353335381, 2.5038497448, 1.0830905437, 4.6958580017, 1.4828609228, 3.2444381714, 1.2688457966, 1.7702616453, 0.6663662195, 2.3203058243, 1.6832115650, 1.5434690714, 0.8851526380, 1.1182998419, 0.6994333863, 0.7588856816, 0.6074537635, 0.6068130732, 0.4754241705, 1.3009144068, 0.2716401517, 0.9456495047, 0.7547210455, 0.5210472345, 1.8638290167, 0.4769259691, 2.2493488789, 0.5245419145, 1.6682991982, 0.5248903632, 1.2118082047, 0.4104177058, 1.8590629101, 1.2804366350, 0.5538786054, 2.4014015198, 0.7583160400, 1.6591640711, 0.6488714814, 0.9052891135, 0.3407711387, 1.1865745783, 0.8607727885, -1.2945560217, -0.7424053550, -0.9379532337, -0.5866367817, -0.6365013123, -0.5094906092, -0.5089532137, -0.3987531960, -1.0911178589, -0.2278331369, -0.7931459546, -0.6330083013, -0.4370186925, -1.5632519722, -0.4000128210, -1.8865996599, -0.4399498105, -1.3992550373, -0.4402420521, -1.0163816214, -0.3442302346, -1.5592545271, -1.0739424229, -0.4645553827, -2.0141310692, -0.6360234618, -1.3915930986, -0.5442289114, -0.7592944503, -0.2858154774, -0.9952173829, -0.7219572067, -1.6267871857, -0.9329341650, -1.1786669493, -0.7371895313, -0.7998511791, -0.6402447820, -0.6395695210, -0.5010880828, -1.3711391687, -0.2863036096, -0.9966967106, -0.7954617143, -0.5491739511, -1.9644405842, -0.5026710033, -2.3707711697, -0.5528572798, -1.7583558559, -0.5532245040, -1.2772229910, -0.4325725138, -1.9594172239, -1.3495559692, -0.5837776065, -2.5310318470, -0.7992507815, -1.7487275600, -0.6838982701, -0.9541575909, -0.3591663241, -1.2506271601, -0.9072382450, -1.5684645176, -0.8994870782, -1.1364099979, -0.7107602358, -0.7711753249, -0.6172910929, -0.6166399717, -0.4831233621, -1.3219819069, -0.2760391831, -0.9609636664, -0.7669432759, -0.5294852257, -1.8940124512, -0.4846494794, -2.2857756615, -0.5330365300, -1.6953161955, -0.5333905816, -1.2314325571, -0.4170641601, -1.8891692162, -1.3011723757, -0.5628482699, -2.4402906895, -0.7705964446, -1.6860331297, -0.6593794823, -0.9199496508, -0.3462896943, -1.2057904005, -0.8747124076, 2.1975166798, 1.2602375746, 1.5921813250, 0.9958194494, 1.0804648399, 0.8648633361, 0.8639510870, 0.6768859625, 1.8521790504, 0.3867481351, 1.3463701010, 1.0745353699, 0.7418418527, 2.6536295414, 0.6790241599, 3.2025144100, 0.7468174696, 2.3752439022, 0.7473134995, 1.7253139019, 0.5843328834, 2.6468439102, 1.8230237961, 0.7885856032, 3.4189994335, 1.0796537399, 2.3622376919, 0.9238318205, 1.2889069319, 0.4851734638, 1.6893875599, 1.2255266905, 2.0152580738, 1.1557154655, 1.4601283073, 0.9132277966, 0.9908527732, 0.7931329608, 0.7922964096, 0.6207461357, 1.6985623837, 0.3546718657, 1.2347042561, 0.9854151607, 0.6803146601, 2.4335417747, 0.6227070093, 2.9369029999, 0.6848776340, 2.1782450676, 0.6853325367, 1.5822192430, 0.5358693004, 2.4273190498, 1.6718251705, 0.7231815457, 3.1354331970, 0.9901089668, 2.1663174629, 0.8472107053, 1.1820070744, 0.4449339807, 1.5492724180, 1.1238834858, 0.4525218010, 0.2595133781, 0.3278686106, 0.2050632983, 0.2224938124, 0.1780962646, 0.1779084206, 0.1393871754, 0.3814084530, 0.0796407908, 0.2772501409, 0.2212728113, 0.1527631730, 0.5464465022, 0.1398274899, 0.6594750881, 0.1537877619, 0.4891201258, 0.1538899243, 0.3552838564, 0.1203282699, 0.5450491309, 0.3754046559, 