//Numpy array shape [3, 3, 16, 1]
//Min -0.252197265625
//Max 0.226684570312
//Number of zeros 0

#ifndef W11_H_
#define W11_H_

#ifndef __SYNTHESIS__
model_default_t w11[144];
#else
model_default_t w11[144] = {0.8453285098, 0.5640612841, 1.2441129684, 1.3022155762, 0.6125745177, 1.7934825420, 0.6017949581, 1.6102129221, 0.4534760714, 0.6238427758, 1.6288801432, 0.3739914596, 0.5828992724, 1.5133019686, 1.3655341864, 1.5969758034, -0.9717630744, -0.6484271288, -1.4301931858, -1.4969860315, -0.7041963935, -2.0617311001, -0.6918045282, -1.8510501385, -0.5213018656, -0.7171500325, -1.8725094795, -0.4299288392, -0.6700826287, -1.7396442890, -1.5697751045, -1.8358331919, 0.7209201455, 0.4810474813, 1.0610148907, 1.1105663776, 0.5224209428, 1.5295327902, 0.5132278204, 1.3732352257, 0.3867372870, 0.5320308208, 1.3891552687, 0.3189505339, 0.4971130192, 1.2905868292, 1.1645662785, 1.3619463444, -0.8809894919, -0.5878567696, -1.2965971231, -1.3571507931, -0.6384165883, -1.8691424131, -0.6271822453, -1.6781413555, -0.4726064205, -0.6501601934, -1.6975961924, -0.3897686899, -0.6074894667, -1.5771421194, -1.4231406450, -1.6643458605, -0.9887830615, -0.6597840786, -1.4552423954, -1.5232051611, -0.7165301442, -2.0978415012, -0.7039211988, -1.8834705353, -0.5304322243, -0.7297106385, -1.9053057432, -0.4374588728, -0.6818189025, -1.7701134682, -1.5972690582, -1.8679870367, -0.9393439293, -0.6267948747, -1.3824802637, -1.4470449686, -0.6807036400, -1.9929493666, -0.6687251329, -1.7892969847, -0.5039106011, -0.6932250857, -1.8100403547, -0.4155859351, -0.6477279067, -1.6816078424, -1.5174056292, -1.7745877504, 0.4984439313, 0.3325960636, 0.7335852981, 0.7678452134, 0.3612016737, 1.0575184822, 0.3548455238, 0.9494543672, 0.2673900127, 0.3678459227, 0.9604614973, 0.2205222994, 0.3437037766, 0.8923112750, 0.8051807284, 0.9416491985, -0.7302406430, -0.4872667789, -1.0747323036, -1.1249244213, -0.5291751027, -1.5493074656, -0.5198631287, -1.3909893036, -0.3917372525, -0.5389092565, -1.4071151018, -0.3230741322, -0.5035399795, -1.3072723150, -1.1796225309, -1.3795543909, -0.2498298287, -0.1667036414, -0.3676872849, -0.3848590255, -0.1810413152, -0.5300489068, -0.1778555065, -0.4758850634, -0.1340211034, -0.1843715608, -0.4814020395, -0.1105300784, -0.1722710431, -0.4472438395, -0.4035722911, -0.4719729424, -0.4696719646, -0.3133974373, -0.6912401319, -0.7235224843, -0.3403518200, -0.9964746833, -0.3343625665, -0.8946484923, -0.2519553006, -0.3466125429, -0.9050201774, -0.2077929676, -0.3238639534, -0.8408039212, -0.7587028146, -0.8872938752, 0.2856934667, 0.1906343400, 0.4204696417, 0.4401064217, 0.2070302218, 0.6061386466, 0.2033870667, 0.5441994667, 0.1532601416, 0.2108385265, 0.5505083799, 0.1263969243, 0.1970009506, 0.5114467144, 0.4615060389, 0.5397257805, 0.3823429644, 0.2551255226, 0.5627136230, 0.5889934897, 0.2770681083, 0.8111940026, 0.2721924782, 0.7283009887, 0.2051077187, 0.2821647525, 0.7367442250, 0.1691567451, 0.2636459470, 0.6844680309, 0.6176325679, 0.7223138213, -0.3440478742, -0.2295724154, -0.5063527822, -0.5300005078, -0.2493172437, -0.7299456596, -0.2449299693, -0.6553550959, -0.1845643371, -0.2539034188, -0.6629526615, -0.1522141695, -0.2372394353, -0.6159124374, -0.5557711124, -0.6499676108, 0.6921481490, 0.4618488550, 1.0186697245, 1.0662436485, 0.5015711188, 1.4684890509, 0.4927448630, 1.3184293509, 0.3713025749, 0.5107974410, 1.3337140083, 0.3062212169, 0.4772732258, 1.2390794754, 1.1180883646, 1.3075909615, 1.1703301668, 0.7809247375, 1.7224345207, 1.8028756380, 0.8480897546, 2.4830188751, 0.8331657648, 2.2292881012, 0.6278230548, 0.8636903167, 2.2551321983, 0.5177791715, 0.8070052862, 2.0951178074, 1.8905382156, 2.2109618187, 0.3168968856, 0.2114553899, 0.4663932621, 0.4881747663, 0.2296420336, 0.6723409891, 0.2256009728, 0.6036368608, 0.1699991822, 0.2338662744, 0.6106348634, 0.1402019858, 0.2185173631, 0.5673068762, 0.5119116306, 0.5986745358, 0.4271218777, 0.2850050926, 0.6286169887, 0.6579747200, 0.3095175326, 0.9061987400, 0.3040708899, 0.8135975003, 0.2291293293, 0.3152110577, 0.8230295777, 0.1889678836, 0.2945233881, 0.7646309733, 0.6899678707, 0.8069091439, -0.9669001698, -0.6451823115, -1.4230362177, -1.4894949198, -0.7006725073, -2.0514137745, -0.6883426309, -1.8417870998, -0.5186931491, -0.7135612965, -1.8631390333, -0.4277774096, -0.6667294502, -1.7309387922, -1.5619196892, -1.8266463280, 0.8372237086, 0.5586532354, 1.2321847677, 1.2897303104, 0.6067013144, 1.7762870789, 0.5960251093, 1.5947746038, 0.4491282701, 0.6178615689, 1.6132628918, 0.3704057336, 0.5773105621, 1.4987927675, 1.3524417877, 1.5816644430, -0.0558216684, -0.0372480564, -0.0821555927, -0.0859924257, -0.0404516496, -0.1184334680, -0.0397398137, -0.1063311696, -0.0299455076, -0.0411957540, -0.1075638756, -0.0246967040, -0.0384920277, -0.0999316126, -0.0901736990, -0.1054570526, -0.0526810661, -0.0351524316, -0.0775334090, -0.0811543763, -0.0381757841, -0.1117702425, -0.0375039987, -0.1003488377, -0.0282607339, -0.0388780273, -0.1015121862, -0.0233072340, -0.0363264158, -0.0943093225, -0.0851004049, -0.0995239019, 0.3010925651, 0.2009096593, 0.4431332350, 0.4638284743, 0.2181892991, 0.6388099194, 0.2143497765, 0.5735322237, 0.1615209579, 0.2222028673, 0.5801811814, 0.1332098097, 0.2076194435, 0.5390140414, 0.4863815308, 0.5688173771, 0.2482088655, 0.1656220257, 0.3653016388, 0.3823619485, 0.1798666865, 0.5266097784, 0.1767015308, 0.4727974236, 0.1331515312, 0.1831753105, 0.4782785773, 0.1098129302, 0.1711533070, 0.4443420172, 0.4009538293, 0.4689106941, 0.4119254053, 0.2748649716, 0.6062515974, 0.6345647573, 0.2985052764, 0.8739573359, 0.2932524383, 0.7846507430, 0.2209772021, 0.3039962649, 0.7937472463, 0.1822446436, 0.2840446234, 0.7374263406, 0.6654196978, 0.7782003284, 0.3718067408, 0.2480950356, 0.5472069383, 0.5727626085, 0.2694329619, 0.7888399959, 0.2646916807, 0.7082312107, 0.1994555593, 0.2743891478, 0.7164418101, 0.1644952893, 0.2563806772, 0.6656062007, 0.6006124616, 0.7024090886, -0.1930963695, -0.1288471818, -0.2841897607, -0.2974619865, -0.1399289370, -0.4096809328, -0.1374665797, -0.3678171039, -0.1035864577, -0.1425029188, -0.3720812201, -0.0854299814, -0.1331502795, -0.3456799388, -0.3119257092, -0.3647933602, 0.6581081152, 0.4391349852, 0.9685711861, 1.0138053894, 0.4769036472, 1.3962682486, 0.4685114920, 1.2535885572, 0.3530417979, 0.4856762588, 1.2681214809, 0.2911611497, 0.4538007677, 1.1781411171, 1.0631004572, 1.2432831526, 0.3602574468, 0.2403885424, 0.5302092433, 0.5549710393, 0.2610636353, 0.7643365264, 0.2564696670, 0.6862316728, 0.1932599396, 0.2658658922, 0.6941872239, 0.1593856215, 0.2484167963, 0.6449306607, 0.5819558501, 0.6805903316, 0.4388737977, 0.2928467989, 0.6459129453, 0.6760783792, 0.3180336654, 0.9311320782, 0.3124371767, 0.8359830379, 0.2354336530, 0.3238838613, 0.8456746340, 0.1941671968, 0.3026269972, 0.7856692076, 0.7089518309, 0.8291106224, -0.3732250929, -0.2490414530, -0.5492943525, -0.5749475360, -0.2704607546, -0.7918491960, -0.2657014132, -0.7109329104, -0.2002164274, -0.2754358649, -0.7191748023, -0.1651227921, -0.2573586702, -0.6681452990, -0.6029036045, -0.7050885558, 1.3583610058, 0.9063919187, 1.9991691113, 2.0925343037, 0.9843479395, 2.8819527626, 0.9670261741, 2.5874562263, 0.7286921740, 1.0024549961, 2.6174526215, 0.6009680629, 0.9366626740, 2.4317295551, 2.1942811012, 2.5661854744, 1.4985736609, 0.9999514222, 2.2055273056, 2.3085298538, 1.0859543085, 3.1794335842, 1.0668445826, 2.8545384407, 0.8039091825, 1.1059303284, 2.8876314163, 0.6630011797, 1.0333467722, 2.6827375889, 2.4207792282, 2.8310720921, 0.9117876887, 0.6084074378, 1.3419243097, 1.4045948982, 0.6607347727, 1.9344849586, 0.6491076946, 1.7368068695, 0.4891280830, 0.6728889346, 1.7569416761, 0.4033944607, 0.6287264228, 1.6322767735, 1.4728915691, 1.7225290537, -1.0779356956, -0.7192727923, -1.5864528418, -1.6605433226, -0.7811353207, -2.2869911194, -0.7673895359, -2.0532915592, -0.5782580972, -0.7955042124, -2.0770955086, -0.4769018888, -0.7432943583, -1.9297138453, -1.7412852049, -2.0364120007, 0.2405093312, 0.1604843587, 0.3539698124, 0.3705009222, 0.1742871404, 0.5102741718, 0.1712201834, 0.4581310451, 0.1290211231, 0.1774931401, 0.4634421766, 0.1064064875, 0.1658440530, 0.4305583239, 0.3885160685, 0.4543648958, -0.6832329035, -0.4558999836, -1.0055485964, -1.0525097847, -0.4951105714, -1.4495741129, -0.4863980114, -1.3014472723, -0.3665199876, -0.5042181015, -1.3165349960, -0.3022769094, -0.4711256623, -1.2231193781, -1.1036868095, -1.2907484770, -1.5018156767, -1.0021146536, -2.2102985382, -2.3135240078, -1.0883035660, -3.1863117218, -1.0691524744, -2.8607137203, -0.8056483269, -1.1083227396, -2.8938782215, -0.6644354463, -1.0355823040, -2.6885411739, -2.4260160923, -2.8371968269, 1.1889711618, 0.7933633327, 1.7498693466, 1.8315918446, 0.8615981340, 2.5225684643, 0.8464364409, 2.2647960186, 0.6378230453, 0.8774471283, 2.2910521030, 0.5260263681, 0.8198592663, 2.1284887791, 1.9206506014, 2.2461779118, 0.5596350431, 0.3734269738, 0.8236433268, 0.8621091843, 0.4055443108, 1.1873438358, 0.3984078765, 1.0660134554, 0.3002159595, 0.4130042493, 1.0783717632, 0.2475945503, 0.3858983219, 1.0018552542, 0.9040281177, 1.0572500229, 0.1235978827, 0.0824730098, 0.1819052994, 0.1904006451, 0.0895662680, 0.2622301877, 0.0879901499, 0.2354338169, 0.0663040280, 0.0912138298, 0.2381632179, 0.0546823591, 0.0852273628, 0.2212641835, 0.1996586323, 0.2334983796, 0.2682681978, 0.1790069938, 0.3948239684, 0.4132630527, 0.1944028437, 0.5691684484, 0.1909819096, 0.5110071898, 0.1439123601, 0.1979788691, 0.5169312954, 0.1186876073, 0.1849852800, 0.4802520871, 0.4333574474, 0.5068063140, -0.3294592798, -0.2198378891, -0.4848819971, -0.5075269938, -0.2387454957, -0.6989939213, -0.2345442474, -0.6275662184, -0.1767382771, -0.2431371957, -0.6348416209, -0.1457598656, -0.2271798104, -0.5897960067, -0.5322048068, -0.6224071383, -0.3697805703, -0.2467430234, -0.5442248583, -0.5696412921, -0.2679646611, -0.7845411301, -0.2632492185, -0.7043716311, -0.1983686090, -0.2728938460, -0.7125374675, -0.1635988653, -0.2549834847, -0.6619789004, -0.5973393917, -0.6985812187, 0.9725735188, 0.6489679217, 1.4313859940, 1.4982346296, 0.7047837377, 2.0634505749, 0.6923815012, 1.8525938988, 0.5217366219, 0.7177481651, 1.8740711212, 0.4302874207, 0.6706415415, 1.7410951853, 1.5710843801, 1.8373643160, -0.5118167996, -0.3415193856, -0.7532668710, -0.7884459496, -0.3708924353, -1.0858908892, -0.3643657863, -0.9749275446, -0.2745639086, -0.3777149618, -0.9862299562, -0.2264387459, -0.3529250920, -0.9162513614, -0.8267831802, -0.9669129848, -0.7865688205, -0.5248528123, -1.1576334238, -1.2116972208, -0.5699938536, -1.6688157320, -0.5599635839, -1.4982852936, -0.4219544828, -0.5804788470, -1.5156550407, -0.3479949534, -0.5423813462, -1.4081107378, -1.2706145048, -1.4859683514, 0.9425858259, 0.6289581060, 1.3872516155, 1.4520390034, 0.6830528975, 1.9998276234, 0.6710330844, 1.7954722643, 0.5056497455, 0.6956176162, 1.8162872791, 0.4170202017, 0.6499633789, 1.6874114275, 1.5226426125, 1.7807122469, 0.9863516688, 0.6581616402, 1.4516639709, 1.5194596052, 0.7147681713, 2.0926828384, 0.7021902800, 1.8788390160, 0.5291278958, 0.7279162407, 1.9006204605, 0.4363831580, 0.6801422834, 1.7657607794, 1.5933413506, 1.8633936644, -0.5555826426, -0.3707229495, -0.8176792264, -0.8558664918, -0.4026077092, -1.1787462234, -0.3955229521, -1.0582942963, -0.2980420589, -0.4100136459, -1.0705631971, -0.2458016872, -0.3831039667, -0.9946006536, -0.8974819183, -1.0495944023, 0.7156520486, 0.4775322378, 1.0532615185, 1.1024509668, 0.5186033845, 1.5183557272, 0.5094773769, 1.3632004261, 0.3839111924, 0.5281430483, 1.3790040016, 0.3166198134, 0.4934803843, 1.2811559439, 1.1560562849, 1.3519939184, -0.0083960453, -0.0056024184, -0.0123568866, -0.0129339788, -0.0060842657, -0.0178133827, -0.0059771999, -0.0159930959, -0.0045040543, -0.0061961855, -0.0161785055, -0.0037145906, -0.0057895225, -0.0150305489, -0.0135628767, -0.0158616211, -1.0333594084, -0.6895284653, -1.5208475590, -1.5918742418, -0.7488327026, -2.1924161911, -0.7356553674, -1.9683810472, -0.5543451905, -0.7626074553, -1.9912005663, -0.4571803808, -0.7125566006, -1.8499137163, -1.6692771912, -1.9521995783, 0.9093562365, 0.6067849994, 1.3383458853, 1.4008493423, 0.6589727998, 1.9293262959, 0.6473767161, 1.7321753502, 0.4878237545, 0.6710945368, 1.7522565126, 0.4023187160, 0.6270498037, 1.6279239655, 1.4689638615, 1.7179356813, 0.5199216008, 0.3469274342, 0.7651950717, 0.8009312749, 0.3767656386, 1.1030863523, 0.3701356351, 0.9903658628, 0.2789117098, 0.3836961985, 1.0018472672, 0.2300244719, 0.3585137725, 0.9307605028, 0.8398755193, 0.9822243452, -1.3113533258, -0.8750250936, -1.9299854040, -2.0201196671, -0.9502834082, -2.7822191715, -0.9335610867, -2.4979140759, -0.7034748793, -0.9677637815, -2.5268726349, -0.5801708698, -0.9042482972, -2.3475766182, -2.1183454990, -2.4773795605, -1.6744474173, -1.1173064709, -2.4643695354, -2.5794606209, -1.2134026289, -3.5525741577, -1.1920502186, -3.1895492077, -0.8982565403, -1.2357231379, -3.2265257835, -0.7408114672, -1.1546211243, -2.9975855350, -2.7048835754, -3.1633288860, 0.7792745233, 0.5199855566, 1.1468980312, 1.2004604340, 0.5647079945, 1.6533398628, 0.5547707081, 1.4843908548, 0.4180414677, 0.5750957131, 1.5015995502, 0.3447677791, 0.5373514891, 1.3950525522, 1.2588313818, 1.4721881151, -0.6759386063, -0.4510327280, -0.9948132634, -1.0412729979, -0.4898246825, -1.4340982437, -0.4812051654, -1.2875528336, -0.3626069427, -0.4988349676, -1.3024795055, -0.2990497351, -0.4660958648, -1.2100611925, -1.0919036865, -1.2769682407, 1.5050575733, 1.0042779446, 2.2150697708, 2.3185179234, 1.0906528234, 3.1931898594, 1.0714603662, 2.8668892384, 0.8073874116, 1.1107152700, 2.9001250267, 0.6658697724, 1.0378177166, 2.6943447590, 2.4312529564, 2.8433213234, -1.1443948746, -0.7636189461, -1.6842641830, -1.7629227638, -0.8292955160, -2.4279935360, -0.8147022724, -2.1798856258, -0.6139100790, -0.8445503712, -2.2051570415, -0.5063048601, -0.7891215086, -2.0486886501, -1.8486425877, -2.1619653702, -0.1058686823, -0.0706428662, -0.1558123231, -0.1630890816, -0.0767186433, -0.2246152014, -0.0753686130, -0.2016625702, -0.0567932054, -0.0781298801, -0.2040004581, -0.0468385778, -0.0730021223, -0.1895254701, -0.1710190773, -0.2000047565, 1.1784349680, 0.7863328457, 1.7343627214, 1.8153609037, 0.8539629579, 2.5002143383, 0.8389356136, 2.2447264194, 0.6321708560, 0.8696715236, 2.2707495689, 0.5213649273, 0.8125939965, 2.1096270084, 1.9036306143, 2.2262730598, 0.4026049078, 0.2686457038, 0.5925341845, 0.6202067137, 0.2917510867, 0.8541826010, 0.2866171002, 0.7668967247, 0.2159772217, 0.2971178293, 0.7757873535, 0.1781210601, 0.2776176333, 0.7207408547, 0.6503634453, 0.7605922818, -0.2800201178, -0.1868486851, -0.4121198952, -0.4313667119, -0.2029189914, -0.5941018462, -0.1993481815, -0.5333926678, -0.1502166688, -0.2066516578, -0.5395763516, -0.1238869131, -0.1930888742, -0.5012903214, -0.4523413777, -0.5290077925, -1.2837970257, -0.8566377163, -1.8894294500, -1.9776697159, -0.9303145409, -2.7237548828, -0.9139435887, -2.4454240799, -0.6886923313, -0.9474275708, -2.4737739563, -0.5679793954, -0.8852468133, -2.2982456684, -2.0738313198, -2.4253208637, -0.6735071540, -0.4494102895, -0.9912347794, -1.0375274420, -0.4880627394, -1.4289395809, -0.4794742167, -1.2829213142, -0.3613026142, -0.4970405996, -1.2977943420, -0.2979740202, -0.4644192457, -1.2057083845, -1.0879759789, -1.2723747492, 1.4475135803, 0.9658806324, 2.1303794384, 2.2298724651, 1.0489531755, 3.0711023808, 1.0304944515, 2.7572772503, 0.7765179873, 1.0682485104, 2.7892425060, 0.6404110789, 0.9981381297, 2.5913300514, 2.3382971287, 2.7346105576, 0.6285256147, 0.4193955362, 0.9250332117, 0.9682341218, 0.4554664791, 1.3335049152, 0.4474515617, 1.1972388029, 0.3371722996, 0.4638447464, 1.2111184597, 0.2780732512, 0.4334020913, 1.1251827478, 1.0153132677, 1.1873966455, -0.4644038677, -0.3098821938, -0.6834868193, -0.7154070139, -0.3365342319, -0.9852976799, -0.3306121826, -0.8846136332, -0.2491292357, -0.3427247405, -0.8948689699, -0.2054622322, -0.3202313185, -0.8313729763, -0.7501927614, -0.8773414493, 1.1687091589, 0.7798431516, 1.7200487852, 1.8003785610, 0.8469151258, 2.4795799255, 0.8320118189, 2.2262003422, 0.6269535422, 0.8624940515, 2.2520089149, 0.5170620084, 0.8058875799, 2.0922160149, 1.8879196644, 2.2078993320, 0.9125981331, 0.6089482307, 1.3431172371, 1.4058434963, 0.6613220572, 1.9362045527, 0.6496846676, 1.7383506298, 0.4895628691, 0.6734870076, 1.7585034370, 0.4037530124, 0.6292852759, 1.6337276697, 1.4742008448, 1.7240601778, -1.3972640038, -0.9323506355, -2.0564246178, -2.1524636745, -1.0125392675, -2.9644906521, -0.9947214723, -2.6615600586, -0.7495616078, -1.0311648846, -2.6924154758, -0.6181795597, -0.9634883404, -2.5013735294, -2.2571246624, -2.6396801472, -1.3024380207, -0.8690762520, -1.9168643951, -2.0063858032, -0.9438228607, -2.7633042336, -0.9272142649, -2.4809319973, -0.6986923218, -0.9611844420, -2.5096936226, -0.5762265325, -0.8981007934, -2.3316166401, -2.1039438248, -2.4605369568, -0.6909324527, -0.4610376358, -1.0168805122, -1.0643708706, -0.5006901026, -1.4659097195, -0.4918793738, -1.3161135912, -0.3706503808, -0.5099002719, -1.3313714266, -0.3056833446, -0.4764349163, -1.2369030714, -1.1161245108, -1.3052942753, -1.0382221937, -0.6927732825, -1.5280045271, -1.5993654728, -0.7523566484, -2.2027335167, -0.7391172647, -1.9776440859, -0.5569538474, -0.7661961913, -2.0005710125, -0.4593318105, -0.7159098387, -1.8586190939, -1.6771326065, -1.9613864422, -1.3064904213, -0.8717802763, -1.9228285551, -2.0126285553, -0.9467594624, -2.7719020844, -0.9300991893, -2.4886512756, -0.7008662224, -0.9641750455, -2.5175023079, -0.5780194402, -0.9008951187, -2.3388712406, -2.1104900837, -2.4681928158, -0.3408059776, -0.2274091840, -0.5015814900, -0.5250063539, -0.2469679713, -0.7230675220, -0.2426220328, -0.6491798162, -0.1828252077, -0.2515109181, -0.6567057967, -0.1507798731, -0.2350039631, -0.6101087928, -0.5505341291, -0.6438430548, 1.1103547812, 0.7409050465, 1.6341656446, 1.7104845047, 0.8046280742, 2.3557727337, 0.7904689312, 2.1150448322, 0.5956493020, 0.8194291592, 2.1395645142, 0.4912447929, 0.7656490803, 1.9877504110, 1.7936546803, 2.0976576805, -0.5134377480, -0.3426010013, -0.7556525469, -0.7909430265, -0.3720670938, -1.0893299580, -0.3655197322, -0.9780152440, -0.2754334509, -0.3789112270, -0.9893534184, -0.2271558940, -0.3540428281, -0.9191531539, -0.8294016123, -0.9699752331, -0.9417753816, -0.6284173131, -1.3860588074, -1.4507905245, -0.6824656129, -1.9981080294, -0.6704561114, -1.7939285040, -0.5052149892, -0.6950194836, -1.8147256374, -0.4166616499, -0.6494045258, -1.6859605312, -1.5213333368, -1.7791811228, -0.4165856540, -0.2779746056, -0.6131103039, -0.6417438388, -0.3018823564, -0.8838446736, -0.2965700924, -0.7935277224, -0.2234771848, -0.3074354529, -0.8027271628, -0.1843064427, -0.2872581184, -0.7457691431, -0.6729478240, -0.7870043516, -0.3515447974, -0.2345748693, -0.5173863769, -0.5415493846, -0.2547499537, -0.7458514571, -0.2502670586, -0.6696355343, -0.1885860562, -0.2594360411, -0.6773986220, -0.1555309743, -0.2424089611, -0.6293333769, -0.5678815246, -0.6641306281, -0.5535564423, -0.3693709075, -0.8146972060, -0.8527451754, -0.4011394083, -1.1744472980, -0.3940804899, -1.0544347763, -0.2969551086, -0.4085183442, -1.0666588545, -0.2449052483, -0.3817068040, -0.9909733534, -0.8942088485, -1.0457664728, 0.7683330774, 0.5126847029, 1.1307948828, 1.1836053133, 0.5567791462, 1.6301259995, 0.5469813943, 1.4635492563, 0.4121719301, 0.5670210719, 1.4805161953, 0.3399270475, 0.5298067927, 1.3754652739, 1.2411566973, 1.4515178204, -1.2270636559, -0.8187811971, -1.8059320450, -1.8902726173, -0.8892021775, -2.6033868790, -0.8735547066, -2.3373560905, -0.6582577229, -0.9055589437, -2.3644530773, -0.5428792834, -0.8461260796, -2.1966817379, -1.9821847677, -2.3181412220, 1.2619141340, 0.8420358896, 1.8572232723, 1.9439593554, 0.9144569039, 2.6773271561, 0.8983650208, 2.4037406445, 0.6769532561, 0.9312782288, 2.4316072464, 0.5582979321, 0.8701573610, 2.2590711117, 2.0384819508, 2.3839802742, -1.0584841967, -0.7062934637, -1.5578250885, -1.6305786371, -0.7670396566, -2.2457220554, -0.7535418868, -2.0162396431, -0.5678233504, -0.7811492682, -2.0396142006, -0.4682961404, -0.7298815250, -1.8948919773, -1.7098635435, -1.9996647835, -1.4321144819, -0.9556053281, -2.1077158451, -2.2061505318, -1.0377939939, -3.0384311676, -1.0195318460, -2.7279446125, -0.7682572007, -1.0568841696, -2.7595698833, -0.6335982084, -0.9875196218, -2.5637626648, -2.3134217262, -2.7055189610, -0.7987260222, -0.5329649448, -1.1755257845, -1.2304251194, -0.5788036585, -1.6946088076, -0.5686182976, -1.5214427710, -0.4284762144, -0.5894506574, -1.5390809774, -0.3533735275, -0.5507643223, -1.4298744202, -1.2902530432, -1.5089354515, -0.7152467966, -0.4772618413, -1.0526651144, -1.1018266678, -0.5183097124, -1.5174959898, -0.5091888905, -1.3624284267, -0.3836938143, -0.5278439522, -1.3782231808, -0.3164405227, -0.4932009578, -1.2804304361, -1.1554015875, -1.3512283564, 0.9296181798, 0.6203051805, 1.3681664467, 1.4320626259, 0.6736558080, 1.9723149538, 0.6618013382, 1.7707710266, 0.4986932576, 0.6860476136, 1.7912997007, 0.4112830460, 0.6410215497, 1.6641968489, 1.5016947985, 1.7562140226, -0.6374409199, -0.4253444076, -0.9381542206, -0.9819679260, -0.4619269967, -1.3524199724, -0.4537983835, -1.2142210007, -0.3419548869, -0.4704241157, -1.2282974720, -0.2820175290, -0.4395496249, -1.1411428452, -1.0297149420, -1.2042391300, 0.3294592798, 0.2198378891, 0.4848819971, 0.5075269938, 0.2387454957, 0.6989939213, 0.2345442474, 0.6275662184, 0.1767382771, 0.2431371957, 0.6348416209, 0.1457598656, 0.2271798104, 0.5897960067, 0.5322048068, 0.6224071383, 1.0041822195, 0.6700593829, 1.4779059887, 1.5469272137, 0.7276892066, 2.1305127144, 0.7148839235, 1.9128032923, 0.5386930704, 0.7410749793, 1.9349784851, 0.4442717433, 0.6924373507, 1.7976808548, 1.6221445799, 1.8970786333, -0.1277515888, -0.0852446407, -0.1880185157, -0.1967993528, -0.0925762802, -0.2710428536, -0.0909471959, -0.2433459312, -0.0685322806, -0.0942792147, -0.2461670637, -0.0565200448, -0.0880915597, -0.2287001163, -0.2063684762, -0.2413454503, 0.4372528493, 0.2917651832, 0.6435272694, 0.6735813022, 0.3168590069, 0.9276930094, 0.3112832010, 0.8328953385, 0.2345640957, 0.3226876259, 0.8425511718, 0.1934500486, 0.3015092611, 0.7827674150, 0.7063333392, 0.8260483742, 0.5657135844, 0.3774830103, 0.8325895071, 0.8714731336, 0.4099492133, 1.2002404928, 0.4027352631, 1.0775921345, 0.3034768105, 0.4174901843, 1.0900847912, 0.2502838373, 0.3900898099, 1.0127370358, 0.9138473868, 1.0687335730, 0.5572035909, 0.3718045652, 0.8200649023, 0.8583635688, 0.4037823379, 1.1821852922, 0.3966769278, 1.0613819361, 0.2989116013, 0.4112098813, 1.0736865997, 0.2465188354, 0.3842217028, 0.9975024462, 0.9001004100, 1.0526566505, 0.5154639482, 0.3439530134, 0.7586345673, 0.7940643430, 0.3735353947, 1.0936288834, 0.3669621944, 0.9818747640, 0.2765204012, 0.3804065287, 0.9932577014, 0.2280523330, 0.3554400206, 0.9227804542, 0.8326747417, 0.9738031030, 0.3863953650, 0.2578295469, 0.5686777234, 0.5952361226, 0.2800047100, 0.8197917342, 0.2750774026, 0.7360201478, 0.2072816193, 0.2851553559, 0.7445528507, 0.1709496081, 0.2664403021, 0.6917226315, 0.6241787076, 0.7299695015, 0.5649031401, 0.3769422174, 0.8313966990, 0.8702245951, 0.4093618989, 1.1985208988, 0.4021582603, 1.0760483742, 0.3030420244, 0.4168920517, 1.0885230303, 0.2499252707, 0.3895309567, 1.0112861395, 0.9125381708, 1.0672024488, -0.4923653603, -0.3285400271, -0.7246391773, -0.7584812641, -0.3567967713, -1.0446218252, -0.3505181372, -0.9378756881, -0.2641291618, -0.3633600175, -0.9487485290, -0.2178329974, -0.3395122588, -0.8814294338, -0.7953614593, -0.9301657081, 0.1858020723, 0.1239799187, 0.2734543681, 0.2862252295, 0.1346430629, 0.3942050338, 0.1322737187, 0.3539226353, 0.0996734351, 0.1371197999, 0.3580256701, 0.0822028220, 0.1281204671, 0.3326217234, 0.3001425862, 0.3510131538, -0.5426149964, -0.3620700240, -0.7985941172, -0.8358900547, -0.3932105899, -1.1512335539, -0.3862912059, -1.0335930586, -0.2910855711, -0.4004436731, -1.0455754995, -0.2400645167, -0.3741620779, -0.9713860154, -0.8765341640, -1.0250961781, 0.5264053941, 0.3512538970, 0.7747376561, 0.8109194636, 0.3814641833, 1.1168426275, 0.3747515082, 1.0027164221, 0.2823899388, 0.3884811997, 1.0143409967, 0.2328930646, 0.3629847169, 0.9423677921, 0.8503494263, 0.9944734573, 1.0382221937, 0.6927732825, 1.5280045271, 1.5993654728, 0.7523566484, 2.2027335167, 0.7391172647, 1.9776440859, 0.5569538474, 0.7661961913, 2.0005710125, 0.4593318105, 0.7159098387, 1.8586190939, 1.6771326065, 1.9613864422, -0.4169909060, -0.2782450020, -0.6137067676, -0.6423680782, -0.3021760285, -0.8847044706, -0.2968585789, -0.7942996621, -0.2236945778, -0.3077345192, -0.8035080433, -0.1844857335, -0.2875375450, -0.7464945912, -0.6736024022, -0.7877699733, -0.6297413707, -0.4202067554, -0.9268224239, -0.9701068997, -0.4563474655, -1.3360842466, -0.4483170509, -1.1995545626, -0.3378244638, -0.4647419453, -1.2134610415, -0.2786110938, -0.4342403710, -1.1273591518, -1.0172771215, -1.1896933317, -1.6274397373, -1.0859396458, -2.3951859474, -2.5070459843, -1.1793380976, -3.4528408051, -1.1585850716, -3.1000072956, -0.8730393052, -1.2010319233, -3.1359457970, -0.7200142741, -1.1222068071, -2.9134325981, -2.6289477348, -3.0745229721, 0.8157460690, 0.5443218350, 1.2005749941, 1.2566442490, 0.5911373496, 1.7307192087, 0.5807350278, 1.5538631678, 0.4376066029, 0.6020112634, 1.5718772411, 0.3609035611, 0.5625005960, 1.4603435993, 1.3177469969, 1.5410892963, 0.3067659140, 0.2046952993, 0.4514830112, 0.4725681543, 0.2223005444, 0.6508467197, 0.2183886766, 0.5843390226, 0.1645644307, 0.2263897359, 0.5911132693, 0.1357198209, 0.2115315199, 0.5491704345, 0.4955461919, 0.5795353055, 1.1606043577, 0.7744351029, 1.7081205845, 1.7878932953, 0.8410419226, 2.4623844624, 0.8262419701, 2.2107620239, 0.6226056814, 0.8565127850, 2.2363915443, 0.5134763122, 0.8002988696, 2.0777070522, 1.8748273849, 2.1925880909, 0.6625657082, 0.4421094060, 0.9751316905, 1.0206723213, 0.4801339209, 1.4057257175, 0.4716849029, 1.2620795965, 0.3554330766, 0.4889659286, 1.2767109871, 0.2931332886, 0.4568745494, 1.1861211061, 1.0703011751, 1.2517044544, -0.7784640789, -0.5194447637, -1.1457052231, -1.1992119551, -0.5641206503, -1.6516202688, -0.5541937351, -1.4828470945, -0.4176066816, -0.5744975805, -1.5000377893, -0.3444092274, -0.5367926359, -1.3936016560, -1.2575221062, -1.4706569910, -0.0372566581, -0.0248602051, -0.0548325218, -0.0573933087, -0.0269983560, -0.0790452063, -0.0265232604, -0.0709678531, -0.0199863166, -0.0274949875, -0.0717905909, -0.0164831448, -0.0256904606, -0.0666966438, -0.0601839870, -0.0703844503, -1.1695196629, -0.7803839445, -1.7212415934, -1.8016271591, -0.8475024700, -2.4812994003, -0.8325887918, -2.2277441025, -0.6273882985, -0.8630921841, -2.2535705566, -0.5174205899, -0.8064464331, -2.0936670303, -1.8892289400, -2.2094306946, -1.0276859999, -0.6857427955, -1.5124979019, -1.5831345320, -0.7447214723, -2.1803793907, -0.7316164970, -1.9575742483, -0.5513017178, -0.7584205866, -1.9802685976, -0.4546703696, -0.7086445689, -1.8397573233, -1.6601125002, -1.9414815903, 0.2097111642, 0.1399337202, 0.3086425960, 0.3230568469, 0.1519689858, 0.4449315369, 0.1492947638, 0.3994655609, 0.1124994606, 0.1547644436, 0.4040966034, 0.0927807242, 0.1446070820, 0.3754236698, 0.3387650549, 0.3961816728, -0.5867860317, -0.3915439844, -0.8636028767, -0.9039348960, -0.4252195358, -1.2449485064, -0.4177368581, -1.1177316904, -0.3147810996, -0.4330413938, -1.1306896210, -0.2596067488, -0.4046203792, -1.0504608154, -0.9478875995, -1.1085431576, -0.8761266470, -0.5846119523, -1.2894401550, -1.3496596813, -0.6348927021, -1.8588250875, -0.6237203479, -1.6688784361, -0.4699977338, -0.6465714574, -1.6882257462, -0.3876172304, -0.6041362286, -1.5684366226, -1.4152852297, -1.6551589966, -1.1751930714, -0.7841696143, -1.7295913696, -1.8103667498, -0.8516137004, -2.4933362007, -0.8366276622, -2.2385509014, -0.6304317713, -0.8672790527, -2.2645027637, -0.5199306011, -0.8103585243, -2.1038234234, -1.8983936310, -2.2201485634, 0.6532452106, 0.4358901381, 0.9614142776, 1.0063142776, 0.4733797312, 1.3859510422, 0.4650495946, 1.2443256378, 0.3504331112, 0.4820875227, 1.2587511539, 0.2890097201, 0.4504475594, 1.1694356203, 1.0552450418, 1.2340964079, 0.5734131336, 0.3826206923, 0.8439213037, 0.8833341599, 0.4155287445, 1.2165760994, 0.4082165956, 1.0922584534, 0.3076072335, 0.4231723547, 1.1049211025, 0.2536902726, 0.3953990638, 1.0265207291, 0.9262851477, 1.0832793713, -0.8915257454, -0.5948872566, -1.3121038675, -1.3733817339, -0.6460517645, -1.8914964199, -0.6346830726, -1.6982110739, -0.4782585800, -0.6579357982, -1.7178986073, -0.3944301307, -0.6147547364, -1.5960038900, -1.4401606321, -1.6842505932, -1.3316152096, -0.8885452747, -1.9598059654, -2.0513329506, -0.9649664164, -2.8252079487, -0.9479857087, -2.5365099907, -0.7143443823, -0.9827168584, -2.5659158230, -0.5891351700, -0.9182200432, -2.3838496208, -2.1510763168, -2.5156579018, -0.3375640512, -0.2252459526, -0.4968102276, -0.5200122595, -0.2446186841, -0.7161893249, -0.2403140813, -0.6430044770, -0.1810860932, -0.2491184324, -0.6504588723, -0.1493455917, -0.2327684909, -0.6043051481, -0.5452972054, -0.6377184987, -0.5328892469, -0.3555803597, -0.7842802405, -0.8209077120, -0.3861627579, -1.1305990219, -0.3793673813, -1.0150671005, -0.2858681977, -0.3932661712, -1.0268348455, -0.2357616425, -0.3674556613, -0.9539750814, -0.8608233333, -1.0067225695, 0.3071711361, 0.2049657106, 0.4520794153, 0.4731924236, 0.2225942016, 0.6517065167, 0.2186771631, 0.5851109028, 0.1647818238, 0.2266888022, 0.5918941498, 0.1358991116, 0.2118109465, 0.5498958826, 0.4962007999, 0.5803008676, -0.3331064284, -0.2222715169, -0.4902496934, -0.5131453276, -0.2413884252, -0.7067318559, -0.2371406704, -0.6345134377, -0.1786947995, -0.2458287477, -0.6418693662, -0.1473734379, -0.2296947241, -0.5963250995, -0.5380963683, -0.6292972565, 1.4467030764, 0.9653398395, 2.1291866302, 2.2286238670, 1.0483658314, 3.0693829060, 1.0299174786, 2.7557334900, 0.7760832310, 1.0676504374, 2.7876808643, 0.6400524974, 0.9975792766, 2.5898790359, 2.3369879723, 2.7330794334, -0.3154785335, -0.2105089724, -0.4643058181, -0.4859898388, -0.2286142260, -0.6693317890, -0.2245912552, -0.6009351611, -0.1692383140, -0.2328195572, -0.6079018116, -0.1395744830, -0.2175393403, -0.5647677779, -0.5096204877, -0.5959950686, 1.0957661867, 0.7311705351, 1.6126948595, 1.6880109310, 0.7940563560, 2.3248209953, 0.7800831795, 2.0872559547, 0.5878232718, 0.8086629510, 2.1114535332, 0.4847904742, 0.7555894256, 1.9616339207, 1.7700884342, 2.0700972080, 0.5122220516, 0.3417897820, 0.7538632751, 0.7890702486, 0.3711861074, 1.0867506266, 0.3646542728, 0.9756994843, 0.2747812867, 0.3780140281, 0.9870108366, 0.2266180366, 0.3532045484, 0.9169768095, 0.8274377584, 0.9676785469, 0.1785077602, 0.1191126555, 0.2627189755, 0.2749884725, 0.1293571889, 0.3787291646, 0.1270808578, 0.3400281668, 0.0957604125, 0.1317366958, 0.3439701498, 0.0789756700, 0.1230906621, 0.3195635080, 0.2883594334, 0.3372329175, -1.0357908010, -0.6911508441, -1.5244261026, -1.5956197977, -0.7505946755, -2.1975748539, -0.7373863459, -1.9730125666, -0.5556495190, -0.7644017935, -1.9958858490, -0.4582560956, -0.7142332196, -1.8542664051, -1.6732048988, -1.9567929506, 0.4078730345, 0.2721609175, 0.6002874970, 0.6283221245, 0.2955686748, 0.8653596044, 0.2903675139, 0.7769315839, 0.2188033015, 0.3010056317, 0.7859386206, 0.1804517806, 0.2812502980, 0.7301717997, 0.6588734984, 0.7705446482, 0.9393439293, 0.6267948747, 1.3824802637, 1.4470449686, 0.6807036400, 1.9929493666, 0.6687251329, 1.7892969847, 0.5039106011, 0.6932250857, 1.8100403547, 0.4155859351, 0.6477279067, 1.6816078424, 1.5174056292, 1.7745877504, 0.5211372972, 0.3477386534, 0.7669843435, 0.8028040528, 0.3776466250, 1.1056656837, 0.3710010946, 0.9926815629, 0.2795638740, 0.3845933974, 1.0041898489, 0.2305623293, 0.3593520820, 0.9329368472, 0.8418393731, 0.9845210314, -1.1249433756, -0.7506396174, -1.6556364298, -1.7329579592, -0.8151998520, -2.3867244720, -0.8008546233, -2.1428337097, -0.6034753919, -0.8301953673, -2.1676757336, -0.4976991117, -0.7757086754, -2.0138669014, -1.8172209263, -2.1252181530, -0.6994424462, -0.4667161107, -1.0294051170, -1.0774804354, -0.5068569779, -1.4839649200, -0.4979377091, -1.3323237896, -0.3752155900, -0.5161805749, -1.3477694988, -0.3094483614, -0.4823030233, -1.2521376610, -1.1298714876, -1.3213711977, -0.5304577947, -0.3539579213, -0.7807017565, -0.8171620965, -0.3844007850, -1.1254403591, -0.3776364326, -1.0104355812, -0.2845638394, -0.3914718032, -1.0221496820, -0.2346859276, -0.3657790720, -0.9496223330, -0.8568956256, -1.0021290779, -0.1399087608, -0.0933567435, -0.2059108317, -0.2155272961, -0.1013860777, -0.2968359590, -0.0996019691, -0.2665033638, -0.0750539899, -0.1032510623, -0.2695929408, -0.0618986376, -0.0964745805, -0.2504638135, -0.2260070294, -0.2643125057, -0.5904331803, -0.3939776123, -0.8689705729, -0.9095532298, -0.4278624654, -1.2526865005, -0.4203332961, -1.1246788502, -0.3167376220, -0.4357329607, -1.1377173662, -0.2612203062, -0.4071352780, -1.0569899082, -0.9537791610, -1.1154332161, 0.1913741082, 0.1276979595, 0.2816550136, 0.2948088646, 0.1386808902, 0.4060268998, 0.1362404823, 0.3645364642, 0.1026625484, 0.1412319094, 0.3687625527, 0.0846680105, 0.1319626868, 0.3425967693, 0.3091435730, 0.3615396917};
#endif

#endif
