//Numpy array shape [4, 128]
//Min -0.246459960938
//Max 0.245117187500
//Number of zeros 0

#ifndef W2_H_
#define W2_H_

#ifndef __SYNTHESIS__
model_default_t w2[512];
#else
model_default_t w2[512] = {0.0676879883, -0.1970214844, -0.1214599609, 0.0619812012, 0.0393371582, -0.1638183594, -0.1575927734, -0.0321960449, -0.1973876953, -0.1604003906, -0.0556335449, -0.2382812500, 0.1496582031, 0.0670166016, -0.0801391602, -0.0257110596, 0.2248535156, -0.2026367188, -0.2227783203, -0.0831298828, -0.1474609375, 0.1348876953, 0.0038032532, 0.1431884766, -0.1535644531, 0.1711425781, -0.0753173828, -0.0756225586, -0.0728759766, 0.1912841797, 0.0300598145, 0.2006835938, 0.1468505859, 0.1558837891, 0.0968017578, 0.2406005859, -0.2041015625, 0.0251312256, -0.1423339844, 0.2111816406, -0.1351318359, -0.0306243896, -0.1640625000, -0.1401367188, 0.1676025391, -0.0146026611, -0.0415649414, 0.1373291016, -0.0839843750, -0.1328125000, 0.2421875000, -0.1842041016, -0.1006469727, -0.1368408203, -0.0891723633, -0.2324218750, 0.2419433594, 0.0551452637, 0.2120361328, -0.0303955078, -0.1488037109, 0.0734863281, 0.1693115234, 0.0984497070, -0.0158538818, 0.1159667969, 0.1018676758, -0.1124877930, -0.0385131836, 0.2105712891, 0.0575866699, -0.2160644531, -0.0526123047, -0.0079116821, -0.0972900391, -0.0366821289, -0.0308532715, -0.1369628906, -0.0928344727, 0.0252075195, 0.1928710938, -0.2095947266, -0.0428161621, 0.1181030273, 0.0841674805, 0.0316772461, -0.1151733398, -0.0222778320, -0.2031250000, 0.1578369141, -0.0081329346, 0.0642089844, -0.1330566406, 0.1412353516, -0.0104904175, 0.1845703125, 0.1942138672, -0.1906738281, 0.0149230957, -0.1612548828, -0.0565795898, -0.1230468750, -0.1821289062, -0.0680541992, 0.1756591797, 0.1269531250, -0.0907592773, -0.0855102539, -0.0968627930, 0.2451171875, 0.0927124023, 0.0899047852, -0.2210693359, 0.2139892578, -0.1829833984, 0.0854492188, 0.1271972656, -0.0607604980, 0.1357421875, 0.0885620117, 0.0478515625, -0.1372070312, 0.0111083984, -0.0293731689, 0.1500244141, -0.0112686157, 0.1523437500, 0.1297607422, -0.1474609375, 0.1091308594, 0.0913696289, 0.0537109375, 0.1071777344, 0.0315551758, 0.1507568359, 0.1805419922, -0.1762695312, -0.1750488281, 0.1464843750, 0.0148620605, -0.2344970703, 0.1478271484, 0.1547851562, -0.0150833130, -0.1282958984, -0.0013437271, 0.0096054077, 0.0932617188, -0.1904296875, 0.1051635742, 0.1770019531, 0.0632934570, -0.1038208008, 0.0662231445, -0.0960693359, 0.1331787109, 0.0799560547, 0.0324401855, -0.1039428711, -0.0814208984, 0.1212768555, 0.0850830078, -0.0707397461, 0.1373291016, 0.0631713867, -0.0852661133, -0.1038208008, 0.1253662109, -0.1424560547, 0.0535888672, 0.0823364258, 0.1723632812, 0.0386962891, 0.2365722656, 0.1203002930, -0.0692749023, 0.1127319336, -0.0939941406, 0.0287322998, 0.1466064453, -0.0986328125, -0.0666503906, 0.0003504753, 0.0111160278, -0.1981201172, 0.0114135742, 0.0578918457, -0.2260742188, -0.0808715820, 0.1348876953, 0.0713500977, 0.0663452148, 0.2305908203, 0.1667480469, -0.0096130371, 0.1832275391, 0.1721191406, 0.1324462891, 0.1015625000, 0.0654296875, 0.0750122070, 0.0251617432, 0.0578308105, 0.1944580078, -0.0251007080, 0.0809326172, 0.1760253906, 0.0374145508, -0.0812377930, 0.0538635254, -0.1134033203, 0.2076416016, -0.0963134766, -0.0376281738, 0.1315917969, -0.1457519531, 0.1594238281, 0.1915283203, -0.0207824707, 0.0046386719, 0.0356140137, 0.1933593750, 0.1622314453, 0.0721435547, 0.1209106445, 0.0623779297, 0.0796508789, 0.1264648438, 0.0548400879, 0.0037269592, -0.1730957031, 0.2347412109, -0.1160278320, -0.1109008789, -0.1851806641, -0.2073974609, 0.2056884766, 0.1585693359, 0.1427001953, 0.1734619141, 0.1301269531, -0.0114517212, -0.2124023438, 0.1071777344, 0.0281829834, 0.1058349609, 0.0886230469, 0.1485595703, -0.0498046875, -0.1701660156, 0.1977539062, -0.2271728516, -0.1528320312, 0.1342773438, -0.1800537109, 0.0241241455, 0.0686035156, -0.1054687500, 0.1457519531, -0.0635375977, 0.0910034180, 0.0603942871, -0.0280456543, -0.1351318359, 0.1560058594, 0.2200927734, 0.0044937134, -0.2001953125, 0.0302124023, 0.1746826172, -0.1857910156, 0.1636962891, 0.1553955078, -0.1621093750, -0.1138305664, 0.1251220703, -0.0126647949, -0.1300048828, -0.2042236328, -0.1208496094, -0.0947875977, -0.1689453125, -0.0633544922, -0.0738525391, -0.1160278320, -0.0230865479, 0.0838012695, 0.1492919922, -0.0783081055, -0.1342773438, 0.1063842773, -0.0351562500, -0.0000123978, 0.1304931641, 0.0471801758, -0.0447082520, -0.1076049805, 0.0424194336, -0.1711425781, 0.1173706055, 0.0953979492, -0.1386718750, -0.0640258789, -0.1844482422, 0.2309570312, -0.0305328369, 0.0293273926, 0.0212554932, 0.1706542969, 0.1127319336, 0.0214691162, 0.0109405518, -0.0104522705, -0.1113891602, 0.2041015625, 0.1597900391, 0.1265869141, 0.0893554688, -0.0751342773, 0.1188964844, -0.2182617188, -0.1193237305, -0.0876464844, 0.1770019531, -0.1376953125, -0.1416015625, 0.0743408203, -0.1674804688, 0.0041046143, 0.2369384766, -0.2059326172, -0.1541748047, -0.1401367188, -0.1361083984, 0.0320739746, 0.0967407227, 0.1907958984, -0.0529174805, 0.1885986328, -0.0518798828, -0.0441589355, 0.2336425781, 0.1752929688, -0.2064208984, -0.0784301758, -0.2230224609, -0.0868530273, 0.1715087891, -0.2368164062, -0.1274414062, -0.1259765625, -0.0852050781, -0.2027587891, 0.1108398438, 0.0743408203, 0.1468505859, -0.1474609375, 0.0864868164, 0.0134124756, 0.1583251953, -0.1768798828, -0.1407470703, -0.1672363281, -0.1203002930, -0.2270507812, 0.1596679688, 0.0335998535, 0.1530761719, -0.0420532227, -0.0401000977, 0.1203613281, -0.0207366943, -0.0865478516, 0.0454406738, 0.0785522461, -0.0814819336, 0.1025390625, -0.0240631104, -0.1809082031, 0.0040969849, 0.0640869141, 0.1304931641, -0.1394042969, 0.1922607422, -0.0328063965, -0.1735839844, 0.1109619141, -0.1927490234, -0.1788330078, 0.0070533752, -0.0715332031, 0.0638427734, -0.0610351562, 0.1242675781, -0.1755371094, -0.2192382812, -0.1671142578, 0.0418090820, -0.1406250000, 0.0272369385, 0.1994628906, -0.0227203369, 0.0614624023, 0.0250091553, -0.1770019531, 0.1765136719, 0.1301269531, -0.2290039062, -0.0718994141, -0.2233886719, -0.0006303787, 0.1242065430, -0.0529479980, -0.1762695312, 0.0575866699, 0.0457153320, 0.0768432617, 0.0073928833, 0.0525512695, -0.1229858398, -0.0866699219, -0.1138305664, -0.1155395508, 0.1102905273, 0.1409912109, 0.0337524414, -0.1477050781, -0.1854248047, -0.0634765625, -0.2136230469, -0.1270751953, 0.0016431808, 0.1789550781, -0.1130981445, -0.0719604492, 0.0669555664, 0.2242431641, 0.0536499023, -0.1729736328, -0.0888061523, 0.0134506226, 0.1238403320, 0.1177978516, 0.0370178223, -0.0277252197, 0.0614624023, -0.1628417969, 0.0706176758, 0.0134811401, -0.0373535156, -0.0960693359, 0.2446289062, 0.0906982422, -0.1324462891, 0.0810546875, 0.1614990234, -0.0516052246, -0.0169219971, -0.2464599609, 0.0301666260, 0.1038818359, 0.1289062500, 0.2110595703, -0.1209716797, -0.1210937500, -0.1628417969, 0.1451416016, 0.1207275391, -0.0247192383, 0.0880126953, -0.0729980469, 0.0015010834, 0.0484008789, -0.1184082031, 0.1389160156, 0.1601562500, 0.0717163086, -0.0947265625, -0.0866699219, -0.0246582031, -0.0786743164, -0.1596679688, -0.0806884766, 0.0109710693, -0.0242156982, 0.0799560547, -0.0428466797, -0.1605224609, -0.0749511719, -0.0799560547, 0.0484008789, -0.1172485352, -0.0902709961, 0.2121582031, -0.1337890625, -0.0786132812, -0.0331115723, -0.0213775635, -0.0690917969, -0.2207031250, -0.0049133301, 0.0459289551, -0.0915527344, 0.1654052734, -0.1536865234, -0.1148681641, -0.0508728027, 0.1564941406, 0.0551757812, 0.1218261719, -0.1776123047, 0.2364501953};
#endif

#endif
