//Numpy array shape [3, 3, 3, 1]
//Min -0.343994140625
//Max 0.447265625000
//Number of zeros 0

#ifndef W2_H_
#define W2_H_

#ifndef __SYNTHESIS__
model_default_t w2[27];
#else
model_default_t w2[27] = {3.9769828320, 3.1478579044, 2.5440809727, 0.0447057821, 0.0353854783, 0.0285983458, -2.1219983101, -1.6796021461, -1.3574450016, 1.9624413252, 1.5533097982, 1.2553762197, 3.0261540413, 2.3952586651, 1.9358346462, -1.2482342720, -0.9880012274, -0.7984970808, -1.8126531839, -1.4347496033, -1.1595566273, -1.4729163647, -1.1658414602, -0.9422265291, 1.1614005566, 0.9192706943, 0.7429494262, -1.2037320137, -0.9527768493, -0.7700288892, -0.1660694182, -0.1314471215, -0.1062348261, -0.5579064488, -0.4415935874, -0.3568934798, -1.0707678795, -0.8475332260, -0.6849716306, -0.1861497164, -0.1473410577, -0.1190802157, -2.0818376541, -1.6478142738, -1.3317542076, -2.6202063560, -2.0739433765, -1.6761494875, -2.3966097832, -1.8969624043, -1.5331143141, 3.0413498878, 2.4072864056, 1.9455554485, 0.1979536712, 0.1566841155, 0.1266312152, 0.6257452369, 0.4952893257, 0.4002900422, -0.6870715618, -0.5438302755, -0.4395205677, -3.0587165356, -2.4210326672, -1.9566650391, 3.0695707798, 2.4296238422, 1.9636083841, 0.0701453388, 0.0555213727, 0.0448720641, 1.1570588350, 0.9158341885, 0.7401720881, 0.3969927430, 0.3142273426, 0.2539567947, -2.1589024067, -1.7088125944, -1.3810527325};
#endif

#endif
