//Numpy array shape [384, 16]
//Min -0.264892578125
//Max 0.423095703125
//Number of zeros 4297

#ifndef W30_H_
#define W30_H_

#ifndef __SYNTHESIS__
model_default_t w30[6144];
#else
model_default_t w30[6144] = {-0.0000000000, -0.0000000000, -0.0000000000, -0.1291503906, 0.0855712891, -0.0000000000, -0.0000000000, -0.0975341797, 0.0000000000, -0.0000000000, -0.0000000000, 0.0910034180, 0.0000000000, 0.1046752930, 0.0000000000, 0.1159057617, 0.0830688477, -0.1171264648, -0.0000000000, -0.0000000000, -0.0000000000, -0.0000000000, -0.0000000000, -0.0000000000, -0.0000000000, -0.0000000000, -0.0000000000, -0.0000000000, 0.0000000000, 0.1975097656, 0.0000000000, -0.0000000000, 0.0000000000, -0.0000000000, 0.0000000000, 0.0000000000, 0.0913696289, 0.0971069336, -0.0000000000, -0.1123657227, -0.0000000000, -0.0000000000, -0.0000000000, 0.0000000000, 0.0000000000, 0.1166992188, -0.1340332031, -0.0000000000, -0.1141357422, 0.0926513672, -0.0000000000, 0.0000000000, -0.0000000000, 0.0000000000, -0.1175537109, -0.0999755859, -0.0000000000, 0.0000000000, -0.1407470703, -0.0000000000, 0.1330566406, 0.0000000000, 0.0000000000, -0.0000000000, 0.0000000000, 0.0986328125, -0.0991821289, 0.0000000000, -0.1351318359, -0.0000000000, 0.0000000000, -0.0000000000, -0.0000000000, -0.0000000000, 0.0000000000, -0.0000000000, -0.0000000000, -0.0000000000, -0.1304931641, 0.0921630859, 0.0000000000, -0.0000000000, -0.0000000000, 0.1110839844, -0.0000000000, -0.1386718750, 0.1437988281, -0.1087646484, 0.0000000000, -0.0000000000, -0.0000000000, -0.0000000000, 0.1676025391, -0.1480712891, 0.0000000000, 0.0000000000, 0.0000000000, 0.0000000000, -0.0000000000, -0.0000000000, -0.0000000000, -0.0000000000, -0.0000000000, -0.1369628906, 0.1938476562, -0.1082153320, -0.0000000000, -0.1333007812, 0.0000000000, 0.0000000000, -0.0938720703, -0.0958862305, -0.0000000000, -0.0000000000, 0.0000000000, -0.0000000000, -0.0000000000, -0.0000000000, -0.0000000000, -0.1286621094, 0.0000000000, -0.0000000000, -0.0000000000, 0.0000000000, -0.1072387695, 0.0000000000, -0.0000000000, 0.0000000000, 0.0000000000, -0.0000000000, -0.0000000000, 0.0000000000, -0.0000000000, -0.1292724609, -0.0000000000, -0.0000000000, 0.0000000000, -0.0000000000, -0.0000000000, 0.0000000000, -0.1032714844, 0.0000000000, 0.0000000000, -0.0000000000, -0.0000000000, -0.0000000000, 0.0000000000, -0.0998535156, -0.0000000000, -0.1231689453, -0.0000000000, -0.0000000000, 0.0000000000, 0.0000000000, -0.0000000000, 0.1030883789, 0.0000000000, 0.0000000000, 0.0000000000, 0.0000000000, 0.0000000000, -0.0961914062, -0.0886840820, -0.0000000000, -0.0000000000, -0.0000000000, 0.1536865234, 0.0850219727, 0.0000000000, -0.0000000000, 0.1151123047, -0.0836791992, 0.0000000000, 0.0000000000, -0.0000000000, -0.1181640625, 0.0000000000, 0.0000000000, 0.0000000000, -0.0000000000, 0.0000000000, -0.0000000000, 0.0000000000, -0.0000000000, 0.1562500000, -0.0823364258, 0.1206054688, 0.0000000000, 0.0000000000, -0.0000000000, -0.0000000000, -0.0000000000, -0.0000000000, -0.1252441406, -0.0000000000, 0.0911254883, -0.0000000000, 0.0000000000, -0.0000000000, -0.0000000000, -0.0000000000, 0.0856933594, -0.1260986328, -0.1257324219, 0.0000000000, 0.0000000000, -0.0000000000, 0.0000000000, -0.1385498047, 0.0000000000, -0.0000000000, -0.0809326172, -0.1291503906, -0.0000000000, -0.0000000000, -0.0000000000, 0.0000000000, -0.0919799805, -0.0000000000, 0.0000000000, 0.0000000000, 0.0000000000, 0.0000000000, -0.0000000000, 0.0000000000, -0.0000000000, 0.0000000000, 0.0000000000, -0.0000000000, -0.0000000000, -0.0000000000, -0.1319580078, -0.0000000000, -0.0000000000, -0.0000000000, -0.0000000000, -0.1499023438, 0.0000000000, -0.0000000000, -0.0000000000, 0.0000000000, -0.0000000000, -0.1821289062, 0.0000000000, -0.0000000000, 0.0000000000, 0.0000000000, -0.0943603516, 0.0783081055, -0.0000000000, -0.0000000000, -0.0000000000, 0.0000000000, -0.0000000000, -0.0000000000, -0.1071166992, 0.0000000000, 0.0000000000, -0.0000000000, 0.0000000000, -0.0000000000, -0.0000000000, -0.0000000000, -0.0000000000, -0.0000000000, -0.0000000000, 0.0000000000, 0.0000000000, -0.1152343750, 0.0000000000, -0.0000000000, 0.1152343750, 0.0000000000, 0.0986938477, -0.1429443359, -0.0000000000, -0.1314697266, -0.0999145508, -0.0000000000, -0.1278076172, 0.0000000000, -0.0000000000, -0.0000000000, 0.0000000000, 0.0000000000, 0.1185913086, -0.0000000000, 0.0000000000, -0.0000000000, -0.1330566406, -0.0000000000, -0.0000000000, -0.0000000000, -0.0000000000, -0.1194458008, -0.1444091797, -0.0000000000, -0.0000000000, 0.1134033203, 0.0000000000, -0.0863037109, 0.0000000000, 0.0000000000, -0.0000000000, -0.1284179688, 0.0000000000, -0.0000000000, -0.0868530273, -0.0000000000, -0.0000000000, 0.0000000000, -0.0000000000, 0.0000000000, -0.0000000000, -0.0000000000, -0.0000000000, -0.0968017578, -0.0000000000, -0.0000000000, -0.0926513672, 0.0000000000, -0.0000000000, -0.0000000000, 0.0000000000, -0.0000000000, -0.0000000000, -0.0000000000, 0.0979614258, -0.0000000000, -0.0000000000, -0.0000000000, 0.0000000000, 0.1354980469, 0.1188964844, 0.0809326172, -0.1198730469, 0.0000000000, -0.0000000000, -0.0000000000, -0.1171875000, -0.0000000000, -0.0000000000, -0.0000000000, -0.0000000000, -0.0000000000, -0.0000000000, -0.0000000000, -0.1123657227, 0.0000000000, 0.0000000000, -0.1221313477, 0.0000000000, 0.0000000000, -0.1140136719, 0.0000000000, 0.0000000000, -0.0000000000, -0.0000000000, 0.0000000000, 0.0000000000, -0.0000000000, -0.0000000000, 0.1127929688, 0.0000000000, 0.0000000000, 0.0000000000, -0.1391601562, 0.0849609375, -0.0000000000, -0.0852661133, 0.0000000000, -0.0000000000, -0.0000000000, -0.0000000000, -0.1339111328, 0.0000000000, 0.1822509766, -0.0942993164, -0.0000000000, 0.0000000000, 0.0000000000, 0.0000000000, -0.1050415039, 0.0872192383, -0.1011962891, 0.1016845703, -0.0000000000, -0.1211547852, 0.0000000000, -0.0000000000, -0.0000000000, -0.0000000000, 0.2037353516, 0.0000000000, -0.0000000000, -0.0000000000, 0.0000000000, 0.1257324219, -0.0000000000, -0.0000000000, 0.0000000000, -0.1046752930, -0.0000000000, 0.0000000000, 0.0834350586, -0.0000000000, -0.0000000000, -0.0000000000, -0.1546630859, -0.0000000000, -0.0000000000, 0.0000000000, 0.0000000000, 0.1815185547, 0.0939941406, 0.0000000000, -0.1330566406, 0.0000000000, -0.0000000000, -0.0000000000, -0.0000000000, -0.0992431641, -0.1204833984, -0.0000000000, 0.1679687500, -0.0974731445, -0.0000000000, 0.0829467773, -0.1297607422, 0.0000000000, 0.0000000000, 0.1131591797, -0.1001586914, 0.0000000000, 0.0759887695, 0.0889282227, 0.0000000000, -0.0000000000, 0.0000000000, -0.0824584961, -0.0000000000, 0.0000000000, -0.0000000000, 0.0000000000, 0.0000000000, 0.0000000000, 0.0000000000, -0.1229248047, -0.1140136719, 0.0900878906, -0.1057739258, -0.0000000000, 0.0000000000, -0.1032714844, 0.1226196289, -0.0000000000, -0.0000000000, 0.0000000000, 0.1083374023, 0.0000000000, 0.0000000000, 0.0000000000, 0.0000000000, 0.0915527344, -0.0826416016, 0.0000000000, 0.0000000000, -0.0000000000, -0.0000000000, -0.0000000000, 0.0000000000, 0.0858764648, 0.0000000000, -0.1357421875, -0.0000000000, 0.0000000000, -0.0000000000, -0.1408691406, -0.0000000000, -0.0000000000, -0.0000000000, -0.0964965820, 0.0980834961, 0.0000000000, -0.0000000000, -0.0947875977, 0.0000000000, 0.0000000000, -0.0000000000, -0.0000000000, -0.0000000000, -0.1228637695, 0.0000000000, 0.0000000000, 0.0000000000, -0.1424560547, -0.0000000000, 0.0000000000, -0.0880737305, 0.0000000000, -0.0000000000, -0.0000000000, -0.0000000000, -0.0000000000, 0.0000000000, -0.1267089844, -0.0000000000, -0.0983276367, -0.0900878906, 0.0000000000, 0.0000000000, 0.0000000000, -0.1117553711, 0.0936889648, 0.0000000000, -0.0000000000, -0.0000000000, 0.0000000000, 0.0000000000, -0.0000000000, 0.1091308594, -0.1079101562, -0.0000000000, -0.0000000000, 0.0000000000, -0.0866699219, -0.0843505859, -0.0000000000, 0.0000000000, 0.0000000000, 0.0000000000, -0.0000000000, -0.0927124023, -0.0000000000, -0.0000000000, 0.0000000000, 0.0000000000, -0.1016845703, -0.0000000000, 0.0000000000, 0.0000000000, 0.0000000000, 0.1087036133, -0.0915527344, -0.1424560547, -0.0000000000, -0.0000000000, 0.0000000000, 0.0997924805, -0.0000000000, -0.0000000000, -0.0000000000, 0.0000000000, -0.0000000000, -0.0000000000, 0.1035766602, 0.0000000000, 0.0000000000, 0.0000000000, 0.1130981445, -0.1289062500, -0.1304931641, 0.0000000000, -0.0000000000, 0.0000000000, -0.0000000000, -0.0000000000, -0.0831298828, 0.2490234375, 0.0000000000, 0.1043701172, 0.0000000000, 0.0000000000, -0.1411132812, 0.0000000000, -0.0000000000, 0.0861816406, 0.0000000000, -0.0000000000, 0.0000000000, -0.0000000000, 0.1024780273, -0.0000000000, -0.0000000000, 0.1202392578, -0.0000000000, -0.1827392578, -0.1181030273, 0.0000000000, 0.2037353516, 0.0000000000, -0.0867919922, -0.0000000000, 0.0000000000, -0.0000000000, 0.0000000000, 0.1008911133, 0.0000000000, -0.0000000000, -0.0000000000, 0.1352539062, -0.0000000000, -0.0000000000, 0.0000000000, 0.0000000000, 0.0000000000, -0.0000000000, 0.0000000000, -0.1165771484, -0.0000000000, -0.0000000000, -0.0000000000, -0.0000000000, -0.0000000000, 0.0000000000, -0.0000000000, 0.0759277344, -0.0000000000, -0.0000000000, -0.0000000000, 0.0000000000, 0.0000000000, -0.0981445312, -0.1226806641, 0.0000000000, 0.0964965820, -0.0000000000, -0.0000000000, 0.0978393555, -0.0000000000, 0.1638183594, -0.0000000000, -0.0000000000, 0.0885620117, 0.0000000000, -0.0934448242, 0.0000000000, -0.0000000000, 0.1060180664, -0.0000000000, -0.0896606445, 0.0000000000, 0.0000000000, -0.1025390625, -0.0939941406, -0.0000000000, -0.0000000000, -0.0000000000, -0.1914062500, -0.0000000000, 0.0000000000, 0.0000000000, 0.0000000000, 0.2783203125, -0.1019287109, -0.0000000000, -0.1148681641, 0.0000000000, 0.0000000000, 0.1091918945, -0.0000000000, 0.0903930664, -0.0000000000, -0.0000000000, 0.0000000000, -0.1290283203, -0.0000000000, 0.0000000000, 0.0000000000, 0.0000000000, -0.1177978516, 0.0000000000, -0.0978393555, 0.0000000000, -0.0000000000, -0.0000000000, -0.0000000000, -0.0000000000, -0.0000000000, -0.0000000000, -0.0000000000, -0.1475830078, -0.0000000000, -0.0905761719, 0.1335449219, 0.1152343750, -0.0000000000, -0.1292724609, 0.0867919922, 0.0000000000, -0.0000000000, -0.0000000000, -0.0000000000, -0.0000000000, -0.0000000000, -0.0000000000, 0.0000000000, -0.1132202148, 0.0000000000, 0.0000000000, -0.1013793945, 0.0000000000, -0.0982055664, 0.0869750977, 0.0000000000, 0.0000000000, -0.0000000000, 0.0000000000, -0.0000000000, 0.0989379883, -0.0000000000, -0.0000000000, -0.0000000000, -0.0000000000, -0.1427001953, 0.0000000000, -0.0000000000, 0.2014160156, 0.0000000000, 0.0000000000, -0.0988769531, -0.0000000000, 0.0920410156, -0.0000000000, 0.0000000000, -0.0940551758, 0.0000000000, -0.0000000000, -0.0000000000, -0.0000000000, -0.0000000000, -0.0000000000, 0.0000000000, 0.0000000000, 0.0933227539, 0.0000000000, 0.0000000000, -0.0000000000, 0.0000000000, -0.0870971680, 0.0000000000, -0.0000000000, -0.0000000000, 0.0000000000, 0.2407226562, -0.0810546875, -0.0000000000, -0.0000000000, -0.0950317383, 0.1031494141, -0.1134643555, 0.0937500000, 0.0000000000, 0.0000000000, 0.0000000000, -0.0000000000, -0.0000000000, -0.1461181641, 0.1186523438, -0.0000000000, 0.1804199219, -0.0000000000, -0.0000000000, -0.1152343750, 0.0000000000, 0.0000000000, -0.1280517578, -0.0000000000, -0.0000000000, -0.1022338867, 0.1441650391, -0.0000000000, 0.0966186523, 0.0000000000, -0.0000000000, -0.1264648438, 0.1611328125, -0.1165771484, -0.0000000000, -0.0000000000, 0.1098022461, 0.0000000000, 0.0000000000, -0.1153564453, -0.0000000000, -0.1279296875, -0.0000000000, -0.1221313477, -0.0000000000, -0.0000000000, -0.1203002930, -0.0000000000, -0.0000000000, -0.0000000000, -0.0000000000, -0.0000000000, 0.0000000000, 0.1346435547, -0.0000000000, 0.0885009766, -0.1190185547, 0.0836791992, -0.0000000000, -0.0000000000, 0.0000000000, -0.0000000000, -0.0000000000, -0.0000000000, 0.1813964844, -0.0000000000, -0.0000000000, -0.0897827148, 0.0000000000, 0.1451416016, -0.0000000000, -0.0000000000, 0.0000000000, 0.0966796875, -0.0000000000, 0.0000000000, -0.0000000000, 0.0000000000, 0.1052856445, -0.0000000000, 0.0000000000, 0.0000000000, -0.1416015625, 0.0000000000, -0.1022949219, 0.0000000000, -0.0820312500, 0.0000000000, 0.0853881836, 0.0000000000, 0.0000000000, 0.1091308594, 0.0000000000, -0.1144409180, 0.0994262695, -0.1319580078, -0.1350097656, -0.1179809570, -0.0000000000, 0.0000000000, 0.1036376953, 0.0000000000, 0.0927734375, 0.0000000000, 0.0000000000, 0.0000000000, -0.1118164062, -0.1054687500, -0.1331787109, 0.0000000000, -0.0000000000, -0.0000000000, 0.0000000000, -0.0000000000, -0.0000000000, 0.1033935547, -0.0000000000, -0.0992431641, -0.0000000000, -0.0000000000, 0.0000000000, -0.0000000000, 0.1206054688, 0.0000000000, -0.0000000000, 0.0000000000, -0.0000000000, 0.0000000000, 0.1801757812, 0.0000000000, -0.0000000000, 0.1124267578, 0.0000000000, 0.0000000000, -0.1182250977, 0.0000000000, 0.0000000000, 0.0000000000, -0.0000000000, 0.0000000000, 0.0000000000, 0.0000000000, -0.0000000000, -0.0000000000, 0.3010253906, -0.0000000000, -0.0000000000, 0.0000000000, 0.0000000000, 0.0000000000, -0.0970458984, 0.0000000000, 0.0896606445, 0.0000000000, -0.0000000000, -0.0964965820, -0.0000000000, -0.0000000000, -0.0000000000, -0.1385498047, 0.0913696289, -0.1243286133, -0.0000000000, 0.0992431641, -0.0000000000, 0.0000000000, 0.0000000000, -0.0836181641, -0.1285400391, -0.0000000000, 0.0000000000, -0.0854492188, -0.0000000000, -0.0000000000, -0.0000000000, -0.0926513672, 0.2209472656, -0.0000000000, -0.0000000000, -0.1274414062, 0.0000000000, 0.0000000000, 0.0000000000, -0.0957031250, -0.1297607422, -0.0000000000, -0.0000000000, -0.1071166992, -0.0000000000, -0.0000000000, -0.0000000000, -0.1309814453, 0.0000000000, -0.0000000000, -0.0963745117, 0.0891723633, 0.1667480469, 0.0000000000, -0.0000000000, 0.0000000000, -0.0000000000, -0.0000000000, -0.0000000000, 0.0000000000, -0.1312255859, 0.0878906250, -0.0000000000, -0.0000000000, 0.0000000000, 0.0000000000, -0.0000000000, 0.0000000000, 0.0000000000, -0.1901855469, 0.0000000000, -0.0000000000, -0.0000000000, 0.0000000000, -0.1102294922, 0.0000000000, -0.0000000000, 0.0932006836, -0.0000000000, -0.0000000000, -0.0000000000, -0.0000000000, -0.0916137695, -0.1022949219, -0.0000000000, 0.0000000000, 0.0000000000, 0.0000000000, 0.0000000000, 0.1060180664, 0.0000000000, -0.0000000000, -0.0000000000, 0.0000000000, -0.0975341797, -0.0000000000, -0.0000000000, -0.0000000000, -0.1251220703, 0.0000000000, 0.0000000000, 0.0000000000, -0.1157836914, -0.0000000000, 0.0833740234, 0.0000000000, -0.0000000000, -0.1066894531, -0.0000000000, -0.0000000000, -0.0000000000, -0.1080932617, 0.0000000000, 0.0000000000, -0.0000000000, -0.0000000000, -0.0000000000, 0.0000000000, -0.1295166016, -0.1174926758, 0.0000000000, 0.0000000000, -0.0000000000, -0.0000000000, -0.0000000000, -0.0000000000, 0.1370849609, 0.0879516602, -0.0000000000, -0.0000000000, -0.0000000000, -0.0000000000, 0.0000000000, -0.0000000000, -0.0000000000, -0.0000000000, 0.0000000000, -0.1289062500, -0.1311035156, 0.0880126953, -0.0000000000, 0.1347656250, -0.0000000000, -0.0000000000, -0.2122802734, -0.1306152344, -0.0000000000, 0.0877685547, 0.0000000000, 0.2025146484, -0.1322021484, -0.1222534180, 0.0000000000, 0.0000000000, -0.0000000000, -0.0000000000, 0.0966186523, 0.0000000000, 0.1033325195, -0.0000000000, 0.0000000000, -0.0950317383, -0.1372070312, -0.0000000000, -0.1199340820, -0.0814208984, 0.0000000000, -0.0000000000, 0.0000000000, -0.1112670898, -0.0000000000, -0.0000000000, -0.0000000000, -0.0000000000, -0.0000000000, -0.1040649414, -0.0000000000, -0.0000000000, -0.0000000000, -0.0000000000, 0.0000000000, 0.0000000000, -0.1039428711, -0.1143798828, 0.0000000000, 0.0000000000, 0.0000000000, 0.0000000000, -0.0000000000, 0.0000000000, -0.0000000000, -0.0000000000, 0.1314697266, -0.1099243164, -0.0000000000, 0.0000000000, 0.0000000000, 0.0000000000, -0.0000000000, -0.0000000000, -0.0000000000, -0.1352539062, 0.0000000000, 0.0000000000, -0.0000000000, -0.0000000000, 0.1364746094, -0.0000000000, 0.0000000000, -0.0000000000, -0.0000000000, -0.0000000000, -0.0000000000, 0.2270507812, -0.0000000000, -0.0000000000, 0.0000000000, 0.0000000000, -0.0000000000, -0.0000000000, -0.0000000000, -0.0000000000, -0.0000000000, -0.0000000000, -0.0000000000, -0.0000000000, -0.0000000000, 0.0865478516, 0.0000000000, 0.0000000000, 0.0000000000, -0.0964355469, 0.0000000000, 0.0000000000, -0.0000000000, 0.0000000000, 0.0000000000, -0.0000000000, -0.0000000000, 0.0852661133, 0.2087402344, 0.0000000000, 0.0842895508, -0.0000000000, -0.1143798828, 0.0000000000, -0.0000000000, 0.0932006836, -0.0000000000, 0.0994262695, -0.0000000000, 0.0000000000, 0.0810546875, -0.0000000000, -0.0000000000, 0.0853881836, 0.1484375000, -0.0000000000, -0.0000000000, -0.0000000000, 0.0000000000, 0.0000000000, 0.0000000000, -0.0000000000, -0.0000000000, -0.1325683594, 0.1341552734, -0.0000000000, -0.0000000000, 0.0000000000, -0.0000000000, -0.0000000000, 0.1215209961, -0.1146850586, -0.0000000000, 0.0000000000, -0.0000000000, 0.0000000000, -0.0000000000, 0.0000000000, -0.0876464844, -0.0888061523, -0.1364746094, 0.0000000000, 0.0937500000, -0.0000000000, -0.0000000000, -0.0000000000, -0.2294921875, -0.1280517578, -0.1718750000, -0.1242675781, 0.0000000000, 0.0000000000, 0.0000000000, 0.0000000000, 0.0000000000, -0.0000000000, -0.0000000000, -0.0000000000, -0.1292724609, -0.0000000000, -0.0000000000, -0.0882568359, -0.1065673828, -0.0000000000, -0.0000000000, -0.1325683594, 0.0000000000, 0.0000000000, -0.0000000000, -0.0886230469, -0.1397705078, -0.0000000000, -0.0000000000, 0.0000000000, -0.0000000000, -0.0000000000, -0.0000000000, -0.0879516602, -0.0000000000, -0.0000000000, -0.0000000000, -0.0000000000, 0.0000000000, 0.0000000000, 0.0927734375, 0.0000000000, 0.0000000000, 0.0000000000, -0.1094360352, -0.0000000000, -0.0942382812, -0.0000000000, -0.0000000000, -0.1389160156, -0.0000000000, 0.1087036133, -0.0000000000, -0.0000000000, 0.0000000000, 0.0000000000, -0.0000000000, 0.0000000000, 0.1002807617, -0.1137695312, 0.0000000000, 0.0000000000, -0.0000000000, -0.0000000000, -0.0000000000, -0.0000000000, -0.0748901367, -0.0000000000, -0.0000000000, -0.1223754883, -0.0000000000, -0.1229248047, -0.0000000000, -0.0000000000, -0.1312255859, -0.1302490234, 0.1092529297, -0.1218261719, -0.1357421875, -0.0000000000, -0.0000000000, 0.0000000000, 0.0762329102, -0.0000000000, -0.0000000000, 0.0000000000, 0.0000000000, 0.1429443359, -0.0000000000, 0.0000000000, -0.1301269531, -0.0000000000, -0.0000000000, -0.0000000000, -0.0957031250, -0.0000000000, -0.0000000000, -0.0000000000, 0.0000000000, -0.0000000000, -0.0000000000, 0.0000000000, 0.0000000000, 0.0000000000, 0.0000000000, -0.0000000000, 0.0000000000, 0.0933837891, -0.0000000000, 0.0000000000, -0.0000000000, -0.0000000000, -0.0000000000, -0.0000000000, 0.1032104492, -0.1041870117, -0.0000000000, -0.1152954102, 0.0000000000, 0.0000000000, 0.0000000000, 0.1033325195, 0.0000000000, -0.0000000000, -0.0000000000, 0.1145629883, -0.0000000000, -0.1359863281, -0.0000000000, 0.0000000000, 0.0000000000, 0.0000000000, -0.0000000000, 0.0000000000, -0.0874023438, 0.0000000000, -0.0838012695, -0.0000000000, 0.0000000000, 0.0942382812, -0.0000000000, -0.0000000000, -0.0000000000, 0.0000000000, 0.1861572266, -0.0000000000, 0.0000000000, -0.0000000000, -0.0000000000, -0.0000000000, 0.0000000000, 0.0000000000, 0.0932006836, -0.0000000000, -0.0000000000, -0.1102905273, -0.0000000000, -0.0000000000, 0.1014404297, -0.0000000000, -0.0000000000, 0.0812377930, 0.0000000000, -0.0000000000, -0.0000000000, -0.0000000000, 0.0000000000, 0.0000000000, -0.0911254883, -0.0000000000, -0.0000000000, 0.0000000000, -0.0000000000, -0.0000000000, -0.1314697266, -0.0974731445, 0.0000000000, -0.1023559570, -0.0000000000, -0.1365966797, -0.0000000000, -0.1115722656, -0.0000000000, 0.0000000000, -0.0906372070, -0.1101684570, -0.0000000000, -0.1354980469, 0.0000000000, -0.0000000000, 0.0863037109, -0.1030883789, -0.0000000000, -0.0950927734, 0.0000000000, -0.0000000000, -0.0000000000, -0.0000000000, 0.0000000000, 0.0000000000, -0.0000000000, -0.0000000000, -0.0000000000, -0.1206054688, -0.0780029297, 0.0000000000, -0.0894775391, 0.0916748047, 0.0000000000, -0.1276855469, -0.0000000000, -0.0000000000, -0.0000000000, 0.0000000000, 0.0000000000, 0.1630859375, -0.1417236328, -0.0000000000, 0.0000000000, -0.1356201172, -0.0000000000, -0.0934448242, -0.0000000000, 0.0875244141, 0.1593017578, -0.0901489258, -0.0000000000, 0.0869750977, -0.0000000000, 0.0000000000, 0.0000000000, 0.0000000000, 0.0000000000, 0.0000000000, 0.0000000000, 0.1074218750, -0.1361083984, 0.0000000000, -0.0000000000, -0.0000000000, 0.0000000000, 0.0000000000, -0.2624511719, 0.0961914062, -0.0000000000, -0.0878906250, 0.0000000000, 0.0000000000, 0.0924072266, 0.0000000000, 0.0000000000, 0.0000000000, 0.0000000000, -0.0000000000, 0.0000000000, 0.0000000000, -0.0000000000, -0.0000000000, 0.0000000000, -0.0000000000, -0.0000000000, 0.0000000000, 0.0983886719, 0.0000000000, 0.0000000000, -0.0000000000, -0.0820922852, -0.0000000000, -0.0000000000, -0.0000000000, -0.0000000000, -0.0000000000, -0.0000000000, -0.0000000000, 0.0000000000, -0.0000000000, 0.1752929688, 0.1098632812, 0.0000000000, 0.0000000000, -0.1077880859, 0.0823364258, 0.0000000000, 0.0830078125, -0.0000000000, -0.0000000000, -0.0000000000, -0.1005859375, 0.1213989258, -0.0000000000, 0.0000000000, -0.0000000000, -0.0857543945, -0.1181030273, 0.0000000000, 0.0000000000, 0.0000000000, 0.0000000000, -0.0000000000, -0.0836791992, 0.0000000000, -0.0000000000, -0.0000000000, -0.0000000000, 0.0000000000, -0.0939331055, -0.0000000000, 0.0880126953, -0.0000000000, 0.0000000000, -0.0000000000, 0.0000000000, -0.0000000000, 0.1024780273, 0.0000000000, -0.0000000000, -0.0000000000, -0.1065673828, -0.1181030273, -0.0000000000, -0.1639404297, -0.0000000000, -0.0000000000, -0.0000000000, -0.1021728516, -0.0812988281, 0.0000000000, 0.0000000000, 0.0000000000, -0.0000000000, -0.1284179688, -0.1361083984, -0.0000000000, 0.0000000000, -0.0000000000, -0.0000000000, -0.0000000000, 0.0000000000, -0.0000000000, -0.0000000000, -0.0000000000, 0.0839233398, -0.1312255859, 0.0000000000, -0.0000000000, 0.0948486328, -0.0000000000, -0.0000000000, -0.0000000000, 0.0000000000, -0.1386718750, 0.0000000000, -0.0000000000, 0.0904541016, 0.0000000000, -0.0000000000, 0.1683349609, 0.0000000000, 0.0000000000, 0.0000000000, -0.0000000000, -0.1143188477, 0.0960083008, -0.0845947266, -0.0000000000, -0.0000000000, -0.0000000000, -0.0000000000, -0.0000000000, -0.0979003906, 0.0000000000, -0.0000000000, -0.0000000000, 0.0000000000, 0.0000000000, 0.0000000000, -0.0000000000, -0.1286621094, 0.0000000000, 0.1024169922, -0.0000000000, 0.1138305664, -0.0000000000, 0.0979614258, -0.0795288086, 0.0866699219, -0.0000000000, -0.0000000000, 0.0939941406, 0.0000000000, 0.0000000000, 0.1378173828, 0.0000000000, 0.0939331055, -0.0809936523, 0.0889282227, 0.0000000000, -0.0808715820, -0.0000000000, -0.0000000000, -0.1490478516, -0.1243286133, -0.0000000000, -0.0000000000, -0.0000000000, -0.1193237305, -0.0000000000, 0.0000000000, -0.1100463867, 0.0000000000, -0.0000000000, 0.0000000000, -0.0000000000, -0.1154785156, -0.0000000000, 0.0000000000, 0.0000000000, -0.0000000000, -0.0000000000, -0.0000000000, -0.0000000000, -0.1011352539, -0.0000000000, 0.0000000000, -0.1356201172, 0.0986938477, 0.1055297852, 0.0000000000, -0.0000000000, -0.1157226562, -0.0000000000, 0.0000000000, -0.0000000000, -0.0921630859, -0.0000000000, -0.1137695312, 0.0000000000, -0.0000000000, 0.0936889648, -0.0000000000, -0.0000000000, 0.0000000000, -0.1422119141, 0.0000000000, 0.0000000000, 0.0000000000, -0.0000000000, -0.0000000000, 0.0000000000, -0.1097412109, -0.0000000000, 0.0931396484, 0.1611328125, -0.0000000000, 0.1359863281, 0.0000000000, 0.0000000000, 0.0000000000, 0.0000000000, -0.0000000000, -0.0000000000, 0.0000000000, -0.0000000000, 0.0833129883, 0.1541748047, -0.0000000000, 0.1179809570, -0.0000000000, -0.0000000000, -0.0000000000, 0.0000000000, 0.0000000000, 0.0000000000, -0.1307373047, -0.0000000000, 0.0000000000, -0.1298828125, 0.0000000000, -0.1115112305, 0.0887451172, -0.0000000000, 0.0000000000, 0.0000000000, -0.0000000000, -0.0000000000, -0.0913085938, 0.0000000000, -0.1298828125, -0.0000000000, 0.0000000000, -0.0000000000, 0.0000000000, 0.0000000000, -0.0866088867, -0.0000000000, -0.0000000000, -0.0000000000, -0.1457519531, -0.0000000000, -0.1174316406, -0.0000000000, -0.1240234375, -0.1042480469, -0.1563720703, -0.1100463867, -0.0000000000, -0.0809936523, 0.0000000000, -0.0000000000, -0.0000000000, 0.0857543945, -0.0000000000, -0.1296386719, -0.1128540039, 0.0000000000, 0.0869140625, 0.1530761719, 0.0000000000, -0.0794677734, 0.0000000000, -0.0000000000, 0.0000000000, 0.0000000000, -0.0000000000, -0.1133422852, 0.1032714844, -0.0928344727, -0.0000000000, -0.0000000000, -0.0000000000, 0.0000000000, -0.0000000000, 0.0868530273, 0.0000000000, 0.1386718750, 0.0000000000, -0.1242675781, -0.1319580078, -0.0000000000, -0.0000000000, -0.0000000000, -0.0000000000, 0.0809326172, -0.0000000000, -0.0000000000, 0.0000000000, 0.0000000000, 0.0000000000, -0.0000000000, -0.0000000000, 0.0000000000, 0.0000000000, -0.1068115234, -0.0000000000, -0.0871582031, -0.0000000000, 0.0000000000, 0.0000000000, -0.0000000000, -0.0955200195, 0.0000000000, -0.0000000000, -0.0000000000, -0.0000000000, -0.0000000000, 0.0000000000, 0.0000000000, 0.1199951172, 0.0960083008, -0.0928955078, -0.1154174805, -0.0000000000, -0.0000000000, -0.0000000000, -0.0000000000, -0.0943603516, -0.1209716797, 0.0000000000, 0.0000000000, -0.0000000000, 0.1203613281, -0.1328125000, 0.0000000000, 0.0000000000, 0.0000000000, -0.0000000000, 0.0000000000, 0.0832519531, -0.0000000000, 0.0000000000, 0.0000000000, 0.0000000000, -0.0000000000, -0.0000000000, 0.1231689453, -0.0000000000, -0.0000000000, 0.1011962891, 0.0000000000, 0.0000000000, -0.1398925781, -0.0000000000, 0.1073608398, 0.0000000000, -0.0000000000, 0.0000000000, -0.0000000000, 0.1467285156, 0.1900634766, -0.0000000000, 0.0000000000, -0.0000000000, -0.0000000000, -0.0000000000, 0.0000000000, -0.0000000000, 0.0880737305, 0.0828857422, -0.1082763672, 0.0000000000, 0.1409912109, 0.0000000000, -0.0000000000, 0.1061401367, -0.0000000000, -0.0000000000, -0.0000000000, -0.0000000000, -0.0000000000, 0.0000000000, 0.0000000000, 0.0000000000, 0.1000976562, 0.0000000000, -0.0000000000, -0.0000000000, -0.0000000000, -0.0971069336, -0.0000000000, 0.0000000000, 0.1039428711, -0.0944824219, 0.0000000000, -0.0000000000, -0.0000000000, 0.0974121094, 0.0000000000, 0.1267089844, 0.0000000000, -0.0000000000, -0.0000000000, -0.1101074219, -0.0000000000, 0.0936279297, -0.0000000000, -0.0000000000, 0.0888671875, -0.0933837891, -0.0000000000, -0.0000000000, -0.0000000000, -0.0000000000, -0.1072387695, 0.0000000000, -0.0000000000, -0.1171264648, 0.0000000000, -0.0000000000, -0.0000000000, -0.0000000000, -0.0000000000, 0.0000000000, -0.0000000000, -0.0000000000, 0.0000000000, -0.0000000000, -0.0000000000, 0.0000000000, 0.0000000000, 0.0000000000, -0.1074829102, -0.0000000000, -0.0000000000, 0.0821533203, -0.0963134766, -0.0000000000, -0.0000000000, -0.0000000000, 0.1475830078, -0.0000000000, -0.0000000000, -0.0000000000, -0.0000000000, -0.0853881836, 0.0000000000, 0.0000000000, 0.0000000000, -0.1109008789, -0.0000000000, -0.0000000000, 0.1273193359, 0.0000000000, 0.0000000000, 0.0814819336, -0.0000000000, -0.0000000000, 0.1503906250, -0.0000000000, -0.0000000000, -0.0000000000, 0.0000000000, 0.0000000000, -0.0000000000, -0.0844116211, -0.0000000000, 0.0000000000, 0.0730590820, -0.0000000000, -0.0853881836, 0.0000000000, -0.0000000000, 0.0000000000, 0.1455078125, -0.0000000000, 0.0938110352, -0.0000000000, 0.0000000000, 0.0000000000, -0.1330566406, 0.0000000000, -0.0000000000, -0.1235961914, -0.0000000000, -0.0000000000, -0.0000000000, -0.0000000000, -0.0000000000, -0.1104736328, 0.1131591797, -0.0000000000, -0.0000000000, 0.0919799805, 0.0000000000, -0.1363525391, 0.0000000000, 0.0000000000, -0.0000000000, -0.0000000000, -0.0000000000, 0.0000000000, 0.0918579102, 0.0000000000, -0.0000000000, -0.0000000000, 0.0000000000, 0.0000000000, -0.0000000000, 0.0000000000, 0.0000000000, -0.0000000000, -0.1206054688, -0.1104736328, 0.0000000000, -0.0999755859, -0.0000000000, -0.0000000000, -0.1220703125, 0.0000000000, 0.2458496094, -0.1418457031, 0.0000000000, -0.0000000000, -0.0000000000, 0.0000000000, 0.0000000000, -0.0000000000, -0.0000000000, -0.0000000000, -0.1502685547, -0.0000000000, -0.0000000000, -0.0858154297, -0.0000000000, -0.1177368164, 0.1079101562, -0.0000000000, 0.0000000000, -0.0000000000, -0.0000000000, 0.0916137695, 0.0000000000, 0.0000000000, -0.0000000000, 0.1007690430, 0.0000000000, -0.0000000000, -0.1394042969, -0.1000366211, -0.0914916992, -0.0000000000, -0.0000000000, -0.0000000000, 0.1343994141, 0.0000000000, -0.1677246094, -0.0000000000, 0.0000000000, -0.1160888672, 0.0844726562, -0.1170654297, 0.0000000000, 0.0000000000, -0.0000000000, -0.0848999023, 0.0000000000, 0.0000000000, 0.0855102539, -0.0000000000, 0.1033325195, 0.0892944336, 0.1711425781, -0.0925292969, -0.0000000000, -0.0000000000, 0.0830078125, -0.0000000000, -0.0000000000, 0.0000000000, -0.0000000000, -0.0886840820, -0.0000000000, 0.0000000000, -0.0930175781, -0.0975341797, -0.0000000000, -0.0000000000, 0.1684570312, 0.0000000000, 0.0000000000, 0.0000000000, 0.1020507812, -0.0000000000, -0.0000000000, -0.0000000000, -0.0650024414, -0.0000000000, 0.0000000000, -0.0000000000, 0.0000000000, -0.0000000000, -0.0000000000, -0.0000000000, -0.0000000000, 0.1011352539, 0.0000000000, 0.0000000000, -0.0000000000, 0.0932006836, 0.0000000000, -0.0809936523, -0.0000000000, -0.0000000000, -0.0000000000, -0.1538085938, 0.1138916016, -0.1351318359, 0.0000000000, -0.0000000000, 0.1380615234, -0.0000000000, 0.0000000000, -0.1715087891, 0.0000000000, 0.0818481445, 0.0950927734, -0.0000000000, 0.1406250000, -0.1060791016, 0.0000000000, -0.1168212891, 0.0000000000, -0.0000000000, -0.0000000000, -0.1057128906, -0.0000000000, 0.0000000000, 0.1193847656, -0.0000000000, 0.0000000000, 0.0000000000, 0.0000000000, -0.0823974609, -0.0000000000, 0.0000000000, -0.0000000000, -0.0000000000, -0.0000000000, -0.0000000000, 0.0000000000, 0.0907592773, -0.0000000000, -0.0000000000, -0.0000000000, -0.1326904297, -0.1263427734, -0.0000000000, -0.0000000000, -0.1126708984, -0.0000000000, -0.1290283203, -0.0000000000, -0.0000000000, 0.2370605469, -0.0000000000, -0.1507568359, 0.0859985352, -0.1343994141, -0.1052856445, 0.1838378906, 0.0000000000, -0.0000000000, 0.0935668945, -0.1359863281, -0.1257324219, -0.0000000000, 0.1051025391, -0.1144409180, -0.0000000000, -0.0000000000, -0.0000000000, 0.0000000000, 0.0000000000, -0.0000000000, -0.0817871094, 0.0000000000, 0.0000000000, 0.0964965820, -0.1258544922, -0.0000000000, -0.0000000000, -0.0000000000, -0.1032104492, -0.0000000000, 0.0806274414, -0.1801757812, -0.0821533203, -0.0000000000, 0.0000000000, -0.0000000000, -0.0000000000, 0.0000000000, 0.0000000000, 0.0000000000, -0.0000000000, -0.0000000000, -0.1141967773, -0.0000000000, -0.1244506836, -0.0000000000, -0.0939941406, -0.0000000000, -0.0000000000, 0.0000000000, -0.0000000000, -0.0000000000, 0.0000000000, -0.0000000000, 0.0000000000, -0.0000000000, 0.0964965820, -0.0961303711, -0.0000000000, 0.0000000000, 0.0860595703, 0.0000000000, 0.0000000000, 0.0000000000, -0.0000000000, -0.0000000000, -0.0000000000, -0.1331787109, 0.0867919922, 0.0000000000, 0.0000000000, -0.1405029297, -0.0961303711, -0.0000000000, -0.0922241211, -0.0000000000, 0.0000000000, -0.1269531250, -0.1083984375, 0.1634521484, -0.0000000000, -0.2011718750, -0.0000000000, -0.0000000000, -0.0000000000, 0.1690673828, 0.0000000000, -0.0000000000, -0.0000000000, 0.0000000000, -0.0000000000, -0.0000000000, -0.0000000000, 0.0896606445, -0.0900268555, 0.0000000000, -0.1335449219, -0.0000000000, 0.0878906250, -0.0903320312, 0.0845947266, 0.1197509766, 0.0000000000, -0.1429443359, -0.0000000000, -0.1334228516, 0.0920410156, 0.1354980469, 0.0840454102, -0.0000000000, -0.0000000000, -0.0000000000, -0.0000000000, -0.0000000000, -0.0939941406, -0.0000000000, -0.0000000000, -0.0000000000, 0.1138305664, -0.1002197266, -0.0000000000, -0.0000000000, -0.0000000000, -0.0000000000, 0.0000000000, -0.0000000000, 0.1179199219, -0.0000000000, -0.0000000000, -0.1287841797, -0.0000000000, -0.0000000000, -0.0000000000, 0.0000000000, 0.0000000000, -0.0000000000, -0.1170654297, -0.0000000000, -0.1160888672, -0.0000000000, -0.1041870117, -0.0000000000, -0.1101684570, -0.0000000000, -0.0000000000, 0.0000000000, -0.0905151367, -0.0000000000, 0.0000000000, -0.0000000000, 0.0000000000, -0.0000000000, 0.0000000000, -0.1304931641, 0.0000000000, -0.1187744141, 0.0000000000, -0.0000000000, -0.0000000000, -0.0000000000, -0.0000000000, -0.0000000000, -0.0000000000, 0.0000000000, 0.0000000000, 0.0000000000, 0.1260986328, 0.0000000000, -0.0000000000, -0.1058349609, 0.0000000000, -0.0000000000, -0.0000000000, 0.0000000000, 0.0000000000, 0.0000000000, -0.0828857422, -0.0000000000, -0.0000000000, -0.0986328125, -0.1306152344, 0.0000000000, -0.0000000000, 0.0000000000, 0.0000000000, -0.0000000000, 0.0000000000, -0.0000000000, 0.1030883789, -0.1058349609, 0.0000000000, -0.0000000000, -0.0000000000, 0.0000000000, 0.0903320312, -0.0000000000, 0.0905761719, 0.0000000000, -0.1203613281, 0.0000000000, 0.0000000000, 0.0000000000, 0.0000000000, -0.0000000000, 0.0000000000, 0.0000000000, -0.1090698242, -0.0000000000, -0.0000000000, 0.0000000000, -0.0000000000, -0.0000000000, -0.0000000000, 0.1108398438, -0.1859130859, -0.1173706055, 0.0000000000, -0.0000000000, -0.0000000000, -0.0000000000, -0.0000000000, 0.0000000000, -0.0000000000, -0.0000000000, -0.0000000000, 0.0000000000, -0.0000000000, -0.0000000000, -0.0000000000, -0.0000000000, 0.0000000000, -0.0000000000, -0.0000000000, 0.0000000000, 0.0000000000, -0.0000000000, 0.0000000000, -0.0000000000, -0.0000000000, 0.0000000000, -0.0000000000, -0.0969848633, -0.0000000000, -0.2426757812, 0.0000000000, -0.1739501953, 0.0000000000, 0.0000000000, -0.0000000000, -0.0000000000, 0.0000000000, -0.0000000000, 0.0954589844, -0.0000000000, -0.0000000000, -0.0000000000, -0.0000000000, 0.0000000000, 0.0000000000, -0.1461181641, -0.1130371094, 0.0000000000, 0.0000000000, -0.0000000000, -0.0000000000, 0.0000000000, 0.0000000000, -0.0000000000, 0.0000000000, 0.0000000000, -0.0000000000, -0.0000000000, -0.0000000000, 0.1756591797, -0.0000000000, -0.1604003906, 0.1063232422, 0.0000000000, 0.0000000000, -0.1184082031, -0.0000000000, -0.0000000000, 0.0000000000, -0.0000000000, 0.1040649414, 0.0976562500, -0.0000000000, -0.0000000000, 0.0000000000, 0.0000000000, 0.0000000000, 0.0886840820, 0.0959472656, -0.0000000000, -0.0000000000, -0.0000000000, 0.0915527344, 0.0000000000, -0.1043701172, -0.0000000000, -0.1040039062, -0.0000000000, -0.0000000000, 0.0714721680, 0.0000000000, -0.0000000000, 0.1030273438, 0.0000000000, 0.0000000000, -0.1348876953, -0.1442871094, 0.0000000000, 0.0916748047, 0.0939331055, 0.0000000000, -0.0000000000, -0.0000000000, -0.0000000000, -0.0000000000, -0.0000000000, -0.0000000000, 0.0000000000, -0.0000000000, -0.0000000000, -0.1270751953, 0.0000000000, 0.0000000000, 0.0831298828, -0.1158447266, 0.0000000000, -0.0000000000, -0.0831298828, -0.0880737305, 0.0000000000, -0.0000000000, 0.1217041016, -0.0000000000, -0.0000000000, -0.0000000000, -0.0000000000, -0.0000000000, 0.0000000000, 0.0000000000, 0.0956420898, -0.1002807617, -0.0905761719, -0.0000000000, -0.0000000000, 0.0810546875, 0.0000000000, -0.0000000000, 0.0000000000, -0.0000000000, -0.0000000000, -0.0941162109, -0.0000000000, 0.0891723633, 0.0000000000, 0.0000000000, 0.0000000000, -0.0000000000, 0.0000000000, -0.0000000000, -0.0000000000, 0.0000000000, -0.0000000000, -0.0000000000, -0.0000000000, -0.0000000000, 0.1750488281, -0.0000000000, -0.0000000000, 0.0000000000, 0.1201171875, 0.0000000000, -0.0000000000, -0.1179809570, 0.0000000000, 0.0000000000, -0.0000000000, -0.0000000000, 0.0933837891, -0.0000000000, 0.1560058594, -0.0000000000, -0.1312255859, -0.0000000000, -0.0000000000, 0.0000000000, 0.0000000000, 0.0000000000, 0.0000000000, -0.1285400391, -0.0000000000, -0.0000000000, -0.0000000000, -0.0000000000, 0.0000000000, 0.0000000000, -0.0000000000, -0.0000000000, 0.0000000000, 0.0000000000, -0.0000000000, -0.0000000000, 0.1351318359, 0.0000000000, 0.0000000000, -0.1094970703, -0.0857543945, -0.0000000000, -0.0852050781, -0.0000000000, -0.0889892578, -0.1212158203, -0.0917358398, -0.0000000000, -0.2086181641, 0.0885009766, -0.0000000000, -0.0869140625, 0.0000000000, 0.1685791016, 0.1022949219, -0.1243896484, -0.1174316406, 0.0000000000, 0.0000000000, 0.1121826172, -0.0971679688, -0.1153564453, -0.0000000000, -0.1130371094, 0.0000000000, -0.1280517578, -0.0000000000, -0.0940551758, 0.0000000000, 0.0000000000, -0.1386718750, -0.0000000000, -0.0000000000, 0.0869750977, 0.1290283203, -0.0000000000, 0.0000000000, 0.0000000000, 0.0000000000, -0.0000000000, 0.1076049805, -0.0000000000, -0.0000000000, -0.1161499023, 0.0000000000, 0.0000000000, 0.0933837891, -0.1313476562, 0.0994262695, 0.0000000000, -0.0000000000, -0.0000000000, -0.1002807617, 0.0000000000, 0.2073974609, -0.0000000000, -0.0000000000, -0.0000000000, -0.0000000000, 0.0000000000, 0.0000000000, 0.1520996094, -0.0000000000, -0.0000000000, -0.0000000000, 0.0829467773, -0.0000000000, 0.0000000000, -0.1032714844, -0.0000000000, 0.0000000000, -0.0000000000, -0.0000000000, -0.0000000000, -0.0000000000, -0.1062622070, 0.0000000000, 0.0000000000, 0.0927124023, 0.0000000000, -0.0823364258, -0.0000000000, 0.0000000000, -0.0964965820, -0.0000000000, -0.1336669922, 0.0825195312, -0.0000000000, 0.1268310547, -0.0000000000, -0.0000000000, -0.0000000000, -0.0000000000, 0.0000000000, -0.0000000000, -0.0000000000, 0.0000000000, 0.0000000000, -0.0000000000, 0.0000000000, -0.1103515625, -0.1057128906, -0.0000000000, -0.0000000000, 0.0000000000, -0.0000000000, -0.0000000000, -0.0000000000, 0.0000000000, 0.1528320312, 0.0000000000, -0.0000000000, -0.0994262695, -0.1090698242, -0.0000000000, 0.0000000000, -0.1117553711, 0.0000000000, 0.2022705078, -0.0000000000, 0.1507568359, -0.0000000000, -0.0000000000, 0.1014404297, -0.0000000000, -0.0000000000, 0.0000000000, -0.0000000000, -0.0000000000, 0.0000000000, -0.0932006836, 0.0000000000, -0.0000000000, 0.0000000000, -0.0000000000, -0.0000000000, 0.0000000000, -0.1019897461, 0.0000000000, 0.0811767578, 0.0000000000, 0.0000000000, -0.0000000000, 0.0891113281, -0.1090698242, 0.0911254883, -0.0000000000, 0.0000000000, -0.0000000000, -0.0000000000, -0.0000000000, -0.0000000000, -0.0000000000, -0.1238403320, -0.0988769531, -0.1264648438, 0.0000000000, 0.0000000000, -0.1057739258, 0.0816650391, -0.1172485352, -0.0826416016, 0.0000000000, -0.1285400391, -0.1022338867, -0.1315917969, 0.1864013672, -0.0000000000, 0.1400146484, -0.0000000000, -0.0000000000, 0.0000000000, 0.0000000000, 0.0000000000, 0.0000000000, -0.0000000000, -0.0000000000, 0.0000000000, -0.0000000000, -0.0000000000, 0.0000000000, -0.0000000000, -0.0000000000, 0.0000000000, 0.0000000000, -0.1459960938, -0.0000000000, -0.0000000000, -0.0000000000, 0.0000000000, 0.0000000000, -0.1155395508, -0.0000000000, -0.0000000000, -0.0000000000, 0.0000000000, 0.0000000000, 0.0917968750, -0.0000000000, -0.0000000000, 0.1351318359, -0.0000000000, -0.0000000000, 0.0000000000, -0.0000000000, 0.0000000000, 0.0000000000, 0.0000000000, 0.0000000000, -0.1176757812, -0.0835571289, -0.0000000000, -0.0000000000, 0.1032714844, 0.0000000000, -0.0000000000, -0.1539306641, -0.0000000000, -0.0924682617, -0.0865478516, 0.0000000000, 0.0000000000, 0.0845947266, -0.1185302734, 0.0913085938, 0.0000000000, -0.0000000000, -0.0000000000, -0.0000000000, -0.0000000000, 0.1238403320, -0.1090698242, 0.0000000000, -0.0000000000, -0.0000000000, 0.1002807617, -0.0000000000, 0.0000000000, 0.0906982422, 0.0930786133, 0.1016235352, 0.0000000000, -0.0000000000, -0.1057739258, -0.1208496094, -0.0000000000, -0.0000000000, -0.0000000000, 0.0000000000, 0.0904541016, -0.1280517578, -0.0000000000, 0.0000000000, 0.0000000000, 0.0000000000, -0.0000000000, -0.0000000000, 0.0000000000, 0.0832519531, -0.0000000000, 0.0000000000, 0.0000000000, -0.0000000000, -0.0000000000, -0.0000000000, -0.0000000000, 0.0000000000, 0.0000000000, 0.1062622070, 0.0000000000, 0.0000000000, -0.0000000000, 0.0000000000, -0.1273193359, -0.1035156250, -0.0000000000, -0.1009521484, -0.0000000000, -0.0000000000, -0.0000000000, -0.0000000000, -0.0000000000, 0.0000000000, 0.0000000000, 0.0000000000, -0.0000000000, -0.0000000000, -0.0000000000, 0.0809936523, -0.0000000000, -0.0000000000, -0.0975341797, -0.0890502930, -0.0000000000, 0.1133422852, -0.0913085938, -0.0000000000, -0.0000000000, -0.0000000000, -0.0897827148, -0.1036987305, 0.0000000000, -0.0000000000, 0.0000000000, -0.1096191406, 0.0980834961, -0.0000000000, -0.0000000000, -0.1368408203, 0.0873413086, -0.0000000000, -0.0000000000, 0.1607666016, -0.0000000000, 0.1093139648, 0.0000000000, 0.0000000000, -0.0905761719, 0.0809326172, 0.0883789062, 0.0000000000, -0.1221923828, -0.0000000000, 0.0000000000, 0.0000000000, -0.0000000000, -0.0000000000, -0.0000000000, -0.0000000000, -0.0000000000, 0.1313476562, -0.0000000000, -0.0874633789, 0.1205444336, -0.1308593750, -0.0928955078, 0.0000000000, 0.0000000000, -0.0919799805, 0.0000000000, -0.0000000000, -0.0000000000, -0.0000000000, 0.0844116211, 0.0000000000, -0.0000000000, -0.0000000000, 0.1018066406, -0.1174926758, 0.0000000000, -0.0000000000, -0.0000000000, 0.0000000000, 0.0000000000, -0.1622314453, -0.1016845703, -0.0000000000, -0.1176757812, 0.1232299805, -0.0000000000, -0.1978759766, -0.0000000000, -0.0000000000, -0.1282958984, 0.1413574219, 0.0000000000, -0.1320800781, -0.1033935547, -0.0000000000, 0.0000000000, 0.1287841797, -0.0000000000, -0.0000000000, -0.0000000000, -0.0000000000, -0.0000000000, 0.0000000000, 0.0000000000, -0.0000000000, 0.0000000000, -0.0806274414, 0.0000000000, 0.1009521484, 0.1039428711, -0.0000000000, 0.0000000000, 0.1627197266, -0.0000000000, -0.0000000000, -0.0000000000, 0.0827636719, 0.0949707031, -0.1949462891, -0.0000000000, -0.0000000000, -0.0000000000, 0.0000000000, 0.0000000000, 0.0000000000, -0.0000000000, 0.0000000000, 0.0000000000, -0.0000000000, 0.0000000000, -0.0000000000, -0.0000000000, -0.1267089844, -0.1405029297, 0.0000000000, -0.0000000000, 0.1072387695, -0.0000000000, 0.0000000000, -0.1636962891, 0.0000000000, 0.0000000000, 0.0000000000, 0.0000000000, -0.0000000000, -0.0000000000, -0.1050415039, 0.1017456055, -0.0000000000, -0.0000000000, -0.0000000000, -0.0000000000, -0.0000000000, -0.0000000000, -0.1068725586, 0.0000000000, 0.0000000000, -0.0000000000, 0.0000000000, -0.0000000000, -0.0000000000, 0.0000000000, -0.1116943359, 0.0000000000, 0.1636962891, -0.0000000000, -0.0000000000, -0.0000000000, 0.0000000000, 0.0947265625, 0.1734619141, 0.0000000000, 0.0000000000, -0.0993041992, -0.0000000000, -0.0000000000, -0.0000000000, -0.0000000000, -0.1413574219, -0.0000000000, -0.0000000000, -0.0000000000, -0.0000000000, -0.0000000000, -0.0000000000, -0.0000000000, 0.0000000000, 0.2061767578, -0.0000000000, 0.0000000000, -0.1149291992, 0.0960083008, -0.0000000000, 0.0000000000, -0.0935058594, -0.0000000000, -0.0000000000, -0.0000000000, 0.1290283203, -0.0000000000, -0.0000000000, 0.1006469727, -0.1636962891, 0.0000000000, -0.1485595703, -0.0000000000, -0.0000000000, -0.0000000000, -0.0000000000, 0.0000000000, -0.1146240234, -0.0000000000, -0.1126708984, -0.0000000000, 0.0000000000, -0.1154174805, -0.0000000000, 0.0000000000, 0.0000000000, 0.0000000000, 0.0000000000, 0.0000000000, -0.0000000000, -0.0911865234, -0.0000000000, -0.0873413086, 0.0830688477, 0.0000000000, 0.0000000000, -0.0000000000, 0.0000000000, -0.1068115234, -0.0000000000, 0.0884399414, 0.1649169922, 0.0000000000, 0.0000000000, 0.0000000000, -0.0000000000, 0.0000000000, 0.1320800781, 0.0000000000, -0.0000000000, -0.0000000000, 0.1361083984, -0.0000000000, -0.0000000000, -0.0000000000, -0.0000000000, -0.0000000000, 0.0000000000, -0.1125488281, -0.0000000000, -0.1030883789, -0.0000000000, -0.1110839844, -0.0000000000, 0.0000000000, -0.0000000000, -0.1015014648, -0.0000000000, -0.0967407227, 0.1629638672, -0.0000000000, -0.0000000000, -0.0000000000, 0.0000000000, 0.0000000000, 0.0930175781, -0.0000000000, 0.0000000000, -0.1228027344, 0.0000000000, -0.0000000000, -0.0000000000, -0.0000000000, -0.0000000000, -0.0000000000, 0.0000000000, -0.1378173828, -0.0000000000, -0.0000000000, 0.0000000000, 0.0000000000, 0.0000000000, -0.1345214844, 0.0000000000, -0.0000000000, 0.0806884766, -0.0948486328, 0.0859985352, -0.0000000000, -0.0000000000, 0.0000000000, 0.0000000000, -0.0000000000, -0.0000000000, 0.0000000000, 0.0000000000, 0.0000000000, -0.0000000000, 0.0000000000, -0.0833740234, 0.0000000000, -0.0867919922, -0.0000000000, -0.0000000000, -0.0000000000, 0.1032714844, -0.1242675781, 0.0000000000, -0.0000000000, -0.0000000000, -0.0811157227, 0.0000000000, -0.0000000000, 0.0000000000, -0.0000000000, -0.0000000000, -0.0000000000, -0.1285400391, 0.0000000000, -0.1364746094, 0.1060180664, 0.0000000000, -0.0000000000, -0.0000000000, -0.0000000000, -0.0000000000, 0.0000000000, 0.0000000000, 0.0000000000, 0.0000000000, 0.0000000000, -0.0000000000, 0.0000000000, -0.0000000000, -0.0000000000, -0.0000000000, 0.0000000000, -0.0000000000, -0.0000000000, 0.0000000000, -0.1444091797, -0.0000000000, 0.0000000000, -0.0000000000, 0.0000000000, 0.0000000000, 0.0000000000, 0.0000000000, -0.0858764648, -0.0000000000, -0.0000000000, -0.1111450195, -0.0000000000, 0.1481933594, -0.0000000000, 0.1184692383, -0.0000000000, -0.1330566406, 0.0000000000, -0.0000000000, 0.0000000000, -0.0000000000, 0.0000000000, -0.0000000000, -0.0000000000, 0.0000000000, -0.0981445312, -0.0881958008, -0.0856933594, -0.0000000000, -0.1049194336, 0.0904541016, -0.1146850586, 0.0000000000, -0.0841064453, 0.0000000000, -0.1256103516, 0.0000000000, -0.0000000000, -0.1143798828, 0.0878295898, -0.0000000000, 0.0000000000, -0.0000000000, -0.0000000000, -0.0000000000, -0.0000000000, 0.0000000000, -0.0000000000, 0.0000000000, -0.1005859375, 0.0000000000, -0.0000000000, 0.0000000000, -0.0000000000, 0.0000000000, -0.0000000000, -0.0000000000, -0.0905761719, -0.0000000000, 0.1184692383, -0.0000000000, -0.0000000000, 0.0000000000, -0.0000000000, 0.1171264648, 0.1046142578, 0.0000000000, 0.0000000000, -0.0000000000, 0.0926513672, 0.0000000000, -0.0000000000, -0.0000000000, 0.0816040039, -0.1127929688, -0.0000000000, -0.0000000000, -0.0000000000, 0.0000000000, -0.0000000000, -0.0000000000, 0.0000000000, 0.0000000000, -0.0000000000, -0.1077880859, 0.0000000000, -0.0000000000, -0.0000000000, -0.0000000000, 0.0000000000, -0.0000000000, -0.1286621094, -0.0000000000, -0.0000000000, 0.0000000000, -0.0000000000, 0.2094726562, -0.0000000000, 0.0000000000, 0.0000000000, -0.0000000000, 0.0926513672, 0.0873413086, -0.0000000000, -0.0000000000, 0.0000000000, -0.0000000000, 0.0000000000, -0.0000000000, 0.0000000000, 0.0000000000, -0.0000000000, -0.0000000000, -0.0000000000, 0.0000000000, 0.0000000000, -0.0000000000, 0.0928955078, -0.1350097656, 0.0000000000, -0.0000000000, -0.0000000000, -0.0000000000, -0.0000000000, 0.1553955078, -0.0000000000, 0.0000000000, -0.0000000000, -0.0000000000, -0.0000000000, 0.0000000000, 0.0000000000, 0.0855712891, -0.1335449219, 0.0995483398, 0.0000000000, -0.0000000000, 0.0000000000, 0.0928344727, -0.0000000000, 0.1219482422, -0.0000000000, 0.0987548828, 0.0000000000, 0.1367187500, -0.1016845703, 0.0000000000, -0.0000000000, 0.0000000000, 0.0000000000, 0.0929565430, 0.0000000000, -0.0000000000, -0.0000000000, -0.0000000000, -0.0947875977, -0.0000000000, -0.1298828125, -0.0000000000, 0.0000000000, 0.0000000000, -0.1195678711, -0.0736083984, 0.1234741211, 0.0000000000, -0.0868530273, -0.1029052734, 0.0811157227, -0.0000000000, 0.0000000000, 0.0907592773, 0.0000000000, -0.1151733398, -0.0000000000, 0.0000000000, -0.0000000000, -0.0000000000, -0.0845336914, 0.0000000000, -0.0000000000, -0.0000000000, 0.1044921875, 0.0000000000, 0.0831298828, -0.0000000000, -0.0954589844, 0.0979003906, 0.0000000000, -0.0000000000, -0.0000000000, 0.1077880859, -0.0000000000, 0.1192626953, -0.1030273438, -0.0000000000, 0.0000000000, 0.0000000000, -0.0000000000, -0.0000000000, 0.0000000000, 0.0000000000, 0.0000000000, -0.0000000000, -0.0000000000, 0.3061523438, -0.0000000000, -0.1254882812, -0.0000000000, -0.2028808594, 0.0000000000, 0.1212158203, 0.0000000000, -0.0000000000, 0.0000000000, 0.0000000000, 0.0000000000, -0.0000000000, -0.0000000000, -0.0000000000, -0.0000000000, -0.1130981445, -0.1187133789, 0.0000000000, -0.0920410156, -0.0000000000, -0.1229858398, 0.0964965820, 0.0000000000, -0.1416015625, -0.0000000000, 0.0000000000, 0.0000000000, 0.1716308594, 0.0000000000, 0.0921020508, -0.0000000000, 0.0000000000, -0.1352539062, -0.0000000000, -0.0000000000, 0.0996093750, 0.0000000000, 0.0000000000, -0.0000000000, 0.0000000000, -0.0000000000, -0.1000366211, 0.0000000000, -0.0000000000, 0.0000000000, -0.0000000000, -0.0000000000, -0.0000000000, -0.0000000000, 0.1156616211, -0.1152954102, 0.1027221680, 0.0874023438, 0.0000000000, 0.0000000000, -0.0000000000, 0.0000000000, 0.0000000000, 0.0884399414, -0.0000000000, -0.1123046875, -0.0000000000, -0.0000000000, 0.0000000000, -0.0000000000, -0.1419677734, -0.0000000000, -0.1506347656, -0.1050415039, -0.0723266602, 0.0000000000, 0.0000000000, 0.0000000000, -0.0000000000, -0.0000000000, -0.0000000000, -0.0000000000, -0.0000000000, -0.0000000000, -0.0000000000, -0.0000000000, 0.0000000000, 0.0000000000, -0.0000000000, 0.0000000000, -0.0971069336, -0.0000000000, -0.0000000000, -0.1156005859, -0.0000000000, 0.0000000000, 0.0969848633, -0.1131591797, -0.0000000000, 0.0000000000, -0.2281494141, -0.0000000000, 0.0000000000, -0.0929565430, 0.2357177734, 0.0000000000, 0.0000000000, 0.0000000000, -0.0000000000, 0.0000000000, -0.1195678711, 0.0000000000, -0.0000000000, 0.0000000000, 0.0000000000, -0.0000000000, -0.1395263672, 0.0000000000, 0.0000000000, -0.0000000000, 0.2001953125, -0.1113891602, -0.0000000000, -0.0000000000, 0.0000000000, -0.1271972656, -0.1267089844, -0.0000000000, -0.0000000000, -0.1091918945, -0.0000000000, -0.1442871094, 0.0000000000, -0.0000000000, -0.0000000000, -0.0000000000, -0.0000000000, 0.0000000000, 0.1391601562, -0.0932006836, -0.0955200195, 0.0000000000, -0.1195068359, -0.0871582031, -0.1232299805, -0.0932617188, -0.0000000000, -0.0000000000, 0.0895996094, -0.1174316406, -0.1478271484, 0.0000000000, -0.0000000000, -0.0000000000, 0.1257324219, -0.1544189453, -0.0000000000, -0.0000000000, 0.0000000000, -0.0855712891, -0.0000000000, 0.0000000000, -0.0000000000, -0.0000000000, -0.1265869141, -0.0000000000, -0.0000000000, -0.0000000000, -0.0000000000, 0.0000000000, 0.0000000000, 0.2509765625, 0.0000000000, -0.0000000000, -0.1038818359, -0.1084594727, -0.0000000000, -0.0910034180, -0.0000000000, -0.1450195312, 0.0000000000, -0.0000000000, -0.0000000000, -0.1224365234, -0.0000000000, -0.0924682617, 0.0000000000, 0.0000000000, -0.0000000000, 0.1000976562, -0.0000000000, -0.0000000000, -0.0000000000, 0.0000000000, 0.0000000000, -0.1093139648, 0.1746826172, -0.0000000000, 0.0918579102, -0.0000000000, -0.2274169922, 0.0000000000, -0.0000000000, 0.0000000000, 0.0000000000, -0.1193847656, -0.0000000000, -0.0000000000, 0.0000000000, 0.0000000000, 0.0000000000, -0.0857543945, -0.0000000000, -0.0000000000, 0.0819702148, 0.0000000000, 0.0000000000, 0.0000000000, -0.0000000000, -0.0000000000, 0.0000000000, 0.0000000000, -0.0000000000, -0.0000000000, -0.0000000000, -0.0000000000, 0.0955200195, 0.1006469727, -0.0000000000, -0.0000000000, 0.0000000000, -0.1273193359, 0.0000000000, 0.0000000000, 0.0000000000, -0.2248535156, -0.0000000000, -0.0819702148, -0.0000000000, 0.0000000000, 0.0000000000, -0.0000000000, 0.0874633789, -0.0000000000, 0.0000000000, -0.1282958984, 0.0971069336, -0.1315917969, 0.1247558594, -0.0000000000, 0.0000000000, 0.1331787109, 0.1038208008, -0.0891113281, -0.0000000000, 0.0000000000, -0.0000000000, 0.0000000000, -0.0000000000, 0.0000000000, -0.0000000000, 0.0000000000, 0.0000000000, -0.0000000000, -0.0000000000, -0.0844116211, 0.0000000000, -0.0000000000, -0.0000000000, -0.0897827148, 0.0906982422, 0.0000000000, 0.1325683594, 0.0000000000, 0.0000000000, 0.0000000000, 0.0000000000, -0.0000000000, 0.0000000000, -0.0000000000, -0.1046752930, -0.0911254883, 0.0000000000, 0.0000000000, 0.0000000000, -0.0000000000, -0.0000000000, -0.0956420898, -0.0000000000, -0.0000000000, -0.0000000000, -0.0000000000, -0.0000000000, -0.0839843750, 0.0000000000, 0.0827026367, 0.2095947266, 0.0000000000, 0.1173706055, -0.1998291016, -0.0000000000, 0.0815429688, -0.0000000000, 0.0000000000, -0.0000000000, 0.0000000000, -0.1121215820, -0.0000000000, 0.0000000000, -0.0000000000, -0.0000000000, -0.0000000000, -0.1274414062, 0.0976562500, 0.0000000000, 0.0000000000, 0.0000000000, -0.0000000000, 0.0862426758, -0.1239013672, -0.0000000000, 0.0000000000, -0.0000000000, -0.0000000000, -0.0000000000, -0.0927734375, 0.0000000000, -0.0000000000, -0.0000000000, -0.1286621094, 0.0000000000, 0.0000000000, -0.0000000000, -0.0000000000, 0.0000000000, -0.0000000000, -0.0000000000, 0.1157836914, -0.0000000000, -0.0981445312, -0.0000000000, -0.0000000000, 0.0000000000, -0.1297607422, -0.0000000000, 0.0000000000, 0.1166381836, 0.0000000000, -0.1330566406, 0.0000000000, -0.0971679688, 0.0816040039, -0.0000000000, 0.0000000000, -0.0000000000, 0.0000000000, -0.0000000000, -0.1402587891, 0.0000000000, -0.0000000000, 0.0000000000, 0.1048583984, 0.0000000000, -0.0000000000, -0.0000000000, -0.0000000000, -0.0000000000, -0.0000000000, -0.0000000000, 0.0000000000, -0.0000000000, -0.0000000000, 0.0851440430, 0.0000000000, -0.0000000000, -0.0000000000, -0.0000000000, -0.0000000000, -0.0000000000, 0.1376953125, -0.0000000000, -0.1037597656, 0.0000000000, -0.0916137695, 0.0000000000, -0.0000000000, -0.1210327148, -0.0916748047, 0.1499023438, -0.0000000000, -0.0000000000, -0.0000000000, -0.0000000000, -0.0000000000, 0.0000000000, 0.0000000000, 0.0000000000, 0.0000000000, 0.0000000000, -0.0000000000, 0.0000000000, 0.0000000000, 0.0000000000, -0.1145629883, 0.1739501953, 0.0831298828, -0.0000000000, -0.0000000000, -0.1610107422, 0.0000000000, -0.1470947266, 0.1616210938, 0.0845947266, -0.0941162109, 0.0000000000, 0.0000000000, 0.0909423828, 0.1043701172, 0.0000000000, -0.0000000000, -0.0000000000, -0.0000000000, -0.0000000000, -0.0000000000, -0.0000000000, -0.0000000000, 0.0000000000, 0.0000000000, -0.0000000000, 0.0000000000, -0.1212158203, -0.0000000000, 0.1489257812, 0.0000000000, -0.0000000000, -0.0000000000, -0.0000000000, -0.0816650391, -0.0000000000, -0.0000000000, -0.0000000000, -0.1350097656, 0.1394042969, 0.0000000000, -0.0957641602, 0.0000000000, -0.0924682617, -0.1040039062, -0.0000000000, -0.0000000000, -0.0000000000, -0.0000000000, 0.0951538086, -0.0000000000, 0.0000000000, -0.0000000000, -0.0000000000, -0.0845336914, 0.1179809570, -0.0000000000, -0.0850830078, -0.0000000000, -0.0000000000, -0.0000000000, -0.0000000000, 0.0000000000, -0.0878295898, 0.0916137695, 0.1463623047, -0.0000000000, -0.0000000000, -0.0000000000, 0.0000000000, 0.0000000000, 0.0000000000, -0.0000000000, -0.0000000000, 0.0000000000, -0.0994262695, -0.0000000000, 0.0000000000, -0.0000000000, -0.0000000000, -0.0000000000, 0.0000000000, -0.0000000000, -0.0000000000, -0.1025390625, -0.0000000000, 0.0000000000, 0.0000000000, 0.0000000000, -0.0000000000, -0.0000000000, -0.0000000000, 0.0910034180, -0.0000000000, -0.0000000000, -0.0000000000, -0.1491699219, -0.0000000000, -0.0828857422, -0.0000000000, 0.0000000000, 0.1437988281, -0.0000000000, 0.0000000000, 0.0000000000, -0.0874633789, -0.1176757812, 0.0816040039, -0.0000000000, -0.1489257812, 0.0000000000, 0.0000000000, -0.1470947266, -0.1406250000, -0.0000000000, 0.1105346680, -0.1060791016, -0.0000000000, -0.1199951172, 0.1043090820, -0.0847778320, -0.1250000000, -0.0000000000, 0.0000000000, 0.0934448242, -0.0000000000, -0.0816650391, -0.0812377930, -0.0000000000, -0.0000000000, 0.0000000000, 0.0000000000, -0.1152954102, -0.0000000000, 0.1004028320, -0.0968017578, -0.0000000000, 0.0889282227, 0.0000000000, 0.0000000000, 0.0000000000, -0.1259765625, 0.0000000000, -0.0000000000, -0.0000000000, -0.1475830078, 0.0000000000, -0.0000000000, 0.0904541016, -0.1542968750, -0.1246948242, 0.0000000000, 0.1839599609, -0.0000000000, -0.0000000000, -0.1220703125, 0.0000000000, -0.0731201172, 0.0000000000, -0.0809936523, -0.0000000000, 0.0828247070, -0.0000000000, 0.0000000000, 0.0000000000, -0.0000000000, 0.0000000000, 0.0000000000, 0.0000000000, 0.0000000000, 0.0000000000, -0.0000000000, -0.1004638672, -0.0000000000, -0.0000000000, -0.1363525391, -0.0000000000, 0.1508789062, -0.0000000000, 0.0000000000, -0.0000000000, -0.2454833984, -0.0000000000, 0.0000000000, -0.0000000000, -0.0000000000, 0.0876464844, -0.0000000000, 0.1105346680, -0.0834960938, -0.0000000000, 0.0000000000, -0.0000000000, -0.0000000000, -0.0000000000, -0.1082153320, -0.0000000000, 0.1166992188, -0.0000000000, 0.1696777344, -0.0000000000, -0.0000000000, -0.0831909180, -0.0000000000, 0.0000000000, -0.0000000000, -0.0841674805, -0.0000000000, -0.0000000000, -0.0000000000, -0.0000000000, 0.0000000000, -0.1269531250, 0.1312255859, 0.0000000000, 0.0000000000, -0.0000000000, 0.1106567383, 0.0000000000, -0.0000000000, 0.0000000000, 0.0000000000, 0.0000000000, -0.0000000000, -0.0000000000, 0.2019042969, -0.0000000000, 0.0000000000, -0.0000000000, -0.0000000000, -0.1052246094, 0.1489257812, -0.0000000000, -0.1189575195, 0.0000000000, -0.0000000000, 0.0000000000, -0.0000000000, 0.0932617188, 0.0000000000, -0.0000000000, -0.0000000000, 0.0000000000, 0.0000000000, -0.0000000000, 0.1695556641, -0.0000000000, 0.0000000000, 0.0000000000, -0.0000000000, -0.0000000000, -0.0000000000, 0.0000000000, -0.0000000000, -0.0000000000, -0.0000000000, 0.0000000000, -0.0000000000, 0.0000000000, -0.0000000000, -0.0000000000, -0.0000000000, -0.0000000000, 0.0000000000, 0.0000000000, -0.0000000000, -0.0000000000, -0.0000000000, -0.1147460938, -0.0000000000, -0.0000000000, -0.0000000000, -0.0000000000, -0.0000000000, -0.0000000000, 0.0000000000, -0.0000000000, 0.1971435547, 0.0000000000, -0.0000000000, -0.1473388672, 0.0849609375, 0.0841674805, -0.1275634766, 0.0963745117, -0.0000000000, -0.0000000000, -0.0876464844, -0.0980224609, 0.0000000000, 0.0917358398, -0.1336669922, -0.1093139648, -0.2648925781, -0.0000000000, 0.1623535156, 0.0000000000, -0.0000000000, 0.0000000000, 0.0000000000, -0.0000000000, -0.0000000000, 0.0000000000, 0.0881958008, -0.0000000000, -0.1721191406, -0.0853271484, 0.0000000000, -0.1342773438, 0.1477050781, 0.0000000000, -0.0000000000, 0.0000000000, -0.0000000000, 0.0000000000, 0.0000000000, -0.0947875977, -0.0000000000, -0.1095581055, -0.0000000000, -0.1206665039, -0.0000000000, -0.1055297852, 0.0000000000, -0.1264648438, -0.1090087891, -0.0000000000, 0.0000000000, 0.1181030273, 0.0874023438, -0.0000000000, -0.0975952148, 0.0000000000, -0.0000000000, 0.0000000000, -0.0000000000, -0.0927124023, -0.1229248047, 0.0819091797, 0.1193847656, -0.0991210938, 0.0000000000, -0.0000000000, -0.0000000000, -0.0000000000, 0.0000000000, 0.0983276367, -0.1127929688, -0.0000000000, -0.0950317383, -0.0000000000, 0.0000000000, -0.0000000000, 0.1367187500, -0.0000000000, 0.0000000000, -0.0000000000, -0.1322021484, 0.1010131836, 0.0000000000, -0.1066284180, -0.0000000000, 0.0000000000, -0.0000000000, -0.0833740234, 0.0000000000, 0.0962524414, -0.0000000000, 0.0000000000, 0.2044677734, 0.0913085938, -0.0000000000, -0.0000000000, -0.0000000000, -0.1356201172, 0.0000000000, 0.1119995117, 0.0000000000, -0.0895385742, -0.0000000000, 0.0000000000, 0.0000000000, -0.0000000000, 0.0000000000, -0.0000000000, -0.0000000000, -0.0000000000, 0.0000000000, -0.1110839844, -0.2032470703, 0.0000000000, 0.0000000000, 0.1545410156, 0.0000000000, 0.0000000000, -0.1235961914, 0.0000000000, -0.0000000000, 0.1104736328, 0.0000000000, -0.0000000000, 0.0000000000, -0.0000000000, 0.0000000000, -0.0000000000, 0.2119140625, -0.0972900391, 0.0000000000, -0.1596679688, -0.1028442383, -0.0000000000, 0.0000000000, 0.0000000000, 0.0000000000, -0.0000000000, 0.0855102539, -0.0000000000, -0.0000000000, 0.0910644531, -0.0000000000, -0.0000000000, -0.0000000000, 0.0000000000, -0.0000000000, 0.0000000000, 0.0000000000, -0.0000000000, -0.0000000000, 0.0000000000, -0.0000000000, 0.0000000000, -0.0000000000, 0.1220092773, -0.0000000000, -0.0000000000, -0.0000000000, -0.0000000000, 0.1149291992, -0.1012573242, -0.0000000000, 0.0000000000, -0.0000000000, -0.1000976562, -0.0000000000, -0.1215820312, -0.0000000000, 0.0000000000, -0.0917968750, -0.0000000000, 0.0738525391, -0.0000000000, -0.0849609375, -0.0000000000, 0.0000000000, -0.1230468750, 0.0000000000, -0.0000000000, 0.0000000000, 0.0000000000, 0.0000000000, -0.1040039062, -0.0000000000, -0.1102905273, -0.0814819336, -0.0000000000, 0.0988769531, 0.0867919922, -0.0000000000, -0.0000000000, -0.0000000000, 0.0000000000, -0.1275634766, 0.1781005859, -0.1073608398, -0.0000000000, -0.0000000000, -0.0000000000, -0.1663818359, -0.0000000000, -0.0000000000, 0.0000000000, -0.2003173828, -0.0000000000, 0.0000000000, -0.0000000000, 0.2189941406, -0.0000000000, 0.1219482422, -0.1333007812, 0.0000000000, 0.0000000000, 0.0000000000, -0.0923461914, -0.0000000000, 0.0892944336, 0.0000000000, 0.0000000000, -0.1085815430, 0.0000000000, 0.0000000000, 0.0829467773, -0.0000000000, 0.0000000000, -0.0000000000, -0.1180419922, -0.0000000000, 0.1061401367, -0.0000000000, -0.0000000000, -0.0939941406, -0.0830688477, -0.0000000000, -0.0000000000, 0.1259765625, -0.0825195312, 0.0000000000, -0.0829467773, -0.0000000000, 0.0000000000, -0.0000000000, -0.1655273438, -0.0000000000, -0.0000000000, -0.0867919922, -0.0942993164, 0.0000000000, 0.1018676758, -0.0000000000, -0.0951538086, -0.1137084961, -0.0000000000, -0.0000000000, 0.0836791992, -0.0000000000, 0.0000000000, 0.0000000000, 0.1181640625, 0.0000000000, -0.0000000000, -0.1211547852, 0.0000000000, -0.0000000000, 0.0000000000, -0.1265869141, -0.0000000000, -0.0000000000, -0.0000000000, 0.0000000000, -0.0000000000, -0.0000000000, -0.0000000000, -0.0000000000, 0.0000000000, -0.0864257812, -0.0000000000, -0.0917358398, 0.0000000000, -0.0000000000, -0.1066894531, -0.0819702148, 0.0000000000, -0.0000000000, -0.0000000000, -0.1094360352, -0.0000000000, -0.0000000000, 0.0000000000, 0.0000000000, 0.0000000000, -0.0000000000, -0.0000000000, 0.0000000000, -0.0000000000, 0.0000000000, -0.0000000000, 0.0000000000, 0.0000000000, 0.0000000000, -0.0000000000, -0.0000000000, -0.1114501953, 0.0000000000, -0.0000000000, -0.0000000000, 0.0000000000, 0.0000000000, -0.0000000000, 0.0990600586, 0.0000000000, -0.0000000000, 0.0990600586, -0.0000000000, -0.0000000000, 0.1356201172, 0.0822753906, 0.0000000000, 0.0860595703, 0.1533203125, 0.0000000000, 0.0000000000, -0.0000000000, 0.0000000000, 0.0950927734, -0.1023559570, -0.1230468750, -0.0000000000, 0.0829467773, -0.0986328125, 0.0000000000, 0.1244506836, -0.0000000000, 0.0000000000, -0.0000000000, -0.0000000000, -0.0000000000, 0.0000000000, 0.0000000000, -0.0936279297, 0.0000000000, -0.0000000000, -0.0000000000, -0.1806640625, -0.0943603516, 0.0000000000, 0.0000000000, -0.1196289062, -0.0000000000, 0.0000000000, 0.0834350586, -0.0000000000, -0.0000000000, 0.0000000000, -0.1213378906, -0.1390380859, 0.0000000000, 0.0000000000, -0.1190185547, -0.0000000000, 0.0000000000, 0.0000000000, 0.0000000000, 0.0000000000, 0.0000000000, -0.0000000000, -0.0000000000, -0.0000000000, 0.0000000000, 0.0000000000, 0.0000000000, -0.0000000000, -0.0000000000, 0.0000000000, -0.0000000000, -0.0000000000, -0.0993041992, -0.0000000000, -0.1212158203, -0.0000000000, 0.0000000000, 0.0000000000, -0.1052246094, -0.0000000000, 0.0986938477, 0.0000000000, -0.1295166016, -0.0000000000, -0.1457519531, 0.0000000000, 0.1011352539, -0.0000000000, -0.1264648438, -0.0965576172, -0.0000000000, 0.2038574219, -0.0000000000, -0.0000000000, 0.1085205078, -0.1947021484, 0.1049194336, 0.0000000000, 0.1772460938, 0.1130981445, -0.1278076172, 0.0000000000, -0.0907592773, -0.0000000000, -0.1271972656, -0.0000000000, 0.1038208008, -0.0000000000, -0.0000000000, 0.0000000000, -0.0000000000, -0.0000000000, -0.0943603516, 0.0000000000, 0.0000000000, -0.0000000000, -0.1254882812, -0.0000000000, 0.0000000000, -0.0000000000, 0.0000000000, -0.1092529297, -0.0000000000, -0.1458740234, -0.0000000000, -0.0000000000, -0.0000000000, -0.0000000000, -0.0934448242, 0.0000000000, 0.0000000000, -0.0000000000, 0.0909423828, -0.1335449219, -0.0000000000, -0.0000000000, 0.0000000000, 0.0867309570, -0.0000000000, -0.0000000000, -0.0000000000, 0.0986938477, 0.0000000000, -0.0000000000, -0.0819702148, -0.0000000000, -0.0000000000, -0.0991210938, -0.0000000000, 0.1097412109, 0.0000000000, -0.0000000000, -0.0891723633, -0.0000000000, 0.0000000000, -0.0000000000, -0.0000000000, 0.0000000000, -0.0000000000, -0.0000000000, -0.1167602539, 0.0000000000, 0.0000000000, -0.1473388672, -0.1145629883, -0.0000000000, -0.0000000000, -0.0000000000, -0.0000000000, 0.0999755859, -0.0000000000, -0.0000000000, -0.0000000000, -0.1596679688, -0.0000000000, -0.0000000000, -0.0000000000, 0.0000000000, 0.0000000000, -0.0000000000, 0.0000000000, -0.0000000000, -0.0000000000, 0.1280517578, -0.0947265625, 0.0000000000, 0.0000000000, 0.0000000000, -0.0000000000, 0.1073608398, -0.1036987305, -0.0000000000, 0.0000000000, -0.0776977539, 0.0000000000, -0.1248168945, -0.0000000000, -0.0000000000, 0.0916748047, -0.0000000000, 0.0000000000, -0.0000000000, -0.0000000000, -0.0000000000, -0.0000000000, 0.0000000000, -0.0000000000, 0.1235351562, 0.1016845703, -0.0000000000, -0.0000000000, -0.1083374023, 0.0000000000, 0.0864257812, -0.0000000000, -0.0000000000, -0.0942993164, -0.0000000000, -0.0000000000, -0.1494140625, 0.0813598633, 0.0000000000, -0.0000000000, 0.0000000000, -0.0000000000, -0.0000000000, 0.0000000000, -0.0000000000, -0.0000000000, 0.0967407227, 0.0000000000, -0.0000000000, -0.1153564453, -0.1160278320, -0.0000000000, 0.1549072266, -0.0000000000, -0.0914306641, -0.0000000000, -0.0000000000, 0.0000000000, 0.0000000000, 0.0000000000, -0.0000000000, 0.0000000000, 0.0000000000, -0.0913085938, -0.0000000000, 0.0000000000, -0.0000000000, 0.0944824219, -0.0000000000, -0.0000000000, 0.0000000000, -0.0000000000, -0.0000000000, 0.0000000000, 0.0000000000, -0.0000000000, 0.0915527344, -0.0000000000, 0.0000000000, 0.0000000000, -0.0000000000, 0.0000000000, -0.0000000000, 0.0000000000, -0.0000000000, -0.0000000000, 0.1058959961, -0.0000000000, -0.0000000000, -0.1138305664, -0.1043701172, 0.0997314453, 0.0870971680, -0.0000000000, 0.0000000000, 0.0000000000, -0.0000000000, -0.1242675781, 0.1015014648, 0.0000000000, -0.1290283203, -0.1074218750, 0.1455078125, -0.0000000000, 0.2207031250, 0.0000000000, 0.0000000000, 0.0000000000, 0.0000000000, -0.0000000000, 0.0000000000, 0.0000000000, -0.0000000000, -0.0000000000, -0.1125488281, -0.0000000000, -0.0000000000, -0.0000000000, 0.1450195312, -0.0808105469, 0.2078857422, 0.0909423828, 0.0000000000, -0.0000000000, -0.1196899414, -0.0000000000, -0.0000000000, 0.0894165039, -0.0000000000, 0.0842895508, -0.0961914062, -0.1276855469, -0.0000000000, -0.0000000000, 0.0829467773, -0.0000000000, -0.0000000000, -0.1193237305, 0.0000000000, 0.0000000000, 0.0000000000, -0.1103515625, -0.0000000000, -0.0000000000, 0.0000000000, -0.0000000000, -0.0000000000, 0.0000000000, -0.0000000000, -0.1290283203, -0.0979003906, -0.0000000000, -0.0000000000, -0.1201171875, 0.1222534180, 0.0000000000, -0.0000000000, -0.0000000000, 0.0000000000, -0.0841674805, -0.0000000000, -0.0000000000, -0.1097412109, 0.0000000000, 0.1118774414, -0.1044311523, 0.0000000000, -0.0000000000, -0.0000000000, 0.0000000000, -0.0000000000, 0.1673583984, -0.0000000000, -0.0000000000, -0.0000000000, -0.0873413086, -0.0874023438, 0.0000000000, -0.0000000000, 0.0000000000, 0.1677246094, -0.0000000000, -0.0000000000, -0.0917358398, -0.0000000000, -0.0000000000, -0.0000000000, 0.0000000000, -0.0000000000, 0.0000000000, 0.0000000000, -0.0000000000, 0.0000000000, -0.0838623047, -0.0000000000, -0.0000000000, -0.0000000000, -0.0000000000, -0.0000000000, -0.0000000000, 0.1032104492, -0.0000000000, -0.0000000000, 0.1103515625, -0.0000000000, -0.0862426758, 0.0000000000, 0.0894775391, -0.0000000000, -0.0000000000, -0.0000000000, -0.0000000000, 0.0000000000, -0.0000000000, 0.2065429688, -0.0000000000, 0.2354736328, -0.1162719727, 0.0000000000, -0.0000000000, -0.0000000000, 0.0965576172, 0.0890502930, -0.0000000000, -0.0000000000, 0.0000000000, -0.0000000000, 0.0000000000, 0.0000000000, -0.0000000000, 0.0000000000, -0.0000000000, -0.0000000000, -0.0000000000, 0.0000000000, 0.0000000000, -0.1240234375, 0.0000000000, 0.0000000000, 0.0829467773, -0.0000000000, 0.0000000000, -0.0000000000, 0.0000000000, 0.0000000000, -0.0000000000, -0.0000000000, -0.1228027344, -0.0000000000, 0.0000000000, 0.1038818359, 0.0835571289, -0.0000000000, -0.0926513672, -0.1369628906, 0.0000000000, -0.0000000000, 0.0000000000, -0.0000000000, 0.0000000000, -0.1080322266, -0.0000000000, 0.0000000000, -0.0000000000, 0.1571044922, -0.1000366211, 0.0000000000, 0.0000000000, 0.0000000000, -0.0000000000, 0.0000000000, -0.0000000000, -0.0000000000, -0.0000000000, -0.0000000000, -0.0000000000, -0.0808715820, -0.0000000000, -0.0000000000, -0.0000000000, -0.0000000000, 0.0983886719, 0.1179809570, -0.1765136719, -0.1097412109, -0.1186523438, 0.0000000000, -0.1061401367, -0.1303710938, -0.0000000000, -0.1018676758, -0.0000000000, -0.0828857422, -0.0000000000, 0.0908813477, -0.0000000000, -0.0000000000, -0.0954589844, 0.0000000000, -0.1135253906, -0.1340332031, 0.0989379883, -0.1051635742, 0.0000000000, -0.0000000000, 0.0000000000, -0.0000000000, 0.0000000000, 0.0000000000, -0.0000000000, 0.0000000000, -0.0000000000, -0.0000000000, -0.0000000000, -0.1309814453, 0.0000000000, 0.0000000000, -0.1254882812, -0.0983276367, -0.0923461914, -0.0000000000, 0.0000000000, -0.0000000000, -0.0000000000, 0.0000000000, -0.1140136719, 0.2247314453, -0.0000000000, 0.1119384766, -0.0000000000, 0.0000000000, -0.0000000000, 0.0000000000, -0.0000000000, 0.0000000000, 0.0000000000, -0.0000000000, -0.0000000000, -0.0000000000, -0.0000000000, 0.0000000000, -0.0000000000, -0.0000000000, -0.0000000000, -0.0000000000, -0.1166381836, 0.0000000000, 0.0000000000, 0.0910644531, -0.1170043945, 0.0000000000, 0.0906982422, 0.0000000000, -0.0000000000, -0.0000000000, 0.0000000000, 0.2280273438, -0.0000000000, -0.0000000000, 0.0919799805, -0.0000000000, -0.0000000000, -0.0000000000, 0.0000000000, -0.0000000000, -0.1032104492, 0.0000000000, 0.0000000000, -0.0000000000, 0.1120605469, -0.0915527344, -0.0000000000, -0.0000000000, -0.0000000000, -0.0000000000, -0.0000000000, -0.0000000000, -0.0000000000, 0.0000000000, 0.0000000000, -0.0875854492, -0.0000000000, 0.1086425781, 0.0000000000, -0.0000000000, -0.0000000000, -0.0920410156, 0.1002197266, -0.1319580078, -0.0000000000, 0.0000000000, -0.0888671875, 0.1016845703, -0.0000000000, 0.0000000000, 0.0000000000, 0.0000000000, -0.0000000000, -0.0000000000, 0.0931396484, -0.0000000000, -0.1154785156, -0.0000000000, -0.0000000000, 0.0000000000, -0.0000000000, -0.0000000000, -0.1301269531, -0.1298828125, 0.0000000000, -0.1168823242, 0.0000000000, -0.0837402344, 0.0000000000, 0.0000000000, 0.0877685547, -0.0000000000, -0.0831298828, 0.0950927734, -0.0000000000, -0.0000000000, -0.0935058594, 0.0000000000, -0.0000000000, -0.0000000000, 0.0000000000, -0.1005249023, 0.0000000000, -0.0000000000, 0.0858764648, -0.0000000000, -0.0000000000, -0.0000000000, -0.0000000000, -0.0000000000, -0.1065673828, 0.1445312500, -0.0000000000, 0.0000000000, -0.0000000000, -0.0000000000, 0.0000000000, 0.0000000000, -0.0805664062, 0.0952148438, -0.0924682617, 0.0000000000, -0.0000000000, 0.0000000000, 0.0000000000, -0.0000000000, -0.0000000000, 0.0000000000, -0.0000000000, 0.2543945312, -0.1312255859, -0.0000000000, 0.0000000000, 0.0000000000, -0.0000000000, 0.0000000000, -0.1064453125, 0.0000000000, -0.1081542969, -0.0000000000, -0.0000000000, -0.0000000000, 0.0000000000, -0.2342529297, -0.0000000000, 0.1116943359, -0.0000000000, -0.0000000000, -0.0000000000, 0.0000000000, 0.0000000000, 0.1105957031, -0.0000000000, 0.1043090820, -0.1155395508, -0.0000000000, 0.1124877930, -0.0000000000, 0.0000000000, -0.0000000000, -0.0000000000, -0.1056518555, -0.1153564453, 0.0000000000, 0.0000000000, 0.0000000000, 0.0000000000, 0.0000000000, -0.0977783203, -0.0000000000, -0.1030883789, -0.0000000000, 0.0000000000, -0.0000000000, 0.1163330078, -0.0000000000, 0.0000000000, -0.0000000000, -0.0000000000, -0.0000000000, -0.0000000000, 0.0000000000, 0.0000000000, -0.0000000000, -0.0000000000, -0.0000000000, -0.0000000000, 0.1135253906, 0.0000000000, -0.1429443359, -0.0000000000, -0.0000000000, -0.1109008789, -0.0000000000, -0.0000000000, -0.0000000000, -0.0000000000, 0.0000000000, 0.0000000000, -0.0922241211, -0.0000000000, -0.0954589844, -0.1211547852, 0.0000000000, -0.0000000000, -0.0000000000, 0.0000000000, -0.0000000000, -0.1463623047, 0.0000000000, -0.0000000000, -0.0000000000, -0.0000000000, 0.0000000000, 0.0000000000, 0.0000000000, 0.0913085938, 0.0000000000, -0.0987548828, -0.0000000000, -0.1256103516, -0.0000000000, -0.0000000000, -0.0000000000, -0.1441650391, -0.0000000000, -0.1251220703, -0.0000000000, -0.0000000000, 0.0000000000, 0.1556396484, 0.0000000000, -0.0000000000, 0.0000000000, -0.0000000000, -0.0000000000, 0.0000000000, -0.0000000000, 0.0000000000, 0.2012939453, -0.0000000000, 0.1270751953, -0.0000000000, -0.0000000000, -0.0000000000, 0.0000000000, 0.0000000000, -0.0000000000, -0.0880126953, -0.0000000000, 0.0000000000, -0.0000000000, 0.0000000000, -0.0000000000, 0.0000000000, -0.1296386719, 0.0813598633, -0.0000000000, 0.0000000000, 0.2385253906, -0.0000000000, 0.1109619141, -0.1026611328, 0.0819091797, -0.0000000000, 0.0884399414, -0.0960693359, -0.0000000000, 0.0000000000, -0.1071166992, -0.0000000000, -0.0000000000, -0.0000000000, 0.2332763672, -0.0000000000, 0.0000000000, -0.0000000000, -0.0989990234, -0.0000000000, -0.0000000000, 0.0000000000, -0.1135253906, -0.0000000000, -0.0000000000, -0.0000000000, 0.0856933594, 0.0000000000, 0.0000000000, -0.0000000000, 0.0000000000, -0.0000000000, 0.0963134766, -0.0000000000, 0.0000000000, 0.0000000000, 0.0000000000, 0.0000000000, 0.0000000000, -0.1160278320, -0.0000000000, -0.1157836914, -0.0000000000, 0.0000000000, 0.0000000000, -0.0000000000, -0.1727294922, -0.0000000000, -0.0000000000, 0.0906372070, 0.1389160156, 0.0000000000, -0.0000000000, -0.0000000000, -0.1107177734, -0.0942382812, -0.0000000000, -0.0000000000, -0.0000000000, -0.1112670898, -0.0000000000, -0.0984497070, 0.0000000000, -0.0000000000, -0.1053466797, 0.0000000000, 0.0000000000, 0.0954589844, -0.0950927734, -0.1235351562, 0.1015014648, 0.0911254883, -0.1821289062, 0.0000000000, -0.1096191406, -0.0000000000, -0.0968627930, -0.1389160156, -0.0000000000, -0.0000000000, 0.1221313477, 0.0000000000, 0.0000000000, 0.0000000000, 0.0000000000, 0.0873413086, -0.1291503906, -0.1013793945, -0.0000000000, -0.1035766602, -0.0000000000, -0.0000000000, 0.4230957031, -0.0000000000, 0.0000000000, -0.0000000000, -0.0000000000, -0.0000000000, -0.0519409180, 0.0000000000, -0.0000000000, -0.0842895508, 0.0000000000, 0.0000000000, -0.0000000000, 0.0991821289, 0.0817871094, -0.0000000000, 0.1222534180, 0.0808105469, -0.1093139648, -0.0000000000, -0.0000000000, -0.0000000000, 0.0000000000, 0.1484375000, 0.0000000000, -0.0000000000, -0.0000000000, -0.1213989258, -0.0000000000, -0.0856323242, -0.0000000000, -0.1452636719, -0.1446533203, -0.0000000000, 0.0000000000, -0.0000000000, 0.1260986328, -0.1082763672, 0.0000000000, 0.0937500000, 0.0000000000, 0.0000000000, 0.0000000000, -0.0000000000, -0.0000000000, -0.1153564453, -0.0000000000, -0.0000000000, 0.1114501953, -0.0000000000, -0.0000000000, 0.0000000000, -0.0000000000, -0.0000000000, -0.0983886719, 0.0000000000, -0.0914306641, -0.0000000000, 0.0000000000, 0.0000000000, -0.0000000000, -0.0000000000, -0.0000000000, -0.0000000000, 0.2238769531, -0.1306152344, -0.0000000000, -0.0000000000, -0.0000000000, -0.1383056641, 0.0000000000, 0.0000000000, -0.0000000000, -0.0929565430, -0.0964965820, -0.0000000000, -0.0000000000, -0.0000000000, -0.0000000000, 0.0000000000, 0.2985839844, -0.0000000000, -0.0798950195, -0.0000000000, -0.0000000000, -0.0000000000, 0.1420898438, 0.0000000000, -0.0000000000, -0.0000000000, -0.1187133789, 0.0846557617, -0.0000000000, 0.0000000000, 0.0932006836, -0.1208496094, -0.2135009766, -0.0000000000, 0.0000000000, -0.1215820312, -0.0000000000, 0.0000000000, 0.0000000000, 0.0000000000, -0.0832519531, -0.0000000000, 0.0000000000, -0.1245727539, -0.0000000000, 0.1135864258, -0.0000000000, -0.0000000000, 0.0000000000, -0.0957031250, -0.0000000000, -0.0000000000, -0.0000000000, 0.0000000000, 0.0000000000, 0.0000000000, 0.0000000000, -0.0000000000, -0.0000000000, -0.1263427734, -0.0000000000, -0.1186523438, 0.0848999023, 0.1089477539, 0.1228637695, -0.0000000000, -0.0000000000, -0.0000000000, -0.0000000000, 0.0000000000, -0.0721435547, 0.0000000000, -0.0000000000, -0.0000000000, -0.0000000000, 0.0000000000, -0.1611328125, 0.0000000000, -0.0000000000, -0.0000000000, -0.0000000000, -0.0000000000, -0.1183471680, -0.0000000000, -0.0000000000, 0.0000000000, 0.0000000000, -0.1475830078, 0.0000000000, -0.0000000000, 0.0000000000, 0.0000000000, 0.1218872070, -0.0000000000, -0.0000000000, -0.0000000000, -0.0000000000, -0.0000000000, 0.0000000000, -0.0000000000, -0.0000000000, 0.0000000000, 0.0000000000, 0.0000000000, -0.0000000000, 0.0000000000, -0.1123657227, -0.0000000000, -0.0000000000, 0.0000000000, -0.0000000000, -0.1577148438, -0.0000000000, -0.0000000000, -0.0000000000, 0.0000000000, -0.0000000000, -0.0000000000, -0.0000000000, 0.1469726562, -0.0000000000, 0.0000000000, -0.0000000000, -0.1296386719, -0.0000000000, -0.0868530273, -0.0000000000, 0.0000000000, -0.0000000000, -0.0000000000, -0.0000000000, -0.0000000000, -0.0000000000, -0.1144409180, 0.0000000000, 0.0000000000, 0.0000000000, 0.0000000000, -0.0000000000, 0.0895385742, -0.0000000000, 0.0000000000, -0.0000000000, -0.0000000000, -0.0000000000, -0.0000000000, 0.0000000000, -0.0000000000, -0.0000000000, -0.0000000000, 0.0000000000, 0.0000000000, 0.0000000000, -0.0000000000, 0.0898437500, -0.0000000000, -0.0000000000, -0.0000000000, -0.1240844727, -0.1259765625, 0.0000000000, -0.0000000000, -0.0000000000, -0.0000000000, -0.0000000000, -0.0000000000, 0.0000000000, -0.0928955078, -0.0000000000, -0.1179199219, 0.1020507812, -0.0000000000, 0.0000000000, -0.0866699219, -0.0000000000, 0.0000000000, -0.0000000000, 0.0000000000, -0.0804443359, 0.0000000000, -0.0000000000, -0.1171875000, 0.0000000000, 0.0000000000, 0.0000000000, -0.1088256836, -0.1090698242, -0.0000000000, -0.0000000000, -0.0000000000, -0.0000000000, -0.0000000000, 0.0000000000, -0.1183471680, -0.0000000000, -0.0000000000, -0.0000000000, 0.0000000000, 0.0000000000, 0.1785888672, 0.0898437500, -0.0000000000, -0.0000000000, -0.0000000000, -0.0000000000, -0.0000000000, -0.0872802734, 0.0000000000, 0.0000000000, -0.0000000000, -0.0000000000, -0.0000000000, -0.1293945312, -0.0000000000, 0.0000000000, 0.0000000000, 0.0000000000, 0.0000000000, -0.0000000000, 0.0000000000, 0.0000000000, 0.0896606445, -0.1156616211, -0.0000000000, -0.2379150391, -0.0000000000, -0.0000000000, 0.1000366211, 0.1243286133, 0.0000000000, -0.0000000000, -0.1135253906, -0.0000000000, -0.0863647461, -0.0000000000, -0.1127929688, -0.0000000000, -0.0000000000, -0.1267089844, -0.0000000000, -0.2147216797, -0.0000000000, 0.2198486328, -0.0000000000, 0.1992187500, 0.0000000000, 0.0000000000, -0.0000000000, 0.0000000000, -0.1181030273, -0.0000000000, -0.1093139648, -0.0968017578, -0.0000000000, -0.1250000000, -0.1222534180, 0.0000000000, -0.1223144531, -0.0000000000, -0.0000000000, -0.0000000000, -0.0000000000, 0.0000000000, 0.0000000000, 0.0000000000, -0.1302490234, 0.0980834961, 0.0000000000, -0.0000000000, -0.0000000000, -0.0000000000, 0.0000000000, 0.0000000000, 0.0845947266, 0.0000000000, -0.0000000000, -0.1186523438, 0.0000000000, 0.0000000000, -0.0000000000, -0.0000000000, -0.0900878906, -0.0000000000, 0.0000000000, -0.0000000000, 0.0000000000, 0.0000000000, -0.0000000000, 0.0000000000, -0.0974121094, -0.1145629883, -0.1330566406, -0.1423339844, 0.0835571289, 0.0000000000, 0.0000000000, -0.0000000000, 0.0000000000, 0.0000000000, -0.1446533203, -0.0000000000, -0.0000000000, -0.0000000000, -0.0000000000, -0.0912475586, -0.0000000000, -0.0000000000, -0.0000000000, 0.1641845703, -0.0000000000, 0.1138305664, 0.0000000000, -0.0000000000, 0.0000000000, -0.0000000000, -0.1141967773, -0.0000000000, 0.0000000000, -0.0000000000, 0.1159667969, 0.1555175781, -0.0000000000, -0.0000000000, -0.0000000000, -0.0888061523, 0.0000000000, 0.0000000000, 0.0000000000, -0.0000000000, -0.0000000000, -0.0000000000, -0.0000000000, 0.1456298828, 0.0905761719, -0.0000000000, -0.0000000000, 0.0000000000, -0.0000000000, 0.0000000000, 0.0927124023, -0.0000000000, 0.0000000000, 0.0000000000, 0.0000000000, 0.0000000000, -0.0000000000, 0.0000000000, 0.0000000000, 0.0781250000, -0.0000000000, -0.0000000000, -0.1273193359, -0.1555175781, -0.0000000000, 0.0000000000, -0.0000000000, -0.0000000000, -0.1314697266, 0.0000000000, 0.1172485352, -0.0000000000, 0.1037597656, 0.0000000000, -0.0000000000, 0.1945800781, -0.0000000000, 0.0966796875, -0.0000000000, -0.0000000000, -0.0000000000, 0.0000000000, -0.0847167969, -0.0000000000, 0.0000000000, 0.0000000000, 0.0000000000, -0.1164550781, -0.0000000000, 0.0000000000, 0.0000000000, 0.0000000000, -0.1196899414, -0.0000000000, 0.0000000000, 0.1561279297, -0.0000000000, -0.1186523438, -0.1083984375, -0.0000000000, 0.0000000000, -0.1252441406, 0.0000000000, -0.0000000000, 0.0921020508, -0.0886840820, -0.0000000000, -0.0000000000, -0.0000000000, -0.0000000000, 0.0000000000, 0.2419433594, -0.1275634766, 0.0000000000, -0.0000000000, -0.0000000000, -0.0000000000, 0.0000000000, 0.0000000000, 0.0000000000, -0.1158447266, -0.0941772461, -0.1224365234, -0.0000000000, -0.0000000000, -0.0000000000, 0.0000000000, -0.0000000000, -0.0000000000, 0.0000000000, 0.0847167969, -0.0000000000, 0.0000000000, 0.0000000000, 0.0958251953, -0.0000000000, 0.0000000000, 0.0000000000, 0.0000000000, -0.0000000000, -0.0000000000, -0.1363525391, -0.1023559570, 0.0000000000, -0.0000000000, -0.1258544922, -0.0933227539, -0.0000000000, -0.0000000000, 0.0000000000, 0.0000000000, 0.0812377930, -0.0000000000, 0.0000000000, -0.0901489258, -0.0000000000, 0.0885620117, -0.1331787109, -0.0000000000, -0.0000000000, -0.0000000000, 0.0000000000, -0.0000000000, -0.0000000000, 0.0000000000, 0.0000000000, 0.0000000000, -0.0000000000, -0.0000000000, -0.0861206055, -0.0000000000, -0.0000000000, -0.0000000000, -0.1298828125, 0.0946044922, -0.0000000000, -0.0000000000, -0.0000000000, -0.1189575195, 0.1638183594, 0.1034545898, 0.1834716797, -0.0000000000, 0.0000000000, 0.0000000000, 0.0000000000, 0.0000000000, -0.0000000000, -0.1190795898, -0.0000000000, -0.0000000000, -0.0000000000, -0.0000000000, 0.0000000000, -0.0000000000, -0.0000000000, -0.1237182617, 0.0000000000, -0.0000000000, 0.0000000000, 0.0000000000, -0.0917968750, -0.0906982422, -0.0000000000, -0.0000000000, -0.0000000000, 0.0000000000, -0.0000000000, -0.0000000000, -0.0000000000, 0.0000000000, -0.0000000000, 0.0939331055, -0.1605224609, 0.0000000000, 0.0000000000, -0.0000000000, 0.0000000000, 0.0000000000, -0.1791992188, 0.0000000000, -0.1004028320, -0.1173706055, -0.0819702148, -0.0000000000, -0.0000000000, -0.0000000000, -0.0000000000, 0.0000000000, 0.0000000000, 0.0000000000, -0.0000000000, -0.1026000977, 0.0000000000, -0.0000000000, -0.0000000000, -0.0000000000, -0.0000000000, 0.0000000000, 0.0000000000, 0.0925903320, -0.0000000000, -0.0000000000, 0.0883789062, -0.0000000000, 0.0000000000, 0.0000000000, 0.0000000000, 0.0000000000, -0.0000000000, 0.0000000000, -0.0000000000, 0.0000000000, -0.0000000000, -0.0000000000, -0.0000000000, -0.0886840820, 0.0000000000, -0.1118774414, -0.0000000000, -0.1067504883, 0.0000000000, -0.1484375000, 0.0000000000, 0.0000000000, 0.0000000000, -0.0000000000, 0.0000000000, 0.0000000000, -0.0000000000, 0.0000000000, -0.0000000000, -0.0000000000, -0.1235961914, -0.1336669922, -0.0000000000, -0.1033325195, 0.0000000000, 0.0000000000, -0.0000000000, 0.0000000000, 0.0000000000, -0.1152343750, -0.0000000000, 0.0000000000, -0.0000000000, -0.0000000000, -0.1019897461, -0.0000000000, 0.0000000000, -0.1082153320, -0.0000000000, -0.0843505859, 0.0000000000, 0.1289062500, 0.0000000000, -0.1003417969, -0.1312255859, 0.0836791992, -0.0000000000, -0.0000000000, -0.0000000000, 0.0000000000, 0.0000000000, -0.0000000000, 0.0000000000, -0.0000000000, 0.0761108398, 0.0873413086, 0.0000000000, 0.0000000000, 0.0000000000, -0.0000000000, 0.0000000000, -0.0891723633, -0.0000000000, 0.0892333984, -0.1147460938, -0.0000000000, -0.0000000000, -0.1490478516, -0.0000000000, -0.0000000000, 0.0000000000, -0.0000000000, 0.0000000000, -0.0858154297, -0.0922851562, -0.0957641602, -0.1055908203, 0.0979614258, -0.0000000000, -0.1139526367, -0.0000000000, -0.1151733398, -0.0000000000, -0.1126708984, 0.0000000000, -0.0000000000, 0.0000000000, -0.1132202148, 0.0000000000, -0.0000000000, -0.0000000000, 0.0000000000, -0.0000000000, 0.0000000000, -0.0000000000, -0.0820922852, -0.0000000000, 0.0000000000, 0.0000000000, 0.0914916992, 0.0000000000, -0.0000000000, 0.1577148438, -0.1054077148, 0.0000000000, 0.0000000000, 0.0000000000, -0.0831909180, -0.0000000000, 0.0821533203, -0.0000000000, 0.0000000000, -0.0000000000, -0.1132202148, 0.1798095703, -0.0000000000, -0.1319580078, -0.0000000000, -0.1198120117, -0.0000000000, 0.0000000000, -0.0000000000, -0.0000000000, -0.1167602539, 0.0000000000, -0.0000000000, -0.0000000000, 0.1065063477, 0.1141967773, 0.0000000000, -0.0000000000, -0.0000000000, 0.0000000000, -0.0000000000, 0.0000000000, 0.0000000000, 0.1212768555, 0.1289062500, 0.0000000000, -0.0000000000, -0.0978393555, 0.0860595703, -0.1242065430, -0.0000000000, -0.0000000000, -0.0000000000, -0.0000000000, -0.0950927734, 0.0000000000, -0.0000000000, -0.0000000000, 0.0000000000, 0.1722412109, 0.0000000000, -0.0000000000, 0.0000000000, -0.0000000000, 0.0000000000, -0.0000000000, -0.0000000000, -0.0000000000, -0.1212768555, 0.2226562500, -0.0000000000, -0.0000000000, -0.0000000000, 0.0000000000, -0.0000000000, 0.0000000000, 0.0000000000, -0.0000000000, -0.0000000000, -0.1311035156, 0.0000000000, -0.0000000000, -0.1113281250, -0.0000000000, -0.0000000000, 0.0000000000, -0.0000000000, 0.0000000000, -0.0000000000, -0.1220703125, 0.0000000000, 0.0000000000, 0.1265869141, 0.0000000000, 0.0000000000, 0.0000000000, -0.1311035156, 0.0767822266, -0.1031494141, -0.0000000000, 0.0000000000, -0.0000000000, -0.1067504883, 0.1562500000, -0.0000000000, -0.0000000000, 0.0974121094, 0.0000000000, 0.1359863281, -0.0000000000, -0.0000000000, 0.0000000000, 0.1071777344, -0.0000000000, -0.0000000000, -0.0000000000, 0.0890502930, 0.1893310547, -0.0000000000, 0.0000000000, -0.1356201172, -0.0000000000, 0.0000000000, -0.1035766602, 0.0000000000, -0.1076049805, 0.0899047852, -0.0000000000, 0.0000000000, 0.1209716797, 0.1068725586, -0.0000000000, 0.0913085938, 0.0000000000, -0.0000000000, 0.1500244141, -0.0000000000, 0.1212768555, -0.0000000000, 0.0000000000, 0.0000000000, 0.0000000000, 0.0000000000, -0.1411132812, -0.1279296875, -0.0000000000, 0.0000000000, -0.1473388672, -0.0000000000, -0.0000000000, -0.0000000000, -0.0000000000, -0.0000000000, -0.0000000000, -0.0000000000, 0.0000000000, 0.0000000000, -0.0000000000, -0.0000000000, -0.0836791992, 0.0993652344, -0.0000000000, -0.0000000000, -0.0000000000, -0.1538085938, -0.0000000000, -0.1447753906, 0.0000000000, -0.0000000000, -0.0000000000, 0.0886840820, 0.0000000000, 0.1331787109, 0.0954589844, 0.0000000000, -0.0822753906, -0.1014404297, 0.1651611328, -0.0000000000, -0.0000000000, -0.0970458984, 0.0000000000, -0.0000000000, 0.0000000000, -0.0000000000, -0.0000000000, -0.1044921875, 0.0000000000, 0.1805419922, -0.0987548828, 0.0000000000, -0.0000000000, -0.0000000000, -0.0000000000, -0.1027221680, 0.0000000000, 0.0958251953, 0.1204223633, -0.0000000000, 0.0000000000, -0.0975341797, -0.0000000000, 0.0000000000, 0.0000000000, 0.0000000000, -0.0839233398, -0.0000000000, -0.0000000000, -0.0000000000, -0.1837158203, 0.0000000000, -0.0000000000, -0.0000000000, -0.0000000000, -0.0000000000, -0.1018676758, -0.0946044922, -0.0000000000, 0.0000000000, 0.0000000000, -0.1413574219, -0.0000000000, -0.0000000000, 0.0000000000, -0.0000000000, 0.1130981445, -0.0847778320, -0.0000000000, 0.0000000000, -0.1716308594, -0.0000000000, 0.0000000000, -0.1082763672, -0.0000000000, -0.0000000000, 0.0000000000, 0.0000000000, 0.0000000000, -0.0000000000, 0.0891723633, 0.1090698242, -0.0000000000, -0.0885620117, -0.0000000000, 0.0000000000, 0.1590576172, -0.0000000000, 0.0000000000, -0.0000000000, -0.0000000000, 0.0912475586, 0.0000000000, 0.0000000000, -0.0992431641, -0.0000000000, 0.0000000000, -0.1361083984, -0.0000000000, 0.0870361328, -0.1066894531, 0.0000000000, 0.0000000000, -0.0877685547, -0.0773925781, -0.1210937500, -0.0000000000, 0.0000000000, 0.0000000000, -0.0000000000, -0.1292724609, -0.0000000000, -0.0877685547, -0.0000000000, -0.0000000000, 0.1018066406, -0.0000000000, -0.0000000000, -0.1363525391, -0.1115112305, 0.0000000000, -0.1221313477, -0.0000000000, -0.0000000000, 0.0000000000, 0.0000000000, 0.0000000000, -0.1259765625};
#endif

#endif
