//Numpy array shape [1, 1, 32, 64]
//Min -0.375976562500
//Max 0.395263671875
//Number of zeros 1432

#ifndef W33_H_
#define W33_H_

#ifndef __SYNTHESIS__
model_default_t w33[2048];
#else
model_default_t w33[2048] = {0.2971191406, -0.0000000000, -0.0000000000, -0.0000000000, -0.0000000000, -0.2880859375, 0.0000000000, 0.0000000000, -0.0000000000, -0.0000000000, -0.0000000000, 0.0000000000, -0.0000000000, 0.0000000000, 0.0000000000, 0.0000000000, 0.0000000000, -0.0000000000, -0.0000000000, -0.0000000000, 0.2832031250, -0.0000000000, -0.0000000000, -0.0000000000, -0.0000000000, 0.0000000000, 0.0000000000, 0.0000000000, 0.2297363281, -0.0000000000, 0.1962890625, -0.0000000000, 0.0000000000, 0.0000000000, -0.0000000000, -0.2673339844, -0.2617187500, 0.0000000000, 0.0000000000, -0.0000000000, 0.0000000000, -0.0000000000, 0.2247314453, 0.1649169922, 0.0000000000, -0.1812744141, 0.0000000000, -0.0000000000, 0.0000000000, 0.0000000000, -0.0000000000, -0.2687988281, 0.0000000000, -0.0000000000, 0.3654785156, 0.0000000000, 0.0000000000, -0.0000000000, -0.0000000000, 0.2700195312, -0.0000000000, -0.1791992188, -0.1942138672, 0.2546386719, -0.0000000000, -0.1770019531, -0.0000000000, -0.0000000000, -0.0000000000, 0.0000000000, -0.2343750000, -0.0000000000, 0.2152099609, 0.0000000000, -0.0000000000, -0.2534179688, 0.0000000000, 0.0000000000, 0.0000000000, 0.0000000000, 0.2276611328, -0.0000000000, -0.1864013672, 0.1590576172, 0.3391113281, -0.0000000000, -0.0000000000, -0.0000000000, 0.2045898438, -0.0000000000, 0.0000000000, -0.0000000000, 0.0000000000, -0.0000000000, 0.2330322266, 0.0000000000, 0.0000000000, 0.2258300781, 0.1882324219, -0.0000000000, -0.0000000000, -0.2442626953, -0.2496337891, 0.0000000000, -0.0000000000, -0.0000000000, -0.0000000000, -0.1800537109, -0.0000000000, 0.0000000000, 0.2296142578, 0.0000000000, 0.0000000000, -0.0000000000, 0.0000000000, 0.0000000000, 0.0000000000, 0.2568359375, -0.1890869141, -0.3437500000, 0.0000000000, -0.0000000000, 0.0000000000, -0.0000000000, -0.0000000000, 0.0000000000, 0.0000000000, -0.0000000000, -0.0000000000, -0.0000000000, 0.2481689453, 0.1739501953, 0.1811523438, -0.1950683594, -0.1784667969, -0.0000000000, 0.0000000000, -0.2556152344, 0.0000000000, -0.0000000000, -0.1923828125, 0.1966552734, 0.0000000000, 0.0000000000, -0.2233886719, 0.2025146484, -0.2619628906, 0.0000000000, -0.2810058594, -0.3759765625, -0.0000000000, -0.2336425781, -0.0000000000, 0.0000000000, 0.2873535156, 0.0000000000, -0.0000000000, 0.0000000000, -0.0000000000, 0.0000000000, 0.0000000000, -0.0000000000, -0.0000000000, 0.0000000000, 0.2410888672, 0.2316894531, -0.0000000000, 0.0000000000, -0.0000000000, 0.0000000000, 0.0000000000, -0.2285156250, -0.0000000000, -0.2042236328, -0.1942138672, 0.0000000000, -0.0000000000, -0.0000000000, -0.2247314453, 0.0000000000, -0.0000000000, 0.0000000000, -0.0000000000, -0.0000000000, -0.0000000000, -0.2196044922, 0.0000000000, 0.1815185547, 0.0000000000, -0.0000000000, -0.2237548828, 0.0000000000, -0.1807861328, 0.2268066406, -0.2156982422, -0.0000000000, -0.0000000000, -0.2482910156, 0.0000000000, 0.1763916016, -0.0000000000, -0.0000000000, -0.2081298828, -0.0000000000, 0.2543945312, 0.0000000000, 0.0000000000, 0.3105468750, 0.0000000000, -0.0000000000, -0.0000000000, -0.0000000000, -0.0000000000, -0.0000000000, -0.2332763672, -0.0000000000, -0.0000000000, 0.0000000000, 0.2021484375, 0.0000000000, -0.2083740234, 0.0000000000, 0.2452392578, -0.2080078125, 0.0000000000, -0.0000000000, 0.2095947266, 0.2456054688, -0.0000000000, 0.2377929688, -0.0000000000, -0.0000000000, 0.2249755859, 0.0000000000, 0.0000000000, 0.0000000000, 0.2460937500, -0.1763916016, 0.0000000000, 0.0000000000, -0.0000000000, -0.0000000000, 0.0000000000, 0.0000000000, -0.0000000000, -0.2846679688, -0.0000000000, -0.0000000000, -0.0000000000, -0.2834472656, -0.2165527344, 0.0000000000, -0.2822265625, -0.1838378906, -0.2042236328, 0.0000000000, 0.0000000000, -0.2644042969, 0.0000000000, 0.0000000000, -0.1752929688, 0.0000000000, -0.0000000000, -0.0000000000, 0.2839355469, 0.0000000000, -0.0000000000, -0.2045898438, 0.0000000000, -0.0000000000, 0.2351074219, 0.0000000000, -0.0000000000, 0.2478027344, 0.0000000000, -0.2032470703, 0.2712402344, -0.0000000000, 0.0000000000, 0.0000000000, 0.0000000000, 0.0000000000, 0.0000000000, 0.0000000000, -0.0000000000, -0.0000000000, -0.2163085938, 0.0000000000, 0.0000000000, -0.1875000000, 0.0000000000, -0.0000000000, -0.2078857422, 0.0000000000, 0.0000000000, 0.0000000000, -0.0000000000, 0.0000000000, -0.0000000000, 0.0000000000, 0.0000000000, 0.0000000000, -0.0000000000, 0.0000000000, 0.0000000000, -0.0000000000, -0.0000000000, -0.2668457031, 0.2205810547, 0.0000000000, -0.0000000000, -0.0000000000, 0.0000000000, 0.1857910156, 0.0000000000, -0.0000000000, 0.0000000000, 0.0000000000, 0.0000000000, 0.0000000000, 0.0000000000, 0.0000000000, -0.2509765625, -0.2766113281, -0.0000000000, 0.0000000000, -0.0000000000, 0.1707763672, -0.0000000000, -0.0000000000, -0.0000000000, 0.0000000000, 0.0000000000, 0.0000000000, 0.3369140625, 0.0000000000, 0.0000000000, 0.0000000000, 0.0000000000, 0.1739501953, 0.0000000000, 0.0000000000, 0.2094726562, -0.0000000000, -0.0000000000, -0.0000000000, 0.0000000000, 0.2834472656, 0.0000000000, 0.0000000000, -0.2526855469, -0.2785644531, -0.0000000000, -0.0000000000, -0.0000000000, 0.0000000000, -0.3740234375, -0.2462158203, 0.2102050781, 0.2481689453, 0.0000000000, 0.0000000000, -0.0000000000, -0.0000000000, 0.2136230469, -0.0000000000, -0.0000000000, -0.0000000000, -0.3273925781, -0.0000000000, 0.0000000000, -0.0000000000, -0.0000000000, 0.0000000000, -0.0000000000, 0.0000000000, 0.2299804688, 0.0000000000, 0.0000000000, -0.0000000000, -0.0000000000, -0.0000000000, 0.0000000000, 0.3447265625, -0.0000000000, 0.0000000000, -0.1666259766, 0.3666992188, -0.1864013672, 0.0000000000, -0.0000000000, 0.2460937500, 0.1933593750, 0.0000000000, 0.2895507812, 0.0000000000, 0.0000000000, 0.0000000000, 0.0000000000, 0.2597656250, -0.0000000000, -0.0000000000, -0.0000000000, -0.0000000000, 0.0000000000, -0.0000000000, 0.1978759766, 0.2199707031, 0.0000000000, -0.0000000000, 0.0000000000, 0.0000000000, 0.0000000000, -0.0000000000, -0.0000000000, 0.0000000000, -0.2426757812, -0.0000000000, -0.0000000000, 0.0000000000, -0.0000000000, -0.0000000000, 0.0000000000, 0.0000000000, 0.0000000000, 0.0000000000, -0.0000000000, 0.0000000000, 0.0000000000, -0.2961425781, -0.0000000000, 0.0000000000, 0.1981201172, -0.0000000000, 0.0000000000, 0.0000000000, 0.2065429688, 0.0000000000, -0.0000000000, -0.2366943359, 0.2136230469, 0.0000000000, -0.0000000000, -0.0000000000, 0.2778320312, 0.0000000000, 0.0000000000, 0.0000000000, 0.0000000000, -0.1826171875, 0.0000000000, -0.0000000000, 0.2543945312, -0.0000000000, -0.0000000000, 0.3049316406, 0.0000000000, -0.2144775391, -0.0000000000, 0.0000000000, -0.0000000000, 0.1970214844, 0.2084960938, -0.0000000000, 0.0000000000, -0.0000000000, 0.0000000000, 0.0000000000, -0.0000000000, -0.2108154297, 0.2169189453, -0.0000000000, -0.0000000000, 0.0000000000, 0.0000000000, -0.0000000000, -0.1669921875, 0.0000000000, -0.0000000000, -0.0000000000, 0.0000000000, 0.0000000000, 0.0000000000, 0.2398681641, -0.0000000000, 0.0000000000, 0.2556152344, -0.2888183594, 0.0000000000, -0.0000000000, -0.0000000000, 0.3786621094, -0.0000000000, 0.3527832031, -0.0000000000, -0.0000000000, 0.0000000000, 0.0000000000, -0.0000000000, -0.0000000000, -0.2369384766, 0.1870117188, 0.0000000000, -0.0000000000, -0.0000000000, -0.0000000000, 0.1671142578, -0.1799316406, -0.0000000000, 0.0000000000, -0.0000000000, 0.0000000000, -0.2404785156, 0.2570800781, 0.0000000000, -0.0000000000, -0.1915283203, 0.0000000000, -0.1734619141, 0.0000000000, -0.0000000000, -0.0000000000, -0.0000000000, -0.0000000000, -0.0000000000, -0.0000000000, 0.0000000000, 0.2519531250, 0.0000000000, -0.0000000000, 0.0000000000, -0.3020019531, 0.0000000000, -0.0000000000, 0.1812744141, -0.0000000000, -0.0000000000, -0.2658691406, 0.0000000000, -0.0000000000, 0.0000000000, -0.0000000000, 0.2423095703, -0.0000000000, -0.0000000000, -0.2294921875, 0.3369140625, -0.0000000000, 0.0000000000, -0.3159179688, 0.0000000000, 0.2072753906, 0.0000000000, -0.0000000000, -0.0000000000, -0.0000000000, -0.0000000000, -0.2617187500, 0.0000000000, -0.0000000000, 0.2149658203, -0.0000000000, -0.1701660156, 0.0000000000, -0.1964111328, -0.0000000000, 0.0000000000, 0.0000000000, -0.0000000000, -0.0000000000, 0.0000000000, -0.0000000000, -0.0000000000, 0.0000000000, -0.0000000000, -0.0000000000, -0.0000000000, -0.2429199219, 0.0000000000, -0.0000000000, -0.0000000000, -0.0000000000, -0.0000000000, 0.0000000000, -0.0000000000, 0.0000000000, 0.0000000000, -0.0000000000, 0.0000000000, 0.1752929688, -0.0000000000, 0.0000000000, -0.2103271484, -0.0000000000, 0.0000000000, -0.0000000000, 0.0000000000, 0.0000000000, -0.0000000000, -0.2220458984, 0.0000000000, -0.0000000000, 0.0000000000, -0.0000000000, 0.2145996094, 0.0000000000, -0.2374267578, 0.1655273438, 0.2036132812, -0.2008056641, -0.0000000000, -0.2174072266, 0.0000000000, 0.1905517578, 0.0000000000, 0.1826171875, -0.0000000000, 0.0000000000, 0.0000000000, 0.2109375000, 0.2010498047, -0.0000000000, -0.0000000000, 0.2242431641, -0.2663574219, 0.0000000000, 0.0000000000, -0.2775878906, -0.2531738281, 0.0000000000, -0.1951904297, -0.2690429688, -0.0000000000, 0.0000000000, 0.0000000000, -0.0000000000, -0.0000000000, 0.0000000000, 0.2188720703, -0.0000000000, 0.2353515625, 0.0000000000, 0.2065429688, -0.1865234375, 0.0000000000, -0.0000000000, 0.0000000000, 0.0000000000, 0.2122802734, 0.2298583984, -0.0000000000, 0.0000000000, -0.3376464844, -0.0000000000, -0.1765136719, -0.0000000000, 0.0000000000, 0.0000000000, -0.0000000000, -0.0000000000, -0.2335205078, -0.0000000000, -0.0000000000, -0.2340087891, -0.3156738281, 0.0000000000, 0.0000000000, 0.0000000000, 0.1940917969, 0.0000000000, -0.2178955078, -0.0000000000, 0.0000000000, -0.2773437500, 0.0000000000, -0.2700195312, -0.0000000000, -0.0000000000, 0.0000000000, -0.0000000000, -0.0000000000, 0.1865234375, -0.0000000000, 0.2189941406, 0.0000000000, 0.1739501953, -0.0000000000, -0.0000000000, -0.2980957031, -0.1857910156, 0.3046875000, 0.2165527344, -0.0000000000, -0.2498779297, -0.0000000000, -0.0000000000, -0.2890625000, -0.0000000000, 0.1827392578, -0.0000000000, 0.2673339844, -0.0000000000, -0.0000000000, 0.1843261719, -0.0000000000, 0.0000000000, 0.0000000000, 0.0000000000, -0.0000000000, 0.0000000000, -0.0000000000, 0.0000000000, -0.2534179688, 0.0000000000, 0.2434082031, 0.2332763672, 0.0000000000, 0.0000000000, -0.1925048828, 0.0000000000, -0.0000000000, 0.0000000000, 0.0000000000, -0.0000000000, 0.0000000000, -0.0000000000, 0.2343750000, 0.0000000000, 0.0000000000, 0.3010253906, 0.0000000000, 0.0000000000, 0.0000000000, -0.0000000000, -0.0000000000, 0.0000000000, -0.0000000000, 0.0000000000, -0.0000000000, 0.0000000000, -0.0000000000, -0.0000000000, -0.0000000000, 0.0000000000, -0.0000000000, 0.0000000000, -0.2225341797, 0.0000000000, -0.2941894531, 0.1932373047, 0.2203369141, 0.0000000000, -0.0000000000, 0.2573242188, 0.0000000000, -0.0000000000, -0.2235107422, 0.0000000000, 0.1903076172, 0.0000000000, 0.0000000000, 0.2059326172, -0.0000000000, 0.0000000000, 0.2602539062, -0.1906738281, 0.0000000000, 0.0000000000, -0.0000000000, 0.0000000000, 0.3662109375, 0.0000000000, -0.0000000000, -0.0000000000, 0.2683105469, -0.0000000000, 0.0000000000, -0.2263183594, -0.0000000000, -0.2213134766, 0.2180175781, 0.1766357422, -0.0000000000, -0.2990722656, 0.0000000000, 0.3769531250, 0.0000000000, 0.3952636719, -0.0000000000, 0.0000000000, 0.0000000000, -0.3347167969, -0.1713867188, 0.0000000000, 0.0000000000, -0.0000000000, 0.2371826172, 0.0000000000, -0.0000000000, -0.0000000000, 0.0000000000, 0.0000000000, 0.0000000000, 0.0000000000, -0.0000000000, 0.2851562500, -0.2414550781, -0.0000000000, 0.0000000000, -0.2575683594, -0.0000000000, 0.0000000000, -0.0000000000, 0.0000000000, 0.0000000000, -0.0000000000, 0.0000000000, -0.2114257812, -0.0000000000, -0.1646728516, -0.2583007812, 0.0000000000, 0.2083740234, -0.0000000000, -0.0000000000, -0.0000000000, -0.0000000000, 0.2128906250, 0.2097167969, -0.2182617188, -0.0000000000, 0.0000000000, -0.0000000000, 0.2985839844, -0.0000000000, -0.3100585938, 0.0000000000, 0.2315673828, -0.2224121094, -0.0000000000, 0.1789550781, -0.0000000000, 0.2467041016, -0.0000000000, 0.2061767578, 0.0000000000, 0.0000000000, 0.0000000000, -0.0000000000, 0.0000000000, 0.0000000000, 0.0000000000, 0.0000000000, -0.0000000000, -0.0000000000, -0.0000000000, -0.0000000000, -0.0000000000, -0.0000000000, 0.1774902344, -0.0000000000, 0.0000000000, -0.0000000000, -0.0000000000, 0.1727294922, -0.0000000000, 0.1740722656, 0.0000000000, -0.2136230469, -0.0000000000, -0.0000000000, -0.0000000000, 0.0000000000, 0.2749023438, -0.0000000000, 0.0000000000, -0.0000000000, 0.0000000000, -0.1972656250, 0.0000000000, -0.0000000000, -0.3200683594, 0.2453613281, 0.0000000000, 0.0000000000, 0.0000000000, 0.2403564453, 0.2459716797, -0.0000000000, -0.0000000000, 0.0000000000, 0.0000000000, -0.0000000000, -0.0000000000, 0.0000000000, 0.0000000000, 0.2143554688, 0.0000000000, -0.0000000000, -0.1838378906, 0.0000000000, 0.0000000000, 0.0000000000, 0.0000000000, -0.0000000000, -0.2133789062, -0.0000000000, -0.1995849609, -0.0000000000, 0.2739257812, -0.0000000000, 0.1975097656, -0.0000000000, -0.0000000000, -0.1953125000, -0.0000000000, -0.0000000000, 0.0000000000, -0.0000000000, 0.0000000000, -0.2778320312, -0.0000000000, 0.0000000000, -0.0000000000, 0.0000000000, -0.0000000000, 0.2307128906, -0.0000000000, 0.2464599609, 0.0000000000, -0.0000000000, 0.0000000000, 0.1829833984, -0.0000000000, -0.1524658203, 0.2487792969, -0.0000000000, 0.2301025391, -0.0000000000, 0.0000000000, 0.0000000000, -0.0000000000, 0.3015136719, -0.0000000000, -0.0000000000, -0.0000000000, 0.2215576172, -0.3041992188, 0.0000000000, 0.0000000000, -0.0000000000, 0.0000000000, -0.0000000000, 0.0000000000, 0.0000000000, 0.0000000000, 0.2095947266, -0.0000000000, -0.0000000000, 0.1799316406, -0.0000000000, -0.0000000000, 0.0000000000, -0.0000000000, -0.0000000000, -0.2375488281, -0.0000000000, 0.2519531250, 0.2749023438, -0.2824707031, -0.0000000000, -0.0000000000, -0.0000000000, 0.0000000000, 0.0000000000, -0.0000000000, 0.2666015625, 0.0000000000, 0.0000000000, -0.2541503906, 0.3811035156, -0.2241210938, -0.0000000000, 0.0000000000, -0.0000000000, -0.1795654297, -0.2497558594, 0.0000000000, -0.0000000000, 0.0000000000, -0.0000000000, -0.0000000000, -0.2208251953, -0.0000000000, -0.0000000000, 0.0000000000, 0.0000000000, -0.0000000000, -0.0000000000, 0.0000000000, 0.2121582031, -0.2719726562, -0.0000000000, -0.1822509766, 0.0000000000, -0.0000000000, 0.0000000000, 0.2271728516, -0.0000000000, -0.0000000000, 0.0000000000, -0.0000000000, -0.0000000000, -0.0000000000, 0.3112792969, -0.1950683594, -0.0000000000, -0.1983642578, -0.0000000000, 0.3095703125, -0.0000000000, 0.0000000000, -0.0000000000, -0.0000000000, -0.0000000000, 0.0000000000, 0.0000000000, 0.2407226562, 0.0000000000, 0.0000000000, 0.0000000000, 0.0000000000, -0.0000000000, 0.0000000000, 0.0000000000, -0.0000000000, -0.0000000000, -0.2252197266, 0.2230224609, 0.0000000000, 0.2066650391, 0.0000000000, -0.0000000000, 0.1560058594, 0.1960449219, 0.0000000000, -0.0000000000, 0.0000000000, 0.0000000000, 0.0000000000, 0.2119140625, -0.0000000000, 0.1917724609, -0.2846679688, 0.1898193359, -0.0000000000, 0.2034912109, 0.0000000000, -0.0000000000, 0.0000000000, -0.1962890625, -0.0000000000, 0.0000000000, 0.0000000000, -0.0000000000, -0.0000000000, -0.0000000000, 0.0000000000, 0.1834716797, -0.3134765625, 0.0000000000, -0.2976074219, -0.0000000000, 0.0000000000, 0.0000000000, 0.0000000000, 0.0000000000, -0.0000000000, -0.0000000000, 0.0000000000, 0.2117919922, 0.0000000000, -0.0000000000, 0.0000000000, 0.0000000000, -0.0000000000, -0.0000000000, 0.0000000000, -0.0000000000, -0.0000000000, 0.0000000000, -0.0000000000, -0.2775878906, 0.0000000000, -0.0000000000, -0.0000000000, 0.0000000000, 0.0000000000, 0.2944335938, -0.0000000000, -0.0000000000, 0.0000000000, 0.0000000000, -0.0000000000, 0.0000000000, 0.0000000000, 0.0000000000, -0.0000000000, 0.1829833984, -0.0000000000, -0.0000000000, 0.0000000000, 0.1815185547, 0.2315673828, 0.0000000000, 0.0000000000, -0.2088623047, 0.0000000000, -0.0000000000, -0.0000000000, 0.2402343750, -0.0000000000, -0.2128906250, -0.2971191406, 0.0000000000, -0.0000000000, -0.0000000000, 0.0000000000, 0.0000000000, 0.0000000000, -0.0000000000, -0.0000000000, 0.0000000000, 0.0000000000, 0.2678222656, 0.2519531250, -0.3352050781, -0.0000000000, -0.2546386719, 0.0000000000, -0.0000000000, -0.2148437500, -0.0000000000, 0.0000000000, -0.0000000000, -0.0000000000, -0.0000000000, -0.1779785156, -0.0000000000, -0.1951904297, 0.1922607422, 0.1730957031, 0.0000000000, -0.0000000000, 0.0000000000, -0.0000000000, -0.0000000000, -0.0000000000, -0.0000000000, -0.0000000000, 0.0000000000, -0.0000000000, 0.1877441406, -0.0000000000, 0.2108154297, -0.0000000000, -0.0000000000, 0.0000000000, -0.2072753906, -0.2832031250, 0.0000000000, 0.0000000000, 0.2006835938, 0.0000000000, 0.0000000000, -0.0000000000, 0.0000000000, 0.0000000000, 0.0000000000, 0.0000000000, 0.0000000000, -0.0000000000, 0.0000000000, -0.0000000000, -0.0000000000, 0.3037109375, 0.0000000000, -0.0000000000, 0.0000000000, 0.0000000000, 0.1696777344, 0.2014160156, 0.0000000000, 0.2929687500, -0.0000000000, -0.0000000000, -0.0000000000, 0.0000000000, 0.0000000000, -0.0000000000, 0.0000000000, 0.0000000000, -0.0000000000, -0.0000000000, -0.0000000000, -0.0000000000, 0.0000000000, 0.0000000000, 0.0000000000, -0.0000000000, -0.0000000000, -0.1817626953, 0.0000000000, -0.2218017578, -0.0000000000, -0.0000000000, 0.1866455078, 0.0000000000, -0.0000000000, -0.0000000000, 0.0000000000, 0.0000000000, -0.0000000000, 0.1885986328, -0.0000000000, 0.2117919922, -0.0000000000, -0.2215576172, 0.0000000000, 0.2294921875, 0.0000000000, -0.0000000000, 0.0000000000, 0.0000000000, 0.0000000000, -0.0000000000, 0.0000000000, -0.1774902344, -0.0000000000, -0.0000000000, -0.0000000000, -0.0000000000, -0.0000000000, -0.0000000000, 0.2280273438, -0.0000000000, -0.0000000000, -0.0000000000, -0.0000000000, 0.0000000000, -0.0000000000, 0.0000000000, -0.0000000000, -0.1983642578, -0.0000000000, -0.0000000000, -0.0000000000, 0.2219238281, -0.0000000000, -0.1988525391, 0.2012939453, -0.0000000000, -0.0000000000, -0.0000000000, 0.0000000000, -0.0000000000, 0.0000000000, -0.2958984375, 0.1829833984, -0.0000000000, -0.1856689453, -0.2211914062, 0.0000000000, -0.1838378906, 0.2770996094, -0.1881103516, -0.0000000000, -0.0000000000, -0.2147216797, 0.0000000000, 0.1962890625, 0.0000000000, -0.2331542969, -0.0000000000, -0.0000000000, 0.0000000000, 0.0000000000, -0.0000000000, -0.0000000000, 0.0000000000, 0.0000000000, -0.0000000000, -0.2910156250, 0.2116699219, 0.0000000000, 0.0000000000, -0.0000000000, 0.0000000000, 0.2456054688, 0.0000000000, -0.1728515625, 0.2430419922, 0.1914062500, 0.0000000000, -0.2252197266, 0.2359619141, -0.0000000000, 0.2316894531, -0.2249755859, 0.0000000000, -0.0000000000, -0.0000000000, 0.1896972656, 0.0000000000, -0.0000000000, 0.2072753906, -0.0000000000, -0.0000000000, 0.2736816406, 0.0000000000, 0.0000000000, -0.1815185547, -0.1981201172, 0.2048339844, 0.3291015625, -0.0000000000, 0.0000000000, -0.2171630859, -0.0000000000, 0.0000000000, 0.0000000000, 0.0000000000, -0.1907958984, -0.0000000000, -0.0000000000, 0.0000000000, -0.0000000000, -0.0000000000, -0.2685546875, -0.0000000000, -0.2946777344, -0.2153320312, -0.0000000000, 0.0000000000, -0.0000000000, -0.0000000000, 0.0000000000, -0.0000000000, -0.0000000000, 0.0000000000, -0.0000000000, 0.2012939453, 0.0000000000, 0.0000000000, -0.0000000000, -0.1706542969, -0.2509765625, 0.0000000000, 0.0000000000, -0.0000000000, 0.1885986328, 0.0000000000, 0.0000000000, -0.0000000000, -0.0000000000, -0.0000000000, 0.2885742188, 0.0000000000, -0.0000000000, 0.0000000000, 0.0000000000, 0.2941894531, -0.0000000000, -0.2844238281, -0.2301025391, -0.0000000000, -0.0000000000, -0.0000000000, 0.2509765625, -0.1896972656, 0.0000000000, -0.3315429688, -0.0000000000, -0.2402343750, 0.0000000000, 0.0000000000, -0.0000000000, 0.1784667969, 0.0000000000, -0.2492675781, 0.0000000000, -0.0000000000, -0.0000000000, -0.0000000000, 0.0000000000, 0.0000000000, -0.0000000000, 0.2120361328, -0.2220458984, -0.3286132812, 0.1842041016, -0.0000000000, -0.2155761719, -0.0000000000, 0.2280273438, 0.0000000000, -0.0000000000, -0.2386474609, 0.0000000000, -0.2092285156, -0.0000000000, -0.1809082031, 0.0000000000, -0.0000000000, -0.0000000000, 0.1751708984, 0.0000000000, 0.0000000000, -0.0000000000, 0.0000000000, 0.2437744141, 0.2844238281, -0.2396240234, -0.1978759766, 0.0000000000, 0.0000000000, 0.2117919922, 0.2155761719, -0.2454833984, -0.0000000000, -0.2670898438, -0.0000000000, 0.0000000000, -0.0000000000, 0.2614746094, -0.1857910156, 0.0000000000, -0.0000000000, -0.0000000000, 0.0000000000, 0.0000000000, -0.2426757812, -0.0000000000, -0.2531738281, -0.2719726562, 0.0000000000, -0.0000000000, 0.0000000000, 0.0000000000, 0.0000000000, -0.0000000000, -0.0000000000, -0.0000000000, -0.0000000000, -0.0000000000, 0.2514648438, 0.1922607422, 0.2578125000, 0.0000000000, -0.0000000000, -0.2377929688, 0.2108154297, 0.0000000000, -0.1959228516, -0.0000000000, 0.0000000000, 0.2822265625, -0.1948242188, -0.2062988281, -0.1904296875, 0.1713867188, 0.0000000000, 0.0000000000, 0.0000000000, -0.2059326172, -0.0000000000, -0.0000000000, 0.2174072266, 0.1965332031, 0.0000000000, -0.0000000000, 0.0000000000, -0.0000000000, 0.0000000000, -0.0000000000, 0.0000000000, 0.2773437500, -0.1979980469, 0.2337646484, 0.0000000000, 0.2310791016, -0.0000000000, 0.1756591797, 0.2293701172, 0.2219238281, 0.0000000000, 0.0000000000, 0.2529296875, -0.2084960938, -0.0000000000, 0.2790527344, 0.0000000000, 0.0000000000, 0.0000000000, -0.0000000000, -0.2214355469, 0.2614746094, 0.0000000000, -0.0000000000, -0.0000000000, 0.0000000000, -0.0000000000, -0.0000000000, 0.2142333984, 0.0000000000, 0.0000000000, 0.0000000000, -0.0000000000, 0.2169189453, -0.2829589844, 0.0000000000, -0.0000000000, 0.0000000000, 0.0000000000, -0.1866455078, 0.0000000000, 0.2666015625, -0.0000000000, 0.2003173828, 0.0000000000, 0.0000000000, 0.0000000000, 0.2744140625, -0.0000000000, -0.0000000000, 0.0000000000, -0.0000000000, -0.0000000000, -0.0000000000, 0.1811523438, -0.0000000000, 0.0000000000, 0.0000000000, 0.2570800781, 0.0000000000, 0.0000000000, 0.0000000000, 0.2490234375, -0.2020263672, -0.0000000000, 0.2634277344, -0.1783447266, -0.0000000000, 0.0000000000, 0.0000000000, -0.2081298828, 0.0000000000, 0.2919921875, -0.0000000000, 0.1833496094, -0.0000000000, 0.2252197266, 0.0000000000, 0.1910400391, -0.0000000000, -0.1942138672, -0.0000000000, 0.0000000000, 0.0000000000, -0.0000000000, -0.0000000000, -0.0000000000, -0.0000000000, -0.0000000000, 0.1879882812, 0.2489013672, 0.1794433594, -0.1898193359, -0.0000000000, 0.0000000000, -0.0000000000, -0.1798095703, 0.0000000000, -0.2128906250, -0.0000000000, 0.1994628906, 0.2291259766, -0.2145996094, -0.0000000000, -0.1705322266, -0.0000000000, -0.0000000000, -0.0000000000, -0.2648925781, -0.2065429688, 0.0000000000, 0.0000000000, -0.0000000000, 0.2109375000, 0.2109375000, -0.0000000000, -0.0000000000, -0.0000000000, 0.0000000000, -0.1721191406, 0.2137451172, 0.2060546875, -0.2207031250, -0.0000000000, 0.2153320312, 0.2026367188, -0.2077636719, 0.0000000000, 0.0000000000, -0.0000000000, -0.0000000000, -0.0000000000, -0.1633300781, 0.0000000000, -0.0000000000, -0.0000000000, 0.0000000000, -0.0000000000, -0.0000000000, 0.0000000000, 0.2834472656, 0.0000000000, -0.0000000000, 0.0000000000, -0.2548828125, -0.1932373047, 0.2541503906, 0.2180175781, 0.0000000000, -0.0000000000, -0.3225097656, -0.2932128906, -0.2304687500, -0.0000000000, 0.2624511719, -0.0000000000, -0.0000000000, 0.0000000000, 0.0000000000, 0.2111816406, 0.0000000000, -0.0000000000, 0.0000000000, 0.0000000000, 0.0000000000, 0.0000000000, 0.0000000000, -0.0000000000, 0.1843261719, -0.0000000000, -0.0000000000, 0.0000000000, -0.0000000000, 0.0000000000, -0.0000000000, -0.0000000000, 0.2302246094, 0.0000000000, 0.0000000000, 0.0000000000, 0.1701660156, -0.0000000000, 0.0000000000, 0.0000000000, -0.0000000000, 0.0000000000, 0.0000000000, -0.0000000000, -0.0000000000, 0.0000000000, 0.2282714844, -0.2531738281, -0.0000000000, -0.2166748047, 0.0000000000, -0.0000000000, 0.1854248047, -0.0000000000, 0.0000000000, 0.0000000000, 0.0000000000, 0.0000000000, -0.0000000000, 0.0000000000, -0.0000000000, -0.0000000000, 0.1923828125, 0.0000000000, -0.0000000000, 0.0000000000, 0.0000000000, 0.0000000000, 0.0000000000, 0.1750488281, -0.0000000000, -0.0000000000, 0.0000000000, 0.0000000000, 0.1983642578, 0.2197265625, -0.0000000000, 0.2968750000, -0.2636718750, -0.0000000000, 0.1846923828, -0.0000000000, -0.2827148438, -0.2558593750, 0.0000000000, -0.2069091797, -0.0000000000, 0.0000000000, 0.0000000000, 0.0000000000, -0.2208251953, -0.1914062500, -0.2359619141, 0.0000000000, 0.0000000000, 0.0000000000, -0.2873535156, 0.0000000000, 0.0000000000, -0.0000000000, 0.0000000000, 0.0000000000, -0.0000000000, -0.0000000000, -0.0000000000, 0.0000000000, -0.0000000000, 0.0000000000, -0.0000000000, 0.0000000000, -0.0000000000, -0.3103027344, -0.0000000000, -0.0000000000, 0.0000000000, -0.0000000000, 0.0000000000, 0.1885986328, -0.3298339844, -0.0000000000, 0.0000000000, 0.0000000000, -0.0000000000, -0.2929687500, -0.0000000000, 0.0000000000, 0.2396240234, 0.0000000000, 0.0000000000, -0.0000000000, 0.0000000000, -0.2790527344, 0.0000000000, -0.0000000000, 0.0000000000, -0.3725585938, -0.2294921875, 0.0000000000, 0.0000000000, -0.0000000000, 0.0000000000, 0.0000000000, -0.0000000000, -0.0000000000, 0.0000000000, 0.0000000000, -0.0000000000, -0.2171630859, 0.0000000000, -0.0000000000, -0.0000000000, 0.0000000000, -0.0000000000, -0.0000000000, -0.0000000000, 0.2783203125, 0.0000000000, -0.0000000000, -0.0000000000, -0.0000000000, 0.0000000000, -0.0000000000, 0.3334960938, -0.0000000000, 0.0000000000, -0.0000000000, -0.0000000000, -0.0000000000, -0.0000000000, 0.0000000000, 0.0000000000, -0.2222900391, 0.0000000000, 0.0000000000, 0.1955566406, -0.2097167969, -0.2082519531, -0.0000000000, -0.1865234375, -0.0000000000, 0.0000000000, 0.2597656250, -0.2165527344, -0.0000000000, 0.0000000000, 0.0000000000, 0.0000000000, -0.2257080078, 0.0000000000, -0.0000000000, -0.0000000000, 0.0000000000, -0.2521972656, -0.0000000000, -0.0000000000, 0.0000000000, -0.2219238281, -0.0000000000, 0.0000000000, -0.0000000000, -0.0000000000, 0.0000000000, 0.0000000000, -0.2233886719, -0.0000000000, -0.0000000000, -0.0000000000, 0.2133789062, -0.0000000000, -0.2072753906, -0.0000000000, -0.0000000000, 0.0000000000, -0.0000000000, 0.0000000000, 0.0000000000, -0.0000000000, 0.1922607422, -0.0000000000, -0.0000000000, -0.0000000000, 0.1750488281, -0.0000000000, -0.1806640625, -0.0000000000, -0.0000000000, 0.0000000000, -0.2476806641, -0.1956787109, -0.0000000000, -0.0000000000, -0.0000000000, -0.0000000000, 0.2169189453, 0.2810058594, 0.1831054688, 0.0000000000, 0.0000000000, -0.0000000000, 0.0000000000, -0.0000000000, -0.2430419922, -0.0000000000, -0.2514648438, 0.0000000000, -0.0000000000, 0.0000000000, -0.0000000000, -0.0000000000, -0.0000000000, -0.0000000000, -0.0000000000, 0.0000000000, -0.0000000000, -0.0000000000, -0.0000000000, 0.2347412109, 0.2160644531, -0.0000000000, 0.0000000000, -0.2536621094, 0.0000000000, 0.0000000000, -0.0000000000, 0.1848144531, -0.2587890625, -0.0000000000, 0.2866210938, -0.0000000000, -0.0000000000, -0.3183593750, -0.0000000000, -0.0000000000, 0.0000000000, -0.0000000000, -0.0000000000, -0.0000000000, 0.0000000000, -0.1828613281, -0.2222900391, -0.0000000000, -0.0000000000, -0.0000000000, -0.0000000000, 0.1896972656, 0.2232666016, 0.2028808594, -0.0000000000, -0.0000000000, -0.0000000000, -0.2238769531, 0.0000000000, -0.0000000000, -0.0000000000, 0.2145996094, 0.1893310547, -0.0000000000, -0.0000000000, 0.1927490234, -0.1947021484, 0.0000000000, -0.0000000000, 0.0000000000, -0.0000000000, -0.0000000000, 0.0000000000, 0.0000000000, -0.2281494141, 0.0000000000, 0.2045898438, 0.0000000000, -0.2437744141, 0.2153320312, -0.0000000000, -0.1787109375, -0.0000000000, 0.0000000000, -0.2114257812, -0.1732177734, -0.0000000000, 0.2419433594, -0.0000000000, 0.2266845703, 0.0000000000, -0.2856445312, 0.0000000000, 0.2037353516, -0.1745605469, -0.0000000000, 0.1851806641, -0.2076416016, -0.0000000000, 0.0000000000, 0.1870117188, -0.0000000000, -0.0000000000, -0.2150878906, -0.1927490234, 0.0000000000, 0.0000000000, -0.0000000000, 0.0000000000, 0.0000000000, -0.0000000000, -0.0000000000, 0.0000000000, -0.1793212891, 0.2548828125, -0.1773681641, -0.0000000000, -0.2717285156, -0.0000000000, -0.2868652344, 0.0000000000, -0.0000000000, -0.3161621094, -0.0000000000, 0.0000000000, -0.0000000000, 0.0000000000, -0.3454589844, 0.2091064453, -0.0000000000, 0.0000000000, -0.0000000000, -0.0000000000, -0.2337646484, -0.0000000000, 0.0000000000, 0.0000000000, -0.0000000000, 0.0000000000, -0.0000000000, 0.0000000000, 0.1834716797, 0.0000000000, -0.0000000000, -0.0000000000, -0.0000000000, 0.1923828125, -0.0000000000, 0.0000000000, -0.0000000000, 0.1829833984, 0.0000000000, 0.0000000000, -0.0000000000, -0.2288818359, -0.0000000000, 0.0000000000, -0.0000000000, -0.2084960938, 0.0000000000, -0.0000000000, -0.0000000000, -0.2485351562, -0.0000000000, -0.0000000000, 0.1807861328, -0.2115478516, -0.0000000000, -0.0000000000, -0.0000000000, 0.0000000000, -0.0000000000, -0.0000000000, -0.0000000000, -0.0000000000, 0.2125244141, 0.0000000000, 0.0000000000, 0.0000000000, 0.1809082031, -0.0000000000, 0.0000000000, 0.0000000000, 0.0000000000, -0.0000000000, -0.0000000000};
#endif

#endif
