//Numpy array shape [1, 1, 64, 64]
//Min -0.409423828125
//Max 0.384521484375
//Number of zeros 2865

#ifndef W35_H_
#define W35_H_

#ifndef __SYNTHESIS__
model_default_t w35[4096];
#else
model_default_t w35[4096] = {-0.0000000000, -0.0000000000, 0.0000000000, -0.2932128906, 0.0000000000, -0.0000000000, 0.1733398438, -0.0000000000, -0.0000000000, -0.0000000000, 0.0000000000, 0.0000000000, 0.0000000000, 0.1401367188, -0.0000000000, -0.0000000000, -0.0000000000, -0.1627197266, 0.2301025391, 0.0000000000, -0.1691894531, -0.1711425781, -0.0000000000, 0.1470947266, -0.0000000000, -0.1950683594, 0.0000000000, -0.0000000000, -0.0000000000, 0.0000000000, 0.0000000000, 0.0000000000, -0.0000000000, 0.1573486328, -0.1721191406, -0.0000000000, 0.0000000000, 0.1783447266, -0.0000000000, 0.0000000000, -0.0000000000, 0.2410888672, 0.2233886719, -0.0000000000, 0.0000000000, -0.1553955078, -0.0000000000, -0.1593017578, -0.0000000000, 0.0000000000, 0.0000000000, -0.0000000000, 0.0000000000, -0.0000000000, -0.0000000000, -0.2261962891, -0.0000000000, 0.0000000000, 0.0000000000, -0.2022705078, -0.1749267578, -0.2239990234, 0.1512451172, 0.0000000000, -0.0000000000, -0.0000000000, 0.0000000000, 0.2235107422, -0.0000000000, -0.0000000000, 0.0000000000, -0.0000000000, -0.0000000000, 0.0000000000, -0.0000000000, -0.0000000000, -0.0000000000, -0.1822509766, -0.2467041016, -0.1588134766, -0.1961669922, 0.1716308594, -0.0000000000, -0.2283935547, 0.0000000000, 0.0000000000, 0.0000000000, -0.0000000000, -0.0000000000, -0.0000000000, -0.0000000000, -0.0000000000, 0.0000000000, 0.0000000000, -0.1948242188, 0.0000000000, -0.0000000000, -0.0000000000, 0.1771240234, 0.0000000000, -0.0000000000, -0.0000000000, 0.0000000000, -0.0000000000, -0.1534423828, 0.0000000000, -0.0000000000, 0.0000000000, -0.0000000000, 0.0000000000, 0.0000000000, -0.2410888672, 0.1628417969, -0.2509765625, 0.0000000000, -0.0000000000, -0.3068847656, 0.1553955078, -0.0000000000, 0.0000000000, 0.0000000000, -0.1588134766, 0.2167968750, -0.1549072266, 0.0000000000, -0.0000000000, 0.0000000000, 0.0000000000, 0.1667480469, -0.2521972656, -0.1528320312, 0.2476806641, 0.0000000000, -0.2521972656, 0.0000000000, 0.0000000000, 0.0000000000, -0.2282714844, -0.0000000000, -0.0000000000, -0.0000000000, -0.0000000000, -0.2039794922, 0.0000000000, -0.1503906250, 0.0000000000, -0.0000000000, 0.0000000000, -0.0000000000, -0.0000000000, 0.0000000000, 0.2180175781, -0.2602539062, 0.0000000000, 0.0000000000, 0.0000000000, 0.2160644531, -0.0000000000, 0.0000000000, 0.1799316406, 0.0000000000, -0.1608886719, 0.0000000000, 0.0000000000, -0.0000000000, -0.0000000000, -0.1666259766, -0.2082519531, -0.0000000000, 0.0000000000, 0.0000000000, 0.0000000000, -0.2452392578, 0.0000000000, -0.2578125000, -0.2127685547, 0.0000000000, 0.0000000000, 0.0000000000, -0.0000000000, 0.2005615234, 0.0000000000, 0.0000000000, -0.0000000000, 0.0000000000, -0.0000000000, -0.0000000000, 0.2142333984, 0.1470947266, -0.0000000000, 0.0000000000, -0.0000000000, 0.0000000000, 0.0000000000, -0.2239990234, -0.2401123047, -0.0000000000, -0.0000000000, -0.0000000000, -0.1666259766, -0.2558593750, 0.0000000000, -0.0000000000, -0.0000000000, 0.2316894531, -0.0000000000, -0.0000000000, 0.1650390625, -0.0000000000, -0.2189941406, 0.0000000000, -0.1708984375, -0.1883544922, -0.0000000000, 0.0000000000, 0.0000000000, -0.2440185547, -0.0000000000, -0.0000000000, 0.0000000000, 0.0000000000, 0.0000000000, 0.0000000000, -0.2023925781, -0.0000000000, 0.0000000000, 0.0000000000, -0.2388916016, 0.0000000000, -0.0000000000, -0.0000000000, 0.0000000000, -0.0000000000, -0.0000000000, -0.0000000000, -0.0000000000, 0.0000000000, -0.0000000000, -0.0000000000, 0.0000000000, -0.0000000000, 0.1931152344, -0.1729736328, 0.0000000000, 0.0000000000, 0.2160644531, -0.0000000000, -0.0000000000, -0.0000000000, 0.0000000000, -0.0000000000, -0.0000000000, 0.2319335938, 0.1801757812, -0.0000000000, 0.0000000000, 0.0000000000, 0.0000000000, 0.0000000000, 0.0000000000, -0.0000000000, 0.0000000000, -0.1649169922, 0.0000000000, 0.0000000000, -0.0000000000, 0.0000000000, -0.1403808594, -0.0000000000, 0.0000000000, -0.0000000000, 0.0000000000, 0.0000000000, -0.0000000000, 0.0000000000, -0.0000000000, -0.0000000000, 0.0000000000, -0.1788330078, -0.2047119141, 0.0000000000, 0.0000000000, -0.0000000000, 0.0000000000, -0.1639404297, 0.0000000000, -0.2436523438, 0.0000000000, 0.0000000000, 0.0000000000, -0.0000000000, -0.0000000000, -0.0000000000, -0.0000000000, 0.0000000000, 0.2282714844, 0.1928710938, -0.0000000000, -0.0000000000, 0.0000000000, 0.0000000000, -0.1558837891, -0.1462402344, 0.0000000000, -0.1611328125, 0.2631835938, -0.2457275391, -0.0000000000, -0.0000000000, 0.1335449219, 0.1970214844, -0.1469726562, -0.0000000000, 0.1433105469, -0.0000000000, 0.1629638672, 0.0000000000, 0.0000000000, 0.0000000000, -0.0000000000, -0.0000000000, 0.0000000000, -0.0000000000, -0.0000000000, -0.0000000000, 0.0000000000, 0.1782226562, -0.2204589844, -0.0000000000, 0.1511230469, -0.0000000000, 0.2208251953, -0.0000000000, -0.1965332031, 0.0000000000, 0.0000000000, -0.0000000000, -0.0000000000, -0.0000000000, -0.0000000000, -0.0000000000, -0.1574707031, 0.0000000000, 0.1734619141, -0.0000000000, -0.0000000000, -0.0000000000, -0.0000000000, 0.0000000000, -0.0000000000, 0.0000000000, -0.0000000000, 0.1408691406, 0.0000000000, -0.2017822266, 0.0000000000, -0.0000000000, -0.2543945312, -0.1800537109, -0.0000000000, -0.2592773438, -0.0000000000, 0.0000000000, -0.0000000000, 0.0000000000, 0.1882324219, 0.2089843750, -0.0000000000, -0.0000000000, -0.0000000000, -0.0000000000, 0.0000000000, -0.0000000000, 0.0000000000, -0.0000000000, -0.0000000000, 0.1536865234, -0.0000000000, 0.0000000000, -0.0000000000, -0.0000000000, -0.0000000000, -0.0000000000, -0.0000000000, 0.0000000000, -0.0000000000, -0.0000000000, -0.2644042969, 0.0000000000, 0.0000000000, 0.0000000000, -0.2056884766, 0.0000000000, 0.1403808594, -0.0000000000, -0.0000000000, -0.2810058594, -0.1750488281, 0.2192382812, 0.1843261719, -0.0000000000, 0.0000000000, -0.2224121094, -0.2279052734, 0.0000000000, 0.0000000000, -0.0000000000, 0.0000000000, -0.1574707031, 0.0000000000, 0.0000000000, -0.0000000000, 0.0000000000, 0.0000000000, 0.0000000000, -0.0000000000, 0.0000000000, -0.0000000000, -0.0000000000, 0.0000000000, 0.1855468750, -0.1812744141, 0.0000000000, -0.0000000000, 0.0000000000, 0.0000000000, 0.0000000000, 0.1517333984, 0.0000000000, 0.0000000000, 0.0000000000, -0.0000000000, 0.0000000000, -0.0000000000, 0.2281494141, -0.0000000000, 0.2053222656, 0.0000000000, -0.0000000000, 0.0000000000, 0.0000000000, -0.0000000000, -0.0000000000, -0.0000000000, -0.3063964844, -0.0000000000, 0.0000000000, -0.0000000000, 0.0000000000, -0.1802978516, 0.0000000000, -0.0000000000, 0.0000000000, -0.0000000000, 0.0000000000, 0.0000000000, -0.0000000000, 0.0000000000, 0.3149414062, 0.1525878906, -0.0000000000, -0.0000000000, 0.0000000000, -0.0000000000, -0.2519531250, 0.0000000000, 0.0000000000, 0.0000000000, -0.0000000000, -0.2437744141, -0.0000000000, -0.0000000000, 0.0000000000, -0.1885986328, 0.0000000000, 0.0000000000, -0.0000000000, -0.0000000000, -0.2058105469, -0.0000000000, -0.0000000000, -0.0000000000, -0.1757812500, 0.0000000000, -0.0000000000, -0.1873779297, 0.0000000000, 0.0000000000, -0.0000000000, -0.0000000000, -0.1809082031, -0.0000000000, 0.0000000000, 0.0000000000, 0.0000000000, 0.0000000000, -0.2457275391, -0.0000000000, 0.0000000000, -0.0000000000, -0.0000000000, -0.1306152344, 0.0000000000, -0.0000000000, 0.0000000000, 0.0000000000, 0.2145996094, -0.2802734375, -0.0000000000, -0.1781005859, -0.0000000000, -0.2145996094, -0.0000000000, 0.0000000000, 0.0000000000, -0.0000000000, -0.0000000000, -0.0000000000, 0.0000000000, -0.0000000000, 0.2263183594, 0.0000000000, -0.1636962891, 0.2265625000, 0.0000000000, -0.0000000000, 0.0000000000, -0.0000000000, 0.0000000000, -0.0000000000, 0.1594238281, -0.0000000000, -0.0000000000, -0.1430664062, 0.0000000000, 0.0000000000, 0.0000000000, -0.0000000000, 0.0000000000, -0.0000000000, -0.0000000000, 0.0000000000, 0.0000000000, 0.0000000000, 0.0000000000, 0.0000000000, 0.2047119141, -0.0000000000, -0.0000000000, 0.0000000000, 0.0000000000, 0.1726074219, 0.0000000000, 0.0000000000, -0.0000000000, -0.0000000000, 0.0000000000, 0.0000000000, 0.0000000000, 0.0000000000, -0.1994628906, -0.0000000000, -0.0000000000, 0.0000000000, -0.1724853516, 0.0000000000, -0.0000000000, -0.0000000000, 0.0000000000, 0.0000000000, 0.0000000000, -0.0000000000, 0.1697998047, -0.0000000000, 0.0000000000, 0.0000000000, 0.0000000000, 0.1790771484, -0.0000000000, -0.0000000000, 0.0000000000, 0.0000000000, -0.0000000000, -0.0000000000, -0.1667480469, -0.0000000000, -0.1783447266, 0.0000000000, 0.2165527344, 0.0000000000, -0.2139892578, -0.2546386719, -0.0000000000, -0.2089843750, 0.2445068359, 0.1391601562, 0.0000000000, 0.2512207031, -0.0000000000, 0.2207031250, 0.0000000000, -0.0000000000, -0.1488037109, -0.2171630859, 0.1551513672, 0.0000000000, -0.1323242188, -0.0000000000, -0.0000000000, -0.2016601562, 0.0000000000, -0.0000000000, 0.0000000000, 0.0000000000, 0.2770996094, 0.0000000000, -0.0000000000, 0.0000000000, -0.0000000000, -0.3149414062, -0.0000000000, -0.0000000000, 0.0000000000, 0.1522216797, 0.1553955078, -0.0000000000, -0.1741943359, 0.0000000000, 0.1876220703, -0.2471923828, -0.0000000000, -0.0000000000, 0.1364746094, -0.0000000000, -0.0000000000, -0.0000000000, 0.0000000000, -0.0000000000, -0.0000000000, -0.1473388672, -0.0000000000, -0.0000000000, 0.1643066406, 0.0000000000, -0.0000000000, 0.0000000000, -0.0000000000, 0.1679687500, 0.0000000000, -0.3105468750, -0.0000000000, -0.2529296875, 0.2634277344, 0.0000000000, -0.1546630859, 0.0000000000, -0.2641601562, -0.0000000000, -0.2315673828, 0.1566162109, 0.2639160156, 0.2399902344, 0.0000000000, 0.0000000000, -0.2561035156, 0.0000000000, 0.0000000000, 0.0000000000, -0.2022705078, -0.0000000000, 0.1875000000, 0.0000000000, -0.0000000000, -0.0000000000, -0.0000000000, -0.2152099609, -0.0000000000, 0.1911621094, -0.0000000000, -0.0000000000, 0.0000000000, -0.0000000000, -0.0000000000, -0.1799316406, 0.0000000000, 0.0000000000, -0.2458496094, -0.0000000000, -0.0000000000, -0.0000000000, -0.0000000000, 0.0000000000, 0.0000000000, 0.0000000000, -0.2447509766, -0.0000000000, -0.1550292969, 0.3845214844, -0.0000000000, -0.0000000000, -0.0000000000, -0.0000000000, 0.2441406250, -0.0000000000, 0.1685791016, -0.2250976562, -0.0000000000, 0.1711425781, -0.0000000000, -0.2382812500, 0.0000000000, -0.0000000000, 0.0000000000, 0.0000000000, -0.1591796875, -0.1898193359, -0.0000000000, 0.0000000000, 0.1478271484, -0.1931152344, 0.0000000000, 0.0000000000, 0.1892089844, 0.0000000000, -0.2122802734, 0.0000000000, 0.2778320312, 0.0000000000, 0.0000000000, -0.0000000000, -0.0000000000, -0.0000000000, 0.0000000000, 0.0000000000, -0.0000000000, -0.0000000000, 0.1616210938, -0.0000000000, 0.0000000000, 0.0000000000, 0.2766113281, 0.1923828125, 0.0000000000, -0.1593017578, -0.0000000000, -0.0000000000, -0.0000000000, 0.0000000000, 0.0000000000, 0.0000000000, -0.0000000000, 0.0000000000, -0.1782226562, -0.0000000000, 0.0000000000, 0.0000000000, 0.0000000000, 0.1879882812, -0.0000000000, 0.0000000000, -0.2871093750, 0.0000000000, 0.0000000000, 0.0000000000, -0.1816406250, -0.0000000000, -0.0000000000, 0.0000000000, -0.2556152344, 0.0000000000, -0.0000000000, -0.0000000000, -0.0000000000, 0.2182617188, -0.0000000000, -0.1749267578, 0.0000000000, -0.0000000000, -0.2027587891, -0.2213134766, 0.0000000000, -0.2041015625, -0.0000000000, -0.0000000000, 0.2233886719, -0.0000000000, -0.0000000000, -0.0000000000, 0.0000000000, -0.1671142578, -0.0000000000, 0.0000000000, -0.0000000000, 0.1730957031, -0.0000000000, -0.0000000000, -0.0000000000, 0.0000000000, 0.2286376953, 0.0000000000, -0.0000000000, 0.0000000000, 0.0000000000, 0.2100830078, 0.0000000000, -0.1811523438, -0.0000000000, -0.0000000000, 0.0000000000, -0.0000000000, 0.0000000000, -0.0000000000, -0.1912841797, -0.0000000000, -0.0000000000, -0.0000000000, -0.0000000000, -0.0000000000, -0.0000000000, 0.3181152344, 0.2030029297, 0.1770019531, -0.1630859375, -0.0000000000, -0.0000000000, 0.0000000000, 0.0000000000, -0.2329101562, -0.0000000000, 0.0000000000, -0.0000000000, 0.0000000000, -0.1612548828, -0.0000000000, -0.2060546875, 0.0000000000, 0.0000000000, -0.0000000000, 0.0000000000, -0.2844238281, 0.0000000000, 0.2021484375, 0.0000000000, -0.0000000000, -0.0000000000, 0.0000000000, 0.0000000000, 0.2500000000, 0.0000000000, -0.2111816406, -0.0000000000, 0.0000000000, 0.1917724609, -0.1485595703, -0.0000000000, 0.0000000000, 0.2006835938, 0.0000000000, -0.1737060547, 0.1712646484, 0.0000000000, 0.0000000000, -0.0000000000, 0.2274169922, -0.0000000000, -0.0000000000, -0.1804199219, 0.0000000000, -0.0000000000, -0.0000000000, 0.0000000000, 0.2714843750, -0.0000000000, -0.0000000000, 0.0000000000, 0.2697753906, -0.1566162109, 0.0000000000, 0.0000000000, 0.1574707031, -0.0000000000, 0.0000000000, 0.0000000000, -0.0000000000, -0.0000000000, -0.1890869141, 0.0000000000, -0.0000000000, 0.0000000000, 0.0000000000, -0.0000000000, -0.0000000000, 0.1679687500, -0.2120361328, 0.0000000000, 0.0000000000, 0.0000000000, 0.1496582031, 0.0000000000, 0.0000000000, 0.0000000000, 0.0000000000, 0.0000000000, -0.0000000000, 0.0000000000, 0.0000000000, -0.1606445312, -0.0000000000, -0.0000000000, 0.0000000000, -0.0000000000, -0.0000000000, -0.0000000000, -0.0000000000, 0.0000000000, -0.2866210938, -0.1373291016, 0.0000000000, 0.2481689453, 0.0000000000, 0.0000000000, -0.0000000000, -0.0000000000, 0.2125244141, -0.1988525391, 0.0000000000, -0.0000000000, -0.1503906250, 0.3471679688, -0.2543945312, -0.0000000000, 0.0000000000, 0.0000000000, -0.0000000000, 0.0000000000, 0.0000000000, -0.2403564453, 0.0000000000, 0.0000000000, -0.0000000000, 0.0000000000, 0.0000000000, -0.0000000000, 0.0000000000, 0.0000000000, -0.1977539062, 0.0000000000, -0.0000000000, 0.0000000000, -0.1866455078, 0.2512207031, 0.0000000000, -0.1472167969, -0.0000000000, 0.0000000000, -0.0000000000, -0.0000000000, 0.0000000000, -0.0000000000, -0.0000000000, 0.0000000000, 0.1566162109, -0.0000000000, -0.0000000000, 0.2143554688, -0.0000000000, 0.0000000000, 0.0000000000, 0.1861572266, 0.0000000000, 0.0000000000, -0.0000000000, 0.0000000000, 0.0000000000, -0.0000000000, 0.0000000000, 0.0000000000, -0.0000000000, 0.2459716797, 0.0000000000, 0.0000000000, 0.0000000000, -0.0000000000, 0.1326904297, 0.0000000000, -0.0000000000, -0.0000000000, -0.0000000000, 0.0000000000, 0.1872558594, -0.0000000000, 0.0000000000, 0.0000000000, 0.0000000000, -0.0000000000, -0.0000000000, -0.0000000000, -0.0000000000, 0.0000000000, 0.0000000000, 0.0000000000, -0.1540527344, -0.1877441406, 0.0000000000, -0.0000000000, -0.2435302734, 0.0000000000, 0.0000000000, -0.0000000000, 0.1765136719, 0.0000000000, -0.1979980469, 0.2207031250, -0.0000000000, -0.0000000000, 0.0000000000, 0.0000000000, 0.0000000000, -0.0000000000, -0.0000000000, -0.0000000000, 0.0000000000, 0.0000000000, -0.0000000000, 0.0000000000, 0.0000000000, -0.0000000000, 0.0000000000, -0.0000000000, -0.2113037109, -0.0000000000, -0.0000000000, -0.0000000000, -0.0000000000, 0.0000000000, 0.0000000000, 0.0000000000, 0.2093505859, -0.2164306641, -0.0000000000, 0.0000000000, -0.0000000000, 0.1831054688, 0.1628417969, -0.2340087891, -0.0000000000, -0.0000000000, 0.1516113281, 0.0000000000, -0.0000000000, -0.0000000000, -0.0000000000, -0.0000000000, 0.0000000000, -0.0000000000, -0.0000000000, 0.1828613281, 0.0000000000, 0.0000000000, -0.0000000000, 0.0000000000, -0.0000000000, 0.0000000000, 0.0000000000, -0.0000000000, 0.1572265625, -0.0000000000, 0.2272949219, -0.2043457031, 0.0000000000, 0.0000000000, -0.1473388672, -0.0000000000, 0.1600341797, -0.0000000000, 0.0000000000, 0.0000000000, 0.0000000000, 0.0000000000, -0.1968994141, -0.1884765625, 0.1778564453, 0.0000000000, 0.1712646484, -0.2491455078, 0.0000000000, -0.0000000000, 0.0000000000, 0.0000000000, -0.1767578125, -0.0000000000, -0.0000000000, -0.1810302734, -0.2491455078, 0.0000000000, 0.0000000000, -0.0000000000, 0.0000000000, -0.2102050781, -0.0000000000, -0.1809082031, 0.1910400391, -0.2348632812, -0.0000000000, -0.1374511719, 0.0000000000, -0.1860351562, -0.1414794922, 0.0000000000, -0.0000000000, 0.0000000000, -0.0000000000, -0.0000000000, -0.0000000000, -0.2268066406, 0.1795654297, 0.0000000000, 0.0000000000, 0.0000000000, 0.1968994141, 0.0000000000, -0.0000000000, -0.2226562500, 0.0000000000, -0.0000000000, -0.0000000000, -0.0000000000, -0.1827392578, -0.0000000000, 0.1933593750, 0.0000000000, 0.0000000000, -0.1625976562, -0.2442626953, 0.0000000000, -0.0000000000, -0.0000000000, 0.1375732422, -0.1900634766, -0.1655273438, -0.0000000000, 0.0000000000, -0.2072753906, -0.0000000000, 0.1905517578, 0.0000000000, 0.1983642578, 0.0000000000, 0.0000000000, 0.0000000000, -0.0000000000, -0.1706542969, -0.1748046875, 0.0000000000, 0.0000000000, -0.3195800781, -0.2415771484, 0.0000000000, -0.0000000000, -0.0000000000, -0.3002929688, 0.1884765625, -0.0000000000, 0.0000000000, -0.2792968750, 0.0000000000, -0.0000000000, -0.0000000000, -0.0000000000, -0.0000000000, -0.0000000000, -0.0000000000, 0.0000000000, 0.0000000000, 0.1716308594, 0.0000000000, 0.2247314453, -0.0000000000, 0.0000000000, -0.0000000000, -0.0000000000, 0.0000000000, -0.0000000000, -0.0000000000, -0.0000000000, -0.0000000000, -0.2087402344, -0.2056884766, -0.1938476562, 0.0000000000, 0.0000000000, 0.0000000000, -0.0000000000, -0.0000000000, 0.0000000000, 0.2259521484, -0.0000000000, -0.0000000000, -0.0000000000, 0.0000000000, -0.0000000000, 0.2321777344, -0.1605224609, 0.0000000000, 0.0000000000, 0.0000000000, 0.0000000000, -0.0000000000, 0.2415771484, -0.0000000000, 0.0000000000, 0.0000000000, -0.0000000000, -0.0000000000, -0.1594238281, 0.0000000000, 0.0000000000, 0.0000000000, 0.0000000000, 0.1975097656, 0.0000000000, 0.0000000000, -0.0000000000, 0.0000000000, -0.2209472656, -0.0000000000, 0.0000000000, 0.0000000000, -0.2277832031, -0.0000000000, 0.2237548828, -0.0000000000, 0.0000000000, 0.2127685547, 0.0000000000, -0.0000000000, 0.0000000000, -0.1510009766, -0.1610107422, -0.0000000000, 0.1947021484, 0.0000000000, 0.0000000000, -0.0000000000, -0.0000000000, 0.0000000000, -0.2453613281, -0.0000000000, 0.2385253906, -0.2332763672, 0.1611328125, 0.2646484375, 0.0000000000, -0.2360839844, 0.1501464844, -0.1978759766, -0.0000000000, -0.0000000000, 0.2302246094, -0.0000000000, 0.0000000000, -0.0000000000, -0.0000000000, 0.1536865234, 0.0000000000, 0.0000000000, 0.0000000000, 0.0000000000, -0.0000000000, -0.0000000000, 0.0000000000, 0.0000000000, 0.0000000000, -0.2712402344, 0.1992187500, -0.2597656250, 0.0000000000, -0.2854003906, -0.1862792969, -0.0000000000, 0.0000000000, -0.1701660156, -0.1646728516, 0.1898193359, -0.0000000000, 0.2526855469, -0.0000000000, 0.0000000000, 0.0000000000, 0.0000000000, -0.0000000000, -0.0000000000, -0.0000000000, 0.0000000000, -0.2418212891, -0.1604003906, -0.2070312500, -0.0000000000, -0.0000000000, 0.0000000000, -0.0000000000, -0.0000000000, 0.0000000000, -0.3027343750, -0.0000000000, 0.1914062500, 0.2291259766, -0.1842041016, -0.0000000000, -0.1744384766, 0.0000000000, 0.0000000000, 0.0000000000, -0.0000000000, -0.1757812500, -0.2011718750, -0.2470703125, 0.0000000000, -0.3403320312, -0.0000000000, 0.0000000000, -0.1680908203, -0.3083496094, 0.0000000000, -0.0000000000, -0.0000000000, -0.0000000000, -0.0000000000, -0.0000000000, 0.1864013672, -0.0000000000, -0.2348632812, -0.1926269531, -0.2064208984, 0.0000000000, 0.0000000000, -0.3701171875, 0.2486572266, -0.0000000000, -0.0000000000, -0.0000000000, 0.2666015625, 0.0000000000, -0.0000000000, 0.2176513672, 0.0000000000, 0.0000000000, 0.0000000000, 0.1882324219, -0.0000000000, -0.0000000000, -0.0000000000, -0.0000000000, 0.1926269531, 0.2548828125, 0.0000000000, 0.0000000000, 0.2232666016, -0.0000000000, 0.1633300781, 0.1084594727, -0.0000000000, 0.1824951172, -0.1676025391, -0.2152099609, -0.0000000000, -0.0000000000, 0.0000000000, 0.3493652344, 0.1673583984, -0.0000000000, -0.0000000000, 0.0000000000, 0.0000000000, -0.2382812500, 0.0000000000, 0.0000000000, -0.0000000000, -0.1668701172, -0.1619873047, -0.0000000000, -0.2001953125, 0.0000000000, 0.0000000000, 0.0000000000, -0.1843261719, -0.0000000000, -0.0000000000, 0.2651367188, -0.0000000000, -0.0000000000, -0.0000000000, -0.0000000000, 0.0000000000, -0.0000000000, 0.0000000000, -0.0000000000, -0.1418457031, 0.0000000000, -0.0000000000, 0.0000000000, 0.0000000000, -0.1541748047, -0.0000000000, -0.0000000000, -0.1566162109, -0.0000000000, 0.0000000000, -0.0000000000, -0.0000000000, -0.0000000000, -0.1915283203, -0.3320312500, -0.0000000000, 0.0000000000, -0.1372070312, -0.2261962891, 0.0000000000, -0.0000000000, -0.0000000000, -0.0000000000, -0.1938476562, 0.2048339844, 0.1586914062, 0.0000000000, 0.0000000000, -0.0000000000, 0.0000000000, 0.1419677734, 0.0000000000, 0.0000000000, -0.0000000000, -0.2498779297, 0.0000000000, 0.0000000000, 0.0000000000, 0.0000000000, -0.0000000000, 0.1713867188, 0.0000000000, 0.0000000000, 0.2174072266, -0.0000000000, 0.0000000000, 0.0000000000, -0.0000000000, -0.0000000000, -0.0000000000, 0.1798095703, 0.0000000000, 0.0000000000, 0.0000000000, 0.0000000000, 0.0000000000, 0.0000000000, -0.2181396484, 0.0000000000, -0.2386474609, 0.0000000000, 0.0000000000, 0.1960449219, -0.1925048828, -0.0000000000, -0.0000000000, -0.2296142578, -0.0000000000, 0.0000000000, -0.3339843750, -0.2673339844, -0.0000000000, 0.0000000000, 0.0000000000, -0.0000000000, -0.0000000000, 0.0000000000, -0.2031250000, 0.0000000000, 0.0000000000, 0.0000000000, -0.1536865234, -0.0000000000, -0.0000000000, -0.0000000000, -0.2143554688, -0.0000000000, -0.0000000000, -0.0000000000, 0.1428222656, -0.1610107422, 0.0000000000, -0.0000000000, -0.1641845703, 0.0000000000, -0.2178955078, -0.0000000000, 0.1671142578, 0.0000000000, -0.0000000000, 0.2034912109, 0.0000000000, -0.0000000000, 0.0000000000, 0.0000000000, 0.2709960938, -0.0000000000, -0.1365966797, 0.0000000000, 0.2344970703, -0.0000000000, 0.0000000000, 0.0000000000, 0.0000000000, 0.2575683594, -0.0000000000, 0.1989746094, 0.0000000000, 0.0000000000, -0.0000000000, -0.1712646484, -0.2155761719, 0.0000000000, -0.1706542969, 0.0000000000, -0.0000000000, -0.1918945312, -0.1798095703, 0.0000000000, -0.1872558594, 0.0000000000, 0.0000000000, 0.0000000000, 0.0000000000, -0.0000000000, -0.0000000000, 0.0000000000, -0.2243652344, -0.0000000000, 0.0000000000, -0.0000000000, 0.0000000000, -0.0000000000, -0.0000000000, -0.0000000000, -0.0000000000, -0.0000000000, -0.0000000000, -0.0000000000, 0.0000000000, 0.0000000000, -0.0000000000, -0.0000000000, -0.0000000000, -0.0000000000, -0.0000000000, 0.0000000000, -0.0000000000, 0.2359619141, 0.0000000000, -0.0000000000, -0.0000000000, 0.2283935547, -0.0000000000, -0.1881103516, -0.0000000000, -0.0000000000, -0.2402343750, 0.0000000000, 0.0000000000, -0.0000000000, 0.0000000000, -0.0000000000, -0.0000000000, -0.1695556641, 0.0000000000, -0.0000000000, -0.0000000000, 0.0000000000, 0.2100830078, -0.0000000000, 0.1829833984, -0.0000000000, -0.0000000000, 0.2961425781, 0.0000000000, -0.0000000000, -0.0000000000, 0.0000000000, 0.1968994141, 0.0000000000, -0.2053222656, -0.1828613281, -0.3432617188, 0.1854248047, -0.1437988281, 0.0000000000, -0.2196044922, 0.0000000000, 0.1413574219, 0.0000000000, -0.0000000000, 0.0000000000, -0.0000000000, -0.1868896484, 0.0000000000, -0.0000000000, 0.0000000000, -0.0000000000, 0.0000000000, -0.0000000000, 0.0000000000, -0.0000000000, -0.0000000000, 0.0000000000, -0.0000000000, -0.0000000000, -0.0000000000, -0.0000000000, -0.1634521484, -0.0000000000, -0.0000000000, -0.0000000000, -0.0000000000, -0.2939453125, -0.0000000000, -0.0000000000, -0.2288818359, 0.0000000000, 0.1907958984, -0.0000000000, -0.0000000000, 0.1862792969, -0.0000000000, -0.0000000000, 0.0000000000, -0.2170410156, 0.0000000000, 0.0000000000, -0.0000000000, -0.0000000000, -0.0000000000, -0.0000000000, -0.0000000000, -0.0000000000, -0.2141113281, 0.1419677734, 0.0000000000, -0.1810302734, 0.1595458984, -0.0000000000, 0.0000000000, -0.0000000000, 0.1990966797, 0.0000000000, 0.1658935547, -0.0000000000, -0.0000000000, -0.0000000000, 0.0000000000, -0.1787109375, -0.0000000000, 0.0000000000, 0.0000000000, -0.0000000000, 0.0000000000, 0.0000000000, 0.0000000000, -0.0000000000, -0.0000000000, 0.0000000000, 0.1923828125, -0.1942138672, -0.1774902344, -0.1669921875, -0.0000000000, 0.0000000000, -0.0000000000, 0.0000000000, -0.1374511719, -0.1691894531, -0.2224121094, -0.2521972656, -0.0000000000, 0.1859130859, -0.2104492188, -0.2687988281, -0.2225341797, -0.0000000000, 0.0000000000, 0.0000000000, -0.0000000000, 0.1699218750, 0.2163085938, -0.0000000000, 0.0000000000, -0.0000000000, -0.1573486328, 0.0000000000, -0.0000000000, -0.1390380859, -0.0000000000, 0.2773437500, -0.0000000000, 0.0000000000, -0.1605224609, 0.0000000000, -0.0000000000, -0.0000000000, -0.0000000000, -0.0000000000, 0.0000000000, 0.0000000000, 0.1661376953, 0.0000000000, -0.0000000000, 0.1693115234, -0.0000000000, 0.0000000000, -0.0000000000, 0.0000000000, 0.0000000000, 0.0000000000, -0.0000000000, -0.2182617188, -0.0000000000, -0.0000000000, -0.0000000000, 0.1761474609, -0.2386474609, -0.0000000000, -0.0000000000, -0.2403564453, -0.0000000000, 0.2895507812, 0.0000000000, -0.0000000000, -0.1773681641, -0.0000000000, -0.2832031250, -0.0000000000, 0.0000000000, 0.1837158203, 0.1586914062, 0.0000000000, 0.0000000000, -0.2209472656, -0.2088623047, -0.0000000000, 0.0000000000, -0.0000000000, -0.1907958984, -0.0000000000, 0.0000000000, -0.0000000000, -0.2568359375, 0.0000000000, 0.0000000000, -0.2097167969, -0.2329101562, -0.0000000000, -0.0000000000, 0.0000000000, -0.0000000000, 0.1794433594, -0.2624511719, 0.0000000000, 0.0000000000, -0.0000000000, 0.2695312500, 0.0000000000, -0.0000000000, -0.1464843750, -0.0000000000, 0.0000000000, -0.0000000000, -0.0000000000, -0.0000000000, -0.0000000000, -0.0000000000, -0.0000000000, 0.0000000000, -0.0000000000, 0.0000000000, 0.0000000000, 0.0000000000, -0.1878662109, -0.0000000000, -0.2937011719, 0.1724853516, -0.0000000000, -0.0000000000, -0.2161865234, 0.2438964844, -0.0000000000, -0.0000000000, -0.0000000000, -0.0000000000, -0.1650390625, -0.0000000000, 0.0000000000, 0.1490478516, -0.0000000000, -0.0000000000, 0.0000000000, 0.0000000000, 0.0000000000, 0.0000000000, 0.0000000000, 0.0000000000, -0.0000000000, 0.0000000000, 0.1909179688, 0.0000000000, -0.1610107422, -0.0000000000, -0.0000000000, 0.0000000000, 0.1453857422, 0.0000000000, -0.1762695312, -0.1430664062, 0.0000000000, 0.1693115234, -0.0000000000, -0.0000000000, 0.0000000000, -0.0000000000, 0.2624511719, -0.0000000000, 0.0000000000, -0.0000000000, 0.0000000000, 0.0000000000, 0.2137451172, -0.0000000000, -0.0000000000, -0.1898193359, 0.0000000000, -0.0000000000, -0.2437744141, -0.0000000000, -0.0000000000, 0.0000000000, -0.0000000000, 0.0000000000, 0.1929931641, 0.0000000000, -0.0000000000, 0.0000000000, 0.1821289062, -0.0000000000, 0.0000000000, 0.0000000000, -0.0000000000, -0.0000000000, 0.0000000000, 0.0000000000, -0.0000000000, -0.0000000000, -0.0000000000, 0.1812744141, 0.0000000000, 0.1917724609, 0.2047119141, -0.0000000000, -0.2419433594, -0.2054443359, -0.0000000000, 0.0000000000, 0.1921386719, 0.2337646484, 0.0000000000, 0.0000000000, -0.0000000000, 0.0000000000, 0.0000000000, 0.0000000000, 0.1932373047, -0.0000000000, 0.0000000000, 0.0000000000, -0.0000000000, -0.1459960938, -0.0000000000, 0.0000000000, -0.0000000000, 0.0000000000, -0.0000000000, 0.0000000000, 0.1512451172, -0.0000000000, 0.0000000000, -0.0000000000, 0.0000000000, 0.0000000000, -0.0000000000, -0.0000000000, 0.0000000000, 0.1766357422, -0.0000000000, -0.0000000000, 0.0000000000, -0.0000000000, -0.0000000000, -0.0000000000, -0.0000000000, -0.1877441406, -0.1700439453, 0.0000000000, 0.0000000000, 0.1658935547, -0.0000000000, 0.2025146484, -0.0000000000, 0.2089843750, -0.0000000000, -0.2016601562, -0.0000000000, 0.0000000000, -0.0000000000, 0.1547851562, -0.0000000000, -0.0000000000, -0.0000000000, -0.0000000000, 0.0000000000, -0.0000000000, -0.0000000000, -0.0000000000, 0.0000000000, 0.0000000000, 0.1683349609, 0.3603515625, 0.0000000000, -0.1691894531, 0.0000000000, -0.0000000000, 0.0000000000, -0.0000000000, -0.0000000000, 0.0000000000, -0.0000000000, -0.0000000000, -0.1979980469, 0.2286376953, 0.0000000000, -0.1997070312, -0.0000000000, -0.0000000000, -0.0000000000, -0.0000000000, -0.0000000000, -0.0000000000, -0.0000000000, -0.0000000000, -0.0000000000, -0.0000000000, -0.0000000000, 0.0000000000, -0.0000000000, 0.0000000000, -0.0000000000, 0.0000000000, 0.0000000000, 0.0000000000, 0.0000000000, 0.0000000000, 0.0000000000, 0.1646728516, -0.1528320312, -0.0000000000, -0.2052001953, 0.2100830078, 0.0000000000, 0.1563720703, -0.0000000000, -0.0000000000, -0.0000000000, -0.0000000000, 0.0000000000, 0.1784667969, -0.1573486328, 0.1658935547, 0.0000000000, -0.0000000000, 0.1629638672, -0.0000000000, 0.0000000000, 0.2204589844, 0.0000000000, 0.0000000000, 0.1506347656, 0.1949462891, -0.0000000000, 0.0000000000, -0.0000000000, -0.0000000000, -0.0000000000, -0.0000000000, 0.0000000000, 0.0000000000, 0.0000000000, 0.0000000000, -0.0000000000, 0.0000000000, -0.0000000000, 0.0000000000, 0.0000000000, 0.0000000000, -0.0000000000, -0.0000000000, -0.0000000000, 0.0000000000, -0.0000000000, -0.3291015625, 0.0000000000, -0.2149658203, 0.0000000000, -0.1890869141, -0.2915039062, 0.0000000000, 0.0000000000, 0.1971435547, -0.0000000000, -0.0000000000, -0.0000000000, -0.0000000000, -0.0000000000, -0.0000000000, 0.0000000000, 0.0000000000, -0.0000000000, 0.0000000000, 0.2147216797, 0.0000000000, 0.0000000000, 0.0000000000, -0.0000000000, -0.0000000000, -0.0000000000, 0.2304687500, -0.0000000000, -0.1623535156, -0.2291259766, 0.0000000000, 0.2116699219, 0.0000000000, -0.2578125000, -0.1413574219, -0.0000000000, 0.1385498047, -0.1905517578, -0.0000000000, -0.1607666016, 0.0000000000, 0.0000000000, 0.0000000000, 0.0000000000, -0.1604003906, -0.1408691406, -0.0000000000, 0.0000000000, 0.0000000000, 0.0000000000, -0.0000000000, 0.0000000000, -0.2199707031, -0.0000000000, 0.0000000000, -0.0000000000, -0.2144775391, -0.0000000000, 0.0000000000, 0.0000000000, 0.0000000000, -0.1958007812, -0.0000000000, 0.0000000000, 0.0000000000, -0.0000000000, 0.0000000000, 0.0000000000, -0.0000000000, -0.0000000000, -0.0000000000, -0.0000000000, -0.0000000000, 0.0000000000, -0.1760253906, -0.0000000000, 0.0000000000, -0.0000000000, 0.1625976562, -0.0000000000, -0.1668701172, -0.1704101562, -0.0000000000, 0.0000000000, -0.2502441406, 0.0000000000, -0.2202148438, 0.0000000000, 0.0000000000, 0.1585693359, -0.2037353516, 0.0000000000, -0.2108154297, -0.0000000000, 0.1527099609, -0.0000000000, 0.2414550781, -0.0000000000, -0.1864013672, -0.0000000000, 0.0000000000, -0.0000000000, -0.0000000000, 0.0000000000, -0.2136230469, -0.0000000000, -0.0000000000, -0.0000000000, -0.0000000000, 0.0000000000, -0.0000000000, -0.1923828125, -0.2329101562, 0.0000000000, 0.1763916016, -0.0000000000, 0.1870117188, 0.1262207031, 0.0000000000, 0.0000000000, 0.0000000000, -0.0000000000, 0.0000000000, 0.0000000000, -0.0000000000, -0.0000000000, -0.0000000000, -0.0000000000, 0.0000000000, -0.0000000000, 0.1479492188, -0.2309570312, 0.0000000000, 0.0000000000, 0.2093505859, -0.1968994141, -0.0000000000, -0.0000000000, 0.0000000000, 0.0000000000, -0.2646484375, 0.2470703125, -0.0000000000, 0.0000000000, -0.0000000000, -0.0000000000, -0.0000000000, 0.1763916016, 0.0000000000, -0.2004394531, 0.0000000000, -0.1809082031, -0.1959228516, 0.0000000000, -0.0000000000, 0.0000000000, -0.1451416016, 0.0000000000, 0.0000000000, 0.1888427734, -0.1879882812, -0.0000000000, -0.2355957031, -0.0000000000, -0.1968994141, 0.0000000000, 0.2285156250, -0.0000000000, -0.0000000000, 0.0000000000, 0.0000000000, 0.0000000000, 0.0000000000, 0.1473388672, -0.0000000000, -0.0000000000, 0.0000000000, 0.0000000000, 0.2401123047, 0.0000000000, 0.0000000000, 0.1541748047, 0.0000000000, -0.0000000000, 0.1871337891, 0.0000000000, -0.1798095703, -0.2832031250, -0.0000000000, -0.2453613281, 0.1450195312, 0.0000000000, 0.0000000000, 0.1489257812, -0.0000000000, 0.0000000000, -0.0000000000, 0.1717529297, -0.2243652344, -0.0000000000, -0.0000000000, -0.1993408203, 0.0000000000, -0.0000000000, 0.0000000000, 0.0000000000, 0.0000000000, 0.0000000000, 0.0000000000, 0.0000000000, 0.0000000000, -0.2257080078, -0.0000000000, 0.0000000000, -0.1547851562, -0.0000000000, 0.0000000000, -0.0000000000, 0.1639404297, 0.0000000000, -0.1593017578, -0.0000000000, 0.0000000000, -0.0000000000, 0.1881103516, 0.0000000000, -0.0000000000, -0.0000000000, 0.1928710938, 0.0000000000, -0.0000000000, 0.0000000000, -0.0000000000, -0.0000000000, -0.0000000000, -0.0000000000, -0.1505126953, 0.0000000000, 0.0000000000, -0.0000000000, 0.0000000000, -0.0000000000, -0.2626953125, 0.0000000000, -0.0000000000, 0.0000000000, 0.0000000000, 0.1997070312, -0.0000000000, 0.1270751953, 0.2668457031, -0.0000000000, 0.0000000000, -0.2303466797, -0.1616210938, -0.0000000000, -0.2636718750, -0.0000000000, 0.1684570312, -0.0000000000, -0.0000000000, 0.0000000000, -0.0000000000, 0.0000000000, 0.0000000000, -0.0000000000, 0.1904296875, 0.1623535156, -0.2265625000, 0.0000000000, -0.2609863281, 0.2490234375, 0.1658935547, -0.0000000000, -0.0000000000, -0.1333007812, -0.2536621094, 0.0000000000, -0.2169189453, 0.0000000000, -0.0000000000, -0.0000000000, -0.0000000000, -0.0000000000, -0.0000000000, -0.2232666016, 0.0000000000, -0.2963867188, -0.0000000000, -0.0000000000, 0.1385498047, -0.0000000000, 0.0000000000, 0.0000000000, 0.0000000000, 0.0000000000, 0.0000000000, 0.0000000000, 0.0000000000, 0.0000000000, 0.2524414062, -0.1710205078, -0.0000000000, -0.0000000000, 0.0000000000, 0.0000000000, 0.0000000000, -0.2337646484, 0.0000000000, 0.0000000000, 0.1663818359, 0.0000000000, 0.0000000000, -0.2175292969, -0.1876220703, 0.0000000000, -0.1936035156, -0.1928710938, 0.0000000000, 0.0000000000, -0.0000000000, 0.0000000000, 0.0000000000, 0.2006835938, 0.2148437500, -0.1746826172, 0.0000000000, 0.0000000000, -0.0000000000, -0.2341308594, -0.0000000000, 0.0000000000, -0.0000000000, -0.2344970703, 0.0000000000, 0.0000000000, 0.0000000000, 0.0000000000, 0.0000000000, -0.0000000000, -0.0000000000, 0.0000000000, -0.1593017578, -0.0000000000, -0.2453613281, -0.1981201172, 0.0000000000, 0.0000000000, -0.0000000000, -0.0000000000, 0.1401367188, 0.2489013672, -0.0000000000, 0.0000000000, -0.1795654297, -0.0000000000, 0.0000000000, -0.0000000000, 0.1929931641, 0.0000000000, -0.0000000000, -0.0000000000, 0.1541748047, -0.0000000000, -0.1435546875, -0.1645507812, 0.2055664062, -0.1707763672, 0.0000000000, -0.1999511719, 0.1961669922, 0.1964111328, -0.0000000000, 0.0000000000, 0.0000000000, -0.1408691406, 0.2403564453, 0.0000000000, 0.2343750000, -0.2308349609, -0.0000000000, 0.1527099609, -0.0000000000, 0.1469726562, 0.0000000000, 0.0000000000, 0.0000000000, -0.1954345703, -0.2449951172, 0.0000000000, -0.0000000000, 0.0000000000, 0.0000000000, -0.0000000000, 0.0000000000, -0.1691894531, 0.0000000000, -0.0000000000, -0.0000000000, -0.1940917969, 0.0000000000, -0.0000000000, 0.0000000000, -0.0000000000, 0.0000000000, 0.0000000000, -0.2199707031, -0.0000000000, -0.2727050781, -0.0000000000, 0.1638183594, -0.0000000000, 0.0000000000, 0.0000000000, 0.0000000000, 0.0000000000, -0.1499023438, -0.3044433594, -0.1363525391, 0.0000000000, -0.0000000000, -0.0000000000, -0.0000000000, -0.0000000000, 0.2221679688, -0.2100830078, -0.0000000000, 0.1748046875, 0.0000000000, 0.0000000000, 0.0000000000, 0.0000000000, 0.1965332031, -0.1727294922, -0.0000000000, 0.0000000000, -0.2022705078, -0.0000000000, -0.0000000000, -0.2812500000, 0.1333007812, -0.1744384766, -0.2205810547, -0.0000000000, 0.0000000000, 0.0000000000, -0.0000000000, -0.0000000000, -0.0000000000, -0.1552734375, -0.0000000000, -0.0000000000, 0.0000000000, 0.2595214844, 0.0000000000, 0.0000000000, 0.1237792969, 0.0000000000, 0.1838378906, 0.0000000000, -0.2174072266, -0.1466064453, -0.0000000000, -0.0000000000, -0.0000000000, -0.0000000000, 0.0000000000, -0.0000000000, 0.0000000000, -0.1884765625, 0.0000000000, 0.0000000000, -0.0000000000, 0.2526855469, -0.1406250000, -0.0000000000, -0.0000000000, -0.0000000000, 0.2142333984, -0.0000000000, 0.0000000000, -0.0000000000, 0.2008056641, 0.2416992188, 0.0000000000, -0.0000000000, -0.0000000000, 0.0000000000, 0.0000000000, 0.0000000000, 0.0000000000, 0.1491699219, -0.0000000000, 0.0000000000, 0.0000000000, -0.0000000000, -0.0000000000, -0.0000000000, 0.0000000000, 0.0000000000, 0.0000000000, 0.0000000000, 0.0000000000, -0.0000000000, -0.0000000000, 0.0000000000, -0.1630859375, 0.0000000000, 0.0000000000, -0.0000000000, 0.0000000000, 0.2519531250, 0.0000000000, 0.0000000000, -0.2263183594, -0.2397460938, 0.0000000000, -0.1761474609, 0.0000000000, -0.0000000000, -0.0000000000, -0.0000000000, 0.1528320312, 0.0000000000, 0.1446533203, 0.2026367188, -0.1666259766, -0.0000000000, -0.0000000000, 0.0000000000, 0.0000000000, -0.0000000000, -0.1455078125, 0.1582031250, -0.1789550781, 0.0000000000, 0.0000000000, 0.0000000000, -0.1849365234, -0.0000000000, 0.0000000000, -0.0000000000, -0.0000000000, 0.0000000000, 0.0000000000, -0.0000000000, 0.0000000000, -0.0000000000, -0.2447509766, 0.0000000000, -0.0000000000, 0.0000000000, -0.0000000000, 0.0000000000, 0.0000000000, 0.0000000000, 0.0000000000, -0.1630859375, -0.0000000000, 0.0000000000, 0.0000000000, -0.1573486328, 0.1965332031, 0.0000000000, 0.0000000000, 0.0000000000, 0.2144775391, -0.0000000000, 0.0000000000, 0.0000000000, -0.1665039062, 0.0000000000, -0.1922607422, -0.1879882812, 0.0000000000, -0.1799316406, 0.0000000000, -0.1365966797, 0.1822509766, 0.0000000000, 0.0000000000, 0.0000000000, -0.1453857422, -0.0000000000, -0.0000000000, -0.1578369141, -0.2178955078, 0.0000000000, -0.0000000000, 0.1601562500, 0.2128906250, -0.1613769531, -0.2226562500, -0.0000000000, -0.0000000000, -0.0000000000, 0.2260742188, 0.0000000000, 0.0000000000, -0.0000000000, 0.0000000000, 0.0000000000, -0.2548828125, -0.2294921875, -0.1851806641, -0.0000000000, 0.0000000000, -0.0000000000, -0.0000000000, -0.2998046875, -0.0000000000, 0.0000000000, -0.0000000000, -0.0000000000, 0.0000000000, 0.2944335938, -0.1738281250, -0.1492919922, -0.2381591797, 0.0000000000, -0.1835937500, 0.0000000000, 0.0000000000, 0.0000000000, 0.0000000000, -0.1781005859, -0.0000000000, -0.1479492188, 0.0000000000, -0.0000000000, -0.0000000000, 0.2094726562, 0.0000000000, -0.1568603516, -0.0000000000, -0.0000000000, 0.0000000000, 0.0000000000, -0.2218017578, 0.0000000000, 0.2419433594, 0.1732177734, 0.0000000000, -0.0000000000, 0.2429199219, -0.0000000000, -0.0000000000, 0.0000000000, 0.0000000000, -0.0000000000, -0.0000000000, 0.1588134766, -0.0000000000, -0.1644287109, -0.1744384766, 0.0000000000, -0.0000000000, -0.0000000000, -0.1965332031, -0.3493652344, -0.0000000000, 0.0000000000, 0.1922607422, 0.0000000000, -0.0000000000, 0.2460937500, -0.2561035156, -0.1907958984, 0.1967773438, -0.0000000000, 0.0000000000, -0.0000000000, -0.1751708984, 0.0000000000, 0.0000000000, 0.0000000000, -0.2135009766, -0.2558593750, 0.0000000000, -0.0000000000, -0.1989746094, -0.2432861328, 0.0000000000, 0.0000000000, -0.0000000000, -0.0000000000, 0.2243652344, 0.0000000000, 0.0000000000, -0.0000000000, 0.0000000000, 0.0000000000, -0.2180175781, -0.0000000000, -0.1584472656, -0.0000000000, -0.1490478516, 0.0000000000, 0.0000000000, -0.2526855469, -0.2081298828, 0.0000000000, 0.0000000000, 0.0000000000, -0.0000000000, -0.1435546875, 0.0000000000, -0.1752929688, -0.0000000000, 0.0000000000, 0.0000000000, -0.0000000000, 0.0000000000, 0.0000000000, -0.0000000000, -0.0000000000, 0.0000000000, 0.0000000000, 0.2180175781, -0.2070312500, 0.1629638672, -0.0000000000, 0.0000000000, -0.0000000000, -0.0000000000, 0.1813964844, -0.0000000000, -0.1975097656, -0.0000000000, -0.0000000000, -0.1833496094, -0.0000000000, -0.0000000000, 0.0000000000, -0.0000000000, -0.0000000000, -0.0000000000, 0.0000000000, -0.0000000000, 0.0000000000, -0.2678222656, -0.0000000000, 0.0000000000, 0.0000000000, -0.0000000000, -0.2327880859, -0.1558837891, -0.0000000000, -0.2902832031, 0.0000000000, 0.0000000000, 0.0000000000, 0.1413574219, -0.0000000000, -0.2384033203, -0.0000000000, -0.0000000000, 0.0000000000, -0.2578125000, 0.0000000000, -0.0000000000, 0.0000000000, -0.0000000000, -0.0000000000, -0.2961425781, -0.1887207031, -0.1842041016, -0.0000000000, 0.0000000000, -0.0000000000, -0.0000000000, 0.0000000000, -0.0000000000, 0.0000000000, -0.0000000000, 0.0000000000, 0.0000000000, 0.2590332031, 0.0000000000, -0.2160644531, -0.0000000000, -0.0000000000, -0.0000000000, -0.0000000000, -0.0000000000, -0.1301269531, -0.0000000000, -0.0000000000, -0.0000000000, -0.2543945312, 0.0000000000, -0.0000000000, -0.2108154297, -0.0000000000, 0.0000000000, -0.0000000000, -0.1778564453, -0.0000000000, 0.0000000000, -0.0000000000, -0.0000000000, -0.0000000000, 0.0000000000, -0.0000000000, -0.0000000000, 0.0000000000, 0.0000000000, 0.0000000000, 0.0000000000, 0.0000000000, 0.2653808594, -0.1572265625, -0.0000000000, -0.0000000000, -0.0000000000, -0.0000000000, -0.0000000000, -0.0000000000, 0.0000000000, 0.0000000000, 0.0000000000, -0.0000000000, 0.0000000000, -0.3098144531, -0.0000000000, 0.0000000000, -0.0000000000, -0.0000000000, 0.2436523438, 0.2283935547, -0.0000000000, -0.0000000000, -0.0000000000, -0.1401367188, 0.0000000000, 0.0000000000, -0.0000000000, 0.1566162109, 0.0000000000, 0.0000000000, -0.1518554688, -0.0000000000, -0.0000000000, 0.0000000000, 0.1676025391, -0.0000000000, -0.0000000000, -0.0000000000, -0.0000000000, -0.0000000000, -0.0000000000, -0.0000000000, 0.0000000000, 0.0000000000, -0.1494140625, 0.0000000000, -0.0000000000, -0.0000000000, 0.1506347656, -0.0000000000, 0.0000000000, 0.0000000000, -0.0000000000, 0.0000000000, 0.0000000000, 0.1694335938, -0.0000000000, -0.0000000000, -0.0000000000, 0.2124023438, -0.2207031250, 0.1621093750, -0.0000000000, 0.0000000000, 0.0000000000, -0.1759033203, -0.0000000000, -0.0000000000, -0.0000000000, -0.0000000000, -0.1812744141, -0.0000000000, 0.1762695312, -0.0000000000, -0.0000000000, 0.1258544922, -0.0000000000, 0.0000000000, -0.0000000000, -0.0000000000, -0.0000000000, -0.1744384766, 0.0000000000, -0.0000000000, -0.0000000000, 0.0000000000, 0.1914062500, -0.0000000000, 0.0000000000, 0.0000000000, 0.0000000000, -0.0000000000, 0.0000000000, -0.0000000000, 0.0000000000, -0.0000000000, 0.0000000000, 0.0000000000, 0.0000000000, 0.2705078125, 0.0000000000, 0.2968750000, -0.0000000000, -0.0000000000, -0.0000000000, -0.2141113281, 0.0000000000, -0.1977539062, -0.0000000000, 0.0000000000, -0.0000000000, -0.0000000000, -0.0000000000, 0.0000000000, 0.0000000000, 0.1728515625, -0.0000000000, -0.0000000000, 0.0000000000, -0.0000000000, -0.0000000000, -0.2702636719, -0.0000000000, 0.0000000000, -0.0000000000, -0.0000000000, -0.1859130859, 0.0000000000, -0.0000000000, -0.0000000000, 0.2436523438, -0.0000000000, -0.0000000000, -0.0000000000, -0.0000000000, 0.1418457031, -0.0000000000, 0.0000000000, 0.0000000000, 0.0000000000, 0.0000000000, 0.0000000000, -0.0000000000, -0.1928710938, 0.0000000000, 0.2257080078, -0.0000000000, -0.1573486328, 0.0000000000, -0.0000000000, 0.0000000000, -0.1901855469, 0.0000000000, -0.0000000000, -0.2073974609, 0.0000000000, -0.0000000000, -0.0000000000, -0.2719726562, 0.0000000000, 0.0000000000, -0.0000000000, -0.0000000000, 0.1713867188, -0.1566162109, 0.1705322266, 0.0000000000, 0.0000000000, -0.1423339844, 0.0000000000, -0.0000000000, -0.1573486328, 0.0000000000, 0.1987304688, -0.0000000000, -0.0000000000, -0.0000000000, 0.1916503906, -0.0000000000, 0.0000000000, -0.0000000000, 0.0000000000, -0.0000000000, -0.0000000000, -0.0000000000, 0.0000000000, -0.0000000000, -0.0000000000, -0.0000000000, 0.0000000000, -0.1417236328, -0.4094238281, -0.1910400391, 0.1907958984, -0.2519531250, 0.1820068359, -0.2203369141, 0.0000000000, 0.0000000000, -0.0000000000, 0.0000000000, -0.0000000000, -0.1386718750, -0.1906738281, 0.0000000000, -0.0000000000, -0.0000000000, -0.0000000000, -0.2229003906, 0.2108154297, 0.1469726562, -0.1719970703, -0.2489013672, 0.1455078125, 0.0000000000, -0.0000000000, -0.0000000000, 0.0000000000, -0.0000000000, -0.0000000000, 0.0000000000, 0.0000000000, -0.0000000000, -0.2054443359, 0.0000000000, -0.1695556641, -0.0000000000, -0.1430664062, -0.1512451172, 0.1693115234, -0.2044677734, -0.0000000000, -0.0000000000, -0.1379394531, 0.0000000000, 0.1809082031, 0.0000000000, -0.0000000000, 0.0000000000, -0.0000000000, 0.0000000000, 0.0000000000, -0.2187500000, 0.0000000000, 0.0000000000, -0.2062988281, -0.0000000000, 0.0000000000, 0.0000000000, 0.1843261719, -0.0000000000, -0.3303222656, 0.0000000000, -0.2121582031, -0.0000000000, -0.1894531250, 0.1965332031, -0.2590332031, -0.2524414062, -0.1730957031, 0.1789550781, 0.1330566406, -0.0000000000, 0.0000000000, -0.0000000000, 0.0000000000, 0.0000000000, -0.2548828125, -0.1599121094, -0.0000000000, -0.0000000000, 0.2958984375, -0.0000000000, -0.0000000000, 0.0000000000, 0.0000000000, 0.0000000000, 0.0000000000, -0.0000000000, 0.2866210938, -0.0000000000, 0.0000000000, 0.0000000000, -0.0000000000, 0.0000000000, 0.0000000000, 0.0000000000, -0.0000000000, -0.2722167969, -0.0000000000, 0.3041992188, -0.0000000000, -0.0000000000, 0.0000000000, -0.0000000000, -0.0000000000, 0.0000000000, -0.0000000000, -0.0000000000, 0.0000000000, -0.0000000000, 0.0000000000, -0.0000000000, -0.2819824219, -0.2037353516, -0.1733398438, 0.0000000000, 0.0000000000, -0.2133789062, -0.0000000000, 0.0000000000, 0.1785888672, -0.3044433594, -0.2932128906, -0.0000000000, 0.0000000000, -0.0000000000, -0.1684570312, 0.0000000000, -0.0000000000, -0.0000000000, 0.0000000000, -0.2231445312, -0.1666259766, 0.0000000000, 0.0000000000, 0.0000000000, 0.0000000000, -0.0000000000, -0.0000000000, -0.0000000000, -0.0000000000, 0.2160644531, 0.0000000000, 0.2534179688, -0.0000000000, 0.0000000000, -0.0000000000, -0.2203369141, 0.0000000000, -0.2583007812, 0.0000000000, 0.0000000000, -0.0000000000, 0.0000000000, -0.2225341797, -0.0000000000, 0.0000000000, -0.0000000000, -0.2388916016, -0.0000000000, 0.0000000000, 0.0000000000, -0.2237548828, -0.0000000000, -0.1632080078, 0.0000000000, -0.0000000000, -0.0000000000, -0.2814941406, -0.0000000000, -0.2634277344, -0.0000000000, 0.0000000000, 0.0000000000, 0.0000000000, 0.1721191406, 0.0000000000, 0.0000000000, 0.0000000000, -0.0000000000, 0.0000000000, 0.0000000000, 0.1794433594, -0.0000000000, -0.2519531250, -0.1784667969, 0.1947021484, -0.1835937500, -0.0000000000, 0.0000000000, -0.0000000000, 0.0000000000, 0.1756591797, 0.0000000000, 0.1678466797, -0.0000000000, -0.0000000000, -0.0000000000, -0.0000000000, 0.1572265625, 0.1568603516, 0.1604003906, 0.0000000000, -0.0000000000, 0.0000000000, -0.0000000000, 0.1816406250, 0.1871337891, 0.0000000000, -0.0000000000, -0.0000000000, 0.0000000000, 0.0000000000, 0.2329101562, -0.0000000000, -0.0000000000, 0.0000000000, 0.2185058594, 0.0000000000, 0.0000000000, -0.0000000000, 0.1645507812, 0.0000000000, -0.1662597656, 0.0000000000, -0.0000000000, 0.0000000000, 0.0000000000, -0.0000000000, -0.1660156250, -0.0000000000, -0.1676025391, 0.0000000000, 0.0000000000, -0.0000000000, 0.0000000000, -0.0000000000, 0.0000000000, -0.0000000000, -0.2049560547, -0.0000000000, -0.0000000000, -0.0000000000, 0.2612304688, -0.1373291016, -0.0000000000, -0.0000000000, -0.1346435547, -0.0000000000, -0.0000000000, -0.2203369141, -0.0000000000, -0.2653808594, 0.0000000000, -0.0000000000, -0.0000000000, 0.0000000000, 0.2172851562, -0.0000000000, 0.1519775391, -0.2226562500, -0.0000000000, -0.0000000000, 0.0000000000, 0.1424560547, 0.0000000000, -0.0000000000, 0.0000000000, -0.3020019531, 0.0000000000, 0.2049560547, -0.1628417969, 0.0000000000, -0.0000000000, -0.2326660156, -0.1977539062, 0.0000000000, 0.1993408203, 0.1733398438, -0.2580566406, 0.2988281250, 0.0000000000, -0.2575683594, -0.0000000000, -0.0000000000, 0.0000000000, -0.2360839844, 0.0000000000, -0.0000000000, -0.0000000000, -0.0000000000, -0.0000000000, 0.0000000000, -0.1665039062, 0.1451416016, -0.2854003906, 0.0000000000, -0.2485351562, -0.0000000000, -0.2397460938, -0.1738281250, -0.0000000000, -0.0000000000, -0.1958007812, -0.3894042969, -0.2592773438, -0.2819824219, -0.0000000000, 0.0000000000, -0.1883544922, 0.1441650391, -0.0000000000, 0.0000000000, -0.0000000000, 0.1856689453, -0.2469482422, -0.1613769531, -0.0000000000, -0.0000000000, 0.1956787109, 0.1732177734, -0.0000000000, 0.1934814453, -0.2398681641, -0.0000000000, -0.0000000000, 0.0000000000, -0.0000000000, -0.0000000000, -0.0000000000, 0.2237548828, -0.0000000000, 0.0000000000, -0.2500000000, -0.0000000000, -0.2822265625, 0.0000000000, -0.0000000000, -0.0000000000, 0.1883544922, 0.2276611328, 0.0000000000, -0.0000000000, -0.0000000000, 0.0000000000, 0.0000000000, 0.0000000000, 0.0000000000, 0.2186279297, -0.0000000000, 0.0000000000, -0.0000000000, -0.0000000000, -0.2744140625, -0.0000000000, 0.1535644531, -0.0000000000, -0.0000000000, -0.0000000000, -0.0000000000, 0.2025146484, 0.1937255859, -0.0000000000, 0.0000000000, -0.3356933594, 0.0000000000, -0.1861572266, -0.0000000000, -0.0000000000, -0.0000000000, -0.0000000000, -0.1545410156, 0.0000000000, -0.0000000000, -0.2493896484, 0.0000000000, -0.1966552734, 0.2053222656, 0.0000000000, -0.0000000000, -0.0000000000, -0.1665039062, 0.0000000000, 0.2110595703, -0.1672363281, 0.0000000000, -0.0000000000, -0.0000000000, 0.2242431641, 0.0000000000, 0.0000000000, -0.0000000000, -0.0000000000, -0.0000000000, 0.0000000000, -0.2338867188, -0.1884765625, -0.0000000000, 0.0000000000, -0.0000000000, -0.0000000000, -0.0000000000, -0.0000000000, 0.0000000000, 0.0000000000, -0.0000000000, -0.0000000000, -0.0000000000, -0.3190917969, -0.0000000000, -0.0000000000, 0.0000000000, 0.0000000000, -0.0000000000, -0.2814941406, 0.0000000000, -0.0000000000, 0.0000000000, 0.0000000000, 0.0000000000, -0.0000000000, -0.1903076172, 0.2304687500, -0.2880859375, 0.2059326172, 0.1972656250, -0.1561279297, 0.1881103516, -0.0000000000, 0.0000000000, 0.0000000000, -0.0000000000, -0.0000000000, -0.0000000000, -0.0000000000, 0.0000000000, -0.0000000000, 0.2585449219, 0.1993408203, 0.2275390625, -0.0000000000, -0.0000000000, 0.0000000000, 0.1712646484, 0.0000000000, 0.0000000000, 0.0000000000, -0.2242431641, 0.0000000000, -0.0000000000, -0.0000000000, -0.0000000000, 0.0000000000, -0.0000000000, -0.0000000000, 0.0000000000, -0.0000000000, -0.0000000000, -0.1768798828, -0.1844482422, 0.0000000000, 0.1883544922, 0.0000000000, -0.0000000000, -0.0000000000, -0.1944580078, 0.0000000000, 0.1560058594, 0.0000000000, -0.0000000000, -0.0000000000, 0.0000000000, -0.0000000000, -0.0000000000, 0.0000000000, -0.2160644531, 0.0000000000, -0.0000000000, 0.2131347656, -0.0000000000, -0.1314697266, 0.0000000000, 0.2026367188, 0.0000000000, -0.0000000000, -0.0000000000, -0.0000000000, -0.1499023438, -0.0000000000, 0.0000000000, -0.1878662109, -0.1669921875, 0.0000000000, -0.1905517578, -0.1341552734, -0.0000000000, 0.1942138672, -0.1495361328, 0.0000000000, -0.0000000000, -0.0000000000, 0.0000000000, 0.0000000000, 0.0000000000, -0.0000000000, 0.0000000000, 0.0000000000, -0.0000000000, 0.0000000000, -0.0000000000, 0.1861572266, 0.0000000000, -0.2612304688, -0.1678466797, 0.0000000000, -0.0000000000, -0.0000000000, 0.0000000000, 0.0000000000, 0.0000000000, 0.2139892578, -0.0000000000, -0.2484130859, -0.0000000000, 0.0000000000, 0.0000000000, -0.0000000000, 0.2370605469, -0.2509765625, 0.0000000000, 0.2131347656, -0.1563720703, 0.0000000000, -0.0000000000, -0.2739257812, 0.0000000000, 0.1785888672, -0.0000000000, -0.1501464844, 0.1704101562, 0.1778564453, 0.0000000000, 0.0000000000, -0.0000000000, 0.0000000000, 0.1705322266, -0.0000000000, -0.2089843750, 0.0000000000, 0.0000000000, -0.0000000000, 0.2673339844, -0.0000000000, -0.0000000000, -0.1585693359, -0.0000000000, 0.1909179688, 0.0000000000, -0.2871093750, 0.0000000000, 0.0000000000, -0.2347412109, -0.1872558594, -0.0000000000, 0.0000000000, 0.0000000000, -0.0000000000, -0.0000000000, -0.2469482422, -0.0000000000, 0.0000000000, -0.0000000000, 0.2442626953, 0.0000000000, -0.0000000000, -0.0000000000, -0.0000000000, 0.0000000000, -0.1475830078, -0.0000000000, -0.0000000000, 0.0000000000, 0.0000000000, 0.1357421875, -0.0000000000, 0.0000000000, -0.0000000000, -0.2402343750, 0.0000000000, -0.0000000000, 0.0000000000, -0.0000000000, -0.0000000000, -0.0000000000, 0.0000000000, -0.0000000000, -0.0000000000, -0.0000000000, -0.1718750000, -0.0000000000, -0.1605224609, -0.1835937500, -0.0000000000, 0.1845703125, 0.1755371094, 0.1807861328, -0.0000000000, 0.2332763672, -0.0000000000, 0.0000000000, 0.0000000000, 0.0000000000, -0.0000000000, -0.0000000000, -0.0000000000, 0.2120361328, 0.0000000000, 0.2902832031, -0.0000000000, -0.0000000000, -0.0000000000, 0.2125244141, 0.0000000000, -0.0000000000, -0.0000000000, -0.0000000000, -0.0000000000, 0.0000000000, 0.2077636719, -0.0000000000, 0.2098388672, 0.0000000000, 0.0000000000, -0.0000000000, 0.0000000000, -0.0000000000, -0.0000000000, -0.0000000000, 0.0000000000, -0.2661132812, -0.0000000000, -0.1571044922, 0.0000000000, 0.0000000000, 0.0000000000, 0.0000000000, 0.0000000000, 0.0000000000, 0.2454833984, 0.0000000000, -0.2042236328, 0.0000000000, 0.0000000000, 0.2658691406, 0.1628417969, 0.0000000000, -0.0000000000, 0.0000000000, 0.2778320312, 0.1783447266, -0.3249511719, -0.0000000000, 0.0000000000, 0.0000000000, -0.0000000000, 0.2048339844, -0.0000000000, 0.0000000000, -0.2176513672, -0.0000000000, 0.0000000000, -0.3073730469, -0.2636718750, 0.0000000000, -0.2127685547, -0.0000000000, 0.0000000000, 0.1778564453, -0.1549072266, 0.0000000000, 0.2098388672, 0.2014160156, 0.0000000000, -0.2312011719, 0.1716308594, -0.0000000000, -0.2626953125, 0.0000000000, -0.1597900391, 0.0000000000, 0.0000000000, -0.0000000000, 0.1481933594, -0.0000000000, 0.1696777344, -0.1978759766, 0.0000000000, 0.0000000000, 0.0000000000, -0.2099609375, -0.0000000000, -0.0000000000, 0.0000000000, 0.0000000000, 0.0000000000, 0.0000000000, 0.2077636719, -0.1866455078, -0.0000000000, 0.1666259766, -0.1674804688, -0.2125244141, 0.0000000000, 0.1445312500, 0.0000000000, 0.0000000000, -0.2263183594, -0.2131347656, 0.0000000000, 0.0000000000, 0.0000000000, 0.0000000000, -0.0000000000, -0.0000000000, -0.1835937500, 0.0000000000, 0.1953125000, -0.1839599609, 0.0000000000, -0.0000000000, -0.0000000000, 0.0000000000, 0.0000000000, 0.0000000000, 0.0000000000, -0.0000000000, -0.0000000000, -0.2197265625, -0.2175292969, -0.0000000000, 0.0000000000, -0.2371826172, 0.0000000000, 0.1671142578, 0.0000000000, 0.0000000000, 0.1672363281, -0.0000000000, 0.0000000000, -0.2775878906, 0.2099609375, 0.0000000000, -0.0000000000, -0.0000000000, -0.1727294922, 0.0000000000, -0.1942138672, 0.0000000000, -0.0000000000, -0.0000000000, -0.2427978516, -0.2037353516, 0.0000000000, -0.0000000000, 0.0000000000, -0.0000000000, 0.0000000000, -0.0000000000, 0.1512451172, -0.0000000000, -0.0000000000, 0.0000000000, -0.1566162109, -0.0000000000, -0.1940917969, -0.0000000000, 0.2432861328, -0.0000000000, -0.0000000000, 0.1732177734, 0.0000000000, 0.1799316406, 0.2102050781, 0.0000000000, -0.0000000000, -0.0000000000, -0.0000000000, 0.0000000000, 0.0000000000, 0.0000000000, -0.0000000000, 0.0000000000, -0.2360839844, -0.0000000000, 0.0000000000, -0.0000000000, 0.2048339844, 0.2700195312, -0.0000000000, -0.0000000000, -0.0000000000, 0.0000000000, 0.1553955078, -0.0000000000, 0.0000000000, -0.0000000000, 0.0000000000, -0.0000000000, 0.0000000000, -0.1550292969, 0.0000000000, -0.1955566406, -0.1735839844, -0.0000000000, -0.0000000000, -0.0000000000, -0.0000000000, 0.0000000000, 0.1942138672, -0.0000000000, -0.0000000000, 0.0000000000, -0.0000000000, -0.0000000000, 0.0000000000, -0.0000000000, -0.0000000000, 0.1525878906, 0.0000000000, 0.1663818359, -0.0000000000, -0.0000000000, -0.1955566406, 0.0000000000, 0.1624755859, 0.0000000000, 0.1778564453, -0.0000000000, -0.0000000000, -0.0000000000, 0.0000000000, 0.0000000000, 0.0000000000, -0.0000000000, 0.0000000000, 0.0000000000, -0.1892089844, -0.0000000000, -0.0000000000, -0.0000000000, -0.0000000000, 0.0000000000, -0.0000000000, -0.1396484375, 0.0000000000, 0.0000000000, 0.0000000000, -0.0000000000, -0.0000000000, -0.0000000000, 0.0000000000, -0.0000000000, -0.0000000000, -0.2299804688, 0.0000000000, 0.0000000000, 0.0000000000, 0.0000000000, -0.0000000000, 0.0000000000, -0.0000000000, -0.0000000000, -0.2426757812, -0.0000000000, 0.0000000000, 0.0000000000, -0.0000000000, 0.0000000000, 0.0000000000, -0.0000000000, 0.2182617188, 0.2086181641, 0.0000000000, 0.0000000000, -0.0000000000, 0.0000000000, 0.0000000000, -0.0000000000, 0.0000000000, 0.0000000000, -0.0000000000, -0.2084960938, -0.0000000000, 0.0000000000, 0.2387695312, 0.0000000000, -0.0000000000, 0.1550292969, -0.1649169922, -0.1939697266, 0.2016601562, 0.0000000000, 0.0000000000, -0.0000000000, -0.0000000000, -0.0000000000, -0.0000000000, -0.1954345703, -0.0000000000, -0.1585693359, -0.2260742188, 0.1618652344, -0.2222900391, 0.0000000000, 0.1424560547, 0.0000000000, -0.0000000000, 0.0000000000, -0.0000000000, -0.0000000000, -0.0000000000, 0.1502685547, 0.2017822266, 0.0000000000, -0.0000000000, -0.1799316406, -0.1937255859, -0.0000000000, 0.1599121094, -0.0000000000, -0.1813964844, 0.0000000000, -0.0000000000, 0.1730957031, -0.0000000000, -0.2064208984, -0.0000000000, -0.2014160156, -0.0000000000, -0.0000000000, -0.0000000000, 0.0000000000, 0.1459960938, 0.0000000000, -0.0000000000, 0.1958007812, 0.1809082031, -0.0000000000, 0.1806640625, 0.0000000000, 0.0000000000, -0.1636962891, -0.0000000000, -0.0000000000, -0.2773437500, 0.0000000000, -0.0000000000, 0.0000000000, -0.0000000000, 0.0000000000, -0.0000000000, 0.0000000000, 0.0000000000, -0.2316894531, -0.0000000000, 0.1668701172, 0.0000000000, -0.1605224609, -0.1680908203, 0.2629394531, -0.0000000000, -0.0000000000, -0.2000732422, 0.1530761719, -0.1987304688, 0.0000000000, 0.0000000000, -0.3513183594, -0.0000000000, 0.0000000000, 0.1427001953, 0.0000000000, -0.3630371094, -0.0000000000, -0.0000000000, -0.2191162109, 0.0000000000, 0.0000000000, -0.0000000000, 0.0000000000, -0.0000000000, -0.0000000000, -0.0000000000, 0.0000000000, 0.0000000000, 0.0000000000, -0.0000000000, 0.0000000000, -0.0000000000, 0.1781005859, 0.1347656250, -0.2534179688, -0.1877441406, 0.0000000000, -0.0000000000, -0.1490478516, -0.0000000000, -0.1540527344, 0.2229003906, -0.1325683594, 0.0000000000, 0.2248535156, -0.0000000000, -0.2283935547, -0.0000000000, 0.0000000000, 0.1903076172, 0.1851806641, 0.0000000000, 0.2496337891, -0.0000000000, 0.1802978516, -0.0000000000, -0.0000000000, -0.0000000000, -0.0000000000, -0.0000000000, -0.0000000000, -0.0000000000, 0.0000000000, -0.1585693359, -0.2420654297, -0.0000000000, 0.0000000000, -0.0000000000, 0.1745605469, -0.0000000000, 0.2043457031, 0.0000000000, 0.2412109375, -0.1767578125, -0.0000000000, -0.0000000000, -0.2117919922, 0.0000000000, 0.1666259766, -0.0000000000, -0.0000000000, 0.0000000000, -0.0000000000, -0.0000000000, 0.0000000000, 0.0000000000, -0.0000000000, -0.0000000000, -0.2126464844, -0.0000000000, 0.1898193359, -0.2401123047, -0.0000000000, -0.2349853516, -0.0000000000, 0.0000000000, 0.1623535156, 0.0000000000, -0.0000000000, 0.0000000000, 0.0000000000, -0.0000000000, 0.2310791016, -0.2023925781, -0.1849365234, -0.1832275391, 0.1671142578, -0.1495361328, 0.1806640625, 0.0000000000, -0.0000000000, -0.1669921875, 0.0000000000, 0.0000000000, 0.0000000000};
#endif

#endif
