//Numpy array shape [128, 3]
//Min -0.511230468750
//Max 0.437988281250
//Number of zeros 288

#ifndef W4_H_
#define W4_H_

#ifndef __SYNTHESIS__
model_default_t w4[384];
#else
model_default_t w4[384] = {-0.0000000000, -0.0000000000, 0.0000000000, -0.0000000000, 0.0000000000, -0.0000000000, -0.3886718750, 0.0000000000, 0.0000000000, -0.0000000000, -0.0000000000, 0.3342285156, -0.4125976562, 0.0000000000, 0.0000000000, -0.0000000000, 0.3383789062, -0.0000000000, -0.0000000000, -0.0000000000, 0.3125000000, -0.0000000000, -0.0000000000, 0.0000000000, 0.0000000000, -0.0000000000, -0.0000000000, 0.0000000000, 0.3156738281, -0.4416503906, -0.0000000000, 0.0000000000, -0.2983398438, -0.3718261719, 0.0000000000, 0.3049316406, -0.0000000000, 0.0000000000, -0.3476562500, 0.2766113281, -0.2172851562, -0.3193359375, 0.0000000000, -0.0000000000, -0.0000000000, 0.3532714844, -0.0000000000, -0.0000000000, -0.3725585938, 0.0000000000, 0.0000000000, -0.0000000000, 0.0000000000, -0.3547363281, 0.3974609375, -0.0000000000, -0.0000000000, -0.0000000000, 0.2612304688, -0.2481689453, -0.0000000000, 0.0000000000, 0.0000000000, -0.0000000000, -0.3679199219, 0.0000000000, -0.0000000000, -0.3427734375, 0.0000000000, 0.4379882812, -0.0000000000, -0.0000000000, -0.0000000000, 0.0000000000, -0.0000000000, -0.3046875000, -0.0000000000, 0.0000000000, -0.0000000000, 0.0000000000, -0.0000000000, -0.0000000000, -0.0000000000, 0.3552246094, -0.0000000000, 0.3486328125, -0.0000000000, -0.0000000000, -0.3881835938, 0.0000000000, 0.0000000000, 0.3117675781, -0.3830566406, 0.0000000000, -0.0000000000, -0.0000000000, 0.4052734375, 0.1343994141, -0.0000000000, 0.2125244141, 0.0000000000, -0.0000000000, 0.3911132812, 0.0000000000, -0.0000000000, -0.0000000000, -0.0000000000, 0.0000000000, 0.0000000000, 0.0000000000, 0.0000000000, -0.4267578125, 0.0000000000, 0.2573242188, 0.0000000000, -0.0000000000, -0.0000000000, 0.0000000000, -0.0000000000, -0.0000000000, 0.0000000000, -0.0000000000, -0.0000000000, -0.0000000000, -0.4411621094, 0.0000000000, -0.0000000000, 0.0000000000, -0.0000000000, -0.0000000000, -0.0000000000, 0.0000000000, -0.0000000000, 0.0000000000, 0.0000000000, 0.0000000000, -0.3586425781, -0.0000000000, 0.0000000000, -0.0000000000, -0.0000000000, -0.3315429688, 0.3273925781, 0.0000000000, -0.0000000000, -0.3610839844, 0.0000000000, 0.0000000000, 0.0000000000, -0.0000000000, -0.4418945312, 0.2871093750, 0.0000000000, -0.0000000000, -0.0000000000, 0.0000000000, -0.0000000000, -0.0000000000, 0.0000000000, 0.0000000000, -0.0000000000, -0.0000000000, -0.3732910156, -0.0000000000, 0.3391113281, 0.0000000000, 0.0000000000, -0.4841308594, -0.3415527344, 0.0000000000, -0.0000000000, 0.0000000000, -0.3820800781, -0.0000000000, -0.0000000000, -0.0000000000, 0.4365234375, -0.0000000000, -0.0000000000, 0.0000000000, 0.0000000000, 0.0000000000, -0.0000000000, -0.1912841797, -0.0000000000, -0.0000000000, -0.0000000000, 0.0000000000, 0.0000000000, -0.0000000000, -0.2475585938, -0.0000000000, -0.0000000000, 0.0000000000, -0.0000000000, -0.2078857422, 0.0000000000, -0.0000000000, 0.0000000000, -0.3061523438, -0.3913574219, 0.0000000000, -0.0000000000, -0.0000000000, -0.0000000000, 0.3071289062, -0.0000000000, -0.0000000000, -0.0000000000, -0.0000000000, -0.4748535156, -0.0000000000, 0.3937988281, -0.0000000000, 0.0000000000, -0.0000000000, 0.0000000000, -0.0000000000, -0.2292480469, -0.0000000000, -0.0000000000, -0.0000000000, -0.4260253906, 0.0000000000, 0.0000000000, -0.5112304688, 0.0000000000, 0.0000000000, 0.3583984375, -0.0000000000, -0.0000000000, 0.3659667969, -0.0000000000, -0.0000000000, 0.0000000000, 0.0000000000, -0.0000000000, -0.0000000000, -0.0000000000, 0.0000000000, 0.3317871094, -0.0000000000, -0.0000000000, 0.0000000000, -0.0000000000, -0.0000000000, -0.4104003906, 0.0000000000, 0.0000000000, -0.0000000000, -0.0000000000, 0.0000000000, 0.0000000000, -0.0000000000, -0.0000000000, -0.1876220703, 0.2670898438, -0.3044433594, 0.4038085938, 0.0000000000, -0.4611816406, -0.0000000000, 0.0000000000, -0.0000000000, -0.0000000000, -0.0000000000, 0.3996582031, 0.0000000000, -0.0000000000, -0.0000000000, -0.0000000000, -0.0000000000, 0.4069824219, -0.0000000000, 0.2673339844, -0.3466796875, 0.0000000000, -0.0000000000, -0.0000000000, -0.0000000000, -0.0000000000, 0.3515625000, -0.4440917969, -0.3732910156, 0.0000000000, -0.0000000000, -0.0000000000, 0.4343261719, -0.0000000000, -0.0000000000, 0.2324218750, -0.0000000000, 0.0000000000, -0.2695312500, -0.0000000000, 0.0000000000, 0.0000000000, -0.0000000000, 0.0000000000, 0.0000000000, -0.0000000000, -0.0000000000, 0.0000000000, -0.0000000000, -0.0000000000, 0.0000000000, 0.3571777344, -0.0000000000, -0.0000000000, -0.0000000000, -0.0000000000, 0.4238281250, -0.4235839844, 0.0000000000, 0.0000000000, -0.0000000000, -0.3942871094, 0.0000000000, -0.0000000000, -0.4240722656, 0.0000000000, -0.0000000000, -0.0000000000, 0.0000000000, -0.0000000000, -0.4033203125, 0.0000000000, -0.0000000000, -0.3464355469, 0.0000000000, 0.0000000000, -0.0000000000, 0.0000000000, -0.0000000000, -0.0000000000, 0.3547363281, 0.0000000000, -0.0000000000, -0.3891601562, 0.0000000000, -0.0000000000, -0.0000000000, 0.0000000000, -0.3823242188, -0.0000000000, 0.0000000000, 0.0000000000, -0.0000000000, 0.0000000000, -0.0000000000, -0.0000000000, -0.0000000000, 0.0000000000, 0.0000000000, -0.0000000000, 0.0000000000, 0.0000000000, -0.0000000000, 0.3229980469, 0.0000000000, 0.3740234375, -0.0000000000, -0.0000000000, -0.0000000000, -0.4533691406, 0.0000000000, -0.0000000000, 0.0000000000, -0.0000000000, 0.3139648438, 0.0000000000, -0.0000000000, -0.0000000000, 0.0000000000, 0.0000000000, -0.0000000000, 0.2607421875, -0.0000000000, -0.0000000000, 0.2680664062, -0.0000000000, -0.4311523438, 0.3339843750, -0.0000000000};
#endif

#endif
