//Numpy array shape [3, 3, 4, 8]
//Min -1.891601562500
//Max 2.023437500000
//Number of zeros 216

#ifndef W5_H_
#define W5_H_

#ifndef __SYNTHESIS__
model_default_t w5[288];
#else
model_default_t w5[288] = {-0.0000000000, 0.0000000000, 0.0000000000, -0.0000000000, 0.4692382812, 0.8754882812, -0.0000000000, -0.0000000000, -0.0000000000, 0.0000000000, -0.0000000000, -0.0000000000, 0.0000000000, -0.0000000000, -0.0000000000, -0.0000000000, -0.0000000000, 0.0000000000, 0.0000000000, -0.0000000000, 0.4963378906, 1.0751953125, -0.0000000000, -0.7993164062, 0.0000000000, -0.0000000000, -0.4680175781, -0.0000000000, 0.0000000000, -0.0000000000, -0.0000000000, 0.0000000000, -0.0000000000, 0.0000000000, -0.5405273438, -0.0000000000, 1.0117187500, 0.0000000000, -0.8540039062, 0.0000000000, -0.0000000000, 0.0000000000, -0.0000000000, -0.0000000000, 0.0000000000, -0.0000000000, -0.0000000000, -0.0000000000, -0.0000000000, 0.0000000000, 0.0000000000, -0.0000000000, 0.0000000000, 0.0000000000, -0.0000000000, -0.0000000000, -0.0000000000, -0.0000000000, -0.5751953125, -0.0000000000, 0.0000000000, -0.0000000000, 0.0000000000, 0.0000000000, -0.0000000000, -0.3784179688, 0.4860839844, -0.0000000000, 0.7299804688, -0.0000000000, -0.0000000000, -0.0000000000, -0.1478271484, 0.0000000000, -0.0000000000, -0.0000000000, -0.7509765625, -0.0000000000, -0.0000000000, -0.2626953125, -0.0000000000, 0.0000000000, -0.0000000000, -0.0000000000, 0.0000000000, -0.0000000000, -0.0000000000, 0.0000000000, -0.0000000000, -0.5937500000, -0.0000000000, -0.0000000000, 0.0000000000, -0.0000000000, -0.8686523438, -0.6381835938, -0.0000000000, 0.0000000000, -0.0000000000, 0.0000000000, 0.0000000000, -0.0000000000, 0.0000000000, 0.0000000000, -0.0000000000, 0.0000000000, 0.0000000000, -0.0000000000, -0.0000000000, -0.0000000000, -0.7358398438, -0.0000000000, -0.0000000000, 0.0000000000, 0.2275390625, 0.2353515625, 0.0000000000, -0.0000000000, 0.0000000000, -0.0000000000, 0.0000000000, 0.4248046875, -0.6147460938, 0.4865722656, -0.0000000000, 0.8632812500, 0.0000000000, 0.0000000000, -0.0000000000, 0.0000000000, -0.0000000000, -0.0000000000, 0.0000000000, 0.4313964844, 0.0000000000, 0.2060546875, -0.0000000000, 1.6210937500, 0.0000000000, -0.0000000000, 0.0000000000, -0.0000000000, -0.0000000000, 0.0000000000, -0.0000000000, 0.0000000000, -0.0000000000, -0.6137695312, 0.0000000000, 0.7802734375, -1.6845703125, -0.0000000000, 0.0000000000, -0.8237304688, -0.8896484375, 0.0000000000, -0.0000000000, -0.0000000000, -0.0000000000, 0.0000000000, -0.3037109375, 0.0000000000, 0.0000000000, -0.0000000000, 0.0000000000, -0.0000000000, -0.0000000000, 1.0927734375, -1.3466796875, 0.0000000000, 0.8017578125, 1.2158203125, 0.0000000000, -0.0000000000, -0.0000000000, -0.0000000000, -0.0000000000, 0.1185302734, 0.0000000000, -0.0000000000, 0.0000000000, -0.0000000000, 0.0000000000, 0.0000000000, -0.0000000000, -0.4943847656, 0.0000000000, -0.4731445312, -0.0000000000, -1.0351562500, -0.0000000000, 0.0000000000, -0.0000000000, -0.1864013672, 0.0000000000, -0.0000000000, 1.1767578125, -0.0000000000, 0.0199584961, 0.0000000000, -0.5009765625, 0.0000000000, 0.0000000000, -0.0000000000, -0.0000000000, -0.0000000000, 0.0000000000, 0.0000000000, 0.3203125000, -0.0000000000, 2.0234375000, -0.0000000000, -0.0000000000, -0.0000000000, -0.0000000000, 0.9326171875, -0.0000000000, -0.0000000000, -0.7416992188, -0.0000000000, 0.0000000000, 0.0000000000, 0.0000000000, -0.0000000000, -0.0753784180, 0.0000000000, 0.0000000000, -0.0000000000, 0.0000000000, -0.0000000000, -0.0000000000, -0.0000000000, -1.8916015625, 1.5126953125, 0.9980468750, -0.0000000000, 1.7099609375, -0.0000000000, 0.0000000000, 0.0000000000, -0.6323242188, 0.5830078125, 0.0000000000, -0.0000000000, 0.0000000000, -0.0000000000, 0.7597656250, 0.0000000000, 0.0000000000, -0.7504882812, -0.6567382812, -0.0000000000, -0.0000000000, 0.0000000000, -0.5292968750, 0.0000000000, -0.0000000000, 0.3854980469, 0.7861328125, -0.0000000000, -1.2558593750, 0.0000000000, -0.0000000000, 0.9482421875, 0.0000000000, 0.0000000000, -0.0000000000, 0.8754882812, 0.0000000000, 0.0000000000, -0.0000000000, -0.0000000000, -0.7709960938, 0.0000000000, 0.0000000000, 0.5903320312, 0.8544921875, -0.0000000000, 1.2070312500, -0.0000000000, -0.4550781250, 0.0000000000, 0.0000000000, -0.0000000000, -0.0000000000, -0.0000000000, -0.0000000000, 0.0000000000};
#endif

#endif
