//Numpy array shape [8, 10]
//Min -4.355468750000
//Max 2.066406250000
//Number of zeros 0

#ifndef W7_H_
#define W7_H_

#ifndef __SYNTHESIS__
model_default_t w7[80];
#else
model_default_t w7[80] = {0.6645507812, 2.0664062500, -0.5273437500, -0.7924804688, 0.1638183594, -0.3422851562, -0.3872070312, 1.5615234375, -1.2744140625, -0.3901367188, -0.3989257812, -4.3554687500, 0.9726562500, 1.6269531250, -0.9682617188, 1.6435546875, -0.4768066406, -1.2519531250, 0.4074707031, -0.7709960938, 1.4150390625, -2.1250000000, -0.8696289062, -1.3896484375, 1.8271484375, -2.2734375000, 0.5039062500, -1.5195312500, 0.9921875000, 0.4892578125, -0.5327148438, -1.1044921875, 0.4838867188, -0.0601501465, -0.9008789062, -0.1287841797, -0.1151733398, -0.5048828125, 0.7675781250, 0.5468750000, -0.1763916016, -1.0478515625, 0.2624511719, 0.3239746094, -0.2565917969, -0.1052246094, 0.6293945312, -0.2175292969, 0.4951171875, 0.3803710938, 1.6474609375, 1.9023437500, -0.9355468750, -1.1328125000, 0.8120117188, -0.8530273438, 0.1270751953, -0.7861328125, -0.2087402344, -0.5195312500, 0.3076171875, -0.1494140625, -0.4895019531, 0.4267578125, 0.3688964844, 0.5307617188, -0.4353027344, 0.2454833984, -0.1829833984, -0.0588378906, -1.3037109375, 1.3486328125, 0.0223693848, 0.2265625000, -0.2087402344, 0.4721679688, -0.1503906250, 0.8012695312, -0.4924316406, 0.0882568359};
#endif

#endif
