//Numpy array shape [8, 10]
//Min -5.019531250000
//Max 4.492187500000
//Number of zeros 60

#ifndef W7_H_
#define W7_H_

#ifndef __SYNTHESIS__
model_default_t w7[80];
#else
model_default_t w7[80] = {2.7187500000, -0.0000000000, 0.0000000000, -2.6562500000, 0.0562744141, -3.0761718750, 0.0000000000, -0.0000000000, -0.0000000000, 0.0000000000, -0.0000000000, -5.0195312500, 0.0000000000, 1.1484375000, -0.0000000000, 1.3066406250, 0.0000000000, -2.6484375000, 0.0387573242, -0.0000000000, 0.0000000000, -0.0000000000, 0.0000000000, -0.0000000000, -0.0000000000, -0.0000000000, 0.0000000000, -0.0000000000, 0.0000000000, -0.0000000000, -3.3574218750, 3.4609375000, 0.0000000000, 0.1301269531, -0.0000000000, 0.0000000000, 0.0000000000, -0.0000000000, -0.0000000000, 0.0000000000, -0.4973144531, 2.3320312500, 0.0000000000, 0.0000000000, -0.0000000000, 0.0000000000, 0.0000000000, 4.4921875000, -0.0000000000, -0.0000000000, 0.0000000000, -2.7441406250, 0.0000000000, -0.0000000000, -0.0000000000, -0.0000000000, 1.1992187500, -2.3867187500, 2.0371093750, 0.0000000000, 0.0000000000, 0.0000000000, 0.0000000000, 0.0000000000, 0.0000000000, -0.0000000000, 0.0000000000, -1.1884765625, -0.0000000000, -0.0000000000, -0.0000000000, -0.0000000000, -0.0000000000, -0.0000000000, -0.0000000000, -0.0000000000, -0.0000000000, -0.0000000000, 0.0000000000, 0.0000000000};
#endif

#endif
