//Numpy array shape [32, 10]
//Min -3.421875000000
//Max 1.519531250000
//Number of zeros 240

#ifndef W9_H_
#define W9_H_

#ifndef __SYNTHESIS__
model_default_t w9[320];
#else
model_default_t w9[320] = {-0.0000000000, 0.0000000000, -0.9218750000, -0.9472656250, 0.0000000000, 0.0000000000, 0.5747070312, -1.1845703125, -0.8330078125, -1.9228515625, -0.0000000000, 0.0000000000, -1.0947265625, -0.8085937500, 0.0000000000, -0.0000000000, 1.2304687500, -0.8398437500, 0.0000000000, -0.0000000000, -0.0000000000, 0.0000000000, -0.0000000000, -0.0000000000, 0.0000000000, -0.0000000000, 0.0000000000, -0.4692382812, 0.0000000000, -0.0000000000, -0.0000000000, 0.0000000000, -0.0000000000, -0.0000000000, 0.0000000000, -0.0000000000, 0.0000000000, 0.0000000000, 0.0000000000, -0.0000000000, 0.0000000000, 0.0000000000, -0.0000000000, -0.0000000000, 0.0000000000, -0.0000000000, 0.0000000000, -0.0000000000, 0.0000000000, -0.5283203125, 0.0000000000, -0.0000000000, -0.0000000000, -0.0000000000, 0.0000000000, -0.0390930176, -0.6616210938, 0.7934570312, 0.0000000000, -0.0252838135, 0.0000000000, 0.0000000000, -0.0000000000, -1.2294921875, 0.0000000000, -0.0000000000, 0.0000000000, -0.0000000000, 0.0000000000, -0.0000000000, -0.0000000000, -0.7094726562, -0.0000000000, -0.0000000000, 0.0000000000, -0.0000000000, -0.2343750000, -0.0000000000, 0.0000000000, -0.0000000000, -0.0000000000, 0.0000000000, -0.0000000000, 0.8520507812, -0.0000000000, -0.0000000000, 0.0000000000, -1.6484375000, 0.0000000000, -0.0000000000, -0.0000000000, 0.5073242188, 0.6689453125, -0.0000000000, 0.0000000000, -1.1982421875, -0.4143066406, 0.0000000000, 0.0000000000, -0.0000000000, 0.0000000000, 0.0000000000, -0.0000000000, -0.0000000000, 1.5195312500, -0.0000000000, 0.0000000000, -0.0000000000, 0.0000000000, -0.0000000000, 0.0000000000, 0.0000000000, -0.0000000000, 0.0000000000, 0.0000000000, -1.2021484375, -0.0000000000, -0.0000000000, 0.0000000000, -0.0000000000, -0.0000000000, 0.0000000000, -0.0000000000, -0.0000000000, 0.0000000000, -0.0000000000, -0.8862304688, 0.0000000000, 0.0000000000, 0.6401367188, 0.0000000000, 0.0000000000, -0.0000000000, -0.0000000000, 0.0000000000, -0.2312011719, -0.7788085938, -0.0000000000, 0.0000000000, -0.0000000000, -0.0000000000, 0.6611328125, -0.0000000000, -0.9482421875, 0.0000000000, -0.7270507812, -0.0000000000, -0.0000000000, -0.9736328125, -0.6157226562, 0.0000000000, -2.0058593750, -0.0000000000, -0.0000000000, -0.7973632812, -0.0000000000, -0.2185058594, -0.0000000000, 0.0000000000, -0.0000000000, 0.0000000000, 0.0000000000, -0.0000000000, -1.7402343750, -0.5644531250, -1.3974609375, -3.4218750000, 1.0361328125, -1.9140625000, 0.0000000000, 1.4511718750, 0.0000000000, -0.0000000000, -0.8837890625, 0.0000000000, -0.7797851562, 0.7270507812, 0.0000000000, 0.0000000000, -0.0000000000, -0.0000000000, 0.0000000000, -0.0000000000, 0.0000000000, -1.1455078125, -0.0000000000, -0.0000000000, -0.0000000000, 0.0000000000, -0.0000000000, -1.2431640625, 1.1337890625, -0.0000000000, -0.0000000000, 0.0000000000, -0.0000000000, -0.0000000000, 0.8935546875, 0.0000000000, -0.0000000000, -0.4665527344, 0.0000000000, -0.0000000000, 0.0000000000, 0.0000000000, -0.0000000000, -0.2612304688, -0.0000000000, 0.3281250000, -0.0000000000, 0.0000000000, -0.0000000000, -0.0000000000, 0.0000000000, 0.0000000000, 0.3940429688, 0.0000000000, -0.0000000000, -0.1555175781, 0.8398437500, -0.0000000000, 0.0000000000, -0.0000000000, -0.0000000000, -0.8559570312, -0.0000000000, -1.2597656250, 0.0000000000, 0.0000000000, -0.0000000000, 0.0000000000, 0.0000000000, 0.7290039062, -0.0000000000, 0.0000000000, 0.8286132812, -0.0000000000, -0.0000000000, 0.0000000000, -1.2646484375, -0.0000000000, 0.0000000000, -1.6630859375, -0.0000000000, 0.0000000000, -0.0000000000, -0.2961425781, 0.0000000000, -1.9189453125, -0.0000000000, -0.0000000000, 0.0000000000, -0.0000000000, -0.0000000000, 0.0000000000, -0.0000000000, -0.0000000000, -0.0000000000, 0.0000000000, 0.0000000000, 0.0000000000, 0.0000000000, -0.0000000000, -0.0000000000, -1.2246093750, -0.0000000000, 0.0000000000, -0.8959960938, 0.0000000000, -1.1953125000, 0.0000000000, 0.0000000000, -0.0000000000, 0.0000000000, 0.0000000000, -0.0000000000, 0.0000000000, -0.0000000000, -0.8769531250, -0.0000000000, -0.0000000000, -1.4023437500, -1.6699218750, -0.0000000000, 0.0000000000, -0.0000000000, 0.2600097656, -0.0000000000, 0.0000000000, -0.0000000000, -1.4462890625, 0.0000000000, -0.0000000000, -0.0000000000, 0.0000000000, -0.0000000000, 0.0000000000, -1.1582031250, 0.0000000000, -0.0000000000, 0.0000000000, -0.0000000000, -0.0000000000, 0.0000000000, -0.0000000000, -0.0000000000, -1.1601562500, -0.0000000000, -0.7797851562, 0.0000000000, -0.0294799805, -0.0000000000, 0.6811523438, 0.0000000000, 0.0000000000, -0.0000000000, 0.0000000000, -0.0000000000, 0.0000000000, -0.0000000000};
#endif

#endif
