//Numpy array shape [32, 10]
//Min -1.642578125000
//Max 1.139648437500
//Number of zeros 0

#ifndef W9_H_
#define W9_H_

#ifndef __SYNTHESIS__
dense_weight_t w9[320];
#else
dense_weight_t w9[320] = {-0.3342285156, 0.1975097656, 0.1484375000, -0.4504394531, 0.1368408203, -0.3005371094, 0.7001953125, -0.3291015625, 0.3071289062, -0.4790039062, -0.1274414062, 0.5332031250, -0.4235839844, 0.0182952881, -0.4785156250, -0.0302581787, 0.2724609375, 0.1759033203, 0.3037109375, -0.0176544189, -0.0192260742, 0.3308105469, -0.2775878906, 0.1007080078, 0.1519775391, 0.1018066406, 0.5771484375, -0.5214843750, -0.0745239258, -0.8061523438, -0.5156250000, -0.5986328125, -0.3408203125, -0.5668945312, 0.0739746094, 0.4863281250, 0.4123535156, -0.4121093750, 0.1171264648, -0.1960449219, -0.2507324219, 0.2467041016, 0.4699707031, -0.5361328125, 1.1396484375, -0.0431823730, 0.3095703125, -0.6059570312, -0.6660156250, 0.4001464844, -0.0825195312, 0.1411132812, 0.0709838867, -0.7998046875, -0.0421447754, 0.1011962891, -0.0768432617, 0.2812500000, 0.2386474609, -0.3457031250, 0.5283203125, 0.1429443359, -0.1585693359, 0.2315673828, 0.2100830078, 0.1831054688, -0.2927246094, 0.2844238281, -0.0350646973, -0.8867187500, 0.0321960449, -0.2817382812, 0.2398681641, -0.2944335938, 0.4870605469, 0.0979003906, -0.0759887695, -0.6083984375, 0.4555664062, -0.1779785156, -0.2470703125, -0.2507324219, 0.0168609619, -0.2138671875, -0.0671997070, 0.1555175781, 0.1134643555, 0.2983398438, 0.5258789062, 0.2807617188, -0.8500976562, 0.3083496094, -0.0846557617, 0.3378906250, -0.9121093750, 0.3518066406, 0.1778564453, -0.4182128906, -0.8554687500, 0.1489257812, -0.4763183594, -0.4558105469, -0.2435302734, -0.0386657715, 0.5463867188, 0.5317382812, -0.6289062500, -0.2266845703, 0.1534423828, -0.0961914062, 0.5405273438, 0.0029792786, -0.1031494141, 0.0105209351, -0.4750976562, -0.6425781250, 0.0820312500, -0.0734252930, -0.9707031250, 0.0006403923, 0.3603515625, -0.3625488281, 0.3583984375, -0.3959960938, 0.2021484375, -0.5356445312, 0.1004028320, 0.2250976562, 0.2722167969, 0.3166503906, 0.2333984375, -0.3007812500, 0.5498046875, 0.2304687500, 0.0538024902, 0.1177978516, -0.4562988281, 0.4475097656, 0.5751953125, -0.4367675781, 0.3386230469, 0.1138305664, -0.4641113281, -0.8364257812, 0.0709228516, -0.4965820312, -0.1394042969, 0.3991699219, -0.2824707031, -0.4399414062, 0.0620727539, -0.2687988281, -0.1413574219, 0.1823730469, 0.0494384766, 0.4038085938, -0.2199707031, -0.0540771484, -0.0776367188, -0.8657226562, 0.0199127197, 0.2031250000, 0.2075195312, 0.4694824219, 0.4094238281, 0.3542480469, 0.2460937500, 0.2812500000, -0.4702148438, -0.8432617188, -0.1666259766, -0.1146850586, -1.6425781250, 0.3156738281, -0.3312988281, -0.2171630859, 0.1048583984, 0.0657348633, -0.5805664062, -0.3620605469, 0.1992187500, -0.1766357422, -0.3229980469, 0.3913574219, 0.2170410156, -0.1676025391, 0.2282714844, -0.3171386719, 0.3549804688, -0.7402343750, 0.3764648438, 0.3525390625, 0.1179199219, 0.3547363281, 0.1046142578, -0.4873046875, 0.0870971680, 0.0618591309, 0.4724121094, -1.0830078125, -0.3964843750, -0.2775878906, 0.0240783691, -0.4968261719, -0.1097412109, 0.6010742188, -0.9541015625, -0.8862304688, 0.2105712891, 0.2498779297, 0.5268554688, 0.5590820312, 0.1789550781, 0.6132812500, -0.2021484375, -0.4541015625, -0.2486572266, 0.0507202148, -0.7084960938, -0.3439941406, -0.7841796875, -0.2590332031, 0.2780761719, 0.3464355469, 0.2680664062, -0.6567382812, -0.4487304688, -0.2932128906, 0.0340270996, -0.6093750000, 0.3254394531, 0.1968994141, -0.1230468750, -0.0320434570, 0.1604003906, 0.3991699219, 0.8906250000, -0.2858886719, 0.0150756836, 0.7158203125, -0.6611328125, -0.5439453125, 0.3020019531, -0.1414794922, -0.1845703125, -0.6831054688, 0.4685058594, -0.3356933594, 0.1459960938, 0.3554687500, 0.1450195312, 0.1185913086, 0.0891723633, 0.1713867188, -0.0644531250, -0.6757812500, 0.3764648438, 0.1502685547, -0.5849609375, 0.1230468750, -0.2858886719, 0.3754882812, -0.3613281250, -0.0316772461, 0.0695800781, -0.1732177734, -0.5434570312, -0.9038085938, -0.6801757812, 0.0869140625, -0.2011718750, -0.1528320312, 0.4887695312, 0.0729980469, -0.2353515625, -0.4096679688, 0.2968750000, 0.1936035156, 0.2207031250, -0.4184570312, 0.0071105957, -0.1571044922, -0.1549072266, -0.8950195312, -0.2474365234, 0.5620117188, -0.0296478271, -0.5537109375, -0.5375976562, -0.0756835938, -0.0612487793, -0.3330078125, 0.1068115234, 0.8320312500, -0.4340820312, 0.1315917969, 0.2636718750, -0.7387695312, 0.1445312500, -0.3195800781, -0.4108886719, -0.3796386719, 0.1568603516, 0.3972167969, 0.2302246094, -0.1782226562, 0.1132812500, -0.0985717773, -0.0223693848, -0.5014648438, -0.1705322266, -0.3867187500, -0.4233398438, 0.1231689453, 0.5776367188, 0.3720703125, -0.2590332031, -0.2646484375, 0.0480041504, -0.7426757812};
#endif

#endif
