//Numpy array shape [3, 3, 4, 8]
//Min -1.221679687500
//Max 1.399414062500
//Number of zeros 0

#ifndef W5_H_
#define W5_H_

#ifndef __SYNTHESIS__
model_default_t w5[288];
#else
model_default_t w5[288] = {-0.6093750000, -0.1507568359, -0.1479492188, 0.2364501953, 0.2261962891, 0.4377441406, 0.4958496094, 0.1356201172, 0.2573242188, 0.2222900391, -0.1002807617, 0.1137084961, -0.3789062500, -0.2514648438, 0.3032226562, -0.1873779297, -0.9521484375, 0.0542297363, 1.0351562500, -0.0496826172, -0.0481262207, -0.1868896484, 0.1872558594, 0.3427734375, -0.6308593750, 0.6118164062, -0.1566162109, -0.1905517578, -0.3854980469, 0.7939453125, -0.0712280273, 0.3662109375, 0.6469726562, -0.4262695312, -0.3901367188, 0.0743408203, 0.4755859375, -0.0720825195, -0.0960083008, -0.3217773438, 0.2122802734, -0.0871582031, -0.1246337891, -0.0756835938, -0.3156738281, 0.6083984375, 0.7329101562, 0.2014160156, -0.1245727539, 0.0850219727, 1.2197265625, -0.4499511719, 0.0935058594, 0.1484375000, 1.3994140625, -0.0860595703, -0.4975585938, -0.1354980469, 0.7485351562, -0.0485839844, -0.4106445312, -0.1258544922, 0.2622070312, -0.3427734375, -0.4387207031, 0.1054077148, -0.6245117188, -0.1661376953, -0.4487304688, -0.0610046387, -0.7500000000, -0.0307159424, 0.1534423828, -0.2895507812, -0.0852050781, 0.2946777344, 0.1253662109, -0.2607421875, -0.1590576172, 0.2211914062, -0.3105468750, -0.0551452637, 0.1799316406, -0.4497070312, -0.2214355469, 0.0698242188, -0.5029296875, -0.1987304688, -0.9575195312, 0.1021728516, 0.2247314453, -0.4597167969, -0.3676757812, -0.0789794922, 0.4152832031, -0.7934570312, -0.1008300781, 0.2695312500, -0.7221679688, 0.1641845703, 0.0643920898, 0.5830078125, 0.2034912109, 0.1416015625, 0.2658691406, 0.7207031250, 0.3945312500, -0.0614318848, 0.0646362305, -0.3125000000, -0.1342773438, 0.6464843750, 0.7158203125, -0.5556640625, 0.3989257812, -0.0967407227, 0.2072753906, -0.4946289062, -0.3781738281, -0.0361938477, 0.2846679688, -0.6005859375, -0.1618652344, 0.1337890625, -0.4284667969, -0.3823242188, -0.3847656250, 0.1477050781, -0.3237304688, 0.2932128906, -0.6152343750, 0.3515625000, 0.3188476562, -0.0246276855, -1.2216796875, -0.0195922852, -0.0763549805, 0.0417785645, -0.9135742188, 0.5468750000, 0.4355468750, -0.1459960938, -0.4995117188, 0.3283691406, -0.1478271484, 0.3430175781, 0.2836914062, -0.0560302734, -0.0935058594, 0.3244628906, 0.0765991211, -0.1343994141, -0.0476684570, 0.0107269287, -0.9619140625, -0.2241210938, -0.4287109375, 0.3679199219, -0.3171386719, 0.3312988281, 0.3251953125, 0.2558593750, -0.6914062500, 0.7133789062, 0.2912597656, -0.0451049805, 0.2834472656, -0.2402343750, -0.1326904297, 0.0332031250, 0.5800781250, -0.2937011719, 0.2583007812, -0.1380615234, 0.6166992188, -0.2308349609, -0.3942871094, 0.4218750000, 1.1816406250, -0.2851562500, 0.2163085938, -0.1894531250, -0.3356933594, -0.1529541016, 0.2138671875, 0.1899414062, -0.6020507812, 0.2998046875, 0.1352539062, 0.3249511719, 0.1923828125, 0.7749023438, -0.3325195312, -0.2834472656, -0.1049194336, -0.0284729004, -0.4643554688, 0.0279541016, 0.5590820312, -0.1865234375, -0.2481689453, -0.3325195312, 0.5004882812, -0.6030273438, 0.2719726562, 0.1398925781, -0.2749023438, 0.3833007812, 0.1779785156, 0.2573242188, 0.1667480469, -0.1732177734, -0.1081542969, 0.4384765625, -0.3598632812, -0.9052734375, 0.8374023438, -0.1042480469, -0.4311523438, 0.2138671875, 0.2651367188, -0.3466796875, -0.6542968750, 0.3210449219, 0.1365966797, 0.2639160156, -0.3591308594, 0.3593750000, 0.5209960938, 0.1054687500, -0.0603637695, -0.3022460938, 0.2954101562, -0.5839843750, 0.0343322754, 0.2546386719, 0.9096679688, -0.2188720703, -0.3422851562, 0.3278808594, 0.2043457031, -0.3105468750, -0.1507568359, -0.2778320312, -0.2169189453, -0.4399414062, -0.2839355469, 0.2685546875, -0.0607604980, 0.1597900391, 0.9721679688, -0.3742675781, 0.1271972656, 0.6147460938, 0.3002929688, 0.0391235352, 0.2976074219, 0.7641601562, 0.6313476562, -0.0720825195, -0.1727294922, 0.6772460938, 0.0274658203, 0.2583007812, 0.6801757812, 0.0325317383, 0.3237304688, -0.1860351562, 0.1484375000, 0.1608886719, 0.3090820312, 0.1658935547, -0.1591796875, 0.2230224609, 1.2607421875, -0.1411132812, 0.3896484375, -0.1878662109, -0.3354492188, 0.0315246582, 0.4731445312, -0.2084960938, -0.0257720947, -0.1016845703, -0.0496215820, 0.1215209961, 0.2125244141, 0.1157226562};
#endif

#endif
