//Numpy array shape [32, 10]
//Min -1.170898437500
//Max 1.158203125000
//Number of zeros 0

#ifndef W9_H_
#define W9_H_

#ifndef __SYNTHESIS__
model_default_t w9[320];
#else
model_default_t w9[320] = {-0.0612182617, -1.0878906250, 0.1761474609, 0.6713867188, 0.0764160156, 0.0029125214, -0.7055664062, 0.2683105469, 0.0073204041, 0.2761230469, -0.7553710938, -0.1190795898, -0.0991821289, -0.8198242188, 0.3142089844, 0.2219238281, -0.4260253906, -0.8999023438, -0.0024719238, -0.6933593750, 0.3405761719, -0.3635253906, -0.0024318695, -0.3098144531, 0.3928222656, 0.5966796875, -0.1178588867, 0.9028320312, -0.1597900391, -0.0086822510, 0.0248718262, -0.0078201294, 0.4770507812, 0.5185546875, 0.4042968750, -0.2033691406, -0.5864257812, -0.3049316406, 0.0014867783, -0.7231445312, -0.5703125000, -0.8627929688, -0.1959228516, 0.0647583008, 0.6513671875, 0.2770996094, 0.0732421875, -0.2116699219, 0.2244873047, 0.3466796875, 0.4599609375, 0.5493164062, -0.2316894531, 0.3830566406, 0.2612304688, -0.4631347656, -0.3088378906, -0.1507568359, 0.0111389160, -0.1048583984, 0.2792968750, -0.0238647461, 0.2519531250, -0.5429687500, 0.2548828125, 0.5996093750, 0.5678710938, -0.2890625000, -0.2937011719, 0.1878662109, 0.0464782715, 0.0147247314, 0.1372070312, -0.3010253906, -0.4707031250, -0.1917724609, -0.2408447266, -0.9228515625, -0.2741699219, -0.5390625000, -0.5566406250, -0.1876220703, 0.0575561523, 0.5805664062, 0.7431640625, -0.4785156250, -0.4692382812, -0.0043449402, -0.4665527344, 0.3027343750, 0.7529296875, -0.1181640625, 0.4526367188, -0.0121994019, 0.2961425781, 0.3720703125, 0.4211425781, 0.4238281250, -0.1579589844, -0.7832031250, -0.3649902344, -0.5258789062, -0.3745117188, 0.0250091553, 0.0064849854, -0.6508789062, -0.1632080078, -0.6791992188, 0.7163085938, -0.5957031250, -0.1677246094, -0.2125244141, 0.1602783203, -0.0450439453, 0.5791015625, -0.5366210938, -0.0631103516, 0.3552246094, -0.4157714844, -0.1101074219, 0.6313476562, -0.2915039062, -0.3349609375, -0.4890136719, 0.0707397461, -0.2099609375, -0.6845703125, -0.3767089844, -0.3552246094, -0.6259765625, -0.4267578125, 0.1522216797, 0.3679199219, -0.3532714844, -0.2707519531, -0.3449707031, -0.3852539062, -0.3266601562, -0.6650390625, 0.1667480469, 0.0493774414, 0.1628417969, 1.0976562500, -0.5947265625, 0.3923339844, 0.3981933594, -1.1074218750, -0.9135742188, -0.1839599609, 0.1446533203, -0.5864257812, 0.1173706055, -0.1911621094, -0.0711669922, -0.5375976562, -0.5620117188, 0.0583190918, 0.5375976562, 0.6064453125, 0.3413085938, -0.4135742188, -0.5463867188, 0.1334228516, -0.2912597656, 0.0483398438, 0.1541748047, 0.3254394531, -0.0278930664, -0.7060546875, 0.8164062500, 0.1988525391, -0.5854492188, -0.2443847656, 1.0195312500, -0.6484375000, 0.4116210938, 0.2917480469, 0.2841796875, 0.3764648438, -1.0322265625, 0.0857543945, 0.1501464844, -0.2290039062, -0.3295898438, 0.0169372559, 0.1561279297, -0.5776367188, 0.2202148438, -0.0167236328, -0.2580566406, -0.6425781250, -0.0874633789, -0.4853515625, -0.8798828125, -0.5756835938, 0.2524414062, -0.1861572266, 0.2570800781, -0.0553588867, -0.0098037720, -0.2008056641, -0.6284179688, 1.1582031250, 0.3430175781, -0.3283691406, 0.8969726562, -0.2106933594, -0.2263183594, -0.6962890625, -0.5278320312, -0.6757812500, -0.2371826172, 0.4470214844, -0.4279785156, 0.4897460938, -0.1087036133, 0.1905517578, 0.1038208008, 0.1326904297, -0.0802612305, 0.2932128906, -0.4948730469, -0.2590332031, 0.2988281250, 0.2761230469, 0.2296142578, 0.2900390625, -0.1829833984, 0.2915039062, 0.1550292969, -0.7827148438, 0.4052734375, 0.0076980591, 0.1773681641, 0.3156738281, -0.5410156250, -0.2526855469, 0.2233886719, 0.7270507812, -0.1647949219, -0.1433105469, 0.3269042969, -0.5317382812, 0.4206542969, -0.9057617188, 0.1047363281, -0.2331542969, -0.5307617188, -0.1334228516, -0.2415771484, -1.1708984375, 0.1196899414, -0.0015659332, 0.7895507812, 0.2152099609, 0.0907592773, -0.1549072266, -0.3703613281, -0.4172363281, -0.8100585938, 0.0498657227, -0.6782226562, 0.3869628906, -0.2227783203, 0.0073852539, -0.3679199219, -0.5507812500, -0.9902343750, -0.0129547119, -0.2614746094, -0.0578613281, 0.5996093750, -0.0897216797, -0.3020019531, -0.9492187500, 0.1563720703, 0.5703125000, -0.3591308594, 0.1217651367, 0.3161621094, -0.2568359375, -0.2192382812, -0.5278320312, -0.4733886719, -0.4865722656, 0.3574218750, -0.6342773438, 0.3854980469, -0.4289550781, -0.7617187500, 0.1846923828, 0.6298828125, -0.3481445312, 0.3305664062, -0.1370849609, 0.4648437500, 0.1602783203, -0.5449218750, -0.0392150879, -0.0912475586, 0.0819702148, -0.8212890625, -1.0742187500, 0.2391357422, 0.5747070312, 0.4267578125, -0.3889160156, -0.5795898438, -0.5253906250, -0.1111450195, -0.1374511719, 0.1207885742, -0.1866455078, 0.1356201172, -0.5273437500, -0.1291503906, -0.3107910156, -0.1608886719, 0.4580078125, -0.5839843750};
#endif

#endif
