//Numpy array shape [64]
//Min -0.474121093750
//Max 0.356445312500
//Number of zeros 0

#ifndef B10_H_
#define B10_H_

#ifndef __SYNTHESIS__
model_default_t b10[64];
#else
model_default_t b10[64] = {-0.0808105469, -0.2775878906, 0.0932006836, -0.1398925781, -0.4741210938, 0.1365966797, 0.0075874329, 0.2609863281, 0.1159057617, -0.1635742188, -0.0006332397, -0.1958007812, -0.1311035156, -0.0897216797, 0.0706787109, 0.3564453125, -0.2675781250, -0.2430419922, -0.0739746094, 0.2142333984, 0.0308837891, -0.0871582031, -0.1040039062, 0.1920166016, -0.0156860352, -0.3334960938, 0.0255126953, -0.0903320312, -0.1061401367, 0.0556335449, 0.0600280762, -0.1373291016, -0.2656250000, -0.0778198242, 0.2578125000, -0.3803710938, -0.2054443359, 0.0537109375, -0.3139648438, -0.0606994629, -0.0695800781, -0.0045318604, 0.0973510742, -0.0974121094, -0.0704345703, 0.0323181152, 0.1163940430, 0.1172485352, 0.0001075864, 0.0938110352, -0.2207031250, -0.0064430237, -0.2387695312, 0.0141448975, 0.1278076172, -0.2009277344, -0.0228271484, 0.1636962891, -0.0157318115, 0.0864257812, 0.2087402344, 0.0739135742, 0.2088623047, -0.0309143066};
#endif

#endif
