//Numpy array shape [64]
//Min -0.188476562500
//Max 0.226074218750
//Number of zeros 0

#ifndef B24_H_
#define B24_H_

#ifndef __SYNTHESIS__
model_default_t b24[64];
#else
model_default_t b24[64] = {0.2098363936, 0.6670255661, -0.7272078991, -1.2494466305, -1.4973020554, -1.4693932533, -0.3116686940, -0.7019647956, 0.0678666160, 0.9025202990, -1.3018332720, 0.7063007355, -1.0035147667, 1.0649083853, -0.6662353277, 0.9717109203, -1.1587408781, -0.3210744858, -0.1213372350, -0.2066493928, 0.3015284240, -0.0964255929, 0.1615303755, 1.2939865589, -1.3754950762, 0.1313541383, 1.6052254438, -0.7293884754, -0.6358434558, 0.8115749359, -0.3569093645, -1.2825760841, 0.1761907339, 0.7573059797, 0.4354700446, 0.3779511750, 0.3268835545, -0.9250924587, 1.3095293045, 0.1306616962, -1.2106783390, -1.2051004171, 1.2497395277, 0.1815015972, -1.5136342049, -0.7552611232, -0.8646304607, 0.9010491371, -0.7643656135, 0.3120139241, 0.0115966201, 0.1727817059, -0.7535949945, 0.5249005556, -0.0691829920, -0.9368445873, -0.0575286895, -0.4459639192, -0.9578371644, 0.2015518546, 1.0567820072, 0.8158183098, -1.3404548168, 1.4559974670};
#endif

#endif
