//Numpy array shape [128]
//Min -0.072998046875
//Max 0.087280273438
//Number of zeros 0

#ifndef B25_H_
#define B25_H_

#ifndef __SYNTHESIS__
model_default_t b25[128];
#else
model_default_t b25[128] = {-0.1328700781, -0.0169671215, 0.1015065461, -0.3178930879, -0.2269802243, 0.0619380623, 0.1707107574, -0.2499575019, -0.3787253797, 0.1459954083, -0.2427067608, -0.0498974547, -0.0775274336, -0.2236799598, -0.1146645099, 0.3446685076, -0.1570376754, -0.4647097588, -0.1919181794, -0.1068304628, -0.3341527581, 0.1255755424, 0.1863681078, -0.1548616141, -0.0596684664, -0.1925135851, 0.1599537134, -0.3017856479, -0.0914545357, 0.0986696929, 0.2027353495, -0.1001011506, -0.0430028215, 0.0879680514, -0.0120071415, -0.0288151242, 0.4056792557, -0.0159635171, -0.1351645887, 0.1479520500, 0.0598272420, -0.3196684122, -0.1437169015, 0.3137414753, 0.2011676729, -0.1113222316, -0.1214035228, -0.3863901198, -0.1308116019, 0.0061665047, -0.1974273622, -0.2587453425, -0.2327278405, -0.4885613322, -0.2755620480, -1.1152367592, 0.5090343356, -0.1930303574, 0.0813222304, 0.0242272541, -0.1153730676, 0.1089708060, 0.0356009007, -0.1251111627, -0.1439035237, -0.4404692650, 0.1694207191, -0.3088057041, -0.0356489830, 0.0347656757, -0.1970656067, -0.0129558351, 0.0773919970, 0.0251387004, -0.1312027872, -0.1118598133, -0.1848132759, -0.3909340203, -0.0882036909, 0.0635147914, -0.0822828934, -0.0917037651, 0.0791474730, -0.3737027049, -0.2054232806, -0.1309582442, -0.2731283009, 0.0291133095, 0.1431431174, -0.5542830229, -0.1519237459, 0.0178450420, -0.3058845401, -0.3669118881, -0.2454838902, -0.1546828002, -0.0170595404, -0.3585014939, -0.2517766356, 0.1517764777, -0.0692923367, -0.0156774558, 0.1187463850, -0.3242130876, 0.1374144256, -0.3509365618, -0.1045368835, -0.4645408392, 0.1249023080, -0.1429547518, -0.1021220535, -0.3359507322, -0.2852914333, -0.0018779784, 0.1086410359, 0.0111497287, -0.0861289576, 0.0493958592, -0.1806564033, 0.1255257130, -0.0512361191, -0.0600573793, -0.1463172436, 0.0000573471, 0.0057429727, 0.0935515910, 0.2433531582, -0.3568787575};
#endif

#endif
