//Numpy array shape [3, 3, 64, 1]
//Min -0.523437500000
//Max 0.491699218750
//Number of zeros 0

#ifndef D10_H_
#define D10_H_

#ifndef __SYNTHESIS__
model_default_t d10[576];
#else
model_default_t d10[576] = {-0.1054687500, 0.0283355713, 0.0775756836, -0.1263427734, -0.1307373047, -0.1055297852, 0.1518554688, 0.0248413086, 0.0112075806, -0.2194824219, 0.0403442383, 0.0099029541, -0.0570678711, 0.0566406250, -0.1252441406, 0.2641601562, 0.3435058594, -0.1590576172, 0.1296386719, 0.2705078125, -0.1530761719, 0.0263519287, -0.0322570801, 0.0038871765, -0.2449951172, 0.0780639648, 0.0488281250, 0.0310668945, 0.1613769531, 0.0237121582, 0.1440429688, -0.1390380859, 0.4201660156, -0.4589843750, 0.1872558594, -0.1230468750, 0.2824707031, 0.1275634766, -0.2597656250, 0.1383056641, -0.1002197266, -0.0204772949, 0.0527954102, 0.0048255920, -0.1157836914, 0.1574707031, 0.0724487305, 0.0665893555, -0.0239105225, 0.2497558594, 0.0794067383, -0.0157928467, -0.0044136047, -0.3327636719, -0.0332946777, 0.2812500000, 0.0802612305, -0.0975952148, 0.2348632812, -0.0678100586, -0.0686035156, -0.1314697266, -0.3359375000, 0.2778320312, -0.1101684570, -0.0236663818, 0.2692871094, -0.0276641846, -0.0417785645, -0.1291503906, -0.1319580078, 0.1251220703, -0.0425720215, -0.0957641602, -0.3015136719, 0.0155563354, 0.2252197266, 0.2844238281, -0.1084594727, 0.1514892578, 0.1987304688, -0.0720825195, 0.0528564453, 0.2524414062, 0.3203125000, 0.1759033203, -0.1297607422, 0.1319580078, 0.0194244385, 0.2142333984, 0.3012695312, 0.0035667419, 0.1256103516, -0.2175292969, 0.1033325195, -0.2305908203, -0.0225372314, -0.1915283203, 0.0357666016, 0.0723266602, 0.2973632812, -0.0177001953, -0.2001953125, 0.2602539062, -0.3535156250, 0.1007080078, -0.0225677490, -0.4006347656, -0.1704101562, 0.0632934570, 0.1666259766, -0.1811523438, -0.0982055664, 0.0958251953, 0.1430664062, -0.1931152344, -0.0718383789, -0.1608886719, -0.1091918945, 0.2634277344, -0.0236816406, -0.0670776367, 0.0261383057, -0.1513671875, -0.0032863617, 0.1021728516, -0.0414428711, 0.2106933594, -0.0350646973, -0.0580444336, 0.2988281250, 0.2127685547, 0.1618652344, -0.1639404297, -0.1531982422, 0.0751953125, 0.1329345703, -0.0745849609, -0.3857421875, 0.0447998047, -0.1124877930, 0.2602539062, -0.1221923828, 0.1638183594, 0.3083496094, -0.1228637695, 0.2397460938, -0.2174072266, -0.1384277344, 0.2042236328, 0.0607299805, 0.0905151367, -0.0863647461, 0.1222534180, 0.1403808594, 0.0090942383, 0.1038208008, -0.1245727539, 0.1522216797, -0.2229003906, -0.4040527344, -0.0434875488, -0.1132202148, -0.1534423828, 0.4448242188, 0.0336914062, -0.2276611328, 0.3071289062, -0.0402832031, 0.0296020508, 0.0980834961, -0.1544189453, 0.0285034180, -0.0932006836, 0.0326538086, -0.1187744141, -0.1484375000, -0.2048339844, 0.2724609375, -0.2287597656, -0.0263366699, -0.1507568359, 0.1104125977, 0.2409667969, 0.0205383301, -0.1545410156, 0.2447509766, -0.1455078125, 0.1230468750, 0.2529296875, -0.2883300781, 0.1986083984, -0.0929565430, 0.1613769531, 0.0545349121, 0.2905273438, -0.2675781250, -0.2475585938, 0.0079498291, -0.0825195312, 0.1391601562, -0.3742675781, 0.0693359375, 0.2368164062, -0.0130844116, -0.2343750000, -0.1484375000, 0.0270996094, 0.0612792969, -0.0882568359, -0.0375061035, 0.0436706543, -0.1572265625, 0.0063781738, -0.1162719727, -0.0000745058, -0.1932373047, 0.1249389648, -0.0502929688, -0.0819702148, 0.1307373047, 0.1448974609, -0.0930786133, -0.1159667969, 0.1323242188, -0.2709960938, -0.0280303955, -0.2932128906, 0.0947875977, -0.0237884521, -0.1525878906, 0.0422668457, 0.1760253906, -0.2252197266, 0.1572265625, -0.1544189453, -0.1243896484, -0.0905151367, 0.0469665527, -0.2705078125, 0.0789184570, 0.2478027344, 0.1143798828, -0.2553710938, -0.2016601562, -0.3422851562, -0.2556152344, 0.1710205078, 0.0490417480, -0.1838378906, 0.2382812500, 0.1087036133, -0.0825805664, 0.0428161621, -0.2445068359, 0.2495117188, -0.2014160156, 0.1453857422, 0.0280456543, -0.0709838867, -0.1564941406, -0.1286621094, -0.3181152344, 0.1641845703, 0.2314453125, 0.2000732422, -0.0564270020, 0.1685791016, -0.1082763672, -0.1606445312, -0.1973876953, -0.3686523438, -0.0257720947, -0.1828613281, -0.0387268066, -0.0221862793, 0.1898193359, 0.3347167969, -0.3366699219, 0.1492919922, 0.3623046875, 0.2927246094, 0.0622863770, -0.2993164062, 0.2115478516, -0.2900390625, 0.1148681641, -0.0705566406, 0.0071754456, -0.1932373047, 0.2081298828, -0.1331787109, 0.0016899109, -0.5234375000, -0.0546569824, -0.0910034180, 0.2141113281, 0.0328674316, 0.1976318359, -0.2487792969, -0.1582031250, 0.0121231079, -0.0185089111, -0.3264160156, -0.1728515625, -0.0013751984, 0.1672363281, -0.1815185547, -0.2778320312, -0.0028266907, -0.2374267578, 0.1353759766, 0.0139999390, -0.1567382812, 0.1667480469, -0.1328125000, 0.3283691406, 0.3129882812, 0.1832275391, 0.2447509766, -0.2496337891, 0.1628417969, 0.0241546631, -0.0977172852, -0.0019111633, -0.2237548828, -0.3151855469, -0.0070571899, 0.3383789062, 0.1455078125, -0.2109375000, 0.2365722656, -0.0374755859, -0.1244506836, -0.1545410156, -0.1657714844, 0.0981445312, -0.1942138672, -0.2214355469, -0.3530273438, -0.1937255859, 0.3754882812, 0.1064453125, 0.1326904297, 0.1815185547, 0.2237548828, -0.0610656738, -0.2517089844, 0.2363281250, -0.2490234375, 0.0766601562, -0.2415771484, -0.0944824219, -0.0666503906, -0.0577697754, -0.2236328125, 0.0615539551, -0.2663574219, -0.1727294922, 0.0505065918, 0.1757812500, -0.0708007812, 0.1483154297, -0.1889648438, 0.0254058838, 0.0189666748, 0.0519714355, -0.2680664062, 0.0580139160, -0.3422851562, 0.1602783203, -0.2973632812, -0.2287597656, -0.0786743164, -0.1278076172, 0.2303466797, 0.0597839355, -0.1843261719, 0.2043457031, -0.1352539062, 0.1016235352, 0.1162719727, 0.0831298828, 0.1961669922, -0.1837158203, 0.3410644531, -0.1474609375, 0.1314697266, -0.3315429688, -0.1547851562, 0.3466796875, -0.3098144531, 0.1222534180, -0.2634277344, -0.1749267578, 0.2592773438, -0.2150878906, -0.0477294922, -0.2086181641, 0.0164337158, 0.1968994141, -0.0922241211, -0.1044921875, 0.0469970703, -0.1889648438, 0.1541748047, -0.2003173828, 0.3376464844, -0.2312011719, 0.0476074219, 0.1396484375, -0.2497558594, 0.0991821289, 0.1932373047, -0.4077148438, 0.2169189453, -0.1069946289, 0.1192626953, -0.4628906250, -0.1607666016, 0.0347900391, 0.0938110352, -0.0364990234, -0.0184783936, -0.1961669922, -0.3557128906, 0.2342529297, -0.1246337891, 0.2406005859, -0.5156250000, 0.1468505859, -0.1224365234, 0.1300048828, 0.1972656250, 0.0533447266, -0.0423583984, -0.1401367188, -0.0007424355, -0.2115478516, 0.0734252930, 0.2573242188, -0.2521972656, -0.0229339600, 0.2968750000, -0.1309814453, 0.1718750000, -0.0941162109, 0.0651245117, -0.2521972656, 0.1256103516, -0.3208007812, -0.0868530273, -0.0716552734, -0.2116699219, 0.0491943359, -0.2531738281, 0.1282958984, 0.1757812500, 0.0490112305, 0.1209716797, -0.3723144531, 0.2924804688, -0.2406005859, -0.1524658203, 0.1540527344, -0.2651367188, -0.1319580078, -0.0420227051, -0.1813964844, -0.0538635254, -0.2014160156, 0.1442871094, -0.0638427734, 0.1514892578, 0.2592773438, -0.1303710938, 0.0925903320, -0.0977172852, -0.2226562500, 0.0451660156, 0.0194244385, -0.0238647461, -0.1849365234, -0.2064208984, 0.0349121094, -0.2015380859, -0.0579833984, -0.2912597656, -0.2629394531, -0.2580566406, 0.3278808594, -0.1447753906, 0.4916992188, -0.1287841797, 0.2377929688, -0.0777587891, 0.3229980469, -0.0644531250, 0.1417236328, -0.0621643066, -0.1274414062, 0.1365966797, -0.1562500000, 0.0789184570, 0.3762207031, -0.0891723633, -0.1425781250, 0.1126708984, 0.1791992188, -0.0167999268, -0.1284179688, 0.0520629883, -0.1774902344, 0.2651367188, -0.3879394531, -0.2856445312, 0.0375366211, -0.2056884766, 0.1032104492, -0.3452148438, 0.1909179688, 0.1683349609, -0.0762939453, 0.1643066406, -0.1859130859, -0.0980224609, -0.2568359375, -0.1140136719, 0.2272949219, -0.1931152344, -0.3815917969, -0.2238769531, -0.0151138306, 0.1785888672, -0.0990600586, 0.2873535156, -0.1072387695, 0.1234741211, 0.1856689453, -0.2331542969, 0.2155761719, -0.3342285156, -0.1878662109, 0.0104827881, 0.1776123047, -0.0672607422, -0.2344970703, -0.1398925781, 0.0671386719, 0.0069580078, -0.1624755859, -0.2432861328, 0.0373840332, -0.1817626953, 0.2462158203, -0.1369628906, 0.2609863281, 0.1297607422, 0.3527832031, -0.1518554688, 0.3674316406, -0.1319580078, 0.1687011719, -0.0905151367, -0.1281738281, 0.0514831543, -0.2646484375, -0.0212097168, 0.3186035156, -0.2724609375, 0.0131988525, 0.3786621094, -0.0623474121, -0.3518066406, -0.0872192383, 0.1181640625};
#endif

#endif
