//Numpy array shape [3, 3, 32, 1]
//Min -0.454833984375
//Max 0.458984375000
//Number of zeros 0

#ifndef D6_H_
#define D6_H_

#ifndef __SYNTHESIS__
model_default_t d6[288];
#else
model_default_t d6[288] = {-0.0878906250, -0.1289062500, -0.1213989258, -0.0884399414, 0.0411987305, -0.1001586914, 0.0133590698, 0.2406005859, 0.0085678101, -0.1115112305, 0.2000732422, -0.2274169922, -0.1063232422, -0.1076049805, -0.1721191406, 0.0406799316, -0.1403808594, -0.0521545410, 0.0571594238, 0.1975097656, -0.0321044922, -0.0987548828, 0.1728515625, -0.0789184570, -0.0428771973, 0.2373046875, 0.1514892578, 0.0238494873, -0.1129150391, -0.3442382812, 0.1868896484, 0.0552673340, -0.3327636719, 0.1855468750, -0.1138916016, -0.0267486572, -0.0670776367, -0.1197509766, -0.2349853516, 0.2546386719, 0.3190917969, 0.0708007812, 0.0165252686, -0.2534179688, 0.0442199707, 0.0948486328, -0.0635986328, -0.0373229980, 0.0263061523, -0.0186462402, 0.1885986328, 0.3715820312, -0.0297698975, -0.0786132812, 0.1174316406, -0.0108871460, -0.0902709961, 0.0637817383, -0.2648925781, 0.0731201172, -0.1102294922, 0.0090484619, 0.3312988281, -0.2758789062, -0.2086181641, 0.0364685059, 0.1243286133, -0.2524414062, -0.4548339844, -0.0563964844, 0.0932006836, -0.0128097534, -0.2083740234, 0.3220214844, 0.1273193359, 0.0908203125, -0.0100250244, -0.0169830322, 0.1054687500, -0.0592956543, -0.0977783203, -0.1949462891, 0.0452575684, 0.0695190430, 0.4589843750, -0.0384826660, -0.0764770508, 0.1303710938, -0.2563476562, -0.1455078125, -0.0496826172, -0.0606994629, -0.2644042969, -0.0965576172, 0.2382812500, 0.1488037109, 0.0051193237, -0.1477050781, -0.1597900391, 0.0368347168, -0.0315856934, 0.1300048828, 0.3515625000, 0.2263183594, 0.2072753906, -0.1467285156, 0.0908203125, 0.1986083984, -0.0321350098, 0.0247497559, -0.3386230469, 0.1394042969, -0.0795288086, -0.1712646484, 0.1815185547, 0.0734863281, -0.1408691406, -0.2220458984, -0.1365966797, -0.2331542969, 0.0014314651, 0.1394042969, -0.1860351562, -0.0464782715, -0.2166748047, 0.2028808594, 0.0586547852, 0.0519409180, -0.0512695312, 0.0603637695, 0.4384765625, -0.1755371094, 0.1433105469, 0.4003906250, 0.1441650391, 0.1606445312, 0.0661010742, -0.1270751953, -0.0553283691, 0.0679931641, 0.2504882812, -0.2600097656, -0.2556152344, 0.1805419922, -0.4328613281, 0.1826171875, 0.3247070312, 0.1557617188, -0.0087509155, -0.3029785156, 0.1340332031, -0.0823974609, 0.0428161621, 0.2347412109, -0.1210937500, -0.1005859375, -0.1796875000, 0.1856689453, 0.1800537109, -0.0607299805, 0.2744140625, 0.1984863281, -0.2174072266, -0.1965332031, 0.0173034668, -0.0298309326, -0.2775878906, -0.1211547852, -0.2783203125, -0.0993652344, 0.1943359375, 0.2648925781, 0.2086181641, -0.1420898438, -0.1674804688, 0.0014181137, -0.1300048828, 0.0815429688, 0.1020507812, 0.0309753418, 0.2001953125, -0.0263366699, -0.0735473633, -0.1275634766, -0.3520507812, -0.1697998047, 0.1029663086, -0.0070381165, -0.1992187500, 0.2036132812, 0.0115737915, -0.0336303711, 0.1190185547, -0.4541015625, 0.0533752441, 0.0557556152, -0.1684570312, 0.1940917969, -0.2080078125, -0.2619628906, -0.0479736328, -0.0054779053, -0.2296142578, -0.0621948242, 0.1464843750, 0.1523437500, 0.2010498047, 0.2514648438, -0.2719726562, -0.3271484375, 0.0132141113, 0.1029052734, -0.0780639648, 0.0256958008, -0.1740722656, 0.0765380859, -0.1143188477, 0.1040649414, -0.2416992188, -0.3461914062, -0.0659179688, -0.1406250000, -0.0867919922, 0.0920410156, -0.0237579346, -0.0968627930, 0.1864013672, -0.0692138672, 0.0245361328, -0.1727294922, 0.0846557617, -0.1738281250, -0.3344726562, -0.3212890625, -0.3862304688, 0.1551513672, 0.1832275391, -0.2668457031, -0.1080932617, 0.2785644531, 0.0063552856, -0.0160369873, 0.0441284180, 0.0434265137, -0.1121215820, -0.1409912109, -0.2172851562, -0.1239013672, 0.1229248047, 0.1540527344, 0.2169189453, -0.4526367188, -0.2105712891, -0.0641479492, -0.2279052734, -0.3522949219, 0.1562500000, -0.1201171875, -0.2661132812, -0.0307312012, 0.0061645508, -0.2208251953, -0.1356201172, -0.0694580078, 0.1152954102, -0.0823364258, -0.1008911133, 0.0675048828, 0.0621948242, -0.3725585938, -0.0374145508, 0.1242065430, 0.2316894531, 0.2985839844, 0.0106887817, -0.0481872559, -0.1693115234, -0.2238769531, -0.3952636719, -0.2827148438, -0.2607421875, 0.2398681641, 0.3081054688, -0.2186279297, 0.0520324707, 0.1881103516, -0.1782226562, -0.1837158203};
#endif

#endif
