//Numpy array shape [1, 1, 64, 64]
//Min -0.820312500000
//Max 0.796386718750
//Number of zeros 2048

#ifndef P10_H_
#define P10_H_

#ifndef __SYNTHESIS__
model_default_t p10[4096];
#else
model_default_t p10[4096] = {0.0000000000, 0.2622070312, -0.2001953125, 0.0000000000, -0.0000000000, 0.2951660156, 0.4719238281, -0.0000000000, -0.0000000000, 0.3256835938, 0.3723144531, 0.0000000000, 0.2827148438, 0.0000000000, -0.0000000000, -0.0000000000, 0.0000000000, 0.2296142578, -0.0000000000, -0.1831054688, 0.1948242188, -0.0000000000, 0.0000000000, 0.3234863281, 0.2924804688, -0.0000000000, 0.0000000000, -0.0000000000, -0.2597656250, 0.0000000000, -0.0000000000, -0.0000000000, -0.3686523438, 0.6284179688, -0.0000000000, 0.2541503906, -0.1606445312, -0.3869628906, -0.2324218750, -0.0000000000, 0.0000000000, 0.0000000000, -0.0000000000, 0.0000000000, -0.0000000000, -0.0000000000, -0.2839355469, 0.0000000000, 0.1339111328, 0.0000000000, -0.0000000000, 0.1817626953, 0.3205566406, 0.2106933594, 0.0000000000, 0.0000000000, -0.1824951172, -0.0000000000, 0.2871093750, 0.4089355469, 0.3618164062, -0.2934570312, 0.1802978516, 0.2790527344, 0.2122802734, 0.2388916016, -0.2651367188, -0.2137451172, -0.1525878906, 0.2700195312, -0.1672363281, -0.2705078125, -0.2120361328, 0.2073974609, -0.0000000000, -0.0000000000, 0.0000000000, 0.3452148438, 0.1900634766, 0.0000000000, -0.0000000000, -0.0000000000, 0.0000000000, -0.0000000000, -0.3300781250, -0.2374267578, -0.0000000000, 0.0000000000, 0.2814941406, 0.0000000000, 0.3542480469, 0.0000000000, 0.1887207031, 0.0000000000, -0.2237548828, 0.2673339844, 0.2467041016, 0.0000000000, -0.1744384766, 0.1997070312, 0.0000000000, -0.0000000000, 0.0000000000, -0.0000000000, 0.4147949219, -0.0000000000, 0.0000000000, -0.0000000000, 0.0000000000, -0.2224121094, -0.2526855469, -0.1501464844, 0.3359375000, 0.2570800781, -0.0000000000, -0.2507324219, -0.1770019531, -0.2486572266, -0.4008789062, -0.0000000000, 0.4772949219, -0.1096191406, 0.0000000000, 0.4504394531, 0.3173828125, 0.0000000000, -0.3010253906, -0.0000000000, 0.0000000000, -0.3510742188, -0.0000000000, 0.0000000000, 0.1258544922, 0.1466064453, -0.0000000000, 0.7290039062, -0.0000000000, -0.1989746094, -0.0000000000, 0.0000000000, 0.0000000000, -0.0000000000, 0.3413085938, 0.3728027344, 0.2185058594, 0.1307373047, -0.4299316406, -0.0000000000, 0.1694335938, -0.1997070312, 0.0000000000, -0.3911132812, -0.0000000000, -0.0000000000, -0.0000000000, 0.2775878906, -0.0000000000, -0.3164062500, -0.0000000000, 0.0000000000, -0.1827392578, 0.4360351562, -0.0000000000, 0.1743164062, -0.3518066406, 0.3430175781, -0.0000000000, 0.0000000000, 0.0000000000, 0.0000000000, -0.1651611328, 0.2241210938, 0.0000000000, -0.5932617188, 0.0000000000, -0.0000000000, -0.0000000000, 0.0000000000, 0.4379882812, -0.0000000000, 0.5048828125, -0.0000000000, -0.0000000000, 0.0000000000, -0.4147949219, -0.0000000000, -0.2159423828, -0.2722167969, 0.0000000000, 0.1649169922, -0.0000000000, -0.2474365234, -0.2061767578, -0.0000000000, 0.0000000000, -0.3190917969, 0.1060180664, -0.0000000000, -0.0000000000, -0.2274169922, -0.0000000000, -0.0000000000, 0.0000000000, 0.0000000000, 0.0000000000, -0.1431884766, 0.3142089844, 0.3144531250, 0.2678222656, -0.0000000000, 0.6254882812, -0.4350585938, 0.0000000000, -0.2675781250, 0.0000000000, -0.0000000000, -0.0000000000, -0.0000000000, 0.0000000000, 0.2271728516, -0.0000000000, 0.2695312500, 0.0000000000, -0.3098144531, 0.4272460938, -0.0000000000, -0.0000000000, -0.2868652344, -0.0000000000, 0.0000000000, 0.0000000000, -0.2768554688, 0.0000000000, -0.2824707031, -0.0000000000, -0.0000000000, -0.1207885742, -0.0000000000, 0.0000000000, 0.0000000000, 0.2191162109, 0.0000000000, -0.1104736328, -0.4538574219, 0.0000000000, -0.0000000000, -0.0000000000, 0.0000000000, -0.0000000000, -0.0000000000, 0.1560058594, -0.5283203125, -0.2315673828, -0.0000000000, 0.3322753906, -0.1879882812, 0.0000000000, 0.2858886719, 0.0000000000, 0.0000000000, 0.0000000000, -0.3588867188, -0.0000000000, -0.0000000000, 0.2299804688, 0.3840332031, 0.2218017578, -0.2117919922, 0.0000000000, 0.0000000000, 0.1551513672, -0.3613281250, -0.1800537109, 0.2247314453, 0.1727294922, 0.1978759766, 0.1315917969, -0.3222656250, -0.3242187500, -0.4902343750, 0.1782226562, -0.1718750000, -0.1984863281, -0.2854003906, -0.0000000000, 0.2868652344, 0.0000000000, -0.0000000000, -0.1312255859, 0.2719726562, 0.1988525391, -0.6083984375, 0.0000000000, 0.1522216797, 0.1551513672, 0.0000000000, 0.0000000000, 0.0000000000, -0.0000000000, 0.0000000000, 0.1564941406, -0.0000000000, 0.1983642578, 0.0000000000, -0.3803710938, -0.1735839844, 0.1639404297, -0.1187133789, -0.0000000000, 0.0000000000, 0.1416015625, -0.5922851562, 0.2482910156, -0.0000000000, -0.0000000000, -0.1767578125, 0.0000000000, -0.0000000000, 0.2851562500, -0.0000000000, 0.4228515625, -0.1837158203, 0.3320312500, -0.2832031250, 0.1745605469, 0.0000000000, -0.0000000000, 0.1322021484, 0.1744384766, 0.0000000000, 0.0000000000, -0.0000000000, -0.3383789062, 0.2126464844, 0.2416992188, 0.3698730469, -0.2773437500, -0.0000000000, -0.0000000000, 0.0000000000, -0.0000000000, -0.0000000000, -0.0000000000, -0.1572265625, 0.0000000000, 0.3393554688, -0.1859130859, -0.3249511719, 0.0000000000, -0.4228515625, 0.2712402344, -0.0000000000, 0.0000000000, -0.0000000000, -0.0000000000, 0.0000000000, 0.0000000000, -0.0000000000, -0.2441406250, -0.2073974609, 0.4470214844, -0.0000000000, 0.0000000000, 0.0000000000, 0.1937255859, 0.0000000000, 0.0000000000, 0.2683105469, -0.0000000000, 0.3098144531, -0.2917480469, 0.0000000000, 0.2344970703, 0.0000000000, 0.1357421875, 0.1430664062, -0.5751953125, -0.3693847656, 0.2675781250, 0.0000000000, 0.0000000000, 0.1661376953, -0.0000000000, 0.0000000000, 0.2386474609, -0.0000000000, -0.0000000000, 0.1667480469, -0.0000000000, -0.1491699219, 0.2235107422, -0.0000000000, -0.0000000000, 0.4782714844, -0.1961669922, 0.7963867188, 0.2631835938, 0.2534179688, -0.0000000000, 0.2822265625, -0.1732177734, -0.0000000000, -0.0000000000, -0.0000000000, -0.2795410156, -0.2539062500, 0.0000000000, 0.3161621094, 0.1632080078, -0.0000000000, -0.0000000000, -0.3730468750, 0.1926269531, -0.2231445312, 0.0000000000, -0.3220214844, -0.1593017578, -0.0000000000, -0.3012695312, 0.0000000000, -0.0000000000, 0.3681640625, -0.4252929688, -0.2076416016, -0.0000000000, -0.2132568359, -0.3437500000, 0.1507568359, 0.0000000000, -0.1148681641, -0.2307128906, -0.0000000000, 0.0000000000, 0.2333984375, 0.0000000000, 0.0000000000, -0.0000000000, -0.0000000000, -0.5742187500, 0.2167968750, -0.0000000000, 0.0000000000, -0.2023925781, -0.2191162109, -0.0000000000, -0.0000000000, -0.4333496094, -0.0000000000, 0.2186279297, 0.0000000000, -0.2316894531, -0.0000000000, -0.2685546875, -0.0000000000, -0.0000000000, 0.0000000000, 0.4162597656, 0.0000000000, -0.0000000000, -0.0000000000, -0.3046875000, 0.0000000000, -0.2437744141, 0.2387695312, -0.2883300781, -0.0000000000, 0.4189453125, 0.0000000000, 0.2690429688, -0.1343994141, 0.3347167969, 0.4191894531, -0.0000000000, 0.2329101562, -0.0000000000, 0.1639404297, 0.2357177734, 0.0000000000, -0.0000000000, 0.2646484375, 0.2509765625, 0.1718750000, 0.3925781250, -0.1512451172, 0.0000000000, 0.2384033203, 0.2727050781, 0.2509765625, -0.2127685547, 0.0993652344, -0.3652343750, 0.4782714844, 0.1619873047, 0.1730957031, -0.1887207031, 0.0000000000, 0.3188476562, 0.1894531250, -0.0000000000, -0.2854003906, -0.2208251953, -0.1829833984, -0.0000000000, -0.0000000000, 0.1285400391, 0.3752441406, 0.0000000000, -0.2834472656, -0.2724609375, 0.0000000000, 0.0000000000, -0.0000000000, -0.1304931641, -0.0000000000, 0.4020996094, -0.2788085938, -0.0000000000, -0.2919921875, -0.3688964844, -0.0000000000, -0.0000000000, 0.0000000000, -0.8203125000, 0.2622070312, -0.0000000000, -0.0000000000, 0.2302246094, -0.2066650391, -0.0000000000, -0.0000000000, 0.2211914062, 0.0000000000, 0.0000000000, 0.1447753906, -0.0000000000, 0.0000000000, -0.0000000000, 0.2386474609, -0.0000000000, -0.0000000000, 0.0000000000, 0.2154541016, 0.0000000000, -0.0000000000, 0.3469238281, 0.1479492188, 0.1610107422, -0.0000000000, -0.1101684570, 0.0000000000, -0.0000000000, -0.0000000000, -0.2509765625, -0.3286132812, 0.0000000000, -0.2456054688, -0.0000000000, 0.2441406250, -0.0000000000, 0.0000000000, 0.0000000000, 0.0000000000, -0.0000000000, 0.0000000000, -0.0000000000, -0.0000000000, 0.0000000000, -0.0000000000, -0.2076416016, -0.2124023438, 0.4003906250, -0.0000000000, 0.2227783203, -0.0000000000, -0.1888427734, -0.0000000000, -0.0000000000, 0.0000000000, 0.0000000000, 0.4431152344, 0.2156982422, 0.1904296875, 0.0000000000, 0.0000000000, -0.5747070312, 0.4445800781, -0.2388916016, 0.2277832031, -0.1430664062, 0.0000000000, -0.0000000000, 0.0000000000, -0.3508300781, -0.2135009766, -0.2700195312, 0.3225097656, 0.2944335938, -0.0000000000, -0.0000000000, -0.2792968750, -0.1496582031, 0.1091308594, -0.0000000000, 0.0000000000, 0.0000000000, -0.4023437500, 0.0000000000, -0.2099609375, 0.2907714844, 0.0000000000, 0.0000000000, -0.3081054688, -0.0000000000, -0.0000000000, 0.0000000000, 0.2756347656, -0.0000000000, 0.0000000000, -0.0000000000, -0.7197265625, -0.0000000000, 0.1597900391, 0.0000000000, -0.0000000000, -0.2900390625, -0.0000000000, 0.2687988281, -0.3784179688, -0.0000000000, -0.2631835938, 0.0000000000, -0.3337402344, 0.4235839844, -0.0000000000, 0.5502929688, 0.0000000000, -0.2191162109, 0.2016601562, -0.1181030273, 0.2639160156, 0.0000000000, 0.2536621094, 0.0000000000, 0.5390625000, -0.0000000000, -0.4624023438, 0.2384033203, 0.2651367188, 0.3271484375, 0.0000000000, 0.1123657227, 0.0000000000, 0.2553710938, -0.0000000000, 0.2814941406, -0.1323242188, 0.0000000000, -0.2484130859, 0.0000000000, 0.1694335938, 0.2780761719, -0.0000000000, -0.0000000000, -0.2473144531, 0.2062988281, 0.2890625000, -0.4147949219, -0.1771240234, 0.0000000000, 0.0000000000, -0.4614257812, -0.2192382812, 0.0000000000, -0.0000000000, -0.3046875000, -0.0000000000, 0.3447265625, -0.0000000000, -0.0000000000, 0.1103515625, 0.0000000000, 0.0000000000, 0.0000000000, 0.0000000000, -0.2023925781, 0.2788085938, -0.0000000000, 0.0000000000, -0.4975585938, -0.4138183594, -0.0000000000, 0.0000000000, 0.2045898438, 0.2413330078, 0.0000000000, 0.0000000000, -0.0000000000, -0.0000000000, 0.2814941406, 0.0000000000, 0.0000000000, -0.1503906250, -0.1605224609, 0.2880859375, 0.0000000000, 0.3620605469, -0.0000000000, -0.4931640625, -0.0000000000, -0.0000000000, -0.0000000000, 0.1607666016, -0.0000000000, 0.0000000000, -0.2061767578, -0.0000000000, 0.1738281250, -0.0000000000, -0.0000000000, 0.0000000000, -0.3408203125, -0.0000000000, 0.4030761719, -0.0000000000, 0.0000000000, -0.3803710938, -0.4018554688, -0.1917724609, 0.2186279297, 0.4487304688, -0.2949218750, 0.0000000000, 0.0000000000, 0.2459716797, 0.0000000000, 0.2196044922, -0.0000000000, -0.0000000000, -0.0000000000, -0.0000000000, 0.2346191406, -0.0000000000, 0.0000000000, -0.0000000000, -0.1790771484, -0.5151367188, 0.3710937500, -0.2004394531, -0.0000000000, 0.1589355469, -0.0000000000, 0.0000000000, 0.0000000000, 0.0000000000, 0.3046875000, 0.0000000000, 0.0000000000, -0.1776123047, 0.0000000000, -0.0000000000, 0.3178710938, -0.2651367188, 0.0000000000, -0.0000000000, 0.2463378906, 0.0000000000, 0.0000000000, 0.2318115234, 0.0000000000, -0.0000000000, -0.1473388672, 0.0000000000, 0.2695312500, 0.0000000000, -0.0000000000, -0.0000000000, -0.1519775391, 0.2861328125, -0.2062988281, 0.0000000000, 0.3088378906, -0.2932128906, -0.0000000000, -0.0000000000, 0.0000000000, -0.0000000000, -0.0000000000, 0.2248535156, 0.0000000000, -0.2983398438, -0.1628417969, -0.2634277344, 0.4570312500, -0.0000000000, 0.2666015625, -0.2442626953, -0.0000000000, -0.3063964844, -0.1134033203, -0.4858398438, 0.0000000000, -0.0000000000, -0.4348144531, -0.2429199219, -0.3181152344, 0.0000000000, 0.0000000000, -0.4265136719, 0.0000000000, 0.0000000000, -0.0000000000, -0.2113037109, 0.3527832031, -0.0000000000, 0.0000000000, -0.0000000000, 0.0000000000, 0.0000000000, 0.0000000000, 0.0000000000, 0.1907958984, -0.0000000000, -0.1562500000, -0.4375000000, 0.0000000000, -0.0000000000, -0.0000000000, -0.1849365234, 0.2301025391, -0.0000000000, -0.0000000000, -0.2893066406, -0.0000000000, -0.2061767578, -0.0000000000, 0.3798828125, -0.0000000000, 0.0000000000, 0.0000000000, 0.2727050781, -0.0000000000, 0.0000000000, -0.0000000000, 0.0000000000, -0.2406005859, 0.0000000000, -0.1755371094, -0.0000000000, 0.1647949219, -0.2612304688, 0.4313964844, -0.4836425781, -0.0000000000, 0.0000000000, -0.1606445312, -0.1837158203, 0.0000000000, -0.2092285156, 0.2005615234, -0.0000000000, 0.0000000000, -0.4763183594, 0.2807617188, 0.0000000000, -0.3181152344, 0.0000000000, 0.0000000000, 0.0000000000, -0.0000000000, 0.4694824219, 0.0000000000, 0.2919921875, -0.0000000000, 0.1296386719, 0.1564941406, -0.0000000000, -0.1617431641, 0.0000000000, -0.1744384766, 0.1668701172, 0.2641601562, 0.2491455078, -0.3864746094, -0.2246093750, 0.3041992188, -0.0000000000, 0.0000000000, -0.0000000000, 0.2001953125, -0.3300781250, -0.1520996094, -0.3107910156, 0.0000000000, -0.4753417969, 0.4016113281, 0.1556396484, -0.2426757812, -0.4372558594, -0.0000000000, 0.3652343750, -0.0000000000, 0.3649902344, -0.2220458984, -0.0000000000, -0.4172363281, 0.0000000000, 0.0000000000, 0.0000000000, -0.0000000000, 0.0000000000, -0.0000000000, -0.1682128906, 0.0000000000, 0.0000000000, -0.0000000000, 0.2607421875, -0.1701660156, 0.2934570312, 0.4611816406, 0.3862304688, -0.3999023438, -0.1551513672, 0.3876953125, -0.3002929688, -0.2420654297, -0.0000000000, 0.2141113281, -0.1789550781, -0.0000000000, -0.1928710938, 0.5693359375, 0.0000000000, -0.0000000000, 0.1741943359, 0.0000000000, 0.0000000000, -0.0000000000, 0.2912597656, 0.0000000000, 0.0000000000, -0.0000000000, 0.0000000000, 0.1613769531, 0.5786132812, 0.0000000000, -0.0000000000, -0.1750488281, -0.0000000000, -0.0000000000, -0.2744140625, 0.0000000000, -0.0000000000, 0.0000000000, -0.1729736328, -0.0000000000, -0.0000000000, -0.0000000000, -0.1226806641, -0.0000000000, -0.2717285156, 0.0000000000, -0.2059326172, 0.0000000000, -0.0000000000, 0.1437988281, 0.0000000000, -0.1444091797, -0.3713378906, 0.0000000000, -0.0000000000, -0.1743164062, -0.0000000000, 0.3227539062, 0.0000000000, -0.0000000000, 0.2824707031, -0.2395019531, -0.2403564453, 0.0000000000, 0.0000000000, -0.1578369141, -0.3447265625, -0.0000000000, -0.1798095703, -0.0000000000, -0.5048828125, -0.3303222656, 0.0000000000, -0.0000000000, 0.0000000000, 0.0000000000, -0.0000000000, 0.0000000000, 0.0000000000, 0.0000000000, -0.2583007812, -0.1203002930, -0.2364501953, 0.0000000000, -0.2294921875, -0.2641601562, 0.0000000000, -0.0000000000, 0.0000000000, -0.4953613281, -0.0000000000, -0.0000000000, 0.0000000000, -0.6997070312, -0.4775390625, 0.0000000000, 0.0000000000, 0.4570312500, 0.0000000000, 0.3447265625, 0.2634277344, -0.0000000000, 0.0000000000, 0.0000000000, 0.0000000000, -0.0000000000, -0.1926269531, -0.0000000000, 0.1799316406, 0.1729736328, -0.2054443359, -0.5234375000, -0.0000000000, -0.0000000000, 0.3061523438, -0.1741943359, -0.2137451172, 0.2900390625, -0.0000000000, 0.0000000000, 0.3459472656, 0.2722167969, 0.0000000000, 0.0000000000, -0.0000000000, 0.0000000000, -0.0000000000, 0.0000000000, 0.0000000000, -0.1881103516, -0.1611328125, -0.3925781250, -0.2442626953, -0.0000000000, 0.0000000000, 0.0000000000, 0.3544921875, 0.0000000000, 0.1788330078, 0.2401123047, -0.0000000000, 0.0000000000, -0.0000000000, -0.3530273438, -0.0000000000, 0.1734619141, 0.6191406250, 0.4926757812, 0.1900634766, 0.2260742188, -0.2609863281, -0.3767089844, -0.0000000000, -0.0000000000, -0.0000000000, -0.2502441406, 0.0000000000, 0.0000000000, 0.0000000000, -0.2763671875, -0.2880859375, 0.0000000000, 0.2680664062, -0.0000000000, 0.2246093750, 0.2893066406, -0.0000000000, -0.3059082031, 0.0000000000, -0.3085937500, -0.1671142578, 0.2281494141, -0.0000000000, -0.0000000000, -0.0000000000, 0.4211425781, 0.0000000000, 0.0000000000, -0.0000000000, -0.2293701172, -0.0000000000, -0.3815917969, -0.0000000000, 0.0000000000, 0.0000000000, 0.2382812500, 0.0000000000, 0.0000000000, 0.1778564453, 0.0000000000, 0.0000000000, -0.0000000000, 0.2218017578, 0.3120117188, -0.2071533203, 0.0000000000, -0.2631835938, -0.0000000000, -0.0000000000, 0.0000000000, -0.2885742188, -0.0000000000, 0.0000000000, 0.0000000000, -0.0000000000, -0.1491699219, -0.2531738281, -0.0000000000, 0.1531982422, -0.0000000000, 0.2117919922, 0.3933105469, 0.2293701172, -0.1580810547, 0.1713867188, 0.2298583984, -0.3674316406, -0.3752441406, -0.0000000000, 0.4514160156, 0.2404785156, -0.1645507812, -0.0000000000, -0.2729492188, -0.0000000000, 0.0000000000, -0.1508789062, 0.0000000000, 0.0000000000, 0.0000000000, 0.1639404297, 0.1817626953, -0.4587402344, -0.4040527344, 0.0000000000, 0.4001464844, 0.2739257812, -0.1558837891, 0.4880371094, 0.0000000000, 0.0000000000, -0.4382324219, 0.0000000000, -0.3232421875, -0.3308105469, -0.0000000000, 0.3559570312, 0.2180175781, 0.0000000000, -0.3383789062, -0.0000000000, -0.0000000000, -0.0000000000, -0.2246093750, 0.0000000000, -0.0000000000, 0.0000000000, -0.0000000000, 0.1430664062, 0.0000000000, 0.3649902344, -0.0000000000, -0.4509277344, 0.3989257812, -0.2656250000, 0.2600097656, 0.0000000000, -0.0000000000, -0.0000000000, -0.1450195312, -0.0000000000, -0.0000000000, -0.2163085938, 0.0000000000, -0.2954101562, 0.3488769531, 0.3471679688, 0.3598632812, 0.0000000000, 0.2169189453, 0.0000000000, 0.2286376953, 0.0000000000, 0.2197265625, 0.2548828125, 0.3078613281, 0.0000000000, -0.0000000000, -0.2502441406, -0.0000000000, -0.4133300781, -0.2398681641, -0.2763671875, -0.1724853516, 0.0000000000, -0.0000000000, 0.0000000000, 0.2558593750, 0.2873535156, -0.0000000000, 0.2880859375, 0.6313476562, 0.0000000000, 0.2878417969, -0.1081542969, 0.0000000000, 0.1918945312, -0.0000000000, 0.0000000000, 0.0000000000, 0.2668457031, -0.0000000000, -0.2929687500, 0.0000000000, -0.3886718750, -0.3405761719, 0.0000000000, 0.0000000000, 0.4504394531, -0.0000000000, -0.4279785156, 0.0000000000, -0.2905273438, -0.2768554688, -0.1336669922, -0.0000000000, -0.0000000000, -0.0000000000, -0.2856445312, -0.1367187500, 0.0000000000, -0.2927246094, -0.1817626953, 0.0000000000, 0.3259277344, -0.0000000000, 0.4133300781, -0.3710937500, 0.2932128906, 0.0000000000, -0.3874511719, 0.0000000000, 0.1651611328, -0.0000000000, -0.0000000000, 0.0000000000, -0.0000000000, 0.2143554688, 0.0000000000, 0.0000000000, 0.1796875000, -0.5263671875, -0.1463623047, 0.0000000000, 0.0000000000, 0.2607421875, 0.0000000000, 0.3049316406, 0.0000000000, 0.0000000000, 0.0000000000, -0.0000000000, -0.3347167969, -0.1871337891, 0.1975097656, -0.2103271484, 0.4836425781, -0.2236328125, -0.1619873047, 0.2800292969, 0.3676757812, -0.0000000000, 0.2880859375, 0.0000000000, -0.0000000000, 0.0000000000, 0.2700195312, -0.0000000000, 0.0000000000, 0.0000000000, -0.2237548828, -0.2824707031, 0.0000000000, -0.1244506836, 0.1306152344, 0.3449707031, 0.3723144531, 0.0000000000, -0.0000000000, -0.0000000000, -0.0000000000, -0.1268310547, -0.0000000000, -0.2724609375, -0.4196777344, 0.2966308594, 0.1301269531, -0.1931152344, -0.0000000000, -0.0000000000, 0.3085937500, -0.0000000000, -0.0000000000, 0.4296875000, 0.0000000000, 0.0000000000, 0.0000000000, 0.0000000000, 0.0000000000, 0.2770996094, -0.0000000000, -0.5732421875, -0.1728515625, -0.0000000000, 0.2678222656, 0.1688232422, 0.0000000000, -0.5126953125, -0.0000000000, 0.0000000000, -0.0000000000, 0.2241210938, -0.0000000000, 0.3049316406, -0.0000000000, -0.0000000000, 0.3916015625, 0.3164062500, 0.0000000000, -0.2164306641, 0.0000000000, -0.0000000000, -0.4509277344, 0.0000000000, 0.0000000000, -0.3195800781, -0.2128906250, 0.0000000000, 0.0000000000, -0.1462402344, 0.2034912109, 0.0000000000, -0.2303466797, 0.0000000000, -0.6411132812, 0.2475585938, 0.3703613281, 0.0000000000, 0.0000000000, 0.2131347656, 0.2161865234, -0.1988525391, -0.0000000000, 0.3264160156, -0.1854248047, 0.3376464844, 0.1772460938, 0.3125000000, -0.0000000000, 0.2067871094, 0.0000000000, 0.1370849609, 0.0000000000, 0.0000000000, -0.4621582031, -0.2536621094, 0.0000000000, 0.4487304688, -0.0000000000, -0.0000000000, 0.2360839844, -0.0000000000, -0.0000000000, -0.2138671875, 0.1234741211, -0.0000000000, -0.2753906250, -0.3330078125, -0.3479003906, -0.3110351562, 0.0000000000, 0.0000000000, -0.0000000000, 0.0000000000, -0.0000000000, -0.0000000000, 0.0000000000, -0.1540527344, 0.0000000000, 0.3095703125, 0.2268066406, 0.0000000000, -0.2651367188, 0.0000000000, 0.1667480469, 0.0000000000, 0.3479003906, -0.2854003906, -0.0000000000, -0.0000000000, 0.0000000000, -0.4108886719, 0.0000000000, 0.0000000000, -0.0000000000, -0.1591796875, 0.0000000000, 0.0000000000, 0.0985107422, 0.2409667969, -0.0000000000, -0.0000000000, 0.0000000000, -0.0000000000, -0.1173706055, 0.3332519531, 0.2287597656, -0.0000000000, 0.0000000000, -0.0000000000, -0.2145996094, 0.0000000000, -0.2731933594, -0.0000000000, -0.2291259766, -0.0000000000, -0.1948242188, -0.0000000000, 0.1417236328, -0.2158203125, 0.6337890625, -0.5185546875, 0.1133422852, -0.1892089844, 0.1739501953, 0.0000000000, -0.0000000000, 0.0000000000, -0.0000000000, 0.4694824219, 0.0000000000, 0.3137207031, 0.0000000000, 0.3273925781, 0.0000000000, -0.1646728516, 0.0000000000, -0.4218750000, 0.3376464844, 0.1578369141, -0.0000000000, 0.0000000000, -0.3273925781, 0.0000000000, 0.2558593750, 0.0000000000, -0.0000000000, 0.1999511719, 0.0000000000, -0.2404785156, -0.3222656250, -0.0000000000, 0.0000000000, -0.0000000000, -0.0000000000, 0.0000000000, 0.1640625000, 0.0000000000, 0.2496337891, -0.2382812500, -0.4631347656, -0.0000000000, -0.0000000000, 0.2135009766, -0.2858886719, -0.0000000000, -0.1773681641, -0.2030029297, 0.3068847656, 0.0000000000, -0.0000000000, 0.0000000000, -0.3420410156, 0.0000000000, -0.7182617188, -0.1461181641, 0.2670898438, 0.0000000000, 0.0000000000, -0.0000000000, 0.0000000000, 0.1315917969, 0.0000000000, -0.0000000000, 0.2858886719, -0.0000000000, -0.0000000000, 0.3334960938, 0.0000000000, 0.0000000000, 0.0000000000, -0.2259521484, 0.2493896484, -0.1622314453, -0.2402343750, 0.0000000000, 0.0000000000, 0.3859863281, 0.0000000000, -0.1953125000, 0.1824951172, 0.0000000000, 0.1030883789, 0.4792480469, -0.1591796875, -0.5278320312, -0.3903808594, -0.1992187500, 0.0000000000, 0.0000000000, 0.0000000000, 0.0000000000, -0.2416992188, -0.0000000000, -0.2476806641, 0.0000000000, 0.0000000000, -0.1505126953, -0.0000000000, -0.2078857422, 0.0000000000, -0.1977539062, 0.0000000000, 0.0000000000, -0.4372558594, -0.0000000000, -0.4946289062, 0.2707519531, -0.0000000000, 0.3632812500, 0.3522949219, 0.1757812500, -0.2709960938, 0.0000000000, -0.2270507812, 0.0000000000, 0.2156982422, -0.2244873047, -0.0000000000, 0.2318115234, 0.3154296875, 0.0000000000, 0.5947265625, -0.0000000000, -0.0000000000, -0.0000000000, -0.3090820312, -0.0000000000, 0.0000000000, -0.0000000000, 0.0000000000, 0.0000000000, 0.0000000000, 0.0000000000, -0.2739257812, -0.1789550781, -0.0000000000, 0.0000000000, 0.3715820312, 0.0000000000, -0.5815429688, -0.3242187500, 0.1312255859, 0.1701660156, -0.0000000000, -0.0000000000, 0.2250976562, 0.0000000000, -0.1937255859, -0.3867187500, 0.0000000000, 0.1844482422, -0.1370849609, 0.1624755859, 0.3942871094, 0.2493896484, 0.1837158203, -0.0000000000, -0.4724121094, -0.0000000000, -0.4775390625, 0.0000000000, 0.0000000000, -0.0000000000, 0.3544921875, -0.0000000000, 0.5937500000, 0.4357910156, -0.0000000000, 0.0000000000, 0.2001953125, -0.0000000000, 0.0000000000, -0.0000000000, -0.0000000000, -0.5151367188, -0.0000000000, -0.2954101562, 0.0000000000, 0.1992187500, -0.0000000000, 0.0000000000, -0.2634277344, 0.1915283203, -0.2607421875, -0.2287597656, 0.0000000000, -0.0000000000, 0.1228027344, 0.1318359375, -0.1849365234, 0.0000000000, -0.1142578125, 0.0928955078, -0.0000000000, -0.0000000000, -0.0000000000, -0.2685546875, -0.2486572266, -0.3659667969, -0.1260986328, -0.1760253906, -0.0000000000, -0.0000000000, -0.0000000000, -0.2746582031, 0.2514648438, 0.2329101562, -0.0000000000, -0.0000000000, -0.0000000000, -0.0000000000, 0.0000000000, -0.2856445312, -0.2375488281, -0.0000000000, 0.3166503906, -0.0000000000, -0.0000000000, 0.6333007812, 0.2230224609, -0.0000000000, 0.2288818359, -0.0000000000, 0.2034912109, 0.0000000000, -0.4677734375, -0.0000000000, -0.2736816406, 0.0000000000, 0.0000000000, 0.2355957031, -0.0000000000, -0.0000000000, 0.1820068359, -0.1439208984, -0.2556152344, -0.1242065430, 0.0000000000, 0.0000000000, 0.2014160156, -0.1563720703, -0.3286132812, -0.0000000000, 0.0000000000, -0.1926269531, 0.0000000000, -0.2819824219, 0.2983398438, -0.0000000000, -0.5117187500, -0.3347167969, 0.0000000000, 0.3161621094, -0.0000000000, 0.1788330078, -0.1153564453, 0.0000000000, -0.0000000000, 0.0000000000, -0.0000000000, 0.0000000000, 0.0000000000, 0.1650390625, -0.3574218750, -0.0000000000, 0.2232666016, -0.0000000000, 0.3601074219, 0.0000000000, 0.0000000000, -0.3366699219, -0.3125000000, 0.0000000000, -0.0000000000, -0.0000000000, -0.0000000000, 0.0000000000, -0.0000000000, 0.0000000000, -0.0000000000, -0.0000000000, 0.0000000000, 0.0000000000, 0.4458007812, 0.1175537109, -0.1060180664, -0.3703613281, -0.2078857422, -0.0000000000, 0.1450195312, 0.2304687500, -0.4367675781, -0.4082031250, -0.0000000000, -0.0000000000, 0.4443359375, -0.2325439453, 0.0000000000, 0.1641845703, -0.1387939453, 0.2788085938, 0.0000000000, 0.2841796875, 0.0000000000, -0.1740722656, 0.0000000000, -0.0000000000, 0.0000000000, -0.3334960938, 0.0000000000, 0.1966552734, 0.2111816406, -0.2203369141, -0.0000000000, 0.0000000000, -0.0000000000, -0.1739501953, -0.0000000000, 0.0000000000, -0.1077880859, -0.1906738281, 0.1988525391, -0.1809082031, 0.0000000000, -0.1544189453, -0.0000000000, 0.2366943359, 0.4299316406, 0.0000000000, -0.2424316406, 0.2149658203, 0.0000000000, -0.1896972656, 0.0000000000, -0.3723144531, 0.0000000000, -0.0000000000, -0.0000000000, 0.1970214844, -0.0000000000, -0.3015136719, 0.0000000000, -0.0000000000, -0.4572753906, -0.3962402344, 0.2294921875, 0.2075195312, 0.0000000000, -0.1950683594, 0.0000000000, 0.2685546875, -0.3085937500, 0.0000000000, 0.2736816406, -0.1719970703, 0.0000000000, 0.0000000000, -0.2093505859, -0.0000000000, 0.0000000000, -0.0000000000, 0.2866210938, -0.1821289062, -0.0000000000, -0.2888183594, 0.0000000000, -0.3044433594, -0.3999023438, -0.3193359375, 0.2844238281, -0.0000000000, -0.0000000000, 0.0982055664, 0.0000000000, 0.1317138672, 0.0000000000, 0.0000000000, 0.0000000000, 0.2807617188, 0.0000000000, 0.0000000000, 0.0000000000, -0.3552246094, -0.0000000000, -0.1447753906, -0.0000000000, 0.3327636719, 0.2739257812, -0.1314697266, 0.0000000000, -0.5708007812, 0.2048339844, -0.0000000000, 0.1727294922, 0.1516113281, 0.1875000000, 0.0000000000, 0.0000000000, -0.0000000000, 0.0000000000, -0.0000000000, -0.0000000000, 0.2526855469, 0.4104003906, 0.0000000000, 0.0000000000, 0.2325439453, 0.2312011719, -0.0000000000, -0.4418945312, -0.4260253906, -0.2473144531, 0.0000000000, 0.1558837891, 0.1679687500, -0.3657226562, -0.1555175781, 0.0000000000, 0.6020507812, -0.3481445312, 0.2054443359, -0.2025146484, 0.0000000000, 0.0000000000, 0.0000000000, -0.0000000000, -0.0000000000, -0.0000000000, 0.0000000000, -0.6323242188, 0.0000000000, -0.1534423828, -0.0000000000, 0.2279052734, 0.2364501953, 0.3188476562, 0.1531982422, 0.2685546875, 0.1960449219, 0.0000000000, 0.3447265625, 0.1510009766, 0.2281494141, -0.0000000000, 0.1658935547, -0.5683593750, 0.1846923828, 0.0000000000, -0.5537109375, 0.2712402344, 0.0000000000, 0.0000000000, 0.0000000000, 0.3542480469, 0.3137207031, -0.0000000000, 0.2810058594, 0.0000000000, -0.0000000000, 0.0000000000, 0.3937988281, 0.0000000000, 0.1656494141, -0.1311035156, 0.2020263672, 0.0000000000, -0.0000000000, -0.0000000000, -0.2186279297, 0.1340332031, 0.2498779297, -0.0000000000, -0.2893066406, -0.0000000000, 0.0000000000, 0.0000000000, 0.1651611328, -0.1575927734, 0.0000000000, -0.0000000000, 0.2248535156, -0.2558593750, 0.0000000000, -0.0000000000, 0.1262207031, 0.2658691406, 0.0000000000, -0.0000000000, -0.0000000000, 0.0000000000, 0.2734375000, -0.0000000000, 0.4372558594, 0.3908691406, 0.0000000000, 0.3962402344, 0.3305664062, 0.0000000000, 0.0000000000, -0.1590576172, 0.0000000000, 0.1812744141, -0.0000000000, 0.0000000000, 0.0000000000, 0.0000000000, -0.1557617188, 0.1776123047, -0.1842041016, -0.2231445312, -0.0000000000, -0.0000000000, -0.3671875000, -0.0000000000, 0.0000000000, -0.0000000000, -0.0000000000, 0.0000000000, -0.0000000000, 0.0000000000, -0.0000000000, -0.1346435547, 0.0000000000, -0.4020996094, 0.0000000000, 0.0000000000, 0.2719726562, 0.0000000000, 0.6035156250, -0.0000000000, 0.0000000000, 0.2656250000, -0.4235839844, -0.3828125000, 0.0000000000, 0.2714843750, 0.5122070312, 0.0000000000, 0.4003906250, 0.1558837891, -0.1250000000, -0.2333984375, 0.2585449219, -0.0000000000, 0.0000000000, 0.0000000000, 0.0000000000, -0.0000000000, -0.2600097656, -0.0000000000, -0.0000000000, -0.6098632812, -0.3303222656, -0.0000000000, 0.0000000000, 0.2944335938, -0.0000000000, 0.0000000000, 0.0000000000, 0.3825683594, 0.0000000000, -0.3315429688, -0.0000000000, 0.3129882812, 0.1839599609, -0.1538085938, 0.3425292969, -0.2646484375, 0.1872558594, -0.0000000000, 0.0000000000, 0.0000000000, 0.1768798828, 0.0000000000, 0.3220214844, 0.0000000000, 0.2248535156, 0.1842041016, 0.2158203125, 0.2209472656, 0.0000000000, -0.0000000000, -0.0000000000, -0.2656250000, -0.2597656250, -0.3684082031, 0.0000000000, -0.3073730469, -0.2357177734, -0.0000000000, -0.1789550781, 0.2690429688, -0.0000000000, 0.0000000000, -0.0000000000, 0.1605224609, 0.0000000000, -0.2312011719, 0.0000000000, -0.0000000000, 0.0000000000, 0.0000000000, -0.7993164062, 0.1657714844, -0.1666259766, -0.0000000000, -0.0000000000, 0.0000000000, -0.1801757812, -0.2817382812, 0.2440185547, 0.0000000000, 0.0000000000, -0.2565917969, 0.0000000000, 0.2766113281, 0.1715087891, 0.2783203125, 0.0000000000, -0.4714355469, 0.0000000000, -0.0000000000, -0.0000000000, -0.4133300781, 0.2054443359, 0.2709960938, -0.2384033203, 0.2531738281, 0.1693115234, 0.0000000000, -0.0000000000, 0.1790771484, -0.0000000000, 0.0000000000, 0.2746582031, 0.0000000000, 0.0000000000, 0.0000000000, 0.2385253906, -0.0000000000, -0.1733398438, -0.2756347656, -0.0000000000, 0.3574218750, -0.0000000000, -0.3913574219, 0.0000000000, 0.2269287109, -0.1520996094, -0.0000000000, 0.1492919922, 0.2617187500, 0.0000000000, -0.0000000000, 0.2968750000, 0.0000000000, -0.0000000000, 0.6542968750, -0.2442626953, 0.0000000000, -0.0000000000, 0.0000000000, -0.0000000000, -0.0000000000, 0.0000000000, 0.0000000000, -0.2810058594, 0.0000000000, 0.1652832031, -0.3190917969, 0.5258789062, 0.4406738281, 0.0000000000, 0.0000000000, -0.1770019531, 0.2266845703, -0.2080078125, -0.2290039062, -0.0000000000, 0.3261718750, -0.1336669922, -0.1424560547, -0.0000000000, -0.1086425781, 0.0000000000, 0.0000000000, 0.0000000000, -0.4052734375, -0.2009277344, -0.2113037109, -0.0000000000, 0.4074707031, -0.0000000000, 0.5292968750, 0.0000000000, 0.0000000000, 0.0000000000, -0.2622070312, 0.2780761719, 0.0000000000, 0.2115478516, -0.0000000000, 0.1713867188, -0.0000000000, 0.0000000000, -0.0000000000, -0.0000000000, 0.0000000000, 0.0000000000, -0.0000000000, -0.2131347656, -0.2443847656, -0.2722167969, -0.2148437500, -0.0000000000, -0.0000000000, -0.1893310547, -0.0000000000, 0.0000000000, -0.3046875000, 0.0000000000, 0.4528808594, -0.2324218750, -0.0000000000, 0.0000000000, -0.0000000000, -0.3869628906, 0.3476562500, -0.0000000000, -0.1467285156, 0.0000000000, -0.2932128906, 0.0000000000, -0.2797851562, -0.3515625000, 0.0000000000, -0.1810302734, -0.2524414062, -0.4147949219, 0.0000000000, 0.0000000000, -0.0000000000, 0.0000000000, 0.1512451172, 0.3684082031, -0.0000000000, 0.0000000000, -0.0000000000, -0.2016601562, 0.6572265625, 0.1754150391, -0.0000000000, 0.0000000000, 0.0000000000, -0.2094726562, 0.0000000000, -0.0000000000, -0.0000000000, 0.1665039062, 0.0000000000, -0.0000000000, -0.4189453125, 0.0000000000, -0.5029296875, -0.0000000000, 0.0000000000, 0.2622070312, -0.0000000000, -0.1995849609, -0.0000000000, -0.3337402344, -0.0000000000, 0.1704101562, 0.0000000000, -0.0000000000, -0.1856689453, -0.1536865234, 0.3137207031, -0.1678466797, -0.2108154297, -0.1536865234, -0.0000000000, 0.3537597656, 0.0000000000, -0.0000000000, -0.0000000000, 0.2329101562, -0.4702148438, 0.2832031250, 0.2456054688, 0.0000000000, 0.3100585938, -0.2829589844, -0.2561035156, -0.0000000000, -0.3750000000, 0.0000000000, -0.1065673828, 0.3198242188, -0.0000000000, -0.4047851562, 0.0000000000, -0.0000000000, -0.0000000000, 0.2137451172, -0.0000000000, 0.4707031250, -0.1137084961, 0.0000000000, 0.1568603516, -0.0000000000, -0.0000000000, 0.3942871094, 0.0000000000, 0.2807617188, -0.0000000000, -0.3774414062, 0.4089355469, 0.3891601562, 0.1900634766, 0.1613769531, 0.0000000000, 0.0000000000, -0.1771240234, -0.0000000000, -0.0000000000, 0.0000000000, 0.2122802734, 0.2406005859, -0.2314453125, 0.0000000000, 0.1949462891, 0.2695312500, -0.3134765625, 0.0000000000, -0.2548828125, -0.2108154297, -0.2619628906, -0.0000000000, 0.1789550781, -0.1778564453, 0.2297363281, -0.1782226562, 0.0000000000, -0.2078857422, 0.0000000000, 0.4948730469, 0.2500000000, -0.0000000000, -0.1094970703, 0.1308593750, 0.2163085938, 0.3659667969, 0.0000000000, -0.1643066406, -0.0000000000, 0.0000000000, -0.0000000000, 0.2330322266, -0.2709960938, -0.3037109375, -0.0000000000, -0.1583251953, -0.0000000000, 0.0000000000, -0.1641845703, 0.0000000000, 0.0000000000, 0.2849121094, -0.0000000000, -0.1427001953, -0.0000000000, 0.4965820312, -0.0000000000, -0.4970703125, 0.0000000000, 0.0000000000, 0.0000000000, -0.0000000000, -0.3176269531, 0.1459960938, 0.0000000000, 0.1894531250, -0.3513183594, -0.0000000000, 0.2349853516, -0.0000000000, 0.0000000000, -0.0000000000, 0.2039794922, 0.0000000000, 0.2744140625, 0.0000000000, -0.0000000000, 0.0000000000, -0.0000000000, -0.1774902344, -0.0000000000, -0.0000000000, 0.0000000000, 0.0000000000, 0.1657714844, -0.0000000000, 0.2932128906, -0.2290039062, -0.3752441406, -0.1523437500, 0.0000000000, 0.2103271484, -0.4833984375, 0.0000000000, 0.3452148438, 0.3151855469, -0.2866210938, -0.0000000000, 0.5087890625, -0.4992675781, 0.0000000000, -0.0000000000, -0.3190917969, 0.2246093750, 0.0000000000, -0.0000000000, 0.0000000000, 0.0000000000, 0.1488037109, 0.0000000000, 0.3264160156, -0.0000000000, 0.0000000000, 0.0000000000, -0.5107421875, 0.2498779297, -0.6479492188, 0.0000000000, 0.6342773438, -0.2469482422, -0.0000000000, -0.3405761719, -0.1320800781, -0.0000000000, 0.0000000000, -0.0000000000, -0.0000000000, -0.1878662109, 0.1915283203, -0.3010253906, 0.0000000000, 0.1439208984, 0.2790527344, -0.7084960938, -0.0000000000, 0.0000000000, 0.0000000000, 0.0000000000, -0.0000000000, -0.0000000000, 0.0000000000, -0.0000000000, 0.0000000000, 0.3251953125, -0.4777832031, 0.2839355469, 0.0000000000, -0.1920166016, 0.2583007812, 0.3012695312, 0.0000000000, 0.0000000000, -0.4641113281, 0.0000000000, 0.0000000000, 0.0000000000, -0.0000000000, -0.1525878906, -0.0000000000, -0.3916015625, 0.0000000000, 0.0000000000, 0.2274169922, -0.0000000000, 0.0000000000, 0.0000000000, 0.2355957031, -0.0000000000, -0.2365722656, -0.0000000000, -0.0000000000, -0.1555175781, -0.0000000000, 0.0000000000, -0.3859863281, -0.0000000000, -0.0000000000, 0.0000000000, -0.2763671875, -0.3488769531, 0.3210449219, 0.3242187500, 0.2583007812, -0.0000000000, -0.0000000000, -0.2692871094, 0.5488281250, 0.0000000000, 0.2753906250, -0.1673583984, 0.1496582031, -0.0000000000, 0.0000000000, 0.3857421875, 0.0000000000, 0.2958984375, -0.0000000000, 0.0000000000, -0.1677246094, -0.2922363281, 0.2145996094, 0.0000000000, -0.0000000000, 0.0000000000, 0.0000000000, 0.0000000000, 0.0000000000, 0.0000000000, 0.0000000000, -0.0000000000, 0.0000000000, -0.3117675781, -0.4052734375, -0.2073974609, -0.0000000000, 0.0000000000, 0.0000000000, 0.0000000000, -0.4013671875, -0.2364501953, -0.0000000000, -0.0000000000, 0.0000000000, 0.0000000000, 0.0000000000, -0.0000000000, -0.0000000000, -0.2080078125, -0.2258300781, 0.0000000000, -0.0000000000, 0.0000000000, 0.0000000000, 0.0000000000, 0.0000000000, -0.2600097656, -0.1436767578, 0.0000000000, 0.0000000000, 0.1503906250, 0.2702636719, 0.0000000000, -0.2839355469, -0.0000000000, 0.0000000000, -0.1868896484, -0.1761474609, 0.2493896484, 0.2139892578, 0.2431640625, 0.3325195312, 0.3242187500, 0.0000000000, -0.2663574219, 0.2152099609, 0.0000000000, 0.5424804688, 0.1356201172, 0.0000000000, -0.2120361328, -0.0000000000, 0.1917724609, 0.3713378906, 0.1948242188, 0.3715820312, -0.0000000000, -0.2239990234, 0.2702636719, -0.0000000000, -0.7446289062, 0.0000000000, -0.0000000000, -0.0000000000, 0.3405761719, -0.0000000000, -0.0000000000, -0.0000000000, 0.2795410156, 0.0000000000, -0.2088623047, -0.0000000000, 0.2968750000, 0.0000000000, -0.1402587891, -0.1877441406, 0.0000000000, -0.4089355469, -0.0000000000, -0.2358398438, -0.1279296875, -0.2152099609, -0.0000000000, -0.0000000000, 0.0000000000, -0.0000000000, 0.0000000000, -0.0000000000, -0.0000000000, -0.0000000000, -0.3796386719, 0.0000000000, -0.0000000000, 0.0000000000, -0.0000000000, 0.0000000000, -0.0000000000, -0.3635253906, 0.0000000000, 0.5859375000, -0.0000000000, 0.2600097656, -0.1677246094, 0.2561035156, 0.0000000000, 0.0000000000, 0.0000000000, 0.0000000000, -0.0000000000, 0.1933593750, -0.0000000000, -0.0000000000, -0.0000000000, -0.2305908203, 0.1762695312, -0.0000000000, 0.2634277344, 0.0000000000, 0.1364746094, -0.2202148438, 0.0000000000, 0.4772949219, -0.0000000000, 0.2055664062, -0.2612304688, -0.3005371094, 0.1717529297, -0.0000000000, 0.1685791016, 0.2326660156, -0.1885986328, 0.2335205078, 0.2902832031, 0.0000000000, 0.3186035156, 0.0000000000, 0.0000000000, 0.0000000000, 0.3935546875, 0.0000000000, 0.6098632812, 0.0000000000, 0.2274169922, 0.1612548828, -0.0000000000, -0.2687988281, -0.0000000000, 0.0000000000, 0.0000000000, 0.0000000000, -0.2463378906, -0.3564453125, -0.1335449219, -0.2761230469, 0.4050292969, 0.2509765625, -0.3879394531, 0.0000000000, 0.0000000000, -0.0000000000, 0.2413330078, -0.3830566406, 0.2902832031, 0.0000000000, -0.1635742188, 0.2353515625, -0.6337890625, -0.1446533203, 0.0000000000, -0.0000000000, 0.3337402344, 0.0000000000, -0.3625488281, -0.0000000000, 0.0000000000, -0.0000000000, 0.0000000000, -0.0000000000, -0.2580566406, -0.0000000000, 0.0000000000, -0.5834960938, 0.2124023438, 0.2395019531, 0.3798828125, -0.0000000000, -0.3090820312, 0.1926269531, -0.0000000000, -0.0000000000, -0.0000000000, 0.0000000000, 0.3159179688, -0.2423095703, 0.1402587891, 0.0000000000, 0.0000000000, -0.0000000000, 0.0000000000, -0.0000000000, -0.0000000000, -0.0000000000, 0.4489746094, -0.0000000000, -0.0000000000, 0.1414794922, 0.0000000000, 0.0000000000, 0.2407226562, 0.0000000000, -0.0000000000, 0.0000000000, 0.0000000000, 0.0000000000, -0.0000000000, 0.2083740234, -0.1773681641, -0.1216430664, 0.1695556641, -0.0000000000, -0.2001953125, 0.1837158203, -0.0000000000, -0.0000000000, -0.0000000000, 0.2521972656, -0.1729736328, 0.1391601562, -0.0000000000, -0.2065429688, 0.3034667969, 0.0000000000, -0.3886718750, 0.2283935547, 0.2556152344, 0.0000000000, 0.2187500000, -0.0000000000, -0.5766601562, -0.0000000000, 0.3654785156, -0.2438964844, -0.0000000000, -0.0000000000, 0.0000000000, 0.1491699219, 0.2131347656, -0.1920166016, 0.0000000000, 0.0000000000, -0.3188476562, -0.2985839844, 0.5834960938, 0.2766113281, -0.1893310547, 0.2792968750, -0.3869628906, -0.1728515625, 0.2702636719, 0.2307128906, 0.0000000000, -0.1853027344, 0.0000000000, 0.3916015625, -0.0000000000, -0.2866210938, -0.0000000000, -0.2734375000, 0.4108886719, -0.0000000000, 0.2159423828, -0.0000000000, -0.1784667969, 0.1584472656, -0.0000000000, -0.0000000000, 0.0000000000, 0.2978515625, 0.3398437500, -0.0000000000, -0.0000000000, 0.0000000000, -0.0000000000, -0.0000000000, 0.5253906250, -0.3852539062, -0.1750488281, 0.2352294922, -0.4020996094, 0.0000000000, -0.0000000000, -0.0000000000, -0.2731933594, 0.0000000000, 0.2042236328, -0.0000000000, 0.0000000000, -0.0000000000, -0.0000000000, -0.0000000000, -0.0000000000, 0.4418945312, 0.5185546875, 0.0000000000, -0.2172851562, -0.1954345703, -0.0000000000, -0.0000000000, 0.1677246094, 0.1903076172, -0.2086181641, 0.2836914062, 0.5214843750, -0.3696289062, 0.0000000000, 0.0000000000, 0.0000000000, 0.2200927734, -0.2883300781, -0.2731933594, -0.0000000000, 0.2471923828, 0.3991699219, -0.1806640625, 0.0000000000, 0.3601074219, 0.1546630859, -0.0000000000, 0.5224609375, 0.1962890625, -0.0000000000, -0.0000000000, -0.0000000000, -0.0000000000, -0.0000000000, 0.3901367188, 0.2434082031, -0.1722412109, -0.0000000000, -0.0000000000, 0.1162109375, -0.0000000000, -0.0000000000, 0.0000000000, -0.0000000000, -0.2592773438, -0.0000000000, 0.0000000000, -0.0000000000, 0.3395996094, 0.0000000000, 0.3222656250, 0.2170410156, 0.0000000000, 0.0000000000, -0.3181152344, -0.1975097656, -0.1346435547, 0.2199707031, 0.0000000000, 0.0000000000, -0.5659179688, -0.0000000000, 0.1717529297, 0.1573486328, 0.0000000000, -0.0000000000, -0.4421386719, 0.0000000000, -0.0000000000, 0.0000000000, 0.0000000000, -0.0000000000, 0.3095703125, -0.1772460938, 0.4887695312, 0.2066650391, 0.4057617188, 0.4138183594, -0.2271728516, -0.0000000000, -0.0000000000, -0.1614990234, 0.2512207031, 0.2687988281, -0.3017578125, -0.0000000000, -0.3449707031, 0.2307128906, -0.0000000000, -0.2459716797, -0.0000000000, 0.0000000000, -0.2922363281, 0.1339111328, -0.0000000000, 0.4433593750, -0.0000000000, -0.1610107422, -0.5034179688, 0.0000000000, -0.3952636719, -0.0000000000, -0.0000000000, 0.0000000000, -0.0000000000, 0.0000000000, 0.4765625000, 0.0000000000, 0.0000000000, -0.2241210938, -0.2951660156, 0.0000000000, 0.0000000000, -0.0000000000, -0.0000000000, 0.0000000000, -0.0000000000, 0.0000000000, -0.2966308594, -0.3513183594, -0.0000000000, 0.3278808594, -0.0000000000, 0.0000000000, -0.0000000000, 0.4035644531, 0.0000000000, 0.7001953125, -0.0000000000, 0.0000000000, 0.2214355469, 0.0000000000, 0.0000000000, 0.0000000000, 0.3139648438, -0.0000000000, 0.2028808594, 0.2299804688, -0.2302246094, -0.4313964844, -0.2929687500, -0.0000000000, 0.0000000000, 0.0000000000, -0.3242187500, 0.3439941406, 0.0000000000, 0.0000000000, 0.0000000000, -0.2961425781, -0.2258300781, -0.2907714844, 0.0000000000, -0.2103271484, -0.0000000000, -0.2717285156, 0.0000000000, 0.0000000000, 0.0000000000, -0.0000000000, 0.3796386719, -0.0000000000, 0.0000000000, -0.1625976562, 0.0000000000, 0.4250488281, -0.0000000000, -0.1763916016, -0.2873535156, 0.3205566406, -0.1645507812, 0.0000000000, -0.1755371094, -0.1618652344, -0.0000000000, 0.0000000000, 0.2049560547, 0.2744140625, 0.2163085938, -0.0000000000, -0.0000000000, -0.1750488281, -0.2861328125, -0.0000000000, -0.2468261719, -0.1221923828, 0.0000000000, -0.0000000000, 0.0000000000, 0.2359619141, -0.1982421875, 0.5195312500, 0.0000000000, -0.0000000000, -0.0000000000, 0.3320312500, 0.2370605469, 0.2805175781, 0.3178710938, -0.3964843750, -0.0000000000, 0.0000000000, 0.1148681641, -0.3120117188, 0.3027343750, 0.4135742188, 0.3261718750, -0.0000000000, 0.0000000000, 0.0000000000, -0.0000000000, -0.0000000000, -0.2758789062, -0.0000000000, -0.0000000000, 0.2509765625, 0.1375732422, 0.2232666016, 0.0000000000, -0.0000000000, 0.0000000000, -0.2468261719, -0.4118652344, 0.0000000000, -0.2734375000, -0.2631835938, -0.0000000000, -0.0000000000, 0.0000000000, 0.0000000000, 0.2156982422, -0.0000000000, 0.0000000000, -0.3117675781, -0.0000000000, 0.1028442383, 0.0000000000, 0.0000000000, -0.2788085938, 0.0000000000, -0.1970214844, 0.2271728516, 0.0000000000, 0.0000000000, -0.0000000000, -0.0000000000, -0.0000000000, -0.5209960938, -0.1555175781, 0.0000000000, 0.1119384766, -0.3713378906, 0.0000000000, -0.1292724609, 0.0000000000, -0.2376708984, -0.0000000000, -0.2082519531, -0.1131591797, -0.2731933594, 0.0000000000, -0.2436523438, 0.4912109375, -0.2230224609, -0.1472167969, -0.0000000000, -0.0000000000, 0.0000000000, -0.3698730469, -0.2441406250, -0.0000000000, 0.0000000000, -0.2546386719, -0.0000000000, 0.0000000000, 0.4296875000, -0.3652343750, 0.1687011719, -0.2393798828, -0.4094238281, 0.2473144531, -0.2098388672, 0.0000000000, -0.0000000000, -0.0000000000, 0.2580566406, 0.1871337891, -0.0000000000, -0.4375000000, 0.3654785156, 0.0000000000, -0.0000000000, -0.0000000000, -0.1151733398, 0.2536621094, 0.4545898438, -0.1968994141, -0.0000000000, 0.0000000000, 0.0000000000, -0.0000000000, -0.2653808594, 0.2043457031, 0.4494628906, 0.0000000000, 0.1727294922, -0.0000000000, 0.2915039062, -0.3400878906, 0.2683105469, -0.1955566406, 0.1914062500, -0.0000000000, -0.1436767578, 0.3835449219, -0.3562011719, 0.3757324219, -0.4133300781, -0.3728027344, 0.0000000000, 0.1282958984, 0.0000000000, -0.1194458008, 0.0000000000, -0.0000000000, 0.0000000000, -0.0000000000, -0.0000000000, -0.0000000000, 0.4204101562, 0.0000000000, 0.0000000000, 0.1721191406, 0.0000000000, 0.1596679688, -0.3251953125, 0.2077636719, -0.2011718750, 0.2286376953, -0.2951660156, 0.0000000000, -0.2888183594, 0.0000000000, 0.0000000000, -0.3208007812, -0.0000000000, -0.0000000000, 0.0000000000, -0.2651367188, 0.0000000000, -0.2120361328, -0.1678466797, 0.2832031250, 0.0000000000, -0.0000000000, -0.0000000000, -0.2697753906, -0.3867187500, 0.1628417969, -0.3901367188, -0.0000000000, 0.0000000000, 0.2038574219, -0.2333984375, -0.0000000000, -0.3083496094, 0.0000000000, -0.3911132812, 0.2030029297, -0.3310546875, -0.0000000000, -0.2536621094, -0.1550292969, 0.0000000000, -0.2026367188, 0.1379394531, 0.1859130859, 0.2021484375, 0.0000000000, -0.2401123047, -0.2797851562, 0.0000000000, 0.0000000000, 0.1469726562, 0.0000000000, -0.3247070312, -0.4594726562, -0.0000000000, -0.2236328125, -0.2866210938, 0.0000000000, -0.0000000000, 0.3859863281, 0.3928222656, 0.0000000000, -0.3669433594, -0.0000000000, 0.3828125000, 0.0000000000, 0.1674804688, 0.3334960938, 0.0000000000, -0.1968994141, -0.2709960938, 0.0000000000, -0.0000000000, 0.0000000000, 0.0000000000, -0.0000000000, 0.0000000000, 0.3327636719, -0.3654785156, 0.0000000000, 0.4279785156, 0.3286132812, -0.2856445312, -0.1915283203, 0.2117919922, -0.0000000000, 0.2741699219, -0.0000000000, -0.3566894531, -0.0000000000, 0.2294921875, 0.2824707031, 0.0000000000, -0.0000000000, 0.0000000000, -0.0000000000, -0.3186035156, -0.0000000000, 0.0000000000, -0.0000000000, -0.2636718750, 0.0000000000, -0.0000000000, 0.0000000000, -0.4394531250, -0.0000000000, -0.3432617188, 0.0000000000, -0.1668701172, 0.0000000000, 0.2370605469, -0.0000000000, -0.1757812500, -0.0000000000, -0.0000000000, 0.0000000000, -0.0000000000, 0.0000000000, -0.3544921875, 0.0000000000, -0.2418212891, -0.2346191406, -0.1889648438, 0.2866210938, 0.3317871094, -0.0000000000, 0.0000000000, 0.0000000000, 0.1658935547, -0.0000000000, -0.5483398438, -0.0000000000, 0.5703125000, 0.2614746094, 0.0000000000, 0.0000000000, -0.0000000000, -0.2626953125, -0.1252441406, -0.0000000000, -0.0000000000, 0.5610351562, 0.0000000000, -0.2437744141, -0.0000000000, 0.0000000000, 0.0000000000, -0.0000000000, -0.0000000000, 0.3110351562, 0.1802978516, -0.2237548828, 0.0000000000, -0.0000000000, -0.0000000000, 0.0000000000, 0.0000000000, -0.0000000000, 0.1282958984, 0.3149414062, 0.3134765625, 0.0000000000, 0.5444335938, 0.0000000000, 0.5527343750, -0.0000000000, -0.2495117188, 0.2359619141, 0.0000000000, 0.0000000000, -0.2990722656, 0.0000000000, -0.1892089844, 0.4182128906, 0.0000000000, -0.3054199219, -0.1959228516, 0.0000000000, 0.0000000000, -0.0000000000, 0.0000000000, -0.0000000000, -0.2812500000, -0.0000000000, 0.0000000000, -0.0000000000, -0.0000000000, -0.0000000000, 0.0000000000, -0.2644042969, -0.4150390625, -0.1903076172, -0.0000000000, 0.2377929688, -0.2403564453, -0.0000000000, 0.0000000000, 0.0000000000, 0.0000000000, -0.1092529297, 0.4223632812, 0.0000000000, -0.0000000000, 0.3017578125, 0.0000000000, 0.2602539062, 0.2592773438, 0.0000000000, 0.0000000000, 0.5273437500, -0.0000000000, -0.0000000000, 0.0000000000, -0.0000000000, 0.0000000000, 0.3342285156, -0.0000000000, -0.0000000000, -0.3911132812, -0.2215576172, -0.0000000000, -0.2941894531, -0.1557617188, -0.0000000000, 0.0000000000, 0.0000000000, -0.0000000000, 0.0000000000, -0.0000000000, 0.0000000000, 0.3288574219, -0.2287597656, 0.0000000000, 0.3415527344, -0.0000000000, 0.2487792969, -0.0000000000, -0.0000000000, 0.0000000000, 0.2238769531, 0.3618164062, 0.0000000000, 0.2700195312, 0.0000000000, 0.5937500000, -0.0000000000, -0.2041015625, -0.0000000000, -0.5966796875, 0.0000000000, 0.0000000000, -0.0000000000, 0.2281494141, -0.0000000000, -0.0000000000, -0.0000000000, -0.0000000000, 0.2465820312, 0.0000000000, -0.0000000000, -0.0000000000, 0.4311523438, -0.1688232422, 0.0000000000, -0.3591308594, 0.0000000000, 0.4672851562, -0.0000000000, 0.1794433594, 0.0000000000, 0.1766357422, -0.2133789062, -0.0000000000, 0.0000000000, -0.0000000000, -0.2790527344, -0.2827148438, 0.3342285156, 0.1405029297, 0.0000000000, -0.2218017578, -0.0000000000, 0.0000000000, -0.0000000000, -0.0000000000, 0.1955566406, 0.0000000000, -0.3410644531, -0.0000000000, -0.0000000000, 0.2824707031, -0.0000000000, -0.2395019531, 0.0000000000, -0.0000000000, 0.2377929688, 0.3659667969, -0.2064208984, 0.1613769531, -0.4243164062, 0.0000000000, -0.3437500000, 0.0000000000, 0.0000000000, -0.0000000000, -0.2360839844, 0.0000000000, -0.3156738281, -0.0000000000, 0.3708496094, -0.0000000000, 0.0000000000, -0.2221679688, -0.2854003906, 0.1865234375, 0.0000000000, 0.4301757812, 0.0000000000, 0.0000000000, -0.0000000000, 0.0000000000, -0.1578369141, -0.2290039062, 0.4042968750, -0.0000000000, -0.1428222656, 0.1832275391, 0.5034179688, 0.0000000000, 0.0000000000, 0.0000000000, -0.2729492188, 0.0000000000, -0.1505126953, -0.0000000000, 0.2614746094, 0.2563476562, 0.2186279297, -0.2548828125, -0.4833984375, -0.2114257812, 0.0000000000, -0.0000000000, 0.1700439453, -0.0000000000, 0.2912597656, -0.0000000000, -0.0000000000, -0.0000000000, 0.1612548828, -0.0000000000, -0.2198486328, 0.1873779297, -0.0000000000, -0.0000000000, 0.0000000000, 0.0000000000, 0.0000000000, -0.3002929688, 0.0000000000, 0.4040527344, 0.1168823242, 0.0000000000, -0.0000000000, -0.2119140625, 0.1458740234, -0.0000000000, 0.3486328125, 0.0000000000, -0.0000000000, 0.3312988281, -0.0000000000, 0.3381347656, -0.0000000000, 0.3066406250, 0.1938476562, -0.0000000000, 0.0000000000, 0.1737060547, -0.3603515625, 0.3024902344, 0.0000000000, 0.0000000000, 0.1173706055, 0.1340332031, 0.2498779297, -0.2147216797, -0.0000000000, -0.2309570312, -0.3549804688, -0.1689453125, -0.2230224609, -0.4580078125, -0.1823730469, 0.0000000000, 0.3525390625, -0.2275390625, -0.0000000000, 0.2098388672, 0.4501953125, -0.0000000000, 0.0000000000, -0.1518554688, 0.1805419922, -0.2805175781, -0.0000000000, -0.0000000000, 0.3681640625, 0.0000000000, -0.0000000000, -0.3908691406, -0.0000000000, 0.0000000000, 0.0000000000, -0.0000000000, 0.0000000000, -0.3166503906, -0.1939697266, 0.1866455078, 0.0000000000, -0.1981201172, 0.2299804688, 0.0000000000, 0.0000000000, -0.0000000000, -0.1414794922, -0.3586425781, -0.0000000000, -0.3474121094, 0.0000000000, -0.4675292969, 0.0000000000, -0.0000000000, -0.0000000000, -0.3095703125, 0.0000000000, -0.0000000000, 0.2241210938, 0.0000000000, -0.4558105469, -0.2274169922, -0.1673583984, 0.4208984375, 0.1793212891, 0.0000000000, 0.2474365234, 0.6010742188, 0.0000000000, 0.0000000000, -0.3132324219, -0.0000000000, 0.3115234375, -0.0000000000, -0.0000000000, 0.2961425781, 0.2094726562, -0.0000000000, 0.1499023438, -0.2009277344, 0.0000000000, -0.1888427734, 0.1442871094, 0.0000000000, 0.1018066406, -0.0000000000, -0.0000000000, 0.2304687500, -0.0000000000, 0.1137084961, 0.2261962891, 0.0000000000, 0.1752929688, -0.2314453125, -0.2159423828, -0.2399902344, 0.0000000000, -0.0000000000, -0.3190917969, -0.0000000000, -0.0000000000, 0.0000000000, 0.0000000000, -0.1959228516, 0.1616210938, 0.2469482422, -0.0000000000, 0.0000000000, -0.1739501953, 0.0000000000, 0.0000000000, -0.2181396484, 0.0000000000, -0.0000000000, 0.0000000000, -0.0000000000, -0.0000000000, 0.1916503906, -0.0000000000, 0.0000000000, -0.2592773438, 0.2976074219, -0.0000000000, -0.1694335938, 0.2416992188, -0.4873046875, 0.0000000000, 0.0000000000, -0.0000000000, 0.0000000000, 0.0000000000, 0.1477050781, 0.4428710938, 0.3239746094, -0.1823730469, -0.0000000000, 0.1850585938, -0.0000000000, -0.2880859375, -0.0000000000, -0.0000000000, -0.0000000000, -0.4475097656, 0.4936523438, 0.1790771484, -0.0000000000, -0.0000000000, -0.4501953125, -0.2331542969, 0.0000000000, -0.0000000000, 0.4057617188, 0.3217773438, 0.1949462891, 0.0000000000, -0.2263183594, -0.3166503906, -0.2249755859, -0.1899414062, -0.2880859375, 0.1260986328, 0.2707519531, 0.0000000000, 0.4289550781, 0.2729492188, 0.0000000000, 0.0000000000, -0.1789550781, 0.5200195312, -0.0000000000, 0.0000000000, 0.0000000000, -0.1396484375, 0.0000000000, 0.1384277344, 0.5395507812, 0.0000000000, -0.0000000000, -0.0000000000, 0.1922607422, -0.1567382812, 0.3330078125, 0.1997070312, 0.4216308594, -0.0000000000, 0.1608886719, 0.0000000000, -0.0000000000, 0.0000000000, 0.0000000000, -0.0000000000, -0.1937255859, -0.1634521484, -0.3916015625, -0.3315429688, -0.0000000000, -0.1268310547, -0.2695312500, 0.0000000000, 0.0000000000, -0.2285156250, 0.0000000000, 0.0000000000, 0.0000000000, 0.1473388672, -0.1885986328, 0.0000000000, -0.2565917969, -0.0000000000, 0.0000000000, -0.2736816406, 0.0000000000, 0.0000000000, 0.4958496094, -0.2359619141, 0.1939697266, -0.0000000000, -0.2573242188, 0.2683105469, -0.3557128906, -0.4060058594, -0.2489013672, -0.1597900391, -0.1931152344, -0.4255371094, -0.1613769531, 0.0000000000, -0.2604980469, -0.2316894531, -0.0000000000, -0.0000000000, -0.4128417969, 0.2276611328, -0.2487792969, 0.1997070312, -0.0000000000, 0.0000000000, 0.1519775391, 0.2133789062, -0.0000000000, 0.3688964844, 0.0000000000, -0.2072753906, 0.1284179688, 0.0000000000, 0.3920898438, 0.0000000000, -0.0000000000, 0.0000000000, 0.0000000000, -0.2651367188, 0.0000000000, -0.0000000000, -0.0000000000, 0.0000000000, 0.2404785156, 0.2778320312, -0.3713378906, 0.3100585938, 0.2093505859, -0.1564941406, -0.5102539062, 0.0000000000, -0.1735839844, -0.1956787109, -0.0000000000, -0.1785888672, -0.1315917969, -0.2474365234, -0.0000000000, 0.0000000000, 0.1558837891, -0.1782226562, 0.1845703125, -0.1993408203, -0.0000000000, 0.1462402344, 0.2773437500, 0.0000000000, -0.0000000000, 0.2292480469, 0.0000000000, -0.0000000000, -0.0000000000, 0.0000000000, 0.0000000000, 0.2253417969, 0.0000000000, 0.0000000000, 0.0000000000, 0.6748046875, -0.0000000000, -0.0000000000, -0.3083496094, 0.0000000000, -0.0000000000, 0.1994628906, -0.0000000000, 0.5971679688, 0.0000000000, 0.0000000000, 0.1762695312, 0.0000000000, 0.0000000000, -0.1912841797, -0.3974609375, -0.3491210938, -0.1893310547, -0.0000000000, -0.0000000000, 0.0000000000, -0.0000000000, -0.0000000000, 0.0000000000, -0.2807617188, 0.0000000000, 0.2990722656, -0.0000000000, -0.3659667969, -0.3266601562, -0.0000000000, 0.0000000000, -0.0000000000, 0.0000000000, -0.2714843750, 0.2218017578, -0.2171630859, -0.0000000000, -0.1138305664, -0.0000000000, -0.2749023438, 0.3581542969, 0.3823242188, -0.1920166016, 0.2687988281, 0.0000000000, 0.0000000000, -0.4453125000, -0.0000000000, 0.0000000000, -0.0000000000, 0.0000000000, 0.5791015625, -0.2570800781, -0.0000000000, -0.1558837891, -0.2617187500, -0.0000000000, -0.1801757812, 0.3000488281, -0.0000000000, -0.0000000000, -0.0000000000, -0.3771972656, -0.3586425781, 0.2348632812, 0.2037353516, 0.0000000000, 0.4333496094, -0.0000000000, -0.0000000000, 0.0000000000, -0.0000000000, -0.5922851562, -0.0000000000, -0.1369628906, 0.0000000000, 0.0000000000, 0.0000000000, -0.1293945312, -0.0000000000, 0.0000000000, -0.1402587891, 0.0000000000, 0.2023925781, 0.2114257812, 0.2492675781, 0.0000000000, -0.0000000000, -0.2597656250, -0.0000000000, 0.0000000000, 0.0000000000, 0.1993408203, -0.0000000000, -0.0000000000, -0.3713378906, 0.1176757812, -0.2597656250, -0.2435302734, -0.2219238281, -0.0000000000, -0.2585449219, 0.0000000000, 0.0000000000, 0.2607421875, 0.0000000000, -0.0000000000, 0.2274169922, 0.0000000000, -0.2561035156, -0.3117675781, -0.0000000000, -0.2563476562, 0.1490478516, -0.0000000000, 0.0000000000, -0.0000000000, -0.1821289062, 0.0000000000, 0.3813476562, -0.0000000000, 0.0000000000, 0.2878417969, 0.4262695312, -0.3508300781, -0.0000000000, 0.1812744141, -0.0000000000, 0.0000000000, -0.0000000000, -0.1346435547, -0.0000000000, -0.0000000000, 0.0000000000, -0.0000000000, 0.0000000000, 0.1689453125, -0.0000000000, 0.0000000000, 0.1646728516, 0.0000000000, -0.0000000000, -0.0000000000, -0.2420654297, 0.0000000000, 0.2690429688, 0.0000000000, 0.2795410156, 0.5898437500, -0.3129882812, -0.1547851562, 0.1798095703, -0.5610351562, -0.2204589844, 0.2670898438, 0.1988525391, 0.1839599609, 0.2010498047, 0.2512207031, 0.0000000000, 0.0000000000, -0.1801757812, -0.3852539062, -0.2766113281, -0.0000000000, 0.1008911133, 0.0000000000, -0.3437500000, 0.0000000000, -0.2083740234, -0.0000000000, -0.1906738281, 0.0000000000, -0.2126464844, -0.0000000000, 0.1083374023, -0.4201660156, 0.1520996094, 0.0000000000, 0.0000000000, 0.4916992188, 0.3061523438, -0.4594726562, 0.1535644531, 0.0000000000, -0.0000000000, -0.0000000000, 0.0000000000, -0.3579101562, 0.2966308594, 0.0000000000, -0.4060058594, 0.0000000000, 0.0000000000, -0.2163085938, -0.3530273438, 0.2021484375, -0.0000000000, 0.0000000000, 0.2220458984, 0.0000000000, -0.3864746094, 0.2220458984, 0.0000000000, 0.1210327148, 0.1866455078, 0.0000000000, 0.0000000000, -0.5439453125, 0.0000000000, -0.0000000000, -0.0000000000, 0.1690673828, -0.3374023438, 0.0000000000, -0.0000000000, 0.0000000000, 0.4816894531, -0.3583984375, -0.0000000000, 0.0000000000, -0.1573486328, -0.0000000000, 0.1265869141, 0.2587890625, 0.0000000000, 0.1540527344, 0.0000000000, -0.0000000000, -0.1026000977, 0.3481445312, -0.0000000000, 0.0000000000, 0.3579101562, -0.1290283203, 0.2629394531, 0.0000000000, 0.1337890625, 0.6313476562, -0.0000000000, -0.3166503906, -0.0000000000, -0.0000000000, -0.3122558594, -0.3164062500, -0.0000000000, -0.2858886719, -0.0000000000, 0.3208007812, -0.3325195312, -0.0000000000, 0.3039550781, 0.0000000000, 0.0000000000, -0.0000000000, 0.0000000000, -0.0000000000, -0.4174804688, -0.3671875000, 0.1693115234, 0.0000000000, 0.0000000000, 0.3544921875, -0.0000000000, 0.0000000000, 0.0000000000, -0.1419677734, -0.2454833984, -0.3012695312, -0.0000000000, 0.4387207031, -0.2507324219, 0.0000000000, -0.0000000000, -0.4028320312, -0.0000000000, 0.2209472656, 0.0000000000, 0.2005615234, 0.0000000000, -0.2661132812, -0.0000000000, -0.2066650391, 0.3015136719, 0.0000000000, 0.0000000000, 0.1661376953, 0.0000000000, -0.1280517578, -0.0000000000, -0.4377441406, -0.1813964844, -0.0000000000, 0.2922363281, -0.0000000000, 0.0000000000, 0.2479248047, 0.3583984375, -0.0000000000, 0.1809082031, 0.3532714844, -0.0000000000, -0.0000000000, 0.2194824219, 0.0000000000, 0.0000000000, 0.0000000000, -0.2227783203, -0.2403564453, -0.3447265625, -0.0000000000, 0.2143554688, 0.0000000000, -0.2335205078, -0.0000000000, 0.5522460938, 0.0000000000, -0.0883789062, 0.0000000000, -0.0000000000};
#endif

#endif
