//Numpy array shape [1, 1, 3, 32]
//Min -0.615722656250
//Max 0.614746093750
//Number of zeros 48

#ifndef P2_H_
#define P2_H_

#ifndef __SYNTHESIS__
model_default_t p2[96];
#else
model_default_t p2[96] = {0.2817382812, -0.2929687500, 0.3010253906, -0.0000000000, -0.4028320312, 0.0000000000, 0.4956054688, 0.0000000000, 0.5576171875, -0.0000000000, 0.0000000000, -0.0000000000, 0.0000000000, 0.0000000000, -0.3637695312, -0.4594726562, 0.4694824219, -0.0000000000, -0.3691406250, 0.0000000000, 0.2951660156, -0.0000000000, -0.0000000000, -0.0000000000, -0.0000000000, 0.4636230469, -0.3635253906, 0.0000000000, 0.4189453125, 0.4733886719, 0.0000000000, -0.0000000000, 0.0000000000, -0.0000000000, 0.4621582031, -0.0000000000, -0.4052734375, 0.0000000000, -0.0000000000, 0.4035644531, 0.0000000000, 0.4433593750, -0.4545898438, -0.0000000000, 0.0000000000, -0.3625488281, 0.4531250000, 0.0000000000, -0.4716796875, 0.0000000000, -0.0000000000, -0.3376464844, 0.0000000000, -0.0000000000, -0.0000000000, -0.4895019531, 0.2927246094, 0.0000000000, 0.0000000000, 0.3608398438, -0.4189453125, 0.0000000000, 0.0000000000, 0.5429687500, -0.3034667969, 0.3151855469, 0.5566406250, 0.4089355469, 0.0000000000, 0.3208007812, -0.0000000000, 0.0000000000, 0.0000000000, 0.5493164062, 0.4616699219, -0.5625000000, -0.6157226562, 0.0000000000, -0.0000000000, -0.4011230469, 0.0000000000, 0.4284667969, 0.4062500000, 0.6147460938, -0.0000000000, -0.0000000000, 0.4201660156, -0.3940429688, -0.4233398438, -0.3356933594, -0.0000000000, -0.5053710938, -0.0000000000, -0.0000000000, -0.5903320312, -0.0000000000};
#endif

#endif
