//Numpy array shape [1, 1, 32, 64]
//Min -1.001953125000
//Max 0.854492187500
//Number of zeros 1024

#ifndef P6_H_
#define P6_H_

#ifndef __SYNTHESIS__
model_default_t p6[2048];
#else
model_default_t p6[2048] = {0.0000000000, -0.3979492188, -0.0000000000, -0.0000000000, 0.0000000000, 0.0000000000, -0.1732177734, -0.0000000000, 0.5048828125, -0.0000000000, -0.0000000000, -0.4582519531, 0.0000000000, 0.4770507812, -0.0000000000, -0.0000000000, -0.0000000000, -0.0000000000, 0.0000000000, -0.6547851562, -0.0000000000, 0.1477050781, 0.0000000000, 0.0000000000, -0.0000000000, -0.2634277344, -0.0000000000, -0.0000000000, -0.0000000000, 0.0000000000, 0.1699218750, 0.0000000000, 0.0000000000, -0.1872558594, -0.0000000000, -0.1555175781, 0.4338378906, -0.0000000000, -0.0000000000, -0.3476562500, 0.3781738281, 0.0000000000, 0.2573242188, -0.2189941406, -0.2263183594, -0.1663818359, 0.1733398438, -0.0000000000, 0.4069824219, -0.0000000000, 0.1690673828, 0.2810058594, -0.0000000000, 0.4450683594, -0.0000000000, -0.6342773438, 0.0000000000, -0.0000000000, 0.0000000000, 0.2365722656, 0.0000000000, 0.1122436523, 0.3591308594, 0.0000000000, 0.1450195312, 0.0000000000, 0.1788330078, -0.0000000000, -0.3417968750, 0.0000000000, -0.0000000000, 0.1823730469, -0.0000000000, 0.2115478516, -0.3242187500, -0.0000000000, 0.4040527344, 0.2922363281, 0.3217773438, 0.2017822266, 0.0000000000, -0.0000000000, 0.0000000000, -0.0000000000, 0.0000000000, 0.0000000000, -0.0000000000, 0.3747558594, -0.1889648438, -0.2346191406, -0.0000000000, -0.0000000000, 0.0000000000, 0.5737304688, -0.3635253906, 0.3981933594, -0.0000000000, -0.0000000000, 0.0000000000, 0.1538085938, 0.2937011719, -0.3391113281, 0.0000000000, 0.0000000000, 0.4189453125, -0.5888671875, 0.2802734375, 0.1937255859, 0.0000000000, 0.0000000000, -0.3107910156, -0.4814453125, -0.0000000000, 0.4108886719, -0.3103027344, -0.3291015625, -0.0000000000, -0.2043457031, 0.0957031250, 0.3188476562, 0.0000000000, 0.1693115234, -0.1677246094, 0.0000000000, 0.2597656250, -0.0000000000, 0.0000000000, 0.0000000000, 0.0000000000, 0.0000000000, -0.2741699219, 0.0000000000, -0.2249755859, -0.0000000000, 0.1677246094, 0.2008056641, -0.0000000000, 0.0000000000, -0.1284179688, -0.2980957031, 0.2856445312, -0.0000000000, 0.0000000000, -0.4367675781, 0.0000000000, -0.0000000000, 0.2729492188, 0.2479248047, 0.0000000000, 0.2464599609, 0.6274414062, 0.0000000000, 0.0000000000, -0.1784667969, -0.2773437500, -0.2102050781, 0.5336914062, -0.2377929688, -0.0000000000, -0.0000000000, 0.1651611328, 0.0000000000, 0.0000000000, -0.3515625000, -0.2719726562, -0.0000000000, -0.0000000000, 0.2951660156, 0.2812500000, -0.0000000000, -0.0000000000, -0.2963867188, 0.0000000000, -0.0000000000, -0.0000000000, -0.2081298828, -0.0000000000, -0.6772460938, 0.1572265625, -0.0000000000, -0.3459472656, -0.0000000000, 0.0000000000, -0.0000000000, 0.0000000000, -0.5068359375, 0.0000000000, -0.2318115234, -0.0000000000, 0.1887207031, 0.0000000000, 0.3698730469, -0.1988525391, -0.0000000000, -0.0000000000, -0.1977539062, -0.0000000000, 0.0000000000, -0.0000000000, -0.0000000000, -0.0000000000, 0.3046875000, 0.1987304688, 0.2081298828, 0.0000000000, 0.0000000000, 0.1651611328, 0.0000000000, 0.0000000000, -0.1873779297, -0.3391113281, -0.0000000000, -0.1790771484, 0.0000000000, -0.1373291016, -0.2819824219, -0.0000000000, -0.0000000000, 0.2180175781, 0.2580566406, 0.3725585938, 0.0000000000, -0.0000000000, -0.0000000000, 0.4819335938, 0.5234375000, 0.2012939453, 0.0000000000, -0.2188720703, -0.0000000000, 0.3962402344, 0.2805175781, -0.0000000000, 0.0000000000, 0.1275634766, -0.0000000000, 0.0000000000, 0.5776367188, 0.0000000000, 0.1818847656, 0.0000000000, -0.0000000000, 0.3244628906, -0.0000000000, 0.3193359375, 0.0000000000, 0.3312988281, -0.0000000000, -0.0000000000, 0.2036132812, -0.0000000000, -0.4833984375, 0.0000000000, -0.0000000000, -0.0000000000, 0.0000000000, -0.1871337891, -0.0000000000, 0.0000000000, 0.0000000000, -0.1121215820, -0.1256103516, 0.0000000000, 0.0000000000, 0.1542968750, 0.2507324219, 0.2131347656, 0.1981201172, 0.2761230469, 0.0000000000, -0.0000000000, 0.0000000000, 0.2000732422, 0.2087402344, 0.4855957031, 0.1563720703, 0.3815917969, 0.2054443359, -0.3400878906, 0.5454101562, -0.3945312500, 0.2183837891, 0.0000000000, 0.1304931641, -0.2205810547, 0.0000000000, 0.3181152344, -0.0000000000, 0.2314453125, 0.3586425781, 0.0000000000, -0.6621093750, 0.1788330078, 0.2055664062, 0.0000000000, 0.0000000000, -0.0000000000, -0.0000000000, 0.0000000000, 0.2069091797, -0.0000000000, 0.2408447266, -0.0000000000, 0.6860351562, 0.1781005859, -0.1904296875, 0.0000000000, -0.0000000000, 0.1912841797, 0.2478027344, 0.0000000000, 0.0000000000, -0.0000000000, -0.0000000000, 0.0000000000, 0.3227539062, -0.4667968750, 0.0000000000, 0.1641845703, 0.5546875000, 0.0000000000, 0.1350097656, 0.0000000000, -0.3847656250, -0.0000000000, -0.0000000000, -0.0000000000, 0.0000000000, 0.2558593750, -0.2467041016, 0.1660156250, 0.0000000000, -0.1694335938, -0.0000000000, 0.2553710938, -0.2163085938, -0.0000000000, -0.0000000000, -0.0000000000, -0.0000000000, 0.1776123047, -0.0000000000, -0.2421875000, -0.2993164062, -0.0000000000, -0.4106445312, 0.4531250000, 0.0000000000, -0.0000000000, 0.0000000000, -0.0000000000, -0.2624511719, -0.0000000000, -0.5532226562, 0.0000000000, 0.0000000000, -0.0000000000, -0.0000000000, 0.3901367188, -0.0000000000, -0.0000000000, -0.4147949219, 0.1773681641, 0.1190185547, -0.2390136719, -0.1781005859, -0.5722656250, -0.2695312500, -0.2102050781, 0.0000000000, 0.2558593750, -0.1151123047, -0.0000000000, 0.0000000000, -0.2963867188, -0.2084960938, -0.1680908203, 0.0000000000, 0.0000000000, 0.1998291016, -0.2137451172, 0.3747558594, 0.1133422852, -0.0000000000, -0.2286376953, -0.0000000000, 0.3903808594, 0.2065429688, -0.6352539062, -0.0000000000, 0.3315429688, -0.0000000000, -0.2663574219, 0.2624511719, -0.2692871094, -0.1844482422, 0.0000000000, -0.0000000000, -0.0000000000, 0.0000000000, 0.0000000000, -0.0000000000, -0.0000000000, 0.0000000000, -0.0000000000, -0.2274169922, -0.0000000000, 0.0000000000, 0.0000000000, 0.1682128906, -0.4182128906, 0.0000000000, -0.0000000000, 0.7988281250, -0.0000000000, 0.0000000000, 0.6264648438, 0.0000000000, -0.0000000000, -0.0000000000, -0.0000000000, 0.1771240234, -0.4409179688, -0.0000000000, 0.0000000000, 0.0000000000, 0.0000000000, -0.0000000000, -0.0000000000, -0.1542968750, -0.0000000000, 0.1552734375, -0.3063964844, 0.0000000000, -0.0000000000, -0.0000000000, 0.0000000000, 0.1427001953, 0.0000000000, -0.0000000000, 0.4904785156, 0.3754882812, -0.7148437500, -0.0000000000, -0.1839599609, 0.0000000000, -0.0000000000, 0.3217773438, -0.1711425781, -0.3713378906, -0.1994628906, -0.5366210938, -0.1395263672, 0.2457275391, 0.2915039062, 0.2932128906, -0.2873535156, 0.2218017578, -0.3151855469, 0.0000000000, -0.1715087891, 0.3010253906, 0.0000000000, 0.0000000000, -0.0000000000, 0.0000000000, 0.0000000000, 0.0000000000, -0.0000000000, -0.0000000000, 0.0000000000, -0.0000000000, -0.3811035156, -0.0000000000, -0.0000000000, -0.3151855469, 0.2318115234, 0.0000000000, 0.0000000000, 0.0000000000, 0.1163940430, -0.2150878906, -0.2961425781, 0.2570800781, 0.1663818359, -0.0000000000, 0.4379882812, -0.3005371094, -0.0000000000, -0.1155395508, -0.0000000000, -0.0000000000, -0.0000000000, -0.0000000000, 0.0000000000, -0.1741943359, 0.4653320312, 0.4572753906, -0.0000000000, -0.0000000000, 0.0000000000, -0.6513671875, 0.1407470703, 0.0000000000, 0.0000000000, 0.3881835938, 0.0000000000, -0.1232910156, 0.3937988281, 0.6137695312, 0.1820068359, -0.2956542969, -0.5117187500, 0.2476806641, 0.0000000000, 0.2192382812, -0.0000000000, 0.3703613281, 0.0000000000, 0.0000000000, -0.3605957031, 0.3413085938, -0.0000000000, 0.0000000000, -0.3569335938, 0.0000000000, -0.0000000000, -0.5493164062, -0.0000000000, 0.0000000000, 0.1982421875, -0.2432861328, 0.8491210938, -0.0000000000, 0.1304931641, 0.2069091797, -0.3720703125, 0.1039428711, 0.0000000000, -0.0000000000, -0.0000000000, 0.1586914062, -0.2424316406, -0.4389648438, -0.0000000000, -0.2451171875, -0.0000000000, 0.5024414062, -0.0000000000, -0.0000000000, -0.0000000000, 0.0000000000, 0.1761474609, 0.2473144531, 0.0000000000, -0.0000000000, 0.0000000000, -0.1472167969, 0.1522216797, -0.0000000000, -0.3784179688, 0.0000000000, 0.2055664062, 0.0000000000, -0.2319335938, 0.2534179688, 0.0000000000, -0.0000000000, -0.1691894531, -0.1501464844, 0.0000000000, 0.1816406250, -0.0000000000, 0.3527832031, 0.0000000000, -0.0000000000, -0.1933593750, -0.0000000000, 0.5224609375, -0.1060791016, -0.0000000000, 0.5224609375, -0.4033203125, 0.2697753906, -0.0000000000, 0.4096679688, 0.3979492188, -0.0000000000, 0.3151855469, 0.4985351562, 0.1724853516, -0.3024902344, 0.0000000000, -0.4645996094, 0.4467773438, -0.0000000000, 0.0000000000, -0.0000000000, 0.0000000000, 0.0000000000, 0.0000000000, 0.2244873047, 0.1761474609, -0.0000000000, -0.1464843750, 0.0000000000, -0.0000000000, 0.0000000000, -0.1495361328, -0.3420410156, 0.5981445312, -0.0000000000, -0.0000000000, 0.4106445312, -0.0000000000, 0.1899414062, -0.0000000000, 0.1040039062, 0.0000000000, 0.0000000000, -0.4401855469, 0.0000000000, 0.0000000000, 0.1254882812, 0.0000000000, -0.0000000000, 0.0966796875, 0.0000000000, -0.0000000000, -0.2827148438, 0.2778320312, 0.2502441406, 0.0000000000, 0.1888427734, -0.1682128906, -0.0000000000, 0.0000000000, 0.3356933594, 0.0000000000, 0.0000000000, 0.0000000000, 0.0000000000, -0.0000000000, -0.0000000000, 0.0000000000, 0.2871093750, -0.0000000000, 0.1844482422, -0.0000000000, 0.0000000000, -0.0000000000, -0.0000000000, 0.0000000000, -0.1650390625, 0.6079101562, -0.3500976562, -0.2036132812, 0.5722656250, 0.0000000000, -0.1757812500, -0.1401367188, -0.3525390625, 0.0000000000, 0.0000000000, -0.0000000000, -0.3581542969, -0.0000000000, -0.3840332031, -0.0000000000, -0.0000000000, -0.4033203125, 0.2880859375, -0.2381591797, -0.0000000000, 0.2186279297, 0.0000000000, -0.0000000000, 0.0000000000, 0.2651367188, -0.4086914062, 0.0000000000, 0.2447509766, 0.2208251953, -0.4626464844, 0.0000000000, -0.0000000000, 0.1711425781, 0.3476562500, 0.0000000000, 0.0000000000, -0.1417236328, 0.0000000000, 0.1508789062, -0.0000000000, 0.3166503906, -0.0000000000, -0.1768798828, 0.1118774414, -0.2719726562, -0.0000000000, 0.0000000000, 0.1183471680, 0.3208007812, 0.0000000000, 0.0000000000, 0.0000000000, 0.3322753906, -0.0000000000, -0.0000000000, 0.3571777344, -0.1077270508, -0.1959228516, -0.4611816406, -0.0000000000, -0.3408203125, -0.0000000000, -0.0000000000, 0.0000000000, 0.2587890625, 0.3400878906, 0.0000000000, 0.1823730469, -0.3759765625, 0.0000000000, -0.3334960938, -0.4833984375, -0.5297851562, -0.0000000000, 0.0000000000, 0.0000000000, 0.0000000000, -0.3876953125, -0.5356445312, -0.0000000000, 0.0000000000, 0.0000000000, 0.0000000000, 0.0000000000, -0.0000000000, -0.0000000000, -0.0000000000, 0.0000000000, 0.0000000000, 0.0000000000, 0.0000000000, -0.0000000000, 0.2380371094, -0.0000000000, -0.6059570312, 0.0000000000, -0.1137084961, -0.0000000000, -0.1826171875, 0.0000000000, 0.2462158203, 0.2454833984, 0.2800292969, 0.0000000000, -0.0000000000, -0.1503906250, -0.3544921875, -0.3706054688, -0.1323242188, 0.2054443359, -0.0000000000, -0.2170410156, 0.3027343750, 0.0000000000, 0.4335937500, 0.0795898438, -0.0000000000, 0.3044433594, -0.4382324219, 0.0000000000, -0.1723632812, 0.0000000000, -0.1440429688, 0.1300048828, 0.2531738281, -0.0000000000, -0.0000000000, 0.2147216797, 0.0000000000, -0.2412109375, 0.0000000000, 0.0000000000, -0.1486816406, -0.0000000000, -0.2626953125, 0.0000000000, -0.1600341797, 0.3259277344, 0.0000000000, 0.3090820312, -0.1740722656, -0.0000000000, -0.2070312500, -0.1647949219, 0.3002929688, 0.0000000000, 0.0000000000, 0.0000000000, 0.0000000000, -0.0000000000, 0.0000000000, 0.2497558594, -0.0000000000, 0.0000000000, -0.2758789062, 0.0000000000, -0.4787597656, -0.2315673828, 0.0000000000, 0.0000000000, 0.0000000000, 0.0000000000, 0.2922363281, -0.0000000000, -0.4008789062, -0.2490234375, 0.2639160156, 0.0000000000, -0.2478027344, -0.0000000000, -0.2700195312, -0.2287597656, -0.0000000000, -0.1926269531, -0.0000000000, 0.3442382812, -0.6186523438, -0.0000000000, 0.2526855469, 0.0000000000, 0.0000000000, 0.0000000000, 0.0000000000, 0.2437744141, 0.0000000000, -0.2347412109, -0.0000000000, -0.1662597656, 0.2888183594, 0.4797363281, 0.0000000000, -0.0000000000, 0.3083496094, 0.3686523438, 0.5297851562, 0.1176147461, -0.0000000000, 0.1893310547, -0.2600097656, -0.2021484375, -0.1219482422, 0.0000000000, -0.0000000000, -0.0000000000, 0.0000000000, -0.2861328125, 0.1658935547, -0.2005615234, 0.0000000000, 0.0000000000, 0.0000000000, -0.0000000000, -0.2941894531, 0.0000000000, -0.0000000000, -0.2373046875, 0.0000000000, -0.1450195312, 0.0000000000, 0.2274169922, 0.3793945312, -0.1757812500, -0.1683349609, 0.2403564453, -0.1848144531, -0.0000000000, 0.0988769531, 0.0000000000, 0.4348144531, 0.0000000000, 0.1445312500, -0.0000000000, 0.3315429688, 0.2622070312, -0.3020019531, -0.4472656250, -0.3986816406, 0.2014160156, 0.0000000000, -0.0000000000, 0.1989746094, 0.0000000000, 0.4130859375, 0.0000000000, 0.0000000000, -0.1774902344, -0.0000000000, -0.0000000000, 0.0000000000, -0.0000000000, -0.1227416992, 0.3928222656, 0.0000000000, 0.4208984375, 0.0000000000, 0.2651367188, 0.0000000000, -0.0000000000, 0.3886718750, -0.0000000000, -0.4157714844, -0.0000000000, 0.0000000000, -0.3156738281, -0.2507324219, 0.0000000000, 0.0000000000, 0.3374023438, -0.0000000000, 0.0000000000, 0.3637695312, -0.1617431641, -0.0000000000, -0.1984863281, 0.0000000000, -0.1083374023, -0.1802978516, 0.5043945312, -0.0000000000, -0.0000000000, 0.5429687500, 0.0000000000, -0.1933593750, 0.3300781250, -0.0000000000, -0.0000000000, 0.1560058594, -0.2541503906, 0.0953369141, -0.0000000000, -0.1323242188, 0.2797851562, 0.0000000000, 0.0000000000, 0.2076416016, 0.0000000000, 0.1722412109, -0.0000000000, -0.0000000000, 0.2717285156, 0.0000000000, 0.0000000000, 0.3862304688, 0.3393554688, -0.3708496094, 0.0000000000, -0.3442382812, 0.0000000000, -0.1743164062, -0.2117919922, -0.0000000000, 0.0000000000, 0.2321777344, -0.2447509766, 0.2580566406, -0.0000000000, 0.0000000000, -0.3132324219, -0.0000000000, -0.4062500000, 0.0000000000, 0.0000000000, 0.2056884766, 0.0000000000, -0.2709960938, -0.5834960938, -0.0000000000, 0.0000000000, -0.0000000000, -0.0000000000, -0.2329101562, -0.3388671875, 0.0000000000, -0.0000000000, 0.2355957031, -0.0000000000, -0.0000000000, 0.0000000000, 0.0000000000, -0.3449707031, 0.0000000000, 0.2133789062, -0.2119140625, 0.0000000000, -0.0000000000, 0.0000000000, -1.0019531250, -0.2922363281, -0.0000000000, 0.0000000000, 0.0000000000, 0.0000000000, 0.0000000000, -0.4128417969, 0.1396484375, 0.0000000000, -0.1584472656, 0.0000000000, -0.2797851562, 0.0000000000, -0.4982910156, -0.0000000000, -0.1715087891, 0.0000000000, -0.3120117188, -0.2467041016, -0.1779785156, -0.1994628906, 0.4335937500, -0.0000000000, 0.2474365234, -0.0000000000, -0.0000000000, -0.4082031250, 0.0000000000, 0.0000000000, 0.0000000000, 0.0000000000, 0.2592773438, -0.3398437500, -0.0000000000, 0.0000000000, 0.0000000000, -0.3791503906, -0.0000000000, -0.3330078125, 0.1459960938, 0.0000000000, 0.0000000000, -0.3935546875, -0.0000000000, -0.2117919922, -0.0000000000, -0.0000000000, 0.1818847656, -0.2983398438, -0.0000000000, -0.0000000000, 0.0000000000, -0.1517333984, 0.1888427734, 0.0000000000, -0.2037353516, -0.2222900391, -0.2368164062, 0.1223144531, -0.0000000000, -0.3479003906, 0.0000000000, -0.2536621094, 0.1512451172, -0.0000000000, -0.3515625000, -0.0000000000, -0.0000000000, 0.0000000000, -0.3400878906, -0.4252929688, -0.2183837891, -0.1544189453, 0.0000000000, -0.2744140625, -0.0000000000, -0.0000000000, 0.4216308594, 0.0000000000, -0.2083740234, -0.0000000000, -0.3964843750, 0.4995117188, 0.0000000000, 0.2829589844, 0.5146484375, 0.5131835938, -0.0000000000, -0.2932128906, 0.2687988281, -0.0000000000, 0.4912109375, 0.0000000000, 0.1490478516, -0.1315917969, 0.1418457031, 0.3417968750, 0.0000000000, 0.1655273438, -0.4216308594, 0.0000000000, -0.0000000000, -0.2702636719, 0.0000000000, -0.2768554688, 0.2270507812, -0.0000000000, 0.0000000000, 0.0000000000, 0.2983398438, 0.4868164062, -0.0000000000, -0.0000000000, -0.1562500000, -0.0000000000, 0.0000000000, 0.2414550781, -0.2218017578, -0.3034667969, 0.0000000000, 0.0000000000, 0.0000000000, 0.3083496094, -0.2454833984, -0.0000000000, -0.0000000000, 0.0000000000, -0.0000000000, -0.1391601562, -0.2541503906, -0.0000000000, 0.2069091797, -0.5058593750, 0.0000000000, 0.2221679688, -0.0000000000, -0.0000000000, -0.2900390625, 0.0000000000, -0.2932128906, -0.0000000000, 0.0000000000, 0.4719238281, -0.0000000000, 0.0000000000, -0.0000000000, 0.0000000000, -0.0000000000, 0.0000000000, -0.0859985352, -0.1223754883, 0.3466796875, -0.0000000000, -0.3229980469, -0.0000000000, -0.2749023438, -0.0000000000, -0.2502441406, -0.6083984375, -0.1144409180, -0.2812500000, 0.3605957031, 0.2880859375, -0.3134765625, 0.1837158203, -0.0000000000, -0.2062988281, -0.0000000000, 0.0000000000, 0.0000000000, 0.1826171875, 0.0000000000, -0.0000000000, 0.0000000000, -0.5561523438, -0.0000000000, 0.0000000000, -0.2797851562, -0.7460937500, -0.2719726562, -0.0000000000, 0.0000000000, -0.0000000000, -0.2697753906, -0.2797851562, 0.2487792969, -0.0000000000, 0.0000000000, -0.0000000000, -0.1695556641, 0.2220458984, 0.1750488281, -0.0000000000, 0.0000000000, 0.0000000000, -0.2202148438, -0.0000000000, 0.0000000000, -0.1435546875, 0.0000000000, 0.2387695312, -0.0000000000, -0.1552734375, -0.1816406250, -0.0000000000, -0.2081298828, 0.1507568359, 0.0000000000, 0.0000000000, -0.0000000000, 0.2597656250, -0.4199218750, -0.0000000000, 0.0000000000, -0.0000000000, -0.0000000000, -0.1655273438, 0.0000000000, 0.0000000000, 0.2827148438, -0.1129760742, 0.2437744141, 0.3952636719, -0.5131835938, -0.1514892578, -0.2944335938, -0.1778564453, 0.3171386719, -0.3903808594, 0.0000000000, -0.2963867188, -0.3891601562, 0.0000000000, -0.0000000000, -0.2459716797, 0.0000000000, 0.6669921875, 0.0000000000, -0.0000000000, 0.0000000000, 0.0880737305, -0.0000000000, 0.4797363281, -0.0000000000, -0.0000000000, 0.0000000000, -0.0000000000, -0.0000000000, -0.2447509766, 0.0000000000, -0.0000000000, 0.2573242188, 0.0000000000, 0.1844482422, -0.3342285156, 0.1818847656, -0.3498535156, -0.2181396484, -0.3781738281, 0.3354492188, -0.0000000000, -0.3227539062, -0.0000000000, -0.0000000000, -0.2202148438, -0.2946777344, -0.1343994141, 0.0000000000, -0.1513671875, 0.0000000000, -0.0000000000, 0.0000000000, 0.0000000000, -0.2731933594, -0.0000000000, 0.3691406250, -0.0000000000, -0.2800292969, -0.2037353516, -0.0000000000, -0.2023925781, 0.5034179688, 0.2489013672, -0.0000000000, 0.3420410156, -0.2233886719, 0.0000000000, -0.3813476562, 0.2739257812, 0.2653808594, 0.1777343750, -0.0000000000, -0.0000000000, 0.0000000000, 0.0000000000, 0.0000000000, -0.0000000000, 0.5727539062, 0.0000000000, 0.0000000000, 0.2052001953, -0.4489746094, -0.0000000000, 0.2641601562, 0.1009521484, 0.3068847656, -0.0000000000, -0.4409179688, -0.0000000000, -0.1669921875, 0.2631835938, -0.1715087891, -0.0000000000, 0.0000000000, 0.0000000000, 0.5048828125, 0.1997070312, 0.0000000000, -0.0000000000, -0.0000000000, -0.1878662109, -0.1895751953, 0.0000000000, -0.2912597656, -0.2543945312, 0.0000000000, -0.2426757812, -0.2391357422, -0.2958984375, 0.0000000000, -0.2210693359, 0.3054199219, -0.4355468750, 0.4194335938, 0.0000000000, -0.0000000000, -0.3684082031, 0.0000000000, -0.1888427734, 0.0000000000, -0.0000000000, 0.0000000000, -0.0000000000, 0.3144531250, 0.1357421875, 0.3217773438, -0.0000000000, -0.0000000000, -0.0000000000, 0.2348632812, -0.2373046875, -0.0000000000, -0.0000000000, 0.2670898438, 0.3090820312, 0.2366943359, 0.0000000000, -0.0000000000, 0.0000000000, 0.4416503906, 0.0000000000, -0.3464355469, 0.1645507812, -0.1795654297, -0.2695312500, -0.1651611328, 0.1889648438, 0.4084472656, 0.0000000000, 0.0000000000, 0.2178955078, 0.1505126953, -0.1280517578, 0.1528320312, -0.2915039062, 0.0000000000, 0.0000000000, -0.1672363281, 0.2641601562, 0.1207885742, 0.4072265625, 0.3674316406, -0.1992187500, -0.1209106445, 0.0000000000, 0.0000000000, 0.0000000000, -0.0000000000, -0.1995849609, -0.2148437500, -0.0000000000, -0.1907958984, -0.0000000000, 0.0000000000, -0.2822265625, 0.2893066406, 0.0000000000, 0.2534179688, 0.2795410156, -0.2600097656, 0.0000000000, 0.3872070312, -0.1534423828, 0.2504882812, 0.2143554688, -0.1469726562, 0.2124023438, 0.0000000000, -0.0000000000, 0.2281494141, 0.0000000000, 0.3278808594, 0.8212890625, -0.2805175781, 0.0000000000, -0.1649169922, -0.0000000000, 0.2144775391, 0.3981933594, -0.1727294922, 0.0000000000, 0.3894042969, 0.0000000000, 0.4216308594, 0.1413574219, 0.0000000000, 0.1943359375, -0.0000000000, 0.1673583984, 0.0000000000, 0.0000000000, -0.0000000000, 0.2800292969, 0.1704101562, 0.1577148438, 0.3413085938, -0.0000000000, -0.1896972656, 0.6254882812, -0.2753906250, 0.0000000000, 0.1067504883, 0.0000000000, 0.2095947266, -0.0000000000, -0.0000000000, -0.3393554688, -0.0000000000, 0.0000000000, -0.0000000000, 0.0000000000, -0.0000000000, -0.0000000000, 0.0000000000, 0.1986083984, 0.1627197266, -0.0000000000, 0.0000000000, -0.2663574219, -0.2257080078, 0.0000000000, 0.2829589844, 0.2932128906, 0.0000000000, -0.2722167969, 0.0000000000, -0.0000000000, 0.2423095703, -0.0000000000, 0.2712402344, -0.2175292969, -0.0000000000, -0.0000000000, 0.0000000000, -0.2719726562, 0.0000000000, -0.0000000000, 0.0000000000, 0.0000000000, 0.3771972656, 0.0000000000, -0.3544921875, 0.1569824219, -0.2209472656, 0.0935668945, -0.0000000000, 0.3352050781, 0.2154541016, 0.7875976562, -0.1697998047, -0.4997558594, 0.0000000000, -0.0000000000, 0.0000000000, 0.0000000000, 0.0000000000, 0.0000000000, -0.0000000000, 0.0000000000, 0.3288574219, 0.2349853516, 0.0000000000, -0.0000000000, 0.6845703125, -0.0000000000, 0.3759765625, 0.0000000000, 0.1721191406, 0.0000000000, 0.0000000000, -0.0000000000, 0.0000000000, -0.4660644531, -0.4628906250, -0.0000000000, -0.3198242188, -0.0000000000, -0.0000000000, 0.3483886719, 0.1383056641, -0.0000000000, -0.1748046875, -0.0000000000, 0.0000000000, -0.0000000000, 0.0000000000, 0.0000000000, -0.0000000000, 0.1837158203, -0.0000000000, 0.6982421875, 0.2709960938, -0.0000000000, 0.2366943359, -0.2109375000, -0.0000000000, 0.0000000000, 0.2919921875, -0.0000000000, -0.0000000000, 0.1997070312, 0.0000000000, -0.0000000000, 0.0000000000, 0.0000000000, 0.0984497070, 0.0000000000, 0.2219238281, -0.0000000000, 0.2678222656, -0.0000000000, 0.4113769531, 0.0000000000, 0.0000000000, 0.1518554688, -0.3320312500, 0.3159179688, -0.2006835938, 0.1083374023, 0.2180175781, -0.0000000000, 0.1148681641, -0.2468261719, -0.2147216797, -0.0000000000, 0.5146484375, 0.0000000000, -0.1998291016, -0.0000000000, -0.0000000000, -0.1372070312, 0.3359375000, 0.0000000000, 0.1446533203, -0.2310791016, -0.7451171875, 0.0000000000, 0.0000000000, -0.3103027344, -0.8095703125, 0.1220703125, -0.2115478516, 0.0000000000, -0.0000000000, 0.0000000000, 0.0000000000, 0.0000000000, 0.4167480469, 0.0000000000, -0.1405029297, 0.5019531250, 0.0000000000, -0.2563476562, 0.2220458984, 0.0000000000, 0.0000000000, 0.0000000000, -0.0000000000, -0.0000000000, -0.2484130859, -0.4577636719, 0.0000000000, 0.0000000000, 0.0000000000, 0.0000000000, -0.5249023438, -0.0000000000, 0.1424560547, 0.0000000000, 0.0000000000, -0.0000000000, -0.3886718750, -0.1676025391, 0.0000000000, -0.0000000000, -0.2174072266, 0.2709960938, -0.3117675781, -0.3696289062, -0.0000000000, -0.0000000000, -0.0000000000, 0.0000000000, 0.1553955078, 0.0000000000, 0.1827392578, 0.0000000000, 0.0000000000, 0.4506835938, 0.0000000000, -0.3574218750, 0.3303222656, 0.0000000000, 0.1688232422, 0.1418457031, -0.0000000000, 0.0000000000, 0.0000000000, -0.2055664062, -0.0000000000, -0.0000000000, -0.4416503906, -0.4030761719, -0.2678222656, -0.2817382812, -0.2127685547, 0.1972656250, 0.1660156250, -0.2526855469, 0.1958007812, -0.2403564453, -0.2012939453, 0.2131347656, -0.0000000000, -0.0000000000, -0.3632812500, -0.2541503906, 0.0000000000, -0.3457031250, -0.0000000000, 0.0000000000, -0.0000000000, 0.3198242188, 0.0000000000, -0.1849365234, 0.0000000000, -0.0000000000, -0.0000000000, -0.0000000000, -0.3776855469, -0.1873779297, -0.0000000000, 0.0000000000, -0.0000000000, -0.0000000000, 0.3347167969, -0.0000000000, -0.2810058594, -0.1459960938, -0.1820068359, -0.0000000000, -0.1436767578, -0.3730468750, 0.2137451172, -0.0000000000, 0.3193359375, -0.0000000000, 0.0000000000, 0.2390136719, 0.6987304688, 0.0000000000, -0.0000000000, 0.0000000000, -0.0000000000, 0.0000000000, -0.2958984375, -0.1949462891, 0.4621582031, -0.4616699219, 0.0000000000, 0.1100463867, -0.0000000000, -0.2084960938, -0.1169433594, 0.4272460938, -0.3046875000, -0.3012695312, -0.0000000000, 0.2362060547, 0.4067382812, -0.0000000000, -0.0000000000, 0.3041992188, -0.2480468750, -0.0000000000, -0.3300781250, 0.0000000000, 0.0000000000, -0.2192382812, -0.3210449219, 0.2939453125, 0.2275390625, -0.0000000000, -0.4099121094, 0.3232421875, 0.0000000000, 0.4123535156, -0.0000000000, 0.8144531250, 0.0000000000, 0.1800537109, -0.0000000000, 0.1876220703, 0.3730468750, -0.3803710938, 0.1364746094, -0.1896972656, 0.1995849609, 0.1326904297, 0.0000000000, 0.2685546875, 0.4060058594, -0.0000000000, 0.1665039062, 0.3239746094, 0.0000000000, 0.0000000000, 0.0000000000, 0.1729736328, 0.0000000000, -0.1647949219, 0.5502929688, 0.0000000000, -0.0000000000, 0.0000000000, 0.2473144531, 0.0000000000, 0.4858398438, -0.0000000000, 0.2768554688, -0.0000000000, 0.1519775391, -0.0000000000, -0.0000000000, 0.5825195312, -0.0000000000, 0.0000000000, -0.2343750000, 0.1931152344, 0.0000000000, -0.0000000000, -0.1665039062, -0.0000000000, 0.2592773438, -0.1932373047, 0.3483886719, 0.1314697266, 0.2465820312, 0.3513183594, 0.0000000000, 0.1901855469, 0.0000000000, 0.0000000000, -0.4819335938, 0.0000000000, -0.0000000000, 0.0000000000, 0.0000000000, -0.0000000000, -0.0000000000, 0.0000000000, 0.5454101562, 0.1724853516, 0.0000000000, 0.4926757812, 0.0000000000, 0.0000000000, 0.0000000000, 0.0000000000, -0.0000000000, 0.3105468750, -0.0000000000, -0.1906738281, 0.2446289062, 0.0000000000, 0.2517089844, 0.3842773438, 0.0000000000, 0.1540527344, -0.0000000000, 0.1789550781, -0.0000000000, -0.3698730469, 0.2675781250, -0.0000000000, 0.0000000000, 0.2196044922, -0.2445068359, 0.5634765625, 0.2360839844, 0.0000000000, -0.0000000000, -0.0000000000, 0.0000000000, 0.2937011719, -0.0000000000, -0.0000000000, 0.2263183594, 0.1303710938, 0.2156982422, -0.0000000000, 0.0000000000, -0.0000000000, 0.0000000000, -0.0000000000, 0.3215332031, -0.0000000000, 0.1746826172, 0.3750000000, -0.0000000000, -0.0000000000, 0.0000000000, 0.2534179688, 0.0000000000, 0.0000000000, 0.0000000000, 0.0000000000, 0.2958984375, -0.0000000000, 0.2381591797, 0.0000000000, 0.3610839844, 0.1606445312, -0.0000000000, 0.3759765625, -0.1067504883, 0.1784667969, -0.0000000000, -0.0000000000, 0.1475830078, -0.0000000000, -0.2004394531, -0.0000000000, -0.0000000000, -0.3713378906, 0.2717285156, -0.3762207031, -0.1400146484, 0.1857910156, 0.1688232422, -0.0000000000, -0.0000000000, 0.4514160156, -0.0000000000, 0.2797851562, -0.5439453125, 0.0000000000, -0.1700439453, -0.1759033203, -0.0000000000, -0.1345214844, 0.2321777344, -0.0000000000, -0.3593750000, 0.0000000000, 0.0000000000, 0.0000000000, 0.0000000000, 0.0000000000, 0.1975097656, 0.0000000000, 0.0000000000, 0.0000000000, 0.0000000000, -0.1799316406, 0.0000000000, 0.0000000000, 0.4565429688, -0.4113769531, 0.0000000000, 0.2885742188, -0.2697753906, -0.0000000000, -0.0000000000, -0.2215576172, -0.0000000000, -0.2344970703, -0.1486816406, 0.8544921875, -0.0000000000, 0.2834472656, -0.3637695312, -0.2819824219, -0.0000000000, -0.0000000000, -0.2336425781, 0.0000000000, 0.3427734375, -0.0000000000, 0.0000000000, 0.0000000000, -0.1566162109, 0.3540039062, -0.2271728516, 0.0000000000, -0.0000000000, 0.3662109375, -0.3664550781, 0.0000000000, -0.1632080078, -0.3244628906, -0.0000000000, -0.0000000000, 0.2169189453, 0.0000000000, 0.0000000000, 0.1967773438, 0.0000000000, -0.0000000000, 0.0000000000, 0.0000000000, -0.0000000000, -0.1452636719, 0.0000000000, -0.0000000000, -0.6787109375, 0.0000000000, -0.3525390625, -0.0000000000, -0.0000000000, -0.0000000000, -0.2541503906, 0.0000000000, 0.0000000000, 0.0000000000, -0.4086914062, -0.4252929688, -0.0000000000, -0.0000000000, -0.0000000000, 0.0000000000, -0.0000000000, -0.4362792969, 0.0000000000, 0.0000000000, -0.3222656250, -0.3298339844, 0.5200195312, -0.1701660156, -0.0000000000, 0.3767089844, 0.0000000000, -0.2398681641, -0.1859130859, -0.0000000000, 0.0000000000, -0.2207031250, -0.4389648438, 0.3454589844, 0.3208007812, -0.0000000000, -0.2095947266, 0.0000000000, -0.0000000000, -0.0000000000, 0.4301757812, -0.0000000000, -0.0000000000, -0.0000000000, 0.0000000000, -0.3295898438, -0.1276855469, -0.0000000000, 0.0000000000, 0.0975952148, 0.3037109375, 0.0000000000, -0.0000000000, -0.3857421875, 0.0000000000, 0.0000000000, 0.2846679688, -0.0000000000, 0.2333984375, -0.3149414062, 0.2120361328, -0.1567382812, -0.0000000000, 0.2133789062, -0.0000000000, 0.0000000000, -0.3273925781, 0.1632080078, -0.0000000000, -0.2819824219, 0.0000000000, -0.1185913086, 0.4172363281, -0.0000000000, -0.3908691406, -0.0000000000, 0.2739257812, 0.1875000000, -0.0000000000, 0.0000000000, 0.3193359375, 0.0000000000, 0.1965332031, 0.3337402344, 0.0000000000, -0.3361816406, 0.0000000000, -0.2247314453, 0.3164062500, 0.0000000000, 0.4768066406, 0.0000000000, 0.2412109375, -0.0000000000, 0.0000000000, 0.1480712891, -0.0000000000, -0.4028320312, 0.0000000000, 0.3518066406, 0.0000000000, 0.2788085938};
#endif

#endif
