//Numpy array shape [3, 3, 64, 1]
//Min -0.255859375000
//Max 0.310546875000
//Number of zeros 0

#ifndef W10_H_
#define W10_H_

#ifndef __SYNTHESIS__
model_default_t w10[576];
#else
model_default_t w10[576] = {0.0991619080, 0.1936948299, 0.0778241158, 0.0938377604, 0.0642536953, 0.0887331963, 0.1131727323, 0.0719601959, 0.0718465224, 0.0830121413, 0.1072254702, 0.1662022173, 0.0438559838, 0.1696666777, 0.0688333288, 0.1992680579, 0.2004217654, 0.1010519788, 0.1826447695, 0.0620319173, 0.1450793594, 0.0895639956, 0.1268347800, 0.1562310755, 0.0949734300, 0.1598628610, 0.1243471876, 0.0735088438, 0.0698460862, 0.1186968088, 0.1161080152, 0.1025308296, 0.0656992197, 0.0818711221, 0.0853837952, 0.1421595812, 0.0856061950, 0.0601895489, 0.1744686365, 0.1689446270, 0.0536322109, 0.0661587417, 0.1393694878, 0.1477531195, 0.1019419059, 0.0736812949, 0.0707309172, 0.2277138084, 0.1860642731, 0.2007458657, 0.1514191329, 0.2109854370, 0.1102768257, 0.1314792484, 0.0762450024, 0.0981070176, 0.1537758261, 0.1323479414, 0.1162849069, 0.0919238701, 0.1175471321, 0.1362796128, 0.1224503517, 0.0896155760, -0.0018109581, -0.0035373787, -0.0014212738, -0.0017137253, -0.0011734420, -0.0016205023, -0.0020668327, -0.0013141830, -0.0013121071, -0.0015160209, -0.0019582200, -0.0030352913, -0.0008009260, -0.0030985612, -0.0012570783, -0.0036391607, -0.0036602304, -0.0018454759, -0.0033355756, -0.0011328666, -0.0026495322, -0.0016356749, -0.0023163378, -0.0028531917, -0.0017344655, -0.0029195177, -0.0022709079, -0.0013424654, -0.0012755739, -0.0021677171, -0.0021204390, -0.0018724836, -0.0011998412, -0.0014951829, -0.0015593334, -0.0025962091, -0.0015633951, -0.0010992200, -0.0031862578, -0.0030853748, -0.0009794657, -0.0012082333, -0.0025452548, -0.0026983621, -0.0018617281, -0.0013456149, -0.0012917332, -0.0041586552, -0.0033980245, -0.0036661495, -0.0027653130, -0.0038531511, -0.0020139460, -0.0024011582, -0.0013924349, -0.0017916930, -0.0028083522, -0.0024170226, -0.0021236693, -0.0016787725, -0.0021467209, -0.0024888255, -0.0022362666, -0.0016366169, -0.7892166376, -1.5415917635, -0.6193919182, -0.7468424439, -0.5113866925, -0.7062158585, -0.9007269740, -0.5727217197, -0.5718170404, -0.6606827378, -0.8533934951, -1.3227816820, -0.3490440249, -1.3503547907, -0.5478354096, -1.5859483480, -1.5951305628, -0.8042594790, -1.4536458254, -0.4937039018, -1.1546676159, -0.7128280997, -1.0094614029, -1.2434226274, -0.7558810711, -1.2723275423, -0.9896630049, -0.5850472450, -0.5558958054, -0.9446923733, -0.9240884781, -0.8160294294, -0.5228914618, -0.6516015530, -0.6795583963, -1.1314294338, -0.6813285351, -0.4790407419, -1.3885730505, -1.3446081877, -0.4268517196, -0.5265487432, -1.1092234850, -1.1759477854, -0.8113422394, -0.5864197612, -0.5629380941, -1.8123444319, -1.4808610678, -1.5977101326, -1.2051249743, -1.6792054176, -0.8776788116, -1.0464261770, -0.6068239808, -0.7808209062, -1.2238816023, -1.0533398390, -0.9254962802, -0.7316100597, -0.9355422258, -1.0846316814, -0.9745662808, -0.7132385969, -0.1757213622, -0.3432398438, -0.1379093975, -0.1662866324, -0.1138617322, -0.1572410017, -0.2005494535, -0.1275181472, -0.1273167133, -0.1471029222, -0.1900105178, -0.2945211530, -0.0777156577, -0.3006604016, -0.1219771430, -0.3531159759, -0.3551604152, -0.1790706962, -0.3236584365, -0.1099245995, -0.2570900917, -0.1587132215, -0.2247594893, -0.2768516243, -0.1682991087, -0.2832874060, -0.2203513235, -0.1302624494, -0.1237718090, -0.2103384733, -0.2057509720, -0.1816913188, -0.1164233014, -0.1450809687, -0.1513056457, -0.2519160509, -0.1516997516, -0.1066597998, -0.3091697991, -0.2993808687, -0.0950397700, -0.1172376052, -0.2469718158, -0.2618281543, -0.1806476861, -0.1305680573, -0.1253397912, -0.4035237134, -0.3297179937, -0.3557347655, -0.2683245540, -0.3738799393, -0.1954177171, -0.2329897881, -0.1351111084, -0.1738520265, -0.2725007534, -0.2345291674, -0.2060644180, -0.1628950834, -0.2083011717, -0.2414963543, -0.2169899940, -0.1588046402, 0.5526555777, 1.0795125961, 0.4337343872, 0.5229827166, 0.3581028581, 0.4945335984, 0.6307415962, 0.4010532200, 0.4004197121, 0.4626486599, 0.5975959301, 0.9262890220, 0.2444210052, 0.9455972910, 0.3836263716, 1.1105736494, 1.1170035601, 0.5631894469, 1.0179276466, 0.3457202911, 0.8085656762, 0.4991638362, 0.7068837881, 0.8707171082, 0.5293120742, 0.8909580708, 0.6930198073, 0.4096842408, 0.3892707229, 0.6615287662, 0.6471007466, 0.5714314580, 0.3661591411, 0.4562894702, 0.4758664966, 0.7922930121, 0.4771060050, 0.3354522884, 0.9723599553, 0.9415731430, 0.2989065051, 0.3687202036, 0.7767431140, 0.8234672546, 0.5681492090, 0.4106453657, 0.3942021430, 1.2691093683, 1.0369853973, 1.1188099384, 0.8438988924, 1.1758776903, 0.6146019697, 0.7327686548, 0.4249335825, 0.5467763543, 0.8570333719, 0.7376101017, 0.6480865479, 0.5123161077, 0.6551212668, 0.7595223784, 0.6824482083, 0.4994513392, -0.1645900756, -0.3214969039, -0.1291733533, -0.1557530016, -0.1066490188, -0.1472803801, -0.1878454089, -0.1194403544, -0.1192516834, -0.1377845109, -0.1779740751, -0.2758643627, -0.0727926642, -0.2816146910, -0.1142503470, -0.3307474256, -0.3326623440, -0.1677272469, -0.3031558990, -0.1029612869, -0.2408043891, -0.1486593485, -0.2105218172, -0.2593141198, -0.1576379985, -0.2653422058, -0.2063928992, -0.1220108196, -0.1159313321, -0.1970143318, -0.1927174181, -0.1701818556, -0.1090483218, -0.1358906329, -0.1417209953, -0.2359580994, -0.1420901567, -0.0999033079, -0.2895850539, -0.2804162204, -0.0890193582, -0.1098110452, -0.2313270867, -0.2452423275, -0.1692043394, -0.1222970560, -0.1173999906, -0.3779619932, -0.3088316023, -0.3332003057, -0.2513272166, -0.3501960635, -0.1830387414, -0.2182307690, -0.1265523285, -0.1628391594, -0.2552388608, -0.2196726203, -0.1930110157, -0.1525762975, -0.1951060742, -0.2261984795, -0.2032445073, -0.1487449557, 0.0806380883, 0.1575119048, 0.0632862747, 0.0763085186, 0.0522508621, 0.0721575022, 0.0920316428, 0.0585177578, 0.0584253222, 0.0675051585, 0.0871953517, 0.1351550221, 0.0356635228, 0.1379722953, 0.0559750013, 0.1620440334, 0.1629822254, 0.0821750909, 0.1485260427, 0.0504441224, 0.1179779917, 0.0728330985, 0.1031415612, 0.1270465255, 0.0772320330, 0.1299998760, 0.1011186689, 0.0597771108, 0.0567985736, 0.0965237990, 0.0944186002, 0.0833776891, 0.0534263588, 0.0665772930, 0.0694337785, 0.1156036332, 0.0696146414, 0.0489459150, 0.1418772489, 0.1373851299, 0.0436135121, 0.0538000390, 0.1133347452, 0.1201522797, 0.0828987733, 0.0599173494, 0.0575181171, 0.1851760149, 0.1513067633, 0.1632457823, 0.1231334656, 0.1715725660, 0.0896767005, 0.1069184318, 0.0620021485, 0.0797802582, 0.1250499189, 0.1076248437, 0.0945624486, 0.0747521445, 0.0955888852, 0.1108220741, 0.0995761678, 0.0728750452, 0.4323357344, 0.8444895148, 0.3393051326, 0.4091230035, 0.2801395059, 0.3868676126, 0.4934214652, 0.3137390316, 0.3132434487, 0.3619244099, 0.4674920142, 0.7246245742, 0.1912075877, 0.7397292256, 0.3001062274, 0.8687882423, 0.8738182783, 0.4405762553, 0.7963123918, 0.2704527974, 0.6325311065, 0.3904897869, 0.5529865623, 0.6811513901, 0.4140743911, 0.6969856620, 0.5421409607, 0.3204909861, 0.3045217395, 0.5175058842, 0.5062190294, 0.4470238984, 0.2864418328, 0.3569496870, 0.3722645640, 0.6198011637, 0.3732342124, 0.2624202371, 0.7606653571, 0.7365812063, 0.2338309139, 0.2884453237, 0.6076366305, 0.6441884041, 0.4444562197, 0.3212428689, 0.3083795309, 0.9928088188, 0.8112210631, 0.8752313852, 0.6601718664, 0.9198748469, 0.4807956219, 0.5732359886, 0.3324203789, 0.4277364910, 0.6704467535, 0.5770233870, 0.5069901943, 0.4007786512, 0.5124934316, 0.5941651464, 0.5338709354, 0.3907147050, 0.3444750607, 0.6728696227, 0.2703504264, 0.3259796798, 0.2232086360, 0.3082471192, 0.3931467533, 0.2499799728, 0.2495850921, 0.2883729339, 0.3724867702, 0.5773640275, 0.1523497552, 0.5893990397, 0.2391176671, 0.6922302246, 0.6962381005, 0.3510408998, 0.6344832182, 0.2154904902, 0.5039860606, 0.3111331761, 0.4406068325, 0.5427256227, 0.3299248517, 0.5553419590, 0.4319653213, 0.2553597689, 0.2426358461, 0.4123366475, 0.4033435285, 0.3561782241, 0.2282301933, 0.2844091952, 0.2966117263, 0.4938431382, 0.2973843515, 0.2090903372, 0.6060804725, 0.5868907571, 0.1863110363, 0.2298265100, 0.4841507375, 0.5132743716, 0.3541323543, 0.2559588253, 0.2457096428, 0.7910469770, 0.6463620663, 0.6973639727, 0.5260095596, 0.7329348326, 0.3830867708, 0.4567411244, 0.2648648024, 0.3408105075, 0.5341963768, 0.4597588181, 0.4039580226, 0.3193310797, 0.4083428085, 0.4734169543, 0.4253759384, 0.3113123775, -0.7232786417, -1.4127937555, -0.5676425695, -0.6844447851, -0.4686610401, -0.6472124457, -0.8254724145, -0.5248715878, -0.5240424871, -0.6054835916, -0.7820935845, -1.2122650146, -0.3198818564, -1.2375344038, -0.5020645261, -1.4534444809, -1.4618595839, -0.7370646596, -1.3321956396, -0.4524556100, -1.0581966639, -0.6532722116, -0.9251222014, -1.1395363808, -0.6927282214, -1.1660262346, -0.9069779515, -0.5361673236, -0.5094514489, -0.8657645583, -0.8468821645, -0.7478513122, -0.4792045951, -0.5971611142, -0.6227822304, -1.0369000435, -0.6244044304, -0.4390175045, -1.2725596428, -1.2322678566, -0.3911888301, -0.4825563133, -1.0165493488, -1.0776988268, -0.7435556650, -0.5374251604, -0.5159053802, -1.6609253883, -1.3571370840, -1.4642235041, -1.1044384241, -1.5389101505, -0.8043499589, -0.9589986205, -0.5561246276, -0.7155843377, -1.1216279268, -0.9653347135, -0.8481723070, -0.6704850197, -0.8573789001, -0.9940121174, -0.8931425810, -0.6536484957, -0.6909894347, -1.3497226238, -0.5423013568, -0.6538891792, -0.4477386773, -0.6183190346, -0.7886209488, -0.5014398098, -0.5006477237, -0.5784530640, -0.7471786737, -1.1581460238, -0.3056014180, -1.1822873354, -0.4796509147, -1.3885586262, -1.3965979815, -0.7041599751, -1.2727226019, -0.4322566986, -1.0109558105, -0.6241083145, -0.8838221431, -1.0886641741, -0.6618028879, -1.1139715910, -0.8664878607, -0.5122312903, -0.4867081046, -0.8271143436, -0.8090748787, -0.7144650817, -0.4578115344, -0.5705021024, -0.5949794054, -0.9906098843, -0.5965292454, -0.4194185138, -1.2157489061, -1.1772559881, -0.3737250566, -0.4610136151, -0.9711676836, -1.0295872688, -0.7103612423, -0.5134329796, -0.4928739071, -1.5867769718, -1.2965506315, -1.3988564014, -1.0551331043, -1.4702087641, -0.7684414387, -0.9161861539, -0.5312976241, -0.6836386323, -1.0715552568, -0.9222394228, -0.8103075027, -0.6405526400, -0.8191030622, -0.9496365786, -0.8532701731, -0.6244677305, 0.6114559770, 1.1943684816, 0.4798820317, 0.5786259770, 0.3962035775, 0.5471500158, 0.6978500485, 0.4437236786, 0.4430227876, 0.5118726492, 0.6611778140, 1.0248425007, 0.2704264522, 1.0462051630, 0.4244427085, 1.2287342548, 1.2358484268, 0.6231105924, 1.1262311935, 0.3825035989, 0.8945938945, 0.5522729158, 0.7820934653, 0.9633579850, 0.5856288075, 0.9857524633, 0.7667543888, 0.4532730281, 0.4306876063, 0.7319127917, 0.7159497142, 0.6322295666, 0.4051170349, 0.5048368573, 0.5264968276, 0.8765898347, 0.5278682113, 0.3711431026, 1.0758152008, 1.0417528152, 0.3307089806, 0.4079505801, 0.8593854904, 0.9110809565, 0.6285980344, 0.4543364048, 0.4361436963, 1.4041376114, 1.1473165751, 1.2378468513, 0.9336864352, 1.3009865284, 0.6799932122, 0.8107323647, 0.4701448381, 0.6049512625, 0.9482183456, 0.8160889149, 0.7170404196, 0.5668244958, 0.7248235941, 0.8403325677, 0.7550580502, 0.5525909662, 0.3164344132, 0.6180973053, 0.2483436167, 0.2994445860, 0.2050392032, 0.2831554413, 0.3611441851, 0.2296313196, 0.2292685956, 0.2648990750, 0.3421659470, 0.5303659439, 0.1399483234, 0.5414212942, 0.2196532190, 0.6358819604, 0.6395635605, 0.3224658072, 0.5828355551, 0.1979493201, 0.4629610479, 0.2858065963, 0.4047409594, 0.4985471368, 0.3030686080, 0.5101364851, 0.3968028724, 0.2345732003, 0.2228850275, 0.3787719905, 0.3705109358, 0.3271849453, 0.2096520066, 0.2612579763, 0.2724672258, 0.4536437690, 0.2731769383, 0.1920701563, 0.5567448139, 0.5391172171, 0.1711451113, 0.2111183852, 0.4447403550, 0.4714932442, 0.3253056109, 0.2351235151, 0.2257086039, 0.7266548872, 0.5937474966, 0.6405978203, 0.4831918180, 0.6732731462, 0.3519030809, 0.4195618927, 0.2433045357, 0.3130681515, 0.4907122254, 0.4223339558, 0.3710753918, 0.2933371961, 0.3751032650, 0.4348802865, 0.3907498717, 0.2859712243, -0.4479705095, -0.8750292659, -0.3515756130, -0.4239183366, -0.2902703285, -0.4008581042, -0.5112653375, -0.3250849545, -0.3245714307, -0.3750128746, -0.4843981862, -0.7508295774, -0.1981223226, -0.7664804459, -0.3109591305, -0.9002066851, -0.9054186344, -0.4565090537, -0.8251098990, -0.2802333236, -0.6554056406, -0.4046112895, -0.5729845166, -0.7057842612, -0.4290487766, -0.7221910954, -0.5617467165, -0.3320810795, -0.3155343235, -0.5362207294, -0.5245257020, -0.4631898403, -0.2968005836, -0.3698582351, -0.3857269585, -0.6422153711, -0.3867316842, -0.2719102800, -0.7881736755, -0.7632185817, -0.2422870696, -0.2988765240, -0.6296109557, -0.6674845219, -0.4605293274, -0.3328601420, -0.3195316195, -1.0287122726, -0.8405576944, -0.9068828225, -0.6840459704, -0.9531407356, -0.4981828928, -0.5939662457, -0.3444418609, -0.4432049692, -0.6946924925, -0.5978906155, -0.5253247619, -0.4152722061, -0.5310269594, -0.6156522036, -0.5531775951, -0.4048443139, 0.4965742826, 0.9699679017, 0.3897207677, 0.4699124992, 0.3217639923, 0.4443503022, 0.5667364597, 0.3603559136, 0.3597866893, 0.4157009125, 0.5369542837, 0.8322928548, 0.2196181417, 0.8496418595, 0.3446974754, 0.9978770614, 1.0036544800, 0.5060392022, 0.9146324396, 0.3106379807, 0.7265156507, 0.4485106766, 0.6351520419, 0.7823602557, 0.4755995870, 0.8005471826, 0.6226949096, 0.3681111038, 0.3497690856, 0.5943994522, 0.5814355016, 0.5134449005, 0.3290027678, 0.4099870324, 0.4275774360, 0.7118942738, 0.4286912084, 0.3014119267, 0.8736887574, 0.8460260630, 0.2685746551, 0.3313039243, 0.6979222894, 0.7399051189, 0.5104957223, 0.3689747155, 0.3542000651, 1.1403251886, 0.9317562580, 1.0052775145, 0.7582634091, 1.0565543175, 0.5522345901, 0.6584102511, 0.3818130195, 0.4912917018, 0.7700650096, 0.6627603769, 0.5823213458, 0.4603282809, 0.5886421800, 0.6824491024, 0.6131961346, 0.4487690032, -0.0875207931, -0.1709560156, -0.0686879531, -0.0828216746, -0.0567106307, -0.0783163607, -0.0998868197, -0.0635124221, -0.0634121001, -0.0732669309, -0.0946377367, -0.1466909051, -0.0387075096, -0.1497486532, -0.0607526377, -0.1758749783, -0.1768932492, -0.0891889781, -0.1612031758, -0.0547496788, -0.1280477643, -0.0790496245, -0.1119450033, -0.1378903240, -0.0838240236, -0.1410957575, -0.1097494513, -0.0648792684, -0.0616465025, -0.1047623977, -0.1024775133, -0.0904942229, -0.0579864606, -0.0722598583, -0.0753601566, -0.1254707575, -0.0755564570, -0.0531235933, -0.1539868861, -0.1491113603, -0.0473360531, -0.0583920367, -0.1230082065, -0.1304076463, -0.0899744332, -0.0650314763, -0.0624274611, -0.2009813488, -0.1642212421, -0.1771793067, -0.1336432844, -0.1862168014, -0.0973308757, -0.1160442382, -0.0672942176, -0.0865897387, -0.1357233077, -0.1168109477, -0.1026336327, -0.0811324641, -0.1037476808, -0.1202810705, -0.1080752909, -0.0790951550, -0.0992468819, -0.1938607991, -0.0778908059, -0.0939181745, -0.0643087551, -0.0888092294, -0.1132697091, -0.0720218569, -0.0719080865, -0.0830832720, -0.1073173508, -0.1663446426, -0.0438935645, -0.1698120534, -0.0688923150, -0.1994388103, -0.2005935162, -0.1011385769, -0.1828012764, -0.0620850734, -0.1452036798, -0.0896407366, -0.1269434690, -0.1563649476, -0.0950548127, -0.1599998474, -0.1244537458, -0.0735718310, -0.0699059367, -0.1187985241, -0.1162075102, -0.1026186943, -0.0657555163, -0.0819412768, -0.0854569599, -0.1422813982, -0.0856795534, -0.0602411255, -0.1746181399, -0.1690893918, -0.0536781661, -0.0662154332, -0.1394889206, -0.1478797346, -0.1020292565, -0.0737444311, -0.0707915276, -0.2279089391, -0.1862237006, -0.2009178847, -0.1515488774, -0.2111662328, -0.1103713214, -0.1315919161, -0.0763103366, -0.0981910825, -0.1539075971, -0.1324613392, -0.1163845509, -0.0920026451, -0.1176478565, -0.1363963932, -0.1225552782, -0.0896923691, -0.3098066151, -0.6051511168, -0.2431420088, -0.2931726575, -0.2007446140, -0.2772246897, -0.3535799384, -0.2248216420, -0.2244665176, -0.2593507171, -0.3349992037, -0.5192573071, -0.1370170712, -0.5300811529, -0.2150525451, -0.6225632429, -0.6261677742, -0.3157116771, -0.5706279874, -0.1938032359, -0.4532642365, -0.2798203230, -0.3962635696, -0.4881049693, -0.2967207730, -0.4994515777, -0.3884917498, -0.2296600044, -0.2182166427, -0.3708385229, -0.3627505004, -0.3203319907, -0.2052607983, -0.2557858825, -0.2667603195, -0.4441421032, -0.2674551904, -0.1880472153, -0.5450837016, -0.5278252959, -0.1675604433, -0.2066964656, -0.4354251623, -0.4616177380, -0.3184920251, -0.2301988006, -0.2209810913, -0.7114349604, -0.5813113451, -0.6271803379, -0.4730712473, -0.6591712832, -0.3445324004, -0.4107740819, -0.2382084578, -0.3065108657, -0.4804341495, -0.4134880602, -0.3633031249, -0.2871931791, -0.3672466576, -0.4257716238, -0.3825655282, -0.2799814939, -0.2669809163, -0.5214988589, -0.2095315903, -0.2526463270, -0.1729949415, -0.2389029115, -0.3047032654, -0.1937437207, -0.1934376806, -0.2234997004, -0.2886910141, -0.4474784732, -0.1180766970, -0.4568060637, -0.1853250414, -0.5365040302, -0.5396102667, -0.2720696926, -0.4917479455, -0.1670130938, -0.3906078339, -0.2411397249, -0.3414866030, -0.4206324220, -0.2557039559, -0.4304105639, -0.3347890973, -0.1979132593, -0.1880517602, -0.3195761442, -0.3126061559, -0.2760513127, -0.1768868417, -0.2204276621, -0.2298850715, -0.3827466965, -0.2304838747, -0.1620527506, -0.4697347581, -0.4548620582, -0.1443979442, -0.1781240553, -0.3752347529, -0.3978066146, -0.2744656801, -0.1983775645, -0.1904340535, -0.6130906940, -0.5009545088, -0.5404828787, -0.4076768756, -0.5680516362, -0.2969064116, -0.3539912701, -0.2052800357, -0.2641407549, -0.4140219688, -0.3563300967, -0.3130823970, -0.2474934161, -0.3164807856, -0.3669156432, -0.3296820819, -0.2412786037, 0.2125990540, 0.4152737260, 0.1668516994, 0.2011843026, 0.1377572715, 0.1902403235, 0.2426376790, 0.1542796940, 0.1540359855, 0.1779746115, 0.2298869938, 0.3563307226, 0.0940254256, 0.3637583554, 0.1475758255, 0.4272225201, 0.4296960235, 0.2166512907, 0.3915828764, 0.1329938769, 0.3110441864, 0.1920215189, 0.2719285488, 0.3349529803, 0.2036191374, 0.3427394032, 0.2665952742, 0.1575999260, 0.1497471333, 0.2544810772, 0.2489308119, 0.2198218852, 0.1408564299, 0.1755283177, 0.1830593348, 0.3047842979, 0.1835361719, 0.1290439218, 0.3740535975, 0.3622103333, 0.1149852499, 0.1418416202, 0.2988024652, 0.3167766333, 0.2185592502, 0.1579696685, 0.1516441852, 0.4882090390, 0.3989141285, 0.4303908944, 0.3246363997, 0.4523441195, 0.2364289910, 0.2818861008, 0.1634661555, 0.2103374153, 0.3296890259, 0.2837485373, 0.2493100464, 0.1970809996, 0.2520162165, 0.2921778858, 0.2625285089, 0.1921321005, 0.9979069829, 1.9492305517, 0.7831760049, 0.9443279505, 0.6466112733, 0.8929585814, 1.1389036179, 0.7241649628, 0.7230210304, 0.8353852630, 1.0790538788, 1.6725611687, 0.4413407743, 1.7074253559, 0.6926980615, 2.0053162575, 2.0169265270, 1.0169275999, 1.8380292654, 0.6242526770, 1.4599931240, 0.9013192058, 1.2763904333, 1.5722174644, 0.9557566047, 1.6087656021, 1.2513568401, 0.7397496104, 0.7028898001, 1.1944947243, 1.1684426069, 1.0318098068, 0.6611582041, 0.8239027262, 0.8592521548, 1.4306101799, 0.8614903092, 0.6057121158, 1.7557495832, 1.7001590729, 0.5397229195, 0.6657825708, 1.4025324583, 1.4869003296, 1.0258831978, 0.7414851189, 0.7117942572, 2.2915775776, 1.8724410534, 2.0201880932, 1.5237928629, 2.1232330799, 1.1097609997, 1.3231296539, 0.7672847509, 0.9872911572, 1.5475091934, 1.3318716288, 1.1702227592, 0.9250676632, 1.1829249859, 1.3714377880, 1.2322680950, 0.9018383026, 0.1675640792, 0.3273060918, 0.1315074116, 0.1585673243, 0.1085760742, 0.1499416083, 0.1912396103, 0.1215985417, 0.1214064658, 0.1402741671, 0.1811899096, 0.2808490098, 0.0741079673, 0.2867032290, 0.1163147613, 0.3367237449, 0.3386732936, 0.1707579345, 0.3086336553, 0.1048217192, 0.2451555282, 0.1513454914, 0.2143257707, 0.2639997303, 0.1604863852, 0.2701367438, 0.2101222426, 0.1242154539, 0.1180261150, 0.2005742192, 0.1961996704, 0.1732569039, 0.1110187322, 0.1383460611, 0.1442817748, 0.2402216792, 0.1446575969, 0.1017084718, 0.2948176265, 0.2854831219, 0.0906278640, 0.1117952392, 0.2355069816, 0.2496736646, 0.1722617298, 0.1245068610, 0.1195213124, 0.3847914636, 0.3144119382, 0.3392209709, 0.2558684945, 0.3565238118, 0.1863461137, 0.2221740186, 0.1288390309, 0.1657815278, 0.2598508298, 0.2236419320, 0.1964985728, 0.1553332359, 0.1986314803, 0.2302857041, 0.2069169581, 0.1514326632, -0.7327954769, -1.4313831329, -0.5751115680, -0.6934506297, -0.4748276472, -0.6557283998, -0.8363338709, -0.5317777991, -0.5309377909, -0.6134504676, -0.7923842669, -1.2282159328, -0.3240908384, -1.2538177967, -0.5086706281, -1.4725687504, -1.4810945988, -0.7467628717, -1.3497245312, -0.4584089518, -1.0721203089, -0.6618679166, -0.9372949004, -1.1545301676, -0.7018430829, -1.1813687086, -0.9189118743, -0.5432221293, -0.5161547661, -0.8771561980, -0.8580253124, -0.7576914430, -0.4855099320, -0.6050184965, -0.6309767365, -1.0505434275, -0.6326202750, -0.4447940588, -1.2893038988, -1.2484819889, -0.3963360488, -0.4889057577, -1.0299249887, -1.0918791294, -0.7533392906, -0.5444965363, -0.5226936340, -1.6827796698, -1.3749941587, -1.4834896326, -1.1189705133, -1.5591589212, -0.8149334788, -0.9716170430, -0.5634420514, -0.7249999046, -1.1363861561, -0.9780365229, -0.8593325019, -0.6793071628, -0.8686602116, -1.0070911646, -0.9048944712, -0.6622491479, 1.0951145887, 2.1391079426, 0.8594663143, 1.0363162756, 0.7095986009, 0.9799429178, 1.2498458624, 0.7947069407, 0.7934516072, 0.9167613387, 1.1841660738, 1.8354878426, 0.4843324125, 1.8737480640, 0.7601747513, 2.2006568909, 2.2133982182, 1.1159880161, 2.0170743465, 0.6850619912, 1.6022132635, 0.9891180396, 1.4007254839, 1.7253693342, 1.0488582850, 1.7654777765, 1.3732533455, 0.8118097186, 0.7713593245, 1.3108521700, 1.2822623253, 1.1323199272, 0.7255626321, 0.9041602612, 0.9429531693, 1.5699679852, 0.9454092979, 0.6647154093, 1.9267796278, 1.8657740355, 0.5922981501, 0.7306374311, 1.5391551256, 1.6317414045, 1.1258159876, 0.8137142062, 0.7811312079, 2.5148034096, 2.0548381805, 2.2169775963, 1.6722277403, 2.3300602436, 1.2178643942, 1.4520176649, 0.8420270681, 1.0834646225, 1.6982543468, 1.4616111517, 1.2842158079, 1.0151798725, 1.2981554270, 1.5050314665, 1.3523051739, 0.9896876812, 0.3742151260, 0.7309614420, 0.2936910093, 0.3541229665, 0.2424792349, 0.3348594606, 0.4270888865, 0.2715618610, 0.2711328864, 0.3132694662, 0.4046452343, 0.6272104383, 0.1655027866, 0.6402844787, 0.2597617507, 0.7519935966, 0.7563474774, 0.3813478351, 0.6892609596, 0.2340947390, 0.5474974513, 0.3379946947, 0.4786463976, 0.5895815492, 0.3584087193, 0.6032871008, 0.4692588151, 0.2774061263, 0.2635836899, 0.4479355216, 0.4381659925, 0.3869287074, 0.2479343414, 0.3089635372, 0.3222195506, 0.5364788175, 0.3230588734, 0.2271420509, 0.6584060788, 0.6375596523, 0.2023961097, 0.2496684641, 0.5259496570, 0.5575876236, 0.3847061992, 0.2780569196, 0.2669228613, 0.8593416214, 0.7021654248, 0.7575705647, 0.5714223385, 0.7962124348, 0.4161603749, 0.4961736202, 0.2877317965, 0.3702341914, 0.5803159475, 0.4994518459, 0.4388335049, 0.3469003737, 0.4435968995, 0.5142891407, 0.4621005654, 0.3381893635, -0.4061644673, -0.7933686972, -0.3187654316, -0.3843569160, -0.2631813586, -0.3634487391, -0.4635524154, -0.2947469652, -0.2942813933, -0.3400154710, -0.4391925931, -0.6807597280, -0.1796329021, -0.6949500442, -0.2819394171, -0.8161965013, -0.8209220767, -0.4139061570, -0.7481079698, -0.2540810406, -0.5942410827, -0.3668516576, -0.5195117593, -0.6399182081, -0.3890085816, -0.6547939181, -0.5093227029, -0.3010901809, -0.2860876620, -0.4861788750, -0.4755752683, -0.4199634790, -0.2691022158, -0.3353418708, -0.3497296870, -0.5822817683, -0.3506406546, -0.2465347350, -0.7146188021, -0.6919925809, -0.2196760625, -0.2709844112, -0.5708536506, -0.6051927209, -0.4175512493, -0.3017965555, -0.2897118926, -0.9327095151, -0.7621141076, -0.8222495914, -0.6202086210, -0.8641905785, -0.4516908824, -0.5385354161, -0.3122974336, -0.4018436372, -0.6298615336, -0.5420935154, -0.4762997925, -0.3765176535, -0.4814698398, -0.5581975579, -0.5015532970, -0.3670629263, 0.2518559694, 0.4919549823, 0.1976612508, 0.2383334488, 0.1631944627, 0.2253686339, 0.2874412835, 0.1827677935, 0.1824790835, 0.2108380347, 0.2723361552, 0.4221280217, 0.1113874391, 0.4309271872, 0.1748260409, 0.5061101317, 0.5090403557, 0.2566564381, 0.4638895392, 0.1575515121, 0.3684791923, 0.2274787277, 0.3221407831, 0.3968028426, 0.2412178665, 0.4060270190, 0.3158226907, 0.1867011189, 0.1773982793, 0.3014715910, 0.2948964536, 0.2604125142, 0.1668658853, 0.2079400271, 0.2168616652, 0.3610634208, 0.2174265385, 0.1528721750, 0.4431234300, 0.4290933013, 0.1362175345, 0.1680330038, 0.3539770246, 0.3752701581, 0.2589167058, 0.1871391237, 0.1796456277, 0.5783579946, 0.4725745320, 0.5098635554, 0.3845812380, 0.5358704925, 0.2800861299, 0.3339370191, 0.1936505437, 0.2491766959, 0.3905668557, 0.3361433446, 0.2953457236, 0.2334724665, 0.2985515893, 0.3461292088, 0.3110049963, 0.2276097387, 0.2352015078, 0.4594235420, 0.1845905334, 0.2225732058, 0.1524029374, 0.2104657143, 0.2684336901, 0.1706819385, 0.1704123169, 0.1968959868, 0.2543274164, 0.3942140043, 0.1040217355, 0.4024313092, 0.1632653475, 0.4726426601, 0.4753791392, 0.2396845669, 0.4332139790, 0.1471331120, 0.3441128433, 0.2124362737, 0.3008386195, 0.3705635071, 0.2252668887, 0.3791777194, 0.2949383259, 0.1743551642, 0.1656674892, 0.2815362215, 0.2753958702, 0.2431922406, 0.1558315754, 0.1941896081, 0.2025212795, 0.3371874094, 0.2030488104, 0.1427632123, 0.4138210714, 0.4007186890, 0.1272099018, 0.1569215059, 0.3305696249, 0.3504547179, 0.2417953610, 0.1747642010, 0.1677662283, 0.5401129723, 0.4413246810, 0.4761478901, 0.3591500819, 0.5004350543, 0.2615649104, 0.3118548095, 0.1808450371, 0.2326994240, 0.3647398949, 0.3139152527, 0.2758154273, 0.2180336565, 0.2788093090, 0.3232407868, 0.2904392183, 0.2125586271, -0.2436986715, -0.4760212302, -0.1912592649, -0.2306141406, -0.1579088122, -0.2180692405, -0.2781314552, -0.1768481880, -0.1765688360, -0.2040092796, -0.2635155618, -0.4084558487, -0.1077797487, -0.4169700146, -0.1691636592, -0.4897179008, -0.4925532341, -0.2483436912, -0.4488647878, -0.1524486244, -0.3565446436, -0.2201109976, -0.3117070496, -0.3839509189, -0.2334051430, -0.3928763270, -0.3055936098, -0.1806541234, -0.1716525853, -0.2917073369, -0.2853451669, -0.2519780993, -0.1614613235, -0.2012051344, -0.2098378092, -0.3493690491, -0.2103843838, -0.1479208469, -0.4287712574, -0.4151955247, -0.1318056434, -0.1625906378, -0.3425121605, -0.3631156385, -0.2505307496, -0.1810779274, -0.1738271415, -0.5596257448, -0.4572684765, -0.4933497608, -0.3721251786, -0.5185143352, -0.2710145116, -0.3231212497, -0.1873784661, -0.2411061972, -0.3779169321, -0.3252561092, -0.2857798636, -0.2259106040, -0.2888818979, -0.3349185586, -0.3009319603, -0.2202377617, 0.1040902659, 0.2033214718, 0.0816919804, 0.0985015109, 0.0674471036, 0.0931432396, 0.1187974289, 0.0755366236, 0.0754173025, 0.0871378556, 0.1125545874, 0.1744624823, 0.0460356288, 0.1780991256, 0.0722543523, 0.2091716975, 0.2103827447, 0.1060742736, 0.1917222291, 0.0651149079, 0.1522898227, 0.0940153301, 0.1331384778, 0.1639957726, 0.0996936187, 0.1678080559, 0.1305272579, 0.0771622360, 0.0733174384, 0.1245960519, 0.1218785942, 0.1076266244, 0.0689644814, 0.0859401301, 0.0896273777, 0.1492249221, 0.0898608342, 0.0631809756, 0.1831397563, 0.1773411930, 0.0562977344, 0.0694468394, 0.1462961733, 0.1550964713, 0.1070084274, 0.0773432627, 0.0742462501, 0.2390312105, 0.1953116804, 0.2107229531, 0.1589446813, 0.2214714438, 0.1157575995, 0.1380137801, 0.0800343826, 0.1029829457, 0.1614184976, 0.1389256418, 0.1220642701, 0.0964924991, 0.1233892366, 0.1430527270, 0.1285361499, 0.0940694734, 0.3524623811, 0.6884714365, 0.2766190469, 0.3335381746, 0.2283841670, 0.3153944314, 0.4022626281, 0.2557762563, 0.2553722262, 0.2950594425, 0.3811236024, 0.5907513499, 0.1558822840, 0.6030654311, 0.2446620762, 0.7082809806, 0.7123817205, 0.3591804802, 0.6491949558, 0.2204870582, 0.5156719685, 0.3183474243, 0.4508231878, 0.5553097725, 0.3375748098, 0.5682186484, 0.4419812858, 0.2612807751, 0.2482618392, 0.4218975008, 0.4126958549, 0.3644369245, 0.2335221618, 0.2910037935, 0.3034892678, 0.5052938461, 0.3042797744, 0.2139385194, 0.6201336384, 0.6004989743, 0.1906310320, 0.2351554930, 0.4953767359, 0.5251756310, 0.3623436391, 0.2618937492, 0.2514069080, 0.8093889356, 0.6613492370, 0.7135337591, 0.5382061601, 0.7499294281, 0.3919693828, 0.4673315585, 0.2710062265, 0.3487128615, 0.5465827584, 0.4704192281, 0.4133245647, 0.3267354071, 0.4178110659, 0.4843940437, 0.4352391362, 0.3185307682, 0.5016725659, 0.9799265265, 0.3937219977, 0.4747370780, 0.3250675201, 0.4489124119, 0.5725551248, 0.3640556931, 0.3634805977, 0.4199688733, 0.5424671769, 0.8408379555, 0.2218729556, 0.8583650589, 0.3482364714, 1.0081222057, 1.0139589310, 0.5112347007, 0.9240229130, 0.3138272762, 0.7339747548, 0.4531155229, 0.6416731477, 0.7903926969, 0.4804825485, 0.8087663651, 0.6290881038, 0.3718904853, 0.3533601463, 0.6005021334, 0.5874050856, 0.5187163949, 0.3323806226, 0.4141963422, 0.4319673479, 0.7192032337, 0.4330925345, 0.3045065105, 0.8826588392, 0.8547121286, 0.2713321149, 0.3347054124, 0.7050878406, 0.7475016713, 0.5157369375, 0.3727629483, 0.3578366339, 1.1520328522, 0.9413225651, 1.0155986547, 0.7660484314, 1.0674018860, 0.5579043627, 0.6651700735, 0.3857330680, 0.4963357449, 0.7779712677, 0.6695649028, 0.5882999897, 0.4650544524, 0.5946857333, 0.6894557476, 0.6194917560, 0.4533764720, 0.0709513202, 0.1385905594, 0.0556839220, 0.0671418458, 0.0459741503, 0.0634894744, 0.0809762031, 0.0514882281, 0.0514068939, 0.0593960062, 0.0767208785, 0.1189193279, 0.0313793905, 0.1213981733, 0.0492509231, 0.1425782591, 0.1434037536, 0.0723036900, 0.1306841373, 0.0443844497, 0.1038057134, 0.0640839189, 0.0907515362, 0.1117848754, 0.0679544285, 0.1143834516, 0.0889716372, 0.0525963008, 0.0499755628, 0.0849287361, 0.0830764323, 0.0733618215, 0.0470084399, 0.0585795976, 0.0610929467, 0.1017165780, 0.0612520799, 0.0430662148, 0.1248340309, 0.1208815426, 0.0383743756, 0.0473372340, 0.0997202471, 0.1057188138, 0.0729404390, 0.0527196899, 0.0506086685, 0.1629314721, 0.1331308186, 0.1436356455, 0.1083418801, 0.1509621590, 0.0789041594, 0.0940746963, 0.0545540489, 0.0701965392, 0.1100281179, 0.0946962535, 0.0832029954, 0.0657724366, 0.0841061324, 0.0975094140, 0.0876144320, 0.0641208291, 0.3765943348, 0.7356088161, 0.2955582440, 0.3563744426, 0.2440208793, 0.3369884491, 0.4298042357, 0.2732883990, 0.2728567123, 0.3152611852, 0.4072178900, 0.6311981678, 0.1665550321, 0.6443553567, 0.2614133060, 0.7567746639, 0.7611562014, 0.3837724030, 0.6936432123, 0.2355830818, 0.5509783626, 0.3401436210, 0.4816895723, 0.5933300257, 0.3606874347, 0.6071227193, 0.4722422957, 0.2791698277, 0.2652595043, 0.4507834315, 0.4409517944, 0.3893887401, 0.2495106608, 0.3109278679, 0.3242681921, 0.5398896933, 0.3251128197, 0.2285861820, 0.6625921130, 0.6416131854, 0.2036829144, 0.2512558401, 0.5292935371, 0.5611326694, 0.3871521056, 0.2798247635, 0.2686198950, 0.8648051620, 0.7066296935, 0.7623870969, 0.5750553608, 0.8012745976, 0.4188062549, 0.4993282259, 0.2895611525, 0.3725880980, 0.5840055346, 0.5026273131, 0.4416235685, 0.3491059244, 0.4464172125, 0.5175589323, 0.4650385380, 0.3403395414, -0.9108960629, -1.7792704105, -0.7148882151, -0.8619887233, -0.5902310014, -0.8150984049, -1.0395987034, -0.6610224843, -0.6599783301, -0.7625451088, -0.9849674702, -1.5267248154, -0.4028587341, -1.5585490465, -0.6322993040, -1.8304657936, -1.8410637379, -0.9282581210, -1.6777651310, -0.5698218942, -1.3326913118, -0.8227300644, -1.1650974751, -1.4351303577, -0.8724209070, -1.4684917927, -1.1422467232, -0.6752483249, -0.6416023970, -1.0903426409, -1.0665620565, -0.9418427944, -0.6035095453, -0.7520638108, -0.7843309641, -1.3058704138, -0.7863739729, -0.5528979897, -1.6026597023, -1.5519163609, -0.4926626384, -0.6077306867, -1.2802407742, -1.3572523594, -0.9364328980, -0.6768324375, -0.6497304440, -2.0917670727, -1.7091764212, -1.8440408707, -1.3909281492, -1.9381010532, -1.0129971504, -1.2077614069, -0.7003825307, -0.9012058377, -1.4125765562, -1.2157411575, -1.0681869984, -0.8444077969, -1.0797816515, -1.2518573999, -1.1248223782, -0.8232039213, -0.0490711257, -0.0958515555, -0.0385119319, -0.0464364253, -0.0317964926, -0.0439103842, -0.0560045019, -0.0356101207, -0.0355538726, -0.0410792753, -0.0530614480, -0.0822466016, -0.0217025112, -0.0839610100, -0.0340627655, -0.0986095145, -0.0991804376, -0.0500064418, -0.0903833359, -0.0306970291, -0.0717937723, -0.0443215147, -0.0627652854, -0.0773122907, -0.0469984189, -0.0791095123, -0.0615342781, -0.0363764837, -0.0345639363, -0.0587381385, -0.0574570522, -0.0507382639, -0.0325118266, -0.0405146293, -0.0422529057, -0.0703488961, -0.0423629656, -0.0297853164, -0.0863373131, -0.0836037025, -0.0265403613, -0.0327392220, -0.0689681917, -0.0731169060, -0.0504468270, -0.0364618227, -0.0350018032, -0.1126861423, -0.0920755044, -0.0993408263, -0.0749310628, -0.1044079661, -0.0545714386, -0.0650636405, -0.0377304964, -0.0485491008, -0.0760972872, -0.0654935166, -0.0575445853, -0.0454893187, -0.0581692085, -0.0674391463, -0.0605956130, -0.0443470404, 0.5825656056, 1.1379363537, 0.4572083354, 0.5512868166, 0.3774835765, 0.5212979913, 0.6648777127, 0.4227584302, 0.4220906198, 0.4876874387, 0.6299381852, 0.9764202833, 0.2576492131, 0.9967735410, 0.4043884277, 1.1706784964, 1.1774563789, 0.5936695933, 1.0730184317, 0.3644308746, 0.8523257375, 0.5261788368, 0.7451407313, 0.9178408384, 0.5579587221, 0.9391772151, 0.7305264473, 0.4318565726, 0.4103382528, 0.6973310709, 0.6821221709, 0.6023576856, 0.3859758973, 0.4809840918, 0.5016206503, 0.8351722956, 0.5029272437, 0.3536071479, 1.0249845982, 0.9925315976, 0.3150834739, 0.3886755407, 0.8187808394, 0.8680337667, 0.5988977551, 0.4328697026, 0.4155365825, 1.3377943039, 1.0931075811, 1.1793605089, 0.8895711899, 1.2395168543, 0.6478645802, 0.7724265456, 0.4479312301, 0.5763682127, 0.9034164548, 0.7775299549, 0.6831613779, 0.5400429368, 0.6905767918, 0.8006281853, 0.7193827033, 0.5264819264, 0.3349582255, 0.6542801857, 0.2628814578, 0.3169738352, 0.2170420438, 0.2997311652, 0.3822852671, 0.2430737615, 0.2426898032, 0.2804060578, 0.3621960580, 0.5614131689, 0.1481407732, 0.5731157064, 0.2325115502, 0.6731059551, 0.6770030856, 0.3413426876, 0.6169543266, 0.2095371187, 0.4900624156, 0.3025375009, 0.4284341931, 0.5277317166, 0.3208099902, 0.5399994850, 0.4200313985, 0.2483049184, 0.2359325290, 0.4009450078, 0.3922003508, 0.3463380933, 0.2219248712, 0.2765518129, 0.2884172201, 0.4801997244, 0.2891685069, 0.2033137977, 0.5893362164, 0.5706766844, 0.1811638176, 0.2234770954, 0.4707750976, 0.4990940988, 0.3443487287, 0.2488874495, 0.2389214039, 0.7691926956, 0.6285049915, 0.6780979037, 0.5114774704, 0.7126860619, 0.3725032210, 0.4441227019, 0.2575473785, 0.3313949108, 0.5194380879, 0.4470570385, 0.3927978575, 0.3105089068, 0.3970615268, 0.4603378475, 0.4136240780, 0.3027117252, 0.5652313828, 1.1040771008, 0.4436041415, 0.5348833203, 0.3662515581, 0.5057868361, 0.6450942755, 0.4101792574, 0.4095313251, 0.4731763303, 0.6111943722, 0.9473668933, 0.2499828637, 0.9671145678, 0.3923558593, 1.1358449459, 1.1424212456, 0.5760049820, 1.0410908461, 0.3535872400, 0.8269647956, 0.5105224252, 0.7229691148, 0.8905305266, 0.5413566828, 0.9112319946, 0.7087896466, 0.4190066755, 0.3981286585, 0.6765819788, 0.6618256569, 0.5844345093, 0.3744911849, 0.4666724205, 0.4866949320, 0.8103218079, 0.4879626632, 0.3430855870, 0.9944862127, 0.9629988670, 0.3057081997, 0.3771105111, 0.7944180369, 0.8422054648, 0.5810775757, 0.4199896753, 0.4031723142, 1.2979882956, 1.0605822802, 1.1442686319, 0.8631020188, 1.2026350498, 0.6285873652, 0.7494429946, 0.4346030354, 0.5592184067, 0.8765353560, 0.7543945909, 0.6628339291, 0.5239739418, 0.6700287461, 0.7768055201, 0.6979774833, 0.5108164549, 0.7402729988, 1.4459891319, 0.5809800029, 0.7005266547, 0.4796728194, 0.6624195576, 0.8448678851, 0.5372040868, 0.5363555551, 0.6197102070, 0.8004698157, 1.2407487631, 0.3273978829, 1.2666118145, 0.5138611197, 1.4875949621, 1.4962077141, 0.7543829083, 1.3634972572, 0.4630866051, 1.0830603838, 0.6686216593, 0.9468591213, 1.1663111448, 0.7090047598, 1.1934235096, 0.9282885194, 0.5487652421, 0.5214216709, 0.8861067891, 0.8667806983, 0.7654229999, 0.4904641211, 0.6111921668, 0.6374152303, 1.0612633228, 0.6390755773, 0.4493327737, 1.3024599552, 1.2612215281, 0.4003803134, 0.4938945770, 1.0404344797, 1.1030207872, 0.7610264421, 0.5500526428, 0.5280272365, 1.6999509335, 1.3890247345, 1.4986273050, 1.1303886175, 1.5750687122, 0.8232491016, 0.9815315008, 0.5691914558, 0.7323979139, 1.1479820013, 0.9880164862, 0.8681011796, 0.6862388849, 0.8775240779, 1.0173676014, 0.9141280651, 0.6690067649, 0.2404697537, 0.4697141051, 0.1887251437, 0.2275585830, 0.1558165848, 0.2151798904, 0.2744463086, 0.1745050102, 0.1742293537, 0.2013062239, 0.2600240707, 0.4030439556, 0.1063517034, 0.4114453197, 0.1669223011, 0.4832293093, 0.4860270917, 0.2450532168, 0.4429174662, 0.1504287273, 0.3518205583, 0.2171946019, 0.3075770438, 0.3788636923, 0.2303126007, 0.3876708746, 0.3015446067, 0.1782605052, 0.1693782508, 0.2878423035, 0.2815644443, 0.2486394644, 0.1593220234, 0.1985392272, 0.2070575207, 0.3447400331, 0.2075968683, 0.1459609419, 0.4230901897, 0.4096943438, 0.1300592571, 0.1604363769, 0.3379740119, 0.3583045006, 0.2472112924, 0.1786787212, 0.1715239882, 0.5522108674, 0.4512098432, 0.4868130386, 0.3671946228, 0.5116442442, 0.2674236596, 0.3188399971, 0.1848957688, 0.2379116118, 0.3729096651, 0.3209465742, 0.2819933891, 0.2229173630, 0.2850543261, 0.3304809928, 0.2969447374, 0.2173196971, 0.2890735269, 0.5646528006, 0.2268702984, 0.2735527456, 0.1873102486, 0.2586720884, 0.3299174309, 0.2097759843, 0.2094446272, 0.2419942617, 0.3125801682, 0.4845072627, 0.1278475225, 0.4946067035, 0.2006606609, 0.5808997154, 0.5842629671, 0.2945834100, 0.5324400067, 0.1808334142, 0.4229305685, 0.2610940039, 0.3697445691, 0.4554396868, 0.2768634260, 0.4660269618, 0.3624928296, 0.2142905593, 0.2036130130, 0.3460210264, 0.3384742737, 0.2988945246, 0.1915242076, 0.2386680096, 0.2489080280, 0.4144189358, 0.2495563775, 0.1754625887, 0.5086052418, 0.4925018251, 0.1563468575, 0.1928637922, 0.4062853456, 0.4307250381, 0.2971776724, 0.2147932798, 0.2061924487, 0.6638238430, 0.5424084067, 0.5852077603, 0.4414120615, 0.6150578260, 0.3214753866, 0.3832839727, 0.2222669274, 0.2859983444, 0.4482822120, 0.3858163357, 0.3389899135, 0.2679734528, 0.3426695168, 0.3972778618, 0.3569632471, 0.2612443864, 0.8422389627, 1.6451611519, 0.6610048413, 0.7970179319, 0.5457434654, 0.7536618710, 0.9612408876, 0.6111992002, 0.6102337241, 0.7050697207, 0.9107273817, 1.4116507769, 0.3724940121, 1.4410762787, 0.5846409202, 1.6924978495, 1.7022969723, 0.8582924008, 1.5513067245, 0.5268726349, 1.2322422266, 0.7607183456, 1.0772805214, 1.3269600868, 0.8066638112, 1.3578069210, 1.0561519861, 0.6243526936, 0.5932428241, 1.0081599951, 0.9861719608, 0.8708531260, 0.5580211282, 0.6953784227, 0.7252134681, 1.2074428797, 0.7271025181, 0.5112243295, 1.4818621874, 1.4349435568, 0.4555290937, 0.5619241595, 1.1837450266, 1.2549519539, 0.8658510447, 0.6258174777, 0.6007582545, 1.9341039658, 1.5803505182, 1.7050497532, 1.2860895395, 1.7920203209, 0.9366443157, 1.1167286634, 0.6475924850, 0.8332791328, 1.3061062098, 1.1241068840, 0.9876743555, 0.7807621360, 0.9983951449, 1.1575009823, 1.0400410891, 0.7611564398, 0.0327565707, 0.0639840215, 0.0257079657, 0.0309978221, 0.0212251917, 0.0293116085, 0.0373848230, 0.0237709116, 0.0237333626, 0.0274217483, 0.0354202390, 0.0549022779, 0.0144871306, 0.0560467020, 0.0227380022, 0.0658250526, 0.0662061647, 0.0333809257, 0.0603338107, 0.0204912629, 0.0479246750, 0.0295860488, 0.0418978631, 0.0516084656, 0.0313729718, 0.0528081693, 0.0410761274, 0.0242824834, 0.0230725501, 0.0392096154, 0.0383544490, 0.0338694379, 0.0217026994, 0.0270448308, 0.0282051861, 0.0469601713, 0.0282786544, 0.0198826659, 0.0576329567, 0.0558081865, 0.0177165531, 0.0218544956, 0.0460385084, 0.0488079078, 0.0336748958, 0.0243394505, 0.0233648401, 0.0752216578, 0.0614633895, 0.0663132221, 0.0500189178, 0.0696957037, 0.0364282057, 0.0434320904, 0.0251863319, 0.0324081033, 0.0507974103, 0.0437190495, 0.0384128802, 0.0303655975, 0.0388298370, 0.0450178161, 0.0404495373, 0.0296030883, -0.5244449973, -1.0244083405, -0.4115942121, -0.4962867796, -0.3398233056, -0.4692898691, -0.5985450745, -0.3805812299, -0.3799800575, -0.4390325248, -0.5670913458, -0.8790060878, -0.2319444120, -0.8973287940, -0.3640439510, -1.0538837910, -1.0599855185, -0.5344411731, -0.9659669995, -0.3280728459, -0.7672920227, -0.4736837745, -0.6708005667, -0.8262709379, -0.5022930503, -0.8454786539, -0.6576442719, -0.3887716830, -0.3694002032, -0.6277606487, -0.6140691638, -0.5422624946, -0.3474683762, -0.4329979420, -0.4515756369, -0.7518500090, -0.4527519047, -0.3183289468, -0.9227253199, -0.8935100436, -0.2836486697, -0.3498986959, -0.7370938659, -0.7814329863, -0.5391477346, -0.3896837533, -0.3740798831, -1.2043271065, -0.9840519428, -1.0616996288, -0.8008216619, -1.1158545017, -0.5832293034, -0.6953641176, -0.4032426476, -0.5188658834, -0.8132856488, -0.6999583840, -0.6150046587, -0.4861646593, -0.6216802597, -0.7207521796, -0.6476123333, -0.4739565849, -0.5577538610, -1.0894711018, -0.4377356470, -0.5278072357, -0.3614063859, -0.4990957081, -0.6365602612, -0.4047529697, -0.4041136205, -0.4669166207, -0.6031088233, -0.9348341227, -0.2466758192, -0.9543204904, -0.3871653676, -1.1208188534, -1.1273080111, -0.5683849454, -1.0273181200, -0.3489096165, -0.8160247803, -0.5037686825, -0.7134048939, -0.8787496090, -0.5341950059, -0.8991772532, -0.6994130015, -0.4134635925, -0.3928617835, -0.6676313877, -0.6530702710, -0.5767030120, -0.3695369959, -0.4604987800, -0.4802564085, -0.7996019721, -0.4815073609, -0.3385468721, -0.9813300371, -0.9502592087, -0.3016639352, -0.3721216619, -0.7839086056, -0.8310638666, -0.5733904243, -0.4144335985, -0.3978386819, -1.2808170319, -1.0465517044, -1.1291310787, -0.8516839743, -1.1867252588, -0.6202717423, -0.7395285368, -0.4288536310, -0.5518204570, -0.8649395704, -0.7444146276, -0.6540651917, -0.5170422792, -0.6611648202, -0.7665290833, -0.6887438893, -0.5040588379, -0.0539569929, -0.1053952128, -0.0423464552, -0.0510599650, -0.0349623784, -0.0482824147, -0.0615807064, -0.0391557179, -0.0390938669, -0.0451694168, -0.0583446212, -0.0904356539, -0.0238633677, -0.0923207700, -0.0374542959, -0.1084277779, -0.1090555489, -0.0549854413, -0.0993825421, -0.0337534435, -0.0789420679, -0.0487344787, -0.0690146387, -0.0850100517, -0.0516779162, -0.0869862214, -0.0676610693, -0.0399983823, -0.0380053669, -0.0645865276, -0.0631778836, -0.0557901263, -0.0357489325, -0.0445485562, -0.0464599058, -0.0773533285, -0.0465809219, -0.0327509530, -0.0949336663, -0.0919278786, -0.0291829072, -0.0359989740, -0.0758351535, -0.0803969428, -0.0554696731, -0.0400922187, -0.0384868309, -0.1239059716, -0.1012431979, -0.1092319041, -0.0823917314, -0.1148035601, -0.0600049570, -0.0715418383, -0.0414872132, -0.0533829965, -0.0836740732, -0.0720145181, -0.0632741302, -0.0500185601, -0.0639609471, -0.0741538629, -0.0666289404, -0.0487625450, -0.6954079270, -1.3583533764, -0.5457690954, -0.6580705047, -0.4506017268, -0.6222729087, -0.7936637998, -0.5046463013, -0.5038491488, -0.5821520090, -0.7519565225, -1.1655517817, -0.3075555861, -1.1898474693, -0.4827180505, -1.3974376917, -1.4055285454, -0.7086627483, -1.2808610201, -0.4350207448, -1.0174202919, -0.6280991435, -0.8894737363, -1.0956256390, -0.6660347581, -1.1210948229, -0.8720286489, -0.5155067444, -0.4898203611, -0.8324033618, -0.8142485023, -0.7190337181, -0.4607390165, -0.5741502047, -0.5987840295, -0.9969443083, -0.6003437042, -0.4221004844, -1.2235230207, -1.1847839355, -0.3761148155, -0.4639615715, -0.9773778319, -1.0361709595, -0.7149036527, -0.5167161226, -0.4960255623, -1.5969235897, -1.3048413992, -1.4078013897, -1.0618802309, -1.4796099663, -0.7733552456, -0.9220446944, -0.5346950293, -0.6880101562, -1.0784072876, -0.9281367064, -0.8154889941, -0.6446486712, -0.8243408203, -0.9557089806, -0.8587263823, -0.6284608841, 0.3028389513, 0.5915409923, 0.2376736552, 0.2865790725, 0.1962297857, 0.2709898055, 0.3456277847, 0.2197653204, 0.2194181681, 0.2535178065, 0.3274649382, 0.5075790286, 0.1339354962, 0.5181593895, 0.2102159262, 0.6085615754, 0.6120849848, 0.3086111844, 0.5577943325, 0.1894445270, 0.4430701435, 0.2735270560, 0.3873514533, 0.4771272838, 0.2900474072, 0.4882187247, 0.3797543943, 0.2244948596, 0.2133088708, 0.3624982238, 0.3545920849, 0.3131275773, 0.2006444037, 0.2500331402, 0.2607607841, 0.4341531694, 0.2614400089, 0.1838179529, 0.5328245759, 0.5159542561, 0.1637919396, 0.2020477802, 0.4256322682, 0.4512357712, 0.3113290071, 0.2250215262, 0.2160111368, 0.6954344511, 0.5682374239, 0.6130747795, 0.4624316990, 0.6443462968, 0.3367837369, 0.4015356004, 0.2328510582, 0.2996173203, 0.4696289897, 0.4041885436, 0.3551323116, 0.2807340920, 0.3589871228, 0.4161958694, 0.3739614785, 0.2736845911, -0.3019892275, -0.5898812413, -0.2370067686, -0.2857749760, -0.1956792027, -0.2702294588, -0.3446580172, -0.2191486955, -0.2188025266, -0.2528064847, -0.3265461326, -0.5061548352, -0.1335597038, -0.5167055130, -0.2096260935, -0.6068540812, -0.6103675961, -0.3077452779, -0.5562292337, -0.1889129728, -0.4418269396, -0.2727595866, -0.3862646222, -0.4757885337, -0.2892335653, -0.4868488610, -0.3786888719, -0.2238649726, -0.2127103508, -0.3614811301, -0.3535971642, -0.3122490048, -0.2000814378, -0.2493315935, -0.2600291371, -0.4329349995, -0.2607064545, -0.1833021939, -0.5313295126, -0.5145065784, -0.1633323729, -0.2014808655, -0.4244380295, -0.4499696791, -0.3104554713, -0.2243901640, -0.2154050469, -0.6934831738, -0.5666429996, -0.6113545895, -0.4611341953, -0.6425383687, -0.3358387649, -0.4004089534, -0.2321977168, -0.2987766266, -0.4683112800, -0.4030544758, -0.3541358709, -0.2799463868, -0.3579798639, -0.4150280654, -0.3729121983, -0.2729166746, 0.3589202166, 0.7010856271, 0.2816872895, 0.3396492898, 0.2325686365, 0.3211731017, 0.4096329212, 0.2604626119, 0.2600511611, 0.3004655540, 0.3881065845, 0.6015751362, 0.1587383747, 0.6141148210, 0.2491447926, 0.7212581635, 0.7254340649, 0.3657614291, 0.6610895395, 0.2245268375, 0.5251201391, 0.3241802156, 0.4590831995, 0.5654841661, 0.3437598646, 0.5786296129, 0.4500792921, 0.2660679817, 0.2528105080, 0.4296275377, 0.4202573001, 0.3711141646, 0.2378007770, 0.2963355780, 0.3090498149, 0.5145518780, 0.3098548353, 0.2178583145, 0.6314957738, 0.6115013957, 0.1941237748, 0.2394640446, 0.5044530630, 0.5347979665, 0.3689825237, 0.2666921914, 0.2560131848, 0.8242186308, 0.6734665632, 0.7266071439, 0.5480672121, 0.7636696696, 0.3991510868, 0.4758940637, 0.2759716213, 0.3551020026, 0.5565972924, 0.4790382981, 0.4208975434, 0.3327218890, 0.4254662097, 0.4932691753, 0.4432136118, 0.3243669271, 0.6240317822, 1.2189329863, 0.4897517562, 0.5905265808, 0.4043522775, 0.5584032536, 0.7122027278, 0.4528497458, 0.4521344304, 0.5224003196, 0.6747762561, 1.0459203720, 0.2759883106, 1.0677224398, 0.4331721961, 1.2540056705, 1.2612659931, 0.6359261274, 1.1493943930, 0.3903705180, 0.9129930139, 0.5636314750, 0.7981787324, 0.9831714034, 0.5976734161, 1.0060263872, 0.7825242281, 0.4625954926, 0.4395455420, 0.7469660640, 0.7306746244, 0.6452326179, 0.4134490788, 0.5152198076, 0.5373252630, 0.8946186304, 0.5387248397, 0.3787764013, 1.0979415178, 1.0631785393, 0.3375106752, 0.4163408875, 0.8770604730, 0.9298191667, 0.6415264010, 0.4636807442, 0.4451138675, 1.4330165386, 1.1709134579, 1.2633056641, 0.9528895617, 1.3277438879, 0.6939786077, 0.8274067044, 0.4798143208, 0.6173932552, 0.9677203298, 0.8328734040, 0.7317878008, 0.5784823895, 0.7397310734, 0.8576157093, 0.7705873251, 0.5639561415, 0.6236918569, 1.2182691097, 0.4894849956, 0.5902049541, 0.4041320682, 0.5580990911, 0.7118147612, 0.4526031017, 0.4518881738, 0.5221157670, 0.6744086742, 1.0453507900, 0.2758379877, 1.0671408176, 0.4329362810, 1.2533226013, 1.2605791092, 0.6355797052, 1.1487683058, 0.3901579082, 0.9124957323, 0.5633245111, 0.7977440357, 0.9826358557, 0.5973479152, 1.0054785013, 0.7820979953, 0.4623435140, 0.4393061399, 0.7465592027, 0.7302766442, 0.6448811889, 0.4132238925, 0.5149391890, 0.5370326042, 0.8941313624, 0.5384314656, 0.3785700798, 1.0973434448, 1.0625994205, 0.3373268247, 0.4161141217, 0.8765827417, 0.9293127060, 0.6411769986, 0.4634281993, 0.4448714256, 1.4322359562, 1.1702756882, 1.2626175880, 0.9523705244, 1.3270206451, 0.6936005950, 0.8269560337, 0.4795529842, 0.6170569658, 0.9671932459, 0.8324197531, 0.7313892245, 0.5781673193, 0.7393281460, 0.8571485877, 0.7701675892, 0.5636489391, -0.3786336482, -0.7395922542, -0.2971587479, -0.3583042622, -0.2453422993, -0.3388133049, -0.4321317077, -0.2747683227, -0.2743342817, -0.3169683814, -0.4094230533, -0.6346161962, -0.1674569547, -0.6478446126, -0.2628288865, -0.7608727217, -0.7652779818, -0.3858505785, -0.6973993778, -0.2368588001, -0.5539619923, -0.3419855535, -0.4842979908, -0.5965429544, -0.3626406193, -0.6104103923, -0.4747995436, -0.2806815803, -0.2666959465, -0.4532244802, -0.4433396161, -0.3914973438, -0.2508617938, -0.3126116097, -0.3260241449, -0.5428133011, -0.3268733621, -0.2298240215, -0.6661801934, -0.6450875998, -0.2047858834, -0.2526164055, -0.5321598053, -0.5641713142, -0.3892486095, -0.2813400626, -0.2700745165, -0.8694882393, -0.7104561925, -0.7665154934, -0.5781693459, -0.8056136370, -0.4210741520, -0.5020321608, -0.2911291718, -0.3746057153, -0.5871679783, -0.5053490996, -0.4440150261, -0.3509963751, -0.4488346279, -0.5203616023, -0.4675567746, -0.3421825171, -0.6417058706, -1.2534561157, -0.5036227107, -0.6072517633, -0.4158045352, -0.5742185712, -0.7323740125, -0.4656755626, -0.4649399817, -0.5371959805, -0.6938875318, -1.0755434036, -0.2838049531, -1.0979628563, -0.4454407096, -1.2895221710, -1.2969881296, -0.6539371014, -1.1819479465, -0.4014267623, -0.9388511777, -0.5795949101, -0.8207851052, -1.0110172033, -0.6146010160, -1.0345195532, -0.8046872020, -0.4756973088, -0.4519945383, -0.7681219578, -0.7513691187, -0.6635071635, -0.4251589775, -0.5298120975, -0.5525436401, -0.9199564457, -0.5539828539, -0.3895042539, -1.1290378571, -1.0932903290, -0.3470697999, -0.4281326830, -0.9019009471, -0.9561538696, -0.6596960425, -0.4768133163, -0.4577205777, -1.4736030102, -1.2040765285, -1.2990854979, -0.9798777103, -1.3653488159, -0.7136337757, -0.8508408666, -0.4934038222, -0.6348793507, -0.9951285124, -0.8564624190, -0.7525137663, -0.5948663950, -0.7606820464, -0.8819054961, -0.7924122214, -0.5799287558, 1.2589398623, 2.4591109753, 0.9880394936, 1.1913455725, 0.8157520890, 1.1265389919, 1.4368184805, 0.9135922790, 0.9121491909, 1.0539056063, 1.3613132238, 2.1100704670, 0.5567868352, 2.1540544033, 0.8738942742, 2.5298676491, 2.5445148945, 1.2829358578, 2.3188216686, 0.7875449061, 1.8418987989, 1.1370866299, 1.6102690697, 1.9834786654, 1.2057638168, 2.0295870304, 1.5786871910, 0.9332536459, 0.8867520094, 1.5069510937, 1.4740843773, 1.3017110825, 0.8341042399, 1.0394195318, 1.0840156078, 1.8048298359, 1.0868393183, 0.7641545534, 2.2150192261, 2.1448874474, 0.6809038520, 0.8399382234, 1.7694073915, 1.8758442402, 1.2942341566, 0.9354430437, 0.8979856968, 2.8910093307, 2.3622348309, 2.5486297607, 1.9223872423, 2.6786291599, 1.4000526667, 1.6692343950, 0.9679914117, 1.2455471754, 1.9523072243, 1.6802630424, 1.4763300419, 1.1670472622, 1.4923549891, 1.7301789522, 1.5546053648, 1.1377415657, 0.4683637023, 0.9148636460, 0.3675805628, 0.4432165921, 0.3034844398, 0.4191065729, 0.5345399380, 0.3398839533, 0.3393470645, 0.3920847774, 0.5064496994, 0.7850099802, 0.2071415484, 0.8013733625, 0.3251150846, 0.9411872625, 0.9466364980, 0.4772909284, 0.8626717925, 0.2929905057, 0.6852419972, 0.4230306149, 0.5990688205, 0.7379140258, 0.4485805929, 0.7550677657, 0.5873193741, 0.3471985757, 0.3298985660, 0.5606313944, 0.5484039187, 0.4842758775, 0.3103120029, 0.3866955042, 0.4032866061, 0.6714512706, 0.4043370783, 0.2842885852, 0.8240541220, 0.7979629636, 0.2533168197, 0.3124824166, 0.6582730412, 0.6978707910, 0.4814942181, 0.3480131030, 0.3340778351, 1.0755429268, 0.8788228035, 0.9481673241, 0.7151861787, 0.9965310693, 0.5208619237, 0.6210056543, 0.3601220548, 0.4633812010, 0.7263173461, 0.6251086593, 0.5492393970, 0.4341768622, 0.5552011728, 0.6436789036, 0.5783601999, 0.4232742488, -0.1447067112, -0.2826583385, -0.1135685220, -0.1369372010, -0.0937652439, -0.1294881105, -0.1651526690, -0.1050113216, -0.1048454419, -0.1211393997, -0.1564738452, -0.2425384670, -0.0639989227, -0.2475941181, -0.1004482955, -0.2907913327, -0.2924749553, -0.1474648863, -0.2665330172, -0.0905230120, -0.2117139250, -0.1307004988, -0.1850896478, -0.2279875875, -0.1385944784, -0.2332874537, -0.1814595312, -0.1072712541, -0.1019262075, -0.1732139438, -0.1694361269, -0.1496229768, -0.0958746970, -0.1194743142, -0.1246003434, -0.2074531019, -0.1249248981, -0.0878344476, -0.2546016276, -0.2465404421, -0.0782653391, -0.0965452790, -0.2033815235, -0.2156157345, -0.1487635523, -0.1075229123, -0.1032174453, -0.3323021531, -0.2715230882, -0.2929479182, -0.2209655344, -0.3078905046, -0.1609266847, -0.1918673217, -0.1112641320, -0.1431673020, -0.2244046479, -0.1931349933, -0.1696942449, -0.1341442615, -0.1715362221, -0.1988724917, -0.1786914766, -0.1307757646, -0.4408328831, -0.8610872030, -0.3459738791, -0.4171639383, -0.2856453955, -0.3944711387, -0.5031192303, -0.3199053109, -0.3193999827, -0.3690376878, -0.4766801596, -0.7388664484, -0.1949655861, -0.7542679310, -0.3060045540, -0.8858634830, -0.8909924030, -0.4492353797, -0.8119632006, -0.2757682800, -0.6449629068, -0.3981645107, -0.5638550520, -0.6945388317, -0.4222126603, -0.7106842399, -0.5527962446, -0.3267899454, -0.3105068505, -0.5276769996, -0.5161682963, -0.4558097422, -0.2920716107, -0.3639652133, -0.3795810640, -0.6319828033, -0.3805697858, -0.2675778866, -0.7756155133, -0.7510580420, -0.2384266555, -0.2941144407, -0.6195791960, -0.6568493843, -0.4531916082, -0.3275566101, -0.3144404590, -1.0123215914, -0.8271648884, -0.8924332261, -0.6731469035, -0.9379541278, -0.4902452230, -0.5845024586, -0.3389537930, -0.4361432791, -0.6836237907, -0.5883642435, -0.5169546604, -0.4086555839, -0.5225660205, -0.6058428884, -0.5443636775, -0.3983938396, -0.1687536836, -0.3296297491, -0.1324410439, -0.1596930623, -0.1093469039, -0.1510061026, -0.1925972998, -0.1224618182, -0.1222683787, -0.1412700266, -0.1824762523, -0.2828428447, -0.0746340901, -0.2887386382, -0.1171405241, -0.3391142786, -0.3410776556, -0.1719702184, -0.3108247817, -0.1055658832, -0.2468959838, -0.1524199545, -0.2158473581, -0.2658739686, -0.1616257429, -0.2720545232, -0.2116139829, -0.1250973046, -0.1188640296, -0.2019981742, -0.1975925714, -0.1744869202, -0.1118068993, -0.1393282413, -0.1453060955, -0.2419271022, -0.1456845850, -0.1024305448, -0.2969106436, -0.2875098884, -0.0912712663, -0.1125889122, -0.2371789366, -0.2514461875, -0.1734846830, -0.1253907830, -0.1203698441, -0.3875232637, -0.3166440725, -0.3416292369, -0.2576850057, -0.3590549231, -0.1876690537, -0.2237513214, -0.1297537088, -0.1669584662, -0.2616956234, -0.2252296507, -0.1978935897, -0.1564359963, -0.2000416517, -0.2319205850, -0.2083859444, -0.1525077373, 0.0874358267, 0.1707900465, 0.0686212629, 0.0827412680, 0.0566555709, 0.0782403201, 0.0997898355, 0.0634507611, 0.0633505359, 0.0731958002, 0.0945458487, 0.1465484947, 0.0386699289, 0.1496032625, 0.0606936552, 0.1757042259, 0.1767215133, 0.0891023874, 0.1610466689, 0.0546965227, 0.1279234439, 0.0789728761, 0.1118363217, 0.1377564520, 0.0837426409, 0.1409587711, 0.1096428931, 0.0648162812, 0.0615866520, 0.1046606824, 0.1023780182, 0.0904063657, 0.0579301603, 0.0721897036, 0.0752869919, 0.1253489405, 0.0754830986, 0.0530720204, 0.1538373828, 0.1489665955, 0.0472900979, 0.0583353452, 0.1228887811, 0.1302810311, 0.0898870751, 0.0649683401, 0.0623668507, 0.2007862180, 0.1640618145, 0.1770072877, 0.1335135251, 0.1860360056, 0.0972363800, 0.1159315780, 0.0672288835, 0.0865056738, 0.1355915368, 0.1166975349, 0.1025339887, 0.0810536966, 0.1036469564, 0.1201642901, 0.1079703644, 0.0790183619, 0.5322623849, 1.0396780968, 0.4177294374, 0.5036844611, 0.3448887169, 0.4762851298, 0.6074669957, 0.3862541914, 0.3856440783, 0.4455767572, 0.5755444169, 0.8921086192, 0.2354017794, 0.9107043743, 0.3694704175, 1.0695930719, 1.0757857561, 0.5424075723, 0.9803657532, 0.3329631090, 0.7787293196, 0.4807445109, 0.6807995439, 0.8385873437, 0.5097802877, 0.8580814004, 0.6674471498, 0.3945667446, 0.3749064803, 0.6371181011, 0.6232224703, 0.5503454208, 0.3526477516, 0.4394522011, 0.4583068490, 0.7630571127, 0.4595006108, 0.3230739832, 0.9364795089, 0.9068287611, 0.2878767550, 0.3551142812, 0.7480809689, 0.7930810452, 0.5471842885, 0.3954924047, 0.3796559274, 1.2222788334, 0.9987202883, 1.0775253773, 0.8127587438, 1.1324874163, 0.5919229388, 0.7057292461, 0.4092533886, 0.5266001225, 0.8254085183, 0.7103919983, 0.6241719127, 0.4934114218, 0.6309470534, 0.7314957380, 0.6572656631, 0.4810214043, 0.0808930099, 0.1580098271, 0.0634863377, 0.0765497461, 0.0524160378, 0.0723856017, 0.0923225731, 0.0587027445, 0.0586100183, 0.0677185580, 0.0874709934, 0.1355822831, 0.0357762612, 0.1384084523, 0.0561519526, 0.1625562906, 0.1634974480, 0.0824348629, 0.1489955634, 0.0506035872, 0.1183509454, 0.0730633438, 0.1034676135, 0.1274481416, 0.0774761811, 0.1304108351, 0.1014383286, 0.0599660799, 0.0569781251, 0.0968289301, 0.0947170779, 0.0836412609, 0.0535952523, 0.0667877570, 0.0696532726, 0.1159690842, 0.0698347017, 0.0491006449, 0.1423257440, 0.1378194392, 0.0437513813, 0.0539701134, 0.1136930212, 0.1205321103, 0.0831608325, 0.0601067618, 0.0576999448, 0.1857613921, 0.1517850757, 0.1637618393, 0.1235227212, 0.1721149385, 0.0899601877, 0.1072564274, 0.0621981509, 0.0800324604, 0.1254452318, 0.1079650670, 0.0948613808, 0.0749884546, 0.0958910584, 0.1111724079, 0.0998909473, 0.0731054246, -0.6352480054, -1.2408418655, -0.4985544980, -0.6011406183, -0.4116200507, -0.5684399009, -0.7250037193, -0.4609892070, -0.4602610171, -0.5317898393, -0.6869045496, -1.0647196770, -0.2809488773, -1.0869134665, -0.4409579933, -1.2765450478, -1.2839359045, -0.6473561525, -1.1700533628, -0.3973869979, -0.9294030070, -0.5737621188, -0.8125250936, -1.0008428097, -0.6084159017, -1.0241086483, -0.7965891957, -0.4709101021, -0.4474458694, -0.7603918910, -0.7438076735, -0.6568298936, -0.4208803475, -0.5244803429, -0.5469830632, -0.9106984138, -0.5484078526, -0.3855844736, -1.1176757812, -1.0822879076, -0.3435770273, -0.4238241315, -0.8928245902, -0.9465315938, -0.6530570984, -0.4720148742, -0.4531142712, -1.4587733746, -1.1919592619, -1.2860121727, -0.9700166583, -1.3516085148, -0.7064520717, -0.8422783613, -0.4884384274, -0.6284902096, -0.9851139784, -0.8478433490, -0.7449408174, -0.5888799429, -0.7530268431, -0.8730303645, -0.7844377160, -0.5740925670, 0.4860378206, 0.9493868351, 0.3814515471, 0.4599417448, 0.3149366975, 0.4349219203, 0.5547112823, 0.3527097702, 0.3521526158, 0.4068804383, 0.5255610347, 0.8146330118, 0.2149582058, 0.8316138387, 0.3373835683, 0.9767037630, 0.9823586345, 0.4953019321, 0.8952254653, 0.3040467501, 0.7111002207, 0.4389940202, 0.6216751933, 0.7657598257, 0.4655081630, 0.7835608721, 0.6094823480, 0.3603003919, 0.3423475623, 0.5817872882, 0.5690984130, 0.5025504231, 0.3220219016, 0.4012877643, 0.4185049534, 0.6967890263, 0.4195950627, 0.2950164676, 0.8551505208, 0.8280747533, 0.2628759444, 0.3242742121, 0.6831135154, 0.7242055535, 0.4996638298, 0.3611456752, 0.3466845453, 1.1161293983, 0.9119859338, 0.9839472175, 0.7421743274, 1.0341360569, 0.5405170918, 0.6444398761, 0.3737115860, 0.4808672965, 0.7537255287, 0.6486976743, 0.5699654222, 0.4505608976, 0.5761522055, 0.6679686308, 0.6001850963, 0.4392468631, 0.1843884736, 0.3601694703, 0.1447115093, 0.1744883806, 0.1194777340, 0.1649965942, 0.2104411572, 0.1338077337, 0.1335963607, 0.1543584764, 0.1993824095, 0.3090478480, 0.0815488324, 0.3154898584, 0.1279934198, 0.3705327213, 0.3726780117, 0.1879030019, 0.3396222293, 0.1153464094, 0.2697705328, 0.1665414423, 0.2358452976, 0.2905067801, 0.1766001284, 0.2972599864, 0.2312197089, 0.1366873831, 0.1298766136, 0.2207130045, 0.2158992290, 0.1906528771, 0.1221656427, 0.1522367895, 0.1587684900, 0.2643412948, 0.1591820419, 0.1119205803, 0.3244189918, 0.3141472340, 0.0997274145, 0.1230201125, 0.2591532171, 0.2747423053, 0.1895577759, 0.1370080560, 0.1315219253, 0.4234267175, 0.3459806740, 0.3732806742, 0.2815591395, 0.3923208416, 0.2050563097, 0.2444815487, 0.1417751908, 0.1824269295, 0.2859413326, 0.2460968494, 0.2162281424, 0.1709295660, 0.2185752094, 0.2534076869, 0.2276926041, 0.1666373610, -0.3075973690, -0.6008356810, -0.2414081395, -0.2910819948, -0.1993130893, -0.2752477825, -0.3510585129, -0.2232184261, -0.2228658199, -0.2575012445, -0.3326102793, -0.5155544281, -0.1360399872, -0.5263010859, -0.2135189772, -0.6181237102, -0.6217024922, -0.3134602904, -0.5665587783, -0.1924211979, -0.4500319660, -0.2778249085, -0.3934377730, -0.4846242368, -0.2946048081, -0.4958899319, -0.3857213557, -0.2280222774, -0.2166605145, -0.3681940436, -0.3601636887, -0.3180476427, -0.2037970722, -0.2539618313, -0.2648580372, -0.4409748912, -0.2655479312, -0.1867062300, -0.5411966443, -0.5240613222, -0.1663655490, -0.2052224874, -0.4323201180, -0.4583258927, -0.3162208200, -0.2285572290, -0.2194052488, -0.7063615918, -0.5771659613, -0.6227078438, -0.4696977437, -0.6544706821, -0.3420754969, -0.4078448117, -0.2365097702, -0.3043251038, -0.4770081043, -0.4105394483, -0.3607123792, -0.2851451635, -0.3646277785, -0.4227354228, -0.3798374236, -0.2779849172, 0.1487853527, 0.2906252146, 0.1167695150, 0.1407968551, 0.0964080691, 0.1331378073, 0.1698075831, 0.1079711244, 0.1078005657, 0.1245537773, 0.1608841419, 0.2493745387, 0.0658027679, 0.2545726895, 0.1032794863, 0.2989874482, 0.3007185161, 0.1516212672, 0.2740454078, 0.0930744559, 0.2176811993, 0.1343843639, 0.1903065145, 0.2344135493, 0.1425008327, 0.2398627847, 0.1865740567, 0.1102947518, 0.1047990546, 0.1780960709, 0.1742117703, 0.1538401842, 0.0985769778, 0.1228417680, 0.1281122714, 0.2133002877, 0.1284459680, 0.0903101116, 0.2617777288, 0.2534893155, 0.0804712921, 0.0992664620, 0.2091139555, 0.2216929942, 0.1529565305, 0.1105535105, 0.1061266810, 0.3416682780, 0.2791761160, 0.3012048304, 0.2271935791, 0.3165685534, 0.1654624939, 0.1972752064, 0.1144001707, 0.1472025663, 0.2307296097, 0.1985786110, 0.1744771749, 0.1379251927, 0.1763710529, 0.2044778168, 0.1837279946, 0.1344617605, 0.6909894347, 1.3497226238, 0.5423013568, 0.6538891792, 0.4477386773, 0.6183190346, 0.7886209488, 0.5014398098, 0.5006477237, 0.5784530640, 0.7471786737, 1.1581460238, 0.3056014180, 1.1822873354, 0.4796509147, 1.3885586262, 1.3965979815, 0.7041599751, 1.2727226019, 0.4322566986, 1.0109558105, 0.6241083145, 0.8838221431, 1.0886641741, 0.6618028879, 1.1139715910, 0.8664878607, 0.5122312903, 0.4867081046, 0.8271143436, 0.8090748787, 0.7144650817, 0.4578115344, 0.5705021024, 0.5949794054, 0.9906098843, 0.5965292454, 0.4194185138, 1.2157489061, 1.1772559881, 0.3737250566, 0.4610136151, 0.9711676836, 1.0295872688, 0.7103612423, 0.5134329796, 0.4928739071, 1.5867769718, 1.2965506315, 1.3988564014, 1.0551331043, 1.4702087641, 0.7684414387, 0.9161861539, 0.5312976241, 0.6836386323, 1.0715552568, 0.9222394228, 0.8103075027, 0.6405526400, 0.8191030622, 0.9496365786, 0.8532701731, 0.6244677305, -0.3602797687, -0.7037412524, -0.2827542722, -0.3409358263, -0.2334495783, -0.3223896623, -0.4111845791, -0.2614491880, -0.2610362172, -0.3016036749, -0.3895767033, -0.6038538218, -0.1593396515, -0.6164410114, -0.2500885427, -0.7239902020, -0.7281818986, -0.3671468794, -0.6635937095, -0.2253773212, -0.5271092653, -0.3254081607, -0.4608221650, -0.5676261783, -0.3450619876, -0.5808213949, -0.4517841339, -0.2670758069, -0.2537681162, -0.4312548935, -0.4218491912, -0.3725199103, -0.2387015373, -0.2974580824, -0.3102204502, -0.5165009499, -0.3110285103, -0.2186835408, -0.6338877678, -0.6138176918, -0.1948591024, -0.2403710932, -0.5063638687, -0.5368236899, -0.3703801930, -0.2677023709, -0.2569829524, -0.8273406625, -0.6760175824, -0.7293594480, -0.5501431823, -0.7665623426, -0.4006630182, -0.4776966870, -0.2770169675, -0.3564471006, -0.5587056279, -0.4808528125, -0.4224918485, -0.3339821994, -0.4270778298, -0.4951376021, -0.4448924661, -0.3255955875, -0.1420725882, -0.2775130570, -0.1115012169, -0.1344445050, -0.0920584202, -0.1271310151, -0.1621463597, -0.1030997783, -0.1029369235, -0.1189342812, -0.1536255181, -0.2381234914, -0.0628339350, -0.2430871278, -0.0986198187, -0.2854980230, -0.2871509790, -0.1447805613, -0.2616812885, -0.0888752043, -0.2078600675, -0.1283213347, -0.1817204356, -0.2238374949, -0.1360716224, -0.2290408760, -0.1781563908, -0.1053185761, -0.1000708267, -0.1700609028, -0.1663518548, -0.1468993574, -0.0941294730, -0.1172995046, -0.1223322228, -0.2036767900, -0.1226508692, -0.0862355828, -0.2499670684, -0.2420526296, -0.0768406615, -0.0947878510, -0.1996793449, -0.2116908580, -0.1460555792, -0.1055656597, -0.1013385579, -0.3262532055, -0.2665805221, -0.2876153290, -0.2169432640, -0.3022859097, -0.1579973102, -0.1883747280, -0.1092387661, -0.1405612081, -0.2203197628, -0.1896193177, -0.1666052788, -0.1317024082, -0.1684137136, -0.1952523738, -0.1754387170, -0.1283952445, -0.0551465973, -0.1077188849, -0.0432800762, -0.0521856956, -0.0357332006, -0.0493469089, -0.0629383922, -0.0400189944, -0.0399557799, -0.0461652800, -0.0596309602, -0.0924295112, -0.0243894886, -0.0943561867, -0.0382800587, -0.1108183116, -0.1114599183, -0.0561977178, -0.1015736535, -0.0344976149, -0.0806825235, -0.0498089381, -0.0705362186, -0.0868842900, -0.0528172739, -0.0889040232, -0.0691528097, -0.0408802368, -0.0388432816, -0.0660104826, -0.0645707846, -0.0570201464, -0.0365370996, -0.0455307290, -0.0474842153, -0.0790587589, -0.0476079024, -0.0334730223, -0.0970266908, -0.0939546376, -0.0298263095, -0.0367926508, -0.0775071159, -0.0821694732, -0.0566926263, -0.0409761444, -0.0393353626, -0.1266377568, -0.1034753323, -0.1116401628, -0.0842082426, -0.1173346639, -0.0613279007, -0.0731191412, -0.0424018912, -0.0545599423, -0.0855188593, -0.0736022368, -0.0646691546, -0.0511213318, -0.0653711110, -0.0757887512, -0.0680979267, -0.0498376265, -0.9578003883, -1.8708895445, -0.7516995668, -0.9063746929, -0.6206235290, -0.8570699096, -1.0931302309, -0.6950602531, -0.6939623356, -0.8018105030, -1.0356858969, -1.6053397655, -0.4236029685, -1.6388026476, -0.6648579836, -1.9247211218, -1.9358648062, -0.9760565162, -1.7641575336, -0.5991634727, -1.4013149738, -0.8650945425, -1.2250913382, -1.5090287924, -0.9173440337, -1.5441081524, -1.2010638714, -0.7100185752, -0.6746401787, -1.1464871168, -1.1214821339, -0.9903406501, -0.6345857978, -0.7907894850, -0.8247181773, -1.3731129169, -0.8268663883, -0.5813681483, -1.6851847172, -1.6318284273, -0.5180310607, -0.6390243173, -1.3461636305, -1.4271407127, -0.9846522212, -0.7116842866, -0.6831867099, -2.1994774342, -1.7971862555, -1.9389952421, -1.4625505209, -2.0378987789, -1.0651588440, -1.2699520588, -0.7364470363, -0.9476112127, -1.4853136539, -1.2783427238, -1.1231906414, -0.8878884912, -1.1353824139, -1.3163186312, -1.1827423573, -0.8655927777, -0.1145417765, -0.2237366140, -0.0898945257, -0.1083918661, -0.0742193460, -0.1024955809, -0.1307256520, -0.0831211135, -0.0829898119, -0.0958872065, -0.1238559857, -0.1919799447, -0.0506579839, -0.1959817261, -0.0795092806, -0.2301742435, -0.2315068990, -0.1167249978, -0.2109727114, -0.0716529787, -0.1675809622, -0.1034552380, -0.1465066671, -0.1804622859, -0.1097036749, -0.1846573651, -0.1436332613, -0.0849099532, -0.0806791112, -0.1371065080, -0.1341162026, -0.1184332147, -0.0758890733, -0.0945692137, -0.0986266956, -0.1642083228, -0.0988835916, -0.0695248619, -0.2015284747, -0.1951476932, -0.0619504862, -0.0764198676, -0.1609854996, -0.1706694216, -0.1177529469, -0.0851091519, -0.0817011818, -0.2630318999, -0.2149225622, -0.2318812609, -0.1749040186, -0.2437089831, -0.1273806095, -0.1518714875, -0.0880704895, -0.1133232713, -0.1776262224, -0.1528749019, -0.1343205273, -0.1061811298, -0.1357785165, -0.1574163884, -0.1414422244, -0.1035148203, -0.6121357083, -1.1956962347, -0.4804155231, -0.5792692900, -0.3966440558, -0.5477582812, -0.6986258626, -0.4442169964, -0.4435153008, -0.5124416947, -0.6619128585, -1.0259819031, -0.2707270980, -1.0473681688, -0.4249145687, -1.2301003933, -1.2372223139, -0.6238033175, -1.1274832487, -0.3829288185, -0.8955884576, -0.5528869033, -0.7829629183, -0.9644290209, -0.5862798691, -0.9868483543, -0.7676068544, -0.4537769258, -0.4311664104, -0.7327265143, -0.7167456150, -0.6329324245, -0.4055674374, -0.5053980947, -0.5270821452, -0.8775643706, -0.5284550786, -0.3715557158, -1.0770112276, -1.0429109335, -0.3310766518, -0.4084041119, -0.8603408933, -0.9120938182, -0.6292968988, -0.4548414946, -0.4366285801, -1.4056986570, -1.1485921144, -1.2392230034, -0.9347244501, -1.3024328947, -0.6807491779, -0.8116337061, -0.4706675112, -0.6056237817, -0.9492725134, -0.8169961572, -0.7178375721, -0.5674546361, -0.7256294489, -0.8412668109, -0.7558974624, -0.5532053113, -0.7640650272, -1.4924626350, -0.5996524692, -0.7230412960, -0.4950892925, -0.6837094426, -0.8720216155, -0.5544696450, -0.5535937548, -0.6396273971, -0.8261966109, -1.2806258202, -0.3379203081, -1.3073202372, -0.5303764343, -1.5354056358, -1.5442951918, -0.7786284685, -1.4073194265, -0.4779700041, -1.1178693771, -0.6901109219, -0.9772907495, -1.2037959099, -0.7317918539, -1.2317796946, -0.9581233263, -0.5664023161, -0.5381799340, -0.9145858884, -0.8946386576, -0.7900233269, -0.5062274337, -0.6308355927, -0.6579015255, -1.0953718424, -0.6596152186, -0.4637741446, -1.3443205357, -1.3017567396, -0.4132483602, -0.5097681284, -1.0738736391, -1.1384713650, -0.7854855061, -0.5677310824, -0.5449978113, -1.7545866966, -1.4336674213, -1.5467925072, -1.1667188406, -1.6256906986, -0.8497080207, -1.0130774975, -0.5874850750, -0.7559368610, -1.1848776340, -1.0197708607, -0.8960015774, -0.7082943320, -0.9057273269, -1.0500653982, -0.9435077906, -0.6905083656, 1.0740416050, 2.0979456902, 0.8429278731, 1.0163747072, 0.6959440112, 0.9610862136, 1.2257955074, 0.7794145942, 0.7781834006, 0.8991203904, 1.1613795757, 1.8001680374, 0.4750125408, 1.8376921415, 0.7455469370, 2.1583104134, 2.1708064079, 1.0945132971, 1.9782603979, 0.6718795896, 1.5713822842, 0.9700847268, 1.3737716675, 1.6921685934, 1.0286754370, 1.7315051556, 1.3468282223, 0.7961882949, 0.7565162778, 1.2856278419, 1.2575881481, 1.1105310917, 0.7116008401, 0.8867617846, 0.9248081446, 1.5397576094, 0.9272170663, 0.6519244909, 1.8897032738, 1.8298715353, 0.5809007287, 0.7165780067, 1.5095375776, 1.6003422737, 1.1041522026, 0.7980561852, 0.7661001086, 2.4664118290, 2.0152976513, 2.1743168831, 1.6400495768, 2.2852237225, 1.1944293976, 1.4240769148, 0.8258242011, 1.0626158714, 1.6655752659, 1.4334857464, 1.2595039606, 0.9956450462, 1.2731754780, 1.4760706425, 1.3262832165, 0.9706434011, 0.8694298863, 1.6982737780, 0.6823447943, 0.8227488995, 0.5633623004, 0.7779932022, 0.9922736883, 0.6309311986, 0.6299345493, 0.7278322577, 0.9401293993, 1.4572246075, 0.3845196366, 1.4876000881, 0.6035155058, 1.7471386194, 1.7572541237, 0.8860015869, 1.6013892889, 0.5438822508, 1.2720240355, 0.7852774262, 1.1120594740, 1.3697997332, 0.8327062130, 1.4016425610, 1.0902489424, 0.6445093751, 0.6123951674, 1.0407075882, 1.0180096626, 0.8989678621, 0.5760363340, 0.7178280354, 0.7486263514, 1.2464240789, 0.7505763769, 0.5277287364, 1.5297027826, 1.4812694788, 0.4702354372, 0.5800653696, 1.2219611406, 1.2954670191, 0.8938042521, 0.6460214257, 0.6201531887, 1.9965447187, 1.6313706636, 1.7600958347, 1.3276097775, 1.8498740196, 0.9668830633, 1.1527812481, 0.6684994698, 0.8601807952, 1.3482726812, 1.1603976488, 1.0195605755, 0.8059683442, 1.0306274891, 1.1948697567, 1.0736178160, 0.7857297063, 0.4336952865, 0.8471451402, 0.3403721452, 0.4104095399, 0.2810204327, 0.3880841732, 0.4949731231, 0.3147256374, 0.3142285049, 0.3630625308, 0.4689621329, 0.7269033194, 0.1918088645, 0.7420554161, 0.3010499775, 0.8715202808, 0.8765661716, 0.4419617057, 0.7988165617, 0.2713032663, 0.6345201731, 0.3917177618, 0.5547255278, 0.6832934022, 0.4153765142, 0.6991774440, 0.5438458323, 0.3214988112, 0.3054793775, 0.5191332698, 0.5078108907, 0.4484296143, 0.2873426080, 0.3580721617, 0.3734351993, 0.6217502356, 0.3744079173, 0.2632454634, 0.7630573511, 0.7388975024, 0.2345662415, 0.2893523872, 0.6095474362, 0.6462141871, 0.4458538890, 0.3222530484, 0.3093492687, 0.9959308505, 0.8137720823, 0.8779836893, 0.6622478366, 0.9227675200, 0.4823075831, 0.5750386715, 0.3334657252, 0.4290815890, 0.6725550890, 0.5788379312, 0.5085845590, 0.4020389616, 0.5141050220, 0.5960335732, 0.5355497599, 0.3919433653, -0.3356379867, -0.6556079984, -0.2634149492, -0.3176171184, -0.2174825072, -0.3003394306, -0.3830610812, -0.2435670644, -0.2431823164, -0.2809751034, -0.3629311025, -0.5625525117, -0.1484414190, -0.5742787719, -0.2329834104, -0.6744719744, -0.6783770323, -0.3420354128, -0.6182063818, -0.2099623680, -0.4910569787, -0.3031514585, -0.4293036759, -0.5288026929, -0.3214610517, -0.5410953760, -0.4208838046, -0.2488088459, -0.2364113480, -0.4017587006, -0.3929962814, -0.3470409513, -0.2223752588, -0.2771130502, -0.2890025675, -0.4811742604, -0.2897553444, -0.2037264109, -0.5905322433, -0.5718348622, -0.1815314740, -0.2239306271, -0.4717305005, -0.5001069903, -0.3450475633, -0.2493925542, -0.2394062877, -0.7707536817, -0.6297805309, -0.6794740558, -0.5125154853, -0.7141323686, -0.3732591867, -0.4450240433, -0.2580700517, -0.3320674598, -0.5204922557, -0.4479643106, -0.3935950100, -0.3111390769, -0.3978673220, -0.4612720609, -0.4144634902, -0.3033260703, 0.6607395411, 1.2906349897, 0.5185607076, 0.6252634525, 0.4281377196, 0.5912504792, 0.7540969849, 0.4794879556, 0.4787305593, 0.5531297326, 0.7144689560, 1.1074451208, 0.2922229171, 1.1305296421, 0.4586529136, 1.3277707100, 1.3354581594, 0.6733335257, 1.2170057297, 0.4133335054, 0.9666984677, 0.5967863202, 0.8451304436, 1.0410050154, 0.6328306794, 1.0652045012, 0.8285550475, 0.4898069799, 0.4654011726, 0.7909052372, 0.7736554742, 0.6831874251, 0.4377696216, 0.5455268621, 0.5689325929, 0.9472432733, 0.5704145432, 0.4010573626, 1.1625262499, 1.1257184744, 0.3573642373, 0.4408315122, 0.9286522269, 0.9845144153, 0.6792632937, 0.4909560680, 0.4712970257, 1.5173115730, 1.2397906780, 1.3376177549, 1.0089418888, 1.4058464766, 0.7348008752, 0.8760777116, 0.5080386996, 0.6537104845, 1.0246450901, 0.8818659186, 0.7748340964, 0.6125107408, 0.7832446098, 0.9080637097, 0.8159159422, 0.5971300006, -0.0780889392, -0.1525326073, -0.0612856559, -0.0738962367, -0.0505990945, -0.0698764399, -0.0891223177, -0.0566678829, -0.0565783679, -0.0653711706, -0.0844389126, -0.1308824718, -0.0345361196, -0.1336106807, -0.0542055070, -0.1569214612, -0.1578299999, -0.0795773566, -0.1438308060, -0.0488494709, -0.1142484471, -0.0705306828, -0.0998810306, -0.1230302975, -0.0747905597, -0.1258902848, -0.0979220793, -0.0578874238, -0.0550030433, -0.0934724659, -0.0914338231, -0.0807419345, -0.0517374314, -0.0644726306, -0.0672388226, -0.1119491458, -0.0674139634, -0.0473986268, -0.1373921931, -0.1330420822, -0.0422347896, -0.0520993024, -0.1097519845, -0.1163540035, -0.0802781582, -0.0580232292, -0.0556998402, -0.1793221831, -0.1465236098, -0.1580852270, -0.1192409471, -0.1661487818, -0.0868418217, -0.1035384983, -0.0600421242, -0.0772582218, -0.1210968122, -0.1042225808, -0.0915731192, -0.0723890662, -0.0925671086, -0.1073187441, -0.0964283422, -0.0705713034, 0.6801130772, 1.3284776211, 0.5337653756, 0.6435967684, 0.4406911433, 0.6085865498, 0.7762078643, 0.4935470223, 0.4927674234, 0.5693480372, 0.7354179025, 1.1399165392, 0.3007911742, 1.1636778116, 0.4721010923, 1.3667023182, 1.3746150732, 0.6930763125, 1.2526896000, 0.4254528582, 0.9950430393, 0.6142846346, 0.8699105382, 1.0715283155, 0.6513859034, 1.0964373350, 0.8528491259, 0.5041686296, 0.4790471792, 0.8140953183, 0.7963398099, 0.7032191753, 0.4506054521, 0.5615222454, 0.5856142640, 0.9750173688, 0.5871396661, 0.4128167629, 1.1966127157, 1.1587256193, 0.3678424954, 0.4537571371, 0.9558812380, 1.0133813620, 0.6991799474, 0.5053513646, 0.4851159155, 1.5618007183, 1.2761425972, 1.3768379688, 1.0385249853, 1.4470672607, 0.7563459873, 0.9017651677, 0.5229348540, 0.6728779674, 1.0546886921, 0.9077231288, 0.7975530028, 0.6304701567, 0.8062101603, 0.9346889853, 0.8398394585, 0.6146384478, 0.3735353649, 0.7296336293, 0.2931575179, 0.3534796834, 0.2420387566, 0.3342511654, 0.4263130426, 0.2710685730, 0.2706403732, 0.3127004206, 0.4039101601, 0.6260710955, 0.1652021408, 0.6391214132, 0.2592898905, 0.7506275773, 0.7549735308, 0.3806551099, 0.6880089045, 0.2336695045, 0.5465028882, 0.3373807371, 0.4777769446, 0.5885105133, 0.3577576876, 0.6021912098, 0.4684063792, 0.2769021988, 0.2631048858, 0.4471218288, 0.4373700619, 0.3862258196, 0.2474839538, 0.3084022701, 0.3216342330, 0.5355042815, 0.3224720061, 0.2267294377, 0.6572100520, 0.6364015341, 0.2020284384, 0.2492149472, 0.5249942541, 0.5565747619, 0.3840073645, 0.2775518000, 0.2664379776, 0.8577805758, 0.7008898854, 0.7561944127, 0.5703843236, 0.7947660685, 0.4154044092, 0.4952723086, 0.2872091234, 0.3695616424, 0.5792617798, 0.4985445738, 0.4380363524, 0.3462702334, 0.4427910745, 0.5133549571, 0.4612611234, 0.3375750482, 0.4853580296, 0.9480590224, 0.3809180260, 0.4592984617, 0.3144962192, 0.4343136251, 0.5539354086, 0.3522164822, 0.3516601026, 0.4063113630, 0.5248259306, 0.8134936690, 0.2146575749, 0.8304507732, 0.3369117081, 0.9753377438, 0.9809846878, 0.4946091771, 0.8939733505, 0.3036215305, 0.7101056576, 0.4383800626, 0.6208056808, 0.7646888494, 0.4648571014, 0.7824649811, 0.6086299419, 0.3597964942, 0.3418687582, 0.5809735656, 0.5683025122, 0.5018475652, 0.3215714991, 0.4007265270, 0.4179196358, 0.6958144903, 0.4190082252, 0.2946038544, 0.8539544940, 0.8269166350, 0.2625083029, 0.3238206804, 0.6821581125, 0.7231926918, 0.4989649951, 0.3606405854, 0.3461996615, 1.1145683527, 0.9107104540, 0.9825710654, 0.7411363125, 1.0326896906, 0.5397611260, 0.6435385346, 0.3731889129, 0.4801947474, 0.7526713610, 0.6477904320, 0.5691682696, 0.4499307275, 0.5753463507, 0.6670344472, 0.5993456841, 0.4386325181, 0.3963077664, 0.7741153836, 0.3110297024, 0.3750294149, 0.2567945421, 0.3546286225, 0.4523030221, 0.2875941098, 0.2871398330, 0.3317640424, 0.4285343587, 0.6642392278, 0.1752736121, 0.6780851483, 0.2750973701, 0.7963892221, 0.8010001183, 0.4038615525, 0.7299530506, 0.2479150593, 0.5798201561, 0.3579489887, 0.5069043636, 0.6243888140, 0.3795681894, 0.6389034986, 0.4969625473, 0.2937833965, 0.2791449428, 0.4743804038, 0.4640341103, 0.4097718894, 0.2625716925, 0.3272038698, 0.3412425220, 0.5681510568, 0.3421313763, 0.2405518889, 0.6972765923, 0.6751994491, 0.2143450081, 0.2644082010, 0.5570002794, 0.5905060768, 0.4074181914, 0.2944726348, 0.2826812267, 0.9100747705, 0.7436193228, 0.8022954464, 0.6051574945, 0.8432186246, 0.4407293200, 0.5254663229, 0.3047186732, 0.3920918107, 0.6145762205, 0.5289381146, 0.4647410512, 0.3673804104, 0.4697856307, 0.5446513891, 0.4893817008, 0.3581551313, -0.7681436539, -1.5004295111, -0.6028534770, -0.7269009352, -0.4977321327, -0.6873590946, -0.8766764998, -0.5574294329, -0.5565488935, -0.6430417895, -0.8306068778, -1.2874619961, -0.3397241533, -1.3142987490, -0.5332075953, -1.5436017513, -1.5525388718, -0.7827848196, -1.4148317575, -0.4805214703, -1.1238367558, -0.6937947869, -0.9825076461, -1.2102218866, -0.7356982231, -1.2383550406, -0.9632378817, -0.5694258213, -0.5410528183, -0.9194679856, -0.8994143009, -0.7942405343, -0.5089296699, -0.6342030764, -0.6614134312, -1.1012190580, -0.6631363034, -0.4662497938, -1.3514965773, -1.3087055683, -0.4154542983, -0.5124893188, -1.0796060562, -1.1445486546, -0.7896785140, -0.5707616806, -0.5479070544, -1.7639527321, -1.4413204193, -1.5550494194, -1.1729468107, -1.6343687773, -0.8542438149, -1.0184854269, -0.5906211138, -0.7599720955, -1.1912026405, -1.0252145529, -0.9007844925, -0.7120752335, -0.9105621576, -1.0556707382, -0.9485442638, -0.6941943169, -0.1617860198, -0.3160196543, -0.1269726753, -0.1530994922, -0.1048320755, -0.1447712034, -0.1846451461, -0.1174054891, -0.1172200367, -0.1354371160, -0.1749419868, -0.2711645663, -0.0715525225, -0.2768169045, -0.1123039052, -0.3251125813, -0.3269948959, -0.1648697257, -0.2979911268, -0.1012071744, -0.2367018908, -0.1461266875, -0.2069352269, -0.2548962831, -0.1549523622, -0.2608216703, -0.2028766572, -0.1199321598, -0.1139562503, -0.1936578602, -0.1894341558, -0.1672825217, -0.1071905047, -0.1335755140, -0.1393065453, -0.2319381684, -0.1396694034, -0.0982012898, -0.2846514881, -0.2756388783, -0.0875027627, -0.1079402268, -0.2273860425, -0.2410642207, -0.1663216650, -0.1202135235, -0.1153998896, -0.3715227842, -0.3035701513, -0.3275236785, -0.2470454425, -0.3442298770, -0.1799203753, -0.2145128548, -0.1243963018, -0.1600649208, -0.2508904636, -0.2159301341, -0.1897227615, -0.1499769092, -0.1917821169, -0.2223448157, -0.1997818947, -0.1462108493, 1.1100696325, 2.1683197021, 0.8712033033, 1.0504683256, 0.7192890048, 0.9933251739, 1.2669140100, 0.8055595160, 0.8042870164, 0.9292807579, 1.2003372908, 1.8605533838, 0.4909465015, 1.8993362188, 0.7705557942, 2.2307095528, 2.2436246872, 1.1312279701, 2.0446197987, 0.6944172978, 1.6240931749, 1.0026255846, 1.4198539257, 1.7489311695, 1.0631816387, 1.7895873785, 1.3920066357, 0.8228958845, 0.7818930745, 1.3287533522, 1.2997730970, 1.1477830410, 0.7354709506, 0.9165076017, 0.9558302164, 1.5914076567, 0.9583199620, 0.6737928391, 1.9530919790, 1.8912533522, 0.6003866196, 0.7406151295, 1.5601739883, 1.6540247202, 1.1411902905, 0.8248264194, 0.7917984128, 2.5491459370, 2.0828993320, 2.2472529411, 1.6950638294, 2.3618798256, 1.2344957590, 1.4718465805, 0.8535258770, 1.0982605219, 1.7214457989, 1.4815710783, 1.3017531633, 1.0290433168, 1.3158832788, 1.5255843401, 1.3707723618, 1.0032030344, -0.3850914836, -0.7522064447, -0.3022269905, -0.3644153774, -0.2495267689, -0.3445919752, -0.4395020008, -0.2794546783, -0.2790132463, -0.3223744929, -0.4164060354, -0.6454399824, -0.1703130454, -0.6588940620, -0.2673116028, -0.7738499045, -0.7783303261, -0.3924315274, -0.7092940211, -0.2408985943, -0.5634101629, -0.3478183448, -0.4925580323, -0.6067174077, -0.3688257039, -0.6208213568, -0.4828975797, -0.2854687870, -0.2712446153, -0.4609545469, -0.4509010613, -0.3981745839, -0.2551404238, -0.3179433942, -0.3315846920, -0.5520713329, -0.3324483931, -0.2337438166, -0.6775423288, -0.6560900211, -0.2082786411, -0.2569249570, -0.5412361026, -0.5737936497, -0.3958874941, -0.2861385047, -0.2746808231, -0.8843179345, -0.7225734591, -0.7795889378, -0.5880303979, -0.8193539381, -0.4282558560, -0.5105946660, -0.2960945666, -0.3809948564, -0.5971825123, -0.5139681697, -0.4515880048, -0.3569828570, -0.4564898014, -0.5292367339, -0.4755312800, -0.3480186760, 0.6410260797, 1.2521283627, 0.5030892491, 0.6066084504, 0.4153640568, 0.5736103058, 0.7315981984, 0.4651822448, 0.4644474387, 0.5366269350, 0.6931524873, 1.0744041204, 0.2835043371, 1.0967998505, 0.4449688196, 1.2881561518, 1.2956142426, 0.6532443762, 1.1806958914, 0.4010015428, 0.9378566742, 0.5789809227, 0.8199156523, 1.0099462271, 0.6139499545, 1.0334236622, 0.8038347960, 0.4751933813, 0.4515157342, 0.7673082352, 0.7505731583, 0.6628043056, 0.4247085750, 0.5292508602, 0.5519583225, 0.9189819098, 0.5533960462, 0.3890916407, 1.1278418303, 1.0921322107, 0.3467021286, 0.4276791513, 0.9009455442, 0.9551410079, 0.6589971781, 0.4763081968, 0.4572356939, 1.4720419645, 1.2028009892, 1.2977093458, 0.9788396955, 1.3639024496, 0.7128778100, 0.8499395847, 0.4928811491, 0.6342067719, 0.9940743446, 0.8555551171, 0.7517166138, 0.5942362547, 0.7598762512, 0.8809712529, 0.7915728092, 0.5793144107, 0.1159013212, 0.2263922393, 0.0909615234, 0.1096784174, 0.0751002878, 0.1037121490, 0.1322772950, 0.0841077119, 0.0839748532, 0.0970253348, 0.1253260821, 0.1942586452, 0.0512592643, 0.1983079165, 0.0804530084, 0.2329062819, 0.2342547476, 0.1181104556, 0.2134768367, 0.0725034624, 0.1695700586, 0.1046831906, 0.1482456177, 0.1826042682, 0.1110057905, 0.1868491322, 0.1453381032, 0.0859177858, 0.0816367269, 0.1387338936, 0.1357080936, 0.1198389530, 0.0767898336, 0.0956917033, 0.0997973382, 0.1661573797, 0.1000572890, 0.0703500807, 0.2039204985, 0.1974639893, 0.0626858026, 0.0773269311, 0.1628963053, 0.1726951748, 0.1191506013, 0.0861193538, 0.0826709270, 0.2661539316, 0.2174735665, 0.2346335649, 0.1769800335, 0.2466016710, 0.1288925409, 0.1536741257, 0.0891158357, 0.1146683544, 0.1797345430, 0.1546894461, 0.1359148324, 0.1074414402, 0.1373901367, 0.1592848301, 0.1431210637, 0.1047434807, 0.4360744953, 0.8517925143, 0.3422393799, 0.4126610160, 0.2825620770, 0.3902131617, 0.4976885021, 0.3164522052, 0.3159523308, 0.3650542498, 0.4715348184, 0.7308909893, 0.1928611100, 0.7461262941, 0.3027015030, 0.8763013482, 0.8813748956, 0.4443862736, 0.8031987548, 0.2727915943, 0.6380010843, 0.3938666880, 0.5577687025, 0.6870418787, 0.4176552296, 0.7030130029, 0.5468292832, 0.3232625127, 0.3071551919, 0.5219811797, 0.5105966926, 0.4508896470, 0.2889189422, 0.3600365222, 0.3754838109, 0.6251610518, 0.3764618635, 0.2646895945, 0.7672434449, 0.7429509759, 0.2358530462, 0.2909397483, 0.6128913760, 0.6497592330, 0.4482997954, 0.3240208924, 0.3110463321, 1.0013943911, 0.8182363510, 0.8828001618, 0.6658808589, 0.9278297424, 0.4849534631, 0.5781932473, 0.3352950811, 0.4314354956, 0.6762446761, 0.5820133686, 0.5113745928, 0.4042444825, 0.5169253349, 0.5993033648, 0.5384877324, 0.3940935135, -0.0428681932, -0.0837352499, -0.0336437598, -0.0405665413, -0.0277771968, -0.0383598097, -0.0489251465, -0.0311087556, -0.0310596153, -0.0358865671, -0.0463541150, -0.0718500614, -0.0189591646, -0.0733477622, -0.0297569949, -0.0861445889, -0.0866433457, -0.0436852835, -0.0789582580, -0.0268167127, -0.0627185404, -0.0387189649, -0.0548313148, -0.0675394833, -0.0410574935, -0.0691095218, -0.0537559204, -0.0317782424, -0.0301948152, -0.0513132326, -0.0501940846, -0.0443245992, -0.0284021050, -0.0353933014, -0.0369118452, -0.0614563040, -0.0370079912, -0.0260202456, -0.0754236802, -0.0730356127, -0.0231854748, -0.0286007598, -0.0602501370, -0.0638744235, -0.0440700017, -0.0318527967, -0.0305773336, -0.0984418318, -0.0804365203, -0.0867834538, -0.0654592589, -0.0912100747, -0.0476732291, -0.0568391457, -0.0329611003, -0.0424121581, -0.0664780661, -0.0572146811, -0.0502705537, -0.0397391543, -0.0508162193, -0.0589143671, -0.0529359058, -0.0387412645, 0.1605114341, 0.3135300279, 0.1259723753, 0.1518933475, 0.1040061936, 0.1436306834, 0.1831904799, 0.1164805517, 0.1162965596, 0.1343701333, 0.1735637635, 0.2690282762, 0.0709888190, 0.2746361196, 0.1114191562, 0.3225513101, 0.3244187832, 0.1635708660, 0.2956435084, 0.1004098505, 0.2348371148, 0.1449754834, 0.2053049654, 0.2528881729, 0.1537316293, 0.2587668896, 0.2012783587, 0.1189873144, 0.1130584851, 0.1921321899, 0.1879417747, 0.1659646481, 0.1063460410, 0.1325231791, 0.1382090747, 0.2301109284, 0.1385690719, 0.0974276438, 0.2824089825, 0.2734673619, 0.0868134052, 0.1070898622, 0.2255946696, 0.2391650826, 0.1650113612, 0.1192664653, 0.1144907475, 0.3685958982, 0.3011785746, 0.3249433935, 0.2450991720, 0.3415179849, 0.1785029322, 0.2128228843, 0.1234162897, 0.1588039100, 0.2489138991, 0.2142290026, 0.1882280856, 0.1487953663, 0.1902712286, 0.2205931395, 0.1982079744, 0.1450589746, 0.7851380110, 1.5336248875, 0.6161909103, 0.7429828048, 0.5087438822, 0.7025661469, 0.8960720301, 0.5697619319, 0.5688619614, 0.6572684050, 0.8489831686, 1.3159456253, 0.3472401798, 1.3433761597, 0.5450042486, 1.5777522326, 1.5868870020, 0.8001030684, 1.4461333752, 0.4911524653, 1.1487003565, 0.7091442347, 1.0042445660, 1.2369966507, 0.7519747019, 1.2657521963, 0.9845484495, 0.5820237398, 0.5530229807, 0.9398102164, 0.9193128347, 0.8118122220, 0.5201892257, 0.6482340693, 0.6760464907, 1.1255823374, 0.6778074503, 0.4765650630, 1.3813970089, 1.3376592398, 0.4246457815, 0.5238275528, 1.1034910679, 1.1698704958, 0.8071492314, 0.5833891630, 0.5600288510, 1.8029782772, 1.4732080698, 1.5894532204, 1.1988970041, 1.6705274582, 0.8731430173, 1.0410182476, 0.6036879420, 0.7767856121, 1.2175565958, 1.0478962660, 0.9207133651, 0.7278290987, 0.9307073355, 1.0790263414, 0.9695298076, 0.7095526457, -0.0840794444, -0.1642339528, -0.0659871176, -0.0795650929, -0.0544807464, -0.0752369314, -0.0959592313, -0.0610150918, -0.0609187111, -0.0703860447, -0.0909165442, -0.1409229636, -0.0371855162, -0.1438604742, -0.0583638214, -0.1689594984, -0.1699377447, -0.0856820345, -0.1548646092, -0.0525969006, -0.1230128780, -0.0759413615, -0.1075432822, -0.1324684173, -0.0805280283, -0.1355478168, -0.1054340601, -0.0623281896, -0.0592225380, -0.1006430984, -0.0984480605, -0.0869359523, -0.0557064079, -0.0694185793, -0.0723969713, -0.1205371916, -0.0725855455, -0.0510347560, -0.1479320675, -0.1432482451, -0.0454747826, -0.0560960397, -0.1181714758, -0.1252799630, -0.0864365995, -0.0624744110, -0.0599727891, -0.1930786818, -0.1577640027, -0.1702125520, -0.1283883750, -0.1788946837, -0.0935037881, -0.1114813387, -0.0646481812, -0.0831849948, -0.1303866059, -0.1122178957, -0.0985980406, -0.0779423043, -0.0996682867, -0.1155515686, -0.1038257256, -0.0759850964, 0.5693100095, 1.1120439768, 0.4468051195, 0.5387429595, 0.3688943684, 0.5094364882, 0.6497492194, 0.4131390750, 0.4124864638, 0.4765906930, 0.6156046987, 0.9542030096, 0.2517867088, 0.9740931392, 0.3951870501, 1.1440410614, 1.1506648064, 0.5801613331, 1.0486031771, 0.3561387062, 0.8329320550, 0.5142062902, 0.7281859517, 0.8969564438, 0.5452630520, 0.9178073406, 0.7139042020, 0.4220301807, 0.4010015130, 0.6814641356, 0.6666013002, 0.5886517167, 0.3771934807, 0.4700398743, 0.4902068675, 0.8161689639, 0.4914837480, 0.3455612361, 1.0016622543, 0.9699476957, 0.3079141378, 0.3798317015, 0.8001504540, 0.8482826948, 0.5852705836, 0.4230202734, 0.4060815275, 1.3073543310, 1.0682352781, 1.1525255442, 0.8693300486, 1.2113131285, 0.6331231594, 0.7548508644, 0.4377390742, 0.5632536411, 0.8828603029, 0.7598381639, 0.6676168442, 0.5277549028, 0.6748635769, 0.7824108601, 0.7030140162, 0.5145024657, -1.0298563242, -2.0116376877, -0.8082504272, -0.9745618701, -0.6673133969, -0.9215478301, -1.1753672361, -0.7473500967, -0.7461695671, -0.8621312380, -1.1136013269, -1.7261104584, -0.4554708898, -1.7620909214, -0.7148756981, -2.0695190430, -2.0815012455, -1.0494859219, -1.8968763351, -0.6442389488, -1.5067368746, -0.9301761389, -1.3172557354, -1.6225540638, -0.9863564372, -1.6602723598, -1.2914206982, -0.7634336948, -0.7253937721, -1.2327381372, -1.2058519125, -1.0648446083, -0.6823260784, -0.8502810597, -0.8867622614, -1.4764131308, -0.8890720606, -0.6251048446, -1.8119622469, -1.7545920610, -0.5570029020, -0.6870985031, -1.4474363327, -1.5345054865, -1.0587282181, -0.7652247548, -0.7345833182, -2.3649454117, -1.9323898554, -2.0848672390, -1.5725791454, -2.1912112236, -1.1452914476, -1.3654913902, -0.7918503881, -1.0189006329, -1.5970548391, -1.3745132685, -1.2076889277, -0.9546849728, -1.2207980156, -1.4153461456, -1.2717208862, -0.9307118654, 0.4710828066, 0.9201748967, 0.3697145581, 0.4457896948, 0.3052463233, 0.4215396941, 0.5376431942, 0.3418571651, 0.3413171470, 0.3943610191, 0.5093898773, 0.7895673513, 0.2083441168, 0.8060257435, 0.3270025551, 0.9466513395, 0.9521322250, 0.4800618589, 0.8676800132, 0.2946914732, 0.6892201900, 0.4254865348, 0.6025466919, 0.7421979904, 0.4511848390, 0.7594513297, 0.5907290578, 0.3492142260, 0.3318137825, 0.5638861060, 0.5515877008, 0.4870873392, 0.3121135235, 0.3889404535, 0.4056278765, 0.6753493547, 0.4066844583, 0.2859390378, 0.8288381696, 0.8025955558, 0.2547874749, 0.3142965436, 0.6620946527, 0.7019222975, 0.4842895567, 0.3500334918, 0.3360173106, 1.0817869902, 0.8839248419, 0.9536719322, 0.7193381786, 1.0023164749, 0.5238857865, 0.6246109605, 0.3622127473, 0.4660713673, 0.7305339575, 0.6287377477, 0.5524280071, 0.4366974831, 0.5584244132, 0.6474157572, 0.5817178488, 0.4257315695, -0.9700363278, -1.8947901726, -0.7613025904, -0.9179536700, -0.6285519600, -0.8680189848, -1.1070950031, -0.7039396167, -0.7028276920, -0.8120536804, -1.0489168167, -1.6258479357, -0.4290145040, -1.6597384214, -0.6733515859, -1.9493094683, -1.9605954885, -0.9885256290, -1.7866946459, -0.6068177819, -1.4192167521, -0.8761461377, -1.2407419682, -1.5283067226, -0.9290631413, -1.5638340712, -1.2164075375, -0.7190890312, -0.6832587123, -1.1611335278, -1.1358090639, -1.0029922724, -0.6426926255, -0.8008918166, -0.8352539539, -1.3906544447, -0.8374296427, -0.5887951255, -1.7067129612, -1.6526751518, -0.5246489048, -0.6471878290, -1.3633608818, -1.4453724623, -0.9972311854, -0.7207760215, -0.6919144392, -2.2275757790, -1.8201453686, -1.9637659788, -1.4812346697, -2.0639328957, -1.0787663460, -1.2861757278, -0.7458551526, -0.9597169757, -1.5042885542, -1.2946735620, -1.1375393867, -0.8992313147, -1.1498869658, -1.3331346512, -1.1978518963, -0.8766507506, -0.7049247622, -1.3769428730, -0.5532380939, -0.6670763493, -0.4567683339, -0.6307888627, -0.8045252562, -0.5115525126, -0.5107444525, -0.5901188850, -0.7622472048, -1.1815026999, -0.3117645681, -1.2061308622, -0.4893241525, -1.4165619612, -1.4247634411, -0.7183609605, -1.2983899117, -0.4409741163, -1.0313439369, -0.6366948485, -0.9016463757, -1.1106195450, -0.6751496196, -1.1364372969, -0.8839625716, -0.5225615501, -0.4965236783, -0.8437950015, -0.8253917098, -0.7288738489, -0.4670443237, -0.5820075870, -0.6069785357, -1.0105876923, -0.6085595489, -0.4278770387, -1.2402672768, -1.2009979486, -0.3812620640, -0.4703109860, -0.9907534719, -1.0503512621, -0.7246872783, -0.5237874985, -0.5028138161, -1.6187778711, -1.3226984739, -1.4270675182, -1.0764123201, -1.4998588562, -0.7839387655, -0.9346631169, -0.5420124531, -0.6974257231, -1.0931655169, -0.9408384562, -0.8266491294, -0.6534708142, -0.8356221318, -0.9687880874, -0.8704782724, -0.6370615363, -0.7334752679, -1.4327110052, -0.5756450295, -0.6940938830, -0.4752680957, -0.6563367248, -0.8371096849, -0.5322710872, -0.5314303041, -0.6140195727, -0.7931193113, -1.2293552160, -0.3243914843, -1.2549809217, -0.5091425180, -1.4739347696, -1.4824684858, -0.7474555969, -1.3509765863, -0.4588342011, -1.0731148720, -0.6624819040, -0.9381643534, -1.1556012630, -0.7024941444, -1.1824645996, -0.9197643399, -0.5437260866, -0.5166335702, -0.8779699206, -0.8588212729, -0.7583943009, -0.4859603047, -0.6055797338, -0.6315620542, -1.0515179634, -0.6332071424, -0.4452066720, -1.2904998064, -1.2496401072, -0.3967037201, -0.4893592596, -1.0308804512, -1.0928920507, -0.7540381551, -0.5450016260, -0.5231784582, -1.6843407154, -1.3762696981, -1.4848657846, -1.1200084686, -1.5606052876, -0.8156894445, -0.9725183249, -0.5639647245, -0.7256724834, -1.1374403238, -0.9789437652, -0.8601296544, -0.6799373627, -0.8694660068, -1.0080254078, -0.9057338834, -0.6628634334, -0.3257812858, -0.6363547444, -0.2556792200, -0.3082896173, -0.2110956758, -0.2915193439, -0.3718117177, -0.2364142090, -0.2360407561, -0.2727237046, -0.3522728980, -0.5460320115, -0.1440821290, -0.5574138761, -0.2261413783, -0.6546647549, -0.6584550738, -0.3319908381, -0.6000514627, -0.2037963867, -0.4766360521, -0.2942487895, -0.4166962504, -0.5132732987, -0.3120206892, -0.5252049565, -0.4085236788, -0.2415020466, -0.2294686288, -0.3899601996, -0.3814551234, -0.3368493617, -0.2158447355, -0.2689750493, -0.2805154026, -0.4670435488, -0.2812460661, -0.1977435499, -0.5731900334, -0.5550417304, -0.1762004197, -0.2173544317, -0.4578771591, -0.4854202867, -0.3349145353, -0.2420686185, -0.2323756218, -0.7481189370, -0.6112856865, -0.6595198512, -0.4974643886, -0.6931604147, -0.3622976542, -0.4319549799, -0.2504912913, -0.3223156035, -0.5052069426, -0.4348089099, -0.3820362687, -0.3020018339, -0.3861831129, -0.4477258325, -0.4022918940, -0.2944182754, 0.1144568026, 0.2235706300, 0.0898278356, 0.1083114520, 0.0741642863, 0.1024195477, 0.1306286752, 0.0830594525, 0.0829282477, 0.0958160684, 0.1237641051, 0.1918375343, 0.0506204031, 0.1958363354, 0.0794502944, 0.2300034910, 0.2313351482, 0.1166384071, 0.2108162045, 0.0715998262, 0.1674566418, 0.1033784896, 0.1463979781, 0.1803284138, 0.1096222922, 0.1845203787, 0.1435267031, 0.0848469660, 0.0806192607, 0.1370048076, 0.1340167075, 0.1183453575, 0.0758327767, 0.0944990590, 0.0985535309, 0.1640865058, 0.0988102406, 0.0694732815, 0.2013789713, 0.1950029284, 0.0619045310, 0.0763631761, 0.1608660668, 0.1705428064, 0.1176655889, 0.0850460157, 0.0816405714, 0.2628367543, 0.2147631198, 0.2317092419, 0.1747742742, 0.2435281873, 0.1272861063, 0.1517588198, 0.0880051553, 0.1132392064, 0.1774944514, 0.1527615041, 0.1342208833, 0.1061023623, 0.1356777996, 0.1572996080, 0.1413372904, 0.1034380272, 0.6209728122, 1.2129578590, 0.4873510301, 0.5876318812, 0.4023701847, 0.5556659698, 0.7087115049, 0.4506298900, 0.4499180615, 0.5198395252, 0.6714684963, 1.0407932997, 0.2746354043, 1.0624884367, 0.4310488105, 1.2478585243, 1.2550833225, 0.6328088045, 1.1437600851, 0.3884569407, 0.9085175395, 0.5608686209, 0.7942661047, 0.9783518910, 0.5947436690, 1.0010949373, 0.7786883116, 0.4603278637, 0.4373908937, 0.7433044314, 0.7270928621, 0.6420696974, 0.4114223719, 0.5126942396, 0.5346913338, 0.8902332783, 0.5360840559, 0.3769196570, 1.0925594568, 1.0579668283, 0.3358561993, 0.4142999947, 0.8727611303, 0.9252611995, 0.6383816600, 0.4614077806, 0.4429319203, 1.4259918928, 1.1651736498, 1.2571129799, 0.9482185245, 1.3212352991, 0.6905767322, 0.8233507872, 0.4774622619, 0.6143668294, 0.9629765749, 0.8287906647, 0.7282005548, 0.5756466985, 0.7361049056, 0.8534116745, 0.7668099403, 0.5611916184, 0.2717393339, 0.5307935476, 0.2132660896, 0.2571492493, 0.1760782450, 0.2431608886, 0.3101340234, 0.1971968263, 0.1968853325, 0.2274831533, 0.2938363850, 0.4554539025, 0.1201811805, 0.4649477303, 0.1886280924, 0.5460661650, 0.5492277741, 0.2769187987, 0.5005124211, 0.1699897796, 0.3975696564, 0.2454375774, 0.3475729525, 0.4281293750, 0.2602613866, 0.4380817711, 0.3407560587, 0.2014406770, 0.1914034039, 0.3252719641, 0.3181777596, 0.2809713781, 0.1800395101, 0.2243563533, 0.2339823246, 0.3895684183, 0.2345917970, 0.1649410278, 0.4781068861, 0.4629690647, 0.1469715536, 0.1812987626, 0.3819225729, 0.4048967361, 0.2793574929, 0.2019132674, 0.1938281804, 0.6240178347, 0.5098830462, 0.5501159430, 0.4149429202, 0.5781760216, 0.3021982014, 0.3603004813, 0.2089387476, 0.2688485384, 0.4214010835, 0.3626809716, 0.3186624944, 0.2519044876, 0.3221214414, 0.3734551966, 0.3355580270, 0.2455789298, -0.9278903604, -1.8124656677, -0.7282256484, -0.8780705929, -0.6012427807, -0.8303054571, -1.0589941740, -0.6733550429, -0.6722913980, -0.7767717242, -1.0033437014, -1.5552084446, -0.4103747606, -1.5876264572, -0.6440958977, -1.8646162748, -1.8754119873, -0.9455763698, -1.7090667486, -0.5804529190, -1.3575549126, -0.8380795121, -1.1868344545, -1.4619051218, -0.8886973858, -1.4958889484, -1.1635572910, -0.6878462434, -0.6535726190, -1.1106847525, -1.0864605904, -0.9594144821, -0.6147690415, -0.7660948634, -0.7989640236, -1.3302335739, -0.8010451198, -0.5632132888, -1.6325600147, -1.5808700323, -0.5018541217, -0.6190689802, -1.3041257858, -1.3825742006, -0.9539036751, -0.6894599199, -0.6618523002, -2.1307926178, -1.7410640717, -1.8784446716, -1.4168782234, -1.9742596149, -1.0318962336, -1.2302942276, -0.7134493589, -0.9180194139, -1.4389305115, -1.2384228706, -1.0881158113, -0.8601617217, 