//Numpy array shape [64, 32]
//Min -0.676269531250
//Max 0.662109375000
//Number of zeros 1024

#ifndef W13_H_
#define W13_H_

#ifndef __SYNTHESIS__
model_default_t w13[2048];
#else
model_default_t w13[2048] = {-0.1511230469, 0.0000000000, -0.0000000000, -0.2519531250, -0.0000000000, -0.0000000000, -0.1258544922, -0.2998046875, 0.0000000000, -0.3273925781, 0.0000000000, -0.2302246094, 0.2526855469, 0.4824218750, -0.0000000000, -0.0000000000, -0.0000000000, 0.2257080078, -0.0000000000, 0.3537597656, 0.2817382812, -0.1702880859, -0.0000000000, 0.0000000000, -0.0000000000, 0.0000000000, -0.4326171875, -0.1496582031, 0.4008789062, -0.0000000000, 0.0000000000, 0.4506835938, 0.2082519531, -0.2380371094, 0.3708496094, 0.3046875000, 0.0000000000, -0.2037353516, 0.0000000000, 0.4458007812, -0.0000000000, 0.2032470703, 0.0000000000, -0.3481445312, 0.2493896484, -0.0000000000, -0.2866210938, -0.3833007812, 0.0000000000, -0.0000000000, -0.0000000000, -0.3115234375, -0.3334960938, -0.1855468750, -0.0000000000, 0.2961425781, 0.1541748047, -0.0000000000, -0.0000000000, -0.0000000000, 0.0000000000, -0.0000000000, -0.3154296875, 0.0000000000, -0.0000000000, 0.3386230469, -0.0000000000, -0.0000000000, 0.1381835938, -0.0000000000, 0.0000000000, 0.0000000000, 0.2215576172, -0.1978759766, 0.0000000000, 0.0000000000, -0.2489013672, 0.2153320312, 0.0000000000, 0.2753906250, 0.1633300781, 0.0000000000, -0.0000000000, -0.3569335938, 0.3435058594, 0.3481445312, 0.5688476562, 0.1853027344, 0.0000000000, -0.2059326172, 0.0000000000, 0.1652832031, -0.0000000000, -0.2436523438, -0.1779785156, 0.0000000000, -0.0000000000, 0.2438964844, -0.0000000000, -0.2337646484, 0.1862792969, -0.3796386719, -0.2614746094, 0.0000000000, 0.0000000000, -0.0000000000, 0.0000000000, 0.6333007812, -0.0000000000, -0.1362304688, 0.0000000000, -0.0000000000, 0.1978759766, 0.0000000000, -0.0000000000, 0.0000000000, 0.2792968750, -0.0000000000, 0.2724609375, 0.1810302734, 0.3237304688, 0.0000000000, 0.2069091797, -0.4895019531, 0.2885742188, -0.0000000000, 0.2131347656, 0.0000000000, -0.0000000000, 0.0000000000, 0.2778320312, 0.2636718750, -0.0000000000, 0.3818359375, -0.0000000000, 0.3269042969, 0.0000000000, -0.3012695312, 0.5141601562, 0.4882812500, 0.2342529297, -0.0000000000, -0.5312500000, 0.0000000000, 0.0000000000, 0.2561035156, 0.3359375000, 0.2291259766, -0.1937255859, -0.0000000000, 0.0000000000, -0.2182617188, 0.0000000000, -0.3278808594, 0.4885253906, -0.1350097656, -0.3515625000, 0.3369140625, 0.0000000000, 0.0000000000, -0.0000000000, 0.4165039062, 0.4404296875, -0.2171630859, -0.0000000000, 0.2470703125, -0.0000000000, 0.1270751953, -0.1871337891, 0.1929931641, 0.0000000000, 0.2363281250, 0.0000000000, -0.0000000000, -0.2208251953, 0.1627197266, -0.3530273438, 0.0000000000, 0.2551269531, 0.2980957031, -0.1799316406, -0.0000000000, -0.0000000000, 0.2551269531, -0.6357421875, 0.0000000000, 0.0000000000, -0.1431884766, -0.2000732422, 0.1921386719, -0.2222900391, -0.2810058594, -0.0000000000, 0.0000000000, -0.0000000000, -0.0000000000, -0.1947021484, -0.1845703125, 0.2763671875, 0.0000000000, 0.1722412109, -0.2807617188, 0.3557128906, -0.2330322266, 0.0000000000, -0.2254638672, 0.2426757812, -0.0000000000, -0.0000000000, 0.0000000000, -0.0000000000, -0.0000000000, 0.1706542969, -0.2492675781, 0.0000000000, 0.2435302734, 0.0000000000, 0.1695556641, 0.2219238281, 0.1687011719, 0.2900390625, -0.0000000000, 0.3205566406, 0.0000000000, 0.2196044922, 0.0000000000, -0.0000000000, 0.3979492188, 0.2724609375, -0.0000000000, -0.3088378906, -0.2753906250, -0.1549072266, -0.1311035156, -0.2541503906, 0.0000000000, -0.4162597656, -0.0000000000, -0.2244873047, -0.0000000000, 0.1860351562, -0.0000000000, -0.0000000000, -0.2297363281, 0.1608886719, -0.0000000000, -0.0000000000, 0.2541503906, -0.0000000000, 0.4116210938, 0.3537597656, 0.2076416016, 0.0000000000, 0.2302246094, 0.0000000000, -0.2406005859, 0.0000000000, -0.3859863281, -0.0000000000, 0.1971435547, -0.1361083984, -0.0000000000, -0.0000000000, 0.6059570312, 0.0000000000, -0.0000000000, 0.0000000000, 0.0000000000, 0.2800292969, 0.1967773438, 0.0000000000, 0.0000000000, 0.2626953125, -0.6762695312, 0.1972656250, 0.0000000000, 0.1844482422, 0.0000000000, 0.0000000000, 0.3266601562, 0.5859375000, 0.2819824219, -0.2359619141, -0.0000000000, 0.0000000000, 0.1697998047, 0.0000000000, 0.3576660156, 0.2254638672, -0.2680664062, -0.0000000000, 0.1992187500, 0.2856445312, -0.0000000000, -0.2041015625, 0.0000000000, -0.2861328125, -0.0000000000, 0.0000000000, -0.0000000000, 0.2751464844, -0.1729736328, 0.3725585938, -0.1776123047, 0.0000000000, 0.0000000000, -0.5698242188, -0.0000000000, -0.0000000000, 0.1848144531, -0.3369140625, 0.0000000000, -0.0000000000, 0.4587402344, -0.0000000000, -0.0000000000, 0.3347167969, -0.0000000000, -0.0000000000, -0.2070312500, -0.1896972656, 0.2104492188, -0.3618164062, 0.0000000000, 0.3361816406, -0.0000000000, -0.0000000000, 0.0000000000, 0.3896484375, -0.2133789062, 0.0000000000, 0.2636718750, -0.2673339844, -0.0000000000, -0.2071533203, -0.0000000000, 0.3408203125, 0.0000000000, -0.2929687500, -0.2460937500, 0.3176269531, -0.0000000000, -0.0000000000, 0.4582519531, 0.2824707031, 0.0000000000, 0.2763671875, 0.0000000000, 0.2607421875, -0.0000000000, 0.2027587891, 0.0000000000, -0.3754882812, 0.2912597656, 0.1533203125, -0.0000000000, -0.0000000000, -0.0000000000, -0.0000000000, 0.3037109375, 0.0000000000, 0.1662597656, 0.3586425781, -0.0000000000, -0.0000000000, -0.4523925781, 0.0000000000, 0.3139648438, 0.0000000000, -0.4023437500, -0.4562988281, 0.6259765625, 0.0000000000, 0.1444091797, 0.0000000000, 0.0000000000, -0.4614257812, 0.1542968750, -0.0000000000, -0.0000000000, 0.0000000000, -0.0000000000, -0.4199218750, 0.3706054688, 0.0000000000, -0.2058105469, -0.0000000000, 0.2122802734, 0.0000000000, 0.4028320312, -0.0000000000, 0.1925048828, 0.0000000000, -0.0000000000, 0.0000000000, 0.1807861328, 0.3032226562, 0.0000000000, 0.0000000000, 0.2944335938, 0.2396240234, -0.0000000000, -0.2413330078, -0.3103027344, 0.0000000000, 0.3840332031, 0.0000000000, -0.2519531250, -0.2204589844, -0.0000000000, 0.2971191406, -0.0000000000, -0.5083007812, 0.3786621094, 0.0000000000, 0.2570800781, 0.0000000000, 0.3488769531, 0.3598632812, 0.0000000000, -0.0000000000, -0.2770996094, 0.0000000000, -0.0000000000, 0.3879394531, -0.0000000000, 0.2268066406, 0.2338867188, 0.4301757812, -0.4624023438, -0.1531982422, -0.0000000000, -0.0000000000, -0.2858886719, -0.0000000000, 0.2198486328, 0.0000000000, 0.0000000000, 0.1958007812, 0.0000000000, 0.2971191406, 0.0000000000, -0.2310791016, -0.0000000000, -0.1190185547, -0.2507324219, 0.0000000000, 0.2863769531, 0.2009277344, 0.0000000000, -0.0000000000, -0.0000000000, 0.0000000000, 0.5937500000, -0.0000000000, 0.2171630859, 0.0000000000, -0.0000000000, 0.1986083984, -0.0000000000, 0.0000000000, -0.3295898438, -0.0000000000, 0.0000000000, 0.1613769531, 0.2814941406, 0.1739501953, 0.2373046875, -0.2353515625, -0.3481445312, 0.0000000000, -0.3759765625, -0.2032470703, 0.1601562500, 0.0000000000, -0.0000000000, 0.0000000000, -0.3273925781, 0.0000000000, -0.1651611328, 0.0000000000, 0.0000000000, -0.4914550781, -0.1448974609, -0.0000000000, -0.0000000000, -0.0000000000, -0.0000000000, 0.3183593750, -0.2822265625, 0.5063476562, -0.0000000000, -0.0000000000, 0.2905273438, 0.3393554688, -0.0000000000, 0.0000000000, 0.0000000000, -0.2675781250, -0.0000000000, 0.0000000000, 0.2875976562, -0.2932128906, 0.2868652344, -0.1896972656, 0.3234863281, 0.0000000000, -0.0000000000, 0.2156982422, 0.3234863281, 0.1986083984, 0.0000000000, -0.2944335938, 0.0000000000, -0.0000000000, 0.2460937500, 0.0000000000, -0.0000000000, 0.2297363281, 0.3242187500, 0.3217773438, 0.3557128906, -0.1971435547, 0.2413330078, -0.0000000000, -0.3830566406, -0.2322998047, -0.0000000000, -0.0000000000, 0.0000000000, -0.0000000000, -0.0000000000, 0.0000000000, 0.0000000000, -0.0000000000, -0.0000000000, -0.3413085938, -0.4045410156, 0.0000000000, -0.3330078125, 0.0000000000, -0.3859863281, 0.4030761719, 0.4506835938, 0.4418945312, 0.0000000000, -0.2166748047, 0.0000000000, -0.2541503906, 0.1661376953, -0.4238281250, 0.0000000000, 0.0000000000, -0.0000000000, 0.0000000000, -0.0000000000, -0.0000000000, -0.0000000000, -0.1260986328, 0.0000000000, -0.4526367188, 0.2464599609, -0.0000000000, 0.1335449219, 0.3349609375, -0.0000000000, -0.1708984375, -0.3691406250, 0.0000000000, 0.0000000000, -0.0000000000, 0.3369140625, -0.3417968750, 0.2851562500, -0.0000000000, 0.0000000000, 0.3498535156, 0.0000000000, 0.2497558594, -0.3864746094, -0.0000000000, 0.1971435547, -0.0000000000, 0.0000000000, -0.2041015625, -0.0000000000, 0.4272460938, -0.0000000000, -0.0000000000, 0.1485595703, 0.0000000000, 0.2956542969, 0.0000000000, -0.0000000000, -0.3957519531, 0.0000000000, -0.3750000000, -0.2521972656, -0.0000000000, -0.4995117188, 0.2446289062, -0.0000000000, -0.1835937500, -0.0000000000, 0.0000000000, -0.0000000000, 0.2211914062, 0.3168945312, -0.0000000000, 0.0000000000, -0.0000000000, 0.0000000000, -0.3745117188, -0.0000000000, -0.0000000000, -0.4016113281, 0.0000000000, -0.0000000000, -0.0000000000, -0.0000000000, 0.0000000000, 0.2270507812, -0.0000000000, 0.3491210938, -0.0000000000, 0.0000000000, 0.2915039062, -0.0000000000, 0.0000000000, 0.0000000000, 0.2832031250, 0.0000000000, -0.0000000000, -0.2052001953, 0.2744140625, 0.2166748047, 0.3886718750, -0.0000000000, 0.3540039062, 0.0000000000, -0.0000000000, 0.0000000000, -0.0000000000, -0.3891601562, 0.4538574219, -0.0000000000, -0.0000000000, 0.0000000000, 0.0000000000, 0.3100585938, -0.2407226562, -0.0000000000, 0.0000000000, 0.2159423828, 0.0000000000, 0.0000000000, 0.3320312500, -0.1544189453, 0.5605468750, 0.4282226562, 0.0000000000, -0.0000000000, -0.1834716797, -0.0000000000, -0.3110351562, -0.4008789062, -0.0000000000, -0.0000000000, -0.2626953125, -0.3940429688, 0.0000000000, 0.0000000000, -0.0000000000, -0.5532226562, -0.0000000000, -0.2126464844, -0.0000000000, -0.1905517578, -0.2111816406, 0.0000000000, -0.3015136719, -0.0000000000, 0.0000000000, 0.3015136719, 0.3825683594, -0.0000000000, 0.1972656250, -0.3457031250, -0.0000000000, 0.3374023438, -0.5742187500, 0.1997070312, 0.0000000000, 0.3073730469, 0.0000000000, -0.2678222656, -0.3979492188, -0.0000000000, 0.1480712891, 0.0000000000, 0.1689453125, 0.3129882812, 0.1494140625, 0.0000000000, -0.3234863281, 0.0000000000, 0.3081054688, 0.1364746094, -0.0000000000, -0.0000000000, 0.0000000000, 0.0000000000, 0.0000000000, -0.0000000000, 0.0000000000, 0.4536132812, -0.0000000000, -0.1374511719, 0.0000000000, 0.2976074219, 0.1553955078, -0.3781738281, 0.2280273438, -0.0000000000, 0.1354980469, 0.3989257812, -0.0000000000, 0.0000000000, 0.0000000000, 0.0000000000, 0.0000000000, -0.5092773438, -0.4895019531, 0.2147216797, -0.1733398438, -0.0000000000, 0.0000000000, 0.0000000000, -0.0000000000, 0.5341796875, -0.0000000000, -0.3105468750, -0.4252929688, -0.0000000000, 0.0000000000, -0.0000000000, 0.0000000000, -0.2283935547, 0.0000000000, 0.3315429688, -0.1743164062, 0.2954101562, 0.4458007812, 0.0000000000, -0.0000000000, -0.2834472656, 0.0000000000, 0.3586425781, 0.0000000000, 0.5717773438, 0.0000000000, 0.1872558594, 0.0000000000, 0.1440429688, -0.0000000000, 0.2812500000, 0.0000000000, -0.3330078125, 0.0000000000, 0.2006835938, -0.0000000000, 0.1728515625, -0.0000000000, -0.0000000000, -0.0000000000, 0.5195312500, 0.0000000000, 0.2200927734, 0.1673583984, 0.3740234375, -0.0000000000, -0.2973632812, 0.0000000000, 0.0000000000, -0.2678222656, 0.0000000000, 0.2145996094, -0.1334228516, 0.0000000000, -0.0000000000, -0.0000000000, 0.0000000000, -0.5039062500, -0.0000000000, -0.0000000000, 0.3435058594, 0.0000000000, 0.3403320312, -0.4602050781, 0.0000000000, 0.3466796875, 0.0000000000, 0.4692382812, 0.5478515625, -0.0000000000, -0.0000000000, -0.0000000000, 0.2497558594, 0.0000000000, -0.0000000000, 0.0000000000, 0.0000000000, 0.0000000000, -0.0000000000, -0.3798828125, 0.1701660156, 0.3754882812, 0.2352294922, 0.1495361328, -0.0000000000, 0.0000000000, -0.2722167969, 0.4072265625, -0.2453613281, -0.0000000000, -0.2248535156, 0.0000000000, -0.0000000000, -0.0000000000, -0.1657714844, -0.3725585938, 0.3002929688, 0.0000000000, 0.0000000000, 0.0000000000, 0.0000000000, 0.3046875000, 0.1865234375, -0.0000000000, 0.0000000000, 0.0000000000, -0.0000000000, 0.4060058594, 0.3537597656, -0.0000000000, -0.0000000000, -0.2766113281, 0.3059082031, -0.0000000000, -0.0000000000, -0.0000000000, 0.0000000000, -0.2226562500, -0.0000000000, 0.4960937500, -0.0000000000, -0.0000000000, 0.0000000000, 0.0000000000, 0.2208251953, -0.0000000000, 0.3222656250, -0.5112304688, 0.3247070312, 0.4055175781, 0.0000000000, 0.0000000000, -0.3022460938, 0.3127441406, 0.1766357422, -0.0000000000, 0.4294433594, 0.0000000000, -0.0000000000, 0.0000000000, -0.2320556641, 0.3698730469, 0.0000000000, 0.3425292969, 0.0000000000, -0.0000000000, -0.0000000000, 0.0000000000, 0.3771972656, -0.1970214844, -0.2714843750, 0.0000000000, 0.0000000000, -0.1650390625, -0.0000000000, -0.0000000000, -0.0000000000, -0.0000000000, -0.0000000000, 0.0000000000, 0.0000000000, 0.0000000000, 0.2668457031, -0.0000000000, 0.3894042969, -0.2927246094, -0.0000000000, 0.3037109375, 0.2275390625, 0.0000000000, -0.0000000000, 0.4521484375, -0.1389160156, 0.3530273438, 0.2199707031, 0.0000000000, 0.2536621094, 0.0000000000, 0.0000000000, -0.0000000000, -0.0000000000, 0.0000000000, -0.0000000000, 0.2907714844, 0.2626953125, -0.3115234375, 0.3054199219, 0.0000000000, 0.1909179688, -0.2260742188, -0.0000000000, -0.2980957031, 0.0000000000, -0.0000000000, -0.2580566406, -0.0000000000, -0.0000000000, -0.0000000000, -0.0000000000, 0.0000000000, 0.0000000000, 0.5458984375, 0.1805419922, -0.1927490234, -0.2094726562, -0.2592773438, -0.0000000000, 0.0000000000, 0.2355957031, 0.2824707031, -0.0000000000, -0.0000000000, -0.0000000000, -0.4152832031, -0.0000000000, -0.0000000000, 0.0000000000, 0.0000000000, -0.0000000000, -0.0000000000, -0.3151855469, 0.4433593750, -0.2839355469, 0.1772460938, 0.3242187500, -0.3898925781, 0.1430664062, -0.0000000000, -0.2592773438, 0.1718750000, -0.2009277344, -0.0000000000, 0.3369140625, -0.0000000000, 0.0000000000, -0.0000000000, -0.0000000000, 0.0000000000, 0.1398925781, 0.3293457031, 0.0000000000, 0.2595214844, -0.3159179688, 0.1612548828, 0.2044677734, 0.0000000000, -0.0000000000, -0.3276367188, -0.0000000000, 0.0000000000, 0.4069824219, -0.0000000000, -0.4328613281, 0.0000000000, 0.3107910156, 0.0000000000, 0.3581542969, 0.0000000000, 0.2561035156, 0.3432617188, 0.0000000000, -0.0000000000, -0.0000000000, 0.2271728516, 0.2241210938, 0.0000000000, -0.0000000000, 0.0000000000, -0.3605957031, 0.1590576172, -0.0000000000, 0.0000000000, -0.3808593750, -0.0000000000, -0.0000000000, -0.0000000000, -0.0000000000, 0.0000000000, -0.1910400391, -0.4328613281, 0.2258300781, 0.0000000000, 0.3752441406, -0.0000000000, 0.3112792969, 0.3237304688, -0.0000000000, -0.0000000000, 0.0000000000, 0.4829101562, -0.0000000000, 0.0000000000, 0.2285156250, 0.4621582031, 0.2875976562, -0.0000000000, 0.0000000000, 0.4775390625, 0.1607666016, 0.0000000000, -0.0000000000, 0.0000000000, -0.0000000000, 0.0000000000, -0.0000000000, 0.0000000000, -0.1490478516, 0.2895507812, -0.0000000000, 0.0000000000, -0.0000000000, 0.0000000000, -0.0000000000, -0.1612548828, 0.0000000000, 0.0000000000, -0.2524414062, -0.0000000000, -0.3806152344, -0.0000000000, -0.0000000000, 0.1676025391, 0.0000000000, -0.0000000000, 0.3215332031, -0.3010253906, -0.0000000000, -0.0000000000, 0.3632812500, 0.0000000000, -0.0000000000, 0.2214355469, -0.2402343750, 0.2609863281, -0.0000000000, 0.1458740234, -0.1668701172, 0.0000000000, -0.1684570312, -0.1632080078, -0.0000000000, -0.2922363281, -0.2377929688, 0.0000000000, 0.3471679688, 0.0000000000, -0.0000000000, -0.2341308594, 0.4199218750, -0.2768554688, -0.0000000000, -0.4824218750, 0.0000000000, 0.0000000000, 0.1683349609, 0.2033691406, -0.0000000000, -0.2961425781, -0.3210449219, -0.0000000000, 0.2990722656, 0.0000000000, -0.2561035156, 0.4560546875, -0.2819824219, 0.0000000000, -0.0000000000, 0.2556152344, -0.3784179688, -0.1800537109, -0.4450683594, -0.0000000000, 0.2285156250, 0.1385498047, -0.1119384766, -0.2281494141, 0.2451171875, -0.5346679688, 0.1614990234, -0.2443847656, 0.0000000000, -0.1721191406, 0.3708496094, 0.0000000000, -0.2563476562, -0.4614257812, 0.0000000000, -0.0000000000, 0.0000000000, -0.0000000000, -0.0000000000, 0.0000000000, 0.0000000000, 0.0000000000, -0.0000000000, 0.0000000000, 0.4240722656, -0.0000000000, -0.2902832031, -0.3886718750, -0.0000000000, -0.3977050781, 0.1451416016, 0.4543457031, -0.0000000000, 0.3203125000, -0.0000000000, -0.0000000000, -0.0000000000, -0.3662109375, 0.0000000000, 0.2731933594, -0.0000000000, -0.0000000000, -0.0000000000, 0.0000000000, 0.0000000000, 0.2673339844, 0.2072753906, 0.2402343750, 0.5175781250, -0.0000000000, 0.4396972656, -0.0000000000, -0.1867675781, 0.0000000000, -0.0000000000, 0.0000000000, -0.0000000000, 0.0000000000, 0.3549804688, 0.0000000000, 0.3535156250, 0.0000000000, 0.0000000000, -0.0000000000, -0.2379150391, 0.1943359375, 0.2376708984, 0.5029296875, 0.0000000000, -0.0000000000, -0.1766357422, 0.0000000000, -0.0000000000, -0.2971191406, -0.2797851562, 0.1870117188, -0.2373046875, 0.2463378906, 0.5693359375, -0.0000000000, 0.5083007812, 0.0000000000, -0.0000000000, -0.1424560547, 0.0000000000, 0.0000000000, -0.3989257812, -0.0000000000, 0.3405761719, -0.0000000000, -0.0000000000, -0.0000000000, -0.0000000000, 0.0000000000, 0.0000000000, 0.3977050781, 0.4968261719, 0.0000000000, 0.0000000000, -0.2280273438, 0.0000000000, 0.0000000000, -0.4194335938, 0.3654785156, -0.0000000000, 0.0000000000, -0.0000000000, 0.0000000000, -0.1573486328, -0.0000000000, 0.3784179688, -0.0000000000, -0.4082031250, 0.2131347656, 0.3591308594, 0.1827392578, 0.0000000000, 0.4074707031, -0.0000000000, 0.0000000000, -0.0000000000, 0.0000000000, 0.0000000000, 0.0000000000, 0.2321777344, 0.1177978516, -0.0000000000, -0.0000000000, 0.5678710938, 0.2746582031, -0.4716796875, 0.0000000000, 0.1632080078, 0.2077636719, -0.0000000000, -0.0000000000, -0.0000000000, -0.3154296875, -0.5595703125, 0.1446533203, 0.0000000000, -0.1650390625, -0.3312988281, 0.1705322266, -0.1851806641, -0.0000000000, -0.3522949219, -0.0000000000, -0.3020019531, 0.0000000000, 0.3537597656, -0.1667480469, -0.0000000000, -0.0000000000, 0.3288574219, -0.1777343750, 0.4797363281, 0.0000000000, -0.1734619141, 0.3132324219, -0.0000000000, 0.3359375000, 0.2357177734, -0.0000000000, 0.0000000000, 0.0000000000, 0.0000000000, -0.0000000000, -0.0000000000, -0.2390136719, -0.2993164062, -0.4147949219, 0.0000000000, -0.3076171875, 0.0000000000, -0.1295166016, 0.0000000000, -0.0000000000, -0.0000000000, 0.1993408203, 0.0000000000, 0.0000000000, 0.4555664062, -0.2607421875, 0.2871093750, 0.0000000000, 0.5434570312, 0.0000000000, 0.1441650391, -0.0000000000, -0.0000000000, -0.0000000000, -0.0000000000, 0.0000000000, -0.0000000000, 0.1853027344, 0.0000000000, 0.2438964844, -0.0000000000, 0.0000000000, -0.0000000000, 0.3837890625, 0.3681640625, 0.3415527344, 0.3623046875, -0.2464599609, 0.1773681641, 0.0000000000, 0.0000000000, -0.0000000000, -0.0000000000, -0.5078125000, 0.0000000000, 0.0000000000, -0.2424316406, -0.3937988281, 0.2067871094, -0.0000000000, 0.4033203125, 0.0000000000, -0.0000000000, -0.0000000000, 0.0000000000, 0.5449218750, -0.0000000000, 0.0000000000, 0.3728027344, -0.0000000000, 0.0000000000, 0.0000000000, 0.0000000000, 0.0000000000, -0.2912597656, 0.0000000000, -0.2656250000, 0.0000000000, 0.0000000000, 0.1876220703, -0.0000000000, 0.2044677734, 0.2460937500, 0.2827148438, 0.2294921875, -0.3454589844, 0.0000000000, 0.0000000000, 0.3740234375, -0.3791503906, 0.0000000000, 0.0000000000, -0.0000000000, -0.1646728516, 0.0000000000, 0.1966552734, 0.1652832031, -0.0000000000, -0.0000000000, 0.2370605469, 0.1727294922, -0.0000000000, -0.0000000000, -0.2961425781, 0.2773437500, 0.2863769531, 0.2641601562, 0.0000000000, -0.0000000000, -0.0000000000, -0.1717529297, -0.0000000000, 0.0000000000, -0.4504394531, -0.0000000000, -0.0000000000, -0.0000000000, -0.5551757812, -0.0000000000, -0.3588867188, 0.2910156250, 0.0000000000, 0.1828613281, -0.2064208984, -0.0000000000, -0.2291259766, -0.3542480469, -0.0000000000, 0.1463623047, -0.4379882812, -0.2587890625, 0.0000000000, 0.2333984375, -0.0000000000, -0.0000000000, -0.1845703125, 0.0000000000, 0.0000000000, -0.2739257812, 0.0000000000, 0.3977050781, 0.0000000000, 0.3395996094, -0.0000000000, 0.2636718750, 0.4467773438, 0.5053710938, -0.1442871094, -0.0000000000, 0.1661376953, 0.1324462891, 0.0000000000, 0.4392089844, 0.0000000000, 0.0000000000, -0.0000000000, -0.2391357422, 0.0000000000, -0.4133300781, -0.2023925781, 0.0000000000, 0.0000000000, 0.1699218750, 0.0000000000, 0.0000000000, 0.0000000000, 0.2570800781, 0.4824218750, 0.3593750000, 0.0000000000, 0.2337646484, -0.4125976562, -0.0000000000, -0.3117675781, 0.0000000000, 0.4113769531, -0.5000000000, -0.0000000000, 0.0000000000, -0.0000000000, 0.2485351562, -0.0000000000, 0.0000000000, -0.2274169922, -0.0000000000, 0.0000000000, -0.0000000000, 0.0000000000, 0.0000000000, 0.0000000000, -0.1892089844, 0.0000000000, 0.2374267578, -0.2814941406, -0.0000000000, -0.2976074219, -0.1835937500, -0.0000000000, 0.0000000000, -0.0000000000, 0.1723632812, -0.0000000000, 0.3486328125, 0.2993164062, -0.0000000000, -0.0000000000, 0.0000000000, -0.0000000000, 0.0000000000, -0.0000000000, -0.0000000000, -0.0000000000, 0.1968994141, -0.2237548828, 0.0000000000, 0.2382812500, -0.0000000000, -0.2440185547, 0.0000000000, -0.0000000000, -0.3466796875, 0.0000000000, -0.0000000000, -0.0000000000, 0.0000000000, 0.2856445312, 0.4394531250, 0.2526855469, -0.2609863281, -0.0000000000, -0.0000000000, -0.2890625000, 0.2880859375, -0.0000000000, -0.1643066406, -0.2349853516, -0.0000000000, 0.3261718750, -0.2104492188, -0.0000000000, -0.1998291016, -0.1927490234, -0.0000000000, 0.0000000000, -0.0000000000, 0.2800292969, -0.3876953125, -0.1751708984, -0.2354736328, -0.4445800781, -0.2158203125, -0.0000000000, 0.1862792969, 0.2797851562, -0.0000000000, -0.0000000000, -0.2272949219, 0.2065429688, 0.0000000000, 0.3747558594, -0.0000000000, 0.2196044922, 0.0000000000, -0.0000000000, -0.2565917969, 0.2697753906, 0.2971191406, 0.2170410156, -0.1839599609, 0.2749023438, -0.1978759766, -0.2322998047, 0.2963867188, -0.0000000000, -0.0000000000, -0.0000000000, -0.3439941406, -0.1845703125, -0.0000000000, 0.3288574219, 0.3347167969, 0.0000000000, 0.4343261719, -0.3444824219, -0.2247314453, 0.0000000000, -0.0000000000, 0.2313232422, 0.0000000000, -0.2075195312, -0.0000000000, -0.2271728516, 0.3942871094, 0.3503417969, 0.2504882812, 0.0000000000, 0.0000000000, 0.0000000000, -0.3256835938, 0.0000000000, -0.0000000000, 0.2961425781, 0.3142089844, 0.0000000000, 0.0000000000, 0.0000000000, -0.2792968750, -0.0000000000, -0.0000000000, -0.4260253906, 0.2949218750, 0.0000000000, -0.0000000000, -0.5664062500, -0.3415527344, 0.0000000000, 0.1590576172, 0.0000000000, -0.0000000000, 0.1857910156, 0.0000000000, -0.0000000000, -0.0000000000, -0.1746826172, -0.3344726562, 0.3862304688, -0.2443847656, 0.0000000000, 0.0000000000, 0.0000000000, 0.0000000000, 0.4968261719, -0.0000000000, 0.0000000000, 0.3437500000, -0.0000000000, 0.0000000000, -0.4299316406, -0.2248535156, -0.0000000000, -0.0000000000, -0.4670410156, -0.0000000000, 0.5336914062, 0.0000000000, -0.2690429688, -0.2071533203, 0.1394042969, 0.0000000000, -0.2763671875, -0.0000000000, -0.0000000000, 0.0000000000, 0.5302734375, -0.0000000000, 0.0000000000, -0.2244873047, -0.0000000000, 0.2883300781, 0.3027343750, 0.2553710938, 0.2570800781, -0.0000000000, 0.0000000000, 0.0000000000, 0.5639648438, 0.0000000000, -0.1577148438, 0.0000000000, -0.6206054688, 0.2778320312, -0.0000000000, -0.0000000000, 0.0000000000, 0.0000000000, -0.2001953125, -0.0000000000, -0.2768554688, -0.1190185547, -0.1979980469, 0.3898925781, 0.0000000000, 0.0000000000, -0.0000000000, 0.2161865234, -0.0000000000, -0.2563476562, 0.0000000000, 0.1910400391, 0.0000000000, -0.0000000000, 0.1926269531, -0.2484130859, 0.0000000000, -0.0000000000, 0.0000000000, -0.0000000000, 0.2382812500, 0.0000000000, 0.4028320312, -0.5073242188, -0.0000000000, -0.3129882812, 0.4685058594, 0.3569335938, -0.2556152344, 0.0000000000, -0.2318115234, -0.0000000000, -0.0000000000, 0.0000000000, -0.0000000000, -0.0000000000, 0.1560058594, -0.2687988281, 0.1669921875, 0.6621093750, 0.0000000000, 0.0000000000, -0.2307128906, 0.0000000000, -0.3681640625, -0.3657226562, -0.3488769531, -0.4931640625, 0.2312011719, -0.0000000000, 0.0000000000, -0.2445068359, 0.3342285156, 0.0000000000, 0.3027343750, 0.0000000000, -0.0000000000, -0.0000000000, 0.1772460938, -0.1520996094, 0.3146972656, 0.4047851562, 0.3481445312, -0.2246093750, 0.2087402344, -0.2182617188, -0.3422851562, 0.1914062500, 0.1697998047, 0.2980957031, -0.0000000000, 0.2408447266, 0.0000000000, -0.2087402344, 0.0000000000, -0.4484863281, 0.2033691406, -0.2270507812, -0.3154296875, -0.0000000000, -0.1729736328, -0.0000000000, 0.0000000000, -0.0000000000, -0.0000000000, 0.0000000000, 0.0000000000, -0.0000000000, -0.1977539062, -0.3293457031, -0.2124023438, -0.0000000000, -0.0000000000, 0.0000000000, -0.3803710938, -0.0000000000, 0.0000000000, -0.3178710938, 0.3144531250, 0.4196777344, 0.2907714844, -0.2283935547, -0.0000000000, 0.2083740234, -0.0000000000, 0.3012695312, 0.3015136719, -0.0000000000, -0.1934814453, -0.2105712891, -0.0000000000, 0.1877441406, -0.2138671875, -0.0000000000, 0.0000000000, -0.0000000000, -0.0000000000, 0.2729492188, 0.0000000000, 0.0000000000, 0.0000000000, -0.1970214844, -0.0000000000, -0.0000000000, -0.2585449219, 0.0000000000, -0.2756347656, 0.2056884766, -0.0000000000, -0.0000000000, 0.3728027344, 0.2385253906, 0.0000000000, 0.5083007812, -0.0000000000, -0.1755371094, 0.3217773438, 0.1813964844, -0.4165039062, 0.3830566406, 0.2353515625, -0.3684082031, 0.0000000000, -0.4489746094, -0.2235107422, -0.0000000000, -0.3168945312, -0.0000000000, 0.0000000000, -0.0000000000, 0.0000000000, 0.0000000000, -0.0000000000, -0.2379150391, 0.4140625000, -0.0000000000, -0.3427734375, 0.0000000000, -0.1890869141, 0.1568603516, -0.3732910156, 0.2875976562, 0.0000000000, 0.0000000000, -0.4106445312, 0.3442382812, -0.3732910156, -0.2239990234, -0.3146972656, -0.0000000000, 0.0000000000, 0.4255371094, -0.4785156250, 0.0000000000, -0.0000000000, -0.3129882812, 0.0000000000, -0.0000000000, -0.2117919922, 0.1595458984, 0.1917724609, 0.0000000000, 0.0000000000, -0.2770996094, -0.1728515625, -0.0000000000, -0.0000000000, -0.0000000000, 0.1821289062, 0.0000000000, -0.3164062500, -0.0000000000, 0.6181640625, -0.0000000000, 0.0000000000, 0.0000000000, 0.1702880859, -0.4143066406, -0.1584472656, 0.0000000000, -0.0000000000, -0.0000000000, 0.0000000000, 0.3110351562, 0.2746582031, 0.0000000000, 0.0000000000, -0.3210449219, 0.3076171875, 0.3017578125, 0.0000000000, 0.3264160156, 0.0000000000, 0.0000000000, 0.3378906250, 0.0000000000, -0.2890625000, 0.0000000000, -0.0000000000, 0.2380371094, -0.0000000000, 0.2761230469, 0.3295898438, -0.1823730469, 0.0000000000, -0.0000000000, -0.2973632812, 0.3500976562, 0.0000000000, 0.0000000000, 0.0000000000, 0.4304199219, -0.0000000000, -0.1578369141, 0.1834716797, 0.2222900391, 0.1871337891, -0.0000000000, 0.0000000000, -0.3085937500, 0.4152832031, 0.1375732422, -0.0000000000, -0.0000000000, -0.2995605469, 0.0000000000, 0.4304199219, -0.1607666016, 0.1931152344, 0.0000000000, -0.0000000000, -0.0000000000, -0.0000000000, 0.2406005859, 0.3254394531, 0.1895751953, 0.0000000000, -0.0000000000, -0.1726074219, -0.0000000000, 0.0000000000, -0.3444824219, -0.2224121094, -0.1920166016, -0.2878417969, -0.1937255859, -0.3044433594, -0.0000000000, 0.3364257812, 0.3740234375, -0.0000000000, -0.0000000000, -0.0000000000, 0.0000000000, 0.1834716797, 0.2800292969, 0.1296386719, 0.2834472656, 0.0000000000, -0.4675292969, -0.0000000000, 0.1090087891, -0.0000000000, -0.0000000000, -0.4331054688, -0.0000000000, -0.1511230469, 0.3269042969, 0.0000000000, -0.0000000000, -0.0000000000, 0.2902832031, -0.2174072266, -0.3583984375, -0.3322753906, -0.0000000000, -0.0000000000, 0.5297851562, 0.2309570312, -0.0000000000, -0.0000000000, 0.0000000000, 0.0000000000, 0.0000000000, 0.0000000000, 0.1732177734, 0.1914062500, 0.3637695312, -0.0000000000, 0.0000000000, -0.0000000000, -0.3796386719, -0.0000000000, 0.3215332031, 0.1589355469, -0.0000000000, 0.2354736328, -0.0000000000, 0.1572265625, -0.0000000000, 0.0000000000, -0.5122070312, -0.1530761719, 0.2507324219, 0.4289550781, -0.1700439453, -0.4528808594, 0.0000000000, -0.1828613281, -0.0000000000, 0.0000000000, -0.0000000000, 0.1496582031, 0.1618652344, 0.0000000000, 0.2067871094, -0.2612304688, 0.0000000000, 0.2839355469, -0.2113037109, 0.0000000000, 0.1806640625, 0.4096679688, 0.0000000000, -0.0000000000, -0.4711914062, 0.1441650391, -0.0000000000, 0.0000000000, 0.0000000000, -0.0000000000, -0.3762207031, 0.0000000000, 0.0000000000, -0.3906250000, 0.1818847656, 0.3249511719, 0.0000000000, -0.0000000000, -0.1789550781, -0.0000000000, 0.1978759766, 0.0000000000, -0.2088623047, -0.0000000000, 0.0000000000, -0.0000000000, 0.0000000000, -0.0000000000, -0.0000000000, 0.2095947266, -0.0000000000, -0.2602539062, 0.0000000000, -0.0000000000, 0.1854248047, 0.4604492188, 0.1540527344, -0.4211425781, -0.2392578125, -0.2012939453, 0.0000000000, -0.1621093750, 0.3808593750, 0.0000000000, -0.0000000000, 0.3942871094, -0.5097656250, 0.1446533203, 0.1672363281, 0.2534179688, -0.0000000000, -0.0000000000, -0.0000000000, 0.2248535156, -0.2756347656, -0.0000000000, 0.0000000000, -0.3864746094, 0.2507324219, -0.0000000000, -0.0000000000, 0.0000000000, -0.1571044922, 0.0000000000, 0.3039550781};
#endif

#endif
