//Numpy array shape [128, 10]
//Min -0.234985351562
//Max 0.204467773438
//Number of zeros 0

#ifndef W19_H_
#define W19_H_

#ifndef __SYNTHESIS__
model_default_t w19[1280];
#else
model_default_t w19[1280] = {-0.1098022461, -0.0134582520, 0.0684814453, 0.0260162354, 0.0638427734, 0.0062065125, 0.1174926758, 0.0158233643, -0.2194824219, 0.0946044922, -0.0361022949, -0.0086593628, -0.0146102905, -0.0976562500, -0.0492553711, 0.0218658447, -0.0842895508, 0.0944824219, 0.0950317383, 0.0800781250, 0.1124267578, -0.1192626953, 0.0770874023, -0.0633544922, -0.0751342773, -0.2139892578, 0.0756835938, 0.0231170654, -0.0545654297, -0.2160644531, 0.0769042969, -0.1818847656, -0.0557861328, 0.0915527344, -0.1915283203, 0.1082763672, -0.0316162109, -0.2138671875, -0.1732177734, -0.0420227051, 0.1944580078, 0.0125045776, -0.0693359375, -0.0209655762, 0.0617980957, 0.0679321289, -0.0504150391, 0.1204833984, 0.1717529297, 0.0545959473, -0.1314697266, -0.0649414062, -0.1439208984, -0.1331787109, -0.1329345703, -0.0261230469, -0.1077880859, -0.1200561523, -0.2166748047, -0.1459960938, 0.0563354492, -0.1752929688, -0.0624389648, -0.1312255859, -0.1091308594, 0.1461181641, -0.0508422852, -0.1136474609, -0.0512390137, -0.0235443115, -0.1914062500, 0.0117568970, -0.1593017578, -0.1766357422, -0.0549011230, -0.0523376465, -0.1855468750, 0.0767822266, 0.0079574585, 0.1612548828, 0.1740722656, -0.0919799805, -0.1950683594, 0.1203613281, -0.1378173828, -0.1090087891, 0.0330200195, -0.2044677734, 0.1462402344, -0.0581970215, 0.1397705078, 0.1595458984, 0.0544128418, 0.1668701172, 0.0863647461, -0.0279541016, -0.0756225586, -0.0585632324, 0.1853027344, 0.0635375977, 0.0622863770, 0.0794677734, -0.0213470459, 0.1646728516, -0.0979614258, -0.1210327148, -0.1763916016, -0.0164947510, -0.1523437500, -0.0116043091, -0.1917724609, -0.1832275391, -0.1118774414, 0.0324401855, -0.0416870117, -0.2103271484, -0.2043457031, 0.0375366211, -0.2191162109, -0.1018676758, -0.0132369995, 0.1798095703, -0.1171875000, -0.1009521484, 0.1744384766, -0.2246093750, -0.2200927734, 0.1545410156, -0.0083465576, -0.2216796875, 0.1184692383, 0.1028442383, -0.0895996094, -0.0077629089, -0.0856323242, 0.1685791016, 0.0511169434, -0.0774536133, 0.0005145073, -0.0366821289, -0.1495361328, -0.1690673828, -0.2067871094, 0.1855468750, 0.0503234863, -0.1604003906, 0.0381469727, -0.0649414062, -0.0386657715, 0.0367126465, -0.0704956055, -0.1497802734, -0.1505126953, -0.0009407997, -0.0617980957, 0.0683593750, 0.1037597656, -0.0466003418, -0.1236572266, 0.0424499512, -0.2066650391, 0.0148086548, 0.1488037109, 0.1425781250, 0.0601501465, -0.1927490234, -0.0698242188, 0.0833129883, -0.0476989746, -0.1037597656, 0.0063362122, -0.1185913086, -0.0722045898, -0.1772460938, -0.0685424805, 0.0073242188, 0.1616210938, 0.1367187500, 0.0525512695, -0.1368408203, -0.0517272949, 0.0337524414, -0.2056884766, -0.2008056641, 0.0589904785, -0.1975097656, 0.0455017090, -0.0715332031, 0.0154190063, 0.1140136719, -0.1862792969, 0.1544189453, -0.2025146484, -0.1512451172, 0.0907592773, 0.1621093750, 0.0917968750, -0.1907958984, -0.2021484375, 0.1303710938, -0.1896972656, -0.1794433594, -0.0112304688, -0.2159423828, -0.2084960938, -0.1442871094, 0.0168304443, -0.0310821533, -0.0205688477, 0.1496582031, 0.1291503906, -0.2202148438, -0.1618652344, -0.1137695312, 0.0703735352, 0.0352478027, -0.1132812500, -0.0059509277, 0.1821289062, -0.1771240234, 0.1829833984, -0.1888427734, -0.0932617188, -0.2270507812, -0.0839233398, -0.1441650391, -0.1774902344, 0.0223541260, -0.1396484375, 0.0270690918, -0.1014404297, -0.1192016602, -0.2028808594, -0.1755371094, -0.1008911133, -0.1374511719, -0.0345458984, -0.1263427734, -0.0358276367, 0.1846923828, -0.1329345703, 0.1876220703, -0.0305938721, -0.2192382812, -0.1960449219, 0.0753784180, -0.0001003146, -0.2031250000, -0.1900634766, -0.0127105713, 0.1755371094, 0.1585693359, 0.0714721680, 0.1690673828, -0.1319580078, 0.0191802979, 0.1239013672, -0.1981201172, -0.1643066406, 0.0714721680, 0.1323242188, 0.1831054688, 0.0241088867, -0.0974731445, -0.0852050781, 0.1784667969, -0.1046142578, -0.1068725586, -0.1112670898, -0.1601562500, -0.1748046875, 0.1730957031, -0.1534423828, -0.1076049805, 0.1602783203, 0.0362243652, -0.0218048096, 0.1241455078, 0.0347595215, 0.1511230469, 0.1334228516, 0.1363525391, -0.2070312500, -0.0771484375, 0.0784912109, -0.0551452637, -0.1200561523, 0.1838378906, -0.1973876953, -0.0122680664, -0.1412353516, -0.0191802979, 0.1383056641, -0.1580810547, 0.0425720215, -0.1944580078, -0.1811523438, 0.1667480469, 0.1130371094, 0.0671386719, -0.0903320312, 0.1442871094, 0.1263427734, -0.0312805176, -0.1496582031, 0.1365966797, -0.0834960938, -0.2199707031, 0.0398864746, -0.0980834961, 0.1968994141, 0.0075683594, -0.0212860107, -0.0066413879, 0.1761474609, -0.2241210938, -0.1929931641, -0.1077880859, 0.1075439453, -0.1309814453, -0.1104736328, -0.1186523438, 0.1854248047, 0.1711425781, 0.0706176758, 0.0618591309, -0.1156005859, -0.0758056641, -0.1802978516, -0.1534423828, -0.0698852539, -0.1708984375, -0.1837158203, -0.0385742188, 0.1312255859, -0.2175292969, -0.0503845215, 0.0004427433, -0.1122436523, -0.0681152344, -0.1730957031, 0.1424560547, -0.0084533691, 0.1071166992, 0.1455078125, -0.1094970703, 0.0683593750, 0.1026000977, -0.1987304688, 0.1771240234, 0.1790771484, 0.0925903320, -0.0648193359, 0.0623474121, -0.0897216797, -0.1163330078, 0.0786743164, -0.0232696533, 0.0357360840, -0.1809082031, 0.0251922607, -0.0977172852, 0.0861816406, -0.1004638672, 0.0683593750, -0.0833740234, -0.1567382812, 0.1096191406, 0.1354980469, 0.1500244141, -0.1090087891, -0.0647583008, -0.1840820312, 0.1491699219, -0.0427246094, -0.2114257812, -0.0048713684, 0.1540527344, 0.0518188477, -0.0772705078, -0.0092697144, 0.0212402344, 0.0697021484, 0.0677490234, 0.1186523438, -0.0534973145, 0.1840820312, -0.0572509766, -0.1697998047, 0.1124267578, -0.1004028320, -0.1248779297, -0.0676269531, -0.0765991211, 0.1143188477, 0.1694335938, 0.1451416016, -0.1416015625, 0.1914062500, 0.1531982422, -0.0826416016, -0.0933837891, -0.1929931641, -0.2021484375, -0.1562500000, -0.1386718750, -0.0199584961, 0.0127792358, -0.1320800781, 0.1467285156, -0.0882568359, -0.1457519531, -0.0379638672, 0.1131591797, -0.0700683594, -0.1158447266, 0.1639404297, -0.0357666016, 0.1367187500, -0.1437988281, 0.0687255859, -0.0535278320, 0.0014953613, 0.1119384766, -0.1636962891, -0.1694335938, 0.1405029297, -0.1756591797, -0.0201263428, 0.0248413086, 0.1212768555, -0.0572509766, -0.0603637695, 0.0643310547, 0.0889282227, 0.0355529785, -0.0049247742, 0.1023559570, -0.0789184570, -0.0838623047, 0.0314941406, 0.1630859375, 0.0383911133, -0.0631713867, -0.0026931763, -0.1293945312, -0.1766357422, 0.1661376953, 0.1602783203, -0.0382080078, 0.0562133789, 0.0779418945, -0.1779785156, -0.1889648438, 0.0870361328, -0.0141677856, -0.0451049805, 0.0696411133, -0.0836791992, -0.2194824219, -0.1791992188, 0.0496215820, -0.1614990234, -0.2349853516, -0.2070312500, 0.0114746094, 0.1121826172, -0.0193176270, 0.0380554199, 0.0238952637, 0.0658569336, 0.1855468750, 0.1111450195, 0.1771240234, 0.0612792969, -0.1407470703, 0.1881103516, 0.1158447266, -0.0155944824, -0.0311279297, -0.0004982948, 0.1776123047, -0.1363525391, 0.0220336914, 0.1610107422, 0.0731201172, -0.1745605469, -0.1430664062, -0.2022705078, -0.1085205078, -0.1054077148, -0.2003173828, 0.0339050293, 0.0282745361, -0.0932006836, 0.1727294922, -0.0797119141, -0.0085601807, -0.2076416016, -0.0812377930, 0.1947021484, 0.1745605469, 0.0957031250, -0.1556396484, -0.1184082031, -0.0026493073, 0.0583190918, -0.1798095703, -0.0654907227, 0.1249389648, 0.0916748047, 0.0145645142, -0.0933837891, -0.2310791016, 0.1026000977, 0.0222778320, -0.0606994629, 0.1693115234, -0.1894531250, 0.0367431641, 0.0829467773, 0.1800537109, -0.1949462891, -0.0362854004, 0.1539306641, 0.0286407471, -0.1970214844, 0.0060806274, 0.0438232422, 0.0756835938, 0.0005612373, -0.1593017578, 0.1853027344, -0.2216796875, 0.0370483398, -0.0951538086, 0.1264648438, 0.1621093750, 0.0379638672, 0.1501464844, 0.1356201172, -0.1995849609, -0.1228027344, 0.1625976562, -0.0447082520, 0.1358642578, -0.1907958984, -0.0007438660, -0.1617431641, 0.1067504883, 0.1699218750, -0.1934814453, -0.0019645691, 0.1246948242, 0.0739135742, -0.2133789062, 0.0975341797, -0.0735473633, 0.1500244141, -0.0196533203, 0.0617065430, -0.0500183105, 0.0996093750, 0.0167541504, 0.0758666992, 0.0953369141, 0.0118560791, -0.2148437500, 0.0015220642, 0.1378173828, -0.0317687988, 0.1236572266, -0.1373291016, -0.1999511719, -0.2026367188, 0.1296386719, 0.1520996094, -0.1574707031, 0.1802978516, 0.1582031250, 0.0665893555, -0.0792846680, 0.1624755859, -0.1506347656, -0.2086181641, -0.0126342773, -0.2169189453, 0.0902099609, -0.2127685547, -0.0336303711, -0.1140747070, -0.1163330078, -0.0463256836, -0.0177307129, 0.0025806427, -0.1151123047, 0.0809326172, 0.0048522949, 0.1074829102, -0.1895751953, -0.2044677734, 0.1341552734, 0.2003173828, -0.1121215820, -0.0727539062, -0.2089843750, -0.1815185547, -0.0601196289, 0.0993041992, -0.0803222656, -0.0644531250, 0.1066284180, -0.1834716797, 0.1481933594, -0.1802978516, 0.0014152527, 0.0243072510, -0.2199707031, -0.1972656250, 0.0509338379, 0.0452880859, 0.0490112305, -0.0267639160, -0.1270751953, -0.0900878906, -0.0872802734, -0.1480712891, -0.0898437500, -0.2021484375, -0.2177734375, 0.0118331909, -0.2159423828, 0.0523071289, 0.1862792969, -0.1635742188, -0.1801757812, 0.0315551758, 0.0784912109, 0.1647949219, 0.1502685547, 0.1955566406, 0.1859130859, 0.1658935547, -0.0040855408, 0.0186309814, -0.0595092773, -0.2102050781, 0.0172271729, -0.0136718750, -0.0467834473, -0.2076416016, -0.1724853516, 0.0373840332, 0.0928955078, -0.0221252441, -0.0250091553, 0.1352539062, 0.0563049316, -0.1719970703, -0.1765136719, -0.1588134766, 0.0311737061, -0.1422119141, -0.0199737549, -0.0155563354, -0.0400390625, -0.0789794922, 0.1678466797, 0.1385498047, 0.1829833984, 0.1387939453, -0.2025146484, 0.2003173828, -0.0926513672, 0.0824584961, -0.2312011719, 0.1828613281, 0.1307373047, 0.0387573242, 0.1258544922, 0.0438842773, -0.1248168945, -0.0025119781, 0.1702880859, 0.0353393555, -0.0584716797, 0.0675048828, -0.0646972656, -0.1690673828, -0.1409912109, 0.1010131836, -0.1380615234, 0.1835937500, 0.1152343750, -0.0645141602, 0.0429992676, -0.1158447266, 0.1588134766, 0.0328369141, 0.0423278809, -0.1671142578, -0.1739501953, 0.0071754456, -0.0341186523, 0.1013183594, -0.1039428711, 0.1895751953, 0.1002197266, -0.1657714844, 0.0488891602, 0.1667480469, 0.0589599609, -0.1069335938, -0.2075195312, 0.0917358398, 0.1582031250, -0.0000399351, -0.1915283203, -0.0003998280, -0.0566406250, -0.0588989258, -0.1931152344, 0.1566162109, -0.0730590820, 0.1798095703, 0.0438232422, -0.0597229004, -0.0608215332, 0.1627197266, 0.0169219971, -0.1810302734, -0.0745239258, -0.1831054688, -0.0716552734, 0.0986938477, 0.1760253906, -0.0747680664, -0.2230224609, -0.1205444336, -0.1291503906, -0.0321350098, -0.0868530273, 0.0039043427, -0.2110595703, -0.1857910156, 0.0845947266, -0.1707763672, 0.0940551758, -0.2138671875, 0.1490478516, -0.1889648438, 0.0252990723, -0.0727539062, -0.1873779297, 0.0531005859, 0.0181121826, 0.0287475586, 0.1224365234, 0.0806884766, -0.1436767578, -0.1968994141, -0.0791015625, 0.0263519287, 0.0105361938, -0.0698242188, 0.0418395996, -0.2221679688, -0.2200927734, -0.1994628906, -0.2019042969, -0.0778808594, 0.1650390625, -0.0928344727, 0.0890502930, 0.1172485352, 0.1534423828, -0.0066337585, -0.2218017578, 0.1282958984, 0.1717529297, 0.1381835938, 0.0714721680, 0.1724853516, -0.1303710938, -0.1634521484, -0.0555725098, 0.1732177734, -0.2003173828, -0.2128906250, -0.0458984375, -0.0493774414, 0.0153045654, -0.0839843750, 0.1248779297, -0.2307128906, -0.2260742188, -0.1901855469, -0.0784301758, -0.0123672485, 0.0109405518, 0.0553588867, -0.1202392578, -0.1502685547, -0.1738281250, -0.1173095703, -0.0629882812, 0.0537719727, -0.0066871643, -0.1099853516, 0.0689086914, -0.1499023438, 0.0107574463, 0.1019897461, -0.1550292969, 0.0989379883, 0.1778564453, -0.1461181641, -0.1324462891, -0.1019897461, 0.1580810547, -0.1489257812, 0.1915283203, 0.0491638184, -0.1484375000, -0.2043457031, 0.0772094727, 0.1590576172, -0.1029663086, -0.0528259277, 0.1710205078, 0.1074829102, 0.0349731445, 0.0294494629, 0.0870971680, 0.1067504883, -0.1229858398, -0.1890869141, -0.0585327148, 0.1801757812, 0.0339965820, 0.0050354004, -0.1444091797, -0.1650390625, -0.1225585938, 0.0251770020, 0.1405029297, -0.0609436035, 0.1423339844, -0.0638427734, -0.1442871094, 0.2044677734, 0.1318359375, 0.0715332031, 0.0086593628, -0.1562500000, -0.1806640625, 0.0161743164, 0.0708007812, 0.0890502930, -0.1373291016, 0.0581359863, 0.1866455078, -0.1568603516, -0.1811523438, -0.1057128906, 0.0646972656, 0.1673583984, 0.0848388672, 0.0329589844, -0.1530761719, -0.1169433594, -0.1254882812, 0.0325317383, -0.0370178223, 0.0717163086, 0.1469726562, -0.1739501953, -0.1727294922, -0.0011558533, 0.0627441406, -0.1258544922, 0.0025100708, -0.1375732422, -0.0302734375, -0.0816650391, -0.1535644531, 0.1464843750, -0.1796875000, 0.0051002502, 0.0748901367, 0.0802001953, 0.1390380859, -0.2005615234, 0.0697021484, 0.1394042969, -0.1412353516, 0.1589355469, -0.0071563721, 0.0101318359, -0.2152099609, -0.0996093750, 0.1937255859, 0.1122436523, 0.0191650391, -0.1677246094, -0.0046882629, 0.1433105469, -0.0635986328, -0.0986938477, -0.0805664062, -0.1867675781, 0.0563659668, -0.1166992188, 0.1549072266, -0.0558166504, -0.1216430664, 0.1667480469, -0.1495361328, -0.1271972656, -0.0678100586, -0.1420898438, 0.1311035156, 0.1591796875, 0.1488037109, -0.0415344238, -0.2315673828, -0.1955566406, 0.0075035095, 0.0839843750, -0.1023559570, -0.0883178711, -0.1157226562, -0.0511474609, 0.1138305664, -0.0192718506, -0.2246093750, 0.0399780273, -0.0098724365, 0.0581970215, -0.2044677734, 0.1647949219, 0.1145629883, 0.0830688477, 0.0985717773, -0.0957641602, -0.1749267578, 0.1878662109, -0.1665039062, 0.0183258057, 0.0600585938, 0.1395263672, -0.1638183594, 0.0739746094, -0.1710205078, 0.1550292969, -0.0110168457, -0.0713500977, -0.1251220703, -0.0605163574, 0.1148681641, -0.0918579102, 0.0874023438, 0.0085449219, 0.1423339844, -0.1677246094, -0.0218353271, -0.1789550781, 0.0908203125, 0.1097412109, -0.1098022461, -0.0343017578, 0.0448303223, -0.1577148438, 0.0992431641, -0.0249023438, 0.0464782715, -0.0779418945, 0.1630859375, -0.0955810547, -0.0960693359, 0.0424804688, 0.0958251953, -0.0499877930, 0.1409912109, -0.1818847656, -0.0404663086, -0.1108398438, -0.0424499512, -0.0074386597, 0.1490478516, 0.1859130859, -0.1807861328, 0.1078491211, -0.0525207520, -0.1389160156, 0.0875244141, -0.0370483398, 0.0709838867, -0.2199707031, -0.0812988281, 0.1944580078, 0.0408630371, -0.0789184570, -0.2003173828, -0.0119094849, 0.0030918121, -0.0117568970, -0.2098388672, 0.0846557617, -0.0154342651, 0.0385131836, 0.1383056641, -0.0717163086, -0.0478210449, 0.1400146484, -0.1093139648, 0.0805664062, -0.1630859375, 0.0978393555, 0.0126647949, 0.0860595703, -0.0079879761, -0.0337829590, 0.0133666992, -0.0239868164, -0.0724487305, -0.0866699219, 0.1582031250, 0.1358642578, -0.2268066406, -0.0848999023, -0.0762329102, 0.0501403809, 0.0145111084, -0.0336303711, -0.1133422852, 0.0645751953, 0.1168212891, -0.0158081055, -0.0186614990, -0.1599121094, -0.1593017578, 0.1372070312, -0.0137634277, -0.0597229004, -0.1855468750, 0.1082763672, -0.0679321289, 0.0149993896, -0.1879882812, -0.0628662109, 0.0889892578, -0.2027587891, 0.1125488281, -0.1039428711, -0.1921386719, 0.0969238281, 0.1580810547, -0.0625000000, 0.0312194824, 0.1623535156, 0.0201110840, -0.1248779297, -0.2290039062, 0.1477050781, -0.1768798828, 0.1162719727, 0.0717163086, -0.2248535156, 0.1390380859, -0.0528259277, 0.1325683594, -0.0242919922, -0.2075195312, 0.0533752441, 0.1212158203, -0.1055908203, 0.0117263794, 0.0698242188, -0.0637817383, -0.2065429688, -0.1911621094, -0.0518493652, 0.1547851562, -0.0129852295, -0.1346435547, -0.0941772461, -0.0407104492, -0.1225585938, -0.0421142578, -0.1744384766, -0.1224975586, -0.1501464844, -0.2325439453, 0.1646728516, 0.0973510742, -0.0676269531, 0.1685791016, 0.0188751221, -0.0556945801, 0.1010131836, -0.0531005859, 0.0387573242, -0.0315551758, -0.0504455566, -0.2308349609, 0.1507568359, -0.0878295898, 0.1812744141, 0.0683593750, -0.1817626953, -0.0414428711, 0.0601196289, -0.0268249512, 0.0998535156, 0.1126708984, -0.0469055176, -0.2189941406, 0.0230560303, 0.0864868164, -0.1589355469, 0.1607666016, -0.0001410246, -0.0320739746, 0.1582031250, 0.0866088867, 0.0172882080, -0.0729980469, -0.1624755859, -0.1973876953, -0.1374511719, -0.1645507812, -0.1644287109, 0.1063842773, 0.1540527344, 0.1101074219, 0.1279296875, -0.0229492188, 0.0162200928, -0.1992187500, 0.0034217834, -0.2159423828, 0.1284179688, 0.1336669922, -0.0578308105, -0.1000976562, 0.0848999023, 0.0935668945, 0.0319824219, -0.0345458984, -0.0268249512, -0.1373291016, -0.1862792969, 0.1284179688, 0.1623535156, 0.0747070312, 0.1394042969, -0.1765136719, -0.1787109375, 0.0950927734, -0.1746826172, -0.1821289062, 0.0504455566, -0.2226562500, 0.0333862305, 0.0625000000, 0.0232543945, -0.0646972656, 0.1192626953, 0.1768798828, 0.1433105469, -0.1189575195, 0.1989746094, 0.0730590820, -0.1278076172, 0.1226806641, -0.0827026367, 0.1226196289, -0.1473388672, -0.0750732422, -0.1561279297, 0.0029850006, -0.0927124023, 0.1680908203, -0.0705566406, -0.0335998535, -0.1906738281, 0.0296020508, -0.1073608398, 0.0195617676, -0.1131591797, 0.0685424805, 0.1855468750, 0.0573425293, 0.0318298340, -0.0492858887, 0.0208892822, -0.0329284668, -0.0513305664, -0.1035766602, 0.0317077637, -0.1867675781, -0.1702880859, -0.2142333984, -0.1544189453, 0.0524291992, 0.1884765625, -0.1092529297, -0.2132568359, 0.0997314453, 0.1401367188, 0.0068664551, -0.1174316406, -0.0481567383, 0.0265502930, -0.1040039062, 0.0933227539, -0.1193847656, 0.0864868164, 0.0233917236, -0.1419677734, -0.2097167969, -0.1826171875, -0.0596313477, 0.0078887939, -0.1882324219, -0.1258544922, 0.1203613281, -0.2022705078, -0.0826416016, -0.1234741211, -0.1894531250, 0.1522216797, -0.1248779297, -0.1770019531, -0.1904296875, -0.1109008789, -0.0797119141, 0.0997314453, -0.1636962891, 0.1604003906, -0.1459960938, 0.0858764648, 0.0702514648, 0.0985107422, -0.0483703613, -0.0090484619, 0.1656494141, 0.0668334961, 0.0078201294, 0.1114501953, -0.0230560303, -0.0624389648, 0.0525512695, 0.0095214844, -0.0838623047, 0.0910034180, 0.0440673828, -0.0874023438, -0.1776123047, -0.0724487305, 0.1885986328, 0.1947021484, -0.1937255859, -0.2229003906, -0.0606994629, -0.1435546875, -0.0390319824, 0.0372619629, 0.0524597168, 0.0477294922, 0.1860351562, -0.1357421875, -0.0486755371, -0.1666259766, 0.1151733398, 0.1057128906, 0.0538330078, -0.2231445312, -0.1571044922};
#endif

#endif
