//Numpy array shape [8192, 10]
//Min -0.335449218750
//Max 0.276855468750
//Number of zeros 0

#ifndef W20_H_
#define W20_H_

#ifndef __SYNTHESIS__
model_default_t w20[81920];
#else
model_default_t w20[81920] = {0.0456542969, -0.0003883839, 0.0348815918, -0.0148010254, -0.0546875000, 0.0135803223, 0.0047607422, 0.0085525513, -0.0351867676, 0.0071334839, -0.2135009766, 0.0912475586, 0.0870361328, 0.0300903320, 0.0429382324, 0.0395202637, -0.0531311035, -0.0060272217, 0.0263977051, -0.1130981445, -0.1029052734, 0.0679931641, 0.0524597168, 0.0546875000, -0.0655517578, 0.0536804199, 0.0739746094, -0.0842285156, 0.0038490295, -0.0462036133, -0.1044311523, -0.1195678711, 0.0168762207, 0.0323486328, 0.0186614990, 0.0805053711, -0.0366210938, 0.0609436035, -0.0735473633, 0.0587463379, 0.0411071777, 0.0312805176, 0.0605163574, 0.0437011719, -0.0796508789, 0.0177612305, 0.0032730103, 0.0924072266, -0.0378723145, -0.0027122498, 0.0087738037, 0.0159912109, 0.0313720703, -0.0150604248, 0.0022678375, 0.0534973145, 0.0004823208, -0.0430908203, 0.0635986328, -0.0723876953, -0.1154174805, 0.1298828125, 0.0853271484, 0.0615234375, 0.0165100098, 0.0042686462, 0.0661010742, -0.0518493652, -0.1549072266, -0.0480041504, -0.0514221191, 0.0036869049, -0.1221313477, 0.0704956055, 0.0664672852, 0.0127868652, -0.0023212433, 0.0449523926, 0.0126342773, -0.0080184937, -0.0494995117, 0.0575561523, 0.0015249252, 0.0401611328, -0.0088577271, 0.0511474609, 0.0569152832, -0.0755615234, -0.0814208984, -0.1002807617, 0.0908203125, -0.0166473389, 0.0341796875, 0.0695800781, -0.0226745605, -0.0459594727, 0.0373535156, -0.0751953125, -0.0139923096, -0.0648193359, -0.1704101562, -0.0823364258, 0.0892333984, -0.0317687988, -0.0181884766, -0.0182647705, -0.0142898560, 0.1400146484, 0.0764160156, -0.0682983398, 0.0517578125, 0.1364746094, -0.0540161133, 0.0392150879, -0.0539245605, 0.0226745605, -0.0029754639, 0.0225524902, -0.1793212891, -0.0772705078, -0.0697021484, 0.0241546631, 0.0786132812, -0.0065689087, 0.0087585449, -0.0148544312, -0.0250854492, -0.0234375000, 0.0092544556, -0.0326538086, 0.0886230469, -0.0247802734, -0.0376892090, 0.0521545410, -0.1099243164, 0.0439758301, -0.0302581787, 0.0250244141, -0.0377502441, -0.0579223633, -0.0778198242, -0.0209655762, 0.0631713867, 0.0212402344, -0.0263977051, 0.0389709473, -0.0237274170, -0.0703125000, 0.0596923828, -0.0345458984, 0.0919799805, -0.0846557617, -0.0204925537, -0.0364379883, 0.0255584717, -0.0299377441, -0.0516967773, -0.0115737915, 0.1745605469, -0.0097732544, 0.0020027161, 0.0188903809, -0.0069465637, 0.0226287842, 0.0592041016, -0.0845336914, -0.0411071777, 0.0228576660, 0.0059928894, 0.0190734863, 0.0061340332, 0.0283966064, 0.0174713135, 0.1068725586, -0.0105361938, -0.0909423828, -0.0765991211, 0.0833740234, -0.0700683594, 0.0263671875, 0.0457153320, -0.0704956055, 0.0676879883, -0.0673217773, -0.0304870605, -0.0507812500, -0.0068893433, -0.0306549072, 0.0817260742, 0.0052070618, 0.0855102539, 0.0213165283, -0.0819702148, -0.0765991211, 0.0546264648, -0.0797729492, 0.0076370239, 0.0607299805, 0.0139999390, 0.0979003906, -0.0093688965, 0.0546875000, -0.0601196289, -0.0561218262, 0.0328063965, 0.0181121826, 0.0048370361, 0.0634155273, -0.0594787598, -0.0210266113, -0.0167388916, 0.0307006836, -0.0481262207, -0.0009751320, 0.1363525391, 0.0434265137, -0.0189208984, -0.0780639648, -0.0206298828, -0.0314941406, -0.0735473633, -0.0121612549, -0.0001279116, 0.0623779297, -0.0470275879, 0.0672607422, 0.1025390625, -0.0599670410, -0.0619201660, -0.1188964844, -0.0157623291, 0.0148010254, -0.0314025879, 0.0128250122, 0.0100250244, 0.0552978516, -0.0104141235, 0.0067901611, -0.0773315430, 0.0148010254, -0.0128021240, -0.0057945251, 0.0087051392, -0.0342407227, 0.0581970215, 0.0490417480, 0.1308593750, -0.0380249023, -0.0048599243, -0.0226898193, 0.0187988281, 0.0357666016, -0.0805664062, 0.0105133057, 0.0498962402, -0.0368957520, -0.0520019531, 0.0602416992, -0.0328369141, 0.0612182617, 0.1431884766, 0.1013793945, -0.0196228027, -0.0097732544, -0.0316772461, -0.0728759766, -0.0350036621, 0.0051155090, -0.0620422363, -0.0209350586, -0.0049057007, -0.0642700195, 0.0826416016, -0.1026611328, -0.1211547852, 0.0187530518, 0.1315917969, -0.0169830322, 0.0649414062, 0.0213928223, -0.0209655762, 0.0973510742, -0.0480957031, -0.0297241211, -0.0135650635, 0.0720214844, -0.0387878418, 0.0408935547, -0.0438537598, 0.0248565674, -0.0517272949, 0.0587463379, -0.0229797363, 0.0149688721, 0.0138854980, 0.0089797974, -0.0445556641, 0.0790405273, -0.0164947510, 0.0661010742, -0.1010131836, 0.0176086426, 0.0338745117, -0.0852661133, -0.0159149170, 0.1093750000, 0.1297607422, 0.0148773193, 0.0096206665, -0.0742187500, -0.0367431641, 0.0195617676, 0.0113220215, -0.0117187500, 0.0601806641, -0.0605468750, -0.0112686157, -0.0075263977, 0.0269622803, 0.0035705566, -0.1761474609, 0.0015373230, 0.0599365234, 0.0350036621, 0.0794067383, -0.0623168945, 0.0209045410, -0.0036201477, -0.0105972290, -0.1682128906, 0.0685424805, -0.0300750732, 0.0017547607, -0.0041084290, 0.0100097656, -0.0193786621, 0.0139465332, -0.0558776855, 0.0125808716, 0.0372924805, 0.0532531738, 0.0975952148, 0.0179595947, 0.0499267578, -0.0516052246, 0.0490417480, -0.0389099121, -0.0473632812, -0.1044311523, -0.0081405640, 0.0155029297, 0.0364685059, 0.0285644531, 0.0402221680, -0.0086517334, 0.0115280151, -0.0975341797, -0.0567932129, -0.0425720215, 0.0346374512, -0.0706787109, -0.0062789917, 0.0034561157, 0.0701904297, 0.0189208984, -0.1063842773, 0.0057868958, 0.0567016602, 0.0004298687, 0.0219726562, -0.1429443359, 0.0197753906, 0.0536804199, -0.0543212891, -0.0241088867, 0.0391845703, 0.0560913086, -0.0974731445, 0.0706787109, -0.0339355469, -0.0077857971, 0.0811767578, -0.0404357910, 0.0635375977, 0.0084609985, -0.0532226562, 0.0175323486, 0.0179138184, 0.0410766602, -0.1268310547, -0.0271148682, -0.0074043274, 0.0122528076, 0.0806884766, -0.0292053223, 0.0142059326, 0.0688476562, -0.0595092773, -0.0140228271, -0.0562133789, -0.0164489746, 0.0419311523, 0.0210723877, 0.1089477539, -0.0647583008, -0.0361022949, -0.0194091797, 0.0369567871, -0.0360717773, 0.0214843750, -0.0336914062, -0.0066184998, 0.0227661133, 0.0937500000, -0.0683593750, -0.1085815430, -0.0950317383, 0.0854492188, 0.1137084961, 0.0058288574, -0.0257568359, 0.0376586914, 0.0266113281, -0.0586853027, 0.0552673340, -0.0352783203, -0.1306152344, 0.0858154297, 0.0603942871, -0.0075416565, 0.0520629883, -0.0545349121, 0.0081329346, 0.0100555420, -0.0513000488, 0.0836791992, -0.0220947266, -0.0602416992, 0.0020179749, -0.0844726562, -0.0189056396, -0.0145263672, 0.0039253235, -0.0762939453, 0.0711669922, 0.1133422852, 0.0286407471, 0.0136489868, -0.0006165504, -0.0566711426, -0.0374450684, -0.0252075195, 0.0306396484, 0.0236816406, 0.0402526855, 0.0382385254, 0.0390930176, 0.0536193848, -0.1057739258, -0.0610961914, -0.0326843262, -0.0228118896, 0.0641479492, -0.0240936279, -0.0249176025, 0.0143737793, 0.0096588135, 0.0477294922, -0.0401000977, -0.0033988953, 0.0386047363, 0.0073394775, 0.0053405762, -0.0083770752, 0.0228881836, -0.0204772949, -0.0325317383, -0.0444946289, 0.0692749023, 0.0351562500, -0.1206665039, 0.0113220215, 0.0807495117, -0.0018339157, 0.0819091797, 0.0000294447, 0.0334472656, -0.0424804688, -0.0655517578, -0.0317382812, -0.1175537109, 0.0290679932, 0.0264282227, -0.0260772705, -0.0926513672, 0.0501403809, 0.1077880859, 0.0612487793, -0.0505065918, 0.0063247681, 0.0991821289, -0.0359802246, 0.0570373535, -0.0679931641, -0.0822753906, -0.0248107910, -0.0867309570, -0.0969848633, 0.0783691406, 0.0626831055, -0.0166320801, 0.0746459961, 0.1205444336, -0.0135116577, -0.0882568359, -0.0917968750, 0.0631713867, 0.0072669983, -0.0839233398, 0.0455322266, 0.0251159668, -0.0389709473, 0.0045928955, -0.0493469238, 0.0645751953, 0.1464843750, 0.0513916016, -0.1241455078, 0.0402526855, -0.1019287109, 0.0278778076, 0.0338745117, 0.0631713867, -0.0428161621, -0.0581970215, -0.0667724609, -0.0540771484, -0.0416564941, 0.0891723633, 0.0487060547, -0.0269165039, 0.0875854492, -0.0375671387, 0.0421142578, 0.0388183594, -0.0058975220, -0.0219879150, 0.0436706543, 0.0033779144, -0.0989990234, 0.1065673828, -0.0729980469, -0.0003476143, -0.0052452087, 0.0758666992, 0.0401611328, -0.0102005005, -0.0520019531, -0.0871582031, -0.0291900635, 0.0650024414, -0.0115814209, 0.0336303711, 0.0311126709, -0.0230407715, -0.0659179688, -0.0188903809, 0.0173797607, 0.0243225098, -0.0025253296, 0.0238037109, -0.0234680176, 0.0058822632, -0.0031738281, 0.0011177063, -0.0556335449, 0.0293273926, -0.0288848877, 0.0429992676, 0.0160675049, 0.0241699219, 0.0674438477, -0.0397338867, -0.0028839111, -0.0659790039, -0.0386962891, -0.0520324707, 0.0507507324, 0.0536193848, 0.0036811829, -0.0123901367, 0.1188354492, -0.0353088379, 0.0231781006, 0.0566711426, 0.0022983551, 0.0563354492, -0.0573425293, -0.0971679688, -0.0044784546, -0.0087509155, -0.0819091797, -0.0258483887, -0.0457458496, 0.0401611328, 0.0038490295, -0.0559082031, 0.0389709473, 0.1531982422, -0.0466003418, -0.1160278320, 0.0230102539, -0.0460510254, 0.0240783691, 0.0000866652, 0.0510253906, -0.0435485840, 0.0648193359, -0.0525207520, -0.0121536255, 0.0248107910, -0.0277404785, 0.0375366211, -0.0230712891, 0.0030670166, -0.0284423828, 0.0141220093, 0.0344543457, -0.0348205566, 0.0422058105, -0.0395507812, 0.0153045654, 0.0196380615, 0.0421142578, 0.0587158203, -0.0043830872, -0.0327148438, -0.0135879517, 0.0051002502, 0.0066986084, -0.0456542969, -0.0758056641, -0.0188446045, 0.0187072754, -0.0034236908, -0.0018863678, 0.0289001465, 0.0624084473, -0.0552673340, 0.0472106934, 0.0353393555, -0.0574340820, -0.0132446289, 0.0127029419, -0.0024185181, -0.0456542969, -0.0520629883, 0.0184020996, 0.0861206055, 0.0518798828, -0.0366821289, -0.0803833008, 0.0490722656, -0.0196075439, -0.0762939453, 0.1574707031, 0.0352478027, -0.0357055664, -0.1271972656, 0.0200042725, 0.0739746094, 0.0283508301, 0.0639648438, -0.0794067383, 0.0160827637, -0.0709228516, -0.0750732422, 0.0332641602, 0.0933227539, -0.0139007568, 0.0141525269, -0.0201721191, 0.0121536255, -0.0475158691, 0.0537719727, -0.0187683105, 0.0341186523, -0.0085678101, 0.0148849487, -0.0645141602, -0.1248779297, 0.0097274780, 0.0565795898, -0.0173950195, -0.0611572266, -0.0939941406, 0.1391601562, 0.0419006348, -0.0518493652, 0.1370849609, 0.0470886230, 0.0742797852, -0.0624389648, -0.0332336426, 0.0480346680, -0.0260467529, -0.0206451416, -0.0396118164, -0.0139694214, -0.0465087891, -0.1699218750, 0.0459899902, 0.0896606445, -0.0771484375, -0.0313415527, 0.0566406250, 0.1130981445, -0.0995483398, -0.0200500488, 0.0207061768, -0.1077880859, -0.0238342285, 0.0251312256, -0.0573730469, 0.0643920898, -0.0039749146, 0.0508117676, 0.1094970703, -0.0494079590, -0.0620727539, 0.0602111816, 0.0573120117, -0.0688476562, 0.0121536255, 0.0854492188, -0.0080413818, 0.0265197754, 0.0164947510, -0.0364379883, -0.1123657227, -0.0425415039, 0.0869140625, 0.0648193359, 0.0004246235, 0.0784301758, -0.0307006836, -0.0271759033, -0.0734252930, 0.0159759521, -0.0520324707, -0.0004191399, 0.0759887695, -0.0112075806, 0.0021934509, -0.0450439453, -0.0175628662, -0.0165863037, 0.0730590820, 0.0005474091, -0.0510864258, -0.0271453857, -0.0715332031, -0.1157226562, 0.0923461914, 0.0417480469, -0.0076026917, -0.0053291321, 0.0593872070, 0.1111450195, -0.0348815918, -0.0397033691, 0.0246887207, -0.0852050781, 0.0877075195, 0.0717773438, -0.0557861328, -0.0255737305, 0.0972900391, -0.0231475830, -0.1248168945, 0.0330200195, 0.0606994629, 0.0563659668, 0.0392761230, 0.0814819336, -0.0597534180, 0.0599365234, -0.0298309326, -0.0511779785, -0.1656494141, 0.0651245117, 0.0248565674, 0.0534057617, -0.0095596313, -0.0533752441, 0.0142898560, 0.0132293701, -0.0859375000, 0.0015287399, 0.0512084961, -0.0040969849, 0.0748901367, -0.0043907166, 0.0514221191, 0.0600891113, -0.0289001465, 0.0492248535, 0.0029335022, -0.0366821289, -0.1411132812, 0.0424194336, 0.0572509766, 0.0497131348, 0.0628051758, 0.0012950897, -0.0717163086, 0.0037975311, -0.0628662109, 0.0884399414, -0.1005859375, 0.1335449219, -0.0415649414, 0.0642089844, -0.0224914551, -0.0192108154, -0.0805664062, -0.0629882812, -0.0897216797, -0.0097274780, 0.0471801758, 0.0055122375, 0.0530090332, -0.0036602020, -0.0127258301, -0.0740966797, -0.0895996094, 0.0452880859, 0.0005445480, -0.0118942261, 0.0083007812, -0.0375061035, 0.0394592285, 0.0706787109, 0.0977783203, -0.0457458496, 0.0427246094, 0.0076637268, -0.0258941650, -0.0547790527, -0.0177001953, -0.0061111450, -0.0231475830, -0.0216217041, -0.0764160156, -0.0725708008, -0.0705566406, -0.0145111084, 0.1444091797, 0.0904541016, -0.0234069824, 0.0005955696, 0.0408935547, -0.0357360840, 0.0711669922, -0.0390319824, 0.0316467285, 0.0485839844, 0.0084381104, -0.0362548828, -0.0381164551, 0.0089416504, -0.0171966553, 0.0061492920, 0.0030841827, 0.0592956543, 0.0897827148, -0.0099029541, -0.0851440430, 0.0383605957, -0.0325622559, 0.0211181641, -0.0738525391, 0.0328674316, 0.0332336426, 0.0485839844, -0.0264434814, -0.0488281250, 0.0553588867, 0.0778198242, -0.0609741211, 0.1713867188, -0.0941772461, 0.0372619629, 0.0389709473, -0.0114669800, -0.1278076172, 0.0220489502, 0.0451965332, 0.0483093262, -0.0930786133, -0.1336669922, 0.0737304688, 0.0661621094, -0.0459899902, 0.1644287109, -0.0614013672, 0.0780639648, -0.0579833984, -0.0098953247, -0.0949707031, 0.0250854492, 0.0290222168, 0.0364685059, 0.0037193298, -0.0033531189, 0.0511474609, -0.0202636719, -0.0148391724, -0.0775756836, -0.0598449707, -0.0374450684, 0.0612182617, 0.0306243896, -0.0069808960, -0.0089035034, -0.0708007812, -0.0547485352, 0.0490112305, -0.0120925903, 0.0397949219, 0.0953369141, -0.0795288086, -0.0658569336, 0.0767211914, 0.0866699219, -0.0663452148, -0.0378723145, 0.0642089844, 0.0484008789, -0.0560913086, -0.0528564453, 0.0782470703, -0.0525817871, 0.0770263672, 0.0241241455, 0.0343627930, 0.0587158203, -0.0398559570, -0.0988769531, -0.0648803711, -0.0385437012, 0.1268310547, -0.0248718262, 0.0304107666, 0.0867309570, -0.0383605957, -0.0003716946, 0.0111465454, -0.0989379883, -0.1114501953, 0.1066284180, 0.0327453613, -0.0156173706, 0.0201568604, 0.0699462891, -0.1556396484, 0.0012216568, -0.0474243164, 0.0827026367, -0.0552673340, 0.0255279541, 0.0088272095, -0.0518798828, 0.0296630859, 0.0066566467, -0.1101074219, -0.0277252197, 0.0074958801, 0.0373229980, 0.0200347900, 0.0772094727, -0.0247039795, 0.0462646484, -0.0508728027, 0.0003192425, -0.0387268066, -0.0759277344, -0.0303955078, 0.1339111328, -0.0041770935, -0.0351867676, 0.0533752441, -0.0784912109, -0.0169219971, -0.0243225098, -0.0296783447, 0.0187530518, -0.0273132324, 0.0139083862, 0.0574340820, -0.0146789551, -0.0095291138, 0.0732421875, -0.0442199707, 0.0960693359, -0.0949096680, -0.0523681641, 0.0379943848, -0.0057907104, -0.0223846436, 0.0936279297, 0.0052452087, 0.0236053467, 0.0020923615, -0.0853271484, 0.0205535889, -0.0688476562, -0.0561828613, 0.0534362793, 0.0134201050, -0.0726318359, -0.0130081177, 0.0261688232, 0.0024738312, 0.0150985718, 0.0023193359, -0.0112304688, -0.0350341797, -0.0775756836, 0.0220794678, -0.1311035156, 0.0619201660, 0.0217285156, -0.0311431885, 0.0300750732, -0.0229034424, 0.0039787292, 0.0576477051, -0.1050415039, -0.0288696289, 0.0574035645, -0.0158233643, -0.0584716797, -0.0192108154, -0.0542602539, -0.0319519043, 0.0306549072, -0.0051040649, -0.0191802979, 0.0721435547, -0.0800781250, 0.0693969727, 0.0638427734, 0.0195159912, -0.0059967041, 0.1392822266, -0.0544738770, -0.0215301514, -0.1922607422, -0.0498657227, -0.0060005188, 0.0197601318, -0.0675048828, 0.0605163574, 0.0792236328, 0.0226898193, -0.0670166016, 0.0270538330, -0.1030883789, -0.0198974609, -0.1462402344, -0.0558471680, 0.0553283691, -0.0686645508, -0.0129699707, 0.0129089355, 0.0899658203, 0.0307006836, 0.0657348633, 0.0193176270, -0.0997924805, -0.0125885010, 0.0816650391, -0.0470886230, -0.0011548996, -0.0509948730, -0.0208129883, 0.0762329102, -0.0147781372, -0.0099411011, 0.0222320557, -0.0892333984, 0.0462341309, -0.0641479492, 0.0598144531, 0.0172424316, -0.0260772705, 0.0525817871, 0.0617675781, 0.0076255798, -0.0245208740, 0.0266571045, 0.0475158691, -0.0085983276, -0.0138015747, 0.1343994141, 0.0158996582, -0.0972900391, -0.0536804199, -0.1120605469, 0.0056228638, 0.1146240234, 0.0570068359, -0.0248413086, -0.1022949219, -0.0852050781, -0.0218048096, -0.0004749298, -0.0963745117, 0.0513000488, 0.0418701172, -0.0069122314, -0.0541381836, 0.0596313477, 0.0467224121, -0.0173797607, 0.0192565918, -0.0221252441, 0.0426940918, -0.0508728027, 0.0950927734, 0.0263366699, 0.0198974609, -0.0550231934, -0.0181884766, -0.0364685059, 0.0327453613, -0.0800170898, 0.0310058594, -0.0358581543, -0.1101074219, 0.0602416992, 0.0404357910, -0.1150512695, 0.1308593750, 0.0762939453, 0.0000880361, -0.0313110352, -0.0906372070, -0.0750732422, 0.0211181641, 0.1020507812, 0.0010223389, -0.0142440796, -0.0075073242, 0.0100173950, 0.0675048828, -0.1447753906, -0.0242919922, -0.0359497070, -0.0272216797, 0.1149291992, 0.0131683350, -0.0797729492, 0.0789184570, -0.0790405273, -0.1040649414, 0.0204010010, 0.0715332031, -0.0526733398, -0.0887451172, -0.0399169922, -0.0131912231, 0.0339965820, 0.0278625488, 0.1315917969, -0.0173339844, -0.0237579346, -0.0747070312, 0.0273132324, 0.0159149170, 0.0080108643, -0.0321960449, -0.0053367615, 0.0538330078, -0.0307617188, 0.0429382324, -0.0251922607, -0.0164947510, 0.0048103333, -0.1019897461, 0.0626831055, 0.0529785156, -0.0401916504, 0.0234527588, 0.0212097168, -0.0289459229, 0.0194244385, 0.0439147949, -0.0283355713, -0.0275421143, -0.0939331055, 0.0043373108, -0.0253295898, 0.1212158203, -0.0363159180, -0.0068359375, 0.0157318115, 0.0438232422, 0.0089035034, -0.0598144531, -0.0517272949, 0.0438842773, 0.0510559082, -0.0045089722, -0.0811767578, 0.0819702148, -0.0098419189, -0.0089645386, -0.0005717278, -0.0842285156, 0.0446166992, -0.0117492676, -0.0326538086, 0.0179901123, 0.0929565430, 0.0059394836, 0.0132141113, -0.0370483398, -0.0060462952, 0.0705566406, 0.0335388184, 0.0389099121, -0.0720214844, 0.1117553711, -0.0015277863, -0.0495300293, -0.0400390625, -0.0416564941, -0.0169219971, 0.0481872559, -0.0302124023, -0.0213623047, -0.0170745850, -0.0016412735, -0.0283508301, -0.0551147461, 0.0245666504, 0.1106567383, -0.0112075806, -0.0089721680, -0.0650024414, 0.0953979492, 0.0020942688, -0.0767822266, 0.0478210449, 0.0836181641, -0.0603942871, -0.0706787109, 0.0659790039, 0.0322265625, -0.0974121094, 0.0681152344, 0.0448913574, -0.0567016602, -0.0461730957, 0.0160675049, 0.0167846680, 0.0196228027, 0.1019897461, -0.0316467285, 0.0595703125, -0.0003638268, 0.0022125244, 0.0450744629, -0.0860595703, -0.0616149902, 0.0432434082, -0.0374755859, 0.0654907227, 0.0187988281, 0.0174407959, -0.0429382324, 0.0104827881, 0.0725097656, -0.0407409668, 0.0132064819, -0.0139846802, 0.0519714355, -0.0356750488, -0.0326538086, 0.0002034903, 0.0358581543, -0.0442504883, 0.0739746094, 0.0464782715, 0.0936279297, -0.0611267090, -0.0476379395, -0.1045532227, -0.0312500000, -0.1051635742, 0.0065536499, 0.0289154053, -0.0891113281, 0.0171966553, 0.1350097656, -0.0134048462, -0.0939941406, 0.0685424805, -0.1584472656, 0.1223144531, -0.0031185150, 0.0867309570, -0.0422363281, 0.0265808105, 0.0467529297, -0.1988525391, 0.0277404785, 0.0048179626, -0.0028171539, 0.1524658203, -0.0373229980, -0.0362854004, -0.0198364258, 0.0476684570, 0.0301055908, -0.0466918945, -0.0611877441, -0.0844726562, 0.0345458984, 0.0422058105, -0.0906982422, 0.0316162109, -0.0657958984, 0.0637207031, -0.0769042969, 0.0089645386, 0.0407409668, 0.0367736816, -0.0634155273, 0.0374450684, 0.0397949219, 0.0623474121, -0.0450744629, -0.0106201172, 0.0577697754, -0.0378112793, -0.1291503906, 0.0502319336, -0.0745849609, 0.0015401840, 0.0686035156, 0.0034084320, -0.0664062500, 0.0623168945, 0.0542297363, 0.0053100586, -0.0140838623, 0.0270080566, -0.0432434082, -0.0330810547, 0.0340270996, 0.0703125000, -0.0326538086, 0.1076049805, 0.0083160400, 0.0126495361, -0.0469055176, -0.0558166504, 0.0446472168, -0.0227508545, 0.0819091797, 0.0805053711, -0.0284881592, 0.0262451172, -0.0225982666, -0.1618652344, 0.0522460938, -0.0637817383, -0.0559692383, 0.0110549927, -0.0605773926, 0.0971069336, 0.0760498047, -0.0088882446, -0.0807495117, 0.1162719727, -0.0399780273, -0.0510253906, -0.0343627930, 0.0122985840, 0.0772705078, 0.0022678375, -0.0369873047, 0.0630493164, 0.0476684570, -0.0393066406, -0.0192718506, -0.0275421143, 0.0809936523, -0.0692749023, -0.0338439941, -0.1067504883, 0.1303710938, 0.0213317871, 0.0045738220, 0.0158996582, 0.0218353271, 0.0282440186, -0.0536804199, -0.0426330566, 0.0252990723, 0.0579223633, 0.0078506470, 0.0109481812, -0.0581665039, 0.0332336426, -0.0081634521, -0.0812377930, 0.0520629883, -0.0505371094, 0.0688476562, -0.0069084167, -0.0618896484, 0.0817260742, -0.0889892578, -0.0156707764, 0.0106048584, -0.0457153320, 0.0533142090, -0.0397949219, -0.0784301758, 0.0463867188, 0.0732421875, -0.0596313477, 0.0244293213, 0.0416564941, -0.0526733398, -0.0279846191, 0.0112609863, 0.0360107422, 0.1199340820, -0.0587463379, -0.0198364258, 0.0266265869, 0.0005521774, -0.0303649902, -0.0045280457, -0.0765991211, 0.0567321777, 0.0257873535, -0.0106887817, -0.0557250977, 0.0476379395, 0.0484313965, -0.0186462402, -0.0819091797, -0.0628662109, 0.0607299805, 0.0199737549, -0.0625000000, 0.0368347168, 0.0279693604, 0.0081787109, -0.0852661133, -0.0326538086, -0.0585937500, 0.0096435547, 0.0345458984, 0.0529174805, -0.0079879761, 0.0364685059, 0.0157928467, 0.0637207031, -0.0537109375, -0.1323242188, 0.0368957520, -0.0157165527, -0.0181732178, -0.1101684570, -0.0437011719, 0.0523376465, -0.0573425293, -0.0433959961, 0.0495910645, 0.0834350586, 0.0158843994, 0.0001789331, 0.0375366211, 0.0035705566, 0.0731811523, -0.0088272095, 0.0693359375, -0.0182189941, 0.0271759033, -0.0602111816, -0.0250549316, -0.0253295898, -0.0220336914, 0.0053901672, -0.0092163086, -0.0538940430, 0.0661621094, -0.0442504883, 0.0131607056, 0.1086425781, 0.0079956055, -0.1339111328, -0.0325012207, -0.0295562744, -0.0264739990, -0.0480651855, 0.0858764648, -0.0013828278, -0.0062522888, -0.0839233398, 0.0671997070, -0.0424194336, 0.0653076172, 0.0576477051, 0.0202789307, -0.0433044434, -0.0586547852, 0.0490112305, 0.0748901367, 0.0615234375, -0.0913696289, -0.0095291138, -0.1086425781, 0.0214385986, -0.0425415039, -0.1065063477, 0.1124267578, -0.0334777832, -0.0356140137, 0.0980834961, -0.0057296753, -0.0692138672, 0.0411987305, 0.0354003906, 0.0603637695, -0.0376892090, 0.0274353027, -0.1259765625, 0.0242614746, -0.0476989746, 0.0388793945, -0.0187530518, 0.0436401367, 0.0415039062, -0.0934448242, 0.1791992188, -0.0512695312, 0.0817871094, -0.0833129883, 0.0021953583, -0.0343322754, 0.0436706543, -0.0657348633, -0.1059570312, 0.0644531250, 0.0549926758, 0.0368957520, -0.0497436523, 0.0414123535, -0.0576171875, -0.0235595703, -0.0155105591, 0.0193786621, -0.0085754395, -0.0149688721, 0.0404357910, -0.0008101463, -0.0202636719, 0.0502014160, -0.0665893555, -0.0635986328, -0.0143127441, 0.1019287109, -0.0582275391, -0.0107345581, 0.0298309326, 0.0424499512, 0.0889282227, -0.0646972656, 0.0619506836, -0.0872802734, -0.0765380859, -0.0371704102, 0.0078010559, -0.0304870605, 0.0125656128, -0.0297088623, 0.0228729248, 0.0781250000, -0.0378723145, -0.0159149170, 0.0109176636, 0.0453186035, -0.0258636475, -0.0467224121, -0.0626220703, 0.1143188477, 0.0806884766, -0.0149612427, 0.0321655273, -0.0036869049, -0.0678100586, -0.0897216797, -0.0188140869, 0.0235748291, -0.0352172852, 0.0202026367, -0.0665893555, 0.0109100342, 0.0129623413, -0.0571289062, 0.1083374023, 0.0072135925, -0.1034545898, 0.0435485840, -0.0279693604, 0.0444946289, -0.0127716064, 0.0329284668, -0.0741577148, 0.0975952148, 0.0140609741, 0.0268249512, 0.0475463867, 0.0848388672, -0.0751953125, 0.0254364014, 0.0691528320, -0.0728759766, -0.1003417969, -0.0308837891, -0.0517578125, 0.0357055664, 0.0309295654, 0.0609436035, -0.0413513184, 0.0325317383, -0.0098495483, -0.0146026611, 0.0102081299, 0.0669555664, -0.0123138428, -0.0623168945, -0.1368408203, -0.0301971436, 0.0997924805, -0.0541992188, -0.0587463379, 0.0871582031, 0.0577697754, -0.0147399902, 0.0703735352, 0.0062675476, -0.0888061523, 0.0493164062, -0.0293273926, 0.0703125000, -0.0455017090, -0.1187744141, 0.0480957031, 0.1176757812, 0.0046348572, -0.1369628906, -0.0568847656, -0.0292968750, 0.0143661499, 0.0240936279, -0.0210723877, 0.0761718750, 0.1582031250, -0.1168212891, -0.1613769531, -0.0024452209, -0.0664062500, 0.1211547852, 0.0426635742, 0.0889892578, 0.0512695312, -0.0567626953, -0.0127563477, -0.1140747070, -0.0794067383, -0.0556945801, -0.0456848145, 0.0629882812, -0.1021118164, 0.0045242310, 0.0088729858, 0.0230102539, -0.0371093750, 0.1693115234, 0.0611572266, -0.1484375000, 0.0047111511, 0.0223236084, -0.1049804688, -0.0985717773, 0.0835571289, 0.0748291016, -0.0339050293, 0.0822143555, -0.0715332031, 0.0236816406, 0.0681762695, -0.0869140625, -0.0102615356, 0.0439453125, -0.0386352539, 0.0271301270, 0.1117553711, -0.1516113281, -0.0245208740, -0.0089111328, 0.0773315430, 0.0186920166, -0.0191802979, 0.0045394897, -0.0330505371, 0.0478515625, -0.0000164509, 0.0085906982, -0.0570373535, -0.1269531250, -0.0007143021, -0.0182647705, 0.0651855469, -0.0063667297, 0.0505371094, 0.0012578964, 0.0364074707, 0.0223846436, -0.1276855469, -0.0234985352, -0.0049247742, 0.0246582031, 0.0373535156, -0.0081558228, 0.0733642578, 0.1286621094, -0.0094451904, -0.1540527344, -0.1362304688, -0.0513610840, 0.0543518066, 0.0002106428, -0.0024108887, 0.0017166138, -0.0216522217, -0.0261688232, -0.0260162354, -0.0353393555, 0.0540161133, 0.0084381104, -0.0216217041, -0.1018066406, 0.0091934204, 0.0062713623, 0.0879516602, 0.0459899902, -0.0363159180, -0.0094757080, -0.0389099121, 0.0522766113, -0.1008300781, -0.0048637390, -0.0644531250, 0.0472717285, 0.0442810059, -0.0295562744, -0.0010938644, -0.0386962891, 0.0164031982, 0.0815429688, 0.0581665039, 0.0370178223, 0.0396728516, 0.0118408203, -0.0409240723, -0.0382690430, -0.0733642578, -0.0343627930, 0.0544738770, -0.0008955002, -0.0611267090, 0.0386657715, 0.1023559570, 0.0817260742, -0.0387878418, 0.0081405640, 0.0768432617, -0.1263427734, -0.0621032715, -0.0170898438, -0.0316467285, -0.1013793945, 0.0210113525, -0.0204772949, -0.0576782227, 0.0595092773, 0.0342407227, -0.0072517395, 0.0354003906, 0.0242614746, 0.0471496582, 0.0285491943, -0.1044921875, 0.1168212891, 0.0859375000, -0.0794067383, -0.0130310059, -0.0057640076, -0.0007171631, -0.0296173096, -0.0468444824, 0.0265197754, 0.0601196289, 0.0247955322, -0.0579833984, 0.0246429443, 0.0141220093, 0.0267486572, -0.0364990234, -0.0681152344, -0.0474853516, -0.0458984375, 0.0609130859, -0.0700683594, -0.0276794434, 0.0953369141, 0.1632080078, 0.0081481934, -0.0498962402, -0.0611572266, 0.0197601318, -0.1001586914, -0.0393066406, 0.0468139648, 0.0188140869, 0.0508728027, -0.0748291016, 0.0190124512, -0.0236816406, 0.1160888672, 0.0642700195, 0.0269012451, -0.0096206665, 0.0611267090, 0.0443725586, -0.0310974121, -0.0415039062, -0.0702514648, -0.0216369629, 0.0086898804, 0.0030994415, -0.0238952637, -0.0520629883, 0.0819091797, -0.0363464355, -0.0167999268, 0.0047721863, -0.0325317383, 0.0339660645, 0.0083618164, -0.0758666992, 0.0953979492, 0.0206756592, 0.0020694733, -0.0443725586, -0.0053672791, 0.0426940918, 0.0440979004, -0.0376281738, -0.0150451660, 0.0551757812, -0.0241394043, 0.0423583984, 0.1329345703, -0.0314636230, -0.1464843750, -0.0700683594, -0.0346069336, 0.0512695312, -0.0083770752, -0.1403808594, -0.0539550781, 0.0280151367, 0.0509948730, 0.0505981445, -0.0169372559, 0.0510253906, 0.0389099121, -0.0200195312, -0.1135253906, -0.0553588867, -0.0051879883, 0.0359802246, 0.0291748047, -0.0039520264, 0.0019836426, -0.0011215210, -0.0072479248, 0.0321350098, -0.0274963379, -0.0681762695, -0.0964355469, -0.0270843506, -0.0469360352, 0.0226745605, 0.1051025391, 0.0204162598, 0.0378723145, -0.0447692871, 0.1192016602, -0.0641479492, 0.1234741211, -0.0489501953, 0.0077552795, 0.0278167725, -0.0156707764, -0.0037689209, -0.0153656006, 0.0481872559, -0.0953979492, -0.0371704102, 0.0043258667, 0.0894775391, 0.0357360840, -0.0295715332, -0.0334472656, -0.0201263428, -0.0439147949, 0.0257720947, 0.0306396484, -0.0795288086, 0.0451660156, 0.1503906250, 0.1048583984, -0.0044517517, 0.0439147949, -0.0410461426, -0.0591735840, -0.1781005859, -0.0254364014, 0.1663818359, 0.0081481934, -0.0255889893, -0.0778808594, -0.1220092773, 0.0723266602, -0.0395507812, -0.0331115723, 0.0190734863, 0.0337524414, 0.0838012695, -0.0261993408, 0.0281219482, 0.0561523438, -0.0073738098, -0.0656738281, -0.0128173828, -0.0085372925, -0.0089035034, -0.0585021973, 0.0413818359, 0.0155105591, 0.0219879150, -0.0097274780, -0.0062103271, -0.0493774414, 0.0343017578, -0.0124740601, -0.0404663086, 0.0746459961, -0.0144805908, 0.0534362793, -0.0188446045, -0.0190277100, -0.0750732422, -0.0224761963, 0.0616760254, -0.0247344971, 0.0595703125, 0.0196380615, -0.0584716797, 0.0364074707, -0.0668945312, 0.0650634766, 0.0292205811, 0.0950927734, -0.0921630859, 0.0382385254, -0.0617675781, 0.0111389160, -0.0113906860, -0.0607604980, 0.0167694092, -0.0635375977, 0.0333251953, 0.0774536133, 0.0211486816, -0.0223846436, -0.0942382812, -0.0645141602, -0.0003976822, 0.0248718262, -0.0170440674, 0.0710449219, -0.0150146484, 0.0422363281, 0.0086517334, 0.0148773193, -0.0177917480, -0.0547180176, -0.1228637695, -0.0578918457, 0.0528259277, -0.0911865234, 0.0161743164, 0.1093750000, 0.0402832031, 0.0202178955, 0.0411682129, 0.0411682129, 0.0138168335, -0.0551452637, 0.1345214844, 0.0749511719, -0.1149291992, 0.0036125183, -0.0676879883, -0.0643310547, -0.1356201172, 0.0442810059, 0.0304718018, -0.0576477051, 0.0001623631, 0.0419006348, 0.0107650757, -0.0351562500, 0.0151214600, 0.1225585938, -0.1268310547, -0.0215911865, -0.0170593262, 0.0586547852, 0.0489807129, 0.0510864258, -0.0611572266, -0.0238342285, -0.0360412598, 0.0740966797, -0.0344543457, -0.1044921875, -0.0922851562, -0.0155181885, 0.0321655273, 0.0761718750, 0.0768432617, 0.0040092468, -0.0021324158, -0.0076484680, -0.0538024902, -0.1041259766, -0.0014457703, 0.0031642914, 0.0695190430, -0.0882568359, 0.0278167725, -0.0439758301, 0.0122604370, -0.0265502930, 0.0594482422, -0.0311737061, -0.0675048828, -0.0468444824, 0.0179290771, -0.0240936279, 0.0370178223, 0.0434570312, 0.0703125000, 0.0125656128, -0.1069335938, -0.0368041992, 0.0287933350, -0.0036983490, 0.0149917603, 0.0438537598, -0.0538940430, 0.0525817871, -0.0222625732, 0.0263824463, 0.0208435059, -0.0706176758, -0.0332641602, 0.1217041016, 0.0329589844, 0.0381774902, -0.0722656250, -0.0226898193, -0.0454406738, -0.1196899414, 0.0801391602, 0.0196685791, 0.0269470215, -0.0804443359, -0.0251464844, -0.0129318237, -0.0275726318, -0.0158538818, -0.0261535645, 0.0631103516, -0.0340270996, 0.1023559570, -0.0261688232, -0.0432434082, 0.0578613281, 0.0655517578, -0.0444335938, 0.0357971191, 0.0602722168, 0.0182952881, -0.0394592285, -0.0687255859, -0.0843505859, 0.0018415451, 0.0690917969, -0.0885620117, 0.0086975098, 0.0560607910, -0.0131759644, 0.0074043274, -0.0483398438, 0.0465087891, 0.0092926025, 0.0272674561, -0.0890502930, -0.0290832520, -0.0417785645, 0.1110229492, -0.0490417480, 0.0314331055, -0.0314331055, -0.0401000977, 0.0709228516, -0.0081939697, -0.0355529785, -0.0795898438, 0.0642700195, 0.0342712402, -0.0034809113, 0.0301055908, -0.0691528320, -0.0100479126, -0.0088806152, -0.0430908203, 0.0140380859, 0.0830688477, -0.0016803741, 0.1057128906, -0.0759277344, 0.0196533203, 0.0383300781, -0.1054077148, 0.0281524658, 0.0014104843, 0.0501403809, 0.0583801270, -0.0858764648, -0.0675659180, 0.0484313965, 0.0367431641, -0.0233306885, -0.0583496094, -0.1948242188, 0.2076416016, 0.1027221680, -0.0382080078, -0.0029678345, 0.0256958008, 0.0007348061, -0.0986328125, 0.0283355713, 0.0069503784, -0.0800781250, -0.0339965820, -0.0307617188, 0.0270538330, 0.0323181152, 0.0015392303, 0.0740966797, -0.0080337524, 0.0586853027, -0.0480346680, 0.0382080078, -0.0361938477, -0.0737915039, 0.0650634766, 0.0397338867, -0.1270751953, 0.1071166992, -0.0002427101, -0.0041961670, 0.0642700195, -0.0217590332, -0.0676879883, -0.0028781891, 0.0604858398, 0.0381774902, -0.0424194336, 0.0197296143, 0.0814208984, -0.0373535156, -0.0829467773, -0.0320739746, 0.0857543945, -0.0293273926, 0.0267639160, 0.0261230469, -0.0068817139, -0.0045127869, -0.0210723877, -0.1323242188, 0.0281219482, -0.0500183105, -0.0314941406, -0.0388183594, 0.1127319336, 0.1082153320, 0.0022125244, -0.1434326172, 0.0276641846, -0.0747070312, 0.0158081055, -0.0036487579, 0.0469665527, 0.0803222656, 0.0385131836, 0.0052185059, -0.0201110840, -0.0742187500, 0.0096359253, 0.0867309570, -0.0423583984, 0.0172576904, 0.0076065063, -0.0302581787, 0.0711059570, -0.0476379395, 0.0038776398, -0.0876464844, -0.0069808960, 0.0764770508, -0.0088882446, 0.0424804688, -0.0135421753, -0.0446166992, 0.0541992188, 0.0604858398, 0.0477905273, -0.0844726562, -0.0334472656, 0.0519714355, -0.0253295898, 0.0516662598, 0.0330505371, -0.0069808960, 0.0733032227, 0.0098190308, -0.1156616211, -0.0174713135, -0.0184631348, -0.0512084961, 0.0414428711, 0.0166931152, 0.0333557129, -0.0515441895, -0.0243988037, 0.0108795166, -0.0258331299, -0.0531311035, 0.0220794678, 0.0755004883, 0.0369873047, 0.0517272949, 0.0234222412, -0.0656738281, 0.0848388672, -0.0711059570, -0.0332946777, 0.0513000488, 0.0624084473, -0.0238647461, -0.0606384277, 0.0587463379, -0.0181579590, -0.0436706543, 0.0844726562, 0.0437011719, -0.0185546875, -0.0806274414, 0.0420532227, -0.0191040039, 0.0368957520, -0.0955200195, -0.0540161133, -0.0130538940, 0.0591735840, -0.0116729736, 0.0264587402, 0.0285797119, -0.0586853027, -0.0640258789, 0.0944824219, -0.0095214844, 0.0067558289, 0.0204467773, 0.0869140625, -0.0533142090, -0.0265502930, -0.0045776367, -0.0228729248, 0.0596923828, -0.0404357910, -0.1807861328, 0.0700073242, 0.1911621094, 0.0524291992, -0.0766601562, 0.0192565918, 0.0262298584, -0.1197509766, 0.0519104004, -0.1001586914, -0.0260772705, -0.0115051270, -0.0504760742, 0.0312805176, 0.1304931641, 0.0372924805, -0.0289154053, 0.0610046387, -0.0637817383, -0.0748901367, -0.0942382812, -0.0586547852, 0.0521850586, -0.0383605957, 0.0070915222, -0.0065078735, 0.0590515137, 0.0422058105, 0.0198974609, -0.0068473816, -0.0397644043, -0.0468750000, -0.0411376953, -0.0466003418, -0.0177612305, 0.0432128906, 0.0626831055, -0.0141143799, 0.0412902832, 0.0502319336, -0.0164642334, -0.0737915039, 0.0341796875, 0.0225067139, 0.0478210449, -0.0767211914, -0.0030441284, -0.0238342285, -0.0846557617, 0.0331115723, -0.0608520508, -0.0277862549, -0.0000982285, 0.0056381226, -0.0969238281, 0.0197143555, 0.0845336914, -0.0038948059, -0.0013132095, 0.0339050293, -0.0060272217, -0.0030097961, -0.0586853027, 0.0230102539, -0.1126708984, -0.0116729736, 0.0440368652, 0.0438232422, 0.0006642342, 0.0411682129, 0.0331420898, -0.0534973145, 0.0257720947, 0.0213623047, -0.0350036621, 0.0020275116, -0.0228881836, -0.0185852051, 0.0269622803, -0.0003342628, 0.0238037109, -0.0781250000, -0.0196228027, -0.0285949707, 0.0395507812, 0.0644531250, -0.0218963623, 0.0188446045, 0.0231933594, 0.0370788574, 0.0926513672, 0.0125656128, -0.1156005859, 0.0009665489, 0.0840454102, 0.0617065430, 0.0137557983, 0.0029544830, -0.1024780273, -0.0369873047, 0.0812988281, -0.0899658203, 0.0534667969, -0.0343017578, -0.0482788086, 0.0097503662, 0.0744018555, -0.0686035156, 0.0576782227, -0.0586853027, -0.0066452026, 0.0689086914, 0.0155334473, 0.0015439987, 0.0720825195, -0.0278930664, -0.0584106445, -0.0789184570, 0.0073623657, 0.0041007996, 0.0794067383, 0.0157165527, 0.0228424072, 0.0119247437, -0.0185241699, 0.0664672852, 0.0178985596, -0.0974731445, 0.0303955078, -0.0802001953, -0.0536193848, 0.0136108398, 0.0322875977, 0.0957031250, 0.0070915222, -0.0513610840, -0.0650024414, 0.0281524658, 0.0493164062, -0.0150146484, -0.0117111206, -0.0507812500, -0.0811157227, -0.0168151855, -0.0324096680, 0.1425781250, 0.0017404556, -0.0260467529, 0.0316772461, 0.0243225098, 0.0095520020, -0.0061149597, 0.0079650879, -0.0330200195, 0.0188293457, 0.0765991211, -0.0718994141, -0.0097427368, 0.0134506226, -0.0271301270, 0.0410766602, 0.0806884766, 0.0074577332, -0.1028442383, 0.0722045898, -0.0031147003, -0.0009751320, 0.0158996582, 0.0364074707, -0.0722656250, -0.0118255615, 0.0179901123, 0.0316467285, -0.0468444824, 0.0434265137, -0.0539855957, 0.0253295898, 0.0281524658, 0.0194702148, -0.0736083984, 0.0833129883, 0.0359191895, -0.0491027832, 0.0169677734, 0.0576782227, -0.1138916016, -0.0275726318, 0.0128021240, -0.0084991455, -0.0195465088, 0.0611877441, 0.0178375244, 0.0108337402, -0.0049057007, -0.0304870605, -0.0016899109, -0.1584472656, 0.0329284668, 0.0847778320, 0.0295715332, -0.0052032471, 0.0432434082, -0.0456542969, -0.0080566406, -0.0137252808, -0.0454101562, 0.1186523438, 0.0537414551, 0.0112838745, -0.0039405823, -0.0046653748, -0.0528259277, 0.0234680176, 0.0350036621, 0.0400085449, 0.0742187500, 0.0277099609, -0.1245727539, 0.0157775879, -0.0183105469, 0.0648803711, -0.0144119263, -0.0971679688, 0.0615234375, 0.0719604492, -0.0228424072, -0.0714111328, 0.0051765442, -0.0017309189, -0.0168151855, 0.0974121094, 0.0076560974, -0.0777587891, -0.0062026978, 0.0990600586, -0.0861816406, 0.0360107422, 0.0003950596, -0.0216827393, -0.1284179688, -0.0701904297, -0.0359191895, 0.0254211426, -0.0647583008, 0.1264648438, 0.0368041992, 0.0905151367, -0.0613098145, -0.0640869141, -0.0031623840, -0.0015764236, 0.0295410156, -0.0091629028, 0.1535644531, -0.0352783203, -0.0570678711, 0.0173645020, -0.0082550049, 0.0173492432, -0.0232543945, 0.0209808350, 0.0376281738, -0.0003044605, -0.1505126953, 0.0550842285, 0.0226745605, 0.0614013672, -0.0515747070, -0.0306243896, 0.0644531250, 0.0413208008, 0.0430297852, 0.1473388672, 0.0634765625, -0.0588684082, -0.0488281250, -0.0505371094, -0.0644531250, -0.0599060059, -0.0535888672, -0.0369262695, 0.0015792847, -0.0227661133, 0.0454101562, 0.0734252930, -0.0661010742, -0.0119781494, -0.0050430298, 0.1117553711, -0.0032463074, -0.0297698975, 0.0032176971, -0.0188140869, 0.0267181396, 0.0103836060, 0.0291595459, 0.1006469727, -0.0483703613, -0.0523071289, 0.0331420898, -0.0098495483, 0.0914916992, -0.0571594238, -0.0141525269, 0.0902709961, -0.0206298828, -0.0540771484, -0.0006623268, 0.0856933594, -0.0799560547, -0.0961914062, 0.0924072266, -0.0156402588, 0.0294342041, 0.0675048828, 0.0558776855, -0.0687866211, -0.0043983459, -0.0466918945, -0.0049057007, 0.0458374023, -0.0438537598, -0.0498352051, 0.0502014160, -0.0613403320, 0.0463867188, -0.0214385986, 0.0116271973, 0.0686035156, -0.0506896973, -0.0113220215, -0.0676269531, -0.0740966797, 0.0513916016, -0.0819702148, 0.0173797607, -0.0426330566, 0.0739135742, 0.0422363281, 0.0585937500, -0.0439147949, -0.0127334595, -0.0294342041, 0.0200958252, 0.0660400391, 0.0279541016, -0.0027885437, -0.0121383667, 0.0364990234, 0.0404968262, -0.0279846191, 0.0198822021, -0.0942382812, -0.0922851562, 0.1216430664, 0.0008430481, 0.0176849365, -0.0575256348, 0.0654296875, 0.0095672607, -0.0077209473, 0.0470275879, -0.0518798828, -0.0464477539, -0.1456298828, 0.0629882812, -0.0743408203, 0.0957031250, 0.0440673828, 0.0329284668, 0.0164947510, 0.0653076172, -0.0778808594, 0.0242767334, 0.0335083008, 0.1023559570, 0.0206604004, 0.0295257568, -0.0299987793, -0.1373291016, 0.0888061523, -0.1457519531, -0.0470275879, 0.0312500000, 0.0980834961, -0.1174926758, -0.0205841064, 0.0890502930, 0.0002996922, 0.0301818848, -0.0343322754, -0.0533142090, -0.0044059753, 0.0419616699, 0.0406799316, -0.0423278809, -0.0228881836, -0.0277862549, 0.0746459961, -0.0313720703, 0.0388183594, -0.0425109863, -0.0487670898, 0.0180358887, 0.0123596191, -0.0312805176, -0.0691528320, 0.0556030273, 0.0019330978, 0.0575256348, 0.0329284668, -0.0520629883, -0.0399780273, -0.0260467529, -0.0002334118, 0.0100021362, -0.0459289551, 0.0081253052, 0.0704956055, -0.0170288086, -0.0505371094, -0.0239105225, -0.0275878906, -0.1174316406, 0.0584716797, 0.0791625977, -0.1138305664, 0.0593872070, 0.0164184570, 0.0446166992, -0.0096817017, 0.0025024414, -0.0589599609, 0.0293121338, 0.0063667297, 0.0317077637, -0.0089569092, 0.0089340210, -0.0301666260, 0.0259704590, 0.0785522461, 0.0021228790, -0.0527343750, 0.0291900635, 0.0319519043, -0.0719604492, -0.0391845703, 0.0067710876, -0.0051231384, 0.0765991211, -0.0177154541, -0.0119552612, -0.0909423828, 0.0979614258, -0.0232849121, -0.0543823242, -0.0179901123, 0.0279846191, 0.0013055801, 0.0010213852, -0.0432739258, 0.0633544922, -0.0225219727, 0.0362243652, -0.0090255737, -0.0100784302, 0.1077880859, -0.0554504395, -0.0135040283, 0.0316162109, 0.0469665527, -0.0496520996, -0.0608825684, 0.0363159180, 0.0292663574, 0.0650634766, 0.0477600098, -0.0550537109, -0.0479431152, 0.0011548996, -0.0686645508, 0.1050415039, 0.0157012939, -0.0575866699, 0.0858764648, 0.1358642578, 0.0442504883, -0.0995483398, -0.1137695312, -0.0182495117, 0.0622863770, 0.0240936279, 0.0144653320, 0.0192565918, -0.0395202637, -0.0273437500, -0.0812377930, 0.0637817383, -0.0596923828, 0.1353759766, -0.0305480957, -0.1061401367, -0.0295867920, -0.0910034180, 0.0572814941, 0.0692749023, 0.1330566406, -0.0221710205, 0.0026340485, -0.0104598999, -0.0451965332, -0.0313110352, -0.0213623047, 0.0213165283, -0.1070556641, 0.0566101074, -0.0049285889, 0.0252075195, -0.0596313477, 0.1824951172, -0.1063842773, -0.0269927979, 0.0101394653, -0.0374755859, 0.0591125488, 0.0050163269, 0.0238800049, -0.0001543760, 0.0218353271, 0.0561828613, -0.1868896484, -0.0062141418, 0.0358886719, -0.0681762695, 0.1229248047, 0.0073394775, 0.0385131836, 0.0814208984, -0.0299987793, -0.0614929199, -0.0123825073, 0.1256103516, -0.0389099121, -0.0007071495, 0.0107269287, -0.0177917480, -0.0890502930, -0.0392456055, 0.0249938965, 0.0323486328, -0.0862426758, -0.0474853516, -0.0082092285, 0.0281982422, 0.0068435669, 0.0435180664, -0.0098190308, 0.0222778320, -0.0153808594, -0.0475158691, 0.0064277649, 0.0539550781, -0.0263214111, 0.0156555176, -0.0274810791, 0.0505065918, -0.0152053833, -0.1047363281, -0.0113601685, 0.0088500977, -0.0234680176, 0.1510009766, -0.0290679932, 0.0262908936, -0.0111312866, -0.0372619629, -0.0963134766, 0.0753784180, -0.1492919922, -0.0083465576, -0.0052947998, 0.0803222656, -0.0500183105, 0.0228729248, 0.0099639893, -0.0097961426, -0.0053787231, 0.0205078125, -0.0592651367, -0.0378417969, -0.1396484375, 0.0086593628, 0.0400695801, 0.0080718994, -0.0221405029, 0.0958251953, -0.0122985840, -0.0450744629, 0.0239410400, 0.0270538330, -0.0220489502, 0.0614318848, -0.0362854004, -0.0494079590, 0.0173339844, 0.0800170898, 0.0551147461, 0.0261993408, -0.0097732544, -0.0594787598, -0.0538024902, 0.0016479492, -0.0308685303, 0.0263061523, -0.0919799805, -0.0116424561, 0.1448974609, 0.0027770996, 0.0651245117, 0.0119857788, -0.0658569336, 0.0464477539, -0.0353088379, 0.0428771973, -0.0084609985, 0.0916748047, -0.0087509155, -0.1079711914, -0.0541076660, 0.0215148926, -0.0592651367, 0.0299682617, 0.0265808105, 0.0115814209, -0.0241546631, 0.0328369141, 0.0232238770, -0.1149902344, 0.1287841797, -0.0279693604, -0.0168304443, -0.0125274658, -0.0354003906, 0.0722045898, 0.0325317383, 0.0107574463, -0.0220947266, -0.0079040527, 0.0433654785, -0.0034179688, -0.0558471680, 0.0101852417, 0.0159759521, -0.0733642578, 0.0529174805, 0.0269775391, -0.0065879822, -0.0294494629, -0.0366821289, 0.0725097656, 0.0889282227, 0.0012617111, 0.0535278320, -0.0744018555, 0.0105819702, 0.0248870850, 0.0211029053, -0.0606994629, 0.0093231201, -0.0911254883, 0.0936889648, 0.0990600586, -0.0585327148, 0.0264892578, 0.0985107422, 0.0126800537, -0.0340881348, -0.0496215820, -0.0491333008, -0.1096801758, 0.0558166504, -0.0417175293, -0.0277252197, 0.0033512115, 0.0611572266, 0.0296478271, 0.0694580078, -0.0369262695, -0.0774536133, -0.0138244629, 0.0325317383, 0.0409240723, 0.0069580078, -0.0469360352, 0.0247497559, 0.0291748047, -0.0342102051, 0.0409851074, -0.0717773438, 0.0093612671, 0.0404052734, 0.0208587646, 0.0911254883, 0.0016126633, -0.0189971924, -0.0080642700, -0.0770874023, -0.0279235840, 0.0342102051, -0.0399475098, -0.0116806030, -0.0612792969, 0.0165710449, 0.0141220093, 0.0375366211, -0.0439147949, 0.0163879395, -0.0456848145, 0.0700683594, 0.0645751953, -0.0751342773, 0.0278320312, -0.1467285156, 0.0274963379, 0.0435485840, 0.0307922363, -0.0152816772, 0.0605163574, 0.1201171875, -0.0386657715, -0.0164794922, 0.0040740967, 0.0484008789, -0.0052070618, 0.0232849121, -0.0121002197, -0.0392150879, -0.0454406738, 0.0353698730, 0.0153198242, 0.0303192139, 0.0355224609, -0.0728759766, 0.0780029297, 0.0368347168, -0.0519104004, -0.0230102539, -0.0494079590, -0.0042533875, 0.0204925537, -0.0382690430, -0.0141601562, 0.0129852295, 0.0192871094, -0.0075263977, 0.0538330078, -0.0001925230, -0.0565795898, -0.0072212219, -0.0179748535, -0.0605468750, -0.0528564453, 0.0028476715, -0.0178833008, -0.0218353271, -0.0428466797, -0.0183410645, -0.0017204285, 0.0377502441, 0.0902709961, 0.0038204193, -0.0508728027, 0.0848999023, -0.0686035156, -0.0567932129, 0.0374755859, -0.0213317871, -0.0995483398, -0.0745849609, 0.0796508789, 0.0108413696, -0.0629882812, -0.1285400391, -0.0494079590, -0.0044555664, -0.0795898438, 0.0654907227, 0.1881103516, 0.0355224609, -0.0500793457, 0.0071334839, 0.0244445801, -0.0626831055, 0.0709838867, 0.0010652542, 0.0726928711, -0.0501403809, 0.0095977783, -0.0429687500, -0.0178527832, -0.0184478760, -0.0474853516, -0.0675659180, -0.0592651367, 0.1223754883, 0.0218048096, -0.0642089844, 0.0645751953, 0.0117111206, -0.0107879639, 0.0276489258, -0.0714111328, -0.0593566895, -0.0130920410, -0.0166625977, -0.0872192383, 0.0581054688, 0.1401367188, 0.0775756836, 0.0063323975, 0.0051193237, -0.0000839233, 0.0533447266, 0.0367736816, -0.0178527832, -0.0642700195, -0.0426025391, 0.0163574219, -0.0116577148, -0.0190124512, 0.0075302124, -0.0513610840, -0.0041084290, -0.0128936768, -0.0438842773, 0.0519409180, 0.0090103149, -0.0720825195, 0.0417480469, 0.0185546875, -0.0314941406, -0.1194458008, -0.0828247070, 0.0144195557, -0.0019550323, 0.0117874146, 0.0469970703, 0.0753173828, -0.0117034912, -0.0054359436, -0.0166625977, -0.0072631836, -0.0284271240, 0.0378723145, 0.0466918945, 0.0441589355, 0.0802612305, -0.0926513672, -0.0409851074, 0.0018606186, 0.0161285400, 0.1534423828, -0.0887451172, -0.0106811523, 0.0258331299, -0.0182342529, -0.0620422363, -0.0171356201, -0.0114135742, -0.0154953003, 0.0133590698, -0.0673217773, 0.0917968750, 0.0313720703, -0.0064163208, -0.0919799805, 0.0435791016, 0.0607299805, -0.0552978516, -0.0422058105, 0.0132904053, 0.0307769775, 0.0365905762, -0.0346374512, -0.0103225708, 0.0480957031, -0.0436706543, 0.0005311966, 0.0534362793, -0.0520019531, -0.0819091797, -0.0282440186, 0.1201171875, 0.0116271973, -0.1014404297, 0.1144409180, 0.0265045166, -0.0952758789, -0.1031494141, 0.0729980469, 0.0836181641, 0.0941772461, -0.0475463867, -0.0368652344, -0.0334167480, -0.0353088379, -0.0441894531, -0.1678466797, 0.0345458984, 0.1331787109, 0.0011129379, -0.0594482422, -0.0298309326, -0.0029525757, 0.0972290039, -0.0048027039, -0.0185394287, 0.0099182129, 0.0839843750, -0.0576782227, 0.1007080078, 0.0794067383, 0.0237731934, -0.0340881348, -0.0767211914, 0.0203247070, -0.0127944946, 0.0982055664, -0.1094970703, -0.0380249023, 0.0272064209, 0.0059204102, 0.0549011230, 0.0086441040, -0.0827636719, 0.0545654297, 0.0922241211, -0.0425109863, -0.0319519043, -0.0729370117, -0.0708618164, 0.0226135254, -0.0827026367, 0.0976562500, -0.0179138184, -0.0115890503, -0.0367126465, 0.0360717773, -0.0529479980, 0.0253448486, -0.0900268555, 0.0443115234, -0.0029468536, -0.1011962891, 0.0855712891, 0.0046577454, 0.0317382812, -0.0243225098, -0.0391540527, 0.0808715820, -0.0130157471, -0.0390319824, 0.0045928955, -0.0200195312, 0.0355224609, 0.0739135742, -0.0164031982, -0.0855102539, -0.0572814941, 0.0556335449, -0.1387939453, 0.0018281937, 0.0725097656, -0.0603027344, 0.0460510254, 0.0114288330, -0.0211639404, 0.0659790039, 0.0513000488, -0.0050659180, 0.0652465820, -0.0287628174, -0.0257263184, -0.0191802979, -0.0632934570, -0.0067634583, -0.0122528076, -0.0201416016, -0.0866088867, 0.0898437500, -0.0115966797, -0.0654907227, -0.0847778320, 0.1717529297, 0.0169982910, -0.0389404297, -0.0861206055, 0.1138305664, 0.0033073425, -0.0019893646, 0.0200042725, -0.0452880859, 0.0383605957, 0.0374450684, -0.0358886719, 0.0860595703, -0.0765380859, -0.0323486328, -0.0088272095, 0.0254058838, -0.0872192383, -0.0093536377, -0.0116729736, 0.0545959473, -0.0650024414, 0.1176757812, 0.0897827148, 0.0237884521, -0.1106567383, -0.0383300781, -0.0260009766, -0.0467834473, 0.0238952637, -0.0558776855, 0.0516357422, -0.0506591797, 0.0540466309, 0.0057411194, -0.0011711121, 0.0223388672, -0.1314697266, 0.0428771973, -0.0429992676, 0.0731811523, 0.0419311523, -0.0054931641, 0.0670166016, -0.0734252930, -0.1610107422, 0.0642700195, 0.0172576904, -0.0420837402, 0.0513916016, 0.0074157715, -0.0101623535, 0.0142974854, -0.0232086182, -0.0317687988, 0.0661621094, -0.0466003418, 0.0206756592, 0.0791015625, 0.0064773560, 0.0348815918, -0.0209808350, -0.1425781250, -0.0065040588, 0.0010728836, 0.0046653748, 0.0972290039, -0.0250396729, -0.0364685059, -0.0408935547, -0.0137863159, 0.1102294922, 0.0166320801, -0.0272979736, 0.0355529785, -0.0369262695, 0.0346374512, -0.0672607422, 0.0172729492, 0.0051345825, 0.0509033203, 0.0154113770, 0.0663452148, 0.0888061523, -0.0613708496, -0.0320434570, -0.0183258057, -0.0074081421, 0.0075950623, -0.0782470703, -0.0344238281, -0.0293884277, 0.0454406738, 0.1180419922, 0.0162506104, -0.1727294922, 0.0664672852, -0.0034828186, 0.0498046875, -0.0335083008, 0.0405273438, 0.0496826172, 0.0269775391, -0.0638427734, -0.0691528320, -0.0199279785, 0.0052146912, -0.0212554932, -0.0074958801, 0.0233154297, 0.0011739731, -0.0178985596, 0.0208892822, 0.0146026611, -0.0762329102, -0.0098419189, -0.0298767090, 0.0235137939, -0.0033531189, 0.0669555664, 0.0211181641, -0.0175476074, 0.0729980469, -0.0301208496, -0.0636596680, -0.0579223633, 0.0041236877, 0.0221862793, 0.0657348633, -0.0525512695, 0.0457763672, -0.1328125000, -0.0894775391, 0.0726318359, 0.0153656006, 0.0059890747, -0.0145950317, 0.0217895508, 0.0917358398, 0.0421447754, 0.0034046173, 0.0205383301, -0.0486755371, 0.0427551270, -0.1109008789, 0.0242919922, 0.0188751221, -0.0692749023, -0.0115814209, 0.0114364624, 0.0165863037, -0.0018224716, -0.0083084106, 0.1475830078, -0.0449829102, -0.0693359375, -0.0605163574, -0.0755615234, 0.0049591064, 0.0429687500, -0.1016235352, 0.0897827148, 0.0222930908, 0.0580139160, -0.0045928955, -0.0007195473, -0.0064620972, -0.0396728516, -0.0438537598, 0.0078506470, 0.0119018555, -0.0429992676, 0.1479492188, -0.0059356689, 0.0239562988, -0.0792846680, 0.0155029297, -0.0461730957, 0.0988159180, -0.0505371094, 0.0282745361, -0.0246582031, -0.0056037903, -0.0221862793, 0.0128479004, 0.0186004639, 0.0185394287, -0.0523071289, 0.0034217834, -0.0246887207, 0.0391845703, 0.0265197754, 0.0456237793, -0.0757446289, -0.0414123535, 0.0582580566, 0.0148239136, 0.0207824707, -0.0955200195, -0.0330200195, -0.0265045166, 0.0328979492, -0.0070304871, 0.0104598999, 0.0184783936, -0.0123367310, 0.0726928711, 0.0407409668, 0.0414733887, 0.0362854004, 0.0211334229, -0.0631103516, -0.0384216309, -0.0557556152, -0.0002729893, 0.0081253052, 0.0096588135, 0.0368041992, -0.0575561523, 0.0382080078, -0.0365905762, 0.0301055908, 0.0335693359, -0.0920410156, -0.1135253906, 0.0629272461, 0.0155334473, 0.0346679688, 0.0211486816, 0.0428161621, -0.0562133789, -0.0571594238, -0.0123748779, 0.0491943359, -0.0635375977, 0.0042152405, 0.0513000488, -0.0080261230, 0.0097656250, -0.0395202637, -0.0797729492, 0.0080184937, -0.0050811768, -0.0120849609, -0.0194702148, 0.0553588867, 0.0347900391, -0.0752563477, -0.0350341797, 0.0010519028, 0.0178680420, -0.0792236328, -0.0154037476, 0.0772094727, 0.0346069336, -0.0479125977, 0.0960693359, -0.0541076660, -0.0700683594, -0.0848999023, 0.0445251465, 0.0446777344, -0.0043487549, 0.0105972290, 0.0049667358, 0.0165252686, 0.0534973145, -0.0562744141, -0.0074577332, -0.0822143555, -0.0470275879, 0.0240936279, 0.0015649796, 0.0038051605, 0.0648803711, -0.0073852539, 0.0837402344, 0.0248260498, -0.0233154297, 0.0933837891, 0.0011272430, -0.0717163086, -0.0308532715, 0.0448303223, 0.0534057617, -0.0374450684, -0.0157012939, 0.0397644043, 0.0364379883, 0.0593566895, 0.0454711914, -0.0567932129, 0.0084152222, -0.0122604370, -0.0908813477, 0.0240325928, -0.0049896240, 0.0303344727, 0.0028514862, -0.0528259277, 0.0429077148, 0.0283660889, -0.0058174133, -0.0254974365, 0.0661010742, -0.0476684570, -0.0359191895, -0.1719970703, 0.0154495239, -0.0176391602, -0.0608215332, 0.0505676270, 0.0544433594, 0.0725097656, 0.0310821533, 0.0147933960, -0.0430603027, -0.1033325195, -0.0001149178, -0.0084991455, -0.0659790039, 0.0747680664, -0.0249023438, 0.0100326538, 0.0039215088, -0.0066490173, 0.0804443359, -0.0722656250, 0.0531005859, -0.0590820312, -0.0084838867, 0.0737304688, 0.0498352051, -0.0283203125, -0.0709228516, 0.0610046387, 0.0133056641, 0.0958251953, 0.1018066406, 0.0037746429, 0.0130996704, -0.0581054688, 0.0709838867, 0.0335083008, -0.0919799805, -0.0398559570, -0.0642700195, 0.0165863037, 0.0330200195, -0.0311279297, 0.0142822266, -0.0005903244, 0.0162963867, -0.0156707764, -0.0186767578, -0.0018682480, 0.0643310547, 0.0262298584, 0.0276947021, -0.0475769043, 0.0402526855, -0.0259704590, -0.0026111603, 0.0038681030, -0.0379638672, 0.0570068359, -0.0604248047, -0.0513610840, 0.0300445557, -0.0211334229, -0.0297698975, -0.0237274170, 0.1014404297, 0.0218811035, -0.0275115967, -0.0914916992, 0.0321960449, -0.0869140625, 0.0815429688, 0.0395202637, -0.0605468750, 0.0659179688, -0.0219879150, 0.0241394043, -0.0640258789, -0.0008587837, -0.0265045166, 0.0921630859, 0.0023174286, 0.0072555542, -0.0225524902, -0.0222015381, -0.0047492981, 0.0188903809, -0.1104736328, 0.0206909180, -0.0084533691, -0.0008907318, 0.1234130859, -0.0408630371, -0.0077056885, -0.0218200684, -0.0177917480, -0.0168762207, -0.0596923828, 0.0492553711, -0.0112686157, 0.1791992188, 0.0404357910, 0.0860595703, 0.0972900391, -0.0692749023, 0.0385437012, -0.0262756348, -0.2114257812, -0.1119384766, -0.0789184570, 0.0251770020, -0.0046806335, 0.0363159180, 0.0097732544, 0.0328979492, 0.0313720703, -0.0098266602, -0.0627441406, -0.0347900391, -0.0104446411, -0.0652465820, 0.0912475586, -0.0225677490, 0.0070686340, -0.0470275879, 0.0921630859, -0.0555725098, -0.0136642456, -0.0439147949, 0.0488281250, -0.0067405701, 0.0134582520, 0.1216430664, 0.0026340485, -0.0165863037, -0.0282440186, -0.0623474121, 0.0041885376, 0.0195007324, -0.0682373047, 0.0368652344, 0.0831909180, 0.1032714844, -0.0662841797, 0.0630493164, -0.0487060547, 0.0104293823, -0.1361083984, 0.0526123047, -0.0866088867, -0.0505676270, -0.0119171143, -0.0457458496, 0.0528869629, 0.0520935059, -0.0349121094, 0.0478820801, 0.0067939758, -0.0317687988, -0.0098114014, -0.0227508545, 0.0759887695, 0.0026550293, -0.0295104980, -0.0126724243, -0.0062828064, 0.0508728027, -0.0948486328, 0.0748291016, -0.0146179199, 0.0042800903, -0.0180664062, -0.0378723145, -0.0034389496, -0.0148925781, 0.0357360840, -0.0453491211, -0.1115112305, 0.0558776855, 0.0133438110, -0.0511169434, 0.0979614258, -0.0234832764, -0.0373840332, 0.0639648438, 0.0656738281, 0.0294189453, -0.0473937988, -0.1098022461, -0.0462951660, -0.0231628418, 0.0436401367, 0.0175781250, 0.0190887451, -0.0401306152, 0.0615844727, -0.0182189941, -0.0298767090, -0.0314331055, 0.0560607910, -0.0165557861, -0.0013008118, -0.0514831543, -0.1497802734, 0.2031250000, 0.0819091797, -0.0412902832, -0.0481872559, -0.0023307800, 0.0195159912, 0.0139541626, 0.0086746216, -0.1137695312, 0.0467224121, 0.1226196289, -0.1324462891, 0.0261840820, 0.0315551758, -0.0036506653, -0.0109710693, -0.0311584473, -0.0379333496, 0.0456237793, -0.0828857422, 0.1413574219, 0.0034770966, 0.0430297852, -0.0589599609, -0.0212097168, -0.0108795166, -0.0588378906, -0.0189208984, -0.0558471680, 0.0328063965, 0.0026397705, 0.0045623779, 0.0618286133, 0.0069427490, -0.1230468750, -0.0117721558, 0.0566406250, 0.0685424805, 0.0504760742, 0.0169525146, -0.0149917603, -0.0611572266, -0.0603027344, -0.0617980957, 0.0064544678, 0.0006985664, 0.0466918945, -0.0161590576, -0.0052947998, -0.0246582031, 0.0475769043, -0.0453796387, -0.0120010376, -0.0098190308, 0.0484924316, 0.0119552612, -0.0110931396, -0.0654907227, -0.0084381104, -0.0596923828, -0.0080184937, 0.0628051758, -0.0361328125, 0.0542907715, 0.0853881836, 0.0328063965, -0.0175781250, 0.0549621582, -0.0193023682, 0.0073165894, 0.0246276855, -0.0324096680, 0.0174865723, -0.0478210449, 0.1077880859, -0.0951538086, -0.0047073364, 0.0573425293, -0.0439453125, 0.0099563599, -0.0427856445, -0.0017633438, -0.0657348633, 0.0285034180, 0.0121994019, 0.0634155273, 0.0097503662, 0.0502319336, -0.0452575684, 0.0392150879, -0.0817871094, 0.0617370605, 0.0822143555, -0.0007534027, -0.1226196289, -0.0595397949, -0.0209350586, 0.0181274414, -0.0582275391, 0.0250854492, 0.0354919434, -0.0547485352, 0.0391235352, 0.0002400875, 0.0095214844, 0.0038967133, -0.0651855469, 0.0148315430, -0.0012016296, -0.1400146484, -0.0034103394, 0.0827636719, -0.0513916016, 0.0487976074, 0.0128402710, 0.1492919922, 0.0607910156, -0.0836181641, -0.0865478516, 0.0331115723, 0.0977783203, 0.0172576904, 0.0311889648, -0.0429992676, 0.0473327637, -0.0466003418, -0.0343933105, -0.0060157776, -0.0817260742, 0.0019664764, 0.0344238281, -0.0105209351, 0.0286254883, -0.0510559082, -0.0252227783, 0.0979003906, 0.0497131348, 0.0570068359, -0.0236206055, 0.0037555695, -0.1567382812, 0.0063133240, -0.0182952881, 0.0624694824, -0.0780029297, 0.0364074707, 0.0274047852, 0.0221405029, -0.0891723633, 0.0151519775, 0.0426940918, 0.0426940918, 0.0140533447, -0.0966796875, 0.0348510742, 0.0124282837, -0.0234222412, -0.0566406250, -0.0181121826, 0.0393066406, 0.0187835693, -0.0081405640, -0.0583190918, 0.0338745117, 0.0604858398, -0.0030307770, -0.0062484741, -0.0235443115, -0.0399475098, -0.0313110352, 0.1689453125, -0.0920410156, 0.0088882446, 0.1182250977, 0.0266113281, -0.0771484375, 0.0409240723, -0.0324096680, -0.0315551758, 0.0009722710, -0.0264587402, -0.1564941406, 0.0688476562, -0.0019702911, 0.0388183594, 0.1242675781, 0.0055122375, 0.0031852722, 0.1362304688, -0.0332031250, 0.0345764160, -0.0149002075, 0.0137405396, -0.0643310547, 0.0289459229, 0.0463562012, -0.0064048767, -0.0363464355, -0.1046142578, -0.0472717285, 0.0541992188, -0.0989379883, -0.0321350098, 0.1827392578, 0.0563659668, 0.1262207031, -0.0330200195, -0.0651855469, -0.0881958008, -0.0397644043, 0.0228271484, 0.0569763184, 0.0332641602, 0.0652465820, 0.0050888062, 0.0607299805, 0.0149536133, 0.0476684570, 0.0101852417, -0.0287780762, 0.0318298340, -0.0763549805, 0.0396728516, -0.0606689453, -0.0314941406, 0.0292510986, 0.0266418457, -0.0836181641, -0.0198211670, -0.0291290283, -0.0255737305, 0.0441589355, 0.0501098633, 0.0263061523, 0.0269622803, -0.0378723145, -0.0634155273, 0.0391540527, 0.0102615356, -0.0314636230, -0.0169830322, 0.0375366211, -0.0079650879, 0.0506896973, -0.0244293213, 0.0382385254, 0.0458679199, 0.0159149170, -0.0730590820, 0.0273895264, 0.1073608398, -0.1069335938, -0.0170135498, 0.0475463867, 0.0013046265, 0.0146408081, -0.0031757355, 0.0093688965, 0.0436096191, -0.0351257324, 0.1667480469, -0.0485839844, -0.0807495117, -0.0490722656, -0.0053176880, 0.0035877228, 0.0203094482, 0.0228118896, 0.0380249023, -0.0153427124, -0.0268402100, -0.0366210938, -0.0184326172, -0.0391540527, -0.0057373047, 0.0764160156, -0.0014085770, -0.0773315430, -0.0277404785, -0.0015783310, 0.0229797363, -0.0157470703, -0.0467529297, 0.1185913086, -0.0321960449, -0.0539550781, -0.0359802246, 0.0048027039, 0.0327148438, 0.0537719727, -0.0926513672, -0.0309906006, -0.0253295898, 0.0766601562, 0.0394287109, -0.0429687500, -0.0327453613, -0.0239410400, -0.0133285522, 0.0683593750, -0.0014553070, 0.0823974609, 0.0196380615, -0.0920410156, -0.0179901123, 0.0004792213, -0.0420227051, -0.0316162109, 0.0492553711, -0.1802978516, 0.1345214844, -0.0364685059, 0.0215148926, 0.0414123535, -0.0061111450, 0.0944824219, -0.0645751953, 0.0347595215, 0.0486755371, -0.0030231476, -0.0141372681, -0.0415344238, 0.0108871460, 0.0615234375, 0.0526428223, 0.0079727173, -0.1671142578, -0.0317077637, 0.0562438965, -0.0050201416, 0.0350952148, -0.0225830078, -0.0100708008, 0.0419921875, -0.0389709473, -0.0050354004, 0.0338439941, 0.0197601318, -0.0467834473, 0.0529174805, -0.0331115723, 0.0216674805, -0.0274505615, -0.0067787170, 0.0202636719, 0.0059585571, 0.0071296692, 0.0148010254, -0.0505065918, 0.0937500000, -0.0789184570, 0.0355834961, 0.0247650146, -0.0164642334, 0.0023097992, 0.0207977295, -0.0028076172, -0.0370788574, -0.0233001709, 0.0503234863, 0.0592956543, 0.0466003418, -0.0769653320, -0.1038208008, 0.0063438416, 0.0820312500, -0.1152954102, -0.0355224609, 0.0645751953, -0.0354919434, 0.0131988525, 0.0582885742, -0.0197601318, 0.0148315430, -0.0353698730, 0.0748291016, -0.0363159180, -0.0859985352, -0.0275878906, 0.0848388672, 0.0042152405, 0.0266113281, -0.0015296936, 0.0046615601, -0.0063476562, 0.0080413818, 0.0537109375, 0.0624694824, -0.0149230957, -0.0409851074, -0.0278320312, 0.0143280029, 0.1357421875, -0.0953369141, -0.0360412598, -0.0053100586, -0.0085754395, 0.0014171600, -0.0986938477, 0.1306152344, -0.0403137207, 0.0253295898, 0.0905761719, -0.0903930664, -0.0631713867, -0.0135269165, -0.1012573242, 0.0067329407, 0.0420532227, 0.0237579346, 0.1274414062, -0.0194702148, -0.0500793457, -0.0241241455, 0.0064888000, -0.0401000977, -0.0355529785, -0.0686035156, -0.0108337402, -0.0819702148, -0.0047607422, -0.0054473877, 0.0582275391, 0.1317138672, 0.0844726562, -0.0482177734, -0.0762329102, 0.0077095032, -0.0021877289, -0.0517883301, -0.0489501953, 0.0476074219, 0.0409851074, -0.0292358398, -0.0382690430, 0.1122436523, -0.0152053833, -0.0077323914, 0.0519409180, 0.0043334961, 0.0030479431, 0.0635375977, 0.0273132324, -0.0591125488, 0.0311584473, -0.0595703125, -0.0104980469, 0.0631103516, 0.0292358398, -0.0476684570, 0.0118331909, -0.0118865967, -0.0169982910, -0.0714111328, 0.0375976562, 0.0331115723, -0.0275726318, 0.0006904602, 0.0239868164, 0.0224304199, 0.0112304688, -0.0334777832, 0.0433044434, -0.0917968750, -0.0225677490, -0.0511474609, 0.0628051758, 0.0606994629, 0.0527648926, -0.0567016602, -0.0108032227, -0.0335693359, -0.0004916191, -0.0549621582, 0.0653686523, -0.0765380859, 0.0235748291, 0.0025424957, 0.0273437500, 0.0693359375, -0.0560302734, 0.0245666504, -0.0670776367, -0.0204925537, 0.0458984375, -0.0203552246, -0.0548706055, -0.0365905762, -0.0553588867, 0.0015096664, 0.0605468750, 0.0644531250, 0.0680541992, -0.0106811523, -0.0363464355, -0.0446472168, -0.0504760742, -0.0508422852, 0.0082702637, 0.0108261108, 0.0295410156, -0.0215759277, 0.0629272461, 0.0172424316, -0.0006384850, -0.0170135498, 0.0211791992, 0.0083923340, 0.0364074707, -0.0034980774, 0.0117263794, -0.0398559570, -0.0194091797, -0.0178070068, 0.0162048340, 0.0215454102, -0.0394287109, -0.0454101562, -0.0597229004, 0.0060348511, -0.0028820038, -0.1115722656, 0.0633544922, 0.1446533203, 0.0741577148, 0.0139236450, 0.0012416840, 0.0089263916, 0.0652465820, 0.0458068848, -0.0272674561, 0.1550292969, -0.0983886719, -0.1223754883, -0.0880126953, 0.0245513916, -0.0853271484, 0.0014390945, 0.0625610352, -0.1074218750, 0.0656127930, 0.0457458496, -0.0489807129, -0.0046157837, -0.0215148926, 0.0104141235, 0.0357971191, 0.0508117676, -0.0398254395, -0.0477600098, 0.0096969604, 0.0930175781, 0.0023632050, -0.0532836914, 0.0537109375, 0.0029811859, -0.0723876953, -0.1303710938, -0.1191406250, -0.0303649902, -0.0137481689, 0.1000366211, 0.0041809082, 0.1845703125, 0.0554504395, -0.1174926758, -0.0481872559, -0.0615234375, -0.0545043945, 0.0384521484, 0.0332946777, -0.0328979492, 0.0281066895, 0.0135498047, -0.0039482117, 0.0680541992, -0.0118865967, -0.0568847656, 0.0172729492, -0.0047569275, 0.0695800781, -0.0215301514, -0.0688476562, 0.0380249023, -0.0654296875, 0.0379943848, 0.0211334229, -0.0880737305, -0.0442199707, -0.0503845215, 0.0272064209, 0.0379943848, -0.0021324158, 0.0619201660, 0.0205383301, 0.0071411133, 0.0332336426, 0.0132598877, -0.0348205566, -0.0634155273, 0.0308532715, -0.0512695312, -0.0256652832, 0.1469726562, 0.0448913574, -0.0972900391, 0.0114440918, -0.0681762695, 0.0428466797, -0.0178680420, 0.0096435547, -0.0473327637, -0.0645751953, 0.0982055664, 0.0000507832, -0.0034599304, 0.0189514160, -0.0317077637, 0.0026741028, -0.0805053711, -0.0139999390, 0.0458984375, 0.1312255859, 0.0384521484, -0.0305480957, -0.0586242676, -0.0493774414, 0.0054779053, 0.0521545410, 0.0563964844, 0.0075950623, -0.0388488770, 0.0142211914, -0.0594787598, -0.1139526367, 0.0514831543, 0.0462646484, -0.0163726807, 0.0216369629, 0.0455627441, -0.0391845703, -0.0265197754, -0.0413208008, 0.0129318237, -0.0084228516, 0.0152587891, -0.0243530273, 0.0364685059, -0.0422973633, 0.0590820312, 0.0321044922, -0.1394042969, 0.0521545410, 0.0971679688, 0.0371704102, 0.0155410767, -0.0450744629, -0.0033359528, 0.0116424561, -0.0056381226, -0.0383300781, -0.0383911133, 0.0164031982, 0.0342712402, 0.0181274414, 0.0993041992, 0.1079711914, 0.0409545898, -0.0190429688, 0.1333007812, -0.1439208984, 0.0637207031, 0.0414123535, -0.1104736328, -0.1839599609, 0.0438537598, 0.0116500854, 0.0801391602, -0.0464782715, -0.0236206055, -0.0900878906, -0.0895996094, 0.0200805664, -0.0289001465, 0.0217895508, 0.1083984375, -0.0183410645, 0.0201721191, 0.0169219971, -0.0560913086, 0.1205444336, -0.0783081055, -0.1095581055, -0.0091323853, 0.0550537109, 0.1126098633, 0.0750732422, 0.0218353271, 0.0338134766, -0.0450439453, -0.0386047363, 0.0939331055, -0.1359863281, 0.0975341797, -0.1134643555, -0.0321350098, -0.0485229492, -0.0941162109, 0.1719970703, -0.0158081055, -0.0379333496, 0.0645141602, 0.0264739990, -0.0914306641, 0.0538330078, -0.0130996704, -0.0938720703, 0.1290283203, -0.0822143555, -0.0321960449, 0.0062637329, 0.0138854980, -0.0183563232, 0.0693359375, -0.0394592285, 0.0092697144, -0.1067504883, 0.0546264648, -0.0249786377, 0.0362854004, 0.1186523438, -0.0843505859, -0.1320800781, 0.1295166016, 0.0437316895, -0.0657348633, -0.0276947021, 0.0332031250, 0.0166320801, 0.0128250122, -0.0977172852, 0.1098022461, -0.0141220093, -0.1137695312, -0.0568542480, 0.0837402344, -0.0899658203, 0.0312805176, 0.0121459961, 0.0544738770, -0.0116729736, -0.0228271484, 0.0052108765, 0.0427551270, -0.0643310547, -0.0093078613, 0.0027446747, -0.0034656525, 0.0475158691, 0.0474548340, -0.1058349609, -0.0100173950, 0.0060424805, -0.0317382812, -0.0831298828, 0.0777587891, -0.0061264038, -0.1231079102, -0.0070533752, 0.0163421631, 0.0606689453, -0.0182342529, 0.0036182404, -0.0200347900, -0.0209197998, 0.0697021484, -0.0938110352, 0.0788574219, 0.0062255859, -0.0395202637, -0.0340881348, 0.0073318481, 0.0609741211, 0.0035095215, 0.0076560974, 0.0377197266, 0.0028648376, -0.0075302124, -0.0039024353, 0.0525207520, 0.0190277100, 0.0598754883, 0.0591430664, 0.0022201538, -0.0433654785, -0.1527099609, 0.0219116211, 0.0223541260, 0.0068817139, -0.0477294922, -0.0435485840, 0.0468444824, -0.0262603760, 0.0331115723, 0.0015535355, -0.0095596313, -0.0326538086, -0.0105209351, 0.0050773621, 0.0444335938, -0.0217437744, 0.0312194824, 0.0415649414, -0.0204772949, -0.1121826172, 0.0260620117, -0.0326843262, 0.0294189453, 0.0116653442, -0.0242919922, -0.0233612061, 0.0043334961, -0.0173797607, -0.0762329102, 0.1047973633, -0.0272216797, 0.0225830078, -0.0067176819, 0.0202636719, -0.0344848633, 0.0238647461, -0.1233520508, -0.0505065918, 0.0465698242, 0.1132812500, 0.0399780273, -0.0058174133, -0.0392456055, -0.0541687012, 0.0228576660, -0.0178070068, 0.0078811646, -0.0071983337, 0.1000366211, -0.0011882782, 0.0404052734, -0.0827636719, 0.0193786621, -0.0366210938, 0.0173339844, 0.0963134766, 0.0495605469, 0.0012149811, -0.0750732422, -0.0272979736, -0.0827026367, -0.0077552795, 0.0286712646, -0.0057373047, 0.0749511719, -0.0309906006, -0.0404968262, -0.0298767090, 0.0537109375, -0.0894165039, -0.0426025391, -0.0051345825, 0.0305786133, -0.0346679688, 0.1065063477, -0.0891723633, 0.0577392578, -0.0348815918, -0.0482177734, -0.0123291016, -0.0321350098, -0.0636596680, -0.0056838989, 0.0506591797, 0.0494689941, -0.0786132812, 0.0263977051, -0.0379028320, 0.0104141235, -0.0229492188, 0.0104904175, 0.0057296753, 0.0151367188, -0.0063819885, 0.0159912109, 0.0763549805, 0.0791625977, 0.0297851562, -0.1257324219, -0.0350952148, 0.0198516846, 0.0209808350, 0.0254364014, -0.0346679688, 0.1062011719, -0.0447387695, -0.0336608887, -0.0239715576, 0.0068168640, 0.0061759949, -0.1026000977, 0.0906982422, 0.1203002930, 0.0052185059, -0.0960083008, -0.0030136108, -0.0938720703, 0.0823364258, -0.0023784637, 0.0015583038, -0.0527343750, 0.0474853516, 0.0358276367, 0.0269622803, -0.1163940430, 0.0139999390, -0.0160675049, 0.0921020508, -0.0019855499, -0.0291442871, -0.0725708008, -0.1087646484, -0.0110015869, 0.0700073242, -0.0305938721, -0.0299530029, -0.0102157593, 0.0438537598, 0.0739746094, -0.0040893555, 0.0142898560, 0.0365600586, -0.0580749512, -0.0651245117, -0.0054244995, -0.0930175781, 0.0386962891, 0.0063323975, 0.0795898438, -0.1121215820, 0.0701293945, -0.0199279785, -0.0026283264, 0.0110855103, 0.1014404297, -0.1108398438, 0.0300750732, 0.0344238281, -0.0451660156, -0.0500488281, 0.0187225342, -0.0691528320, 0.0369873047, -0.1065673828, -0.0278930664, 0.0618896484, -0.0580139160, 0.0744018555, 0.0931396484, -0.0006661415, 0.0041465759, -0.0078506470, 0.0398864746, -0.0368041992, -0.0900268555, 0.0087814331, 0.0670166016, -0.0858154297, 0.0065536499, 0.0119247437, 0.0451049805, 0.0559387207, -0.0033740997, -0.1134033203, 0.0013618469, -0.0613403320, 0.0437622070, 0.0130691528, 0.0207824707, 0.0418090820, -0.0184783936, -0.0002353191, -0.0027732849, 0.0270843506, 0.0022773743, -0.0856323242, 0.0273437500, 0.0027809143, 0.0143814087, -0.0084915161, 0.0559997559, 0.0425720215, 0.0051498413, 0.0216827393, -0.0260925293, 0.0766601562, -0.0479125977, -0.0089492798, -0.0080184937, -0.0239868164, -0.0244750977, 0.0935058594, 0.0453796387, -0.0038299561, -0.0915527344, 0.0564880371, -0.0720214844, 0.0353088379, -0.0074157715, -0.0868530273, -0.0091094971, 0.0532836914, 0.0168914795, -0.0720214844, -0.0078048706, 0.0094833374, 0.0836791992, 0.0742797852, -0.1030883789, -0.0034408569, -0.0429992676, -0.0016374588, 0.0514831543, -0.0128326416, 0.0620422363, 0.0608825684, 0.0252075195, -0.0765991211, -0.0771484375, -0.0856933594, 0.0052642822, -0.0046882629, 0.0040206909, -0.0844116211, 0.0283050537, 0.0201263428, -0.0712280273, -0.0979003906, 0.1549072266, -0.0163269043, -0.0385437012, -0.0183563232, -0.0541076660, -0.0370483398, -0.0333557129, -0.0237121582, 0.0101394653, 0.0424804688, -0.0352478027, -0.0343322754, 0.1252441406, -0.0364685059, -0.0011882782, 0.0457458496, -0.0633544922, 0.0049858093, -0.0448913574, 0.0776367188, -0.0067672729, -0.0127487183, 0.0254211426, -0.0420837402, -0.0715942383, 0.0336608887, -0.0886230469, 0.0370178223, 0.0125198364, 0.0332031250, 0.0387268066, 0.0152511597, 0.0637817383, -0.1323242188, 0.0094604492, -0.0085754395, 0.0099182129, -0.0081634521, -0.0657348633, 0.0552673340, 0.0744628906, 0.0278778076, -0.0264282227, -0.0773315430, -0.0169830322, -0.0051918030, 0.0430603027, 0.0079498291, -0.0781250000, -0.0433654785, 0.0971069336, -0.0040588379, -0.0021877289, 0.0289611816, 0.0049476624, -0.0747070312, -0.0431518555, -0.0089874268, -0.0349121094, 0.0077247620, 0.0725708008, 0.0286102295, 0.0440063477, -0.0006055832, 0.0335693359, 0.0774536133, 0.0174865723, -0.1008300781, 0.0682373047, 0.0026893616, -0.0456237793, -0.0015001297, -0.0714721680, -0.0426025391, -0.0098724365, -0.0977783203, -0.0040664673, 0.0715332031, 0.0571289062, -0.0296478271, 0.0103225708, -0.0139007568, 0.0339660645, 0.0193023682, 0.0308990479, -0.0265045166, 0.0402526855, -0.0420837402, -0.0602111816, 0.0373229980, 0.0544433594, 0.0381164551, -0.0379638672, -0.0603637695, -0.0229644775, 0.0321350098, -0.0088272095, 0.0153884888, -0.0027427673, -0.0368652344, 0.0302581787, -0.0959472656, 0.1242065430, -0.0173797607, -0.0524597168, 0.0268707275, -0.0253601074, 0.0304260254, 0.0432739258, -0.0088119507, -0.0350341797, 0.0243988037, -0.0144348145, 0.0070381165, 0.0248413086, -0.0640258789, 0.0503540039, -0.0021991730, -0.0467834473, -0.0162048340, -0.0097885132, -0.0391235352, 0.0326843262, -0.0230865479, 0.0170135498, -0.0451049805, 0.0747070312, 0.0252990723, -0.1271972656, 0.0051345825, -0.0016746521, 0.0642700195, 0.0168762207, 0.0735473633, -0.0467834473, -0.0433044434, 0.0493164062, 0.0065727234, -0.0137939453, -0.0462341309, -0.0756225586, 0.0388793945, 0.1111450195, -0.0481567383, 0.0076446533, -0.0102691650, 0.0000233054, -0.0758666992, 0.0945434570, -0.0180816650, 0.0081710815, 0.0283813477, 0.0202178955, -0.0918579102, 0.0040016174, 0.0689697266, -0.1917724609, 0.1145629883, 0.0422363281, -0.0247650146, 0.0266265869, -0.0355834961, -0.0085906982, 0.0558166504, -0.0050125122, -0.0175323486, -0.0051231384, -0.1350097656, 0.0911865234, -0.0546875000, 0.0054130554, -0.0265960693, 0.0577392578, 0.0774536133, -0.0021400452, -0.0288391113, -0.1291503906, 0.0416259766, -0.0607604980, -0.0614624023, 0.0733032227, 0.0783691406, 0.0234680176, 0.0366516113, -0.0306243896, 0.0006294250, -0.0759887695, 0.0846557617, -0.0193786621, 0.0382690430, 0.0150146484, -0.0534362793, 0.0216522217, -0.0783691406, 0.0525207520, -0.0721435547, 0.0957641602, -0.0108413696, -0.0369567871, 0.0068855286, 0.0807495117, -0.0313110352, 0.0089111328, -0.0401000977, -0.0116806030, 0.0314941406, 0.0127868652, 0.0443420410, -0.0533142090, -0.1223754883, -0.0343322754, 0.0150222778, 0.0508117676, -0.0541687012, 0.0419006348, 0.0355834961, 0.1002197266, 0.0184326172, -0.1209716797, -0.0178833008, 0.0834960938, -0.0402221680, -0.1030273438, 0.0144729614, 0.1224365234, 0.0050430298, 0.0078964233, -0.0125122070, -0.0383605957, -0.0300598145, 0.0042266846, -0.0844116211, 0.0734863281, -0.0013723373, -0.0005636215, 0.0643920898, -0.1463623047, 0.0936279297, -0.0671997070, -0.0278625488, 0.0514221191, -0.0237579346, 0.0995483398, -0.0110931396, 0.0797119141, -0.1231689453, 0.0377197266, 0.0786132812, -0.0055770874, -0.0158081055, 0.0292968750, 0.0806884766, -0.0899658203, -0.0520019531, -0.0535278320, 0.0136337280, 0.0327148438, 0.1197509766, 0.0820312500, -0.0392761230, -0.0899047852, 0.0184783936, -0.0183563232, -0.1055908203, -0.0297698975, 0.0141372681, 0.0789184570, -0.0155181885, 0.0648193359, 0.0424194336, -0.0540161133, -0.0305023193, 0.0165405273, -0.0214843750, 0.1263427734, -0.1245117188, 0.0574035645, -0.0221099854, -0.0729370117, -0.0415039062, -0.0908203125, 0.0894165039, 0.1544189453, -0.0373229980, 0.0759277344, -0.0853271484, 0.0785522461, -0.0419006348, -0.0595092773, -0.0340270996, -0.0179290771, 0.0592651367, 0.0958862305, 0.0623474121, 0.0364379883, 0.0272979736, -0.0595092773, -0.0241851807, -0.0323791504, -0.0145645142, -0.0045814514, -0.0667724609, 0.0393371582, -0.0372009277, 0.0169982910, -0.0288391113, 0.0234069824, 0.0131225586, -0.0171813965, -0.0204162598, 0.1044921875, -0.0867919922, 0.0525207520, 0.0458984375, 0.1203613281, -0.1185913086, -0.0687866211, 0.0370788574, 0.0285644531, -0.0676879883, 0.0352783203, 0.0654296875, 0.0476989746, -0.0469360352, -0.0161743164, -0.0794067383, 0.0247192383, 0.0023708344, 0.0895996094, 0.0522155762, -0.0151596069, -0.0144119263, -0.0484924316, 0.0605163574, 0.0621032715, -0.0936889648, -0.0095901489, 0.0545043945, 0.0847167969, -0.0850830078, -0.1262207031, 0.0712890625, -0.0485229492, 0.0323181152, 0.0392761230, 0.0125961304, -0.1442871094, -0.0566101074, 0.0382995605, -0.0160217285, 0.0552368164, -0.0483703613, 0.0396118164, 0.0376281738, 0.0550537109, -0.0030765533, -0.0607299805, 0.0264434814, 0.0195007324, 0.0466613770, -0.0603027344, 0.0626831055, 0.0211029053, 0.0405883789, 0.0099639893, 0.0224761963, -0.0750732422, -0.0734252930, 0.0455932617, 0.0051536560, 0.0089035034, -0.0761108398, 0.0257415771, 0.0261535645, -0.0194244385, -0.0975952148, 0.0147399902, -0.0020713806, -0.0595092773, 0.0234680176, 0.1083374023, 0.0175781250, 0.0237579346, -0.0133361816, 0.0426330566, -0.0828247070, -0.1019287109, 0.1693115234, -0.0255584717, 0.0167541504, -0.0630493164, 0.0084609985, 0.0070762634, 0.0236358643, 0.0709228516, 0.0697631836, 0.0042343140, 0.0183868408, -0.0371704102, -0.0114288330, 0.0044021606, -0.1141357422, -0.0187225342, 0.0116043091, 0.0036506653, -0.0234069824, -0.0027084351, 0.0455627441, -0.0590820312, -0.0677490234, 0.0645751953, 0.0084228516, -0.1011352539, 0.0868530273, 0.0994873047, 0.0420837402, 0.0834350586, -0.0345764160, -0.1364746094, -0.0861816406, 0.0135116577, -0.0561828613, 0.0224914551, -0.0129928589, 0.0502624512, 0.1128540039, 0.0089111328, -0.0497436523, -0.0965576172, -0.0770874023, -0.0026226044, 0.0666503906, 0.0187988281, -0.0657958984, 0.0143356323, -0.0381469727, 0.0617065430, -0.0094985962, -0.0110321045, -0.0626831055, 0.0549926758, 0.0733032227, -0.0423583984, 0.0003497601, 0.0046958923, 0.0299835205, -0.0126495361, -0.0126724243, 0.0073432922, -0.0070075989, -0.0298156738, 0.0144805908, -0.0263519287, -0.0434265137, 0.1224975586, -0.0042915344, -0.0362854004, -0.0650024414, 0.0227966309, 0.0723876953, -0.1077270508, 0.0215606689, 0.0216827393, 0.0326232910, -0.0237426758, -0.0005369186, 0.0463867188, -0.0722656250, 0.0180511475, 0.0364685059, 0.0364379883, -0.0654296875, -0.0637817383, -0.0263977051, 0.0672607422, -0.0204315186, 0.0525817871, 0.0221862793, 0.0198974609, -0.0364685059, -0.0963134766, -0.0276641846, 0.0342407227, 0.0266571045, 0.0329589844, 0.0609741211, -0.0046272278, 0.0230102539, 0.0284576416, 0.0032482147, -0.1180419922, 0.0572814941, -0.0789794922, -0.0287170410, -0.0244293213, 0.0198516846, 0.0228576660, 0.0643920898, 0.0499267578, -0.0171966553, -0.0412597656, 0.0377502441, 0.0118255615, -0.0365905762, 0.0723876953, 0.0175476074, 0.0574035645, -0.0751342773, 0.0104904175, 0.0083465576, -0.0740966797, -0.0280303955, 0.0712890625, 0.0508728027, -0.0881347656, -0.1141357422, 0.0354003906, 0.0144958496, -0.0138015747, 0.0145187378, 0.1033325195, 0.0375061035, 0.0022983551, 0.0025367737, -0.0433654785, 0.0048522949, -0.0500183105, -0.1564941406, 0.0894165039, 0.0060119629, 0.0958251953, 0.0261993408, 0.0065994263, 0.0167388916, 0.0650634766, -0.0623168945, -0.0006246567, 0.0620727539, 0.0011644363, -0.0182647705, -0.0620422363, 0.0176696777, 0.0261383057, -0.2065429688, 0.0747070312, 0.0038967133, 0.0768432617, 0.0740356445, -0.2253417969, 0.0342712402, 0.1406250000, 0.0046691895, -0.0243835449, -0.0571594238, 0.0427246094, -0.0291442871, -0.0875854492, 0.0581359863, 0.0525817871, -0.0526123047, 0.0340576172, -0.0230560303, 0.0287322998, -0.1005859375, -0.0020294189, 0.0619201660, -0.1173095703, 0.0259399414, 0.0416870117, 0.0744018555, 0.0187988281, 0.0502014160, -0.0756225586, 0.1112670898, -0.0365905762, -0.0711669922, 0.0324096680, -0.0476379395, 0.0093154907, 0.0602722168, -0.0328979492, 0.0714721680, 0.0130538940, -0.0685424805, 0.0343322754, 0.0347900391, 0.0762329102, -0.0268096924, -0.0196533203, -0.0021171570, -0.0077896118, 0.0452880859, -0.0175323486, 0.0136795044, 0.0419921875, 0.0259704590, 0.0045242310, -0.0147399902, -0.0275878906, -0.0185546875, -0.0650024414, 0.0354614258, -0.0613098145, -0.0773925781, -0.0158996582, 0.0310821533, 0.0154037476, 0.0405578613, -0.0595397949, -0.0491027832, 0.0571289062, -0.0214538574, 0.0148925781, 0.0053901672, -0.0630493164, -0.0465393066, -0.0184783936, 0.0112915039, -0.0845947266, 0.1168823242, 0.0827636719, 0.0474548340, 0.0243682861, 0.0173797607, -0.0374145508, -0.0739135742, 0.0615844727, -0.0140686035, -0.0381774902, 0.0902709961, -0.0044097900, -0.0467529297, 0.0354309082, 0.0819091797, -0.0243682861, 0.0303802490, 0.0386962891, -0.0852050781, 0.0162811279, -0.0055236816, -0.0113220215, -0.0930786133, -0.0443115234, 0.0101776123, 0.0852661133, 0.0347290039, 0.0440368652, -0.0077743530, -0.0055847168, 0.0105667114, -0.1110229492, 0.0273895264, -0.0275115967, -0.0004827976, -0.0555419922, -0.0946044922, 0.0118865967, -0.0057830811, 0.0151214600, 0.0017910004, 0.0638427734, -0.0046234131, 0.0047721863, -0.0872192383, -0.0001376867, 0.0592346191, -0.0314636230, 0.0094299316, -0.0364379883, -0.0275268555, 0.0476684570, -0.1119995117, 0.1093750000, -0.0085296631, -0.0693969727, 0.0387268066, 0.0384216309, 0.0176239014, 0.0208282471, 0.0001301765, -0.1100463867, 0.0681152344, -0.0260467529, -0.0208740234, -0.0062561035, -0.0010356903, 0.0097732544, -0.0413208008, 0.0221862793, -0.0298156738, 0.0335998535, -0.0576477051, -0.0250549316, -0.0528869629, 0.0149078369, -0.0576782227, 0.0072555542, 0.1385498047, 0.0269775391, 0.0203704834, -0.0633544922, 0.0455017090, -0.0671997070, 0.0303955078, 0.0016212463, -0.0349426270, -0.0794067383, -0.0012054443, -0.0270996094, 0.0659790039, 0.0759887695, 0.0301208496, -0.0199432373, 0.0220031738, 0.0362243652, 0.0103530884, 0.0014886856, 0.0377197266, 0.0108337402, -0.0902099609, -0.0357360840, 0.0274658203, -0.0111083984, -0.0175323486, -0.0145645142, 0.0531005859, 0.0364379883, 0.0278778076, -0.0650634766, 0.0099945068, 0.0114974976, 0.0636596680, -0.0836791992, 0.0792846680, -0.0080566406, -0.0754394531, 0.0341491699, -0.0244140625, 0.0037555695, -0.0126800537, 0.0013198853, 0.0872802734, -0.0143890381, 0.0343322754, 0.0200958252, 0.0092620850, 0.0229797363, -0.0526123047, -0.0281829834, -0.0455627441, -0.0485534668, 0.0068359375, -0.0013208389, -0.0114212036, -0.0012044907, 0.0057449341, 0.0219726562, 0.0263977051, 0.0049476624, -0.0739746094, -0.0026512146, 0.0056304932, -0.0202484131, -0.0486145020, -0.0114288330, 0.0515747070, -0.0165863037, 0.0513305664, 0.0120315552, 0.0003540516, -0.0178985596, -0.0586853027, 0.0295867920, -0.0346679688, 0.1019287109, 0.0274963379, 0.0019931793, 0.0501403809, -0.0727539062, -0.0567626953, 0.0287170410, -0.0676269531, -0.0275421143, 0.0113754272, -0.0197143555, 0.0541381836, -0.0046081543, -0.0616455078, -0.0125808716, 0.0618896484, -0.1604003906, -0.0105819702, 0.1048583984, 0.1124267578, -0.0201568604, -0.2670898438, -0.0783081055, -0.0046806335, -0.0502014160, 0.0060043335, 0.2426757812, 0.0689697266, -0.0508117676, 0.0165557861, -0.0026550293, -0.0199584961, -0.0850219727, 0.0764770508, 0.0762329102, -0.0076293945, -0.0335388184, -0.0651245117, 0.0473327637, 0.0069961548, -0.0438842773, 0.0566101074, -0.0958251953, 0.0068778992, 0.0261077881, -0.0630493164, 0.0118789673, -0.0044326782, 0.0665283203, 0.0384826660, -0.0402526855, 0.0293121338, 0.0163421631, 0.0065422058, 0.0303344727, -0.0756225586, -0.0774536133, -0.0424194336, 0.0924072266, 0.0238647461, -0.0113525391, -0.0007791519, 0.0352783203, -0.0190277100, -0.0747070312, 0.0333862305, 0.0967407227, -0.1015625000, 0.0307922363, -0.0149612427, 0.0505676270, 0.0170288086, -0.0225677490, 0.0180206299, 0.0984497070, -0.0934448242, -0.0198669434, -0.0172576904, 0.0371704102, 0.0101470947, -0.0080261230, 0.0093841553, 0.0401000977, -0.0275726318, -0.0485839844, 0.0215759277, 0.0296173096, 0.0000181794, -0.0229034424, -0.0623779297, -0.0604248047, -0.0011920929, 0.0664062500, 0.0372619629, 0.0102462769, 0.0389709473, -0.0076217651, -0.0641479492, 0.0626220703, -0.0149612427, 0.0096282959, -0.0947875977, 0.0223083496, 0.1132202148, 0.0048828125, -0.1654052734, -0.0475769043, 0.0775756836, -0.0017271042, -0.0471496582, 0.0728759766, -0.0005807877, -0.0213470459, -0.0039672852, 0.0000800490, 0.0363769531, 0.0230255127, 0.1229248047, -0.0506286621, 0.0018339157, 0.0029392242, -0.0177001953, -0.1160888672, 0.0421447754, 0.0125961304, -0.0132675171, -0.0262756348, 0.0311279297, 0.1038208008, 0.0264892578, 0.0538635254, -0.0324401855, 0.0092391968, -0.0850830078, 0.0056343079, 0.0586853027, -0.0371398926, 0.0061645508, -0.0283966064, -0.0268096924, 0.0748291016, 0.0216827393, 0.0762329102, -0.0384216309, -0.1088867188, -0.0798339844, -0.0279388428, -0.0054397583, 0.1000976562, -0.0017433167, -0.0634765625, 0.0269775391, -0.0116729736, 0.0145263672, -0.0083618164, -0.0446777344, 0.0268249512, 0.0654907227, 0.0754394531, 0.0701293945, -0.0773925781, -0.0576782227, -0.0538940430, -0.0753784180, 0.0919799805, -0.0070037842, 0.0992431641, -0.0445861816, -0.0082015991, -0.0062446594, -0.0253753662, -0.0552062988, 0.0095062256, -0.0476379395, -0.0041122437, 0.1423339844, -0.0352478027, 0.0520324707, 0.0277557373, 0.0734252930, 0.0762329102, -0.0076789856, -0.0125885010, 0.0334777832, 0.0306243896, -0.0362243652, -0.0787353516, -0.0234222412, -0.0097808838, 0.0574035645, 0.0520019531, -0.0284576416, 0.0262298584, 0.1246337891, -0.0887451172, -0.0343017578, -0.0000953674, 0.0069618225, 0.0068435669, 0.0889892578, -0.0197753906, 0.0186309814, 0.0174713135, 0.0074310303, 0.0363159180, -0.0530700684, -0.0529174805, -0.1001586914, 0.0325012207, 0.0858764648, -0.0223236084, 0.0295257568, -0.0238647461, -0.0612792969, 0.0339660645, -0.0654296875, 0.0186920166, -0.0055198669, -0.0328979492, -0.0332336426, 0.0268554688, -0.0102310181, 0.0168151855, -0.0113143921, -0.0279388428, -0.0086364746, -0.0522766113, -0.0456237793, 0.1028442383, -0.0406799316, 0.0753784180, 0.0345764160, -0.1235961914, 0.0153274536, -0.0287933350, 0.0355834961, 0.0728759766, -0.0411376953, 0.0334167480, 0.0527038574, 0.0074119568, -0.1098022461, -0.0684814453, 0.0305023193, 0.0442504883, -0.0421142578, 0.0401000977, 0.0001413822, 0.0593566895, 0.0074615479, -0.0281677246, 0.0502624512, -0.0259552002, -0.0447998047, 0.0251922607, 0.0401916504, -0.0113143921, -0.0677490234, 0.0590209961, 0.0110092163, 0.0014114380, 0.0706176758, -0.0503540039, -0.0026245117, 0.0131759644, 0.0178070068, -0.0336303711, -0.0050010681, -0.0329589844, -0.0635986328, 0.0279846191, 0.0872802734, -0.0670166016, -0.0331115723, 0.0511169434, -0.0159454346, 0.0127792358, -0.0127410889, 0.0168457031, 0.0294647217, -0.0039787292, 0.0319213867, 0.0367126465, 0.0049743652, 0.0265045166, -0.0165863037, 0.0120239258, 0.0029754639, 0.0134429932, -0.0065269470, 0.0836791992, 0.0359191895, -0.0795898438, -0.0437316895, -0.1242065430, -0.0039482117, 0.0639648438, 0.0250854492, 0.0965576172, -0.0256195068, -0.1099243164, -0.0593566895, -0.0944824219, 0.0335998535, 0.0407409668, 0.0026969910, 0.0911254883, -0.0262756348, 0.0393066406, -0.0013713837, 0.0574951172, 0.0012331009, -0.0101089478, 0.0761108398, 0.0249023438, -0.0678710938, 0.0095214844, -0.0386657715, -0.0813598633, -0.0126647949, -0.0064353943, -0.0534973145, -0.0295562744, 0.0716552734, 0.0486755371, 0.0128707886, 0.0449218750, -0.0378417969, 0.0265655518, 0.0409851074, 0.0603027344, 0.0059814453, 0.0486755371, -0.0580749512, 0.0591430664, -0.0066604614, -0.0241088867, 0.0710449219, -0.1040039062, -0.1242675781, -0.0176391602, 0.0414428711, -0.0431213379, 0.0903930664, -0.0114440918, -0.0210266113, 0.0605163574, -0.0563354492, 0.1180419922, -0.0324401855, -0.0171966553, -0.0147018433, 0.0366210938, -0.0040855408, -0.0293426514, 0.0706176758, -0.0420227051, -0.0354919434, 0.0372924805, 0.1018066406, -0.0221252441, 0.0805664062, 0.0309906006, -0.0820312500, -0.0896606445, 0.0327453613, 0.0128631592, 0.0334472656, -0.0074806213, -0.0745849609, 0.0001174808, -0.0842285156, 0.0400085449, 0.0421142578, -0.0483398438, -0.0402832031, 0.0592041016, 0.0820312500, 0.0371093750, -0.0214691162, -0.0930175781, -0.0141983032, 0.0414733887, 0.0514221191, -0.0687255859, 0.1008300781, -0.0087356567, 0.0026245117, -0.0087051392, -0.0053062439, 0.0223388672, -0.1007690430, -0.0131912231, 0.0443115234, 0.0223693848, 0.0585021973, 0.0256500244, 0.0289611816, -0.0239410400, -0.0592041016, 0.0574951172, -0.1006469727, -0.0102767944, 0.0162506104, 0.0523986816, -0.0449218750, 0.1065063477, -0.0717773438, 0.0274505615, 0.0166778564, 0.1107788086, -0.0147476196, 0.0609130859, -0.0430603027, -0.0188903809, -0.0734252930, -0.0484313965, 0.0651245117, -0.0134277344, -0.0638427734, -0.0592956543, -0.0487365723, 0.0791625977, -0.0266723633, -0.0561218262, 0.0730590820, 0.0617370605, -0.0656127930, 0.1494140625, 0.0388183594, -0.0141372681, -0.0261230469, -0.0842285156, -0.0439758301, 0.1013183594, -0.0337219238, 0.0057296753, 0.0279846191, 0.0470275879, 0.0489807129, 0.0437011719, 0.0202178955, -0.0144042969, 0.0328674316, 0.0415344238, -0.0410156250, -0.0104751587, -0.0297546387, -0.0545349121, -0.0098190308, 0.0770874023, 0.0280914307, -0.0584106445, -0.0712280273, 0.0264892578, -0.0783081055, 0.0791625977, -0.0109024048, 0.0476684570, -0.0094146729, -0.0018987656, -0.0231781006, -0.0222167969, -0.0198974609, -0.0454406738, 0.0093536377, -0.0167388916, 0.0664672852, 0.0382995605, 0.0689697266, -0.0370788574, -0.0632934570, -0.0118942261, 0.0591125488, -0.0081100464, 0.0321350098, -0.0393066406, 0.0185394287, -0.0001385212, 0.0448608398, 0.0231170654, -0.0132064819, 0.0197601318, -0.0794677734, 0.0346984863, -0.0337219238, -0.0622558594, -0.0407104492, -0.0208892822, -0.0982055664, 0.0255584717, 0.0400390625, 0.1431884766, 0.0193481445, -0.0615234375, 0.0656738281, -0.0497131348, -0.1413574219, 0.0647583008, -0.0639648438, -0.0404663086, -0.0728149414, 0.0461425781, 0.0060157776, -0.0523986816, 0.0119552612, 0.1916503906, -0.0843505859, 0.0413513184, 0.0676879883, -0.0013494492, -0.0364379883, -0.0209350586, -0.0267486572, 0.0026111603, 0.0166168213, 0.0553283691, -0.0230865479, 0.0130233765, 0.0520629883, -0.1541748047, -0.0214538574, -0.0308685303, -0.0802001953, 0.0390625000, 0.0346984863, -0.0099487305, 0.1015625000, 0.0187683105, 0.0351867676, 0.0401000977, -0.0827636719, -0.0645141602, 0.0894165039, 0.0402832031, 0.0034637451, 0.0283355713, -0.0464782715, 0.0092315674, -0.0974731445, 0.0614929199, -0.0147399902, -0.0984497070, 0.0196075439, 0.0243835449, -0.0133209229, -0.0156707764, 0.0214080811, 0.0282440186, 0.0051498413, -0.1170654297, -0.0083694458, 0.0051345825, -0.0279998779, 0.0374450684, 0.0066413879, 0.0214080811, -0.0157470703, 0.0035209656, -0.0556640625, -0.0052719116, 0.0316162109, -0.1280517578, 0.0823974609, -0.0516357422, 0.0742797852, -0.0151062012, -0.0144729614, 0.0834350586, 0.0230865479, -0.0401306152, -0.0993652344, 0.1706542969, 0.0135803223, -0.0962524414, -0.0015935898, 0.0022182465, -0.0734252930, 0.1163330078, -0.0541381836, -0.0133895874, -0.1222534180, 0.0083160400, -0.0123519897, 0.0271148682, -0.0394592285, 0.0907592773, 0.0002026558, 0.0053367615, 0.0328063965, 0.0557556152, -0.0536804199, -0.0136260986, 0.0145339966, -0.0270233154, 0.0505065918, 0.0320434570, 0.0248260498, -0.0616455078, -0.0670776367, -0.0137405396, -0.0327148438, -0.0467224121, 0.0236663818, 0.0799560547, 0.0028667450, 0.0858764648, -0.0415954590, -0.0081481934, -0.0574951172, -0.0366210938, 0.0049247742, -0.0444641113, 0.0102539062, -0.0753173828, 0.0486145020, 0.0587158203, 0.0263214111, 0.0891723633, 0.0406799316, -0.0345153809, -0.0000235438, -0.0333557129, 0.0499877930, 0.0476379395, -0.0383300781, -0.0679931641, 0.0797729492, -0.0550842285, -0.0626220703, 0.1044311523, -0.0580444336, 0.0480651855, 0.0910644531, -0.0740966797, -0.0697631836, -0.0255279541, 0.0403442383, 0.0439758301, 0.0812988281, 0.1032104492, -0.0792846680, 0.1027221680, 0.0552368164, -0.1079711914, -0.0665283203, -0.0122070312, -0.1065063477, 0.0697631836, 0.0343933105, -0.0819702148, 0.0075836182, -0.0066032410, 0.0708007812, -0.0393066406, -0.0313720703, 0.0322570801, -0.0353698730, 0.0701293945, -0.0426025391, -0.0235290527, -0.0098648071, -0.0490417480, 0.0012006760, -0.0211791992, 0.0748901367, 0.1123046875, 0.0083160400, 0.0166168213, 0.0110015869, 0.0281982422, -0.0388793945, -0.0193176270, -0.0242767334, 0.0344543457, -0.0130691528, 0.0209960938, -0.0627441406, 0.0775146484, 0.0214843750, 0.0037059784, -0.0575561523, -0.0604553223, 0.0191955566, -0.0463562012, 0.0091705322, 0.0492553711, 0.0484008789, 0.0224456787, -0.0160217285, -0.0687866211, 0.0115966797, -0.0839233398, -0.0335693359, 0.0703735352, 0.0913085938, -0.0205078125, 0.0313415527, 0.0307006836, -0.0445556641, 0.1104125977, -0.0371093750, 0.0484313965, 0.0454101562, 0.0348510742, -0.0421142578, -0.0562133789, -0.0121002197, 0.0473937988, 0.0552062988, 0.0875854492, -0.0789184570, 0.0507812500, -0.0375671387, -0.0841674805, -0.1295166016, -0.0121994019, 0.0534973145, 0.0417480469, -0.1080932617, 0.1038208008, -0.0216369629, 0.1501464844, 0.0155181885, -0.1303710938, 0.1224365234, 0.0005245209, -0.0426025391, -0.1015014648, -0.0147171021, -0.0402526855, -0.0515136719, 0.0682983398, -0.0377807617, -0.0182189941, 0.1054077148, 0.0345153809, 0.0228576660, 0.0015230179, 0.0065498352, 0.1092529297, 0.0476074219, 0.0880737305, 0.0126266479, 0.0500793457, -0.0547790527, -0.1932373047, -0.0058555603, -0.0246734619, -0.0214538574, 0.0602722168, -0.0123672485, 0.0376281738, 0.0710449219, -0.0427856445, -0.0200500488, -0.0261077881, 0.0076866150, -0.0181884766, 0.0521850586, -0.0178833008, 0.0391235352, 0.0403442383, 0.0484619141, -0.0044784546, -0.0182800293, -0.1497802734, 0.0313110352, 0.0054588318, 0.0058250427, 0.0148849487, 0.0775146484, -0.0353088379, -0.0234985352, -0.0458679199, -0.0312500000, -0.0264892578, 0.0615539551, 0.0928955078, 0.1226806641, 0.0578308105, -0.1079101562, 0.0903320312, -0.1461181641, -0.0319213867, 0.0550537109, -0.0445251465, -0.0444030762, 0.0675659180, -0.0408325195, 0.1300048828, 0.0378417969, -0.0080337524, 0.0162048340, -0.0659790039, 0.0345764160, -0.0267028809, 0.0619201660, -0.1074829102, -0.0174102783, 0.0751953125, -0.0621643066, -0.0602416992, -0.0194091797, 0.0411071777, -0.0103378296, -0.0152969360, -0.0120239258, 0.0969238281, 0.0694580078, 0.0484008789, 0.0167694092, 0.0803833008, -0.0430603027, -0.0796508789, -0.0317687988, -0.1106567383, -0.0380554199, 0.0541687012, -0.0950317383, 0.0810546875, 0.0045585632, -0.0142135620, 0.0115051270, -0.0896606445, -0.0842895508, 0.0598144531, -0.0437927246, 0.1080932617, -0.1477050781, -0.0631713867, 0.0293426514, -0.0310516357, -0.0209350586, 0.0921020508, -0.0222320557, 0.0827026367, -0.0496826172, 0.1286621094, 0.0382080078, -0.0558166504, 0.0071907043, 0.0805053711, -0.0323791504, -0.0183868408, 0.0463256836, -0.0950927734, 0.0905761719, -0.0845947266, -0.0169830322, -0.0794677734, 0.1016235352, -0.0138092041, -0.0328369141, -0.0525817871, -0.0054550171, 0.0944824219, -0.0890502930, 0.0892333984, 0.0256652832, -0.0095977783, 0.0076866150, 0.0115432739, 0.0055809021, -0.0182342529, -0.0182952881, -0.0617065430, 0.0151138306, 0.0472106934, 0.0273590088, -0.0098419189, 0.0910034180, 0.0031642914, -0.0633544922, 0.0481872559, -0.0349121094, -0.0312194824, 0.0038738251, -0.0404357910, -0.0366516113, -0.0323486328, -0.0043945312, -0.0056228638, -0.0007009506, -0.0158233643, 0.0459289551, 0.0228271484, 0.0502014160, -0.0073699951, -0.0112915039, 0.0484313965, 0.1118774414, -0.0199127197, 0.0361633301, -0.0670776367, -0.1242675781, -0.0587768555, 0.0772094727, 0.0033798218, 0.0063972473, -0.0003540516, 0.0115585327, 0.0480651855, -0.0032444000, 0.0305480957, 0.0564270020, -0.1590576172, -0.0374450684, 0.0388183594, 0.0383605957, -0.0430908203, -0.0521850586, -0.0939331055, 0.0814819336, 0.0362854004, 0.0811157227, -0.0120697021, -0.0491943359, 0.0245361328, -0.0553588867, -0.0209808350, 0.0489501953, -0.0086212158, 0.0151596069, -0.1445312500, 0.1191406250, -0.0063552856, -0.0038242340, 0.0052719116, 0.0247497559, 0.0567932129, -0.0232086182, 0.0354309082, 0.0009045601, -0.0626831055, 0.0435791016, 0.0614318848, -0.0191802979, -0.0406494141, -0.0158386230, 0.1160888672, 0.0319824219, 0.0055046082, -0.0243377686, -0.0135192871, -0.0374450684, -0.0205688477, 0.0116348267, -0.0237274170, -0.0482177734, -0.0099945068, -0.0013990402, 0.0116043091, 0.0648803711, -0.0787963867, 0.0442199707, 0.0387878418, -0.0049095154, 0.0211486816, 0.0130691528, -0.0183715820, -0.0430908203, 0.0364074707, 0.0443420410, -0.0253143311, -0.0256958008, 0.0033664703, -0.0305633545, 0.0803222656, 0.0072441101, -0.0045318604, -0.0677490234, 0.0988769531, 0.1129150391, 0.0105819702, -0.0422668457, -0.0544433594, -0.0759277344, -0.0128555298, 0.0232086182, 0.0391235352, 0.0074806213, -0.0065116882, -0.0096282959, -0.0438842773, -0.0126800537, 0.0230102539, -0.0074691772, 0.0154113770, -0.1319580078, 0.0309295654, -0.0595092773, 0.0050430298, 0.0490112305, 0.0458679199, -0.0055809021, -0.0831909180, 0.0133056641, 0.0237579346, -0.0056571960, -0.0109939575, -0.0347595215, -0.0527343750, 0.0050735474, 0.0173492432, 0.1490478516, -0.0167846680, -0.0335693359, -0.0146484375, -0.0395812988, -0.0785522461, 0.0337219238, 0.1053466797, -0.0853271484, -0.0330200195, -0.0165863037, -0.0019226074, -0.0563354492, 0.0720214844, 0.1072998047, -0.0814819336, 0.0556335449, 0.0371093750, -0.0304870605, -0.0423889160, -0.0440979004, -0.0585937500, 0.0262451172, 0.0718994141, -0.0317993164, -0.0416564941, -0.0841674805, 0.0571594238, 0.0153961182, 0.0034637451, 0.0081558228, 0.0381774902, -0.0611572266, 0.0403137207, 0.0747680664, 0.0150756836, -0.0063438416, -0.0058746338, 0.0392456055, -0.0685424805, 0.0448913574, -0.0911254883, 0.0227508545, 0.0008740425, -0.0254058838, -0.0318908691, 0.0033550262, -0.0323486328, 0.0820312500, -0.0546264648, 0.1171264648, -0.0366516113, 0.0178680420, -0.0662231445, 0.0047874451, 0.0504455566, -0.0693359375, 0.0118484497, 0.0306243896, 0.0147628784, -0.0213470459, 0.0512695312, 0.0518493652, -0.0506286621, -0.0502624512, -0.0292358398, -0.0423583984, 0.0558166504, 0.0785522461, -0.0057029724, 0.0775756836, -0.0414733887, -0.0757446289, -0.0139923096, 0.0097122192, -0.0543823242, 0.0122070312, 0.0291595459, 0.0206909180, -0.0364379883, -0.0141372681, 0.0138092041, 0.0450134277, -0.0320129395, -0.1229248047, 0.0856323242, 0.0395202637, 0.0629272461, -0.0032863617, -0.0203857422, -0.0114212036, -0.0638427734, 0.0112991333, -0.0338745117, -0.0661010742, 0.1024780273, -0.0244293213, 0.0823974609, -0.0780029297, 0.0410766602, 0.0382080078, -0.1060791016, -0.0115203857, 0.0222625732, 0.0028514862, -0.0946655273, 0.0490112305, -0.0216522217, -0.0162200928, 0.0236663818, -0.0146942139, -0.0450744629, 0.0291748047, 0.0271301270, -0.0449218750, -0.0442199707, -0.0433349609, 0.0280151367, 0.0586547852, -0.0318298340, -0.0479125977, 0.1215820312, 0.0514221191, 0.0270080566, 0.0087356567, 0.0083389282, -0.0034065247, -0.0066947937, -0.0836181641, -0.0158996582, 0.0653076172, 0.0014572144, 0.0407104492, -0.0415344238, -0.0509033203, 0.0296478271, -0.0155181885, 0.1551513672, 0.0232696533, 0.0562133789, -0.0808715820, -0.0710449219, -0.0160522461, -0.0307312012, 0.0554504395, 0.0508728027, 0.0543518066, 0.0306549072, -0.0263366699, -0.0391235352, -0.0037517548, -0.0684814453, 0.0057830811, 0.0434265137, -0.0992431641, 0.0053520203, 0.0273590088, -0.0222320557, 0.0235900879, 0.0004878044, 0.0919799805, -0.0121002197, -0.0235595703, 0.0023517609, 0.0040054321, -0.0002615452, 0.0249176025, -0.0345458984, -0.0438842773, 0.0374450684, -0.1027832031, 0.0758666992, -0.0681152344, 0.1233520508, 0.0466918945, -0.0578918457, 0.0418701172, 0.0704345703, -0.0577697754, -0.0399780273, 0.0872192383, -0.0288848877, 0.0276031494, -0.0394592285, 0.0823974609, -0.0438232422, -0.0439758301, -0.0135574341, 0.0562438965, 0.0523376465, 0.0738525391, -0.0962524414, 0.0066566467, 0.0150222778, 0.0659179688, -0.0365905762, 0.0325317383, 0.0325012207, 0.0098724365, -0.0307922363, -0.0861206055, -0.0199584961, 0.0279846191, 0.0462036133, 0.0196990967, 0.0294342041, -0.0018920898, 0.0676269531, 0.0075836182, -0.1184692383, 0.0125808716, -0.0521850586, 0.0883789062, 0.0166473389, 0.0522460938, 0.0104370117, -0.0041275024, 0.0519104004, 0.0097274780, 0.0099411011, -0.0095214844, -0.0846557617, -0.0156707764, 0.0292816162, 0.0248718262, 