//Numpy array shape [1, 1, 3, 64]
//Min -0.291015625000
//Max 0.306884765625
//Number of zeros 0

#ifndef W23_H_
#define W23_H_

#ifndef __SYNTHESIS__
model_default_t w23[192];
#else
model_default_t w23[192] = {0.0340576172, 0.1413574219, -0.1667480469, 0.2768554688, -0.0642089844, -0.0450134277, 0.0689697266, 0.0578918457, 0.2458496094, -0.1041259766, 0.0162963867, 0.0785522461, -0.0269165039, -0.2861328125, -0.2834472656, -0.2470703125, -0.1531982422, -0.1655273438, 0.0847778320, -0.2055664062, -0.1039428711, 0.2139892578, 0.1486816406, -0.2342529297, 0.1942138672, 0.2346191406, 0.0800170898, 0.2253417969, 0.2297363281, 0.2739257812, 0.2447509766, -0.0599365234, -0.2004394531, -0.0147323608, -0.0990600586, -0.2824707031, 0.2283935547, 0.0561218262, 0.1013793945, -0.1759033203, 0.2138671875, 0.2854003906, -0.0234985352, 0.2658691406, -0.1391601562, -0.0306549072, 0.1245117188, 0.1837158203, 0.0164489746, -0.2658691406, -0.1149291992, -0.1838378906, -0.1325683594, 0.0340881348, -0.1973876953, 0.1813964844, -0.1346435547, -0.2414550781, 0.1215209961, -0.2814941406, 0.0697021484, -0.2260742188, -0.0879516602, -0.2387695312, 0.2895507812, 0.2313232422, -0.2198486328, 0.1232299805, 0.2182617188, -0.1269531250, -0.2376708984, -0.0586853027, 0.1296386719, -0.0073089600, 0.1618652344, 0.0255279541, 0.0426330566, -0.0884399414, -0.0409240723, -0.2375488281, 0.1008300781, -0.1519775391, 0.0652465820, -0.1525878906, -0.0506286621, 0.2352294922, 0.2866210938, 0.1078491211, -0.0331420898, 0.2481689453, 0.2491455078, 0.1617431641, -0.1783447266, -0.0775146484, -0.0275268555, 0.0930786133, 0.2242431641, 0.2651367188, 0.2795410156, 0.0437622070, -0.2619628906, 0.2156982422, -0.1848144531, -0.2504882812, -0.2529296875, -0.1196899414, -0.2169189453, 0.2410888672, 0.0428161621, -0.2100830078, -0.2230224609, -0.0241088867, 0.0596923828, -0.2910156250, -0.0398864746, -0.2702636719, 0.1150512695, 0.1235351562, -0.0658569336, -0.1165771484, -0.2291259766, -0.2294921875, -0.2100830078, -0.1253662109, 0.0932006836, -0.1639404297, 0.1510009766, 0.2204589844, 0.2230224609, -0.2507324219, 0.0506896973, -0.1651611328, 0.2597656250, -0.2758789062, -0.0515747070, 0.1695556641, 0.3034667969, -0.2790527344, 0.0819091797, 0.2683105469, 0.0805664062, 0.2512207031, 0.2275390625, 0.0148391724, -0.1518554688, -0.2301025391, -0.1613769531, -0.0350646973, 0.2161865234, 0.0776367188, 0.2436523438, 0.1188964844, -0.1389160156, 0.2097167969, 0.0852661133, -0.2617187500, -0.2471923828, -0.0513610840, 0.2019042969, 0.1759033203, 0.1505126953, 0.0724487305, -0.0540466309, 0.0444335938, 0.1762695312, 0.2873535156, 0.2758789062, -0.1743164062, 0.0183563232, 0.1004028320, 0.0578308105, 0.3068847656, 0.2993164062, -0.0484924316, -0.0398254395, 0.2966308594, 0.1495361328, 0.1065063477, 0.1387939453, -0.1741943359, 0.2612304688, 0.1506347656, -0.1933593750, -0.2153320312, -0.0765991211, -0.2419433594, -0.0412292480, 0.1359863281, -0.2661132812, 0.2509765625, -0.2766113281, 0.2626953125};
#endif

#endif
