//Numpy array shape [1, 1, 64, 128]
//Min -0.451660156250
//Max 0.426269531250
//Number of zeros 0

#ifndef W25_H_
#define W25_H_

#ifndef __SYNTHESIS__
model_default_t w25[8192];
#else
model_default_t w25[8192] = {-0.0228271484, 0.0243377686, 0.0352172852, 0.2580566406, -0.2993164062, -0.1156616211, -0.2854003906, 0.0254821777, 0.0494384766, -0.0417175293, 0.0104904175, -0.0759277344, -0.2279052734, 0.1257324219, 0.1347656250, -0.0974121094, -0.0901489258, -0.1767578125, -0.0163726807, -0.1055297852, 0.1905517578, 0.1429443359, -0.1046752930, 0.1312255859, -0.0355834961, -0.1958007812, -0.1673583984, -0.0031299591, 0.2082519531, -0.0400085449, 0.1177978516, -0.0026187897, -0.1628417969, 0.0798950195, -0.2332763672, -0.1777343750, -0.0392761230, 0.2322998047, 0.0225067139, -0.2973632812, -0.1097412109, -0.0781860352, -0.0590820312, 0.1386718750, -0.1350097656, 0.2259521484, -0.0358581543, 0.1007690430, 0.0190582275, -0.0189971924, -0.1176147461, 0.1799316406, 0.1254882812, -0.0899658203, -0.0012826920, 0.0481262207, 0.0567626953, 0.0010290146, -0.0893554688, 0.0041885376, 0.1645507812, 0.2651367188, 0.0645141602, 0.0505981445, -0.0012817383, 0.0716552734, -0.0952758789, -0.0753784180, -0.1965332031, -0.1147460938, -0.0822143555, 0.1079711914, -0.0909423828, 0.0724487305, 0.0131149292, 0.2283935547, 0.1551513672, 0.1743164062, 0.0971069336, -0.2050781250, 0.1925048828, -0.0843505859, -0.0617980957, 0.2431640625, 0.0197753906, 0.0540466309, -0.2807617188, 0.0717773438, 0.1154174805, -0.0341491699, 0.0632934570, 0.0333557129, 0.1267089844, 0.1982421875, 0.1345214844, 0.1573486328, -0.0564880371, 0.1550292969, 0.0176849365, 0.0152359009, -0.0477294922, -0.3618164062, -0.1079711914, 0.1516113281, 0.1638183594, 0.0902709961, 0.2126464844, 0.1713867188, -0.0011606216, 0.0874633789, -0.1347656250, 0.1367187500, 0.1728515625, 0.1216430664, -0.0736083984, 0.0703735352, -0.0066375732, -0.3078613281, -0.0331420898, -0.0689697266, 0.0795288086, -0.1386718750, 0.0170288086, -0.1400146484, -0.2253417969, -0.1485595703, 0.0009279251, -0.1276855469, -0.1372070312, 0.0756225586, -0.0844726562, -0.2565917969, -0.1034545898, 0.1417236328, -0.0695190430, 0.0528259277, -0.0563964844, 0.0087280273, 0.1700439453, -0.0906372070, 0.2236328125, 0.1268310547, -0.1122436523, -0.0171508789, 0.1159667969, 0.0409545898, 0.0808715820, -0.0372619629, 0.0201110840, 0.0142364502, -0.1729736328, -0.0588378906, 0.1011352539, -0.0466003418, 0.0980834961, 0.2824707031, -0.0756225586, -0.2504882812, -0.0829467773, -0.1546630859, -0.0793457031, -0.0770874023, 0.0909423828, -0.0291137695, 0.0633544922, -0.1030273438, -0.0426940918, -0.0880126953, -0.1838378906, 0.0901489258, 0.0260925293, -0.1390380859, -0.1159667969, -0.0743408203, 0.0235443115, 0.0176239014, 0.1286621094, -0.2315673828, -0.0203704834, 0.2592773438, 0.0918579102, 0.0667114258, -0.1383056641, -0.1204833984, 0.0448303223, 0.0583801270, 0.0841674805, 0.0416870117, 0.0041084290, -0.0512695312, -0.1010742188, -0.1457519531, 0.0343017578, 0.0058708191, 0.0931396484, 0.1111450195, 0.0676879883, -0.0216979980, -0.0484313965, 0.2290039062, -0.0010967255, 0.1171875000, 0.1865234375, 0.0717163086, -0.0773925781, -0.1441650391, 0.0180206299, -0.1402587891, -0.0454406738, 0.0507507324, 0.0577392578, -0.1528320312, -0.1397705078, 0.0075340271, -0.1213378906, 0.0928344727, -0.1066894531, 0.1813964844, -0.1968994141, -0.1556396484, -0.0618286133, 0.1245117188, 0.0296478271, -0.1177368164, 0.0901489258, 0.1591796875, 0.0094375610, 0.0323791504, -0.1518554688, -0.0815429688, 0.0795898438, 0.1066284180, -0.0488891602, -0.0131301880, -0.1317138672, 0.0043258667, -0.0285491943, -0.0181274414, 0.0414428711, 0.0052642822, 0.0068778992, 0.1198730469, 0.0847778320, -0.2712402344, 0.1279296875, -0.2802734375, 0.0110015869, 0.0268707275, 0.1235351562, -0.0025939941, -0.1117553711, -0.0204315186, -0.1972656250, 0.1243286133, 0.0878906250, 0.0227813721, 0.1106567383, -0.1549072266, 0.0582275391, 0.0935058594, -0.1448974609, 0.0950317383, 0.1002197266, -0.1185913086, 0.1232910156, 0.0446472168, 0.0679321289, 0.0706787109, -0.1669921875, 0.0413818359, -0.1942138672, -0.2561035156, 0.1506347656, 0.1150512695, 0.3054199219, -0.1205444336, 0.1845703125, -0.0403442383, -0.0041732788, 0.1658935547, -0.0157165527, 0.0171203613, -0.0467224121, -0.0133285522, 0.0249633789, 0.1113281250, 0.0782470703, -0.1905517578, 0.0438537598, 0.1343994141, -0.0095977783, -0.0593261719, -0.1447753906, -0.0795898438, -0.0876464844, -0.1157226562, 0.1728515625, 0.0852661133, 0.0925292969, 0.1523437500, 0.0726928711, 0.0244598389, -0.0357360840, -0.2915039062, 0.0034999847, -0.3046875000, 0.0440063477, 0.1984863281, -0.0421447754, 0.1695556641, 0.0463256836, 0.1311035156, -0.1956787109, 0.2493896484, -0.0323486328, -0.0599670410, 0.0609130859, 0.1400146484, -0.2629394531, 0.1510009766, -0.0153045654, 0.0563659668, -0.0134277344, -0.0194091797, 0.1876220703, 0.2697753906, 0.1954345703, -0.0510253906, 0.0420837402, -0.0144348145, 0.0321960449, 0.1679687500, 0.0207977295, -0.1106567383, -0.1348876953, 0.1096191406, -0.1121826172, 0.0075302124, -0.0332336426, -0.1115112305, 0.0362548828, -0.2026367188, 0.0483398438, -0.1260986328, -0.0595092773, -0.1682128906, -0.0744018555, 0.0351867676, -0.1035156250, -0.0313415527, 0.0628051758, -0.3627929688, 0.1809082031, -0.0914916992, -0.0339355469, 0.1054077148, 0.2064208984, -0.1060180664, -0.2017822266, -0.0739746094, 0.0963134766, 0.1550292969, -0.1210327148, 0.0833129883, 0.0689697266, -0.1339111328, 0.0928955078, -0.0370788574, -0.1682128906, -0.2060546875, -0.0781250000, 0.2509765625, 0.0627441406, -0.2106933594, 0.1241455078, 0.0278167725, -0.0002796650, -0.0348205566, 0.0836181641, -0.0734863281, -0.1716308594, -0.1542968750, 0.0820922852, 0.1904296875, -0.1376953125, -0.1323242188, 0.1303710938, -0.0374145508, 0.0280914307, -0.0859375000, 0.0715942383, -0.2729492188, 0.1744384766, -0.1607666016, -0.0859985352, -0.2032470703, -0.0394592285, -0.0033187866, 0.0748901367, -0.2517089844, 0.0050392151, 0.1104736328, -0.1995849609, -0.0351562500, -0.2639160156, 0.0673828125, 0.2512207031, 0.1247558594, -0.1899414062, -0.1568603516, 0.0593872070, -0.0930786133, -0.1821289062, -0.0674438477, -0.0479431152, 0.1004638672, -0.1358642578, 0.0812377930, 0.0617980957, 0.0011510849, -0.0299377441, 0.0539550781, 0.0833740234, 0.0795288086, 0.1069335938, -0.1829833984, -0.1257324219, -0.1352539062, -0.0381164551, 0.0982666016, -0.0337219238, -0.3798828125, -0.0303802490, 0.1470947266, 0.0314636230, 0.0568237305, -0.1466064453, -0.1362304688, 0.0833129883, 0.0776367188, -0.3010253906, 0.0632934570, 0.0629272461, -0.0997314453, -0.2915039062, -0.0191040039, 0.1148071289, -0.0306854248, -0.1155395508, -0.1743164062, -0.0156860352, -0.1359863281, -0.0308532715, -0.1649169922, -0.0967407227, 0.2001953125, -0.1822509766, -0.2266845703, 0.0410461426, 0.0870361328, -0.0177307129, 0.1512451172, -0.0821533203, -0.0478210449, -0.1865234375, 0.0710449219, -0.0439453125, 0.0736694336, -0.1217651367, -0.3659667969, 0.2279052734, -0.0537109375, 0.1489257812, -0.0659179688, -0.1915283203, 0.0347900391, -0.2110595703, -0.0171966553, 0.2015380859, 0.1663818359, 0.0258178711, -0.0374145508, -0.0792846680, -0.1827392578, 0.0778198242, 0.0444946289, 0.0242156982, -0.1684570312, -0.0060691833, -0.0330200195, -0.0711669922, 0.0337829590, -0.0458374023, -0.0505371094, -0.1030273438, 0.1408691406, 0.1846923828, -0.0248870850, -0.1347656250, -0.0481872559, 0.0052909851, -0.0552368164, -0.1331787109, 0.0115356445, -0.4172363281, -0.1258544922, -0.0737304688, 0.0859985352, -0.1523437500, -0.0750122070, -0.2181396484, -0.0114746094, -0.1222534180, -0.1341552734, 0.0433349609, -0.1550292969, -0.1584472656, -0.1341552734, 0.1138916016, -0.0007877350, -0.0577087402, -0.1374511719, 0.0034942627, 0.1490478516, -0.0888061523, -0.1440429688, -0.1032104492, -0.0695800781, -0.2442626953, -0.1010131836, -0.1019287109, -0.1525878906, -0.0900878906, 0.0836181641, 0.1337890625, -0.1345214844, -0.0797729492, 0.0113754272, -0.2391357422, -0.0755004883, -0.1716308594, 0.0617370605, -0.2038574219, -0.1994628906, -0.1051025391, 0.0940551758, 0.0665283203, -0.1412353516, -0.1412353516, -0.3190917969, 0.0213012695, 0.1188964844, -0.1084594727, 0.0155563354, 0.0325622559, 0.0958251953, 0.1741943359, -0.2055664062, -0.1211547852, -0.0233306885, 0.0105590820, -0.2261962891, 0.2042236328, -0.1894531250, -0.3288574219, 0.1199951172, -0.0500183105, -0.0481567383, -0.1888427734, 0.1831054688, 0.0957641602, -0.1195068359, -0.2088623047, 0.0717163086, -0.0360107422, 0.0637207031, -0.1445312500, -0.2888183594, -0.0125122070, -0.3122558594, -0.1378173828, 0.0372924805, 0.0523376465, 0.1323242188, 0.0169219971, -0.0050888062, -0.0102691650, -0.1990966797, -0.0659790039, -0.2055664062, -0.1329345703, -0.0916137695, 0.1124877930, 0.0126647949, -0.2336425781, 0.0329895020, 0.1599121094, 0.0510253906, 0.0754394531, -0.1472167969, -0.0465087891, -0.1804199219, -0.2242431641, -0.0528564453, -0.0905761719, -0.0685424805, -0.0002923012, -0.0089340210, -0.0936279297, -0.1495361328, 0.0253601074, 0.1016845703, -0.1756591797, 0.1231689453, -0.0339355469, -0.1228637695, -0.1624755859, -0.0911254883, 0.0897827148, -0.0006771088, -0.2783203125, -0.3256835938, 0.1193847656, 0.0495300293, -0.1718750000, -0.1679687500, -0.2775878906, 0.0204162598, -0.2768554688, -0.0847778320, -0.1868896484, -0.0607604980, -0.3869628906, -0.1922607422, 0.0065193176, -0.1970214844, -0.2448730469, -0.0145721436, -0.0295410156, 0.1531982422, 0.0209350586, -0.0026302338, -0.1116943359, -0.1719970703, -0.0483093262, -0.2103271484, -0.1578369141, 0.0401611328, 0.0085525513, -0.0632934570, -0.2116699219, -0.1286621094, 0.1052856445, -0.0651245117, -0.1582031250, -0.0961303711, -0.1988525391, -0.0013132095, -0.1006469727, -0.2871093750, 0.1309814453, -0.1771240234, -0.3569335938, -0.0225830078, -0.0734863281, 0.0896606445, 0.0381469727, -0.2858886719, -0.0335693359, -0.0035362244, -0.2143554688, -0.1989746094, -0.1866455078, 0.0709228516, -0.1177978516, 0.0553283691, 0.0971679688, -0.1306152344, 0.0863647461, 0.0847167969, -0.1558837891, -0.1427001953, 0.1661376953, -0.0404052734, 0.0298156738, -0.1530761719, 0.0288391113, 0.1436767578, 0.0100936890, 0.0513000488, 0.0817260742, -0.0525207520, 0.1624755859, 0.0871582031, -0.2467041016, 0.1140747070, 0.1088256836, -0.1220092773, -0.1251220703, -0.1706542969, -0.1174926758, -0.0281219482, 0.1864013672, -0.1053466797, 0.0343322754, 0.2639160156, -0.3098144531, 0.0369567871, -0.1369628906, -0.1683349609, -0.1478271484, -0.0253143311, -0.2435302734, 0.1811523438, 0.1212768555, 0.1181640625, -0.1181640625, -0.0818481445, 0.0655517578, 0.0562133789, -0.0616455078, 0.1268310547, -0.1804199219, 0.0874023438, -0.0035190582, -0.1113281250, -0.1292724609, -0.0756835938, -0.0800170898, -0.3098144531, -0.1119995117, -0.0143280029, 0.1130981445, -0.0503234863, -0.1385498047, -0.0536804199, 0.1110839844, 0.2766113281, -0.2299804688, 0.0757446289, -0.0045280457, 0.0389099121, -0.0505676270, -0.2467041016, 0.2225341797, -0.0422058105, 0.1040039062, -0.2565917969, -0.1420898438, 0.0850830078, -0.0036983490, 0.1622314453, -0.0588684082, 0.0934448242, -0.0247192383, 0.0492858887, 0.0727539062, 0.0046195984, -0.1264648438, -0.2038574219, -0.1629638672, -0.0027637482, 0.1143798828, -0.0531005859, -0.1279296875, -0.1020507812, 0.0521240234, 0.0640869141, -0.2233886719, -0.1956787109, 0.1200561523, -0.0856323242, -0.0422058105, -0.0160675049, -0.2321777344, 0.1651611328, 0.1118774414, -0.1810302734, -0.0611877441, 0.1517333984, -0.2133789062, -0.0762939453, -0.1192626953, 0.0283813477, 0.0406494141, -0.4145507812, 0.0963134766, -0.1390380859, 0.1826171875, -0.1661376953, 0.0087280273, -0.0899658203, -0.0592956543, -0.1691894531, -0.2680664062, -0.1076049805, -0.1044311523, -0.0071220398, -0.0528259277, -0.0517883301, -0.1101074219, -0.0227661133, 0.1080932617, -0.2551269531, -0.2069091797, -0.1003417969, -0.1767578125, 0.1971435547, 0.1584472656, 0.0344848633, -0.0168304443, -0.2285156250, -0.2331542969, -0.2053222656, -0.0296630859, -0.0994262695, 0.1193237305, -0.2702636719, -0.0855712891, -0.1704101562, 0.1005249023, -0.1607666016, 0.0345153809, 0.2231445312, -0.1457519531, 0.0650024414, -0.2108154297, 0.0361938477, -0.1303710938, -0.1505126953, -0.1867675781, 0.0649414062, -0.3481445312, -0.1033935547, -0.1235351562, 0.0513916016, -0.0339965820, 0.0939941406, -0.2238769531, -0.1274414062, -0.0249786377, -0.0892944336, -0.2402343750, -0.0813598633, 0.0120010376, -0.1043090820, -0.2297363281, -0.2275390625, -0.1100463867, -0.1276855469, -0.0584411621, 0.0845947266, -0.0573120117, -0.0751342773, 0.1004028320, -0.0220336914, -0.0662231445, 0.0228881836, 0.0302124023, -0.0447692871, -0.2103271484, -0.0155792236, -0.0697631836, 0.0621948242, -0.2296142578, 0.1687011719, -0.0325927734, -0.2229003906, -0.0608215332, 0.0918579102, -0.2462158203, 0.0955200195, -0.2707519531, -0.2763671875, -0.1776123047, -0.1605224609, 0.0433349609, 0.1416015625, -0.1295166016, 0.1193237305, 0.2308349609, -0.2165527344, -0.0352478027, 0.0111236572, 0.1112060547, -0.1357421875, 0.0220794678, 0.0392456055, -0.0033302307, -0.0654907227, -0.0343933105, 0.0191802979, -0.0966186523, -0.1723632812, -0.2888183594, -0.1171875000, -0.3056640625, -0.1859130859, -0.2590332031, -0.0062026978, -0.1247558594, 0.0041732788, -0.1459960938, -0.0963745117, -0.1860351562, -0.1613769531, -0.0256652832, -0.3061523438, -0.3071289062, 0.0395812988, -0.1627197266, 0.1518554688, -0.1492919922, -0.2631835938, 0.0142593384, 0.0620727539, 0.0342102051, -0.0898437500, -0.2028808594, -0.0839843750, -0.1955566406, 0.0880737305, 0.1458740234, -0.1281738281, -0.0734863281, 0.0687255859, 0.0170745850, -0.0692749023, -0.0836791992, -0.0106506348, -0.1945800781, -0.0607910156, 0.0595397949, -0.0839233398, 0.0662841797, -0.0968017578, -0.0561828613, -0.0087127686, 0.0024051666, -0.1117553711, -0.2395019531, -0.0960083008, -0.0623779297, 0.1219482422, -0.2084960938, -0.0922241211, 0.0980834961, -0.1708984375, 0.0864868164, -0.1778564453, 0.0228729248, 0.1618652344, 0.0675659180, -0.1455078125, -0.0792846680, -0.0885009766, -0.1756591797, 0.0426940918, 0.0685424805, -0.2636718750, -0.3261718750, 0.1710205078, 0.0404052734, 0.0131683350, 0.0794067383, -0.0351867676, -0.1138305664, -0.1768798828, 0.0770874023, 0.0866088867, -0.0225067139, -0.0432128906, 0.0080032349, -0.2795410156, -0.0951538086, -0.3027343750, -0.1903076172, -0.0298309326, -0.2145996094, 0.0022239685, -0.2563476562, 0.0093460083, -0.3007812500, -0.0227050781, 0.0597839355, 0.0453491211, -0.0828857422, 0.0053749084, -0.1337890625, -0.0138702393, -0.2014160156, 0.1094360352, -0.2712402344, -0.1914062500, -0.2426757812, -0.1744384766, 0.1724853516, 0.1343994141, 0.0931396484, 0.0974121094, 0.0327758789, 0.0251464844, -0.0793457031, 0.0120620728, -0.0101623535, -0.1771240234, 0.0272674561, -0.0961914062, -0.0854492188, -0.0618591309, 0.0715332031, -0.3117675781, -0.3840332031, -0.1879882812, 0.0938720703, 0.0238189697, 0.1632080078, -0.0243530273, 0.0616760254, -0.1035156250, -0.1972656250, -0.2871093750, 0.1688232422, -0.0266418457, -0.1313476562, -0.2175292969, 0.0605468750, -0.1379394531, -0.1043701172, 0.0753784180, -0.0744628906, 0.2661132812, 0.1582031250, 0.1335449219, 0.0628662109, -0.2045898438, 0.0436706543, -0.0096359253, -0.1271972656, -0.0654296875, 0.2570800781, 0.0725708008, -0.0031986237, 0.1214599609, -0.0567932129, -0.1149902344, 0.0810546875, 0.0324401855, -0.0731811523, 0.1422119141, -0.0693969727, -0.0335083008, -0.0977172852, 0.1455078125, -0.1601562500, 0.1303710938, 0.1695556641, 0.0000438094, 0.0971679688, 0.1490478516, -0.2152099609, -0.0519714355, 0.1939697266, 0.1091308594, -0.0718383789, -0.1057739258, -0.1719970703, -0.0395202637, 0.1461181641, -0.0773315430, 0.0371093750, 0.2437744141, -0.1075439453, 0.0159149170, 0.1529541016, -0.0206756592, 0.2609863281, 0.0234832764, 0.1846923828, 0.2115478516, -0.1220703125, -0.2016601562, -0.1455078125, 0.1052246094, 0.1068725586, -0.0448608398, -0.0285644531, 0.2081298828, 0.1507568359, -0.1229248047, 0.0382690430, -0.0693359375, 0.0809326172, -0.1854248047, 0.0783081055, 0.0848388672, -0.1408691406, -0.1445312500, 0.1109008789, 0.0517883301, -0.2418212891, 0.1323242188, 0.0833129883, -0.2175292969, 0.1300048828, 0.2858886719, 0.0576171875, -0.1369628906, -0.0189208984, 0.2175292969, 0.1470947266, 0.1199340820, 0.0201873779, -0.0584716797, 0.2398681641, -0.2305908203, -0.0621643066, -0.0139083862, -0.0502624512, -0.0592346191, 0.1148681641, -0.0742187500, 0.1232910156, 0.0709838867, -0.1895751953, 0.1205444336, -0.0667114258, 0.1903076172, 0.1253662109, -0.1484375000, 0.2479248047, -0.0982055664, -0.1964111328, -0.0431213379, 0.2213134766, -0.1569824219, 0.1931152344, -0.0406188965, -0.1523437500, -0.0243377686, 0.0516967773, 0.2373046875, 0.1813964844, -0.2066650391, 0.0098114014, 0.1235961914, 0.1130371094, -0.1385498047, -0.0337524414, -0.1744384766, 0.0733642578, 0.1679687500, 0.2071533203, 0.1702880859, -0.1907958984, -0.1190185547, 0.0445556641, -0.1333007812, 0.1805419922, -0.0159301758, -0.0975341797, 0.1138916016, -0.2128906250, 0.1429443359, 0.0659790039, -0.0769042969, 0.1362304688, -0.1041259766, -0.1142578125, 0.2592773438, 0.1844482422, 0.0732421875, -0.0414733887, -0.1887207031, 0.1697998047, -0.1395263672, 0.1301269531, -0.1451416016, -0.0780639648, 0.1588134766, -0.2568359375, -0.0618591309, 0.2386474609, 0.0792236328, -0.0423278809, -0.1209106445, 0.2473144531, -0.2147216797, 0.0090789795, -0.0603027344, 0.2167968750, 0.1717529297, -0.0473327637, 0.0128402710, 0.0682373047, -0.1059570312, -0.0191497803, -0.0187988281, 0.2044677734, 0.2612304688, 0.0043106079, -0.0707397461, -0.0434875488, 0.1373291016, -0.0442504883, 0.1506347656, 0.0403137207, -0.0106201172, -0.0073966980, -0.0546569824, -0.0146102905, 0.0242767334, -0.1104125977, 0.1334228516, 0.0037002563, -0.0696411133, -0.0387573242, -0.2364501953, 0.1423339844, -0.0634155273, -0.0659179688, 0.0409545898, 0.0134124756, -0.1365966797, -0.1079101562, 0.1228637695, -0.0866699219, -0.1997070312, 0.1079711914, -0.1589355469, 0.1577148438, -0.0704956055, 0.0924072266, -0.1253662109, -0.1396484375, 0.0499877930, 0.1560058594, 0.1099243164, 0.1402587891, 0.0099258423, 0.0867919922, -0.0512084961, 0.0196228027, 0.1491699219, -0.1578369141, 0.2197265625, 0.0859375000, 0.0873413086, -0.0983886719, 0.1754150391, 0.0306091309, -0.1547851562, -0.1729736328, 0.1114501953, -0.0563964844, 0.0651245117, 0.0445861816, -0.0071296692, 0.0460205078, 0.0234222412, 0.0421447754, 0.0358581543, 0.2005615234, -0.1856689453, 0.0767822266, 0.0646362305, 0.1997070312, 0.0863647461, 0.2352294922, -0.2263183594, 0.0899047852, -0.0926513672, 0.0499267578, -0.1251220703, 0.1015625000, 0.1248779297, 0.1191406250, 0.0251922607, -0.0576782227, -0.0395812988, -0.2476806641, -0.0737915039, -0.1568603516, -0.0365295410, 0.1768798828, 0.1077270508, -0.4047851562, 0.1323242188, -0.2634277344, -0.0024948120, 0.1158447266, 0.0183715820, 0.1343994141, 0.0456542969, -0.0225830078, -0.0557861328, -0.0277709961, -0.0451354980, -0.1362304688, -0.0305633545, 0.1585693359, -0.4182128906, 0.0780029297, 0.0140991211, -0.1856689453, -0.1619873047, -0.1685791016, -0.1990966797, -0.1862792969, 0.1172485352, -0.1063232422, 0.0817871094, 0.0939331055, -0.0914916992, -0.3022460938, -0.0766601562, -0.1639404297, -0.0399780273, 0.1081542969, -0.0108032227, -0.0407409668, -0.2076416016, 0.0463562012, 0.1248779297, 0.0306854248, -0.1538085938, -0.1628417969, 0.1983642578, 0.0639648438, -0.2575683594, -0.2280273438, -0.1130981445, -0.0038528442, -0.0459594727, -0.0293731689, -0.0346374512, 0.0949096680, 0.2641601562, 0.1282958984, -0.3139648438, -0.2033691406, -0.1711425781, 0.0337829590, -0.2749023438, -0.2059326172, 0.0080718994, -0.0079803467, 0.0712280273, 0.0989990234, 0.0034351349, -0.1486816406, -0.0409851074, 0.0853271484, 0.1455078125, -0.1143798828, -0.0844116211, 0.1122436523, -0.2819824219, -0.1928710938, -0.1369628906, -0.3430175781, -0.2220458984, -0.0731811523, 0.1291503906, 0.1116943359, -0.0874023438, -0.0839843750, 0.0925903320, 0.0699462891, -0.2563476562, -0.0430908203, 0.0348815918, 0.1146240234, 0.1071166992, -0.1854248047, -0.0040435791, -0.2364501953, 0.0742797852, -0.2293701172, -0.0929565430, 0.0554809570, -0.1248779297, 0.0235900879, 0.0249786377, -0.1744384766, -0.0778198242, -0.2773437500, -0.1617431641, -0.1181030273, -0.1212768555, 0.0941162109, -0.1876220703, -0.1451416016, -0.1865234375, 0.0164794922, -0.0180206299, -0.2749023438, -0.2919921875, 0.0290832520, -0.1289062500, -0.0827636719, 0.2249755859, -0.1308593750, -0.1983642578, -0.0320739746, -0.0901489258, 0.1030273438, 0.0668334961, -0.0046653748, -0.1204223633, 0.0191802979, -0.0153503418, 0.3000488281, -0.0609130859, -0.1834716797, 0.0365295410, -0.1130981445, -0.0374145508, 0.0374755859, 0.1779785156, 0.0897216797, 0.0305633545, 0.1342773438, -0.1433105469, -0.1345214844, -0.0409240723, 0.0073585510, -0.0889892578, -0.0404357910, -0.0360412598, -0.0942382812, 0.0934448242, -0.0116271973, -0.0399169922, 0.0558166504, -0.1135864258, -0.0858764648, -0.0722656250, 0.1927490234, -0.1090087891, -0.1678466797, -0.1368408203, 0.1684570312, 0.0556640625, -0.0300292969, -0.0254974365, -0.1179809570, -0.0952148438, 0.1971435547, 0.0255279541, 0.1107788086, -0.2099609375, -0.0960693359, -0.0895385742, 0.1035156250, -0.0805664062, 0.1612548828, 0.0945434570, -0.1608886719, 0.1256103516, 0.0467834473, 0.0614318848, -0.0298461914, 0.0579833984, 0.0091629028, -0.0837402344, -0.1411132812, 0.0455627441, -0.0869140625, -0.0408630371, -0.1854248047, 0.1651611328, 0.0691528320, -0.0322570801, -0.0708618164, 0.0285644531, -0.0451049805, -0.0319519043, -0.0486755371, -0.0784301758, -0.3659667969, -0.0426635742, -0.2385253906, -0.1558837891, 0.0740966797, 0.1822509766, 0.0627441406, 0.2529296875, -0.1669921875, -0.0908813477, 0.2902832031, 0.0241241455, -0.1279296875, -0.0916748047, 0.0870971680, -0.2266845703, -0.2573242188, -0.0493164062, -0.0521850586, 0.0792236328, -0.1372070312, -0.0418701172, -0.0393066406, 0.0569152832, 0.1621093750, 0.0949707031, -0.1917724609, -0.0313415527, -0.1315917969, 0.3059082031, -0.2142333984, -0.1829833984, -0.0679931641, -0.0888061523, 0.1060180664, 0.2225341797, -0.2634277344, 0.0086288452, -0.1691894531, -0.0174102783, -0.1596679688, -0.0729980469, -0.1934814453, -0.0892333984, 0.0126113892, -0.1428222656, 0.2153320312, -0.2629394531, -0.1657714844, 0.3239746094, 0.0334472656, -0.0376281738, -0.0476379395, 0.1304931641, 0.1445312500, -0.0073242188, 0.0241851807, 0.1357421875, 0.1319580078, -0.0513916016, -0.0594482422, -0.3012695312, 0.1238403320, 0.0565185547, 0.1245727539, 0.1098632812, -0.1411132812, -0.1541748047, 0.0902709961, -0.0586853027, 0.1311035156, -0.0345458984, -0.1406250000, 0.0971679688, -0.2707519531, 0.0074043274, 0.0004539490, -0.2044677734, -0.0280303955, -0.2990722656, -0.0573425293, -0.0523376465, -0.1499023438, -0.0247650146, -0.3366699219, -0.1074829102, 0.0835571289, -0.0485229492, -0.1673583984, -0.0701293945, -0.1273193359, 0.1566162109, -0.0985717773, -0.0588684082, -0.1805419922, -0.1571044922, -0.0201568604, 0.0386962891, -0.2078857422, -0.2890625000, -0.0507812500, -0.0206756592, 0.0319519043, 0.1519775391, 0.1475830078, 0.0288391113, 0.1174316406, -0.0530395508, 0.1306152344, 0.0950317383, -0.2191162109, -0.0731201172, -0.0821533203, 0.0746459961, -0.1488037109, -0.1590576172, 0.0784301758, -0.2355957031, -0.2326660156, -0.0068778992, 0.0650634766, 0.0846557617, 0.0791625977, -0.1329345703, -0.1402587891, 0.1056518555, -0.0701293945, -0.1657714844, -0.2751464844, -0.1530761719, -0.1433105469, 0.1806640625, -0.1289062500, 0.0809326172, -0.0558166504, 0.1259765625, 0.0393676758, 0.1185913086, -0.0231933594, -0.0690307617, -0.0131378174, -0.1350097656, 0.1829833984, -0.2978515625, -0.0439453125, -0.0179901123, 0.1691894531, 0.0219268799, -0.0898437500, 0.0018339157, 0.1023559570, -0.2467041016, 0.0700073242, -0.1962890625, 0.1657714844, -0.0228729248, 0.1877441406, 0.1658935547, -0.0500793457, -0.0324401855, -0.1641845703, -0.0328369141, -0.0512390137, -0.1326904297, -0.1455078125, 0.1252441406, -0.0805053711, 0.1326904297, -0.3051757812, -0.2224121094, -0.2858886719, -0.0397033691, -0.0445556641, 0.1456298828, -0.2329101562, -0.3137207031, 0.1302490234, 0.0415649414, -0.1155395508, 0.1029663086, 0.1346435547, 0.0704345703, 0.0214233398, -0.2998046875, -0.0867309570, -0.0631713867, -0.0302276611, 0.0321655273, 0.1285400391, 0.0172576904, -0.0203247070, -0.0907592773, -0.0281372070, -0.1577148438, 0.0235900879, 0.0108489990, 0.0572204590, -0.1015014648, -0.0365295410, -0.0820312500, 0.1882324219, 0.1013793945, 0.2255859375, 0.1042480469, -0.0461730957, -0.0222167969, -0.2116699219, 0.1520996094, -0.1450195312, 0.0741577148, -0.1157836914, -0.0200805664, 0.0155105591, 0.0626220703, 0.0372924805, -0.0864257812, -0.1315917969, -0.2521972656, -0.0645751953, 0.1530761719, -0.0369567871, -0.0465393066, -0.2216796875, -0.0968627930, 0.1312255859, 0.0294647217, 0.1160278320, -0.1087646484, -0.1904296875, 0.0151519775, -0.1200561523, -0.0176239014, 0.2030029297, 0.2266845703, -0.1470947266, -0.2261962891, -0.0313415527, 0.2495117188, 0.0918579102, 0.4045410156, -0.2415771484, 0.0215301514, -0.1010131836, -0.0208282471, -0.1215209961, -0.0013294220, 0.1065063477, 0.2382812500, -0.1787109375, 0.0419006348, -0.0325317383, 0.0438842773, -0.0866088867, -0.0784912109, 0.0102767944, 0.0161743164, 0.1396484375, -0.1566162109, -0.0412292480, -0.0702514648, -0.0236053467, -0.0466613770, -0.1832275391, 0.1623535156, -0.0808715820, -0.0381469727, -0.0171661377, -0.2673339844, -0.0825805664, 0.0125579834, 0.0726928711, -0.0355529785, -0.1307373047, -0.0149612427, -0.1236572266, -0.0777587891, 0.2578125000, -0.0800781250, 0.0932006836, 0.1028442383, -0.1099243164, -0.0157623291, -0.0149307251, -0.1507568359, 0.0610961914, 0.0031127930, 0.0058746338, 0.2592773438, -0.0354003906, 0.0524291992, 0.0908203125, 0.1320800781, 0.0740356445, 0.2001953125, -0.0568237305, -0.3718261719, 0.0944824219, -0.0903930664, -0.0420837402, -0.1080932617, 0.2194824219, -0.0006680489, 0.0391235352, -0.0950317383, -0.1785888672, -0.0227355957, -0.1710205078, 0.2139892578, 0.0105056763, 0.0998535156, 0.0412597656, 0.2298583984, 0.0291900635, 0.0529785156, -0.1058349609, -0.0052566528, -0.0754394531, 0.0803222656, 0.1401367188, -0.3393554688, -0.0748291016, -0.2492675781, 0.1715087891, -0.1613769531, 0.0099411011, 0.0807495117, 0.0388793945, -0.0327453613, 0.0762939453, 0.2504882812, 0.0746459961, -0.3654785156, -0.2243652344, -0.1822509766, 0.1447753906, 0.0486755371, -0.3576660156, 0.0658569336, 0.0912475586, 0.0684204102, -0.0635986328, 0.0180053711, -0.0865478516, -0.1478271484, 0.1945800781, -0.2132568359, -0.0273590088, -0.2010498047, -0.0209808350, 0.0403747559, 0.0367736816, 0.2060546875, -0.1815185547, 0.0099868774, 0.0473022461, 0.1574707031, -0.1439208984, 0.1868896484, -0.1461181641, -0.1611328125, 0.1383056641, -0.1912841797, -0.0689697266, 0.1209716797, 0.0306243896, -0.0191192627, 0.0073356628, 0.1099243164, -0.2193603516, -0.0949096680, -0.0783691406, 0.1104125977, -0.0615539551, -0.1372070312, 0.0883789062, -0.0275268555, -0.2712402344, -0.0639648438, 0.1038208008, -0.0812377930, 0.0024585724, 0.1072998047, 0.0731811523, -0.1333007812, 0.1713867188, 0.0020523071, 0.0792846680, 0.0224914551, -0.2534179688, -0.0900878906, -0.1903076172, -0.0822143555, -0.0624389648, -0.0039520264, -0.0995483398, 0.2131347656, -0.2739257812, 0.0538024902, -0.1672363281, 0.0676269531, -0.1359863281, 0.0213317871, -0.0511169434, 0.1357421875, -0.1247558594, -0.0547790527, 0.1138305664, -0.1944580078, -0.1463623047, -0.0639038086, -0.0585327148, -0.0380554199, 0.1459960938, 0.0689697266, -0.0642089844, 0.2186279297, 0.0461120605, 0.1658935547, -0.1513671875, -0.0602111816, 0.1319580078, 0.0926513672, 0.0942993164, -0.0121154785, 0.0032901764, -0.0541381836, 0.1005249023, 0.0888061523, -0.0827026367, -0.0527038574, 0.0515136719, 0.0894165039, 0.1551513672, -0.3344726562, 0.0440368652, -0.0408935547, -0.1751708984, 0.0648193359, 0.2795410156, -0.0575256348, 0.2221679688, -0.0972900391, 0.1481933594, -0.0457763672, 0.1936035156, -0.0485534668, -0.1887207031, 0.1918945312, -0.0045204163, -0.0706787109, -0.1015625000, 0.0034427643, 0.2980957031, -0.0523071289, 0.1870117188, -0.0444335938, -0.0004196167, 0.2712402344, 0.2114257812, -0.0038337708, 0.0803222656, -0.0714111328, -0.1353759766, 0.0763549805, 0.2561035156, -0.1222534180, 0.0217132568, -0.0251617432, 0.0142974854, -0.0448608398, -0.0018520355, 0.1091308594, -0.0244293213, -0.1400146484, 0.1787109375, 0.0526123047, 0.1257324219, -0.0304260254, -0.1372070312, -0.1160888672, 0.2775878906, 0.0672607422, 0.0411071777, -0.2462158203, -0.1273193359, -0.1032714844, -0.1403808594, 0.2558593750, 0.1181640625, -0.0112915039, -0.1142578125, -0.3002929688, -0.1080932617, 0.2298583984, -0.0881958008, 0.1911621094, -0.0580139160, -0.0621643066, -0.1193237305, 0.0053672791, 0.0691528320, -0.0207214355, -0.1451416016, 0.0436401367, 0.1544189453, -0.0007581711, -0.0331726074, -0.1019287109, -0.0806274414, 0.0913085938, -0.0803833008, -0.0982666016, -0.1166992188, -0.2263183594, -0.2561035156, -0.0036563873, 0.0316162109, 0.1999511719, 0.0516967773, -0.0138320923, -0.0982055664, 0.0332641602, -0.0631713867, -0.0377197266, 0.0642700195, 0.0014228821, 0.1480712891, -0.1143798828, -0.0173339844, -0.0984497070, -0.0798950195, -0.0216827393, -0.0575561523, -0.0075111389, 0.0067329407, 0.0740966797, 0.0754394531, -0.1589355469, 0.0549011230, 0.0236358643, 0.0286712646, -0.2259521484, 0.1948242188, 0.2159423828, -0.2539062500, -0.1429443359, 0.0835571289, -0.0421447754, 0.0056724548, -0.0761108398, -0.1442871094, 0.0172729492, -0.2634277344, 0.1370849609, 0.0708618164, 0.2072753906, 0.0236968994, 0.1989746094, 0.0887451172, -0.0080184937, -0.0011329651, -0.0327148438, 0.2919921875, -0.0742797852, 0.1700439453, -0.0103378296, 0.0405578613, 0.2442626953, 0.2846679688, -0.1363525391, -0.0484924316, 0.1202392578, 0.0686645508, -0.0855712891, -0.0378112793, -0.0369262695, -0.0200195312, 0.1524658203, -0.1276855469, 0.0216064453, -0.0395507812, 0.2180175781, 0.2597656250, 0.1818847656, -0.1961669922, 0.0944213867, -0.0547790527, 0.2089843750, 0.1756591797, 0.0463867188, -0.1233520508, 0.1256103516, 0.0070838928, -0.0552062988, 0.1229248047, 0.1694335938, -0.0919799805, -0.0193481445, 0.1531982422, -0.0392456055, 0.0822143555, -0.0809936523, 0.0298919678, -0.0278930664, -0.1089477539, -0.0031795502, -0.0453491211, -0.1174926758, -0.2255859375, -0.3430175781, 0.1391601562, 0.0299682617, 0.1949462891, 0.1080322266, 0.1265869141, -0.1035766602, -0.1001586914, 0.0320739746, -0.1380615234, -0.0939331055, 0.0877685547, -0.0308380127, 0.1290283203, 0.2517089844, 0.1560058594, -0.1351318359, -0.0102996826, 0.0885620117, 0.0321350098, 0.2069091797, -0.3339843750, 0.0769042969, 0.1210327148, 0.1584472656, -0.1837158203, 0.0325927734, 0.0563964844, 0.0427551270, -0.1793212891, 0.3447265625, -0.0815429688, -0.2476806641, -0.2104492188, -0.0018663406, -0.2734375000, -0.0783691406, -0.1933593750, -0.0924072266, -0.0729980469, -0.0969238281, -0.1938476562, 0.0047645569, -0.1439208984, -0.1289062500, 0.0950317383, -0.0170440674, 0.0216522217, 0.0135040283, -0.2800292969, 0.0631103516, -0.0395202637, 0.2897949219, 0.1606445312, -0.2287597656, -0.0313720703, -0.0224761963, -0.2260742188, 0.0679931641, 0.1419677734, -0.0140686035, 0.0976562500, 0.0402221680, -0.0169067383, -0.0892944336, 0.0568237305, -0.0509948730, 0.0108337402, -0.1730957031, 0.0311584473, 0.0752563477, -0.1647949219, -0.0401611328, 0.0849609375, 0.0913696289, 0.0797729492, 0.0392761230, -0.0292205811, -0.0370483398, -0.0318298340, -0.0665893555, 0.0063514709, 0.1069946289, -0.1168823242, 0.2259521484, -0.2402343750, -0.0047111511, -0.2641601562, -0.1347656250, -0.2590332031, -0.2082519531, -0.0475158691, -0.2004394531, 0.1037597656, 0.1334228516, 0.0945434570, -0.1464843750, -0.0646362305, -0.0437622070, -0.0868530273, -0.1322021484, -0.1468505859, 0.0796508789, -0.1364746094, 0.0483398438, 0.0184173584, -0.0549926758, -0.1802978516, -0.0859375000, -0.0938110352, -0.2498779297, 0.0274353027, 0.0339965820, -0.1574707031, 0.0001288652, 0.0884399414, 0.0158538818, 0.0243682861, 0.2568359375, -0.3088378906, -0.0115814209, 0.0706787109, -0.1436767578, -0.1806640625, -0.0562133789, -0.2199707031, -0.0903320312, -0.1279296875, -0.2341308594, 0.0573120117, -0.2517089844, 0.0668334961, -0.1761474609, 0.0433654785, -0.1376953125, 0.0275573730, -0.1562500000, -0.0771484375, 0.0835571289, 0.1409912109, -0.1986083984, 0.0128784180, -0.0071411133, -0.0932617188, -0.0492858887, -0.0695800781, 0.0718383789, -0.1472167969, -0.2031250000, -0.2570800781, -0.1190795898, 0.1107788086, -0.1763916016, -0.0741577148, -0.0169372559, -0.1453857422, -0.2343750000, -0.1926269531, -0.2213134766, -0.2719726562, 0.0476684570, -0.1322021484, 0.0168609619, -0.2553710938, 0.1246337891, -0.0608520508, 0.0983886719, 0.1244506836, 0.1722412109, 0.2349853516, 0.1146850586, -0.1176757812, -0.3107910156, 0.0336914062, -0.2678222656, -0.3039550781, -0.0310821533, 0.1479492188, -0.0470275879, -0.0286102295, -0.0762329102, 0.0293273926, -0.1530761719, 0.0435485840, -0.0858764648, 0.1213378906, -0.0826416016, 0.1069946289, -0.1979980469, -0.1414794922, -0.0268402100, -0.0395202637, -0.2580566406, -0.1713867188, 0.0843505859, 0.0166168213, 0.1244506836, -0.0094451904, -0.1900634766, 0.0866088867, -0.2117919922, -0.0917358398, -0.0704345703, 0.1838378906, 0.0661010742, 0.0789794922, -0.0468750000, -0.0879516602, -0.0317382812, -0.2325439453, 0.0464782715, 0.1378173828, 0.0672607422, -0.0158386230, -0.1108398438, -0.0507507324, -0.0900268555, 0.0870361328, -0.1770019531, -0.0593566895, -0.0966796875, -0.0557250977, -0.0019121170, 0.1997070312, 0.0881958008, 0.1601562500, -0.0268096924, 0.0002830029, 0.0056800842, 0.1770019531, 0.2285156250, 0.1921386719, -0.0032768250, -0.0734252930, -0.0796508789, -0.1011962891, 0.1204223633, -0.1634521484, -0.2370605469, 0.0769042969, -0.0733642578, 0.0181732178, -0.0019874573, 0.0660400391, -0.0063209534, 0.0208435059, -0.1378173828, -0.0174102783, -0.0828857422, -0.1006469727, -0.0267791748, 0.0229949951, -0.1954345703, -0.1233520508, 0.0128784180, -0.1990966797, 0.2546386719, -0.0733032227, -0.1530761719, 0.1551513672, -0.0522460938, 0.0689697266, 0.0129089355, -0.0972290039, -0.1580810547, 0.1209106445, -0.0286102295, -0.2885742188, 0.0150299072, 0.0225219727, 0.1560058594, 0.1571044922, 0.1323242188, 0.0142288208, 0.2131347656, 0.2222900391, 0.1333007812, -0.1039428711, 0.0436706543, -0.0432739258, 0.1853027344, -0.0722045898, -0.1008911133, 0.2868652344, 0.0762939453, -0.1766357422, -0.0720825195, 0.1391601562, -0.2702636719, 0.1071166992, -0.0668945312, 0.3540039062, 0.1512451172, -0.0464477539, 0.1024169922, -0.0993652344, 0.1816406250, 0.0069465637, 0.1228027344, -0.1556396484, -0.0863647461, -0.0155029297, 0.2912597656, -0.0411376953, 0.0822753906, 0.0343627930, -0.0378417969, -0.0586547852, 0.0341796875, -0.1472167969, -0.0841674805, 0.1927490234, -0.0277252197, -0.1351318359, 0.0623168945, -0.0083007812, 0.0325012207, -0.1668701172, -0.1055908203, -0.1617431641, -0.1365966797, -0.0891723633, 0.1606445312, -0.2415771484, 0.0130462646, -0.1237182617, -0.1618652344, 0.1433105469, -0.0028533936, 0.0701904297, -0.1429443359, -0.0905151367, -0.0387268066, 0.1717529297, -0.1759033203, -0.2836914062, 0.1412353516, 0.1346435547, -0.3088378906, -0.1311035156, 0.0589904785, -0.0421447754, 0.1781005859, -0.0365600586, -0.0864868164, -0.0786132812, 0.0838012695, -0.1162109375, -0.2047119141, -0.0635375977, -0.0264587402, 0.0188293457, -0.2382812500, 0.1917724609, -0.1672363281, 0.1734619141, 0.2249755859, 0.0711059570, -0.0118103027, -0.1173706055, 0.1599121094, 0.0136718750, -0.1155395508, -0.1352539062, 0.0925903320, 0.1198730469, -0.1150512695, 0.1158447266, 0.0536804199, -0.2008056641, 0.0225219727, 0.0598144531, 0.0625610352, -0.1633300781, -0.0581665039, -0.1757812500, 0.1767578125, -0.1201782227, -0.0165252686, -0.1867675781, 0.0055236816, 0.0614624023, -0.0269012451, -0.2775878906, 0.0698852539, -0.0499267578, 0.0378723145, 0.0753784180, -0.0509033203, 0.1929931641, 0.0443420410, 0.1336669922, -0.1831054688, 0.2354736328, -0.1208496094, -0.0082550049, 0.0874023438, 0.2670898438, 0.0209655762, -0.2009277344, 0.2313232422, -0.2392578125, -0.1541748047, 0.1813964844, -0.0476074219, 0.1024780273, -0.2893066406, -0.0402832031, -0.0133895874, -0.0204162598, 0.1456298828, -0.1380615234, -0.1401367188, -0.2031250000, -0.0526123047, -0.1567382812, 0.1298828125, -0.1328125000, 0.1331787109, 0.0493164062, 0.1006469727, -0.1750488281, 0.1233520508, 0.1569824219, 0.1087646484, 0.0733642578, -0.1302490234, -0.0953979492, 0.0339050293, -0.0269470215, -0.0706176758, 0.3085937500, 0.2263183594, -0.1461181641, 0.0136566162, 0.1728515625, 0.2673339844, 0.2117919922, 0.1362304688, 0.1319580078, 0.1796875000, 0.2169189453, -0.2065429688, 0.2098388672, 0.2585449219, 0.0593261719, -0.1200561523, 0.1297607422, 0.0555419922, 0.1750488281, -0.0607910156, -0.0662231445, -0.0763549805, -0.1778564453, 0.0566406250, -0.0050964355, -0.0149383545, -0.0281982422, 0.1008911133, -0.2456054688, -0.0180053711, -0.0410461426, 0.0838623047, 0.2442626953, 0.0048751831, -0.0031890869, 0.0630493164, -0.1503906250, -0.0164337158, 0.0236358643, -0.0473022461, 0.1244506836, 0.1895751953, -0.1807861328, -0.0841064453, 0.0536804199, 0.0278320312, -0.1966552734, 0.0914306641, -0.0846557617, 0.1535644531, 0.2907714844, 0.0573120117, 0.0663452148, -0.1239624023, 0.0517272949, 0.1365966797, 0.0870971680, 0.1022949219, -0.0694580078, -0.0803222656, 0.1339111328, 0.1839599609, -0.0327148438, 0.0048522949, -0.0324707031, 0.0484008789, 0.0947265625, 0.0650024414, -0.2281494141, -0.2279052734, -0.1611328125, 0.0007028580, -0.0991210938, -0.1762695312, -0.0711059570, -0.1551513672, -0.1201782227, 0.0068550110, -0.2281494141, -0.3708496094, -0.0152969360, 0.0922851562, -0.0413208008, -0.0184631348, 0.0506896973, 0.0602722168, 0.1616210938, -0.1701660156, -0.1489257812, -0.0794677734, -0.0880737305, 0.1251220703, -0.0582580566, 0.2476806641, -0.1063842773, 0.2187500000, 0.2592773438, 0.1741943359, 0.2028808594, 0.1154174805, 0.1032104492, -0.0109634399, 0.0605773926, -0.0283203125, -0.0866699219, -0.0298309326, -0.2722167969, 0.1239624023, -0.0838012695, -0.1816406250, 0.1812744141, -0.1301269531, -0.1802978516, -0.0249786377, 0.0553588867, 0.0305480957, 0.0701293945, -0.0431518555, 0.0650634766, 0.0324401855, 0.0300750732, -0.0829467773, -0.1776123047, 0.1101074219, 0.1052856445, 0.1110229492, -0.0315246582, 0.0119094849, -0.2357177734, -0.0840454102, 0.0362854004, -0.2160644531, 0.1497802734, 0.1387939453, 0.0695190430, -0.1090087891, -0.0715332031, 0.0556030273, 0.0855102539, 0.0080413818, -0.0489196777, -0.1687011719, 0.0672607422, -0.0289001465, -0.1198730469, -0.1244506836, -0.0824584961, -0.1203002930, 0.0259399414, -0.3090820312, 0.1177978516, -0.1881103516, 0.0688476562, 0.0533752441, 0.0654907227, -0.0867309570, 0.0974731445, -0.0606079102, 0.1292724609, -0.1109619141, 0.0891113281, -0.0195007324, 0.1674804688, 0.0691528320, -0.1594238281, -0.0768432617, -0.0946655273, -0.0880126953, 0.1060180664, -0.1806640625, -0.0564880371, -0.1917724609, 0.1108398438, -0.0383605957, -0.0944824219, -0.0198059082, -0.0781860352, 0.2167968750, -0.0919799805, -0.0010337830, -0.1560058594, -0.1470947266, 0.3229980469, -0.2178955078, -0.0227050781, -0.1172485352, -0.2170410156, -0.3093261719, -0.1485595703, -0.0803833008, 0.1561279297, 0.3076171875, 0.0651245117, -0.0294342041, -0.2083740234, -0.0257415771, 0.0265350342, -0.0740966797, 0.0573120117, -0.1217651367, -0.1055908203, -0.1199340820, -0.0770874023, 0.0969238281, -0.1159057617, 0.0154190063, -0.0901489258, -0.1120605469, -0.0480651855, -0.0399780273, 0.0580139160, -0.0814819336, -0.0048370361, 0.1212768555, -0.0153503418, -0.2434082031, -0.1701660156, -0.0920410156, -0.0702514648, -0.0825805664, 0.0919799805, -0.2949218750, 0.0904541016, -0.1211547852, -0.2279052734, -0.0911254883, -0.2331542969, 0.0299682617, -0.2363281250, -0.0422973633, 0.2519531250, 0.0011186600, -0.2082519531, 0.0574340820, -0.0314636230, 0.0958862305, 0.2457275391, 0.0561523438, -0.0326538086, -0.0451965332, 0.0738525391, 0.3828125000, -0.2137451172, -0.0714111328, -0.1583251953, 0.1279296875, 0.0103607178, -0.0049209595, -0.0017700195, -0.1656494141, -0.1690673828, 0.0000273585, -0.1368408203, 0.1702880859, -0.1544189453, 0.0761718750, 0.2050781250, -0.0540161133, -0.2424316406, -0.0781250000, 0.1473388672, -0.2922363281, -0.0634765625, 0.0345764160, -0.0070075989, -0.1628417969, 0.1995849609, -0.1502685547, 0.1194458008, 0.0062446594, 0.0689697266, -0.0456848145, -0.0872802734, -0.0842285156, 0.2810058594, 0.0079345703, -0.2274169922, -0.0783691406, 0.0836791992, -0.2410888672, -0.0821533203, -0.0105133057, 0.1145019531, -0.0531616211, 0.0692138672, -0.0630493164, 0.1000366211, -0.1511230469, -0.0183258057, -0.1434326172, -0.0776977539, 0.3046875000, 0.0720825195, 0.0458984375, -0.0388793945, 0.2237548828, 0.0256652832, 0.1466064453, -0.0294799805, -0.1677246094, -0.1375732422, 0.0206909180, -0.0483398438, -0.4172363281, 0.0384521484, 0.1043701172, -0.2070312500, -0.0467529297, 0.0649414062, 0.0460510254, 0.2788085938, -0.1468505859, 0.1697998047, 0.1507568359, 0.1192016602, 0.1927490234, -0.2104492188, -0.1866455078, -0.3159179688, 0.1263427734, -0.1395263672, 0.2091064453, -0.1469726562, -0.0177612305, -0.0995483398, -0.1798095703, 0.0182342529, 0.1181030273, -0.0263824463, -0.0370178223, -0.0343933105, 0.0554504395, -0.0777587891, -0.0087203979, 0.0709838867, -0.0752563477, -0.1876220703, -0.0506896973, 0.0946655273, -0.0550231934, 0.0870971680, 0.0509033203, -0.1575927734, -0.0577087402, -0.1485595703, 0.1156005859, -0.2741699219, -0.1324462891, 0.0380859375, 0.0357971191, -0.3378906250, 0.1861572266, -0.0953369141, -0.0610351562, 0.0001221895, -0.0017051697, -0.0272064209, -0.1065673828, 0.1563720703, 0.1976318359, 0.1529541016, -0.2492675781, -0.0902099609, 0.2191162109, 0.1154174805, -0.0985717773, 0.1759033203, -0.2714843750, 0.1407470703, 0.1524658203, -0.0639038086, 0.0872802734, 0.0588378906, 0.0152130127, -0.1662597656, -0.1834716797, -0.2565917969, -0.1447753906, -0.0767211914, -0.1495361328, -0.0605468750, 0.1689453125, -0.0246276855, -0.0750122070, -0.1279296875, 0.0360107422, -0.0969238281, -0.0234985352, -0.0135192871, 0.0408325195, 0.0653686523, -0.1555175781, -0.1567382812, 0.2183837891, 0.1917724609, -0.0929565430, 0.0286254883, -0.0510253906, -0.0907592773, -0.3105468750, -0.0500488281, 0.1970214844, 0.0503845215, -0.0755615234, -0.0415039062, 0.0189819336, 0.0822143555, -0.0650634766, 0.2224121094, 0.0740966797, -0.2465820312, 0.0284729004, 0.0930786133, -0.0209197998, 0.0134353638, -0.1268310547, 0.1488037109, -0.1142578125, -0.0298461914, 0.0470886230, 0.1625976562, -0.0592346191, 0.0325317383, 0.1759033203, 0.0794677734, 0.0377807617, -0.3308105469, -0.0446777344, 0.0038757324, 0.0130233765, -0.1873779297, -0.0202331543, 0.0062866211, -0.0394592285, -0.0291137695, 0.0785522461, -0.1032714844, -0.0078430176, -0.2022705078, -0.0440063477, -0.0384521484, 0.0433044434, -0.0419006348, -0.0568237305, 0.2175292969, -0.0569458008, 0.0195922852, 0.0325317383, 0.1365966797, -0.2406005859, -0.0768432617, 0.0773925781, 0.1341552734, -0.1706542969, -0.0740966797, -0.1196899414, -0.0993041992, 0.0235748291, -0.0592346191, -0.0875854492, -0.0352478027, -0.1354980469, -0.1453857422, -0.1001586914, -0.2108154297, -0.0354309082, 0.1254882812, -0.0814208984, 0.0903930664, 0.0021305084, 0.0982666016, 0.1151733398, -0.1567382812, 0.0075149536, -0.2587890625, -0.0222625732, -0.1611328125, 0.0735473633, -0.0164642334, 0.2990722656, -0.1168212891, 0.2846679688, -0.0534667969, 0.0052795410, 0.0654296875, 0.0863647461, 0.0217895508, -0.0855102539, 0.1845703125, 0.0013170242, -0.0902709961, 0.0628662109, -0.0993041992, -0.4348144531, -0.0770874023, 0.1113891602, -0.1984863281, 0.1763916016, 0.1811523438, -0.1481933594, 0.1152954102, 0.1942138672, -0.0520019531, -0.1778564453, -0.1093139648, 0.0019321442, -0.1193847656, -0.3884277344, 0.1330566406, -0.0444335938, -0.0205993652, -0.0024299622, 0.0330505371, 0.0194244385, 0.0840454102, 0.1177368164, -0.0497131348, 0.0979614258, -0.0411071777, 0.0234527588, -0.0776977539, 0.1067504883, 0.0531311035, -0.2030029297, 0.1160888672, -0.1434326172, 0.0340576172, 0.0373840332, 0.1580810547, 0.2188720703, 0.0949707031, 0.0494995117, 0.1268310547, 0.0017242432, -0.0661621094, -0.2198486328, 0.1309814453, 0.0087890625, -0.0095748901, -0.1209716797, -0.1164550781, -0.0943603516, 0.1173095703, 0.0235137939, 0.0833740234, 0.0196838379, 0.0279998779, 0.0160064697, -0.0072746277, -0.0966796875, 0.0625000000, -0.0354614258, -0.0104446411, 0.1249389648, -0.0665283203, 0.0823364258, 0.0682373047, -0.0512084961, -0.2215576172, 0.1710205078, 0.0458374023, -0.1623535156, -0.1250000000, -0.0118026733, 0.0472412109, 0.1199340820, 0.1514892578, -0.0894165039, -0.1223754883, 0.1290283203, -0.0890502930, -0.0547485352, -0.1813964844, 0.1161499023, -0.0715942383, -0.0062446594, -0.0283966064, 0.1323242188, -0.1446533203, 0.0533142090, -0.2042236328, 0.0308532715, 0.0045661926, 0.0977783203, -0.2320556641, -0.3051757812, -0.1436767578, 0.0310974121, -0.2578125000, 0.2160644531, 0.0413818359, -0.0433044434, 0.1416015625, 0.0592041016, -0.1435546875, 0.1893310547, -0.1800537109, -0.1182861328, 0.0354614258, 0.1128540039, 0.1177978516, 0.1177978516, -0.0999145508, -0.2008056641, 0.1834716797, -0.0204315186, -0.0711669922, -0.0874633789, -0.0195465088, 0.0247650146, 0.0317382812, 0.2539062500, 0.0640258789, -0.2155761719, -0.1286621094, 0.0756225586, 0.0687255859, 0.1281738281, -0.1505126953, 0.1156005859, -0.1064453125, 0.0838623047, -0.0499572754, -0.0891723633, 0.0369567871, 0.1490478516, -0.0033874512, -0.0364685059, -0.0458374023, 0.0341796875, 0.0858154297, 0.0699462891, 0.1211547852, -0.1325683594, -0.1472167969, -0.1723632812, 0.0263214111, 0.1417236328, 0.0346069336, -0.1128540039, -0.1124877930, 0.2308349609, -0.0310668945, -0.1056518555, 0.2707519531, 0.0465087891, 0.0883178711, 0.0520629883, -0.0562438965, -0.2680664062, 0.4050292969, -0.0620117188, 0.1711425781, -0.1701660156, 0.0109252930, 0.1027832031, -0.0964965820, 0.0997314453, 0.2205810547, 0.1582031250, -0.0148696899, 0.0481567383, 0.0360717773, -0.0391235352, -0.0567932129, -0.0541076660, -0.0067901611, 0.1020507812, -0.0052490234, 0.0924072266, -0.1397705078, 0.1097412109, 0.0743408203, 0.1291503906, 0.0451660156, -0.0673828125, -0.0274047852, -0.0963745117, 0.0192565918, 0.0559387207, 0.0146942139, -0.0841674805, -0.0067825317, 0.2213134766, -0.0037422180, 0.2130126953, -0.0365905762, 0.1870117188, -0.1674804688, 0.0916137695, -0.0318298340, 0.1278076172, -0.0005083084, 0.0513610840, -0.1107177734, -0.1645507812, 0.1372070312, 0.2065429688, 0.0341796875, -0.0383911133, 0.1248779297, -0.0717163086, 0.0200195312, 0.0559387207, 0.0059471130, 0.0880126953, -0.0445861816, -0.1817626953, 0.1788330078, 0.2135009766, 0.0614318848, -0.0026855469, -0.1510009766, -0.1217041016, -0.0993041992, -0.0961303711, -0.1363525391, 0.0100784302, -0.2325439453, -0.3117675781, 0.0683593750, -0.0742187500, -0.0200653076, 0.0819702148, -0.1868896484, -0.0273742676, -0.2100830078, 0.0892333984, 0.1923828125, 0.0606689453, 0.1049194336, 0.0603332520, -0.1337890625, 0.0588989258, -0.2318115234, 0.1608886719, -0.0860595703, 0.0260009766, 0.0513916016, 0.0706176758, -0.1129760742, -0.1130981445, -0.2120361328, -0.0662841797, 0.0803833008, 0.0253143311, 0.1765136719, 0.0295104980, 0.1394042969, 0.0169677734, -0.0341186523, 0.0129928589, -0.0214385986, -0.0404968262, -0.0180358887, -0.0885620117, -0.0155715942, -0.0224304199, -0.2207031250, 0.0997314453, -0.0264892578, -0.2137451172, 0.1680908203, 0.1348876953, -0.0111007690, -0.1773681641, -0.0739746094, 0.0162811279, -0.2247314453, 0.1021728516, 0.0861816406, -0.1931152344, -0.0490112305, 0.0330810547, 0.2189941406, 0.1290283203, -0.2027587891, -0.0786743164, -0.0112075806, -0.0387878418, -0.2731933594, -0.1788330078, 0.2432861328, 0.1163330078, -0.0521545410, 0.1702880859, -0.0985717773, -0.1181030273, -0.1357421875, -0.3234863281, -0.0771484375, -0.0604248047, -0.0265502930, -0.1899414062, -0.1199951172, -0.2639160156, 0.0181884766, 0.0279235840, 0.1282958984, -0.1174926758, 0.0632934570, -0.1488037109, 0.0360412598, -0.0091629028, 0.1346435547, 0.3020019531, -0.0292053223, 0.0740966797, -0.0202789307, 0.1906738281, 0.1940917969, 0.0225677490, 0.1536865234, -0.1525878906, 0.0944824219, -0.0792236328, -0.0095977783, -0.0811767578, -0.0866088867, -0.0692749023, -0.1041870117, -0.0459289551, -0.2479248047, -0.1224975586, 0.0295410156, 0.1282958984, 0.0204010010, 0.0429077148, 0.1343994141, -0.2049560547, 0.1098022461, -0.1801757812, -0.0731811523, -0.0119476318, 0.2365722656, 0.0697021484, 0.2941894531, -0.1211547852, 0.1610107422, 0.0147018433, 0.1262207031, 0.0117416382, 0.2078857422, 0.1445312500, 0.0908813477, 0.1655273438, 0.0578308105, 0.1467285156, 0.1456298828, 0.1558837891, -0.1490478516, 0.1036987305, -0.0262145996, 0.0901489258, 0.0982666016, -0.0376892090, 0.1224365234, 0.0589294434, -0.2095947266, 0.1895751953, 0.1313476562, -0.0947265625, 0.2514648438, 0.0019483566, -0.1970214844, -0.0540466309, -0.1452636719, 0.1245727539, 0.0226593018, -0.1350097656, -0.0900878906, 0.0325012207, -0.0778198242, -0.2008056641, 0.0717773438, -0.1617431641, -0.0148696899, -0.0523071289, 0.3203125000, 0.0457458496, -0.0389709473, -0.0927124023, 0.0889892578, 0.1534423828, 0.0842895508, -0.1672363281, 0.1007690430, -0.0982055664, -0.0714111328, -0.0551147461, 0.1328125000, 0.0000677109, -0.1207885742, -0.1586914062, -0.0070343018, 0.1439208984, 0.0450439453, -0.0545043945, 0.0061302185, 0.1889648438, -0.0483093262, -0.1323242188, -0.0032539368, -0.1181640625, -0.1579589844, -0.2592773438, -0.1015625000, -0.0859985352, -0.3393554688, -0.0406799316, -0.1896972656, -0.2460937500, -0.0786132812, 0.2675781250, 0.2106933594, 0.1314697266, -0.0074195862, -0.3217773438, -0.0243225098, 0.3078613281, -0.0925903320, 0.1987304688, 0.0144500732, -0.0305023193, 0.0331115723, 0.0087509155, -0.0213012695, 0.1368408203, -0.0102233887, -0.0875854492, 0.1502685547, -0.1006469727, 0.0552062988, -0.0188140869, 0.1024780273, -0.1257324219, 0.0418090820, 0.0559387207, -0.1561279297, -0.0401611328, 0.1077270508, -0.1589355469, 0.0079498291, -0.2030029297, 0.1790771484, -0.0853881836, 0.0333557129, 0.2015380859, -0.1884765625, -0.0071296692, -0.0231933594, -0.0480346680, 0.0464782715, -0.3342285156, -0.0227355957, -0.0958862305, 0.1456298828, -0.1395263672, 0.0785522461, 0.1674804688, -0.0259094238, 0.0407714844, 0.0038146973, 0.1823730469, 0.0384216309, -0.0830688477, 0.1573486328, 0.0857543945, -0.1503906250, 0.1350097656, 0.1425781250, -0.0325622559, -0.1475830078, -0.0195922852, 0.0159606934, -0.0502929688, 0.0923461914, -0.1862792969, -0.2280273438, -0.1771240234, 0.1021118164, -0.0019140244, -0.0759277344, 0.1995849609, -0.2729492188, 0.0243682861, 0.1032714844, -0.1541748047, -0.3110351562, 0.0417785645, 0.1851806641, 0.2099609375, -0.0800781250, -0.1489257812, -0.1011962891, 0.0604248047, 0.0078735352, 0.0845947266, 0.0809936523, 0.0053939819, -0.2274169922, -0.1464843750, -0.1837158203, -0.0265655518, 0.0640258789, -0.2080078125, 0.0072364807, -0.0128707886, 0.1084594727, -0.0086898804, -0.0910034180, 0.0910644531, 0.1023559570, -0.0373535156, 0.0930175781, -0.0196685791, 0.0283813477, 0.0250701904, -0.1228027344, -0.0961914062, 0.0809936523, 0.1668701172, 0.1084594727, -0.2998046875, -0.0825195312, 0.1511230469, -0.3417968750, -0.0468444824, 0.0161132812, 0.0259246826, 0.0816040039, -0.2509765625, -0.0724487305, 0.0966186523, 0.1518554688, 0.0481872559, -0.0645751953, -0.2247314453, -0.0040130615, -0.1146240234, -0.1431884766, -0.0761108398, 0.1018676758, 0.0144577026, -0.2893066406, 0.1336669922, -0.1434326172, -0.1479492188, 0.1030273438, -0.0639038086, -0.1920166016, -0.0548095703, 0.2115478516, -0.0692138672, 0.1139526367, -0.1331787109, 0.0602111816, -0.0968017578, -0.0759277344, 0.2502441406, -0.2712402344, -0.0041236877, -0.1132202148, -0.0812988281, 0.0219879150, 0.0144805908, -0.1710205078, 0.1093139648, -0.0049514771, -0.1019897461, 0.1107788086, 0.0775146484, 0.0322265625, -0.0340576172, 0.1942138672, 0.0888061523, -0.0302734375, -0.1232910156, -0.1042480469, -0.1567382812, -0.0419006348, 0.2985839844, 0.0535583496, 0.3312988281, -0.1010742188, -0.0686645508, 0.0259704590, -0.0379333496, 0.2177734375, -0.1066284180, 0.1058959961, 0.0820922852, 0.0580444336, -0.0534362793, 0.0054054260, -0.1038818359, 0.1785888672, -0.2375488281, 0.2271728516, -0.0004048347, 0.0744018555, -0.1087646484, -0.0248870850, -0.1042480469, -0.0654907227, 0.1384277344, 0.1076660156, -0.2312011719, -0.2071533203, -0.0815429688, 0.1562500000, 0.0078430176, -0.0550842285, -0.1370849609, 0.0737304688, -0.0059967041, -0.0999755859, 0.0968627930, -0.0758666992, 0.0608520508, 0.0715332031, -0.1037597656, -0.0664672852, 0.0203704834, 0.1553955078, 0.0383300781, 0.0058441162, -0.0010833740, 0.0629882812, -0.1431884766, -0.1456298828, 0.1018066406, 0.2050781250, -0.2395019531, -0.1190185547, -0.1683349609, 0.0415039062, -0.0140304565, -0.0650024414, -0.0548706055, 0.0739746094, 0.1574707031, 0.1770019531, 0.0131149292, -0.0148315430, -0.0286560059, 0.0847167969, -0.0455322266, 0.2426757812, 0.0021514893, -0.2000732422, 0.2045898438, 0.0309448242, 0.0083465576, 0.0972900391, 0.0325622559, 0.1542968750, -0.1470947266, 0.1096191406, 0.1638183594, 0.2169189453, 0.0419006348, -0.1385498047, 0.1029052734, 0.3127441406, 0.0310363770, -0.0576477051, 0.0996093750, -0.1239624023, -0.0001747608, 0.1058959961, 0.2983398438, -0.1450195312, 0.0132598877, -0.0407409668, -0.0647583008, -0.1267089844, -0.0111618042, -0.0214385986, -0.0883789062, 0.0279998779, -0.0814208984, 0.0756835938, -0.1887207031, -0.3151855469, -0.1944580078, 0.1551513672, 0.0855102539, -0.1319580078, -0.0836791992, -0.1804199219, 0.1618652344, -0.1121215820, -0.0374145508, 0.1673583984, -0.1531982422, -0.1242675781, 0.1630859375, -0.1759033203, -0.1500244141, 0.1000366211, -0.0891113281, -0.1131591797, -0.0378723145, -0.1345214844, -0.0629272461, -0.1325683594, 0.0358581543, 0.1118164062, 0.0421752930, -0.1436767578, 0.0634765625, 0.1416015625, 0.0306091309, -0.1386718750, 0.0192260742, -0.0382080078, -0.1856689453, -0.0883789062, -0.1019897461, -0.1351318359, -0.2279052734, -0.1468505859, 0.1376953125, 0.0592956543, 0.0718994141, 0.0413513184, 0.1618652344, -0.0745849609, -0.0749511719, 0.0119552612, 0.0517883301, 0.0128555298, 0.0875244141, 0.1043090820, -0.1936035156, -0.2479248047, 0.1043701172, -0.0477600098, -0.1111450195, -0.0039978027, 0.0140380859, 0.1529541016, -0.1139526367, -0.0792846680, 0.0348815918, -0.2147216797, -0.0367431641, -0.1098632812, 0.2036132812, 0.0236053467, -0.0274505615, 0.1444091797, -0.2491455078, -0.1625976562, -0.1567382812, 0.0359191895, 0.2744140625, -0.3154296875, 0.1379394531, 0.0617065430, -0.1362304688, 0.0467224121, -0.0194396973, 0.0991210938, 0.2015380859, 0.0148544312, 0.0773925781, -0.2583007812, -0.0669555664, 0.1553955078, 0.0218048096, 0.1159667969, 0.0671386719, -0.0021953583, 0.2196044922, -0.1689453125, -0.0262451172, -0.0040435791, -0.0728149414, 0.0639038086, -0.0224456787, -0.0922851562, 0.0644531250, -0.0640258789, 0.0806274414, -0.1523437500, 0.1459960938, 0.1293945312, 0.1728515625, 0.0334167480, 0.0093994141, -0.1457519531, 0.0764770508, -0.0128631592, -0.0819091797, -0.0581359863, -0.0930175781, -0.2248535156, -0.1539306641, -0.0808715820, 0.0308074951, -0.1817626953, 0.0302734375, 0.1105346680, -0.2036132812, 0.2049560547, -0.0600585938, 0.1589355469, -0.1475830078, 0.0979614258, 0.0571899414, 0.2397460938, -0.2136230469, 0.0119018555, 0.0967407227, 0.0380859375, -0.0631103516, -0.2452392578, 0.1755371094, -0.0648803711, 0.1593017578, -0.1516113281, 0.1459960938, -0.1005249023, -0.1712646484, -0.0556640625, 0.0229949951, 0.0747680664, -0.0445861816, -0.2178955078, -0.0592956543, -0.2619628906, 0.0545043945, -0.1663818359, -0.2790527344, 0.1333007812, -0.2580566406, -0.0039787292, -0.0515136719, -0.1962890625, -0.2033691406, -0.2126464844, -0.1229248047, 0.0668334961, -0.0171203613, -0.0118865967, -0.0588073730, -0.0083541870, -0.1977539062, 0.1313476562, 0.0656127930, -0.3046875000, -0.0180358887, 0.1614990234, 0.1545410156, 0.0569458008, 0.0547485352, -0.0312042236, -0.0634765625, 0.1585693359, -0.0283660889, 0.0094528198, 0.0161590576, 0.0379028320, -0.1636962891, -0.2976074219, -0.1300048828, -0.2459716797, -0.0778198242, -0.0227508545, 0.1252441406, -0.1407470703, 0.1793212891, -0.0924682617, -0.0455627441, 0.2005615234, -0.1031494141, -0.1342773438, 0.0955810547, -0.1978759766, -0.1628417969, 0.0735473633, -0.1110839844, -0.0326538086, 0.0342712402, -0.0182800293, 0.1666259766, -0.1083374023, -0.1096191406, -0.0886840820, -0.0571899414, -0.2214355469, -0.1278076172, -0.0539855957, 0.0812377930, -0.2010498047, -0.2457275391, -0.2363281250, 0.0295257568, -0.0362854004, -0.2561035156, -0.2476806641, -0.0829467773, 0.0440368652, -0.1688232422, -0.0299682617, -0.1071777344, -0.1212158203, -0.1563720703, 0.1353759766, -0.0728759766, -0.1078491211, -0.2059326172, -0.0962524414, -0.0454711914, -0.2629394531, -0.1723632812, 0.1291503906, 0.0267181396, -0.0366516113, -0.1000366211, 0.0715942383, -0.0172271729, 0.0908813477, 0.0802001953, -0.1654052734, 0.0592346191, -0.2956542969, 0.0897216797, 0.1743164062, -0.1300048828, 0.0356750488, -0.0268402100, -0.1302490234, -0.1657714844, -0.1805419922, -0.0708007812, 0.0642700195, -0.0932006836, -0.0474548340, -0.1412353516, -0.1866455078, -0.3012695312, 0.0540771484, 0.0867919922, 0.2436523438, -0.0750122070, 0.1204833984, -0.1511230469, -0.2082519531, -0.0637817383, -0.0639648438, -0.0742797852, 0.0477600098, 0.0588073730, -0.3789062500, -0.1133422852, 0.0069618225, -0.1419677734, -0.0081024170, -0.1433105469, -0.0961914062, 0.1226806641, 0.0268554688, 0.0764770508, 0.0459289551, -0.2333984375, 0.1192626953, 0.0063896179, -0.1007080078, -0.2016601562, -0.0482788086, 0.1048583984, -0.0066871643, -0.2442626953, -0.0369873047, -0.0934448242, -0.0496826172, 0.1291503906, -0.0043525696, 0.1772460938, -0.1563720703, 0.0314941406, 0.0977783203, 0.0351867676, 0.1527099609, -0.1478271484, 0.0172271729, 0.0318908691, -0.0295257568, -0.0574340820, 0.1431884766, -0.0072631836, 0.0901489258, -0.1649169922, -0.0944213867, -0.0272064209, -0.0744018555, 0.0084228516, 0.0484924316, -0.1784667969, -0.1695556641, 0.1691894531, -0.1910400391, -0.0544433594, 0.1046142578, -0.1072387695, 0.0005712509, 0.0701904297, -0.0796508789, 0.0789184570, 0.0396423340, -0.2619628906, -0.0880737305, -0.0775146484, 0.0269775391, -0.1636962891, -0.1892089844, 0.1056518555, -0.1129760742, 0.1184692383, 0.1008300781, -0.1719970703, 0.0679321289, -0.0244445801, 0.0761718750, -0.1082763672, -0.1883544922, -0.1822509766, -0.1248168945, 0.0573730469, -0.1876220703, -0.1134643555, 0.0086746216, -0.0917358398, 0.0328979492, 0.1424560547, 0.0823974609, -0.1595458984, 0.1417236328, -0.2521972656, -0.2678222656, 0.1993408203, -0.2020263672, -0.0667114258, -0.0717773438, -0.0257415771, -0.1739501953, -0.0274963379, 0.0766601562, 0.0087509155, -0.1190795898, -0.1693115234, -0.1689453125, -0.2133789062, 0.1835937500, -0.1336669922, -0.1872558594, 0.1243896484, 0.0809936523, -0.1378173828, -0.1839599609, -0.0814819336, 0.0906372070, 0.0846557617, 0.0917968750, -0.1357421875, -0.1754150391, -0.1514892578, -0.0607604980, 0.0985107422, 0.0004138947, -0.0776367188, 0.1591796875, 0.0988159180, 0.0939941406, -0.1463623047, 0.1756591797, -0.0523071289, 0.0359191895, 0.0046844482, -0.1827392578, 0.1093750000, -0.1026000977, 0.1890869141, -0.1189575195, 0.0259857178, 0.0578308105, 0.2208251953, 0.0519104004, -0.0609436035, 0.0811767578, -0.1292724609, 0.1356201172, -0.1483154297, -0.0803833008, -0.0225067139, -0.0395812988, 0.1223144531, -0.0330810547, -0.0294494629, -0.1584472656, 0.0598754883, -0.0095062256, -0.0333862305, -0.3273925781, -0.0296020508, -0.1304931641, 0.1843261719, 0.0421447754, -0.1549072266, 0.0261077881, -0.0208740234, 0.0890502930, -0.0230255127, 0.0635986328, -0.0737304688, 0.0345764160, -0.0268096924, -0.3217773438, -0.0953979492, 0.0455322266, 0.1666259766, 0.1313476562, 0.0981445312, 0.0200805664, 0.1647949219, -0.2834472656, -0.1918945312, -0.0908203125, 0.0753784180, -0.1567382812, -0.1678466797, 0.1197509766, 0.1027832031, -0.1118164062, 0.0651855469, -0.0095901489, -0.0596618652, 0.0596313477, 0.1584472656, -0.1708984375, -0.0364379883, -0.2319335938, 0.3459472656, 0.0736694336, 0.0415649414, -0.0556335449, -0.0736083984, -0.0760498047, -0.2387695312, 0.0505676270, 0.0590209961, -0.0011386871, -0.0127410889, -0.1741943359, 0.1069946289, -0.1036987305, 0.3950195312, 0.0384216309, 0.1116943359, -0.0720214844, -0.2165527344, -0.0850219727, 0.0701293945, 0.0237884521, 0.0570678711, -0.0626220703, -0.0330200195, -0.0163574219, 0.0457153320, 0.1342773438, -0.0744628906, 0.1026611328, 0.4020996094, -0.0564575195, 0.0165252686, -0.0835571289, 0.1968994141, 0.0770874023, -0.0761108398, 0.0775756836, 0.1107177734, 0.2171630859, -0.0947265625, 0.0162353516, -0.0122604370, 0.0003533363, -0.2431640625, -0.1591796875, 0.1582031250, -0.0963745117, -0.1147460938, 0.0901489258, 0.0809326172, -0.0739746094, -0.0242004395, -0.1301269531, -0.1129760742, 0.3129882812, -0.1612548828, -0.1661376953, -0.0560913086, -0.1452636719, -0.1627197266, 0.0433044434, -0.1456298828, -0.0551757812, -0.0688476562, -0.2849121094, -0.2382812500, 0.0391235352, -0.0833129883, 0.1362304688, -0.0551452637, -0.0539855957, -0.0888061523, -0.0974731445, 0.0264892578, -0.0723266602, -0.0444030762, -0.0235595703, -0.1374511719, 0.0109405518, 0.0276336670, -0.1033935547, -0.0461120605, -0.0380859375, -0.2451171875, 0.0127029419, -0.1403808594, -0.0800781250, 0.1180419922, -0.3264160156, 0.1193847656, -0.0377197266, 0.1292724609, -0.1461181641, -0.0363159180, 0.0845947266, 0.0050277710, 0.2153320312, -0.2761230469, -0.1501464844, -0.0101928711, -0.1594238281, -0.1838378906, 0.0046043396, -0.1001586914, -0.2482910156, -0.1397705078, 0.2281494141, -0.1749267578, -0.2919921875, -0.1253662109, 0.0328979492, 0.2788085938, 0.1909179688, 0.1837158203, 0.1225585938, -0.3818359375, -0.1788330078, -0.1080322266, -0.0616149902, 0.0299224854, 0.0499572754, -0.1939697266, 0.0350036621, -0.0793457031, -0.0678710938, -0.0430603027, -0.1011352539, -0.0350036621, 0.1392822266, 0.1257324219, -0.1850585938, 0.0777587891, -0.1713867188, 0.0228271484, -0.0573120117, 0.1390380859, -0.0125274658, 0.2580566406, 0.0861816406, -0.1723632812, -0.2183837891, -0.0332031250, 0.1807861328, 0.0369567871, 0.0566101074, 0.1070556641, 0.0873413086, 0.0182952881, -0.1357421875, -0.0795288086, -0.0950317383, 0.1209106445, -0.0060768127, 0.0369262695, 0.0635986328, 0.0325622559, 0.0273132324, 0.0459899902, -0.0776367188, -0.0451354980, 0.0879516602, -0.1652832031, 0.1524658203, -0.1065673828, -0.1069335938, 0.0387268066, -0.0232238770, 0.0334167480, -0.1105346680, -0.0804443359, 0.0584716797, 0.1372070312, -0.1351318359, -0.0631713867, -0.2224121094, -0.0233764648, 0.0449218750, -0.1619873047, 0.2186279297, -0.2658691406, 0.0777587891, 0.0771484375, 0.0603637695, 0.1035766602, -0.0837402344, -0.1002807617, -0.1789550781, -0.0785522461, -0.1989746094, 0.0074729919, -0.1483154297, -0.0230712891, 0.1162719727, -0.0841674805, 0.0234832764, 0.0411376953, -0.1530761719, -0.1689453125, -0.0785522461, 0.0865478516, -0.0225372314, -0.0496215820, -0.0641479492, 0.1368408203, 0.1274414062, 0.1927490234, -0.2000732422, -0.0198669434, -0.0563354492, -0.1093750000, -0.0761718750, -0.1739501953, 0.1125488281, -0.1911621094, 0.0357971191, -0.3796386719, -0.0062294006, 0.1436767578, -0.0081634521, 0.0986938477, -0.0115280151, -0.0816040039, -0.1829833984, 0.0239562988, 0.0581359863, 0.0904541016, -0.1706542969, -0.0429382324, -0.1104736328, -0.1832275391, -0.0712890625, 0.0588378906, 0.1235961914, -0.0059127808, 0.0265502930, 0.0389404297, -0.0945434570, 0.0139236450, 0.0030403137, -0.1114501953, -0.1687011719, -0.1949462891, -0.1971435547, -0.0234985352, -0.0686035156, -0.0517272949, -0.1501464844, -0.2673339844, 0.0305938721, -0.1132812500, 0.0312042236, 0.1790771484, -0.0170440674, 0.2553710938, -0.1386718750, -0.1026611328, -0.1096801758, -0.0341491699, -0.1083374023, 0.2832031250, -0.0183715820, 0.0432128906, -0.0632934570, 0.1857910156, 0.1409912109, -0.0008111000, 0.0745849609, 0.0365905762, -0.1006469727, -0.1352539062, -0.1107177734, 0.0084533691, 0.0120773315, -0.0971069336, 0.1623535156, 0.2858886719, 0.0969848633, -0.0891723633, 0.0698852539, 0.0782470703, 0.0945434570, 0.2187500000, 0.0759277344, 0.1668701172, 0.0117721558, -0.1741943359, -0.0533752441, -0.1705322266, -0.1813964844, 0.0761108398, -0.0137863159, -0.0185699463, -0.1606445312, 0.0617065430, 0.1440429688, 0.1146850586, 0.0361022949, 0.1367187500, 0.1978759766, -0.1550292969, -0.1105957031, -0.0695190430, 0.0882568359, -0.0889892578, 0.0744628906, -0.0395507812, 0.0991821289, 0.1394042969, -0.1795654297, -0.0049018860, -0.1657714844, 0.0011587143, -0.2104492188, 0.1331787109, -0.1450195312, -0.0221557617, 0.1260986328, -0.1156616211, 0.0758666992, 0.0690917969, -0.0227355957, -0.1660156250, -0.1185913086, 0.0471496582, -0.0718383789, -0.1800537109, -0.1188354492, 0.0731811523, -0.0728149414, -0.1307373047, -0.1684570312, 0.0429992676, 0.2475585938, 0.0230865479, 0.0530395508, -0.0801391602, -0.0187530518, 0.1060791016, -0.0034160614, -0.1423339844, -0.0918579102, 0.1480712891, 0.0362548828, -0.0051956177, 0.1705322266, -0.1968994141, 0.0944213867, 0.0725097656, -0.2883300781, -0.1629638672, -0.1881103516, 0.0213928223, -0.2087402344, -0.0029315948, -0.0695800781, 0.1577148438, 0.0011987686, 0.0631713867, -0.1970214844, 0.0015172958, -0.2205810547, -0.0153045654, -0.1286621094, 0.0910034180, -0.0681762695, 0.0088424683, 0.1579589844, 0.0468750000, 0.0950317383, -0.0406494141, 0.0351562500, -0.0268859863, 0.0989990234, 0.0319824219, 0.0500183105, 0.0976562500, -0.0474548340, -0.0962524414, -0.0725708008, -0.2180175781, 0.0545959473, -0.0461425781, 0.1895751953, 0.1380615234, 0.1223754883, -0.0269775391, 0.0125427246, -0.0694580078, 0.1374511719, -0.0468444824, -0.1954345703, -0.1657714844, -0.1657714844, 0.0438537598, 0.1036987305, -0.0027065277, -0.0993041992, 0.1668701172, -0.1992187500, 0.0949096680, -0.1411132812, -0.0883178711, 0.0314636230, -0.0786743164, 0.0944824219, 0.1468505859, 0.0026168823, -0.0145797729, 0.0298614502, -0.0331420898, 0.0882568359, -0.0715942383, 0.0401611328, -0.2670898438, -0.0125198364, -0.2238769531, -0.0381164551, -0.0300292969, -0.0751342773, 0.1343994141, -0.0675048828, -0.1146240234, -0.0012369156, -0.0302734375, 0.1220703125, 0.2272949219, 0.0832519531, 0.2768554688, 0.2445068359, 0.0010404587, -0.0447998047, -0.0684204102, -0.0508728027, 0.2089843750, -0.1004028320, 0.0645751953, 0.1232910156, -0.1072998047, 0.2951660156, 0.0315551758, -0.1328125000, -0.0257263184, 0.1857910156, -0.1749267578, 0.0712280273, 0.1104125977, 0.0929565430, -0.0474243164, -0.0482788086, 0.1226196289, 0.0328063965, -0.0201568604, 0.0360107422, 0.0614318848, -0.0617675781, -0.0511474609, 0.0653686523, -0.0160980225, -0.1314697266, 0.0377807617, 0.0693359375, 0.0916137695, 0.0166778564, 0.0852661133, 0.1391601562, -0.1971435547, -0.0026168823, 0.1401367188, 0.0992431641, -0.1040649414, -0.2139892578, 0.1632080078, -0.2685546875, -0.1850585938, 0.0753784180, 0.0399475098, -0.0197296143, -0.0250396729, -0.0261230469, -0.1152343750, -0.0948486328, 0.0350646973, 0.1215209961, 0.1135864258, -0.0765991211, 0.0733032227, -0.1348876953, 0.0961303711, 0.0887451172, -0.1285400391, -0.0648803711, 0.2064208984, 0.2178955078, 0.1462402344, -0.1652832031, 0.0608825684, 0.0107803345, -0.2846679688, -0.0433654785, -0.1165771484, 0.2690429688, -0.0402526855, -0.0963134766, -0.1218261719, -0.1751708984, 0.0963745117, 0.1278076172, 0.1435546875, -0.0259246826, 0.1964111328, -0.1297607422, -0.1280517578, 0.3122558594, -0.0808105469, -0.1348876953, -0.0770874023, -0.0219573975, -0.1174926758, -0.0474243164, 0.1649169922, -0.0345458984, -0.2069091797, 0.2022705078, -0.0739746094, -0.1048583984, -0.1014404297, -0.0211791992, -0.1453857422, 0.1781005859, -0.1228637695, 0.0924072266, 0.1069946289, 0.0920410156, -0.0375671387, 0.1016235352, 0.0501403809, 0.1459960938, 0.0919799805, -0.0436401367, -0.0424194336, 0.0496826172, 0.0812988281, -0.0405883789, 0.1414794922, -0.1495361328, -0.0359497070, 0.1379394531, -0.0219726562, 0.1380615234, 0.0119552612, 0.0572814941, 0.1232910156, 0.0270843506, 0.2487792969, -0.0366516113, -0.0645141602, 0.0765380859, -0.1218872070, 0.0544433594, 0.1524658203, 0.1291503906, 0.1127929688, 0.0040550232, 0.0468750000, 0.1069335938, 0.0425109863, 0.2071533203, 0.0589599609, -0.2128906250, -0.0846557617, 0.1630859375, 0.1367187500, -0.0719604492, -0.2736816406, 0.0637207031, -0.0933837891, 0.0941772461, -0.1132202148, -0.3374023438, 0.1690673828, -0.2354736328, -0.1228637695, 0.0143280029, -0.2343750000, -0.1130371094, -0.1535644531, -0.0485229492, -0.1892089844, -0.0229492188, -0.1828613281, 0.1247558594, 0.0571899414, -0.1699218750, 0.0549926758, -0.0834350586, 0.1315917969, -0.0941772461, -0.1353759766, 0.0364074707, 0.1870117188, -0.2200927734, -0.0090179443, 0.0594177246, 0.1049194336, -0.0308380127, -0.1224365234, 0.0662841797, 0.0558166504, -0.0744628906, 0.1531982422, -0.0369262695, 0.1628417969, -0.0377502441, 0.0521545410, -0.1408691406, 0.1040039062, -0.0821533203, -0.0820922852, 0.1342773438, -0.0737915039, -0.1649169922, 0.0270690918, -0.0404357910, -0.0739746094, 0.1422119141, -0.1164550781, 0.1254882812, 0.0087127686, 0.0038032532, 0.0367431641, -0.0267944336, -0.1391601562, 0.1447753906, 0.0661010742, 0.0454101562, 0.0690917969, -0.1315917969, -0.0620117188, -0.0565795898, -0.1352539062, -0.1328125000, -0.0487670898, 0.1887207031, -0.1253662109, -0.0461120605, -0.2066650391, 0.0928344727, -0.0650024414, -0.0541992188, -0.1459960938, 0.0411987305, -0.2646484375, -0.1513671875, -0.0764770508, -0.1096801758, 0.1143798828, -0.2054443359, -0.1193847656, 0.1378173828, -0.0715332031, 0.1005249023, -0.1621093750, 0.1354980469, -0.2023925781, -0.0580139160, -0.1610107422, 0.0264587402, 0.0845947266, -0.2487792969, -0.0853881836, -0.2666015625, -0.1770019531, -0.1133422852, -0.3342285156, 0.1705322266, 0.0657958984, 0.0691528320, 0.1384277344, 0.1304931641, -0.2005615234, -0.1401367188, 0.0243988037, 0.0870361328, 0.0064773560, -0.1285400391, -0.0640258789, -0.1754150391, -0.0819091797, 0.0326538086, 0.1185913086, 0.0550231934, 0.0653686523, -0.0100555420, 0.0241088867, 0.0545349121, 0.1027221680, -0.0454711914, 0.0831298828, -0.0231628418, 0.1990966797, 0.1390380859, 0.1550292969, 0.0515441895, 0.1240234375, 0.0394897461, -0.0803222656, 0.0509948730, -0.0356140137, -0.0060882568, 0.0825195312, -0.0030040741, -0.3305664062, 0.0751953125, -0.2283935547, -0.1479492188, -0.0375671387, 0.0183105469, 0.0173950195, 0.0707397461, -0.0745849609, -0.0058135986, -0.1054687500, 0.2314453125, 0.1370849609, -0.0626831055, 0.3320312500, -0.0585021973, -0.0077095032, -0.0430297852, 0.1188964844, -0.0728149414, 0.0695190430, -0.0298309326, 0.1091918945, -0.0895996094, 0.1001586914, -0.2875976562, 0.1170654297, -0.0672607422, -0.1553955078, 0.0028438568, 0.0710449219, 0.1166381836, 0.1497802734, 0.1276855469, -0.1052856445, -0.0936889648, 0.3876953125, 0.0012569427, 0.0045433044, 0.1083374023, 0.0736694336, 0.0202178955, 0.0748291016, -0.1232299805, -0.0968627930, -0.0477600098, 0.0316772461, 0.1290283203, 0.0043678284, 0.0204162598, 0.1154174805, 0.2526855469, 0.1362304688, -0.1089477539, 0.0225524902, -0.0052642822, 0.0238189697, 0.1829833984, 0.0305175781, -0.0310211182, -0.1582031250, 0.0610961914, 0.0307922363, 0.0245056152, 0.0634765625, -0.0062713623, -0.0989379883, -0.0303192139, -0.0621948242, 0.0354919434, -0.0205688477, -0.0529479980, -0.0032920837, 0.1245117188, 0.0815429688, -0.0841674805, -0.0233764648, 0.0444641113, -0.1656494141, -0.0538635254, -0.1789550781, 0.0530700684, 0.1262207031, -0.0519409180, -0.1155395508, 0.0622558594, -0.0991210938, -0.0808105469, -0.1121215820, 0.1326904297, 0.1717529297, -0.2105712891, 0.1807861328, -0.0461120605, 0.1614990234, 0.1977539062, 0.1091308594, 0.1163330078, -0.0750122070, -0.0622558594, -0.1129760742, -0.0588684082, 0.0800170898, -0.0559387207, 0.2810058594, -0.0098114014, 0.0264434814, -0.2697753906, 0.1702880859, 0.1524658203, -0.0094528198, 0.0850219727, 0.0911254883, 0.1540527344, 0.0678710938, -0.1296386719, -0.0181732178, -0.0774536133, 0.0748901367, -0.1453857422, 0.1728515625, -0.0863647461, 0.1340332031, -0.0617980957, -0.1658935547, 0.1040649414, 0.0820312500, 0.1245727539, -0.0351562500, 0.2348632812, 0.1262207031, -0.0424804688, -0.0628051758, -0.0148468018, -0.0679321289, -0.1030273438, 0.2746582031, -0.0869750977, -0.0184631348, -0.0308837891, 0.1727294922, 0.0723876953, -0.1763916016, 0.0885620117, -0.0366210938, 0.0527343750, -0.1899414062, -0.1105957031, 0.0233612061, 0.1218261719, 0.2624511719, 0.2210693359, -0.0891113281, -0.1436767578, -0.2211914062, -0.0060234070, 0.1450195312, -0.1076660156, -0.0819091797, 0.1612548828, 0.1144409180, 0.0041351318, 0.0888061523, -0.0490722656, -0.1341552734, -0.1179199219, -0.1094360352, -0.0545654297, -0.0848388672, 0.1320800781, 0.2082519531, -0.0764160156, 0.2519531250, 0.1577148438, 0.0720825195, 0.1539306641, -0.1100463867, -0.1252441406, -0.0156860352, -0.1401367188, 0.1624755859, -0.1424560547, -0.1533203125, 0.1329345703, 0.0922241211, -0.0224761963, -0.0623779297, 0.0669555664, -0.0550231934, -0.1419677734, -0.1544189453, 0.3745117188, 0.1782226562, -0.0368957520, -0.1306152344, -0.0664062500, -0.1151123047, 0.1772460938, 0.1326904297, 0.1203002930, 0.0712280273, 0.0552978516, 0.0233459473, 0.1380615234, -0.0933837891, -0.0820312500, 0.0418395996, 0.0396423340, -0.1231079102, -0.1435546875, 0.1034545898, 0.0823974609, 0.0698242188, -0.1530761719, 0.2749023438, -0.2215576172, -0.0432434082, -0.0517272949, 0.1236572266, -0.1173706055, -0.0763549805, -0.2491455078, 0.0523376465, -0.0796508789, -0.1292724609, -0.2387695312, 0.1055297852, -0.1040039062, 0.1278076172, 0.0410766602, 0.0982055664, -0.0475463867, -0.0659179688, 0.0939941406, -0.0756225586, -0.0085983276, 0.0010299683, -0.1983642578, -0.0309906006, -0.0603637695, 0.0006246567, -0.1983642578, -0.0800170898, 0.1011352539, -0.0768432617, 0.0101852417, 0.0262908936, 0.0271148682, -0.3032226562, 0.0446777344, 0.0245056152, -0.1752929688, 0.0221405029, 0.0718994141, -0.0550842285, -0.0948486328, 0.0674438477, 0.0193939209, 0.0209350586, -0.0567626953, -0.0262908936, -0.2668457031, 0.1745605469, 0.0833740234, 0.0961303711, 0.0473327637, -0.3078613281, -0.0017681122, 0.0191345215, -0.1121826172, -0.0359802246, -0.1835937500, 0.0428771973, 0.0553894043, -0.2802734375, 0.0549926758, 0.0695190430, -0.0831298828, 0.0362854004, 0.0641479492, -0.2602539062, -0.0928955078, 0.1095581055, 0.1413574219, 0.0329284668, 0.0947875977, -0.3337402344, -0.1398925781, -0.2666015625, -0.1757812500, 0.0869140625, -0.0352783203, 0.1322021484, -0.0197906494, 0.0131988525, -0.0579223633, -0.0706176758, -0.1981201172, 0.1125488281, -0.0364685059, -0.0534667969, -0.2624511719, 0.1715087891, 0.0782470703, -0.3354492188, -0.2340087891, -0.0572814941, 0.1052856445, 0.0246429443, -0.1909179688, -0.2083740234, -0.1320800781, 0.0756835938, -0.3403320312, -0.2641601562, -0.2006835938, -0.2055664062, -0.2932128906, -0.1011352539, -0.2359619141, -0.0079727173, -0.1013183594, 0.0024700165, -0.1793212891, -0.2011718750, 0.0378417969, -0.2697753906, -0.1445312500, -0.2976074219, -0.1182861328, -0.1243286133, -0.2966308594, 0.1107177734, -0.0133972168, -0.1376953125, 0.0904541016, 0.1848144531, -0.1354980469, -0.2495117188, 0.1307373047, -0.0949096680, -0.0866699219, 0.1221313477, 0.1549072266, -0.1264648438, -0.2766113281, 0.1010742188, 0.1240234375, -0.3447265625, 0.0789184570, 0.0783081055, -0.2622070312, -0.0038948059, -0.1531982422, 0.0073547363, -0.1418457031, -0.1773681641, -0.2829589844, 0.0589294434, 0.1145629883, 0.1993408203, -0.1291503906, -0.2058105469, -0.1071166992, 0.0842285156, -0.3029785156, 0.0792236328, 0.0422058105, 0.0224761963, -0.3251953125, -0.2875976562, 0.1568603516, 0.1160888672, -0.1418457031, 0.1846923828, 0.1353759766, -0.3239746094, -0.0026550293, -0.0621948242, -0.0040969849, 0.0429077148, -0.1061401367, 0.1486816406, 0.0195770264, -0.0895996094, -0.0681152344, 0.0791625977, -0.0453491211, 0.0505065918, -0.2770996094, -0.0957031250, 0.1915283203, -0.1037597656, -0.1624755859, -0.2770996094, 0.1206054688, 0.0391235352, -0.2431640625, -0.2192382812, -0.2479248047, 0.0820312500, -0.0824584961, -0.2836914062, 0.0964355469, 0.1755371094, -0.0542602539, -0.1359863281, -0.1134033203, -0.0840454102, -0.2104492188, 0.0662231445, 0.1265869141, 0.0532836914, -0.1259765625, -0.2127685547, -0.1017456055, -0.2159423828, -0.0394287109, -0.0338134766, -0.1104125977, 0.0635986328, -0.1728515625, -0.1539306641, -0.2142333984, 0.0307006836, -0.2529296875, 0.1459960938, -0.2104492188, 0.1262207031, -0.2158203125, -0.0365905762, -0.0419311523, -0.2407226562, -0.0138015747, 0.1345214844, -0.0742187500, 0.0498657227, 0.1680908203, -0.2313232422, -0.1884765625, 0.0161437988, -0.2055664062, -0.2712402344, -0.0605468750, -0.1282958984, -0.0897827148, -0.1578369141, -0.0919799805, 0.0236206055, 0.1285400391, -0.1475830078, -0.0671997070, -0.1866455078, -0.2022705078, 0.0441589355, 0.1129760742, 0.0631713867, 0.0393066406, -0.3361816406, -0.0304412842, 0.0321350098, -0.1031494141, -0.1898193359, 0.0397338867, -0.1787109375, 0.0667114258, 0.0290222168, -0.0401916504, -0.1634521484, 0.0118255615, -0.1420898438, -0.1738281250, 0.1768798828, -0.2187500000, 0.0288238525, 0.0906982422, -0.0979614258, -0.1263427734, -0.1132812500, 0.0466308594, -0.1340332031, -0.1128540039, 0.1203002930, -0.3078613281, -0.1695556641, 0.0403137207, 0.0227050781, 0.0676269531, 0.1222534180, -0.3593750000, -0.2215576172, -0.0448608398, -0.0241241455, -0.3745117188, 0.1281738281, 0.0509643555, -0.0644531250, -0.0864868164, -0.2927246094, 0.1806640625, 0.1093750000, 0.0606689453, 0.2995605469, -0.0143814087, 0.0021896362, 0.0964965820, -0.2543945312, 0.1385498047, -0.1571044922, 0.1165771484, -0.0348205566, 0.1392822266, 0.0175476074, 0.0513610840, -0.0193481445, -0.3107910156, 0.0607299805, -0.1682128906, -0.0390319824, -0.1926269531, 0.1573486328, -0.0390319824, -0.0943603516, -0.1511230469, -0.2135009766, -0.0329284668, 0.0244750977, 0.0580444336, -0.0586853027, -0.1445312500, 0.0449523926, 0.1970214844, 0.1463623047, -0.2104492188, -0.0324096680, 0.1584472656, 0.0422668457, -0.1412353516, 0.1184692383, 0.1398925781, -0.0988769531, -0.1500244141, -0.0036983490, 0.1127929688, -0.0341796875, 0.0122909546, 0.0885620117, -0.1977539062, 0.1867675781, 0.2257080078, 0.0989990234, -0.1140747070, 0.0045852661, 0.1805419922, 0.0723876953, -0.2335205078, -0.2073974609, -0.1588134766, 0.0340576172, -0.0311889648, -0.0803222656, -0.0842285156, -0.0561523438, -0.0507202148, 0.1337890625, -0.0803833008, -0.0820312500, -0.0217437744, 0.1666259766, -0.1273193359, 0.1235961914, -0.0125427246, -0.2200927734, 0.2446289062, 0.0343627930, -0.1809082031, 0.0830688477, -0.1138916016, -0.1978759766, 0.0026607513, 0.1484375000, -0.1915283203, -0.4516601562, 0.2170410156, -0.1171264648, 0.1571044922, -0.1269531250, -0.0871582031, 0.1148071289, -0.0528564453, -0.1529541016, 0.0379333496, -0.0903320312, 0.1416015625, 0.0495300293, -0.1416015625, 0.1069946289, -0.0361633301, 0.0034713745, -0.0479431152, -0.0305023193, -0.0793457031, 0.0364379883, -0.0760498047, 0.1210327148, 0.0515441895, 0.0294952393, 0.0958251953, 0.0801391602, -0.1186523438, -0.0395507812, 0.0445861816, 0.0249023438, 0.1846923828, 0.0642700195, 0.0367736816, 0.1665039062, -0.1372070312, 0.0202484131, -0.1386718750, -0.0682373047, 0.0030479431, -0.1843261719, -0.1386718750, -0.3417968750, 0.1120605469, 0.0431518555, 0.1065063477, 0.2398681641, 0.0347900391, -0.0794067383, 0.1705322266, -0.1145629883, 0.0843505859, 0.0314331055, 0.1345214844, 0.0447082520, -0.0626831055, 0.2032470703, -0.0574951172, -0.1507568359, -0.0293273926, 0.0246582031, 0.1292724609, 0.1114501953, -0.1506347656, 0.0977172852, -0.0182495117, -0.0517578125, -0.0015964508, 0.1318359375, 0.3122558594, 0.2729492188, -0.2266845703, 0.1146850586, -0.2108154297, -0.2299804688, 0.0542907715, -0.0661010742, 0.0036334991, 0.0642089844, 0.1131591797, -0.0441894531, -0.0165252686, -0.0470275879, 0.1586914062, 0.0481567383, 0.1759033203, 0.1401367188, -0.0496826172, 0.0087356567, 0.1936035156, 0.0045433044, 0.2624511719, -0.2236328125, -0.1000976562, -0.0787963867, -0.2104492188, -0.0461425781, 0.0272979736, -0.0270385742, 0.1314697266, -0.1104736328, -0.1205444336, -0.1269531250, 0.0587463379, 0.0459289551, -0.1105346680, -0.1264648438, 0.1472167969, 0.0498352051, 0.0484008789, -0.0966186523, -0.0725708008, -0.2727050781, -0.0920410156, 0.1556396484, -0.0109176636, 0.1547851562, -0.0545043945, -0.0483703613, -0.0208282471, -0.1203002930, -0.0381774902, -0.1016845703, -0.0498046875, 0.0115890503, -0.2453613281, 0.0532531738, 0.0457763672, 0.0424804688, 0.0820312500, -0.0766601562, 0.1553955078, -0.1496582031, -0.2210693359, -0.0498657227, 0.0306549072, 0.0657958984, 0.0322570801, -0.2242431641, 0.0857543945, -0.0402832031, 0.0423889160, 0.0329895020, -0.1756591797, 0.0377197266, 0.0732421875, -0.0461120605, 0.0520629883, 0.0906372070, 0.1000976562, -0.0295715332, -0.0476684570, 0.0115051270, 0.0060920715, -0.1345214844, 0.0213470459, 0.2524414062, -0.1534423828, -0.1031494141, 0.0069313049, 0.0915527344, -0.0617065430, 0.1414794922, -0.1665039062, -0.0207366943, -0.1384277344, 0.0654907227, 0.1035766602, 0.1998291016, -0.0765991211, 0.0478820801, -0.1552734375, 0.0113983154, -0.0870361328, -0.2812500000, -0.0471496582, 0.0698242188, -0.2958984375, 0.0027446747, -0.0355834961, -0.0458679199, 0.0071449280, -0.3986816406, -0.1287841797, -0.1677246094, -0.1069335938, 0.0422973633, -0.3088378906, -0.0069885254, 0.1354980469, -0.3156738281, 0.1181030273, 0.0835571289, 0.1577148438, -0.3034667969, 0.1502685547, 0.1140747070, -0.2565917969, -0.0946655273, -0.1423339844, 0.1550292969, 0.1479492188, 0.1745605469, -0.0200805664, -0.1198120117, 0.0875854492, -0.2495117188, -0.2156982422, 0.0409240723, -0.3476562500, -0.0767822266, -0.0185394287, 0.0583190918, 0.0055503845, -0.2668457031, -0.2174072266, -0.0029544830, -0.2871093750, -0.2082519531, -0.2180175781, 0.0819091797, -0.2412109375, -0.1945800781, 0.0607299805, 0.1200561523, 0.0472106934, -0.0573730469, 0.0515747070, 0.1430664062, -0.0885620117, -0.1502685547, -0.0855712891, -0.2264404297, -0.1156005859, 0.1156616211, 0.0573425293, -0.3623046875, -0.2590332031, 0.2043457031, 0.0056114197, -0.1773681641, -0.0988159180, -0.2150878906, -0.1145019531, 0.1042480469, -0.2049560547, 0.0646972656, -0.1738281250, 0.1024169922, -0.0407714844, -0.0955200195, -0.2707519531, -0.2165527344, -0.2106933594, 0.0334472656, -0.2619628906, -0.1063232422, -0.2379150391, -0.0554504395, -0.2609863281, 0.0977172852, -0.1193847656, -0.1893310547, 0.1673583984, 0.0411682129, -0.1857910156, 0.0751953125, -0.1149291992, -0.2066650391, -0.2561035156, -0.2800292969, -0.1428222656, -0.2912597656, -0.0955810547, -0.1052856445, -0.0179443359, -0.0435791016, -0.3278808594, -0.1206054688, -0.1022949219, 0.0971069336, 0.0021572113, 0.1278076172, -0.1270751953, 0.1384277344, -0.0084533691, 0.0723876953, -0.1037597656, -0.2675781250, -0.2290039062, -0.2956542969, -0.0639038086, -0.2812500000, 0.0052070618, -0.0651855469, -0.1884765625, -0.2117919922, 0.0968017578, 0.0122146606, -0.0529785156, 0.0416870117, -0.2315673828, -0.2421875000, -0.1640625000, -0.1099243164, -0.2161865234, 0.0763549805, -0.1663818359, 0.1990966797, -0.0501403809, -0.2326660156, 0.1204223633, 0.0022296906, -0.2031250000, -0.2181396484, -0.2248535156, -0.1979980469, 0.0483398438, -0.0960693359, -0.1861572266, 0.1860351562, 0.1179809570, -0.0000398755, 0.0326843262, 0.0805664062, -0.1056518555, -0.1864013672, 0.1079711914, 0.0021972656, 0.0850830078, 0.0531921387, 0.0988159180, 0.2468261719, 0.0713500977, -0.2058105469, -0.3388671875, -0.1077270508, -0.0667114258, 0.0618591309, -0.1110839844, 0.0038795471, -0.0067558289, 0.0213317871, 0.1055297852, -0.1461181641, -0.1270751953, -0.0509033203, -0.1865234375, 0.0143661499, -0.2514648438, 0.0650634766, -0.0816040039, -0.0303802490, 0.0506286621, -0.1862792969, 0.0184020996, 0.0640869141, 0.1936035156, 0.0952148438, 0.1524658203, -0.2624511719, -0.3479003906, -0.1992187500, 0.0331726074, -0.3483886719, -0.2768554688, 0.1353759766, 0.1291503906, 0.0025615692, 0.1011352539, -0.2583007812, 0.0018167496, 0.1926269531, 0.1192626953, 0.0719604492, 0.1560058594, 0.1311035156, 0.0228271484, -0.2912597656, -0.1220092773, -0.0271453857, -0.2434082031, 0.1000366211, 0.0448913574, -0.0791625977, 0.0094604492, 0.1005859375, -0.1213378906, -0.0083465576, 0.1479492188, 0.0981445312, -0.0549011230, -0.1929931641, -0.2534179688, 0.0102005005, -0.3142089844, 0.1614990234, -0.2705078125, -0.1118774414, -0.2526855469, -0.2512207031, -0.0927734375, -0.1545410156, -0.0356750488, 0.0736694336, 0.0581359863, 0.0197296143, -0.1818847656, -0.1083984375, -0.0460205078, 0.0061454773, -0.2739257812, 0.0987548828, 0.0118026733, 0.0758666992, -0.0202941895, -0.2348632812, -0.0209960938, -0.1527099609, -0.1569824219, 0.0167999268, -0.0140457153, 0.0586242676, -0.1435546875, -0.0854492188, 0.1569824219, -0.3186035156, 0.0930786133, 0.1265869141, -0.1600341797, -0.0195922852, 0.1622314453, 0.1168212891, 0.0856323242, -0.2734375000, -0.1575927734, -0.2253417969, 0.0441589355, 0.0606079102, -0.1495361328, -0.0167388916, 0.0902709961, 0.1560058594, -0.1289062500, -0.1746826172, -0.0819702148, 0.0397338867, -0.2108154297, 0.1314697266, -0.1370849609, -0.0050621033, 0.1326904297, -0.2078857422, 0.0186157227, 0.0166015625, -0.3278808594, 0.0598144531, -0.1019897461, -0.2922363281, -0.0306243896, -0.2181396484, 0.0791015625, 0.0180511475, 0.0764160156, 0.1490478516, -0.2404785156, 0.0676879883, -0.2133789062, -0.0109863281, -0.1069946289, -0.1119995117, -0.1429443359, 0.0529479980, -0.1942138672, -0.1434326172, -0.0656127930, -0.1365966797, -0.0124435425, 0.0643310547, -0.1872558594, -0.0032062531, 0.0023727417, -0.1726074219, -0.1488037109, 0.2351074219, -0.2907714844, 0.0914916992, -0.3657226562, -0.1636962891, 0.0236816406, -0.1177978516, -0.2707519531, 0.0214843750, -0.0529785156, 0.0072250366, 0.0508117676, -0.2587890625, -0.3066406250, 0.1997070312, -0.2067871094, -0.2504882812, 0.1131591797, -0.2612304688, -0.1330566406, -0.0978393555, -0.1199951172, -0.1030273438, 0.2053222656, -0.0961303711, -0.1312255859, -0.1854248047, -0.2128906250, 0.0745849609, 0.1827392578, -0.2132568359, -0.0615539551, -0.1315917969, -0.2521972656, -0.0827026367, -0.1253662109, -0.1981201172, -0.0513000488, 0.1173095703, 0.0111236572, -0.1788330078, 0.0034122467, 0.0060768127, -0.2973632812, 0.0147628784, -0.2646484375, -0.1618652344, -0.1981201172, 0.0924682617, 0.0529174805, 0.1049194336, -0.1361083984, -0.0989379883, -0.0288391113, -0.0013322830, 0.1990966797, 0.0284881592, -0.2827148438, -0.2342529297, -0.1102294922, 0.0676269531, 0.0489196777, 0.0861206055, -0.1395263672, -0.0971679688, 0.0824584961, 0.0309753418, -0.2880859375, -0.0663452148, -0.1798095703, -0.2573242188, -0.0761108398, -0.2376708984, -0.0053176880, 0.2258300781, -0.1934814453, -0.1123657227, -0.0929565430, -0.0952148438, 0.0350646973, 0.1435546875, -0.0826416016, -0.1638183594, -0.0437316895, 0.0262603760, -0.1104125977, 0.0781250000, 0.0062904358, -0.0516357422, -0.0789184570, -0.0366821289, -0.0673828125, -0.1274414062, 0.0097961426, -0.2580566406, -0.1285400391, 0.0563964844, -0.2082519531, -0.0307159424, -0.0177307129, 0.1251220703, 0.1392822266, 0.2932128906, 0.2435302734, 0.1470947266, 0.1269531250, -0.0074691772, -0.0416870117, -0.2878417969, 0.0462951660, 0.2347412109, -0.0919189453, -0.0747680664, -0.0853881836, -0.1778564453, 0.1640625000, -0.0675048828, 0.0595092773, -0.0895385742, 0.2353515625, 0.0902099609, 0.1023559570, 0.0945434570, -0.1906738281, -0.2126464844, 0.2941894531, -0.1254882812, -0.0095138550, 0.0674438477, 0.0878906250, 0.0997314453, -0.2305908203, 0.0699462891, -0.0824584961, -0.1298828125, 0.1179809570, -0.0302734375, 0.0827026367, 0.0051040649, 0.1185913086, -0.0715942383, 0.1960449219, 0.0306091309, -0.0878906250, 0.0091018677, -0.0108261108, 0.0240631104, 0.1695556641, 0.0405578613, 0.0223236084, 0.1369628906, -0.0335693359, -0.1375732422, 0.1074218750, -0.0676879883, 0.0119247437, 0.2010498047, -0.0079116821, -0.0472717285, -0.0881958008, 0.2443847656, -0.0348510742, 0.0830688477, 0.0376892090, -0.1221313477, 0.1870117188, -0.0457458496, 0.0135879517, -0.0193328857, -0.0497131348, -0.0242309570, -0.0572204590, -0.1164550781, 0.1518554688, -0.1063232422, -0.0798339844, 0.0356750488, -0.0124588013, 0.0056838989, -0.1123657227, 0.1252441406, 0.0938720703, -0.0324707031, 0.1000976562, -0.2546386719, -0.0109100342, 0.1778564453, 0.1331787109, -0.0656738281, -0.1293945312, -0.1205444336, 0.1483154297, -0.0085220337, 0.0386657715, 0.2069091797, 0.0905151367, -0.0974121094, -0.2271728516, -0.1783447266, -0.0351257324, -0.0312805176, 0.1699218750, -0.0591430664, -0.1475830078, 0.1577148438, -0.0902099609, -0.2597656250, -0.1483154297, -0.1763916016, -0.0416259766, -0.1726074219, -0.1040039062, 0.0581665039, 0.1092529297, -0.1557617188, 0.0146179199, 0.0305328369, -0.1772460938, 0.0753173828, -0.2366943359, -0.1187744141, -0.0544128418, 0.1290283203, -0.1632080078, 0.0084304810, 0.1612548828, -0.0797119141, 0.0871582031, 0.0044364929, -0.0764770508, 0.0611267090, 0.0379943848, 0.0770263672, 0.0274353027, -0.0452575684, -0.0751342773, -0.2401123047, -0.1518554688, -0.2043457031, -0.0005893707, -0.2141113281, -0.0224151611, -0.0842285156, -0.1405029297, 0.0155181885, -0.0669555664, -0.0201416016, 0.0272674561, 0.0601806641, -0.0357666016, -0.0805664062, -0.0867309570, -0.0465393066, 0.0524291992, -0.0671386719, -0.1496582031, 0.0611877441, 0.0861816406, -0.2143554688, -0.0678100586, -0.1208496094, 0.1016845703, -0.1378173828, -0.0737915039, -0.1594238281, -0.0612487793, -0.0562438965, -0.0694580078, -0.0063667297, -0.0887451172, -0.1721191406, 0.1027832031, -0.0301361084, 0.1122436523, -0.1610107422, 0.0354614258, -0.0690917969, -0.1365966797, 0.1242065430, -0.1334228516, -0.1328125000, -0.1851806641, 0.0087203979, 0.1397705078, -0.0531311035, -0.1678466797, -0.1325683594, -0.0709838867, 0.1593017578, -0.1225585938, -0.3479003906, -0.1195068359, -0.1544189453, 0.0827026367, -0.2019042969, -0.2565917969, -0.0392456055, 0.1356201172, 0.0714111328, -0.0841064453, -0.0939331055, -0.0347900391, 0.0508728027, 0.1992187500, -0.2324218750, 0.0819091797, 0.0165405273, -0.0361938477, -0.1890869141, 0.0083770752, 0.0028285980, -0.1829833984, -0.0051040649, 0.0321350098, 0.1228027344, 0.2020263672, 0.0475769043, 0.0285034180, 0.0008568764, 0.0999145508, 0.0306243896, 0.1172485352, 0.1307373047, 0.0016679764, 0.1997070312, -0.1586914062, 0.0945434570, -0.1249389648, 0.0555419922, -0.0258789062, -0.2739257812, -0.0042266846, -0.2900390625, -0.0697631836, -0.0693359375, -0.0534667969, -0.2663574219, 0.1534423828, -0.1771240234, -0.0469665527, -0.1982421875, 0.2304687500, 0.1181030273, -0.0557861328, 0.2719726562, -0.1481933594, 0.0230560303, -0.0751953125, -0.0424499512, -0.0161743164, -0.0350646973, -0.1789550781, -0.1986083984, 0.0041236877, 0.0429382324, 0.0620422363, -0.0536193848, 0.0137176514, -0.3310546875, -0.0372314453, 0.0383605957, 0.2252197266, 0.0582275391, -0.0845336914, -0.0491638184, -0.0448608398, -0.1625976562, -0.0310516357, -0.0545654297, -0.0375976562, -0.2098388672, -0.4211425781, -0.2309570312, -0.1063842773, -0.0713500977, 0.0987548828, -0.1572265625, -0.1663818359, -0.0391235352, -0.0578613281, -0.2215576172, -0.1411132812, 0.0870361328, 0.0069885254, 0.2585449219, 0.1235351562, -0.0982055664, 0.0401916504, 0.2678222656, -0.0759277344, 0.0552978516, -0.1767578125, -0.0117492676, 0.0874633789, 0.1171875000, -0.0576782227, -0.0186462402, 0.1119995117, 0.1341552734, 0.0742797852, 0.1267089844, -0.1606445312, -0.1296386719, -0.2130126953, -0.1917724609, 0.2690429688, -0.1203002930, 0.1254882812, 0.0162048340, -0.1047363281, 0.0083084106, 0.0120162964, -0.0847778320, 0.0021057129, -0.1979980469, -0.1594238281, 0.0888671875, -0.0885009766, -0.0059890747, 0.2631835938, -0.0863647461, 0.2607421875, -0.0448303223, 0.0408935547, 0.0048027039, -0.0562744141, 0.0133819580, -0.1211547852, 0.2180175781, -0.0842895508, 0.1110839844, -0.1459960938, -0.1246948242, -0.1260986328, 0.0925903320, -0.1501464844, 0.0676269531, -0.1712646484, 0.1529541016, -0.1713867188, -0.0648193359, 0.1184082031, -0.0599670410, 0.0389404297, -0.1704101562, -0.0286865234, 0.0565795898, -0.1999511719, -0.0753173828, -0.1582031250, -0.1923828125, 0.1304931641, -0.1889648438, -0.2390136719, -0.0032119751, -0.1263427734, -0.0307464600, -0.1383056641, -0.0404663086, -0.1394042969, -0.1961669922, -0.0225830078, -0.0317077637, 0.0107040405, -0.0027389526, 0.0633544922, -0.2143554688, 0.0938720703, -0.0162048340, -0.0325317383, 0.0363769531, -0.0505676270, 0.0643310547, 0.1839599609, 0.0541992188, 0.1187133789, -0.0808715820, -0.2395019531, -0.0563964844, 0.1211547852, -0.0324707031, 0.0600585938, 0.0778808594, 0.0388183594, 0.1222534180, 0.1039428711, -0.0011730194, -0.0760498047, 0.2226562500, 0.0758666992, -0.1313476562, 0.0181579590, -0.0812988281, 0.1122436523, 0.1671142578, -0.1010131836, -0.0720825195, 0.0723266602, 0.1829833984, 0.0840454102, -0.0914306641, -0.0744018555, 0.0250854492, -0.1872558594, -0.2159423828, 0.0759277344, 0.0023326874, -0.0079421997, -0.0240325928, 0.2539062500, 0.1765136719, -0.2291259766, 0.0949707031, -0.1754150391, 0.0713500977, 0.0235137939, 0.0466918945, -0.1362304688, 0.0561523438, 0.0584716797, 0.0708618164, -0.2017822266, -0.0411682129, 0.0277099609, 0.0390319824, -0.0795898438, -0.0080261230, -0.1132812500, 0.0267944336, 0.0712280273, -0.1944580078, 0.1520996094, -0.1049804688, 0.1339111328, -0.0804443359, -0.1128540039, 0.2010498047, 0.0947875977, -0.0894775391, 0.1423339844, 0.1752929688, -0.0711669922, -0.1929931641, 0.0485229492, -0.0942382812, -0.0913085938, 0.0202789307, 0.0648803711, -0.0414733887, 0.0552368164, -0.0726318359, -0.0616455078, 0.0531005859, -0.2888183594, -0.0691528320, -0.0252227783, 0.1519775391, -0.0629272461, -0.0038223267, 0.1163330078, -0.0246429443, -0.2392578125, -0.0807495117, 0.0027008057, 0.2299804688, 0.0444030762, 0.0750122070, 0.0004642010, -0.0863037109, 0.1368408203, 0.2729492188, 0.0363769531, -0.2235107422, -0.0146713257, -0.1290283203, -0.2229003906, -0.1597900391, 0.0221557617, 0.2481689453, -0.1418457031, -0.2927246094, -0.1520996094, -0.1527099609, -0.1483154297, -0.0229492188, 0.0840454102, -0.0842285156, -0.0298919678, 0.0869750977, -0.0062332153, -0.1187744141, 0.1329345703, -0.0084991455, -0.1437988281, -0.0875854492, -0.1181030273, 0.0289154053, -0.1015014648, 0.0792236328, -0.1074829102, -0.1945800781, -0.1284179688, -0.0384826660, -0.3015136719, -0.0352783203, 0.2102050781, 0.1383056641, -0.0067253113, 0.1612548828, 0.0532531738, 0.0448608398, 0.2368164062, 0.0401916504, 0.2385253906, 0.0675659180, -0.0542907715, -0.0514526367, -0.1679687500, 0.0152359009, -0.1103515625, -0.1223144531, 0.0371398926, 0.3034667969, -0.0771484375, 0.0550537109, -0.0991821289, 0.0350341797, -0.0061912537, -0.0148925781, 0.0891113281, 0.0187225342, -0.0017871857, 0.1185913086, 0.0708007812, -0.0434265137, -0.1159667969, -0.0014858246, 0.1851806641, -0.2341308594, 0.1649169922, 0.2011718750, 0.1280517578, -0.1828613281, -0.1424560547, 0.1032714844, -0.1073608398, 0.1017456055, -0.1835937500, 0.1685791016, -0.0070190430, -0.1247558594, 0.4262695312, 0.0668334961, -0.1616210938, 0.1313476562, 0.0722656250, 0.0208129883, -0.0610046387, 0.1397705078, 0.0822143555, 0.2707519531, -0.0608520508, 0.0693359375, -0.1417236328, 0.0029125214, -0.0692138672, -0.0644531250, -0.1291503906, -0.2482910156, -0.1365966797, 0.0875854492, -0.0186309814, -0.0480651855, 0.0928955078, -0.0332031250, 0.0509948730, -0.1230468750, 0.0229644775, 0.0194549561, 0.0080871582, -0.1297607422, -0.0292205811, 0.2259521484, -0.1499023438, -0.0619506836, -0.1813964844, -0.1380615234, 0.0150604248, -0.1117553711, 0.1137695312, -0.0243072510, 0.0237579346, 0.0996704102, -0.0244903564, -0.1981201172, 0.2033691406, 0.1156616211, -0.0136871338, 0.1187133789, -0.2203369141, -0.1162719727, -0.0579528809, -0.2163085938, -0.1968994141, 0.0023746490, 0.0069923401, -0.1309814453, 0.0991821289, -0.0723266602, -0.1499023438, 0.2308349609, 0.0910644531, -0.1856689453, -0.1148681641, -0.1225585938, 0.0441284180, 0.0383911133, -0.2502441406, 0.1503906250, -0.1472167969, -0.0512695312, 0.1235961914, -0.0464172363, 0.0371093750, -0.2905273438, -0.1904296875, 0.1361083984, 0.0835571289, 0.0198974609, -0.2156982422, 0.0551452637, 0.0418090820, 0.1947021484, -0.2011718750, -0.0944213867, -0.0389709473, -0.0290222168, 0.0736694336, 0.0551452637, 0.0815429688, 0.0272064209, -0.0147094727, -0.1512451172, -0.2980957031, -0.0508117676, 0.0066871643, -0.2763671875, -0.3144531250, -0.2022705078, -0.0064659119, -0.2114257812, 0.1832275391, 0.0603637695, -0.1837158203, 0.0071067810, 0.2644042969, -0.0110931396, -0.1605224609, -0.2370605469, -0.0919799805, 0.1374511719, 0.0869750977, 0.0401611328, 0.0309448242, -0.2084960938, -0.1149902344, -0.1311035156, -0.1927490234, 0.1697998047, -0.2244873047, -0.1273193359, -0.0665893555, -0.0666503906, 0.0839233398, 0.1571044922, -0.2937011719, 0.0439147949, -0.0600891113, -0.0899658203, 0.0041656494, 0.2724609375, -0.1256103516, -0.0496826172, 0.1890869141, -0.0911865234, -0.0362854004, 0.1986083984, 0.0974121094, -0.0455322266, -0.1540527344, 0.1102905273, -0.1782226562, -0.2590332031, 0.2763671875, 0.0569458008, -0.3833007812, -0.0925903320, -0.1610107422, 0.1954345703, -0.1242065430, -0.0669555664, 0.0286712646, 0.0144195557, 0.0548400879, 0.2707519531, -0.0573730469, -0.0740966797, -0.2338867188, -0.1012573242, 0.2695312500, 0.0397338867, 0.2492675781, -0.1323242188, 0.3139648438, -0.1485595703, -0.1706542969, -0.0877685547, -0.1406250000, 0.0614013672, 0.0702514648, 0.0666503906, -0.0925292969, 0.2341308594, 0.0694580078, -0.0972290039, -0.0255279541, 0.0725708008, -0.0535583496, -0.1689453125, 0.0451660156, 0.1602783203, 0.0947265625, 0.2368164062, 0.1097412109, 0.0185852051, -0.0288848877, 0.0151214600, 0.0532836914, -0.1590576172, -0.1854248047, 0.0990600586, -0.0582580566, 0.1555175781, -0.0800781250, 0.0700073242, -0.1929931641, -0.2106933594, -0.1655273438, 0.2008056641, 0.2675781250, -0.0570068359, 0.2485351562, -0.0170440674, -0.0678710938, -0.1668701172, -0.0854492188, 0.1383056641, 0.0425415039, -0.0568847656, -0.0772705078, 0.1733398438, 0.0617065430, 0.0936889648, -0.0452270508, -0.1926269531, -0.0261230469, -0.0429992676, 0.0116271973, -0.0518188477, -0.1058349609, -0.3183593750, -0.0081405640, 0.1003417969, 0.0189819336, -0.0486755371, -0.0168914795, -0.0330505371, 0.1496582031, -0.0878295898, 0.1757812500, 0.0101470947, 0.0429077148, 0.1555175781, 0.0599975586, -0.1131591797, -0.0961914062, 0.2309570312, -0.2021484375, -0.0104064941, -0.1030273438, -0.0280914307, 0.1489257812, -0.1292724609, 0.0436706543, 0.0642089844, -0.1644287109, 0.1861572266, -0.1340332031, -0.0163421631, -0.1990966797, -0.1867675781, 0.0006413460, -0.0064926147, -0.1417236328, -0.1102905273, 0.1318359375, -0.1162719727, -0.1348876953, 0.0014648438, -0.1397705078, -0.1741943359, 0.1080932617, 