//Numpy array shape [3, 3, 4, 8]
//Min -1.182617187500
//Max 1.266601562500
//Number of zeros 0

#ifndef W5_H_
#define W5_H_

#ifndef __SYNTHESIS__
model_default_t w5[288];
#else
model_default_t w5[288] = {-0.0468750000, -0.1031494141, -0.0122604370, -0.5244140625, 0.1633300781, 0.6035156250, -0.1496582031, 0.1058349609, 0.0773315430, -0.2670898438, -0.4226074219, -0.6875000000, 0.0111389160, -0.0190582275, 0.1594238281, 0.4260253906, -0.1124877930, -0.1352539062, -0.0021209717, 0.2795410156, -0.5458984375, 0.0040855408, -0.1029052734, -0.4880371094, -0.0276031494, -0.0436706543, 0.1934814453, -0.6767578125, 0.2958984375, 0.5932617188, -0.0422058105, 0.3376464844, -0.4169921875, -0.3493652344, -0.3654785156, -0.0597229004, 0.1298828125, -0.0878906250, -0.2255859375, 0.3298339844, 0.2142333984, 0.8002929688, -0.8549804688, 0.0034332275, -0.0270385742, 0.3686523438, 0.0596923828, 0.0577697754, 0.0205535889, -0.1879882812, 0.1008300781, 0.8046875000, -0.1441650391, -0.4719238281, -0.6704101562, 0.1870117188, -0.1260986328, -0.0418395996, -0.0857543945, -0.4238281250, 0.1809082031, 0.1334228516, 0.2106933594, 0.2261962891, -0.3178710938, -0.0008087158, -0.2215576172, 0.0258636475, 0.4133300781, -0.2907714844, 0.0733642578, 0.4130859375, 0.5737304688, -0.1352539062, -0.1569824219, 0.7246093750, -0.0489501953, 0.8603515625, 0.4099121094, -0.6103515625, -0.1238403320, 0.0017910004, -0.1840820312, 0.1633300781, 0.0408020020, -0.7036132812, -0.5869140625, 0.0028820038, 0.0169525146, 0.0318908691, -0.3010253906, -0.4958496094, 0.2954101562, -0.0287628174, 0.0232238770, 0.4272460938, 0.5766601562, 0.1719970703, 0.2338867188, 0.0806884766, -0.0963745117, -0.0787353516, -0.1187133789, -0.2924804688, 0.6918945312, -0.3305664062, -0.5253906250, -0.5625000000, -0.5205078125, 0.2404785156, 0.3149414062, 0.2358398438, -0.0366210938, 0.2846679688, 0.5527343750, -0.0595092773, -0.2072753906, -0.0499267578, 0.3630371094, 0.2319335938, 0.1051025391, -0.0491638184, 0.0062637329, -0.0897827148, -0.0892944336, 0.3090820312, -0.2636718750, -0.5639648438, 0.1361083984, 0.3679199219, 0.2103271484, -0.2435302734, -0.0404663086, -0.5507812500, 0.2495117188, -0.3286132812, -0.0490722656, -0.3398437500, -0.2423095703, -1.0605468750, -0.7348632812, 0.2489013672, 0.3557128906, -0.0948486328, -0.2829589844, 1.2441406250, 0.3864746094, 0.1505126953, 0.1938476562, -0.4396972656, -0.8515625000, 0.6210937500, 0.3225097656, -0.2017822266, 0.3918457031, -0.1480712891, -0.3842773438, -0.2020263672, 0.5332031250, -0.5566406250, -0.2102050781, 0.3979492188, -0.4116210938, -0.0365905762, -0.1856689453, -0.2924804688, 0.2636718750, 0.1855468750, 0.2622070312, -0.0216979980, 0.4614257812, -0.6943359375, -0.4077148438, -0.3222656250, 0.8505859375, -0.0381469727, 0.3986816406, 0.7895507812, -1.1826171875, 0.2054443359, 0.4428710938, -0.8232421875, -0.2836914062, 0.1065673828, 0.0602416992, -0.1776123047, -0.2110595703, -0.1494140625, -0.5561523438, -0.0855102539, 0.0566406250, 0.3854980469, 0.1036376953, 0.0116119385, -0.0008549690, 0.5112304688, -0.0295715332, -0.1358642578, -0.3176269531, -0.1048583984, 0.2303466797, 0.1141357422, -0.0120697021, 0.1763916016, 0.5747070312, -0.0981445312, -0.3728027344, -0.2220458984, 0.0364074707, 0.1237792969, 0.0103378296, 0.4118652344, -0.2702636719, -0.8085937500, 0.0521545410, -0.1885986328, 0.0880126953, -0.0720825195, 0.0826416016, -0.0309906006, 0.2675781250, -0.1291503906, -0.1191406250, -0.2259521484, 0.3654785156, -0.0408935547, 0.1383056641, 0.4020996094, -0.2956542969, -0.0438232422, -0.0375976562, -0.2897949219, -0.2125244141, -0.2558593750, 0.3134765625, 0.0373229980, 0.7465820312, -0.0314636230, -0.1419677734, 0.1590576172, 0.4855957031, 0.1350097656, -0.4536132812, 0.4125976562, 0.1043090820, -0.2257080078, -0.2653808594, -0.1123657227, 0.2083740234, 0.0189971924, 0.6396484375, 0.2082519531, -0.0901489258, 0.3037109375, 0.8183593750, 0.1654052734, 0.4672851562, -0.3264160156, -0.1860351562, 0.3806152344, -0.0928344727, 0.3630371094, -0.2619628906, 0.4736328125, -0.3256835938, -0.0914306641, 0.7905273438, -0.2919921875, 0.1033325195, 0.0805053711, -0.1285400391, 0.4548339844, 1.2666015625, -0.3508300781, -0.5605468750, -0.0435180664, -0.3552246094, -0.4455566406, -0.0300445557, -0.5708007812, -0.0727539062, 0.2238769531, 0.2014160156, 0.0046768188, 0.4511718750, 0.3769531250, -0.4008789062, 0.1571044922};
#endif

#endif
