//Numpy array shape [7200, 32]
//Min -0.558486104012
//Max 0.444231927395
//Number of zeros 0

#ifndef W7_H_
#define W7_H_

#ifndef __SYNTHESIS__
model_default_t w7[230400];
#else
model_default_t w7[230400] = {0.0708238482, -0.0101395603, -0.0915826485, 0.0882530883, 0.0858255923, -0.0498880893, -0.0737554133, 0.1019788682, -0.0463966317, 0.0063857650, 0.1271532178, -0.0114918165, 0.0651547834, -0.0995605364, -0.0002406455, -0.0138734384, -0.1898887455, 0.0274516549, -0.0326205194, 0.0774481744, 0.0113744978, -0.0147586530, 0.0470423922, -0.0166535452, -0.0969744176, -0.0453776345, 0.0276421420, 0.0000841558, 0.0346211083, -0.0410426445, 0.0475052670, -0.0163222477, -0.1160075963, -0.1412328184, 0.1414170265, 0.1162592620, -0.0250203442, 0.0280763581, -0.0568699762, -0.0500953607, -0.0151641415, 0.0297191609, 0.0028281105, -0.0941290557, -0.0999958366, 0.1342201084, 0.0870533735, -0.0106121479, 0.0675507486, 0.0773455724, 0.0732097551, -0.0371465161, -0.0874601752, 0.0357074887, -0.1635297835, -0.0389501229, 0.0165566094, 0.0444269478, 0.0586321019, -0.0071344385, 0.0971090198, 0.0492956974, -0.0766777545, 0.1007306054, -0.0822605491, 0.0668325126, 0.0184822511, 0.0305441171, -0.0476857461, -0.0610254779, -0.0503537543, -0.0536298640, -0.0571575351, -0.0160338096, 0.1805284023, -0.0048277150, 0.0291847829, -0.0120116686, -0.0334109664, 0.1029563844, 0.0638641566, -0.0143168177, 0.0183643457, 0.0343862288, 0.0997161865, -0.0177165549, -0.0160343479, -0.0386716723, 0.1502280831, 0.0354972966, -0.0343881138, -0.0474067070, -0.0559254847, -0.0661328509, -0.0521083400, -0.0642178655, 0.0084893648, -0.0346773118, 0.0263093114, -0.1442152113, 0.0914036855, -0.0467083938, 0.0345258117, 0.1161981598, -0.0907735229, -0.0167964287, -0.0212878417, 0.0057838806, 0.1827628016, -0.0536945239, -0.0654525980, -0.0305259582, 0.1468469054, 0.0327162519, -0.2289477438, -0.0067058378, -0.1388760656, 0.0443269052, 0.1999936700, 0.0770045891, -0.0094826855, -0.1072865725, -0.0250963718, -0.0502274893, 0.0811885819, 0.0316976383, 0.0521838889, 0.0905032456, -0.0543427952, 0.0691829920, 0.0661327019, -0.0563151911, 0.1632080525, 0.0797703415, 0.1505412459, 0.0463946126, 0.0437082984, 0.0604417063, 0.0857617930, 0.1150081828, 0.0370662585, 0.0297001470, -0.0386490375, -0.0250970423, 0.1739945263, 0.0208039470, -0.0079724677, 0.0688565895, -0.0000024069, 0.0140472734, 0.0209616348, 0.1209994256, -0.0232219044, 0.0831176639, 0.0372555442, 0.0335196517, -0.0534008816, 0.0570991002, -0.0069105662, -0.0330495127, -0.0210688058, 0.0364650376, 0.0462584496, 0.0712909028, -0.0264077410, 0.0201870520, 0.0424519219, -0.0562802441, -0.1018637568, -0.0744799078, 0.0165748205, -0.0048077246, -0.0776092783, -0.0700296313, -0.1074153632, 0.0981131718, 0.2133408040, 0.0706938282, -0.0912466645, -0.0263081491, 0.1078006625, -0.0886699706, -0.0121845212, 0.1101422459, 0.0506753661, 0.0907331929, 0.0196923874, 0.0675934851, 0.0567391776, -0.0311278440, -0.0296054129, 0.0925308019, -0.0120712835, -0.0415719301, 0.0132200681, 0.1026888937, -0.0859959498, -0.0244629011, -0.0534856841, 0.0209462903, -0.0829133913, 0.1399307698, -0.0071952888, -0.0488320105, 0.0298507735, -0.0619585179, -0.0835039094, -0.0434915796, 0.0829372108, 0.0721812397, -0.2000982761, 0.0612005182, -0.0294371881, 0.0358464867, -0.0096443957, -0.1062274352, 0.0019909206, 0.1081710681, 0.1502224356, -0.0214389954, -0.0256619994, -0.0591894276, 0.0418254137, 0.1808624566, -0.1429410726, 0.0694957897, 0.0721253976, -0.1911683381, 0.0726759210, 0.0854117498, 0.1369874626, 0.0055453703, 0.0270533431, 0.0756287500, -0.0617163703, -0.0169455837, -0.0317557044, 0.0563246422, 0.0633376688, 0.0698569268, 0.0410842337, -0.0800263658, 0.0327845775, -0.0206592008, -0.0772294700, -0.0797755420, -0.0587649345, 0.0994862393, -0.0479228981, -0.0409661569, -0.0951640159, 0.0481510907, 0.1740022749, -0.1129992232, -0.0810980871, 0.0470177904, -0.0857592747, 0.0978513137, 0.0879730582, -0.0884067491, 0.1601568460, 0.1166261435, 0.1575286686, 0.0423948020, 0.0582977310, 0.0895081162, 0.1283807307, 0.1772033423, 0.0040537892, 0.0344695449, -0.0279984716, -0.0717982277, 0.2041771263, 0.0070870323, -0.0036110436, 0.0257479176, 0.0123594254, 0.0694140941, 0.0312112588, 0.1457085311, 0.0043944907, 0.1105238125, 0.0407675616, 0.0360146910, -0.0076257437, 0.0356247313, -0.0322512835, -0.0511281043, -0.0855870619, 0.0461058244, 0.0120920017, -0.1529520452, 0.0796611458, 0.0220194850, 0.0878068656, 0.0613949373, 0.0369729809, 0.0913845748, -0.0114211170, -0.0563240983, -0.0295034703, 0.0217350535, 0.0506607704, 0.0933792219, -0.0284271576, -0.0667030513, 0.0018686618, -0.0172117632, -0.0896252990, -0.1180416122, -0.0687442943, 0.1107797623, -0.0966078937, -0.0288842358, -0.0985890180, 0.0648952425, 0.1631196290, -0.1064448208, -0.0234148409, -0.0230456796, -0.0199786369, 0.1335695535, -0.0960852280, 0.0875682458, 0.0973192900, -0.1793442667, -0.0698999614, -0.0925725251, -0.0054746876, 0.1117286235, 0.0557945445, 0.0212323386, -0.0486177541, 0.0532320924, -0.1333047599, -0.0244253650, 0.0310913082, 0.1013835222, -0.0116974982, -0.0211887266, -0.0583921224, -0.0161589496, -0.1096082851, 0.0723708197, 0.0841883272, -0.0248259269, 0.0091126468, -0.0928490981, -0.2007504702, 0.0383792259, -0.0111811040, 0.0478446968, -0.0512605719, 0.1106503308, -0.0178269297, -0.0586225465, 0.0607876852, 0.0349644646, 0.0299725737, 0.0312799215, -0.0870388299, 0.0878306776, 0.0906971842, -0.0095933378, -0.0082287695, -0.0716133192, 0.0279466081, 0.0866507739, -0.0050344486, -0.0465806760, 0.1000831649, 0.0546768270, -0.0089972960, -0.0055058338, -0.0964352116, 0.0219744407, -0.0194476582, 0.0307885893, -0.0089805126, 0.0523215160, -0.0459756218, -0.1913481504, 0.1324865520, -0.1606497914, -0.1032373086, 0.0628421381, -0.0917210802, 0.2567909956, -0.0958819017, 0.0357532129, -0.0363809243, -0.0164105184, 0.0016997047, 0.0292954016, 0.0018145011, 0.0404138304, -0.0075450130, 0.0484410897, -0.0418278128, -0.0956829563, -0.1786758900, -0.1707986295, -0.1471598595, -0.0003446474, -0.1074654013, 0.0098207025, -0.0936173424, -0.0919919387, -0.0830218568, -0.0346446335, -0.0680986792, 0.1383591890, -0.0268948954, 0.1328933239, 0.2055127621, 0.0457883105, -0.0392980836, 0.1060538962, -0.0136942109, 0.0606440119, 0.0541648529, 0.0418373644, 0.0978378132, 0.0244376995, -0.0563601404, -0.0060393498, -0.0375323519, 0.1016551107, 0.0617813654, 0.1646803021, 0.0149438661, -0.0657870770, 0.0231588483, -0.0210894700, -0.1249867156, -0.0924116224, -0.1574460566, -0.0233103968, -0.0970395952, 0.0806315988, -0.0712528154, -0.2254224867, -0.2162013799, 0.0317871906, 0.0958660990, 0.0959244072, 0.0037425905, 0.0957278907, 0.0178225432, -0.0367735811, -0.0488182716, 0.1188071370, 0.0719235018, -0.0819067731, -0.0144109996, -0.0026823936, 0.0498714820, 0.0429657027, -0.0358913429, -0.0427762754, 0.1099274457, -0.0085288482, -0.1083036140, -0.1486415118, -0.0475856438, 0.1005634815, -0.0464847572, -0.0070013371, -0.1187994182, 0.1005344316, -0.0171045847, -0.0516347885, -0.0227020793, 0.0043514720, 0.0373035409, -0.0002017035, 0.0270010456, 0.1112377048, 0.0530316830, 0.0076013124, -0.0428430103, 0.0111876326, 0.0213369783, 0.0840418637, -0.0602190644, 0.0838256180, -0.0541099347, 0.0421688519, -0.0774650872, 0.2158027738, -0.0030922815, -0.0348672867, 0.0679622889, 0.0133025032, -0.1994707435, -0.0271981061, -0.0403144620, 0.0918368548, -0.1554397047, 0.1110626832, -0.1546041071, 0.0419480577, -0.0457084626, -0.0543186590, -0.0728014186, 0.0591090620, 0.0593058579, 0.0921760052, -0.0951488763, -0.0351525806, 0.0255861972, 0.1180259362, 0.0091126775, -0.1256034523, 0.0943311974, -0.0341212861, 0.0970016345, 0.0001426500, 0.0120113455, 0.0236333273, 0.1582925171, 0.0056503853, -0.0603942163, -0.1297691762, -0.0031170025, 0.0248005316, -0.0415749922, -0.1556576192, -0.0329804160, 0.1186024323, 0.0623255819, -0.0618936531, -0.1392435730, 0.1195836738, -0.0416682810, -0.0618214384, 0.0326471403, 0.0843357593, 0.0754085556, -0.0631142855, 0.1587773710, 0.0171797313, 0.0566470325, -0.0430823863, 0.0363180675, 0.1239497736, -0.0996959358, 0.2891665101, -0.0882011876, -0.0193282999, -0.0546979643, 0.0785231441, -0.1700356603, -0.0060653244, 0.1866341084, 0.0695338547, -0.0337869227, 0.0713264793, 0.0991016924, -0.0336968303, 0.0607614294, -0.1481659710, -0.0017737978, 0.0400002003, 0.0502627008, 0.0562164746, -0.0088699851, 0.0483807214, 0.0161103997, -0.0486922078, -0.0944138020, 0.0288543217, 0.0335494913, 0.0563224740, -0.0600990243, 0.0553786606, -0.0801901743, -0.0126650827, 0.0747860894, 0.0279966295, 0.0330145806, 0.0630506128, -0.0665769726, 0.0927625000, -0.0006763646, 0.0290796887, 0.1553770304, -0.0926237032, -0.0211750101, 0.0321105458, 0.0903388187, -0.0251917858, 0.0613100529, -0.0798358619, 0.1688024998, 0.0889901817, -0.0016122618, 0.1022336259, -0.0554510579, -0.0181159005, 0.2137819529, 0.1644237787, 0.0221941844, 0.0084794667, 0.1997534931, -0.0827541277, -0.0603057258, -0.1095864177, -0.0551295318, -0.0858948007, 0.0185474940, 0.1441892684, -0.0702056512, 0.0701674446, 0.0056104283, -0.0283451788, -0.0403470062, 0.0107217925, 0.0200825296, 0.1010632366, -0.0970041230, -0.0627996996, 0.1046996117, 0.0072448417, 0.1030413583, 0.0681044459, -0.1487723291, 0.0067042005, 0.0471979044, -0.1694917530, -0.0774176419, 0.0075553060, -0.1059631109, 0.0354111046, -0.0201224107, -0.0448912568, 0.1864026338, 0.0995831639, 0.0086041857, 0.0207336154, 0.0814954489, 0.0736169666, -0.1456358731, 0.1393614262, 0.0206445996, -0.0404782519, 0.0049535814, 0.1977623552, -0.1062678620, -0.0355083682, 0.2237070799, -0.0390912667, 0.1211858988, -0.0702017397, 0.0485140868, 0.0679999217, -0.2413856685, 0.0118033597, 0.0517746508, 0.1534582227, 0.0608452745, -0.1174518541, 0.0542513095, -0.0635271966, -0.1001758724, -0.0903582051, -0.0595162772, 0.0783746988, 0.0307749510, -0.0987183228, 0.0105302399, -0.0485256650, -0.0339170285, 0.0400594547, 0.1009432971, -0.0735347345, 0.0778263062, 0.1244830191, 0.0311178062, 0.2435433120, -0.0638840348, 0.1617202312, -0.0853806585, -0.0769009739, 0.0577036738, 0.0176902860, 0.0186285265, -0.0300973635, -0.0726325661, 0.0677734315, 0.0620342083, -0.0445427857, -0.0896271691, 0.0691103637, 0.0257846322, 0.1329322010, 0.1077578589, -0.0162859485, 0.0301213618, -0.0443124510, 0.0594205298, -0.2403350323, 0.2178417295, -0.1455558389, 0.0588983186, 0.0543299876, -0.0377698280, 0.1955007315, -0.0415474661, -0.0605064519, 0.0705173165, 0.1284317672, -0.1149839535, -0.0673895627, 0.1742805541, 0.0163583905, 0.1844222099, 0.0552710220, 0.0690855086, 0.0148337213, -0.2220469713, -0.0371368006, 0.1199350134, 0.1041955128, 0.0642234683, -0.0588610843, -0.0252557006, -0.0304653477, -0.0896755606, -0.1453662813, -0.1073748171, 0.1080816984, -0.0051441449, 0.0002483766, -0.0686409399, -0.0551495701, 0.0139520941, -0.0299456529, 0.0298385471, -0.0394705795, 0.0687926635, 0.0001146482, 0.0296693314, 0.0166223887, 0.0227327459, -0.0194140486, -0.0257318579, -0.0234559383, 0.0179369338, -0.0046397112, -0.0426251814, -0.0191842113, 0.0122577287, 0.0023173466, 0.0424909443, -0.0036003781, -0.0447789468, -0.0073639667, 0.0028757993, -0.0103804162, -0.0185654126, 0.0210662149, 0.0054727281, 0.0260789283, 0.0425610058, -0.0024138277, 0.0093615986, 0.0109230485, -0.0756675899, 0.0249200519, 0.0639163926, 0.0708746910, 0.0299724955, -0.0747465342, -0.1049026027, -0.1457313746, -0.0321298204, -0.1474124491, 0.0362660550, -0.0358357318, -0.0851424560, -0.0089047812, -0.0210289843, 0.0226284508, 0.1476816982, 0.0388046391, -0.0335444584, 0.0176019445, 0.0361734331, -0.0500119328, -0.0302719716, 0.0509413257, 0.1091421694, 0.0096620582, -0.0292582475, -0.0761875734, 0.0224605296, 0.0596892983, -0.0909751877, 0.0148688378, 0.0251731519, 0.1172078326, -0.0760548413, 0.2753695250, 0.0413800851, -0.1203248352, -0.1728955656, 0.1013817936, -0.1337200552, -0.0060925386, 0.0413648859, 0.0307664257, 0.0873775557, 0.0838813782, -0.1165904999, -0.1205435917, -0.0583807863, 0.0567313135, -0.1241372526, 0.0031349272, -0.0698665008, 0.1536177844, -0.0730888620, -0.0075688460, -0.0423706919, 0.0996103212, 0.0005508552, 0.0506710857, -0.0111391656, 0.0972511023, -0.0387900732, 0.0141206821, -0.1225460246, 0.0975435898, -0.0713975579, 0.0952114388, 0.0533081256, -0.0901609957, 0.1016189307, 0.0665774196, -0.0224428996, 0.2605591416, 0.0578647368, -0.0435394533, 0.0567704104, 0.0332818851, -0.1665298045, 0.1260706186, -0.0666768178, 0.0192618724, 0.0443731807, -0.1023165211, -0.0903189182, -0.0706020743, -0.1472941190, 0.1776475608, 0.0709614530, 0.0716152415, 0.0100654494, 0.0482290871, -0.0850468725, -0.2045583725, 0.0918253437, -0.0834524557, 0.0272380728, 0.0874386430, -0.1474340558, 0.0240129139, 0.0483952463, 0.0692095459, 0.1927646548, 0.0679267347, 0.1694692373, -0.1166184023, 0.0462882742, -0.0850551650, 0.0809665769, -0.0496705845, 0.0104208561, 0.0390426889, -0.1289087832, -0.1869999915, -0.0051466422, 0.2163889557, -0.0547435768, 0.0676574409, 0.0327255204, 0.0608449280, 0.0014074359, 0.0303967353, -0.0414381176, 0.0718271285, -0.0542586595, 0.0092799850, 0.1940790713, -0.0562848710, -0.0882688463, 0.0925277472, -0.0132362051, 0.1706800908, -0.1275559813, 0.0249217749, 0.0795963928, 0.1216971502, 0.0198354013, -0.0313074142, 0.1853122264, -0.0209412463, 0.0703810453, 0.0958950520, -0.0713058636, 0.0153896473, -0.1445850581, -0.1333757192, -0.0831072107, -0.1074440628, -0.0147367064, 0.0062766057, 0.0615807623, -0.0010377802, -0.0420093760, -0.1599794477, -0.0906391740, 0.0935795829, 0.0492463149, 0.0802070349, -0.0032116545, -0.0009180056, -0.0629862547, -0.0006683490, -0.0309155677, -0.0380152650, -0.0367095359, -0.0081147458, 0.0124950185, 0.0902203023, -0.1912167519, -0.0124709122, 0.0810507685, 0.0351522453, -0.0035877640, -0.1080378890, 0.0717139617, 0.1569932550, 0.1211976781, -0.0227202475, -0.1896100938, 0.0200661942, -0.0567023009, -0.1328210682, 0.0280510318, 0.0637737289, -0.0640761629, -0.0936979800, -0.1027057394, -0.0387477167, 0.1483659744, -0.0152022904, 0.0117490096, 0.0653657466, 0.0656549111, -0.0243004765, -0.0473725684, 0.0378415138, 0.0299249329, -0.0306314342, 0.0000093368, 0.1347739100, 0.0119538018, 0.0261107739, 0.0633615702, -0.0759966597, 0.0359379314, -0.0081089176, 0.0055311993, 0.0385080203, -0.2023804039, 0.0143600721, 0.0352289900, 0.0725911856, -0.0152724553, -0.0364505611, -0.0144185610, -0.0570103861, -0.1177093834, -0.0136717306, 0.0574560091, -0.0230185706, 0.0655523166, 0.0065463064, 0.0966847613, -0.0132987630, -0.0134534547, 0.1090807021, -0.0636744946, 0.0913921520, 0.0793276131, -0.0667495131, 0.0444950871, 0.0911981389, -0.0434090197, 0.0087749418, 0.2279590666, 0.1194875762, 0.1046105400, -0.0924621820, 0.0119719263, -0.0417558104, 0.0785109326, -0.1118191853, -0.2014282644, -0.0123843653, 0.1412631124, 0.0960821584, 0.1888023764, -0.0512381047, 0.0878940001, 0.0578104779, -0.0137351640, -0.1269848347, 0.0662567690, 0.0710270926, 0.0765215382, 0.0358287245, 0.0604017936, 0.0064155860, -0.0139541551, 0.0816771686, -0.0137949456, -0.1080334112, -0.0515017845, 0.0976691321, -0.0415424556, 0.1865786165, 0.0798426047, 0.0551083237, 0.0451871939, -0.0743433088, 0.1331928521, 0.0326663479, -0.0513179637, 0.0339691937, 0.0064772982, -0.0593410209, -0.0801402107, -0.0772101805, 0.0221591461, -0.0335987769, -0.1028932109, 0.1127451956, -0.0380201191, -0.0053361636, 0.0225984901, 0.0455925390, 0.0638096780, 0.0752181560, -0.1760247350, -0.0506612808, 0.0909664035, 0.0147934221, -0.0618748516, 0.0289105009, -0.0292873215, -0.0028817074, 0.0226805974, -0.0167701431, 0.0131570520, -0.0784642398, -0.1165267751, 0.0310820546, 0.0071743219, -0.0302189719, -0.0103269024, -0.0043731527, 0.1412522942, -0.0003911435, 0.0013398132, -0.0036423556, -0.0673978925, -0.0339372829, 0.0964211896, -0.0007373546, -0.0260555018, 0.0060999319, 0.0467505828, -0.1373794526, -0.0937723070, -0.1255948097, -0.0892359763, 0.0614547729, -0.0129038403, -0.0896229073, -0.2133902758, 0.0246238019, -0.1352618486, -0.0204102267, -0.1633233875, 0.0940280184, 0.0680253282, -0.1969822347, -0.1735551059, -0.0349144265, 0.0363516994, 0.1549659073, 0.0140757905, -0.0535615757, 0.0896961465, 0.0340994447, 0.0003628579, -0.0153033119, -0.1929468960, -0.0670511276, 0.0325559750, 0.0560833476, -0.1298708916, 0.0384947099, -0.0146836089, -0.1194787472, 0.0293864049, -0.2117740065, 0.1063049138, 0.0345861576, -0.1781445146, -0.0234800000, -0.0260048732, -0.1457688510, 0.0258248616, 0.2013831735, -0.1586728543, -0.0823481008, -0.0433435924, 0.0154408403, 0.1112343371, -0.0791342184, -0.1726598889, 0.0144773722, 0.0901819468, 0.0217573829, -0.2491994202, 0.0279977508, -0.0771462619, 0.0761315897, 0.0726990774, 0.0370860882, -0.1286264062, -0.1148343384, 0.1324141771, -0.0634264946, -0.0643498972, 0.0933294222, 0.0338801257, 0.0103467610, -0.0497949161, 0.0911249518, 0.0398564413, -0.0299160592, 0.1379796863, 0.0760990679, 0.1227197200, 0.0015609822, 0.0279078055, 0.0605185777, 0.1088951752, 0.1351442784, 0.0004565731, 0.0358182564, 0.0089669749, -0.0664341599, 0.1909223795, 0.0237691421, 0.0093301535, 0.0128214285, 0.0384920761, 0.0448671430, 0.0015547981, 0.1411156505, -0.0125280293, 0.0916958824, 0.0230877772, 0.0591189973, -0.0016638739, 0.0497775786, -0.0486140177, -0.0326122120, -0.0589170568, 0.0274641197, -0.0228795838, -0.0068832287, -0.0296073351, 0.0204071291, -0.1590186954, 0.0234625824, -0.0895385742, 0.1555444598, 0.0146394540, 0.0360374451, -0.0034023097, -0.0092819687, -0.0438835062, 0.1223177314, -0.0525380410, 0.1125352010, 0.0949717611, -0.0351648144, -0.0513305552, 0.0419017747, -0.0541788973, -0.0795138553, -0.0885795876, 0.0137579264, -0.0427139550, 0.1528796852, -0.0419307947, -0.1461154521, 0.0506570898, -0.0377353057, 0.0493851714, 0.0109215770, -0.0526687168, -0.0483061858, -0.0501993150, -0.0919948816, 0.0598742589, 0.0749302208, -0.1031637266, -0.0739097893, 0.0601310134, -0.0087739062, -0.0133932251, -0.0959424973, -0.0625154376, -0.0673136339, 0.1229504794, -0.0047909855, -0.1642961204, 0.0787393227, 0.0263483617, -0.0700774044, 0.0039455378, -0.0783335418, 0.0379413813, 0.0774227902, 0.1202006266, 0.0418742597, 0.0392275341, -0.0239038505, -0.0391425118, -0.0697278827, -0.0063180071, 0.0887919888, 0.0506665446, 0.0231456701, -0.0104430607, -0.0366363190, 0.0340915956, -0.0157838389, -0.0997542664, -0.0183965042, 0.0066141509, -0.0636557713, 0.1115221083, 0.0488723405, 0.0340475254, 0.0332727879, 0.0898844153, -0.0749565884, 0.0264766160, 0.0291878693, -0.0846129358, -0.0805179849, 0.0184722878, 0.0781479776, -0.1614787728, -0.0308931451, 0.0110633038, 0.0288778543, 0.0462036021, 0.0442959145, -0.0638201013, 0.0732505545, -0.0664256215, 0.0711452290, 0.0662270188, -0.0999184474, 0.1825998127, 0.1241609082, 0.1739451140, 0.0294275433, 0.0186662655, 0.0604871586, 0.0984745696, 0.1301283091, 0.0003131968, 0.0497702695, -0.0146721499, -0.0570630729, 0.2234202027, 0.0092189303, 0.0187249389, 0.0432107113, 0.0399736539, 0.0642948598, 0.0099591613, 0.1564684063, 0.0383918360, 0.1268045157, 0.0417691022, 0.0694440678, -0.0310294274, 0.0621823370, -0.0051396820, -0.0684035271, 0.0450766720, 0.1055924371, -0.0011546733, 0.1165175289, -0.0199870653, -0.0815365389, -0.0029823068, -0.0342197567, -0.0846028030, 0.1031437442, 0.0632753074, -0.0468981192, 0.1269190162, 0.0471682437, 0.0935680494, 0.0251169074, 0.0627303645, -0.0927912518, -0.0089013241, 0.0155643821, -0.0829352811, -0.1117708683, 0.0411363207, 0.0366217867, -0.1738036722, 0.0060226410, -0.0344186574, 0.0100256242, 0.0433406755, 0.0603488423, -0.0631218478, 0.0146397697, -0.0579905808, -0.0166874379, -0.0256664902, -0.1491018832, -0.1383476257, -0.0655463487, -0.0951956660, -0.0192694068, -0.0927574337, 0.0021298011, -0.0395944491, -0.1320250928, -0.0447246395, 0.0471114106, -0.0713095069, 0.1187148839, 0.1342586130, 0.0213258471, 0.1045520753, 0.0618085302, -0.0642866939, -0.0099523421, -0.0770243779, 0.0157383382, -0.0084495284, -0.0377204828, -0.0620150343, 0.0094807027, -0.0285224505, -0.1302064210, 0.0394758992, -0.0313696563, 0.0039908933, -0.0159959532, -0.0353347026, -0.0093977442, 0.0617771968, 0.1163369492, -0.0428471081, -0.1406830549, 0.2041253895, -0.0338062085, 0.0443287194, 0.0670250580, 0.0137493713, 0.0510090776, 0.0458012410, -0.1248883978, 0.0015202233, -0.0669896901, -0.0442293175, -0.0487560444, -0.1173631847, 0.0327979885, -0.0145972967, -0.0338730738, 0.1087445766, -0.0362930968, 0.0900045708, -0.0932494998, 0.0658472329, 0.0813171864, -0.0136785582, -0.1494462192, 0.0125611471, 0.0473861806, 0.0959252492, 0.1592345238, -0.0525779612, 0.0297246575, -0.0593109094, -0.0968905985, -0.0767666474, -0.0366137177, -0.0263606142, 0.0242226701, 0.0912939906, 0.0279083457, 0.0086766863, 0.0210958309, -0.1547964811, -0.1852715313, -0.1405874044, 0.0152329812, -0.0576832034, -0.0522444323, -0.1793270111, -0.0158848986, -0.0301119052, 0.0101414705, 0.0230442360, 0.1728240848, -0.0856311768, 0.1324132681, 0.0331822187, 0.0171348043, 0.0831739902, 0.0058851182, -0.0547953956, 0.0597641468, -0.0350585096, -0.0293077752, 0.0694158301, 0.0709210783, -0.1841182113, -0.0407420881, 0.0197409112, -0.0528473668, 0.0698992088, 0.0633793548, -0.0507483631, 0.0429161116, 0.0257643834, -0.0742943510, 0.0682743043, 0.1061694175, -0.0378374904, -0.0251878221, -0.1715204865, 0.0468253642, -0.0434362292, -0.0983686075, -0.0763638988, 0.1390265077, -0.1434124857, 0.1047590673, -0.0906633660, 0.0944528431, 0.0237897933, -0.0123127308, -0.0304868855, 0.0157608632, 0.0243560523, -0.0736629739, 0.0644219667, 0.0144913131, 0.0283433367, 0.0361405686, -0.0175323319, -0.0247580837, 0.0784608945, -0.0492364205, -0.0036348267, -0.0801869407, 0.0078086099, 0.0584658608, -0.0092583261, -0.0296408720, -0.0922039524, 0.0837919638, -0.0025256951, -0.0563320331, -0.0656494722, 0.0412975065, 0.0383098982, 0.0157874022, 0.0042834729, -0.0030051619, -0.0134675577, 0.0121667814, 0.0623330772, 0.0122594731, 0.0525628887, 0.0169131327, 0.0496852174, 0.0014037986, 0.0222978964, 0.0349651724, -0.0422782749, -0.0401461571, 0.0184204187, 0.0119886016, 0.1025707796, -0.0506437980, -0.0401326530, -0.0283021424, 0.0107032051, -0.0059043062, -0.1435643286, 0.0395771973, -0.0701192766, 0.0063329572, -0.0822690278, 0.0485361964, -0.0366061851, 0.0455021597, 0.1220071092, 0.1410709620, 0.0362024941, 0.0757710189, 0.0093176216, 0.0099647893, -0.0655419603, -0.0830611885, 0.0872519314, 0.0299521945, -0.0009745630, 0.0207033642, 0.0924351662, -0.0044916063, 0.1405965984, 0.0729010701, -0.0652827621, -0.0741444230, 0.0641747788, 0.0778573230, 0.0148725975, -0.0823207945, -0.0559302196, 0.0464108884, 0.0776519477, -0.0060838638, -0.0829887167, 0.0384560563, 0.0021380440, -0.0480968803, -0.0008238765, 0.0565901846, 0.0092546092, -0.0536388047, 0.0758042634, -0.0231000949, -0.0225676615, 0.0048209704, -0.0118034799, 0.1087000221, -0.1042501479, 0.1837551892, -0.1010962203, 0.0875327140, -0.1923303902, 0.0638524219, -0.0991242975, 0.0326065272, 0.0678704903, 0.0616596714, -0.0572015122, -0.0233486462, 0.0503483862, -0.0206153207, 0.0696762726, 0.0242314171, -0.0743166879, 0.0035574290, -0.0015035782, 0.0010466521, -0.1509814560, 0.0641033575, 0.0918380320, 0.0003767463, 0.0149950795, 0.0285361558, 0.0230077282, 0.1095358282, 0.0655151233, -0.0165623538, -0.0286221337, -0.0618594997, 0.0404261500, -0.0131219309, 0.0336379036, 0.0587567054, -0.1138162613, -0.0539393425, 0.0718497857, 0.0241135787, -0.0840975344, -0.1261940449, 0.0103416042, 0.0188224353, 0.0943733081, -0.0806625932, -0.0816414207, 0.0383109301, 0.0477151498, 0.0175709836, -0.0632630810, 0.1062275693, -0.1025348231, -0.0018707218, 0.1545543224, -0.0363511108, 0.0750368536, -0.0420493521, 0.1061422527, -0.0328029618, 0.0088646701, -0.1453732699, -0.0582964271, -0.0277349949, -0.0076046819, 0.0498601161, 0.0034354765, 0.0239830948, -0.0231733005, 0.0068978784, -0.0730787069, -0.0318580307, 0.0884626806, 0.0402348936, 0.0085738897, -0.0095564062, 0.0192911681, 0.0086386986, -0.0137630990, 0.0713309199, -0.0480490923, 0.0469461270, 0.0478305183, -0.0921119228, -0.0117186075, -0.0608628578, -0.0462307818, -0.0555444732, 0.0269513130, -0.0345035046, 0.0770939365, -0.0357185565, -0.0373078436, -0.0579093024, 0.0812823772, 0.0592875518, -0.0131157869, 0.0860438794, -0.0372749753, -0.1725631952, -0.0503395088, 0.1383588463, -0.1412092447, 0.1827124357, 0.1610717028, -0.0150394402, 0.0589696653, -0.0653773248, 0.1578588933, 0.0446335077, -0.0190201197, 0.0553674288, 0.0623062775, -0.0869190097, -0.0531979837, -0.1239081696, -0.0828336403, -0.0521177463, -0.0386396945, 0.1816068590, -0.0146128442, 0.0153904092, -0.0197349694, 0.0012178334, -0.0261256266, -0.0174661428, 0.0371080339, 0.0897687748, -0.1180941239, 0.0380533859, -0.1083532199, 0.1854425967, -0.0768447667, -0.0933506042, 0.1952350885, -0.0419382639, -0.0081908228, 0.1855713725, 0.0428449810, 0.0597333014, 0.1560298353, -0.1762179285, 0.0459601022, -0.0108126625, -0.3617709577, 0.0288092643, -0.0498301648, 0.0332557857, -0.0372894481, 0.0049819481, 0.0090782391, -0.0533769354, 0.0706419945, -0.2305334359, 0.0994299874, 0.2487475276, 0.0886738971, -0.0894779041, 0.1056375206, -0.0037034773, 0.0820653141, 0.0384709165, -0.0611312129, -0.2052949369, -0.0242319424, 0.1367816031, -0.1637102067, 0.0557679422, 0.1294326931, -0.0212238878, 0.1470068395, -0.0230365712, 0.1163682044, 0.0783782229, -0.0887270346, 0.0291521046, 0.1424365938, 0.0066462238, 0.0119682038, -0.1198670790, -0.1876748353, 0.0369598232, 0.0617658906, 0.1099911258, -0.0171545725, 0.0483420715, -0.0919078812, 0.0384667516, -0.1249481365, -0.0413571857, -0.0444068611, -0.0486025177, 0.0318433195, 0.0234768670, 0.0168884359, -0.0199800730, -0.0048201503, -0.0087455148, 0.0257350020, 0.0231098160, -0.0104192924, -0.0541259348, 0.0116182072, 0.0036073630, 0.0091752140, 0.0083488729, 0.0049833306, 0.0280353893, 0.0471104607, -0.0254858509, -0.0650738254, -0.0120605649, -0.0051936060, -0.0081129037, -0.0034530389, -0.0062395521, 0.0089947591, -0.0093358587, 0.0516263545, 0.0380654372, -0.0222712699, 0.0022531657, -0.0294043943, -0.0095107723, -0.0671117157, -0.1353264600, -0.1327538490, -0.0692684352, -0.0375754908, 0.0198325068, -0.1272675842, 0.0210948642, -0.0114973644, -0.2116095871, -0.0661540106, -0.0585229099, 0.0269484613, 0.1096649542, 0.0727722272, 0.0292028617, 0.0772459060, 0.0838888288, 0.0294381939, -0.0610809736, -0.0518110357, -0.0520214364, 0.0320842005, 0.0637678131, -0.0130459135, 0.0204420127, -0.0054026088, -0.1175595596, -0.0231794734, -0.1892435700, 0.0584153458, 0.0383546166, -0.0691709518, 0.1639755666, 0.0326139815, -0.1616570503, -0.0391596407, 0.0342923664, -0.1023175791, 0.0330575146, 0.0035604236, -0.0486440733, 0.0715365931, 0.0100684203, -0.0238962248, -0.1069691554, 0.0046054535, 0.0534811579, -0.1093536615, -0.0085165827, -0.0547732227, 0.0360250138, -0.0720595941, 0.0028753406, -0.0719773397, 0.0733098015, 0.0316237397, 0.0771750435, -0.0079629524, 0.0355896987, -0.0118244532, -0.0062757088, 0.1064685583, -0.1686839759, 0.0254193041, -0.0962849408, -0.1441729516, 0.0028595326, -0.1008502468, 0.1082121581, 0.0425942987, -0.1025822535, 0.0010688565, -0.0036180275, -0.0423725881, -0.0392622538, -0.0684749037, -0.0945258886, 0.2742878497, 0.0050119846, -0.1226957142, 0.0061372956, -0.1443710327, -0.0386054963, -0.1287329942, -0.0541383997, 0.1271484643, 0.0449934714, -0.0266071670, -0.1077748910, 0.1319931298, -0.0693183318, 0.0453141592, -0.1152306050, 0.0838573948, 0.0620572343, -0.0125582125, -0.1636660993, 0.0553537831, 0.0978793874, -0.1723403186, -0.1714055389, 0.1511448026, 0.0452177078, -0.1094873771, -0.2041008770, 0.1420702338, -0.0212302003, 0.1932673603, 0.0447179340, -0.0581591390, 0.1150770113, -0.1832525283, 0.1404602826, -0.1278455853, 0.0284781381, -0.0649258569, 0.1640534252, 0.1724073589, 0.0462596677, 0.1656521112, -0.1627485603, -0.0042344527, 0.1966569424, 0.1727711707, -0.0801836029, 0.0955706611, -0.0919032767, 0.0310086440, -0.1108964831, -0.1237388998, -0.1815849245, -0.0025182310, -0.0122001814, -0.0048987446, 0.0564630367, 0.0273140650, -0.0540594757, 0.0863194168, -0.1557291448, 0.0688250139, 0.0770578086, -0.0464348085, -0.1316949874, 0.0467316136, 0.0954517201, -0.0051016482, 0.0004458502, -0.0507290959, 0.1090497524, 0.0803580359, 0.0184958074, 0.1330530494, 0.0041571418, -0.1764066368, 0.1143705472, 0.0162648801, -0.0271633528, 0.1322577447, 0.0031689715, -0.1486433595, -0.0356710032, -0.0126513764, 0.0677677691, -0.0186966974, 0.1400158256, -0.1093103141, -0.1159192845, 0.0858578905, 0.0262683406, 0.0897378996, -0.1806823313, 0.0303888712, 0.0504625365, 0.0056321775, 0.0065705585, -0.1168709770, 0.0724772364, 0.0909693837, -0.0851973742, -0.0997624546, -0.0876355469, -0.0831128806, -0.0350894891, 0.1295893490, 0.0322228521, -0.0248360187, 0.0354836844, -0.0405476429, -0.1163970605, 0.0141333267, 0.0794314668, -0.0223097205, 0.0748197809, 0.0239177719, -0.1111667305, -0.0423728861, 0.0137453796, -0.0126099484, 0.2323147953, 0.1083658263, -0.0032398235, 0.0922649652, 0.0494895093, 0.1386849135, 0.0115741296, -0.0600963682, 0.0497926548, -0.0029748699, -0.0858321115, -0.1012766957, -0.0641822442, 0.0334596299, -0.0723181590, -0.0739323422, 0.0880426913, -0.0008419962, -0.0086270580, 0.0328493752, 0.0357337296, 0.0739341676, 0.0115393084, -0.0316039585, 0.1149241328, -0.1195218191, 0.0849222094, -0.1066411287, 0.1246949434, -0.1125986949, 0.1033793390, 0.0467563644, 0.0756369755, 0.0370808318, 0.0857183263, -0.0749216601, -0.1546424329, 0.0499663465, 0.0868414193, -0.0311827697, -0.0106161898, -0.1328591257, -0.0290969852, -0.0257667582, 0.0417306945, -0.0445023328, -0.0284531005, -0.0846081153, 0.0249859486, 0.0328995623, -0.0773406327, -0.0360182971, 0.1469375938, 0.1103239581, -0.0389657430, 0.0547351018, -0.0456202328, -0.0053963084, 0.0821635276, -0.0136486934, -0.1268925816, 0.0167578068, 0.0551897995, 0.0144673735, 0.1196689457, 0.0712546483, 0.1006793082, -0.0619661696, -0.0795296282, 0.0319430493, 0.0520417430, -0.0757956058, -0.1081986800, -0.0893781483, 0.0345458984, 0.0764312819, 0.0412488803, 0.1127809882, -0.0615792237, 0.0241753887, 0.0120841591, 0.0957069546, 0.0197600648, -0.0591687709, 0.0999528617, 0.0698950440, -0.0993495435, -0.0785422698, -0.0146978805, 0.1644539088, 0.1148288175, -0.0299936570, 0.0577531196, -0.0556575432, 0.0055207890, 0.0446077101, -0.0022532328, 0.0430749953, -0.0148311425, -0.1652388275, -0.0074179959, 0.0033054871, 0.0181509126, -0.0084242644, 0.0158855040, 0.1445136219, 0.0351955257, 0.0782436207, -0.0484115668, -0.1129681692, 0.0249288660, 0.0061864746, -0.0619280934, -0.1354772896, 0.0228416175, 0.0853536874, -0.0619981810, -0.1707315892, -0.0515759625, -0.1407196224, -0.0202047434, 0.0101444079, -0.0096220626, -0.0717184991, -0.0226194952, -0.1179093271, 0.0649743378, -0.0415914208, 0.1139827222, 0.0892531797, -0.0741552114, -0.1093456149, -0.0804967284, 0.0543549396, 0.0844176710, 0.0146338744, -0.0629827380, 0.1626260281, 0.1567462683, 0.0830310807, -0.0210605562, -0.0678524002, -0.0251166131, 0.0125456424, -0.0210871659, -0.1004932970, 0.0744615942, 0.0361705124, -0.1903000772, -0.0339078046, 0.0164732914, -0.1510662287, 0.1359767467, -0.0802419409, 0.0193046592, 0.0370556787, -0.0744968131, -0.0285705961, -0.0378153734, 0.1099682823, 0.0473631397, -0.0642236322, -0.0305500273, 0.0596337728, 0.0001367509, 0.0045077396, 0.1348131001, -0.0341856666, -0.0224790461, -0.1466019303, -0.0471042581, -0.1324392706, 0.1014014706, 0.0212410204, -0.0464219376, -0.1252584606, -0.0037313725, 0.1185787246, -0.0483901352, -0.0905906186, 0.0122219874, 0.0055650412, -0.1048239246, -0.0324082784, 0.0894777551, 0.0430180840, -0.0781712383, 0.1251670569, 0.0570932515, 0.1602333635, 0.0289805159, -0.0047567277, 0.0590292327, 0.1090008914, 0.1188794747, -0.0135691240, 0.0221546572, -0.0015606884, -0.0630728155, 0.1629941911, 0.0018945400, -0.0035824135, 0.0346595682, 0.0237224307, 0.0329043791, 0.0251744203, 0.1257677674, 0.0029814865, 0.1261345297, 0.0570225157, 0.0155211836, -0.0419009030, 0.0250440128, -0.0379319862, -0.0119548421, -0.1802631021, 0.1090060025, -0.1008564904, 0.0105813993, 0.0042125345, 0.1011380330, -0.1615613550, -0.0742105097, 0.1290960163, 0.0100613916, 0.0625102147, 0.1688816845, -0.0950362757, 0.0060593900, 0.0733619481, -0.0605688728, -0.0085630771, -0.0712805018, 0.0031590401, 0.0382782854, 0.0311441571, 0.0313331075, -0.1849405915, -0.1335415989, 0.1419645250, -0.0754312128, -0.1110690236, 0.0016102111, 0.1136627123, 0.0867512673, 0.0941025838, -0.1357193440, 0.1087134182, -0.0184337590, 0.0432136655, -0.1403370947, 0.1890473515, -0.2373671234, 0.1217077076, 0.0658795163, -0.0705845058, -0.0323283300, 0.0279027931, -0.0527496710, 0.0062263478, -0.1779415458, -0.0820689648, 0.1074148789, 0.0494845025, 0.0309631061, -0.1269656569, 0.0147003364, -0.0079135373, -0.0005331780, 0.0570464320, -0.0128224120, -0.0499146245, 0.0748032779, 0.0849380493, 0.0834683254, 0.0297575668, -0.0592245087, -0.0826237723, -0.0537525900, 0.0125492420, 0.0302910600, 0.0278390646, 0.0660966262, 0.0634907559, 0.0533968247, -0.0047958270, -0.0302671399, 0.0202288516, -0.0024622537, -0.0732709840, -0.0430623218, 0.0980134755, 0.0950744152, 0.0410071909, -0.0117952432, 0.0771931410, 0.0205596872, -0.0335353240, 0.1004355550, 0.0109686600, -0.0707960576, 0.0253358465, 0.0170937683, -0.1549320519, 0.0037695910, 0.0129766930, 0.0060117352, -0.0110814478, 0.1356249154, -0.0605332255, 0.0821802616, -0.0443915874, 0.0992283523, 0.0430287868, -0.1058835983, 0.1481143683, 0.1101572961, 0.1262167692, 0.0311831441, 0.0309349932, 0.0543413498, 0.0778275579, 0.1348144114, 0.0173436627, 0.0164606571, 0.0013675207, -0.0894111916, 0.2088408321, 0.0367860794, -0.0100655006, 0.0415960997, 0.0135377580, 0.0771675035, 0.0159522053, 0.1410355419, -0.0216274429, 0.1013294756, 0.0303095933, 0.0720551908, -0.0279980656, 0.0723080114, -0.0345491730, -0.0410319380, 0.0510940328, 0.0110519584, 0.0147333909, 0.0281481761, 0.0598838329, 0.0056488388, 0.0017403973, 0.0077369739, -0.0130278096, 0.0549034663, -0.0422577485, -0.0325996391, 0.1182542592, 0.0580374151, 0.0615434200, -0.0014269014, 0.0569604114, -0.0632757023, -0.1026274562, 0.0909416229, 0.0428817607, -0.0785512999, 0.0493972972, 0.0187906753, -0.1033922732, -0.0235367566, 0.0554880016, 0.0073059909, -0.0111331725, 0.1517235488, -0.0354720093, 0.0391051620, -0.1280147731, -0.0409625694, 0.0027561947, -0.0447231568, -0.0154560609, -0.0399936922, -0.1054290086, 0.0649979636, -0.0379967615, 0.0743604973, 0.1085930765, -0.0461886823, -0.0768609121, -0.1579855829, 0.0378609598, -0.1324650496, 0.0300575159, -0.0993674546, 0.0431725010, 0.0681172535, 0.0242542196, 0.0528111532, -0.0259230882, -0.0093981819, 0.0536693148, 0.0158185679, 0.0135747241, -0.0027876694, 0.0875773132, -0.1052562371, 0.0580056310, 0.0529840626, -0.1736703217, 0.0648524985, -0.0106230984, -0.0686593950, -0.0781004354, -0.0689666569, 0.0154103143, 0.0500822216, 0.1642762125, 0.1357208788, 0.0256895125, -0.1897545010, -0.0404078476, 0.0509736203, -0.1446455419, 0.0987335965, 0.0222980138, -0.0378211066, 0.1168716177, -0.1993906498, -0.0663362220, 0.0464104712, 0.1437527835, 0.0374659337, 0.0206280798, -0.0667271614, 0.1012459397, 0.0172905792, 0.0370874703, -0.1098374575, 0.0184338912, -0.1158611923, -0.1242768392, 0.0438892879, 0.0456546135, 0.1457840353, -0.0153500903, -0.0353012905, 0.0001092455, 0.0191893000, 0.0205583125, 0.0993772522, 0.1086053997, 0.0072599710, -0.0657328069, -0.0283056255, -0.0489378385, 0.0353201889, -0.1963560879, -0.1270868331, -0.0749691054, 0.0553615056, 0.0735345259, -0.0053306017, -0.0563119762, -0.0777185410, -0.0273362733, 0.0718516409, -0.0987683758, 0.1886285692, 0.0741047636, 0.0468407199, 0.1193003207, -0.1005691662, 0.0187932923, 0.0474231467, 0.0007428493, 0.1298898309, 0.0483282022, 0.0194576848, 0.0344795361, -0.0316095985, 0.0119167976, -0.0966839045, -0.0445909537, -0.0153568154, 0.0953469425, 0.0021787689, 0.0342994817, 0.0151315350, 0.0298397299, -0.0218310039, 0.0111393351, 0.0705954880, -0.0938903838, 0.0469964109, -0.1195616946, -0.0340805762, -0.1308869570, -0.0165402219, 0.0273065083, 0.0434996076, -0.0814754590, 0.0464131646, -0.0644211471, 0.0743713453, -0.0354098454, -0.0122580314, 0.0167051908, 0.0455106311, 0.0267754439, -0.1012308449, 0.0967163146, -0.0487516075, 0.0855292603, 0.0119479755, -0.0331555866, 0.0097778672, -0.0079738013, -0.0425251946, 0.0071345852, 0.0292030554, -0.0028731241, 0.0008554019, -0.0471245460, -0.0036018519, -0.0120913144, 0.0849528462, 0.0043319766, -0.0527842715, -0.0491618924, 0.0478617772, -0.0285709482, -0.0032159712, 0.0427172631, 0.0232357234, 0.0727083385, -0.0346703753, 0.0934234113, 0.0477809049, -0.0441508852, 0.0032881987, 0.1125348508, -0.1864416599, -0.0064327843, 0.0185940359, -0.0831139535, -0.0574080385, -0.0233712401, -0.0308140870, -0.0821515545, -0.1415375471, -0.0024787593, 0.0072815423, -0.0329286531, -0.0001479050, -0.1260254979, 0.0462532751, 0.0214054361, -0.0770263746, 0.0006699304, -0.0391700082, -0.0201967601, 0.0586189702, 0.0654480010, 0.0877678990, 0.1312118918, 0.0377877876, -0.1122572944, -0.0269242544, -0.0602915622, -0.0616281852, 0.0650756508, -0.0667667091, 0.0858476013, -0.0019931914, 0.0894889683, 0.0219831262, 0.0947757885, 0.1208749264, -0.0689859167, -0.0028374589, -0.0908709913, 0.0231804904, 0.0376743264, -0.0080659408, -0.0705845281, -0.0410521738, 0.0760765895, -0.0039839754, -0.0594157875, 0.0727392733, 0.0163346697, -0.0059055276, 0.0057105124, 0.0329260975, -0.0076275007, -0.0077455379, 0.0507655740, -0.0075105489, 0.0464068651, -0.0492292568, 0.0266508814, 0.0383672528, -0.0385105163, 0.0451202467, -0.1129019037, 0.0259979535, -0.2052929699, 0.0752057433, -0.0503260680, -0.0343285017, 0.0546900146, -0.1014473513, -0.0286874510, 0.1001721025, 0.0773430243, -0.0285840649, 0.1253234893, 0.0506169386, -0.0314279348, 0.0711162388, -0.0221105292, 0.0093116798, -0.0963238403, 0.0398625098, -0.0572455414, 0.0473790839, -0.0425990894, 0.0526780859, -0.0164609905, -0.0551486351, -0.0179832317, 0.0435028300, -0.0386966839, 0.0108080050, 0.0201084409, -0.1045058593, 0.0648419857, 0.0049411287, -0.1029256135, 0.0883475915, 0.0679391772, 0.0279296804, 0.0519741438, -0.1977853775, -0.1346722990, 0.0378693379, 0.1638683677, -0.0610844269, -0.0276207998, -0.0183772128, 0.0651843771, 0.0055428357, 0.0196471550, -0.0357288755, -0.1281236112, 0.0153950630, 0.1731051505, 0.0992254689, -0.1053646579, -0.0631377175, 0.1483238041, -0.1107560620, -0.0504575148, -0.0860546753, -0.2338345200, 0.0414215177, -0.0231998451, 0.1069426984, 0.0360491909, 0.0911175907, -0.1455232352, 0.0284524336, 0.0364971682, -0.0080464305, 0.0390620157, 0.0954594836, -0.1550268978, -0.0524471514, 0.0757241994, -0.1208691299, -0.0263305400, 0.0977108106, -0.0637051091, -0.0202342607, 0.0807747021, -0.1174139902, 0.0122510940, -0.0300709214, -0.0661608204, -0.0697380826, -0.0695616677, -0.0937035307, 0.0912062004, 0.0470702127, 0.0141709885, 0.0072484557, 0.1229240000, -0.0543698668, -0.0150507754, 0.1031171679, 0.0069602863, -0.1752199680, -0.0116259977, 0.0595473461, -0.0669244155, 0.0306334347, 0.1325320303, 0.1183141768, -0.0235547181, -0.0797347724, 0.0258004311, 0.0365923755, -0.0586587153, -0.0628634468, -0.0659596771, 0.0690328330, 0.1584399194, -0.0129623646, 0.0314497426, -0.0870589465, 0.0741849169, 0.0240551475, 0.0619963817, 0.0570950769, -0.0312867165, 0.1383912414, 0.0383414999, -0.1643810272, -0.1805760860, 0.0062768073, 0.0261989739, 0.0391908586, -0.0538252778, -0.0506356694, 0.0268250350, 0.0148026953, 0.2427774817, 0.1064263210, 0.0076071625, -0.0882364661, 0.0100376289, -0.0211738124, -0.0474173613, 0.1390634030, 0.0661289319, -0.0507534482, 0.0010956001, -0.2169863433, -0.1055515110, 0.0981396213, 0.2172081769, 0.0990368202, -0.1399790496, -0.0315167457, 0.1201957688, -0.1093640998, 0.1230593473, -0.0510577634, 0.0165886376, -0.0872746333, 0.1753272712, -0.1430777162, 0.0163957346, 0.1355278939, -0.0152644087, -0.0899110436, 0.0081695775, 0.0890609100, -0.1294334829, -0.0252905563, 0.1702877581, -0.0223507304, 0.1065057367, -0.1062453240, -0.0405361541, 0.0010479846, -0.1082680970, 0.0144253541, 0.1026061401, 0.1197508425, 0.1834752262, 0.0514314100, -0.0764510632, 0.0101505537, 0.1324904412, -0.0311271101, 0.0773299783, 0.1275472492, -0.0808190927, 0.0854371786, -0.0546857417, -0.1104613021, -0.0108173164, -0.0055320668, 0.0542720445, -0.0215240549, 0.0585579760, -0.0518036038, 0.0433549173, -0.0517462678, 0.0090534938, 0.0219153706, 0.0126965214, -0.0128333345, -0.0129825333, 0.0282346662, -0.0011613158, -0.0042626094, -0.0207025390, -0.0386557281, -0.0047889203, -0.0097222123, -0.0164368562, 0.0006695406, 0.0266248696, 0.0404020362, -0.0205847900, -0.0018363490, -0.0329400934, 0.0371431448, 0.0482801273, 0.0191177987, 0.0270833131, -0.0187070668, -0.0308052860, -0.0197124295, -0.0126440292, -0.0470487960, -0.0012099975, -0.0033502339, 0.0362069532, -0.0480741076, 0.0295842644, 0.0582404248, 0.0008334400, 0.0099744014, -0.1255474538, -0.1127926633, 0.0404512100, 0.0837744176, 0.0954336375, -0.0224550366, 0.1839444041, 0.1432099044, 0.1299897581, -0.0389663354, -0.1216344908, -0.0024003214, -0.0078361314, -0.0136947678, -0.1103929132, 0.0025643569, 0.0175565090, -0.0847232416, -0.0220976435, -0.0554210804, -0.0393117853, 0.0458933264, 0.0687959567, -0.0146372495, 0.0614406653, -0.1870371252, 0.1005082726, 0.0932552814, -0.0848672017, 0.0285559259, 0.0629711822, -0.0580763482, 0.0298160985, 0.0247351285, -0.0695725605, -0.0049621603, -0.0462575890, -0.0242003016, -0.0955535248, 0.0560166687, 0.0562875457, 0.0441930927, -0.1040380970, 0.0047884947, -0.0507640839, 0.0860393494, -0.0299240015, 0.1005901769, 0.0073824897, -0.1199013665, 0.0139121497, -0.0352220684, -0.2049949318, -0.1154629663, 0.0910749063, 0.0250200648, -0.0177176036, -0.1423694044, 0.0513236150, 0.1232420281, -0.0069644311, 0.1791643053, -0.0015342656, -0.3528212905, 0.1013702527, -0.0074650631, -0.1794230789, -0.0365294777, 0.1894925535, 0.0473491736, 0.1433850229, -0.0656750202, -0.1309273541, 0.0424956456, 0.1938780993, 0.0833270326, -0.0127914706, 0.0062965932, 0.2434563786, -0.0229778755, 0.1381412446, -0.1773747802, 0.0196622852, 0.1174383834, -0.1780856401, 0.1400458366, -0.0464548804, -0.0721429214, 0.1291764528, 0.0143329734, 0.1101818532, -0.0550820604, 0.0574301556, 0.2180941850, 0.1063182130, 0.0159164034, -0.0828919858, -0.2060571909, 0.1996693909, 0.1481644958, -0.0261140559, -0.0631770715, -0.0242094696, 0.0796334893, 0.0052434248, -0.0200231224, 0.0140886921, -0.0211101882, 0.0654155165, -0.0023808500, 0.0124537619, -0.0663439184, 0.0876712948, 0.0108746961, 0.0984556749, -0.0592241511, 0.0989961252, 0.0062451395, 0.0361246914, 0.0986684635, -0.0477854833, -0.2408064753, 0.0313483849, 0.0780667588, 0.0769234896, 0.0264075343, 0.0688091740, -0.1057797074, 0.1509032845, -0.1180447191, -0.1610399336, 0.0048662615, -0.0746206492, -0.0167573988, 0.1512372047, 0.0535850041, 0.1839232743, -0.0016163952, -0.0660383627, 0.0776603445, 0.1488044560, -0.0453645736, 0.1438844651, -0.0120429378, -0.1041680425, 0.0674982071, -0.0126492288, -0.1091141924, -0.1944036484, 0.1486515999, -0.1296170354, -0.0130044650, 0.0233167429, 0.0950473920, -0.0858249366, -0.0355429016, 0.0109876851, -0.0533604249, -0.0048404988, 0.0524918772, -0.0122520896, -0.0554297417, -0.0111058699, 0.0156169040, 0.0053796661, 0.0237136185, -0.0815992802, -0.0190160535, 0.0522523820, -0.0650616437, -0.0375263169, -0.0576390028, -0.0310810264, -0.0807115585, 0.0263363663, 0.0580366403, 0.0222658422, 0.0157411788, 0.0070815282, -0.1199482456, -0.0216970593, -0.0516343415, -0.0066873315, 0.0209071375, 0.0428762175, -0.0959776193, 0.0539818890, 0.1168878898, 0.0460048504, 0.1013350785, 0.0485228449, 0.0687143132, -0.0362225473, -0.0021576958, -0.0076284083, 0.0531523675, -0.0690711141, -0.1100828722, -0.1171839908, 0.0251574032, 0.0945798755, 0.0272390433, 0.0709894449, -0.0444772616, 0.0615638457, 0.0115544740, 0.0515205748, 0.0054697348, 0.0230012890, 0.1332998723, 0.0674218833, -0.1180223376, -0.1416406929, 0.0394332297, -0.0488785654, -0.0216275807, 0.0329695493, -0.0970788971, -0.1729351878, 0.0144088352, 0.0596140102, 0.0427609235, 0.0767743960, 0.0001220969, -0.0726391077, -0.1150813997, 0.1221314967, 0.0792423785, 0.0802778751, 0.0233475901, -0.1056717932, 0.0163543709, -0.0002528410, 0.1121206358, 0.1476952881, -0.0705508515, -0.0908145607, 0.0390390791, 0.0533338040, 0.0001776910, -0.0005247795, 0.0150519917, 0.0637765005, -0.0133703230, 0.0433790237, 0.0266689844, -0.0634635612, 0.0347470008, 0.0032918772, -0.0018274907, -0.0332072861, 0.0092179440, 0.0618770048, 0.0478342809, -0.0561730303, 0.0688604042, -0.0660943016, -0.0142805064, 0.0466316342, -0.0074907029, -0.0150532806, -0.0043875780, -0.0849093348, -0.0026685423, -0.0368557349, -0.0178051870, -0.0146462694, -0.0778129697, -0.0551254861, 0.0979450420, 0.1218058020, -0.0552592725, -0.1043787524, 0.0394816361, 0.0174343828, -0.0235775728, 0.0068463054, -0.0925693661, 0.0455853827, 0.1053960174, 0.0554696694, 0.0728955790, 0.0131540475, 0.0255813580, 0.0927918628, -0.0621317811, -0.0557990894, 0.0573562980, 0.0373252071, 0.1114050820, 0.1625520587, -0.0248184744, -0.0707579553, -0.0872267932, 0.0708944798, 0.0080721760, -0.0190976504, -0.0166108962, -0.0932032093, 0.0492438711, 0.0742126405, -0.0859903917, -0.1700268537, -0.1069493294, 0.0467867106, 0.0199784413, -0.0747827739, -0.1393404603, -0.1192042753, -0.0238402430, -0.0403607413, -0.0161073580, -0.1143394187, 0.0437303670, -0.0578207634, 0.0501058325, 0.0024475513, 0.0200584028, -0.0206952095, -0.0028738410, -0.0330038518, 0.0399172008, -0.0024775071, 0.0287517551, -0.0293146037, -0.1435343772, -0.0242987368, 0.0463985056, -0.0730247051, -0.0188307855, 0.0235608611, 0.0457266085, 0.1280043423, 0.0264378916, -0.0247084163, -0.1118291542, -0.0015688242, -0.0556284450, 0.0038752526, 0.1034908518, -0.1341198385, 0.0212622192, 0.0005321737, -0.2097152919, -0.0218168851, 0.0141954795, 0.0672021359, 0.0477848053, 0.0968723819, 0.1009266004, 0.0340049639, -0.0567362495, 0.0655121580, -0.0582214929, 0.0115938298, 0.1558620483, -0.0242648590, -0.0894978046, -0.0831455067, -0.0506319329, -0.1931685805, 0.1056055352, 0.1285788566, -0.0094779907, -0.0888135210, 0.0843676776, 0.0622859783, 0.0206229482, -0.0274850130, -0.0628958866, 0.0868178084, -0.0387537554, -0.0189179275, 0.0631693751, 0.0187019799, -0.0469985604, 0.1247894764, 0.0534630194, 0.1137937903, 0.0501962081, 0.0025006018, 0.0524125844, 0.0980614424, 0.1301714480, 0.0181381088, 0.0385833569, -0.0235811118, -0.0588042215, 0.1938213408, -0.0029753593, 0.0157787390, 0.0283947494, 0.0514038838, 0.0221663266, -0.0028024779, 0.1282181740, -0.0122680003, 0.1179009452, 0.0511421822, 0.0252880845, 0.0178269520, 0.0807216540, -0.0117086656, -0.0443262532, -0.0300053582, 0.0426404178, -0.0728398487, 0.0058618616, -0.0204974860, 0.0785499662, -0.0313108750, -0.0498478264, 0.0629035458, 0.1279318184, -0.1248581260, 0.1140787229, 0.0198092926, 0.0052820789, -0.0893034115, 0.1686016172, -0.0709006041, -0.0573455095, 0.0192104578, -0.0941839889, -0.2096007913, -0.0197822973, -0.0135494145, 0.0750855953, -0.1595637947, -0.1035321355, 0.1472806633, -0.2051500976, -0.0731784925, 0.0267422944, 0.1707829833, 0.1623511314, 0.0065503111, 0.1901553869, 0.0674498379, -0.0370828584, 0.1055707484, -0.1771559566, 0.0290914401, -0.0936580598, -0.0379148535, -0.1703262329, -0.0525920689, -0.0997062325, -0.0918806866, -0.0486083440, -0.0435267091, -0.0138906976, 0.0226339027, 0.0730038509, -0.1387436986, -0.1306270361, 0.0747060552, 0.0052149235, -0.0401094221, -0.0285982825, 0.0414196663, 0.0044596554, 0.0234446842, 0.0747515336, 0.0768889263, -0.0265004337, -0.0514296591, -0.1487832665, -0.1339089870, 0.0718981549, 0.1310779303, 0.0440120399, 0.0116383182, 0.0262561310, -0.0234028194, -0.0850484818, 0.0880260095, -0.0025721907, -0.0911769867, -0.0877763405, 0.0808214918, 0.0592650026, -0.0104803331, 0.0273960661, 0.0373369977, 0.0333402343, 0.0898278952, -0.0653669536, -0.2150985301, -0.0271711759, 0.0396707281, 0.0293637309, -0.1687709093, 0.0083880629, 0.0452399142, -0.0118793808, -0.0392106622, 0.0565385260, -0.0867769867, 0.0810129046, -0.0443848111, 0.0690394789, 0.0492212065, -0.0831742212, 0.1924607754, 0.0778494552, 0.1340378970, 0.0068932874, 0.0126462588, 0.0616813228, 0.0724905804, 0.1339994520, -0.0315825492, 0.0349479541, -0.0499231890, -0.0861269757, 0.2296529263, 0.0040210211, 0.0079582836, 0.0593043230, 0.0552961752, 0.0706619769, -0.0025002796, 0.1736302376, 0.0214152541, 0.1389696002, 0.0556947403, 0.0333187394, 0.0052054427, 0.0547267310, -0.0309427381, -0.0444909222, -0.0783994198, 0.0966999158, 0.0259948801, 0.0578121729, 0.0409445614, 0.0205592718, -0.0507545397, -0.0733765811, 0.1480530500, -0.0144247664, -0.0659027994, -0.0286281854, 0.1189276725, 0.0142101590, -0.0098340558, 0.0079561202, 0.0355695039, 0.0707242861, -0.0124341594, -0.0393217392, -0.1889328659, -0.0191675294, 0.0431071967, -0.0158549957, -0.1571230590, 0.0253274739, 0.0862475634, -0.0714212954, -0.0576767623, 0.0342905968, -0.0703706369, 0.1018822715, -0.0623418577, 0.0319100879, -0.0086995335, -0.2189411521, -0.0247889999, -0.1113672704, 0.0554565787, 0.0637137741, -0.0364533775, 0.0495671965, -0.0412898287, -0.0495828576, 0.0037182912, 0.0274690315, -0.0710929632, 0.1239735931, -0.1287824363, -0.1498086900, -0.0660524741, 0.1390713453, -0.0236566905, 0.0595995001, 0.0334171280, -0.0717556849, 0.0183958113, 0.0164246224, -0.0566124767, -0.0832995698, 0.0972225443, -0.0280964077, 0.0529571734, 0.1330747604, 0.0347700082, 0.0849971846, 0.0693432987, 0.1064355224, -0.1834692210, -0.0445695072, -0.0223139077, -0.0170589220, 0.2379401773, 0.0171417538, -0.1186072975, -0.0192710217, -0.0258380659, 0.0301543567, -0.0224289168, -0.0609850846, 0.0350037888, 0.0324641652, 0.0512551107, -0.0968598723, -0.0928784683, 0.0332686789, 0.0528459437, -0.1043146178, -0.0499795191, 0.1822370738, 0.0323133133, -0.0808253512, 0.0287245344, 0.0792835876, 0.0874350816, 0.1305433959, 0.0307502560, 0.0572563037, -0.0219667293, 0.0606570132, -0.0995994955, -0.1077611446, -0.1022094488, 0.0663533881, 0.0671897382, -0.0473800190, -0.0200342480, -0.0456098914, -0.0202537589, -0.0818293467, -0.1066756323, -0.0610331856, -0.0588018224, -0.0251635164, 0.0313520841, -0.0681739822, -0.0415754244, -0.1751181036, 0.0048520663, -0.1224865913, -0.0015109051, 0.0797341317, -0.0392774679, 0.0350330174, -0.0228212979, -0.0153540047, 0.0614448376, -0.0576623604, -0.0048470371, 0.0239984952, 0.0868202746, 0.0158188380, -0.0278422758, -0.1221450940, 0.0607832000, 0.0545598678, -0.0329278484, -0.0577903762, -0.0028484038, -0.0858105272, 0.0546768382, -0.0214407556, 0.0490216874, 0.0222413167, -0.0003892664, 0.0061231800, 0.0766329765, 0.0424171761, -0.1394031197, 0.0506218933, -0.0484240986, -0.0061152792, -0.1539654732, 0.0878792778, 0.0073968805, 0.0608048886, -0.0236302465, 0.0087314658, -0.0817950591, 0.0756480247, -0.0487742759, 0.0477307476, -0.0248375274, 0.0183505528, 0.0720305741, -0.0675750300, 0.0943897441, -0.0592800714, 0.0799342394, 0.0007185189, -0.0414973460, 0.0188854281, 0.0206904653, -0.0006644930, 0.0424544029, 0.0124796648, 0.0025682757, -0.0476293825, -0.0091648828, 0.0139613897, 0.0556689687, 0.0249586850, -0.0412950777, 0.0003268791, -0.0031645310, -0.0019015361, 0.0146305412, -0.0009215856, -0.0032960132, -0.0090448614, 0.0635448992, -0.0863198489, 0.0277056340, 0.1584922522, 0.0330713131, -0.1019993946, 0.1087545082, -0.1962390691, -0.0774807110, -0.0043850974, -0.0726409182, -0.1369668096, -0.0540776625, -0.1265828907, -0.1240441427, -0.0608046986, -0.1129687652, -0.0450636633, 0.0256519020, 0.1083780378, -0.0282864608, -0.0878717825, -0.0029814937, -0.0909913257, 0.0464296378, -0.0567117184, -0.0651403591, -0.0118819969, 0.1137761772, 0.1133735478, 0.0684057847, 0.0201343596, -0.0087775327, -0.0119352136, -0.0082510645, -0.0242972076, 0.0227951948, -0.0053416598, 0.0749649107, 0.0215669200, 0.0186388791, -0.0413062274, 0.0927758664, 0.0369690768, -0.0509463921, 0.0588688180, -0.0590276942, 0.0416772664, 0.0127050383, 0.0088509712, -0.0344810598, -0.0678627118, 0.0197620485, 0.0326755196, -0.0218071621, 0.0223516487, 0.0031145317, 0.0081626978, 0.0327643901, -0.0071764039, -0.0427348465, -0.0906420350, 0.0354046449, 0.0348695442, 0.0293322559, -0.0660356432, -0.0046918401, 0.0633309036, -0.0481330380, 0.0889534205, -0.1525885910, -0.1132672057, -0.0629032180, 0.0021195908, 0.0718994737, -0.1036220193, 0.0425390042, 0.0713037252, -0.0580318309, 0.0503990948, 0.0560680032, -0.0686816275, 0.0414800160, -0.0877883062, -0.0144522144, 0.1129163578, 0.0239256006, 0.0476782545, -0.0894946232, 0.0474874079, 0.0664737672, 0.0736701265, -0.0738106072, 0.0213029087, 0.0690905899, 0.1509432942, 0.0233114362, -0.0383513160, -0.0754706934, 0.0171257965, -0.0739595294, 0.0304208379, 0.0501513258, -0.0498000719, 0.0138985701, -0.0677934140, 0.2075302005, -0.0212156214, -0.0594603047, 0.0217175465, -0.0744979903, 0.1789475381, 0.0657813251, -0.0714059696, -0.0592475981, -0.1074710935, 0.0146172382, 0.0617789999, 0.0320818573, 0.1272108406, -0.1048131287, 0.0989661515, 0.2164741009, -0.0480449423, -0.1207289472, -0.1101801768, 0.1891724467, 0.1675828099, 0.0610103197, -0.1233210340, -0.1519357115, 0.0396149457, 0.0941768661, 0.0813229755, 0.0417925268, -0.0167585462, -0.0018117115, 0.0690083653, -0.0369767994, 0.0254714508, -0.0211831890, 0.1048274487, -0.0462553352, 0.0368253738, -0.0700474530, 0.0882176906, -0.0750066563, 0.0147880567, 0.0679758266, -0.0547829978, -0.0212885030, -0.1341297776, 0.0754351988, 0.0211345293, -0.1687754095, -0.1276199520, -0.0914288089, -0.1652549952, -0.0542547777, 0.1144389212, -0.0274277069, -0.0065249223, 0.1050527915, 0.0743048042, -0.1422281712, 0.1454026401, -0.0324745402, 0.0026430374, -0.0400061719, -0.0072276802, 0.0808894858, 0.0041778232, -0.0033923793, 0.0799573436, -0.0893134847, -0.0074626193, 0.0761470348, -0.0658084825, 0.0419801623, -0.0579965673, -0.0863623619, 0.0319003947, 0.0655781999, -0.0192412380, 0.0320252068, -0.0737925097, 0.0312712528, 0.1418607682, 0.0729100034, -0.0939423293, -0.1108480766, 0.0028545363, -0.0272501390, -0.0604940541, 0.0092883436, 0.0868753642, 0.0788866282, 0.1935652047, -0.2015453726, -0.0314143598, 0.0067285015, 0.0741090551, 0.1455955803, 0.0041614585, -0.1515354514, -0.0413480885, 0.0383354537, -0.1061046794, -0.0907340124, -0.0558170900, -0.1458577216, -0.1312460452, 0.0194524880, 0.0025816076, -0.0022703873, 0.0508975051, -0.0110135376, -0.0611295626, -0.1156488881, 0.2354894727, -0.0763981268, -0.1504864693, 0.1702939719, 0.0428904742, 0.0765385628, 0.0473665148, 0.1583059430, 0.0280898567, -0.0914526060, 0.1172617376, -0.0821869671, -0.0710018799, -0.0508395135, 0.1171988621, -0.1087896526, -0.1055936515, 0.0814212635, -0.0492363274, 0.0101527078, -0.0907199383, 0.0363796763, -0.0302805714, -0.0049345382, 0.0460511670, 0.0265307650, 0.0704220906, 0.0499073006, 0.0002406400, -0.1036491320, -0.0575121529, 0.0437379256, 0.1476032883, 0.0945842341, -0.0603131093, -0.1272037923, -0.0220729448, -0.1482132226, -0.1102702990, -0.0024241642, -0.0348268487, 0.0109657338, 0.0254777130, 0.0184262563, 0.0015277198, -0.0143681522, -0.0798261017, 0.0560860969, -0.0357714742, -0.0375872590, -0.0093887029, 0.0059922640, 0.0508801304, 0.0076018618, 0.0104342075, -0.0149277775, 0.0226368774, -0.0038586070, -0.0392816365, -0.0160557609, -0.0077252137, -0.0274320040, -0.0182414744, -0.0260111745, -0.0201318599, 0.0191359073, -0.0247585867, -0.0221110173, 0.0842799172, -0.0072046113, 0.0182178337, -0.0394390635, 0.0237413533, -0.0436183475, -0.0340597890, 0.0112474253, 0.1088953391, -0.0248401538, -0.0011260291, 0.0240372252, 0.0138687203, 0.0196964201, 0.0344009586, -0.0307493303, 0.1162297726, 0.0117959352, 0.1476636082, 0.0276612863, -0.1217251942, 0.0264899414, 0.0473979190, -0.0744162053, -0.1141668037, -0.0425330400, 0.0774652883, 0.0334266722, -0.0020810345, -0.0712725669, -0.0790464729, -0.0664256960, -0.0481144264, -0.0422712155, 0.0158151276, -0.0112799890, 0.0913900807, 0.0278916210, 0.0566365942, 0.0850703940, -0.1621160209, 0.1117610633, -0.0811367556, 0.0257318933, -0.0823865086, -0.0545432568, 0.0064092618, 0.0021584204, 0.0827729180, 0.0269095898, -0.0149892569, -0.0486529693, 0.0004078723, -0.0346918069, -0.0256619230, 0.0411556549, 0.0216229446, -0.1391239017, -0.0091940789, -0.0337777734, -0.0288197286, -0.0108372103, 0.0278199669, -0.0078645702, 0.0013040876, 0.0679888129, -0.0537595041, -0.1363299191, 0.0044928072, 0.1934991032, 0.0290604718, -0.1370094717, -0.1587606221, 0.1811386794, 0.0895473734, -0.0623828843, 0.0451754183, -0.0904954076, -0.1375560015, 0.0219769869, -0.0037093300, -0.1119897515, 0.1690621227, -0.0224493667, -0.0609852113, 0.0577625148, 0.0896575153, -0.0072218794, -0.0001035705, 0.0473334827, -0.0567280799, -0.1336658001, 0.1483078897, -0.0261970870, -0.0551861413, -0.0326228105, -0.0819214657, -0.0154552478, 0.1305042356, 0.0477144085, -0.0182065200, -0.2371609211, -0.0025979299, 0.1413886845, -0.0004562117, -0.1518396139, -0.0525231510, 0.2932327986, -0.1458111256, -0.0832050815, -0.0040710457, -0.0144900596, -0.1278298199, 0.0378279127, -0.1862722486, 0.1544170827, 0.1518364698, -0.0290657021, -0.0092856875, -0.0767435730, -0.0259234030, 0.0990898386, -0.0858952105, 0.1050486565, 0.1026883274, -0.0591221265, 0.0170018524, -0.0716969818, 0.0888594240, 0.0686662123, -0.1032505706, 0.0519008487, -0.0251042582, 0.0603948720, 0.0771472678, 0.1165902764, -0.0204127971, 0.0470825769, -0.0503397360, 0.0069126654, -0.0704482570, 0.0561366230, -0.0289808530, 0.0434324630, -0.1494608521, 0.1485921144, -0.0309897605, -0.0080757393, -0.0895577222, 0.0431649387, 0.0906997398, 0.0261642579, 0.0218369272, -0.1000835821, -0.0287719835, -0.0809750259, 0.0866019502, -0.0484406352, 0.0295394417, -0.1268590838, 0.0202905815, -0.1697778851, -0.0039831758, -0.2178190500, 0.0536446758, -0.0862208828, -0.0822441056, -0.0267825816, -0.0377642587, -0.0261638481, 0.0975298360, 0.0865448937, 0.1183128878, -0.0381673872, 0.0034235616, -0.0203987006, 0.0948675051, -0.0422852114, -0.0006951208, 0.0278690942, -0.1517309397, -0.0008678468, -0.1073225364, -0.1235291138, -0.0283831619, -0.0222020205, -0.0262269992, -0.0112204691, -0.0773058534, 0.0026314605, 0.0013901808, -0.0013161082, 0.0430998951, 0.0302602220, -0.0683069974, 0.0263391361, 0.0564704090, -0.0369786024, 0.1021859422, 0.0255689528, 0.0827585161, -0.0597731322, -0.0185994133, 0.1178541481, 0.0110507654, -0.0412657000, 0.0783856139, -0.0541406497, 0.0429446325, 0.0587983504, -0.0679038018, -0.0232792702, -0.0145970760, -0.1372506469, -0.0076096598, -0.0575562380, 0.0149428118, 0.0421845280, -0.1376660764, -0.0600749329, 0.0800131559, 0.0925051793, -0.0771738887, -0.0420043804, 0.0730929971, 0.0393390916, -0.0090138651, -0.1437584460, 0.0416174456, -0.0633015484, -0.0493797995, -0.0393331684, -0.1629815400, -0.0494170636, -0.1029866338, 0.1902568638, -0.0180535931, 0.1049166545, 0.0698068291, -0.0804252699, -0.0223393869, 0.0275250599, -0.0137439342, -0.0135776997, -0.1896514297, -0.1677034348, 0.1066491678, -0.0971105620, 0.1203778163, 0.1697818339, -0.0226430986, -0.0124085313, 0.1468584388, 0.0104714558, -0.0292710550, 0.1113333628, 0.1130766645, 0.0813916400, 0.0686740577, 0.0586373955, 0.0389153361, -0.0460602529, -0.0324018672, -0.0100415247, 0.0180621948, 0.0134162921, 0.0206653997, 0.0039864327, -0.0053737583, 0.0603253692, 0.1309246570, -0.0700473115, -0.0637636185, 0.1103775650, 0.0533989705, 0.0185231417, -0.0204746705, -0.0993034393, 0.1147861481, -0.0272664316, 0.0110484008, 0.0258701555, -0.0379063822, -0.1324356198, 0.0835671052, 0.0931728780, -0.0077278265, -0.0897252411, 0.0471396446, 0.0725618973, 0.0429156274, -0.1135555357, -0.0107302424, 0.0850383416, 0.0306263566, 0.0309815556, 0.1325455010, -0.0709485561, -0.0715525001, -0.0205788221, 0.0626423657, 0.0249533150, -0.0883425027, -0.0344408229, 0.0487706251, 0.1595843136, -0.0183874574, -0.1035867557, -0.0791680887, 0.1132540777, 0.0816704482, -0.0987935886, -0.0088395728, -0.0290880688, -0.0292147733, 0.0486878790, -0.1418325454, -0.0931122005, 0.1071782410, 0.0040536332, -0.0903392285, -0.0455885790, -0.0397115089, -0.0018482306, -0.0646739230, -0.0625054613, -0.0235236678, -0.0346227363, 0.0782801956, -0.1312518865, -0.0208581910, 0.0590141192, 0.0382003523, 0.0452941395, -0.0872633010, 0.0062915026, 0.0416970886, 0.0687717423, 0.0282294285, 0.1125196293, -0.0485621952, 0.0317305438, 0.2669225931, -0.0772650763, -0.0247246418, 0.1037986502, 0.0253883302, -0.0408687368, -0.1158252135, 0.1135613844, 0.1546558142, 0.0136829577, -0.1183738932, 0.0987748355, 0.0968834460, -0.0179260056, -0.0193240158, -0.1531047523, -0.1398688257, -0.0250996761, -0.0671518072, 0.0658346936, 0.1576114595, 0.0491863713, 0.1255513132, 0.0057149744, 0.0177251268, -0.0169448331, 0.0284489281, 0.0115772318, 0.0381304584, 0.0986723006, -0.0024863707, 0.0580731817, -0.0788022131, -0.1531798542, -0.0326154009, -0.1150038019, 0.0009082049, 0.0639147386, -0.0844054893, 0.0567143038, -0.0551905967, 0.0482708998, -0.0312568285, -0.0147480872, -0.1529253572, -0.0402989052, 0.0884924531, 0.0222982056, -0.0288434364, 0.1377317905, 0.0690961257, 0.1277962774, 0.0305731129, -0.0076527917, 0.0506902076, 0.0474955589, 0.1197792664, 0.0075892787, 0.0283661038, 0.0012739041, -0.0507380068, 0.1908249408, 0.0490103289, -0.0026820807, 0.0175031703, 0.0406757444, 0.0278502963, 0.0145657733, 0.1200143844, 0.0221670680, 0.0996672586, 0.0358456261, 0.0591949522, -0.0388774425, 0.0276196767, -0.0262552388, -0.0397470035, 0.0465451442, 0.1032318026, -0.0789667368, 0.0938578695, 0.0142387366, 0.0440600477, -0.0950688124, -0.0838417336, 0.0222376827, 0.0453191139, 0.0027342215, -0.0666373298, -0.0745591521, -0.0436619893, -0.0791427046, -0.0332396589, 0.1550945640, -0.0117969140, -0.0401424654, 0.1862651408, -0.2897739410, 0.0646904260, 0.0175573435, 0.1142367348, -0.0225418117, -0.2076102048, 0.0524769388, 0.0509654060, -0.1064316183, 0.0208896063, 0.1062579453, 0.0517511107, 0.0669387430, 0.0536763929, 0.0112983231, -0.0517513528, -0.0717534125, 0.0271580182, -0.0024815402, 0.0650046840, -0.0573192276, 0.0094212554, -0.0580315627, -0.1500896662, -0.1250751168, -0.1313068122, 0.0400297716, -0.0331957750, 0.0760077834, 0.0925885513, 0.1833404005, 0.0837029442, -0.0034158654, -0.0413862839, 0.0703050569, -0.0146790715, 0.0287020151, 0.0133862766, 0.0809108242, 0.0338739045, -0.0388515145, -0.1079602465, -0.0419888012, -0.0575742535, 0.0246507432, 0.1007887796, -0.0290404018, -0.1129900068, 0.0062160981, -0.0534431934, 0.0170957260, -0.0477725081, 0.0815033689, -0.0671172142, -0.0467388034, 0.0680269897, 0.0061171758, 0.1021187156, 0.0266784597, 0.0361080468, 0.0892442912, -0.0809129775, 0.0973457694, -0.0011967759, -0.0158982370, -0.0591778122, -0.0500830226, 0.0532296076, -0.0790344700, -0.0741503984, -0.0998049825, 0.0375234596, -0.0354308113, 0.0315772891, -0.0619740970, 0.0609369390, -0.0774517059, 0.1076777056, 0.0612609610, -0.0507498197, 0.1464510709, 0.0612141080, 0.1268186718, 0.0468392111, 0.0189774334, 0.0880145878, 0.0938655511, 0.1046159118, -0.0094540380, 0.0004667702, -0.0139342258, -0.0652238876, 0.2316561490, 0.0223868564, 0.0359881148, 0.0622092411, 0.0294904299, 0.0711910725, -0.0291441996, 0.1691794991, -0.0144882705, 0.1070939824, 0.0554149449, 0.0486298427, -0.0392069556, 0.0343583785, -0.0384862758, -0.0721723512, 0.0287531167, 0.0619798116, -0.0854801536, -0.1624624282, 0.0310793519, -0.0681422651, 0.0483943559, -0.0104052182, 0.0776786506, -0.0669274405, 0.0067862724, 0.1207822710, 0.0194019172, 0.0443385839, 0.0430535413, 0.0399589725, 0.0782076046, -0.0545173958, 0.0044220956, 0.1117779464, -0.0548302270, -0.0479036532, -0.0205841810, 0.0289839264, -0.0922402069, -0.0060083703, -0.0727736726, 0.0160844456, -0.0325230435, 0.0128780166, -0.0313572735, 0.0885253251, 0.0109518375, 0.1356324404, -0.1169506833, -0.0016296840, -0.0788819268, 0.0496885553, -0.0378710553, 0.0863382369, -0.0033218488, 0.1530162990, 0.1546427906, -0.1785457134, -0.0138022844, 0.0449051857, -0.1462341398, 0.0954044908, 0.0191910323, -0.0142728770, 0.0154903065, 0.1844450831, -0.0486993454, 0.1325332969, 0.0607117154, 0.1619317532, 0.0582412332, -0.0477900878, 0.0052481568, 0.1859752089, -0.0108068474, -0.0900005251, 0.1147603840, 0.1795979887, 0.0473868251, -0.0853009000, 0.1158194095, -0.1401792318, -0.0349119045, 0.0593521111, 0.1950721890, -0.0342922583, 0.1523879319, 0.0167787317, -0.0064903079, -0.1045984924, -0.0473179743, -0.1175883859, 0.0356485955, 0.0840719938, 0.0352261811, 0.0497436672, 0.3088187575, 0.0520394035, -0.0908002555, 0.0237545278, 0.0413820893, -0.1939794570, -0.0588240921, 0.0017809884, 0.0719869956, -0.1649933159, 0.0798492730, 0.0240090787, -0.0325612612, 0.0257729068, 0.0062317867, -0.0587367043, 0.0730321854, 0.1100643724, -0.1843118668, -0.1073364541, 0.0074856300, -0.0210879855, -0.0689292923, -0.1420507580, -0.0555145591, -0.1016938463, 0.0006221865, 0.0050625824, -0.0328130983, -0.1459071338, -0.0085784048, -0.0556996986, -0.0675517321, 0.0295165572, 0.0347740650, -0.0496699922, -0.0192929115, -0.0278833825, -0.0880925879, -0.0354074426, -0.0739650652, 0.0687430426, 0.1608114690, -0.0297200661, -0.0491336808, 0.0971912146, 0.0880703107, 0.0463503040, 0.0520482622, 0.0130640045, -0.0435990207, -0.0389690772, 0.1156009138, 0.1107480526, -0.0719814822, -0.0795999542, 0.0940861255, 0.0081426399, 0.0662425384, 0.0994652733, 0.1364736408, -0.0298305657, 0.0587585196, -0.0480857491, 0.2016514093, 0.0368209854, -0.0472686514, -0.0325383991, -0.0950972512, -0.0790071040, -0.0486279279, -0.0891917124, -0.1195743382, 0.0585729703, 0.0105168857, 0.0441176035, -0.1043014675, -0.0666129440, 0.0212863740, -0.0263252240, -0.0227915104, -0.0548780188, -0.0721150860, 0.0230604522, 0.0424959883, -0.0887144059, 0.0574993156, -0.0360932015, -0.0480860397, -0.0031337277, 0.0091468515, -0.0085905883, 0.1490334123, 0.0056441221, -0.0462821387, -0.0255552158, 0.0703976676, 0.0706138015, 0.0656781048, 0.0002946648, -0.0615433492, -0.0653567389, -0.0500705354, -0.0010815456, -0.0425371565, 0.0027255202, 0.0120956572, -0.0012308273, -0.0161035433, 0.0132507375, 0.0272286013, 0.0754096508, -0.0540465340, -0.0596995503, -0.0826926529, -0.0674379244, 0.0730582997, 0.0579406396, -0.0087089119, -0.1758724600, -0.0729512498, -0.0901677758, -0.0915779546, -0.1682545990, 0.0132751996, -0.1107952818, 0.0187467802, 0.0780019537, 0.0105797211, 0.0584144481, 0.0343791582, -0.0375317037, 0.0361502767, -0.0087250760, 0.0496740453, -0.0027935009, 0.0153953033, -0.0409465060, 0.0943110511, -0.0789287612, -0.0622968674, 0.0330631621, -0.0906775370, -0.0268055070, 0.0266873147, -0.0949263051, -0.0042976192, 0.1379942894, -0.0005931868, -0.0814035162, 0.1559283882, 0.0433775894, 0.0170921013, 0.0105489725, -0.0974071100, 0.0310635753, 0.0806466639, 0.0076454100, -0.1058439165, -0.0726037100, 0.0087233363, 0.0524587557, 0.0095847072, 0.0378719643, -0.0000412556, -0.0269708131, -0.0383749567, 0.0199875180, -0.0012977010, 0.0168867987, -0.0537542030, -0.0041509951, 0.0024267880, -0.0109982342, -0.0233303830, 0.0893325806, -0.0484517291, 0.1154131666, 0.0110921636, -0.0273540169, -0.1536025852, 0.0302761979, 0.0497626290, 0.0223894492, -0.0362415016, 0.0146724666, -0.0822342634, 0.1147470772, 0.0172627568, -0.0195467230, 0.1013184860, -0.0914021209, -0.0062719826, -0.0066236490, -0.1441574991, -0.0628314838, 0.0065768543, 0.0239822045, 0.0087563721, 0.0141196446, 0.0355199054, -0.0032782592, -0.0544430390, 0.0518995970, 0.0259332415, 0.0015346140, -0.0851663202, 0.0097434111, 0.0043332656, -0.0518837869, 0.0443478115, 0.0418832712, -0.0497217625, -0.1035211310, 0.1054343656, 0.0228535533, 0.0267478917, -0.0709828585, -0.0262381453, 0.0683701858, 0.1058496609, -0.0199494716, -0.0473566949, -0.1497351825, 0.1453600079, 0.1331130266, -0.0423590392, 0.0322476439, 0.0210425667, 0.0834700987, 0.1549661160, -0.0011807446, 0.0169064701, -0.0136505952, 0.0322111025, -0.0125634922, -0.0406132564, -0.0386874378, -0.0714738518, -0.0035512326, -0.0063590817, 0.0828443170, -0.0298287440, -0.0454300940, -0.1336118281, 0.0487671569, 0.0441463329, -0.0268033873, -0.0344527476, 0.0398049578, -0.0104966527, -0.1305433214, -0.0247257631, -0.0449442640, -0.0248445012, -0.0160381440, -0.1415579021, 0.0156601816, -0.0098013235, 0.0221398994, 0.0048943767, -0.0222696438, -0.0660153776, -0.1617498547, -0.0339529179, -0.1279762685, -0.0099713430, 0.0133917956, 0.0826197863, 0.0282431561, 0.1312151402, 0.0287378337, -0.0494485013, 0.0180790778, -0.0548362881, -0.0352337547, -0.0295482352, 0.0263859071, -0.0300313327, -0.0713881254, 0.1100536585, 0.1708954871, -0.0778737664, -0.0837145001, 0.1284151971, 0.0849294066, 0.0321234576, -0.0186501537, -0.1221911982, 0.1003807262, -0.0035133127, 0.0112424046, 0.0378889702, -0.0115391556, -0.1282984018, 0.0446395501, 0.0222725980, -0.0251289457, -0.0787492171, 0.0260875896, 0.0707210451, 0.0002226677, 0.0167559143, -0.0915072337, 0.1791272312, 0.0711463839, 0.0562555753, -0.0999973789, 0.2364168018, -0.0270977560, 0.1219868809, 0.1082238629, -0.1452084780, -0.1642689407, 0.1526011676, -0.0925306529, -0.0649691597, -0.0114228390, 0.0267282464, -0.0011604889, 0.1891844273, -0.1426993757, -0.1718962342, 0.0630590320, 0.0083120037, -0.1480842680, -0.2098624259, -0.0459321775, 0.1335370243, -0.0274449363, 0.0566283651, 0.0918531567, 0.0173306670, 0.1984716207, 0.1696512550, 0.0171549767, 0.0395923443, 0.0769656822, -0.0318780616, -0.0933001190, -0.0035362747, 0.0877949968, -0.1572680622, -0.1489984989, 0.1856399328, 0.1051327512, 0.0601600036, -0.0665084273, 0.0251271855, 0.0069579673, 0.0016388533, 0.0054884241, 0.0254763067, 0.1426941305, -0.0046688048, -0.0087158727, -0.0268597864, 0.0063507697, -0.0750726387, 0.0448113903, 0.0888742432, 0.0281825699, -0.0162258912, -0.0140340477, -0.0341438763, -0.0603871979, -0.0223863125, -0.0199049395, 0.0186308715, -0.0346382670, 0.0392824784, -0.0294539910, 0.0138619225, -0.0336016119, 0.0597575083, -0.0168669298, 0.0244760625, 0.0243711192, -0.0124878362, -0.0149871325, -0.0068450649, 0.0136255035, -0.0308531858, -0.0127767501, -0.0133631648, 0.0146969603, -0.0139749069, -0.0119209224, 0.0255449619, 0.0345627218, -0.0235650390, 0.0066693262, 0.0075438926, -0.0119350394, 0.0277143065, 0.0664711222, 0.0255396124, -0.0194216818, 0.0360330641, 0.0759072900, -0.0055914838, -0.0177029949, 0.0088415705, 0.1448326111, -0.1457304955, -0.1271985769, 0.0625903234, 0.0989641994, 0.0400817208, -0.1122639850, -0.0701992214, 0.0752793625, 0.0217274353, -0.0290068146, 0.1313206404, 0.0249829181, 0.0143140554, 0.1039778143, -0.0766914636, -0.0169272907, 0.0589000694, 0.0612443760, 0.0345797464, -0.1467959732, -0.0316715911, 0.1156479791, -0.0226974245, 0.0124883354, 0.0230293088, 0.0880011469, 0.0486849435, -0.0048358245, 0.0355939418, -0.0042910692, -0.0351928733, -0.0689579248, 0.0263521783, -0.0694059357, -0.0648237169, -0.0582352467, -0.0953029394, -0.0672416240, 0.0435115919, 0.0228812303, 0.0728765279, 0.0066122850, -0.0429487750, 0.0135285361, 0.1404839456, 0.1361203939, 0.0410515703, -0.0248184521, -0.1030815318, -0.0179901719, -0.0825461447, -0.0187303461, -0.0278788488, 0.0201009996, -0.0553431064, -0.0692995489, -0.0032030519, 0.0216690656, -0.0200094208, -0.0477050096, -0.0815179646, -0.1388142705, -0.0228228793, 0.0490205772, 0.1147568449, 0.0281278044, 0.0753246844, 0.1322568059, 0.0673798844, -0.1363247484, 0.1113233343, -0.1354344040, -0.0280952938, 0.1688560694, 0.1224139929, 0.0480531864, 0.1136065722, 0.0368643701, -0.0680264086, -0.0000296406, 0.1620877534, -0.1379698217, 0.0536245257, 0.1645496041, 0.1834836304, 0.0754958987, 0.0960330293, -0.0799751803, 0.0574555248, 0.0821030363, -0.0572745949, 0.1294233501, -0.0357692093, -0.2187529057, 0.0044417470, 0.0663499162, 0.0774097890, -0.1229541525, -0.0014745778, -0.0192863848, -0.0014301543, -0.0314403959, -0.0348752439, -0.0273446124, -0.0016114051, 0.1419248879, 0.2001057565, 0.0220718384, -0.0851189047, 0.1676026434, -0.0025024991, 0.0979121774, 0.0778965876, 0.1352113187, 0.1151932329, 0.0142560052, 0.0821934491, -0.0637044907, 0.0479043499, -0.1716405153, -0.0136751328, 0.0297334343, -0.0184980687, 0.0387683287, 0.1551845670, -0.0593876392, 0.0459411256, -0.0294280052, 0.0556773841, 0.0869032815, -0.1491788924, -0.0044246311, 0.2434072196, 0.2042133510, 0.0022113014, -0.0326042548, -0.0605881400, 0.0819338486, 0.1167552024, -0.1499331743, 0.0901278630, -0.0022255429, -0.1050173715, -0.0116034048, 0.0236431230, 0.0270819664, -0.0993354023, -0.0523048565, 0.1194188371, 0.0263714120, 0.0306679923, -0.0579595044, 0.0886184499, 0.0054474361, -0.0221989248, 0.0123508796, -0.1910851300, -0.0543046556, -0.1185724959, -0.0469831638, -0.0458294228, 0.1467927247, 0.1245711222, -0.0423003659, -0.1012841612, 0.0118591851, -0.0969798565, -0.1041864008, 0.0479088686, -0.0474111252, 0.1299070269, -0.1623371542, -0.0042106248, -0.0578632988, -0.0019674941, -0.1065791473, -0.1247010827, -0.0566442832, 0.0428305082, -0.1675212681, 0.0510278977, -0.0100173475, 0.0418279245, 0.0161098745, 0.0290452149, -0.0746820197, 0.0075620655, 0.0307635181, -0.0462711342, -0.0795525387, 0.0351922363, 0.0222308487, 0.0303338561, 0.0471962579, 0.0417406932, -0.0227708630, 0.0633376613, 0.1340048164, -0.0485345088, -0.0449225977, 0.0531611145, 0.1075259224, -0.0227571614, 0.0123242801, -0.0952872485, 0.0777175799, -0.0559050180, 0.0345475152, 0.0631750897, 0.0206946153, -0.1355092227, 0.0983152688, 0.0867508948, 0.0167266410, -0.1115082726, 0.0159243736, 0.0766334981, 0.1063350365, -0.0660379380, 0.1017996892, -0.1758048981, 0.0581480116, 0.0068898629, -0.0377059840, -0.0488741174, 0.0551788099, 0.1470428109, 0.0142798964, 0.0904208869, 0.0533027649, -0.0743739754, -0.0239686128, 0.0746128485, -0.0162984934, 0.0858376548, -0.1170214638, -0.1268754900, 0.0719273835, -0.1146128550, -0.0464849621, 0.0702402070, -0.0081627797, -0.0684685484, -0.0178787969, 0.0588727929, -0.0159418378, -0.0013841586, 0.1008238345, 0.0295501724, -0.0774002448, 0.1216362789, 0.0017427960, 0.0137611479, -0.0252530482, -0.0240254141, 0.0562001094, 0.0494017303, -0.0091026751, 0.0478529967, -0.0538567826, 0.0473399051, 0.0404485203, -0.0570695773, -0.1034165397, 0.0476739481, 0.0256945398, -0.0029057080, 0.0560282022, 0.0040570563, -0.0125089828, 0.0536891408, -0.0752406195, 0.1262672096, -0.0660791546, 0.0477708317, 0.0206193980, 0.0601162650, 0.0250236690, -0.0776625946, 0.0585100204, 0.0022233897, -0.0541188158, -0.0700249299, 0.0153974555, 0.0365563259, -0.0247965008, 0.0131910732, 0.0399838723, -0.0051055518, 0.0646110699, -0.1094727218, 0.0362120084, 0.1350942105, -0.0182816982, -0.0593788251, -0.0017101722, -0.0850034505, 0.0887721777, -0.0729585290, -0.0219734367, 0.0158145651, 0.0483016223, -0.0542230308, 0.0787875205, -0.1266515553, 0.0026581346, 0.0604106970, -0.0442025065, -0.0322891548, 0.0981542915, 0.0049610767, 0.0060905404, -0.1155653596, -0.0340998881, -0.1237991452, -0.0167010035, -0.0672932863, -0.0967930108, 0.0716149136, 0.2146564573, -0.0342295058, -0.1999837458, 0.1444471180, 0.1954682767, -0.0237193462, 0.0603853576, -0.0291216504, -0.0482234955, 0.1315835267, 0.2048308551, -0.0118027683, 0.0453382730, -0.0203033034, 0.0154713411, -0.0272364803, 0.1301071495, 0.0145912375, -0.0553883687, 0.0083381040, -0.0779814273, -0.0673765391, 0.0959274322, -0.2283276170, -0.0211429168, -0.0092862826, 0.0385748260, -0.0553807132, -0.0353317894, -0.0877294689, -0.1241119578, 0.0550946221, -0.0256617405, 0.0751405433, 0.1341105551, 0.0253223330, -0.0258711372, -0.0712138787, 0.0171177778, 0.0279570483, -0.0511970297, 0.0024854280, 0.0929080173, 0.0747635737, 0.0138400812, 0.1154437587, -0.0745067596, -0.0740782693, 0.0426134504, -0.0918366611, -0.0860125124, 0.0205898806, -0.0670095533, -0.0041030832, -0.0962026790, 0.0560086221, -0.0403759889, -0.2371875644, -0.0943707749, -0.0550176948, 0.0496308915, 0.0617844649, -0.0533403344, 0.1448445320, 0.0837036967, 0.1532253325, 0.0214863773, 0.0117344419, 0.0542387478, 0.0807696804, 0.1183034405, 0.0168396980, 0.0450807288, -0.0348672234, -0.0514642894, 0.1694535017, -0.0010752069, 0.0158578772, 0.0644661933, 0.0336918794, 0.0414761417, 0.0096457759, 0.1090495363, -0.0215058457, 0.1239885762, 0.0523947477, 0.0119490614, -0.0219295993, 0.0540097356, -0.0191004183, -0.0449594520, -0.0793581381, 0.0653897300, -0.1048175171, -0.1250530332, 0.1869472414, 0.0379776135, 0.0409528986, -0.0151043534, 0.2254533470, -0.0264124274, -0.0232849475, 0.0703104138, 0.1658415049, 0.0212800279, -0.0586786531, 0.0789410174, -0.0151087036, -0.0451507270, -0.0387398601, -0.0876906440, -0.2015125453, 0.2373748422, -0.1492134631, -0.0862590149, -0.0105997259, -0.0974987596, 0.0028618379, -0.0068850685, -0.1540383250, -0.0236324798, -0.0119262468, -0.0688065812, -0.0634805560, 0.1067805290, -0.0263445582, -0.1575231105, -0.0191520341, 0.0405518860, 0.0546747372, -0.0115339104, -0.0128977094, -0.0286617987, 0.1183175966, 0.0083533050, -0.1605200022, -0.1815701425, 0.0387515277, 0.0128533458, 0.0494892113, 0.0309901237, 0.0699648932, 0.0804361254, 0.0917470157, 0.0188927390, 0.0306900647, -0.0051288744, 0.0283495765, -0.0418628901, 0.0316138342, -0.0126817999, 0.1154669449, 0.0566649139, 0.0476526693, -0.0695832372, -0.0238133371, 0.0758002028, -0.0058276956, -0.0447631776, -0.0056399181, -0.0147007657, -0.0301123764, -0.0583000332, 0.1753772050, -0.1467745006, -0.0361663476, 0.0441908017, 0.1159363687, 0.0873598233, 0.0296256132, -0.0891410187, 0.0200250316, 0.0017096122, 0.0664987043, -0.0087349815, -0.0520742834, 0.0064646923, -0.0849865973, -0.0355653316, -0.0236676168, -0.0543918908, -0.0779115930, -0.0266019143, 0.1223654002, 0.0813183635, -0.2332348973, 0.0599448867, -0.0472852439, 0.0695566311, 0.0963760391, -0.0806057081, 0.1703029275, 0.1217133924, 0.1762202233, 0.0137040727, 0.0489789322, 0.0848349780, 0.0995942578, 0.1757773161, 0.0140727432, 0.0190066639, -0.0307983011, -0.1038007215, 0.2426464260, 0.0050625256, 0.0336725041, 0.0023198430, 0.0162153170, 0.0711032897, -0.0155129246, 0.1865370423, 0.0242656153, 0.1270447820, 0.0376314558, 0.0530967116, -0.0375120975, 0.0571512319, -0.0125635602, -0.0709969029, 0.0149847362, 0.0233984683, -0.0263217501, -0.0648171157, -0.0104229562, -0.0139529277, 0.0445894040, -0.0572007336, 0.1712920517, -0.1287241131, -0.0479601994, 0.0239588004, 0.0848072618, -0.0024303971, 0.0443252474, -0.0553286895, 0.0109425690, 0.0324249044, -0.0166007131, -0.0318957753, 0.0207750201, -0.0407145880, -0.0455398783, -0.0669566467, -0.0036389902, -0.0178430099, -0.0462311059, -0.0725373477, 0.1117578521, 0.0852378309, -0.2132944167, -0.0027295486, 0.1825468093, -0.0299824290, -0.0447837673, -0.2059503943, 0.0819407329, 0.1965348721, 0.0067291181, -0.0304520056, 0.0736215860, 0.0626081452, 0.0773086995, 0.0593887120, 0.0931669921, -0.0513898246, 0.1382645369, 0.1477581561, -0.0043641143, 0.0710427091, -0.0091270730, 0.1136674359, 0.0915063247, 0.1433963925, 0.0643747598, -0.1308848709, 0.1048020199, 0.0779541507, -0.0428760871, 0.1026358157, -0.1420551687, 0.0954381973, -0.0633494407, 0.0465051048, 0.0908853188, 0.0733784735, -0.0195924584, 0.0536028631, 0.0280246213, 0.0619805120, 0.0364586376, -0.0595873185, 0.0413250923, -0.0871711224, 0.0200833324, -0.1146873534, -0.0475342609, 0.1541711092, -0.0540171191, 0.0049677268, -0.0050711841, -0.0000179881, 0.1082116440, 0.0016570967, -0.1268649846, -0.0624422655, -0.1261085868, 0.0096752802, 0.0508593358, 0.0264241397, -0.1288019121, -0.0573632456, 0.1006387249, 0.0780234411, 0.0886037052, -0.0820217356, -0.0356114618, 0.0364778042, 0.0104431156, -0.1301895678, -0.0407804884, 0.0625038967, 0.0891703069, 0.1487602443, -0.1017512530, -0.1565452814, 0.0360108502, -0.1203493774, -0.0433412716, 0.0329881087, -0.1109585166, 0.0143920034, -0.1710401326, -0.1114990488, 0.1072485298, -0.0455029011, 0.0577326044, -0.0373344272, -0.0531928316, 0.1020472124, -0.0035407620, -0.0162410438, -0.0228338595, 0.0351374894, -0.0649483576, -0.0162601862, -0.0371344574, -0.0548641011, 0.0039233165, 0.0344949849, -0.0083506573, -0.0238304343, -0.0515421964, 0.0458489172, 0.0522271506, 0.0754938051, -0.0676618516, -0.1149031818, -0.0086003020, -0.0530832857, 0.1313371360, -0.0420579165, 0.0716233999, -0.0134250242, 0.0311294310, -0.1175156608, 0.2312823534, 0.1051596254, 0.0667488426, -0.0123182628, -0.1151795760, -0.1177024022, -0.0578346252, 0.0133277206, -0.1658866853, -0.0312964432, 0.1000939980, -0.0896478519, -0.2412895113, -0.0059946650, 0.0042197746, 0.0339951366, -0.0148540623, -0.0432306565, 0.0005199147, -0.0116100963, 0.0524422303, -0.0758161023, 0.0316005871, 0.0063795424, 0.0704684854, 0.0453882962, -0.0302308928, -0.0213147104, -0.0155666769, 0.0141258389, -0.0566349030, 0.0047803717, 0.0127307242, -0.0245474931, 0.0173943173, -0.0243870709, -0.0273371115, -0.0444612503, -0.0514465235, -0.0296683498, 0.0144147947, -0.0345395245, -0.0176032931, 0.0380084701, 0.0380026698, -0.0624701194, -0.0595869571, 0.1222504526, -0.0303868800, -0.2238126844, -0.0167774912, -0.0139276450, 0.1963499337, 0.0621313304, 0.0212682635, -0.1281393021, 0.1000769809, -0.0308894888, -0.0500984117, -0.1178614274, 0.0296512209, 0.0209647343, -0.1103812307, -0.0718144551, 0.1637363583, 0.1297760904, 0.1209095493, -0.0067023979, -0.0362020545, 0.0601602271, 0.0525770076, -0.0280507877, 0.0161454920, -0.0113296211, 0.0208061337, -0.0491617434, 0.0286390930, -0.1177218258, -0.0523150899, 0.0325735174, 0.0914333612, -0.1083772555, 0.0189712234, 0.0925980732, 0.0375172086, -0.0690435395, 0.0871266574, 0.0442849621, 0.0081686797, 0.0095108449, -0.0911661461, 0.1035137102, -0.0296854060, 0.0712008253, -0.0295038559, -0.0136830267, 0.0074418914, 0.0733155087, -0.0416141450, -0.0412465408, -0.0508852042, 0.0306718498, 0.0109699806, -0.0143578285, -0.0120825106, 0.0620813109, -0.0749404132, 0.0160994362, -0.0504681282, 0.0047418154, 0.0087743402, 0.1438810527, -0.0234393775, 0.1630326658, -0.1122466847, 0.1179161221, -0.0945107788, 0.0751909092, 0.0358227007, 0.0545650572, -0.0800360292, -0.0515840873, -0.0658235997, 0.0435202345, -0.0097228941, -0.0054202168, 0.1037216038, -0.0562868267, -0.0014432942, 0.0570067130, -0.0718320012, 0.0480401888, -0.0483455062, -0.0324198864, 0.0178883821, -0.0178025253, -0.1224984601, -0.0278593656, -0.0672058165, 0.1471956223, 0.0427510701, 0.0578414388, -0.0787255988, 0.0614042133, 0.0620617829, 0.0375703536, -0.0288674626, 0.0087426696, -0.0504356734, 0.0346619189, 0.0839038417, -0.0158363357, 0.0554760695, 0.0588783920, -0.0484267250, 0.0105722593, -0.0508498363, -0.0501603559, 0.0278682671, -0.0032979543, 0.0197270717, 0.0614854619, -0.0531894714, 0.2302170545, -0.0922341868, 0.0246292464, 0.0655661449, -0.0846948549, -0.0625001118, -0.0058152452, -0.0053706965, 0.1054584011, 0.0353835970, 0.0827304199, -0.0704552159, 0.0260441359, -0.0047054249, -0.0459724665, 0.0531296209, 0.0269098561, 0.0616451390, 0.0951117426, 0.1149390116, -0.0310357399, -0.0112974755, 0.1171189621, 0.0097485716, 0.0296638925, 0.0333333351, 0.0098934192, 0.0049700993, 0.0042623198, -0.1653753966, -0.0291256905, -0.1021773070, 0.0541007183, -0.1175716743, 0.0010317531, -0.0605461672, -0.1471198499, 0.0305493213, -0.0927545428, -0.0116944276, 0.0541989580, -0.0334140994, 0.0418356210, 0.1212255731, 0.0202865936, -0.0022028673, -0.0144110527, -0.0745225102, 0.0476726964, 0.0252082143, -0.0742431954, -0.0372863151, -0.1634129882, 0.0878315940, 0.0482446514, -0.0525365025, -0.1302511692, 0.0159845538, 0.0101675503, 0.0145238154, 0.0510074459, -0.0083072381, 0.0012461820, 0.1691593826, -0.0998575911, 0.1695657969, -0.0318334401, -0.0188897997, 0.0024300583, 0.0058258106, 0.0308398828, -0.0441766083, 0.0672705993, -0.0624160208, -0.0931102857, 0.1271765977, 0.0883250460, 0.0572921447, 0.1902922988, 0.0084239244, 0.0630208179, 0.0661354959, 0.0178301409, -0.0120078744, -0.0773896873, -0.1940088570, -0.1412157565, 0.0226002745, 0.1722109169, -0.0536256060, -0.0144409686, 0.0674276501, -0.0771906823, 0.0577712059, -0.0023074583, -0.1306208372, -0.0680648834, -0.1263402551, 0.0212574881, -0.1171566099, -0.1160400733, -0.1568810791, -0.0825639591, 0.0835307688, 0.1285970062, 0.1501986682, 0.0390328020, 0.0877078623, 0.0130836302, 0.0129356831, 0.0372859351, -0.0650526881, 0.0043187970, -0.0609696060, 0.0232539549, -0.0770619214, -0.1759203225, 0.0505504087, -0.0327822790, 0.0961649567, -0.0655478612, -0.0672515035, -0.0269038435, -0.1044510752, 0.0312581770, 0.0575650744, -0.0017771807, 0.1179504693, 0.0425257683, 0.0851879194, 0.0135496324, 0.0327877104, -0.0024686928, 0.0314387903, -0.0291623268, -0.0029287329, 0.0635607392, -0.0444893464, -0.1175163090, 0.0105767520, -0.0237010811, 0.0100691598, -0.0530557707, 0.0062112953, 0.0216670781, 0.0261329412, -0.0257382244, 0.0430539548, 0.0080489423, -0.0183313824, 0.0109519633, -0.0039705462, -0.0431944542, -0.0329590589, 0.0134875327, -0.0282655656, -0.0056236079, 0.0019486895, -0.0111802965, -0.0041693114, -0.0283673536, -0.0150435027, 0.0387085155, -0.0022909897, 0.0369780362, 0.0109978383, -0.0134494053, 0.0019470414, 0.0293592419, 0.0110481568, -0.0028323771, -0.0562646203, -0.0339978635, -0.0538933612, -0.2163445354, 0.1091759503, 0.1607937217, -0.0871077999, -0.1063532755, 0.1118741110, 0.1602018327, -0.0257353652, -0.0358271450, -0.0544168428, -0.0316378735, -0.0207300521, 0.1556791812, 0.0460177362, 0.0405272320, -0.0101751247, 0.0346226692, -0.0974241346, 0.1483657211, -0.1187182963, -0.1055464596, 0.0636167452, -0.0436124280, -0.0342393108, 0.0465202518, -0.0671295226, 0.0094536534, -0.0618577041, -0.0145979440, -0.0441746674, 0.1160095111, 0.0228679907, 0.0368424095, -0.0197089203, 0.0148314070, 0.1115798876, -0.0406106487, -0.0182024818, -0.0508928001, 0.1746030301, 0.0339353792, -0.0447824672, 0.0457634628, -0.0048586507, -0.0725150630, -0.0591920726, 0.1083223671, 0.0337098576, -0.0152141489, 0.0214130227, 0.1082317755, -0.0944871530, 0.0133503526, -0.0506470911, -0.0107018063, 0.0282896236, -0.0559498630, 0.0683013573, 0.1017410010, 0.0456560329, -0.0326348804, 0.1133789197, 0.1097045690, -0.1122353002, 0.0369550288, -0.0500385463, 0.0890138671, 0.0051884777, -0.0172762834, -0.0544517189, 0.0401084796, 0.1550071687, -0.0084122391, -0.0393748507, 0.0818291381, 0.0201914571, 0.0228939652, 0.0163276624, -0.0570588633, 0.0608608648, 0.1764038801, 0.1620237976, 0.0293644127, 0.0049449336, -0.0713807568, 0.1353293359, 0.0882210732, -0.1996821314, 0.1315431595, 0.1547538191, 0.0612739697, -0.0331757963, -0.0659703389, -0.1140256450, 0.0653451756, 0.0235644579, 0.0658305511, 0.0746001899, -0.0294722747, -0.0588588454, -0.0180113334, -0.0053603612, -0.1549348235, 0.0826480463, -0.1217543632, 0.0258331262, 0.1096233428, -0.2121182084, 0.1134706140, -0.1068285182, -0.1587803364, 0.1939401031, 0.1702352762, 0.1270390004, 0.0149571933, -0.1006996855, 0.1268387735, 0.0531678759, -0.1782097667, -0.0440974757, 0.1089537367, -0.0189892761, -0.0594719164, 0.0310001913, -0.1046498567, 0.0562223457, 0.0024442484, -0.0088563887, 0.0911473110, 0.0784399733, 0.0776779801, -0.0658897087, -0.0447298177, 0.1309463233, -0.1236102730, 0.0397524647, -0.0969729647, 0.1391529888, -0.0524236597, -0.0098069860, 0.0835810751, -0.0898497105, -0.1519939303, 0.1082047001, 0.0893756002, -0.0029029772, 0.1605872512, 0.1018457860, -0.0510224104, -0.0476193354, -0.0297849681, -0.0094277449, -0.0898886323, 0.0240560398, 0.1440220624, 0.0871376470, -0.0566387400, -0.0675193369, 0.1015207842, -0.0627164990, -0.2496781498, 0.0162702482, 0.0589540824, 0.0318591930, 0.0330893286, 0.1513214260, -0.0988571718, -0.0832868218, 0.1008256525, -0.0026833666, -0.0827911943, 0.1681926548, -0.0153672043, 0.0244679805, -0.1334271580, 0.0173239149, -0.0100819198, -0.0506353751, 0.0079152165, -0.1979981065, -0.0822543949, 0.0514807403, -0.1378465146, -0.0838923976, -0.0296660326, -0.0051653585, -0.0551155172, -0.1304160208, -0.0918605849, 0.0655085146, -0.0383091234, -0.0233805552, 0.0031160899, -0.0581781231, 0.0719038174, 0.0615848601, -0.0626817346, 0.0727570206, -0.0427297279, -0.0094660865, 0.1043911427, -0.0883202031, 0.0082504544, -0.0198457167, -0.0115976790, -0.0026341728, 0.0357566141, -0.0728421956, -0.0719967932, 0.0641743988, -0.0873641521, 0.0690605864, -0.0749545842, 0.0219274573, -0.0142412111, 0.0649200156, -0.0227235574, -0.0389473438, 0.0579296201, -0.0249441881, -0.0150315389, -0.0341477022, 0.0739063546, -0.0335629135, 0.0172941238, -0.0414816663, 0.0657492131, -0.0352313444, -0.0000537561, 0.0569252223, 0.0180830788, -0.0881781951, 0.0791110843, 0.0126675209, -0.0218283739, 0.0838668644, 0.0400962718, 0.0667944625, -0.0928547978, 0.0842821971, 0.0884592682, -0.0742416456, 0.0935935751, -0.0393891856, -0.0902439505, -0.0301546715, 0.0203264821, -0.1430278271, 0.0654527321, -0.1450726539, -0.0066205435, -0.0215793718, 0.0178699661, -0.0069102780, 0.0563915037, 0.0623878241, 0.0607867949, -0.0313255303, -0.0202107560, 0.0493789837, 0.0611482076, 0.0405542217, -0.0358957462, -0.0812720656, -0.0473759323, 0.1077617258, -0.0691152960, -0.0220089462, -0.0203312598, -0.0295281336, -0.0230831057, -0.0198908504, -0.0416230075, 0.0658658668, 0.0164079741, 0.0275391210, -0.1194067150, -0.0112954490, -0.0003388256, -0.0344619937, -0.0765130594, 0.0779059529, -0.1027157456, -0.0418670215, -0.1000166535, -0.0726594627, 0.0250878632, 0.0432434008, 0.0556291230, -0.0369959399, 0.1179611683, -0.0910393298, 0.0053945919, 0.0048691370, 0.0967665762, 0.0925315470, -0.0120401094, -0.0147735858, 0.0814268440, -0.0235258304, -0.0248875432, -0.0142978849, -0.0401686132, 0.0827640221, 0.0420468114, -0.0704991743, 0.0435619429, -0.0867404193, -0.0613200143, 0.0393650755, 0.0065274565, 0.0392002426, -0.0869128183, 0.0333156288, 0.0353510678, -0.0694421530, 0.0208134167, -0.1263020337, -0.0069431383, -0.0091878166, -0.0295662265, -0.0076571056, 0.1450830400, -0.2100220621, -0.0893312320, -0.0352240242, 0.0032873587, 0.0946570933, -0.0183756184, -0.1076537669, 0.0050895456, -0.1220233813, 0.0762892365, 0.0589414053, 0.0412199050, -0.0071993340, 0.0582669750, -0.0716215670, 0.0606572330, 0.1553383619, -0.0042288550, -0.0333169177, 0.0442086607, 0.0183988791, 0.0020422540, -0.0304177329, -0.0698290244, 0.0588719361, -0.0315729231, -0.0612682551, -0.0708155930, -0.1105993167, -0.1013458967, 0.1016000360, -0.0670565963, -0.1076786593, -0.0869679973, 0.0383443423, -0.0522561409, 0.0206147432, 0.1163387224, 0.0203753654, -0.1375147551, -0.0085260244, 0.1841466278, -0.0812108442, 0.0535822809, -0.0048809107, 0.0545544326, 0.2247670442, 0.0415481590, -0.0258101467, 0.0522083305, 0.1067095920, 0.1362996399, 0.0059709959, 0.0407938026, 0.0241939295, -0.0013580103, -0.1229554117, -0.2456650138, -0.0109503893, 0.0590662770, 0.0255868193, -0.0417250432, 0.1150319427, 0.0761947557, 0.1570446044, 0.0520236455, 0.0393649824, 0.0135208238, 0.0516703650, 0.1484948248, 0.0212585647, 0.0312151629, -0.0425294004, -0.0690962151, 0.1732449532, 0.0005993517, 0.0292295311, 0.0534274317, 0.0365721695, 0.0392880812, 0.0138317952, 0.1089970395, 0.0242531579, 0.1080089584, 0.0339146368, 0.0457397848, -0.0203762781, 0.0391381867, -0.0228425823, -0.0314039066, -0.0449829139, 0.0018165722, 0.0558079183, 0.0143813556, -0.0845324099, -0.0348778963, 0.0638015568, -0.0962845162, -0.1294702441, -0.0259567667, 0.1532141864, 0.0945566595, 0.0930312276, 0.0664514154, -0.0524415709, 0.0191797279, 0.0762599558, -0.0289240573, -0.0043499777, 0.0877167732, -0.0394943804, 0.0424304716, -0.0615544245, 0.0680753589, -0.2186316997, 0.0355946422, -0.0162148811, 0.0094782477, -0.0834187493, -0.1080595106, -0.0549298860, 0.0143849580, -0.0252902843, 0.0682371557, 0.0230162926, -0.1981091052, -0.0873122439, 0.0231855512, -0.0360250361, 0.1559530646, 0.0220558997, -0.0395262018, 0.0824498832, 0.0766639411, -0.1949516535, -0.1952669770, -0.0112726074, 0.0156016666, 0.1297746748, 0.1040849090, -0.0329773091, 0.0287746117, 0.1345285922, -0.0585225001, 0.0702024773, -0.0633488819, 0.0988448262, 0.0188572556, 0.1564318240, -0.1927407533, 0.1220298409, 0.0335527286, 0.1066778675, -0.0983000919, -0.0856926143, -0.0026448274, -0.0429693349, 0.0012452343, -0.0001976645, -0.0060117077, -0.0761786476, -0.0510641411, 0.0319196060, 0.0178954713, 0.0829949751, 0.0264908988, 0.0769558176, 0.0552194268, -0.0624080375, 0.0972612798, -0.0032585701, -0.0746426731, 0.1634430438, 0.0703755543, -0.0275469422, -0.0643810257, -0.1351544857, 0.0800259113, -0.0164678227, 0.0426009819, -0.1409735084, -0.0060108728, -0.0021076819, 0.0094175925, -0.2673715353, 0.0011947809, -0.0345327817, 0.0860432535, 0.0992606655, -0.0843257606, 0.1488567442, 0.1071221754, 0.1882292628, -0.0006499694, -0.0081392070, 0.0454652794, 0.0895979106, 0.1397042871, 0.0073090601, 0.0100019248, -0.0349424891, -0.0740931332, 0.1928643435, 0.0156781338, -0.0025675888, 0.0600887612, 0.0346532948, 0.0171597879, 0.0096262442, 0.1801854223, -0.0113821691, 0.1220744923, 0.0502490699, 0.0637071505, 0.0087660765, 0.0536481515, -0.0018012612, -0.0741058290, -0.1078046635, 0.0383710377, -0.0607484803, 0.0577561222, -0.0155908493, 0.0141813019, -0.0566075668, -0.0186189301, 0.0152203804, -0.0390680768, 0.0888433456, 0.0115447594, 0.0663252920, 0.0370640457, -0.1234079003, 0.0593534298, -0.0131603023, -0.0624305196, 0.0864495635, 0.0398490392, 0.0445708856, -0.0642115101, -0.0608015321, 0.0338281468, -0.0136229387, -0.0006623448, -0.1062715799, -0.0646830648, -0.0069746710, 0.0446172915, -0.2624157071, -0.0345170498, -0.0019295402, -0.1292146295, -0.1485372037, 0.1517257690, 0.0394330285, -0.1906546652, -0.1238840967, 0.0051027425, -0.0355746187, -0.0957412571, 0.1204331368, -0.0077836071, -0.0539218970, -0.0378819183, -0.3088393807, 0.0291089825, 0.0137939565, 0.0145859644, 0.0644833297, 0.0908479691, 0.0657197833, -0.1257283092, 0.1189891174, 0.0996927693, -0.0761351362, -0.0250020009, -0.0171611793, -0.0668972954, -0.0381590724, -0.0384032987, -0.0911104009, -0.1088554487, -0.0140010063, 0.0834154338, -0.0612836257, -0.0958635882, 0.0079496466, 0.0130906645, -0.0492369793, -0.0613699295, 0.1739242673, -0.0234812554, -0.0336349979, 0.0538351350, 0.0220796093, 0.0883410498, 0.0124466261, 0.0407396555, -0.1210218817, -0.0543044508, 0.0537319295, 0.0269743558, -0.0020437581, -0.0065343860, -0.2378827184, 0.0906166136, 0.0829611868, 0.0129884453, -0.0511367805, -0.1365544796, -0.0859572068, 0.0972889140, -0.0220481306, -0.0671918914, -0.1895222068, 0.0346740969, 0.1697164625, -0.0958995372, 0.0043520462, -0.0328249112, -0.0281241648, -0.0109621556, 0.0285178367, 0.0751886666, -0.0444586352, -0.0906254500, -0.0637222156, 0.2019399852, -0.0866722539, 0.0317668431, -0.1781309396, -0.0277126692, 0.0629633963, -0.0837520584, -0.0458396524, -0.0059172530, 0.0079396106, 0.0931342915, -0.0527726859, -0.0455071218, -0.0090630213, 0.1332365721, -0.1112404838, -0.1089059412, 0.0182020552, 0.0665748641, 0.0141206998, -0.0858049914, 0.0462250151, 0.1029568017, 0.0050983829, -0.0579130650, -0.1406570673, -0.0511406623, -0.0553445071, -0.0081921332, 0.0562727563, -0.0022758956, 0.1046470776, 0.0033331872, 0.0522703193, 0.0192718599, -0.0196169913, -0.0162074789, 0.1631450504, 0.1577206999, 0.1374557167, -0.0131973373, -0.1391554326, -0.0445613191, -0.0538954213, 0.0787002668, -0.1394833922, -0.0365901068, 0.0297500063, 0.0575899631, -0.1719619632, -0.0135071399, -0.0350207947, 0.0044875965, 0.0984303206, -0.0180646032, -0.0392445549, -0.0219578817, 0.0199798830, 0.0004386482, 0.0212829039, 0.0285307094, 0.0406673811, 0.0314310975, 0.0506468825, -0.0109510636, -0.0262141861, -0.0650770590, -0.0497845523, -0.0480685011, -0.0234296024, -0.0440745428, 0.0392583944, 0.0041059554, -0.0346530005, -0.0547311790, -0.0504106469, -0.0424915180, -0.0094656758, -0.0236408282, 0.0770046115, 0.0103201168, 0.0347706340, -0.0305269528, -0.0414653271, 0.0749767721, 0.1199612767, -0.2392532080, -0.0579954088, -0.0045899367, 0.1604454368, 0.0720249712, 0.0294800736, -0.1032787189, -0.0465382375, 0.0132718077, -0.0446952283, -0.0455242991, -0.0287524145, 0.0781445131, 0.0692381859, -0.0032864497, 0.0330416560, 0.0571871586, 0.0755973011, -0.0680825859, 0.0458069369, 0.0497222319, 0.0266449600, 0.0148403291, 0.1500285268, -0.0683066770, -0.0090379184, -0.0311230365, 0.0032295156, 0.0289472062, -0.1004108787, 0.0236596502, 0.0397999175, -0.0668108314, -0.0196681414, 0.1050509289, 0.1124424189, 0.0034990415, 0.0802443773, 0.0966232494, -0.0276459735, 0.0183031578, -0.0105174985, 0.0103077842, 0.0104228035, 0.0735156462, -0.0245728567, -0.0473959707, 0.0807356611, -0.0112477718, -0.0181128979, 0.0062584714, -0.0594447963, -0.0195257850, -0.0212495811, 0.0501185767, 0.0128837805, -0.0317908116, -0.0016547572, -0.0347545743, -0.0468261614, -0.0222839769, -0.0265409350, 0.1250890046, -0.0036517116, 0.1130598411, 0.0543205105, 0.1202891693, -0.2266708016, -0.0010159042, -0.0623600967, 0.0211635157, -0.0470714495, -0.0468977131, -0.1499715149, 0.2328267395, -0.0793408751, 0.0464093760, 0.0146124754, 0.0468057469, 0.0414048135, -0.0962761715, -0.1710436493, 0.0402124971, 0.0045003556, -0.0043251165, 0.1248129979, 0.1293287873, -0.0941029415, -0.0065598744, -0.0001002806, 0.1721378267, 0.0919416696, -0.0142945098, -0.0180343781, 0.0490152612, -0.0235954188, -0.0234802607, 0.0166806001, 0.1975945085, -0.0733976886, 0.0175864901, 0.0244471114, 0.0645894036, 0.0520221293, 0.0217772052, -0.1109493077, 0.1272662133, -0.0262641888, 0.0205113329, 0.0065201465, 0.0313357413, 0.0326901153, -0.0545770116, -0.1583075672, 0.1671145558, -0.0479383208, -0.0022132103, 0.1875091493, 0.0796106383, -0.0359775461, -0.0059614810, 0.0361093134, 0.0813366845, 0.0505777411, -0.1143368334, -0.1209962219, 0.0220230296, -0.0402122848, -0.0218621660, -0.0488081723, -0.0175009556, 0.0496278703, 0.0539186262, 0.0154937916, 0.0420341641, 0.1276194453, 0.0669326782, -0.0273943655, 0.0107655954, 0.0745203644, 0.0330825485, 0.0998733044, -0.0322771296, -0.0143421767, 0.0059432047, 0.0112259239, -0.0444828235, -0.1382075101, -0.0144788958, -0.1187906191, -0.0037439123, -0.0732095465, -0.0957098603, -0.1029075608, 0.0606823303, -0.0453023762, 0.0406869650, -0.0400434397, 0.1067604050, 0.0388657749, 0.1076306403, -0.0337077044, -0.0645057634, 0.0110210236, 0.0282319933, 0.0334602110, -0.0725738257, -0.1433901340, -0.0600372776, 0.1144164652, -0.0322747044, 0.0092223277, -0.0069806408, -0.0527214743, 0.0071736607, 0.0405703820, -0.0236668009, 0.0486437753, -0.0093494076, 0.0583706498, -0.1290524006, -0.0926233754, -0.0751955584, -0.0580141991, -0.1078868434, 0.0784484744, -0.1382809728, -0.0685622543, -0.1592953056, 0.0319316834, 0.0280921087, -0.1139976457, -0.0278091133, 0.0132412668, 0.0115258619, -0.0431953743, -0.0417627059, 0.1767328084, -0.1589755863, -0.1383859664, 0.0052347672, -0.0440094285, 0.1003178358, -0.0124386316, -0.0668743327, -0.1366636753, -0.1398214996, -0.0205399729, -0.0497949123, 0.0121568004, -0.0414138809, -0.1760209650, 0.1126825511, 0.0475063920, -0.0678182393, -0.1342426986, 0.0309419148, -0.0592831112, 0.0972073004, 0.0739357546, -0.0600961968, -0.0055096447, 0.1323967874, -0.0073545589, 0.1591090709, -0.0590122752, -0.0840129852, -0.1313326657, 0.0775761679, -0.0605038255, -0.0530961864, -0.0590806268, -0.1493583024, 0.1448519826, 0.0288374051, -0.0722624063, -0.0020690765, -0.0940291807, 0.0714336410, 0.0526118353, 0.0059845257, -0.0416721553, 0.0482862405, -0.0115264868, -0.1298025548, -0.0738494471, -0.0783084482, -0.0094673093, -0.0408929586, 0.0527421571, -0.0675745308, -0.0963517502, -0.0810174420, -0.0294999536, -0.0067592594, 0.0088699544, -0.0308535285, 0.0215148702, 0.0232645590, 0.0423023924, -0.0272114631, 0.0184119865, 