//Numpy array shape [32, 10]
//Min -1.817382812500
//Max 0.947265625000
//Number of zeros 0

#ifndef W9_H_
#define W9_H_

#ifndef __SYNTHESIS__
model_default_t w9[320];
#else
model_default_t w9[320] = {-0.0807495117, -0.4187011719, -0.0320739746, -0.0150451660, -0.0584411621, 0.1151123047, 0.1987304688, -0.0703125000, 0.1280517578, -0.3701171875, -0.2724609375, 0.1341552734, 0.3479003906, 0.3457031250, -0.4082031250, -0.2498779297, -0.5458984375, 0.1612548828, 0.0891723633, -0.2971191406, -0.2609863281, 0.2775878906, 0.0030193329, -0.0097427368, 0.6845703125, -0.2502441406, -0.5991210938, 0.3957519531, -0.2539062500, -0.6850585938, -0.0331115723, -0.1394042969, 0.4396972656, 0.2150878906, -0.4750976562, -0.4169921875, -0.8330078125, 0.2790527344, -0.0718383789, -0.0377502441, -0.4729003906, 0.3273925781, 0.1583251953, -0.1334228516, -0.1375732422, -0.2136230469, -0.2449951172, 0.9472656250, -0.6157226562, -0.1418457031, -0.0178833008, 0.0226135254, -0.2631835938, -0.1734619141, 0.1917724609, 0.0541381836, 0.9082031250, -0.4106445312, -0.3933105469, -0.0467224121, 0.2561035156, -0.0412597656, -0.5292968750, -0.7978515625, -0.0551452637, 0.1352539062, 0.3981933594, -0.7626953125, 0.0479125977, 0.5244140625, -0.3269042969, 0.0651855469, 0.1867675781, 0.7207031250, -0.7148437500, 0.1737060547, -0.3557128906, 0.0662841797, 0.2320556641, -0.4423828125, -0.0737915039, -0.2202148438, -0.3337402344, 0.1262207031, -0.0571289062, 0.2258300781, 0.1049194336, -0.1768798828, 0.4699707031, -0.2204589844, -0.0281219482, -0.8002929688, -0.5732421875, -0.3728027344, -0.8955078125, 0.9067382812, 0.1636962891, 0.0110015869, 0.2006835938, -0.0317077637, 0.2038574219, -0.0596313477, 0.4396972656, 0.3774414062, -0.5322265625, -0.7421875000, -0.9877929688, 0.1673583984, -0.0227813721, 0.4587402344, 0.4162597656, 0.0757446289, 0.0027332306, -0.4619140625, -0.2919921875, -0.0253295898, 0.0036849976, 0.6806640625, -0.6254882812, 0.3825683594, 0.4726562500, 0.5942382812, -0.4643554688, -0.8037109375, -0.9091796875, 0.7368164062, 0.2030029297, -0.3989257812, -0.7055664062, -0.2878417969, -0.0013637543, 0.6630859375, 0.0809326172, -0.3132324219, -0.0439758301, -0.0932617188, 0.6923828125, 0.3344726562, -0.6684570312, -0.0243988037, -0.4602050781, 0.4633789062, -0.1607666016, 0.0758056641, 0.6826171875, -0.3879394531, -0.2342529297, 0.2998046875, -0.1477050781, -0.5800781250, 0.1170043945, -0.1206054688, 0.2205810547, -0.1776123047, -0.0173492432, -0.7607421875, -0.7275390625, -0.0467224121, -0.1152954102, 0.3737792969, 0.2785644531, -0.1593017578, -0.0304565430, 0.1965332031, -0.2349853516, -0.1065673828, 0.2406005859, -0.8686523438, 0.1983642578, -0.0993041992, -0.9555664062, -0.3000488281, -0.2318115234, 0.0751953125, 0.6206054688, 0.2687988281, -0.4067382812, 0.2343750000, -0.2875976562, 0.8105468750, 0.0330810547, -0.0265045166, -0.6611328125, -0.3623046875, -0.6132812500, 0.3693847656, -0.5683593750, -0.4802246094, 0.1149291992, -0.3081054688, -1.4375000000, 0.2500000000, 0.3295898438, 0.4304199219, -0.8408203125, 0.0894775391, -1.8173828125, 0.2312011719, -0.9633789062, -0.8129882812, -0.3815917969, -0.0397033691, -0.4113769531, 0.0941162109, 0.3774414062, -0.1400146484, -1.4560546875, 0.0722045898, -0.2088623047, 0.3051757812, -0.5322265625, 0.6381835938, 0.2619628906, 0.1859130859, -0.5932617188, -0.1003417969, 0.6245117188, 0.2954101562, -0.3266601562, -0.8061523438, 0.0997314453, -0.3020019531, 0.1865234375, -0.6401367188, -0.1060180664, -0.4799804688, 0.2556152344, 0.2585449219, -0.0881958008, -0.3635253906, -0.6909179688, 0.0187072754, -0.6630859375, -0.2834472656, 0.1484375000, -0.2263183594, -0.1508789062, 0.0236511230, 0.1506347656, 0.2210693359, 0.5639648438, -0.5444335938, 0.8740234375, -0.5786132812, 0.3178710938, -0.3688964844, 0.6132812500, -0.0491027832, -0.1317138672, -0.5151367188, 0.0606689453, -0.0347595215, -0.0376281738, -0.0479125977, 0.3952636719, -0.3767089844, 0.0855712891, -0.1104125977, 0.1051635742, -0.2291259766, -0.9282226562, -0.2402343750, -0.6049804688, 0.3188476562, -0.9404296875, 0.5932617188, 0.1123046875, -1.3125000000, 0.0606079102, -0.5893554688, 0.5410156250, 0.4233398438, -0.0680541992, -0.1150512695, -0.4462890625, 0.4326171875, -0.2080078125, 0.1137084961, -0.9716796875, 0.1309814453, -0.3671875000, 0.3405761719, -0.4069824219, -0.0226440430, 0.1568603516, 0.1818847656, -0.2629394531, 0.1391601562, 0.2563476562, 0.1381835938, 0.0554199219, 0.7680664062, -0.2132568359, -0.3334960938, -0.2565917969, -0.3981933594, -1.0791015625, -0.5205078125, -0.3520507812, 0.4538574219, 0.3317871094, -0.1763916016, -0.3920898438, -0.4665527344, 0.5180664062, -0.1842041016, -0.2695312500, 0.5844726562, -0.3120117188, 0.6064453125, 0.3110351562, -0.3535156250, -0.5048828125, -0.1628417969, 0.0127334595, -0.0079803467, -0.3950195312, -0.0941162109, -0.8867187500, 0.0728149414};
#endif

#endif
