//Numpy array shape [4, 4, 1, 4]
//Min -1.181328773499
//Max 1.308341979980
//Number of zeros 0

#ifndef W2_H_
#define W2_H_

#ifndef __SYNTHESIS__
conv2d_weight_t w2[64];
#else
conv2d_weight_t w2[64] = {0.1436336637, -0.5772849917, 0.8979247808, 1.0783214569, 0.4009606242, -0.7251170874, 1.1145948172, 0.4480110705, 0.7317537069, -0.0417791568, 0.8637605906, -0.6995645165, 0.6480517983, 1.3083419800, 0.8302435279, -0.8106682897, 0.5126437545, -0.7424302101, -0.0195712820, 0.6003442407, 0.7848371267, -0.5077659488, 0.4403255284, 0.6470414400, 0.6397520304, 0.7225489020, 0.5744725466, 0.1550284177, -0.0686703622, 0.7919347882, 0.6573033929, -0.5690735579, 0.4761313200, -0.9796273708, -1.1813287735, -0.1842161566, 0.4818195999, 0.1868303865, -0.6686070561, 0.6009323001, -0.1585060507, 0.5002222657, -0.4412056506, 0.6908428073, -1.1390976906, 0.2987736464, 0.3587092459, 0.8268977404, 0.1270852387, -0.2931739390, -0.9286242723, -0.2630935609, -0.4548794329, 0.6443918943, -0.7107247114, 0.0728091300, -1.0250259638, 0.6049755216, -0.7898216248, 0.3056938946, -0.5816351771, 0.2001399249, -0.1648343951, 0.7430734038};
#endif

#endif
