//Numpy array shape [144, 12]
//Min -1.196206450462
//Max 0.724060237408
//Number of zeros 0

#ifndef W6_H_
#define W6_H_

#ifndef __SYNTHESIS__
dense_weight_t w6[1728];
#else
dense_weight_t w6[1728] = {0.0603500307, -0.2233611792, -0.2825205922, 0.0872036368, -0.2870917320, -0.0002724918, -0.1535689235, -0.1054223999, -0.2686960697, 0.0048933183, -0.1575124860, -0.0651936010, -0.2495345324, -0.1011719555, -0.0248313695, 0.0143675581, -0.5104069710, 0.0226546377, 0.0338227488, -0.0059294342, -0.1354710013, -0.1407782435, -0.1986428946, -0.0801894590, -0.1559631526, -0.0476534665, -0.2107500285, -0.0085402699, -0.1706575900, -0.0588650852, -0.1610152274, -0.1783594340, -0.1444609612, 0.0061427173, -0.0995189846, 0.0914480686, -0.1678179055, 0.1440234780, -0.0791350454, 0.4329271317, -0.0720884576, -0.1686866879, 0.0140727079, 0.4932543039, -0.1573716700, -0.1747371852, 0.0824396834, 0.0114618316, -0.2553356588, 0.1184991673, -0.0078901863, 0.0521955527, -0.1501159370, 0.1756639481, -0.2094375491, 0.0699255764, 0.0075467899, 0.1279271245, -0.1335007101, -0.0349076614, -0.1656776071, -0.1242968142, 0.0439382792, -0.2022935003, -0.3015139997, 0.2470051497, 0.0082540652, 0.0355560929, -0.1137402058, 0.0927892849, 0.0464120619, 0.2490739524, -0.3224637806, 0.2997582853, -0.1554210931, -0.0180178490, -0.1689752936, 0.5066953301, -0.0840208009, 0.0664132461, 0.1272419691, 0.2034224719, -0.3502058089, -0.2211374342, -0.5533898473, -0.0658898577, -0.4885911345, -0.6248068810, -0.0180178583, 0.2909834683, -0.0525682010, -0.1895487905, 0.1522688866, 0.2205142677, -0.1144565716, 0.0094933873, -0.4359033406, 0.1664157957, 0.2141658217, 0.0287318472, -0.1652912349, 0.2240585238, 0.0637592971, -0.0248852093, 0.0920762792, 0.0439325459, -0.1106979698, 0.3664497733, -0.1957644671, 0.2817666829, -0.2036375552, -0.0793253928, 0.1608742923, 0.1191813797, -0.0210912675, -0.0347169265, -0.0701507479, 0.1288163066, -0.0816000029, 0.1852298975, -0.1114225835, -0.0044213589, 0.1291252077, 0.0020600350, -0.1046091244, -0.0918215141, -0.0388580300, 0.1036262661, 0.1065672711, -0.1587943882, 0.3460841775, 0.2917493880, 0.0627977252, -0.2678709626, 0.0615715683, 0.1772114038, 0.0780983642, -0.3485236466, -0.1662314832, -0.1133169159, 0.0393287577, -0.0013050584, -0.0931647718, -0.0529404990, 0.5930681229, 0.0083908709, 0.2164668143, -0.0968474299, 0.0671857521, -0.0869549811, -0.0791886225, -0.1146452576, -0.0993890092, 0.1453494579, -0.0245107859, 0.2794222236, 0.2679981291, 0.0994171724, -0.3637944162, 0.0372560062, 0.1267635226, 0.1493591815, -0.2389134020, 0.0738445595, 0.1350333393, 0.1623697728, -0.1970727593, 0.1078450456, 0.5061594248, -0.0886724591, -0.1330189705, -0.1127182841, -0.2178366631, -0.0172289237, -0.0164493117, 0.1452431679, -0.6409151554, -0.2310116738, -0.0155820306, -0.1702314615, -0.2044598162, 0.1838856488, -0.3758260906, 0.1149981692, 0.2351442277, 0.1027137786, -0.5927735567, -0.2692390680, 0.1326145381, -0.0961256325, -0.3888433278, -0.1629519314, 0.0632231534, -0.0211995803, -0.2536361516, -0.1508918554, -0.0263995267, -0.0803754628, -0.0508825816, -0.3264337182, -0.5055943131, 0.0968529657, 0.0721932128, -0.0429057740, 0.3177682757, 0.0921216011, 0.1098551229, 0.1652338952, 0.0324077457, -0.0324573033, -0.4826942682, -0.2041084915, -0.0090168277, -0.4051360786, -0.1569274813, -0.0848050788, 0.5240876079, -0.4207907319, -0.1500379741, -0.5151160359, 0.2568677366, -0.1070826203, -0.1645573676, 0.0148386685, -0.4153609872, 0.1812438071, 0.0397914685, -0.3274787664, 0.3205251098, 0.0845578834, 0.0549103320, -0.0129409786, -0.1207391396, -0.3810413480, -0.5065327287, -0.4251985848, 0.1009880453, -0.0317736156, -0.0386710614, -0.1406504512, 0.2882692218, -0.1464548260, -0.2714141011, 0.1593589634, 0.0242658500, 0.1397814155, -0.0516682677, -0.0023026778, -0.1379482001, 0.4204740524, -0.1765301377, -0.3819777966, 0.2362385988, -0.4745680690, 0.0035846913, 0.4315705597, -0.3152448237, -0.1108431146, -0.1067869663, -0.1758232266, 0.2268100232, -0.1281256378, 0.1807787120, 0.2848688364, 0.3355664909, 0.2039417773, 0.2214642167, 0.1835151017, 0.3907855451, 0.1754976958, -0.1633346230, -0.0397989564, -0.1092137620, 0.0569064282, 0.1027483270, -0.1958697885, -0.0607878342, 0.1830682606, 0.0281511508, 0.0460669957, 0.1675541699, -0.1860259622, 0.3280152380, 0.1570716798, -0.0481201746, 0.0110360673, 0.0359793603, -0.0980280712, -0.1317359209, 0.0757416412, -0.2807289660, -0.2441233695, 0.1729096770, -0.1020372137, 0.0926138163, -0.0654397532, 0.0032368754, -0.3197034597, 0.2408650666, 0.2827399969, -0.3161957264, -0.2094355971, 0.2548308671, 0.1798528433, -0.2849309742, -0.4161841273, 0.2166560739, 0.3050509095, 0.0343144834, -0.2753689885, 0.0522850007, 0.1396784931, 0.2883615196, -0.0672914982, -0.1222694293, 0.1643918455, 0.0349135213, 0.0564465933, 0.2074086070, -0.0466034114, 0.0667719319, -0.0629035756, 0.0199012365, 0.0117927641, 0.0672483146, -0.2245737761, 0.2470612824, 0.2176650167, -0.1459573358, -0.1145693213, 0.0328467712, 0.1064633802, -0.0934056565, -0.3060249686, -0.2772408724, -0.1159313321, 0.3211703897, -0.3692924082, -0.0259183012, -0.0467642136, 0.1352031976, -0.4174542129, 0.1625302583, -0.3545778394, -0.1852054596, -0.4719072878, 0.1925867796, -0.3714020550, -0.1251425743, -0.0276522264, 0.1749757975, -0.2573141754, 0.0249741673, 0.1786568761, -0.1243146956, -0.1963305175, 0.1614706963, 0.2708010077, -0.6423498988, -0.2131675184, 0.2846286893, 0.1184243113, -0.2575677931, 0.1067937389, 0.2370747775, 0.1640772223, -0.3448953629, -0.3683467805, 0.1626616120, 0.1799705476, -0.0624964610, -0.0906380564, 0.0935196802, 0.0217118338, -0.2179218680, 0.0258434210, 0.2124962509, 0.0924399793, -0.2802974582, -0.2858256102, -0.0722826943, 0.0209917985, 0.1990848333, -0.1963855922, 0.1399174184, 0.2145906985, 0.0067003835, 0.0472836271, 0.1326282322, 0.2509272099, -0.1016899645, 0.0159895439, 0.3373135328, 0.1167777255, 0.0027657703, 0.0822223201, 0.2164585888, -0.1633001566, -0.0329334363, 0.1533051729, -0.0443363264, -0.2916226387, 0.1157705560, 0.0826865360, -0.0093953805, -0.3246898055, 0.6993798614, 0.0440174975, 0.0315842777, -0.0260609947, -0.0238066092, 0.1311727911, 0.0613508597, -0.1798492968, 0.0100025265, 0.0450463146, -0.0613453761, -0.1575545669, -0.0682724416, 0.2619257867, -0.2401376069, -0.3855776787, -0.0321874805, 0.0633408055, 0.0920861065, -0.4002598524, 0.5151396990, 0.2705191970, -0.0317671783, -0.2513155341, 0.2362511754, -0.0377213396, -0.2870572507, 0.0098847533, 0.0528335758, 0.2638074458, -0.1954754293, -0.0364013128, 0.1785277277, -0.0180717818, -0.1678386182, -0.1698974073, 0.1798705012, 0.0809837282, -0.3765646517, -0.2343691438, 0.3569633961, 0.1508491337, -0.2547681630, -0.1852804422, 0.3878403008, 0.0377098806, -0.4795496166, -0.3102930784, -0.1280045658, 0.0122692827, 0.2194150388, -0.0958476812, 0.1105939373, 0.1747210324, 0.1887838244, -0.1489266604, 0.1697133631, 0.1086347848, 0.1128253415, -0.3596640825, 0.4116995931, -0.0033010766, 0.1539493799, -0.1131617948, 0.1364340037, -0.0083658434, -0.0179008432, 0.0145846521, -0.1098887846, 0.1445623636, -0.0602877289, -0.3242376745, -0.4454043210, 0.1075453311, 0.2903592885, -0.2422074825, 0.0679453909, -0.1870450824, 0.3943529427, -0.1438397765, -0.0666987821, -0.3738782108, 0.1199583262, 0.2097895294, 0.1226695329, -0.5908346176, 0.2747752070, 0.0661986768, 0.0988197252, -0.0192327108, 0.4484532773, 0.0048518660, -0.0704873204, -0.0911734775, -0.0534838401, -0.4409112632, -0.1201111749, -0.1456637979, -0.2974274158, -0.1098354086, -0.1238333955, 0.1173095927, -0.2720588148, -0.3531084359, 0.1714253277, -0.2523255944, -0.2198784649, -0.0974841267, 0.2566146553, -0.2698816657, 0.0552754365, -0.5803357959, 0.2224794030, 0.1050809026, -0.0086307451, -0.2351429164, 0.3105036020, 0.0373686887, -0.3349921703, -0.2979027331, -0.2678095102, -0.0341468640, 0.0496324524, 0.0047524781, -0.0041209888, 0.2684973180, -0.2611180842, -0.3716530800, 0.2368652076, 0.1418769509, -0.2684181929, -0.4390409887, 0.2232114077, -0.1431531012, -0.0963319018, 0.0636264309, 0.1299453080, 0.0016871832, 0.3422432244, 0.0762673393, 0.0337438583, -0.0086267106, 0.0601158142, 0.0721689984, -0.4655345678, -0.0351203606, 0.0125244111, -0.0783549175, 0.1560688168, 0.1846806854, 0.2211302966, -0.0193730257, 0.1281704456, 0.3004753590, 0.1849187613, -0.0409999639, -0.0729643553, 0.0958599299, 0.1656167656, 0.0370385014, -0.0939690396, -0.1291605085, 0.0339447558, -0.1045462862, 0.0270054918, -0.0406664275, -0.0859131590, -0.1824426949, -0.3248377144, -0.1098090485, 0.0470500030, -0.0748061240, -0.1498990208, 0.0345880874, -0.0172392260, -0.1409785450, -0.2924232185, 0.1216205880, -0.2323311269, 0.0159177817, 0.1811131239, -0.1323281378, 0.1029986218, 0.2124820352, -0.1516458243, -0.0774226785, 0.1986697763, 0.0801483169, -0.2616774142, -0.2472755909, -0.0416550934, 0.3622642457, -0.2816543877, 0.2516968846, -0.0622922145, 0.1764579117, 0.0630878285, -0.0321801342, -0.0520408414, 0.0862525105, 0.3353890181, -0.1096306890, -0.0455821902, 0.2558340132, -0.2366097122, -0.0771310925, -0.0361058861, 0.4825353920, -0.4398113787, -0.3533069193, 0.2570223212, 0.5534420013, -0.5535196066, -0.0753123015, 0.1632720381, 0.4496198297, -0.1314953417, -0.1424385458, -0.5360631347, -0.0995588824, -0.1458879709, 0.0268786866, -0.1769729555, 0.1944161952, 0.0011484730, 0.0496234931, 0.1426012218, 0.0909904167, -0.4866380692, 0.1833375543, -0.3081037104, 0.3370686173, -0.4023994505, -0.1880968213, -0.0134312315, 0.2429882437, -0.4862253368, 0.1135533676, 0.0627795160, -0.0112376837, -0.3832184672, -0.2850605249, -0.1977000535, 0.1603681594, 0.1189364567, 0.1311070323, 0.0408655927, 0.1057340801, 0.0145404227, 0.1822738796, 0.0059827473, -0.2630383074, 0.0855404958, 0.2016971409, -0.1804846078, 0.1051992178, 0.0766963214, 0.0065414147, 0.3227409422, 0.0168099608, 0.1244397461, 0.1482104063, 0.0421317741, -0.1544066668, -0.0628592372, 0.0635837689, -0.0647516698, -0.1851666570, 0.0759523362, -0.3990343213, 0.1241710782, -0.1346869469, -0.1104544625, -0.1077009216, 0.1339536756, -0.1037783548, -0.0913794860, -0.3559421003, 0.1615159363, -0.0743147656, 0.2297793925, 0.0271709245, 0.0690770969, -0.5740604997, 0.1347458810, -0.2512482107, -0.1170879826, -0.4691419303, 0.1029440686, -0.1440702677, 0.0565278307, -0.2622646987, -0.1119541153, -0.1374305338, -0.0803606510, 0.0387467742, -0.0270671174, 0.0282966252, -0.2048921436, 0.3232136071, -0.3623941243, -0.2747318149, -0.0792650357, 0.1953526884, -0.0849903375, -0.1543164551, 0.0525436327, 0.3086156845, 0.0713247731, 0.0875072926, -0.0602908731, 0.0369899943, 0.2120038122, 0.1396275461, 0.3556131423, -0.1831497848, -0.3170280457, -0.1573283821, 0.1796579361, 0.0167008564, -0.3757923543, -0.1361621767, 0.0329803079, 0.0069542942, -0.2238666862, -0.0491175912, 0.0676139742, -0.0697236732, -0.2250577807, -0.1234753951, 0.2320710719, 0.1396236569, 0.1084660813, -0.0547872633, 0.1180601940, -0.0280128494, 0.0347978622, -0.2964148819, -0.1565486491, 0.0642000586, -0.2485973537, -0.1848458350, -0.1019734666, 0.1149558723, -0.0274467468, -0.0124157527, 0.0910203829, -0.1540630758, -0.0133313872, 0.0329281352, 0.1494863182, -0.3573915064, 0.0998635367, 0.0049611256, 0.3005099893, -0.3904105723, 0.4489538968, -0.1215423122, 0.1087395623, 0.5744628310, 0.2542718649, -0.1404806226, -0.4304895997, 0.0311409812, 0.0406055488, -0.3175719976, -0.1785171479, -0.1982457191, 0.0166323408, 0.0447891131, 0.1112949252, 0.0249958187, -0.0497122146, 0.2697688639, -0.1889320165, -0.6716762185, 0.2603597939, 0.0185346585, -0.4665200710, -1.1962064505, 0.5771287084, -0.0616151802, 0.1618033499, -0.7179757357, 0.7240602374, -0.0751541033, 0.1696784794, -0.2703858614, 0.1025960967, 0.1106874198, -0.2235141098, -0.3821791112, 0.2335041910, -0.0187888108, 0.0558546670, -0.3237452507, 0.4105348587, 0.1535529345, -0.0479680523, -0.4769976735, 0.1722797155, -0.0021967450, -0.2721306086, -0.0877882764, 0.0663956180, -0.0192095544, -0.2190895081, -0.2595653534, -0.1532771885, 0.0085588880, 0.3999493420, 0.0300563909, 0.1112066582, 0.1710765213, -0.1236821041, -0.2642617226, 0.1842569262, 0.1646101773, -0.0667347088, 0.0082831271, 0.2590811551, -0.1276574433, -0.0243562181, 0.2466128767, -0.1661572903, -0.1956260651, 0.0484988280, 0.1324795783, -0.1216543242, -0.1010373682, -0.0965111107, 0.1013621241, 0.0099661956, -0.1535350084, -0.0671728626, -0.2609878778, -0.0557279363, -0.0222957376, 0.2630852461, -0.3423626125, 0.3020587862, 0.0003447161, 0.0720724165, -0.1639894396, 0.3228920996, 0.0221093874, 0.2261821032, 0.2207179964, -0.2553343475, -0.0526803210, -0.0059039942, 0.0857274160, -0.0239968728, 0.0205075406, 0.2425880730, 0.1951091290, -0.1641730815, 0.0240007248, -0.0073898733, 0.2382230312, 0.1339971572, 0.1676732451, 0.2434510142, 0.2159173936, 0.2089151740, 0.1684738547, 0.4879477918, 0.2129767984, -0.0746760517, 0.0961400568, 0.0579970628, 0.3714548647, -0.3017469943, -0.1448681056, 0.3024977148, 0.3566748500, -0.0516514592, 0.1039513573, 0.2535678446, 0.3439859748, 0.2071990967, 0.2360843420, -0.0202060696, 0.0184871405, -0.2140588760, -0.2607217133, -0.0422229953, 0.1268765181, -0.4313355386, -0.0025558388, -0.0882374644, 0.1596466452, -0.5174916983, -0.3426444530, 0.2955924273, -0.0539777242, -0.3647447824, -0.4071373343, -0.1520082802, -0.2812276483, 0.0536974072, -0.2331553400, 0.0532697439, -0.3133260012, 0.2981652319, -0.0306621641, -0.5122711062, 0.1025560871, -0.0940379426, -0.0834188312, 0.0354701616, 0.3857272863, -0.3040901423, -0.1654323637, 0.0613390207, 0.0193343163, -0.5866536498, -0.0042074276, 0.1568973958, -0.1665736586, -0.4002453387, -0.3428528309, -0.5884695649, -0.3129386604, 0.1118002236, -0.0125992969, -0.1532952636, -0.1669264585, 0.3421349525, 0.4976397157, -0.4542300403, -0.0073615680, 0.1301258057, 0.0356685780, -0.2927255332, 0.1657098085, -0.0417206399, -0.0961246639, 0.0510524325, 0.1985449493, -0.4028638899, 0.0210776739, 0.1743807495, -0.1030076370, -0.0852484703, 0.0792599395, -0.1619149745, -0.1007661298, 0.1531533301, 0.1718617678, 0.1200565323, 0.1211998165, 0.1281898469, 0.0166417528, -0.4095434844, 0.0264480654, 0.1066138297, -0.2873629928, -0.2769734859, 0.1746668816, -0.0416843444, 0.1449214518, 0.0039420468, 0.1410544068, 0.1498268843, 0.4312494993, -0.0523520708, 0.0976079926, -0.0216975771, 0.3214645088, 0.2471312881, 0.0351779573, 0.2193672061, 0.0826361328, -0.0545342974, 0.0425896309, -0.1943179667, -0.0210348349, -0.1086930633, -0.5060829520, -0.1676417589, -0.8242539167, -0.1005917564, -0.2896783650, -0.0699131489, -0.3246747255, -0.0912266895, -0.5052308440, 0.1174321175, 0.2489678115, 0.1025496945, -0.4376019537, 0.1889092326, 0.0884038210, 0.0383493230, -0.2632692456, 0.0492178164, -0.0661428422, 0.0406418107, -0.2272151858, -0.2027666271, 0.0546092242, 0.3103582859, -0.1800491661, 0.2787599266, 0.0772237927, 0.0731126964, -0.2210570425, -0.4704460800, -0.1437702179, -0.3183912933, -0.1869658530, -0.4318259954, -0.1294617057, -0.4580941796, -0.2119318098, -0.5296310186, -0.3067116737, -0.3427723050, -0.2137595117, -0.2744432390, -0.5049479008, -0.1635873467, -0.3681319058, -0.0897705778, -0.6435147524, 0.1154572740, -0.0972757638, 0.0107283695, 0.2948361039, -0.1891506761, 0.0099500678, 0.4530745149, 0.4200278521, 0.0042560589, -0.0691300407, 0.2282028347, 0.3366917670, -0.1230064556, -0.0054048602, 0.2053400576, 0.2486574501, 0.2481337786, 0.1935254484, 0.1615228057, 0.1237703487, 0.1114543006, -0.0837852731, -0.4236867428, -0.1298632473, 0.0972291976, -0.1706085056, 0.0628735423, 0.1430949271, 0.0922512487, -0.2660654783, 0.1737668216, 0.0779037997, 0.0060851267, -0.1593438387, 0.2002174705, -0.3640454412, 0.3134209812, 0.2167278826, 0.3924508095, -0.0544571504, 0.3380897641, -0.0687914789, -0.0126120569, 0.2055961192, 0.1727661192, -0.1338120550, -0.1993688643, -0.1529574096, 0.2582284808, -0.1489026248, 0.1978587508, -0.0574781299, 0.3663145602, 0.2417915612, -0.0710127950, -0.3736953139, 0.0153045375, -0.2184146643, -0.4557244778, -0.4298237860, -0.1064865440, 0.2872928977, -0.5284297466, -0.0903639868, 0.1571580321, -0.0312911719, 0.2930371165, 0.2149836421, 0.1552963257, 0.0559301227, -0.1529890597, 0.0687064454, 0.1568740159, 0.0028176808, -0.3531852067, -0.4376273751, 0.1691621989, 0.0752325505, -0.1903388351, -0.3857178688, 0.2056789994, -0.0328915417, -0.2610909641, -0.4923334122, 0.0322901271, 0.0647439212, -0.1740108728, -0.0146674076, 0.1278856099, -0.1882736981, 0.0203409120, -0.0130833685, -0.1008190215, -0.8304092884, -0.1744950414, -0.0847589076, -0.1211533621, 0.3229031861, -0.0293359347, 0.2409344465, 0.1486581713, 0.2806979418, -0.3112110198, -0.2876096666, -0.2002591193, 0.2848509848, -0.2888644636, -0.2472811788, -0.1122075096, 0.1265203357, -0.2331437021, 0.1002998501, -0.0652756616, 0.0276777167, -0.5146278143, -0.1612902731, -0.2840549946, -0.3861483335, -0.2843654752, -0.4325366318, -0.5882580280, -0.2428172529, -0.3038947284, -0.0141568705, -0.4786991775, -0.0315815844, -0.5929818153, -0.0649548396, -0.1632210314, -0.1353869885, -0.0374235697, 0.0883698091, -0.0024965797, 0.1197636649, -0.1368062496, 0.2019687891, -0.1771349013, 0.0454081669, 0.2533707917, -0.0146171041, -0.1650201976, 0.1242009774, 0.0827192813, -0.0672628656, -0.5736089945, -0.0225982033, -0.0694791079, -0.0516216196, -0.0184050128, 0.1490427107, -0.2437360287, -0.0500581563, 0.0403665043, 0.1296816766, -0.0081058256, 0.0957206935, 0.0322749726, -0.1188056394, 0.2345098704, -0.1462291032, 0.0343320929, -0.1548107862, 0.0817777365, 0.1393020302, -0.0644449070, 0.0137375621, 0.1300102621, 0.1034053564, -0.5603492260, 0.0178917479, 0.3156150877, 0.2175155580, -0.3429638445, -0.0108500794, 0.0517303348, 0.2451336980, -0.3404634893, -0.3369067013, 0.3306003511, 0.3710519969, -0.1133812740, 0.0424213000, 0.1234296113, 0.1887864470, 0.2590475976, 0.2868664265, 0.1880051494, -0.1610632390, 0.1225511953, 0.3150594234, 0.0489190184, -0.0135776931, -0.1252072901, -0.1430792063, 0.1461381912, 0.1297055930, -0.2302516252, -0.1468128264, -0.1695689708, 0.0890245959, -0.1577785760, 0.2591674924, 0.1485893875, 0.1432666779, 0.0644532815, -0.3717787564, 0.0209581424, 0.2209918648, -0.1749319583, -0.3565247953, 0.1834300905, -0.1674432307, -0.1591628194, -0.2117883861, 0.1337867975, 0.0056404066, -0.8313124180, 0.1449491829, -0.0585705265, -0.0042554550, 0.2160003334, 0.3014608622, -0.2199092209, -0.0525835976, 0.3076126277, 0.2380149812, -0.0348313488, -0.0745161697, -0.3589883149, -0.1191926077, 0.0616748519, -0.0217248220, -0.1441338658, 0.0176807474, 0.1708642989, -0.0013389313, -0.0604701377, 0.1217408478, -0.3400474489, 0.0636172444, -0.2343877554, -0.0943433121, 0.1765246242, -0.4458312988, -0.3730226159, -0.1772234291, 0.0432629548, 0.1800783128, -0.2382088304, -0.0566646121, -0.0171335209, 0.4482469261, 0.0400673524, 0.1852070838, 0.1499870121, 0.1426226348, -0.0209871642, 0.0011519028, -0.1611955166, 0.0756901130, -0.1656652689, -0.2365031838, 0.0472166538, -0.0299298372, -0.2133165300, -0.6580031514, -0.2132650167, -0.5534955263, -0.1442327946, 0.0137627507, -0.5992829204, -0.0439073369, -0.6645057797, -0.1478507817, -0.9751176238, -0.1383408308, -0.6642238498, -0.2836784124, -1.1215965748, -0.1876933873, -0.7158044577, -0.0259237438, -0.4454115629, -0.2510467470, -0.2334711254, -0.2696015239, -0.1766698956, -0.5822379589, 0.0173487514, -0.0380411521, -0.2691307962, -0.2567889094, 0.1071127802, 0.1706466973, -0.4229444861, -0.2674236298, 0.0416568406, 0.1471872479, 0.0692917705, 0.1051703915, 0.2514171898, -0.0672428757, 0.3593306839, 0.2266904414, -0.1231725290, -0.3022024035, 0.2767478526, 0.1890818179, -0.0759327039, -0.8307334781, 0.0264024623, 0.0331797972, -0.1241254732, 0.2836841345, 0.0845497102, 0.0817304254, 0.1810442060, 0.2176038325, -0.0545572080, 0.1150277555, 0.0210897364, 0.1783454716, 0.0421975926, 0.2234699577, -0.0264546592, 0.0279278364, 0.0482969023, 0.1717170328, 0.1271819174, -0.0254614856, -0.0386388339, 0.2544541359, 0.0790704787, -0.2143789083, -0.4145560265, 0.1181785464, -0.3586696386, 0.2383150607, 0.0848623738, 0.1074660495, -0.4479644299, -0.0909914300, 0.0442002341, 0.3023992181, -0.1033324525, -0.4273191094, 0.0284501761, 0.3264539540, 0.1204804033, 0.0019715067, 0.3559645116, -0.1368250102, 0.2890257239, 0.0327957161, -0.3527654707, -0.0293135885, 0.0193590634, -0.2027012706, -0.4959949553, 0.0353072472, -0.1466815323, -0.1581401229, -0.2116030306, -0.1180393696, -0.0826398879, -0.3927716911, 0.2187138051, 0.1495186388, 0.0965231284, -0.0957642347, 0.0697751716, -0.0428491645, 0.0782515332, 0.2384273708, -0.1397367120, -0.4429008663, -0.0282063391, 0.0114765111, -0.5427842736, -0.0796012282, -0.1639358252, -0.2025556266, -0.4036885798, -0.2349205315, -0.2629646361, 0.0803186819, 0.0151468674, 0.0451155901, 0.1391310543, 0.1574880928, -0.0090569742, 0.0104688033, -0.0263596531, 0.2104443163, -0.2499944419, -0.2824823260, -0.1898591369, 0.0693123564, -0.1954823881, -0.0337071232, -0.1778105497, 0.0519248322, -0.1923253089, 0.0439009145, 0.0551684089, 0.0838627219, -0.0428892002, 0.2185554653, -0.1418647468, 0.0985555947, -0.3011582792, -0.1950669140, -0.1120560244, -0.1894884855, -0.0046447664, -0.1950116456, -0.1242396981, -0.0599413812, -0.0432819389, -0.0870706514, -0.0072965915, -0.1267306060, 0.0727487803, -0.0833851248, -0.1044127047, -0.1140167117, 0.0261699092, -0.1533984542, 0.0103225475, 0.0012121681, 0.0489006639, -0.0309138056, -0.0294734500, 0.0678535700, -0.0320656411, 0.0980087668, 0.0257659126, -0.0154259568, 0.0355981551, 0.0019739463, -0.1692330688, -0.0524485074, -0.1331372261, -0.1116826683, -0.1954573393, -0.2147142291, -0.2086328566, -0.1985811591, -0.2204121351, 0.1187463105, -0.0700698048, -0.0509197824, 0.0055398108, -0.0763136148, -0.0709925815, -0.0585637912, -0.1718402505, -0.2220834196, -0.1137596071, -0.0630420595, -0.0603113845, 0.0265581757, 0.0074465415, -0.0415639840, -0.2581276298, -0.0944802165, -0.2578052878, 0.0226591732, -0.2620257139, 0.0123081245, -0.1665897965, -0.1447419971, -0.1784933507, -0.2209596336, -0.1115678847, -0.1855641007, -0.1885049939, -0.1901931167, -0.0252584405, -0.1106925830, -0.1909345090, -0.0314560719, 0.0941028818, 0.0623080432, -0.2059378177, 0.0435456000, -0.0964201018, -0.1260378957, 0.0717787147, 0.0117008667, 0.1004156470, -0.2086266875, -0.2589631975, -0.1875363141, -0.1485082507, -0.0054038079, -0.2629171312, -0.2161367238, -0.0291973241, -0.0491511337, 0.1257814914, -0.2460546046, -0.1209728569, -0.1248435974, 0.0436968245, 0.0847815871, -0.0185462590, 0.0920550600, -0.2188654542, -0.2414852381, -0.2062876970, 0.0706085190, -0.1193763465, -0.2339038402, 0.0080045499, 0.0274230149, 0.1212667376, -0.2526274621, -0.2441759259, 0.1243139803, 0.0665406734, 0.0792478174, 0.0897417367, 0.1214245781, 0.0127236340, 0.1131790057, -0.1785799712, -0.0930316150, 0.0328923911, -0.1726439446, -0.2509610355, 0.1066839993, 0.1210422069, 0.1069425270, 0.1313613653, -0.0157481544, -0.1474353373, 0.0645265728, -0.1363679320, -0.2157921642, -0.2474473715, -0.2295206636, -0.2459146529, 0.0776251480, -0.1234907284, -0.2013153136, -0.1482947618, 0.0022633199, 0.0172780100, -0.0765537098, -0.1080027372, -0.0993302986, -0.3261312246, -0.1396439821, -0.2469749451, -0.1167684197, 0.0463279262, -0.1288163811, -0.0802594796, -0.0681507364, 0.0775088817, -0.0129248295, -0.2284480780, -0.1617265344, -0.0592691153, 0.0907817334, 0.1128642336, -0.1489077955, -0.1104367077, -0.0102988100, -0.0826648846, 0.0552909151, -0.0510413535, 0.0817917585, -0.2534630001, -0.0286989324, -0.1172195524, -0.1989078522, -0.1062726453, 0.1222742945, -0.2083098292, -0.1328030527, 0.0067785317, 0.0814020410, 0.0703463778, 0.1081812009, -0.1928819120, -0.2461003512, -0.1822573990, -0.0836870223, -0.1010020450, -0.2701841593, -0.1655298024, -0.1544884741, -0.0554336570, 0.0791828036, -0.1846734583, 0.0301861186, -0.1016731784, -0.1649072319, -0.1178585738, -0.0257361736, 0.0375436842, -0.1854604632, -0.0579193681, 0.0046812538, -0.2519843578, -0.2468124926, 0.0464353561, -0.1713725924, -0.1923361570, -0.1723398268, -0.1681733876, -0.0828272179, 0.0608102120, -0.0089869238, -0.1828132719, -0.2240850478, -0.0033017038, -0.0438761152, 0.0265578907, 0.0005330637, 0.0805647224, -0.1993387043, -0.0709416643, -0.0911658257, -0.0040506781, 0.1270684898, -0.2036193907, 0.1094032004, 0.1155003533, -0.2650195658, -0.2031338513, -0.0211354718, 0.0462913103, 0.0490351059, -0.1446047425, -0.0152626578, -0.0528223999, 0.0419227183, -0.1698175371, -0.0265803486, -0.0893698782, -0.1458267272, 0.0272424538, 0.0491545387, -0.0336496606, -0.1689829081, -0.0121433539, 0.0490550473, -0.2637469172, 0.0249967296, -0.1120381281, 0.1282970905, -0.2134631872, 0.0230020992, 0.0468824692, -0.2663294375, 0.0986255035, 0.0629217997, -0.2125427425, -0.1627622396, -0.1547171623, -0.1402045190, -0.2152761519, -0.1104888692, -0.0026714543, -0.2526662946, -0.1652217507, -0.0891886353, -0.1171123311, -0.2370935678, 0.0059706545, -0.1897984743, 0.0863173977, -0.1902031302, -0.1823368967, -0.1835784614, -0.1534586251, -0.1649837196, -0.2209476978, -0.1688096076, -0.1389885992, -0.1411397755, -0.0807620883, -0.0447888337, 0.0526822731, 0.1058202162, -0.2481985092, 0.0321951844, -0.1708330959, -0.2591564059, -0.2202140838, -0.0569118597, -0.1388584822, -0.1625918150};
#endif

#endif
