//Numpy array shape [3, 3, 4, 8]
//Min -3.464843750000
//Max 2.195312500000
//Number of zeros 0

#ifndef W5_H_
#define W5_H_

#ifndef __SYNTHESIS__
conv2d_1_weight_t w5[288];
#else
conv2d_1_weight_t w5[288] = {0.0703125000, -0.7968750000, 0.3825683594, 0.4587402344, -0.6967773438, 0.1120605469, 0.6918945312, -0.0835571289, -0.3867187500, 0.8588867188, 0.8925781250, 0.1676025391, -0.3417968750, 1.4853515625, -0.7036132812, -0.8623046875, -0.1511230469, 2.1210937500, -0.0952758789, -0.2634277344, -0.8886718750, 1.2353515625, 0.9379882812, -0.0238037109, 1.0576171875, -0.0549926758, -1.8535156250, -0.1304931641, 1.2509765625, -0.0953369141, -1.0888671875, 0.3395996094, -0.4743652344, 0.1358642578, -0.5747070312, 0.3566894531, 1.0751953125, -1.0371093750, -2.3339843750, -0.0357360840, -0.0362548828, -2.9062500000, -0.5712890625, 0.3107910156, 0.6054687500, -1.5712890625, -0.3964843750, -0.1013793945, 0.9716796875, -0.5517578125, 0.0530090332, 0.5375976562, -0.3977050781, -2.2851562500, 1.2470703125, -0.4765625000, 1.4414062500, -2.8730468750, -0.8217773438, -0.6943359375, 0.2587890625, 0.7670898438, -0.4277343750, 0.7680664062, -0.9340820312, -0.5498046875, 1.0937500000, -0.2467041016, 1.0585937500, -2.4941406250, -0.6479492188, 0.4284667969, -0.5068359375, -0.2119140625, -0.4023437500, -0.2130126953, -0.3923339844, -0.2232666016, -0.4550781250, -0.2709960938, -0.3212890625, -0.2778320312, -0.5747070312, -0.6210937500, -0.2498779297, -0.3798828125, -0.7875976562, -0.2622070312, -0.3605957031, -0.4504394531, -0.4946289062, -0.5913085938, -0.1817626953, -0.3786621094, -0.7773437500, -0.5087890625, -0.3144531250, -0.3774414062, -0.4716796875, -0.5830078125, -0.4284667969, -0.5493164062, -0.4572753906, -0.6225585938, -0.5029296875, -0.3840332031, -1.0205078125, -0.4826660156, 0.0870971680, 0.1389160156, -0.5483398438, -0.1091918945, 0.1824951172, -0.6860351562, -0.1011962891, 0.5859375000, -0.0999755859, 0.1130981445, -0.8798828125, -0.4106445312, -0.2269287109, -0.9877929688, 0.4892578125, 0.8896484375, -0.5527343750, 0.5307617188, 0.8457031250, -0.2299804688, 0.2922363281, 1.8183593750, -0.0310821533, 0.0072898865, -0.7666015625, -0.7099609375, 1.2841796875, -0.1390380859, -0.7202148438, 1.2011718750, 0.8354492188, -0.9570312500, -0.2736816406, 2.1953125000, 0.8212890625, 0.0020389557, -0.1855468750, 1.0927734375, 0.6948242188, -0.2060546875, 0.2810058594, -0.1971435547, -0.3652343750, 0.3798828125, 0.1794433594, -1.0390625000, -0.2167968750, 0.4609375000, 0.1540527344, -0.8129882812, 0.3886718750, 0.8574218750, 0.9121093750, -3.4648437500, -0.0580749512, 1.0429687500, -0.2048339844, -1.6201171875, 1.0185546875, 1.0322265625, -0.1278076172, -1.1250000000, 0.9277343750, -0.5917968750, 0.4414062500, -2.1855468750, -0.4831542969, 0.5869140625, -0.8881835938, -0.7680664062, 0.6708984375, -0.2597656250, 0.2653808594, -0.1696777344, -0.3801269531, 0.0348510742, 0.3823242188, -0.2587890625, -0.4853515625, -0.2690429688, 0.2294921875, 0.5034179688, -0.2988281250, -0.2717285156, 0.3920898438, -0.1861572266, -0.4174804688, -0.0883789062, 0.5493164062, -0.6499023438, -0.1098022461, 0.0283355713, 0.5322265625, -1.0703125000, -0.2237548828, 0.2519531250, 0.1148071289, -0.5913085938, 0.2342529297, -0.3303222656, 0.2231445312, 0.6503906250, -0.6440429688, -0.4953613281, 0.2634277344, 1.3896484375, -1.0029296875, 0.1149291992, -0.5893554688, 0.1815185547, 0.8803710938, -0.1193237305, 0.6499023438, 0.9711914062, 0.0628662109, 0.1322021484, 0.6137695312, 1.6074218750, -1.1123046875, -0.0214538574, 0.0626220703, -0.2369384766, 0.4392089844, -0.7426757812, 0.8554687500, 0.1239624023, -1.6513671875, -1.2451171875, 0.7568359375, 0.2268066406, -2.3593750000, -1.3281250000, 0.4794921875, 1.0468750000, 0.3935546875, 0.1754150391, 0.2409667969, -0.4248046875, 0.0243682861, 0.7675781250, 0.7446289062, -1.6708984375, -0.2287597656, -0.7158203125, -0.0880126953, 0.7753906250, 0.0003781319, 0.5307617188, -0.2187500000, 1.1064453125, 0.1960449219, -0.0631103516, -0.2580566406, -0.4594726562, 0.8774414062, -0.1937255859, 0.3410644531, -0.6528320312, -0.7255859375, 0.3571777344, 0.0124511719, -0.2277832031, 0.0104827881, 1.3476562500, -0.4274902344, -0.5073242188, 0.8339843750, 0.0100555420, -0.8339843750, 1.0927734375, 0.1312255859, -0.2956542969, 0.0936889648, 1.4208984375, -0.4123535156, -0.8364257812, 0.2199707031, -0.1339111328, -0.8652343750, -0.5776367188};
#endif

#endif
