//Numpy array shape [32, 10]
//Min -1.060546875000
//Max 0.808593750000
//Number of zeros 0

#ifndef W9_H_
#define W9_H_

#ifndef __SYNTHESIS__
dense_weight_t w9[320];
#else
dense_weight_t w9[320] = {-0.1763916016, -0.2993164062, -0.3474121094, 0.0938720703, 0.1074829102, -0.3010253906, -0.2487792969, -0.0015506744, 0.1528320312, -0.2392578125, 0.4626464844, 0.0099334717, 0.1115722656, 0.0591735840, -0.0212707520, 0.0313415527, 0.3996582031, -0.4064941406, 0.0745849609, -0.5571289062, 0.7158203125, -0.5517578125, 0.1029052734, 0.2381591797, 0.1466064453, -0.0271759033, 0.0077476501, -0.3393554688, -0.2702636719, -0.3840332031, -0.4509277344, -0.3374023438, -0.0005421638, -0.0670776367, -0.0652465820, -0.2583007812, -0.5019531250, -0.1784667969, 0.2121582031, -0.1129150391, -0.2009277344, -1.0263671875, -0.4750976562, 0.1062622070, 0.5195312500, -0.1917724609, 0.4692382812, 0.1752929688, -0.2121582031, 0.1533203125, -0.3178710938, 0.1777343750, -0.3327636719, -0.5234375000, 0.6176757812, 0.3029785156, -0.1184082031, -0.9462890625, -0.0351257324, 0.4916992188, 0.5454101562, -0.0884399414, 0.6650390625, 0.2763671875, 0.2790527344, 0.0559692383, -0.3540039062, -0.1627197266, -0.0931396484, 0.2927246094, -0.6787109375, 0.2081298828, -0.3635253906, -0.0435485840, 0.2264404297, -0.4045410156, -0.1457519531, -0.3469238281, -0.1340332031, 0.4626464844, 0.4240722656, 0.0890502930, -0.4409179688, 0.8085937500, -0.1888427734, -0.1579589844, -0.0556030273, -0.5014648438, 0.5810546875, -0.6547851562, -0.5156250000, 0.3317871094, 0.2810058594, 0.2060546875, -0.2042236328, 0.1834716797, -0.1610107422, 0.2822265625, -0.2968750000, -0.6069335938, -0.9062500000, 0.2709960938, -0.8725585938, -0.0744018555, -0.0382690430, -0.0373840332, 0.1416015625, -0.3051757812, -0.0115356445, -0.3786621094, -0.2521972656, 0.0711669922, 0.0309295654, 0.6010742188, -0.0125198364, 0.3659667969, -0.2038574219, -0.0639648438, -0.6333007812, 0.0046882629, -0.1343994141, 0.5498046875, 0.4841308594, -0.5234375000, -0.2431640625, -0.2822265625, 0.0019741058, 0.5859375000, -0.1451416016, -0.7919921875, -0.0911865234, -0.2055664062, 0.4462890625, -0.5966796875, -0.0192871094, 0.3527832031, -0.1805419922, -0.0722656250, 0.0590820312, -0.3500976562, 0.4426269531, -1.0605468750, -0.1259765625, -0.5639648438, -0.0268707275, 0.1347656250, 0.1710205078, -0.4443359375, 0.0307617188, 0.2392578125, -0.0763549805, 0.0511169434, -0.2442626953, -0.3522949219, 0.4387207031, -0.3967285156, 0.1481933594, 0.4521484375, 0.2734375000, -0.2266845703, -0.2543945312, -0.0925903320, 0.3610839844, 0.2283935547, -0.1428222656, -0.4145507812, -0.1420898438, -0.2731933594, 0.3444824219, 0.1191406250, -0.7539062500, 0.0028610229, -0.4396972656, 0.7280273438, 0.6079101562, -0.5205078125, 0.0334472656, 0.3884277344, -0.2587890625, -0.0855712891, -0.2497558594, -0.1260986328, -0.6518554688, 0.2863769531, -0.2719726562, 0.5498046875, -0.0547485352, 0.1789550781, -0.1088256836, -0.2995605469, -0.4536132812, 0.3925781250, -0.0182037354, -0.8720703125, -0.4047851562, -0.6503906250, 0.6650390625, -0.6030273438, 0.7026367188, -0.6894531250, 0.2186279297, 0.3093261719, -0.8227539062, 0.3161621094, 0.5239257812, -0.0619812012, 0.5698242188, -0.2022705078, -0.0770874023, -0.7377929688, 0.4426269531, 0.1226806641, 0.3811035156, -0.5454101562, -0.2961425781, 0.2583007812, 0.5483398438, 0.3229980469, -0.5151367188, 0.6665039062, -0.2507324219, -0.0444641113, -0.6791992188, -0.0278778076, -0.1744384766, 0.1817626953, -0.0781250000, -0.2534179688, -0.0836181641, 0.6162109375, -0.3481445312, 0.4692382812, 0.2910156250, -0.4099121094, 0.2663574219, 0.3828125000, 0.2368164062, 0.0090789795, -0.2316894531, 0.2460937500, -0.4621582031, -0.2012939453, -0.5351562500, -0.3303222656, -0.5581054688, 0.0203094482, 0.1396484375, -0.7045898438, -0.1367187500, -0.4558105469, 0.0150680542, 0.1345214844, 0.3063964844, 0.1356201172, 0.4455566406, -0.5493164062, 0.2517089844, 0.0802001953, 0.4106445312, 0.0457763672, -0.2032470703, -0.2529296875, -0.0900268555, -0.2087402344, 0.1756591797, 0.4624023438, -0.0681152344, -0.3767089844, -0.1163330078, -0.1768798828, -0.3046875000, -0.2651367188, -0.2159423828, -0.4182128906, 0.4770507812, 0.1313476562, 0.1368408203, -0.6010742188, -0.1514892578, -0.3217773438, 0.0886230469, 0.2941894531, -0.0781860352, -0.9453125000, -0.2182617188, 0.0828247070, 0.2990722656, 0.2526855469, -0.3566894531, -0.6899414062, 0.1463623047, 0.6274414062, 0.1525878906, 0.1768798828, -0.1680908203, -0.7177734375, -0.4587402344, 0.3659667969, 0.1697998047, 0.3925781250, -0.5097656250, -0.3186035156, 0.0139465332, 0.6088867188, 0.2832031250, 0.2138671875, -0.2145996094, -0.7304687500, -0.0953979492, 0.5795898438, -0.4799804688, -0.2128906250, -0.7094726562, -0.3200683594, 0.3217773438, -0.4304199219, 0.2583007812, -0.2318115234, -0.0765380859, -0.3391113281};
#endif

#endif
