//Numpy array shape [128, 3]
//Min -0.507812500000
//Max 0.430664062500
//Number of zeros 288

#ifndef W4_H_
#define W4_H_

#ifndef __SYNTHESIS__
model_default_t w4[384];
#else
model_default_t w4[384] = {-0.0000000000, -0.4328613281, 0.3830566406, 0.0000000000, -0.4169921875, -0.4382324219, 0.3493652344, 0.0000000000, -0.3876953125, -0.0000000000, -0.4504394531, 0.0000000000, 0.0000000000, -0.0000000000, -0.0000000000, -0.0000000000, 0.0000000000, -0.2496337891, -0.0000000000, 0.0000000000, -0.0000000000, -0.0000000000, 0.3525390625, 0.0000000000, 0.3632812500, 0.0000000000, -0.5034179688, -0.0000000000, 0.0000000000, -0.0000000000, -0.0000000000, -0.0000000000, 0.3791503906, -0.0000000000, -0.0000000000, 0.0000000000, 0.0000000000, -0.0000000000, -0.3896484375, -0.0000000000, 0.0000000000, -0.0000000000, 0.0000000000, -0.0000000000, -0.0000000000, -0.0000000000, -0.0000000000, 0.3750000000, 0.0000000000, 0.3447265625, 0.0000000000, -0.0000000000, -0.2402343750, -0.0000000000, -0.0000000000, -0.2741699219, -0.2651367188, 0.0000000000, -0.0000000000, -0.4211425781, -0.3178710938, 0.0000000000, -0.0000000000, -0.0000000000, 0.0000000000, -0.3312988281, -0.0000000000, -0.0000000000, 0.0000000000, -0.3850097656, 0.0000000000, -0.0000000000, -0.0000000000, 0.0000000000, 0.2309570312, -0.0000000000, 0.3625488281, -0.0000000000, 0.0000000000, -0.0000000000, -0.0000000000, -0.3071289062, 0.0000000000, -0.0000000000, 0.0000000000, -0.3913574219, -0.0000000000, -0.0000000000, 0.0000000000, -0.0000000000, 0.3691406250, -0.0000000000, -0.3913574219, 0.3811035156, -0.0000000000, -0.0000000000, -0.0000000000, 0.4074707031, -0.3308105469, -0.0000000000, -0.3933105469, 0.4035644531, -0.0000000000, -0.0000000000, 0.0000000000, 0.0000000000, -0.0000000000, -0.0000000000, 0.0000000000, -0.0000000000, -0.2491455078, -0.0000000000, -0.3776855469, 0.4045410156, 0.0000000000, -0.0000000000, -0.0000000000, -0.0000000000, 0.0000000000, -0.0000000000, -0.0000000000, -0.0000000000, 0.0000000000, -0.5068359375, 0.2585449219, 0.0000000000, 0.3830566406, -0.0000000000, -0.0000000000, -0.0000000000, 0.0000000000, -0.3635253906, 0.0000000000, 0.2805175781, -0.0000000000, 0.3627929688, -0.3527832031, -0.0000000000, -0.4404296875, 0.0000000000, 0.3195800781, -0.0000000000, 0.0000000000, -0.0000000000, 0.3752441406, -0.0000000000, -0.0000000000, -0.0000000000, -0.0000000000, 0.0000000000, 0.0000000000, -0.3906250000, -0.3735351562, 0.0000000000, -0.0000000000, 0.0000000000, -0.0000000000, 0.3574218750, 0.0000000000, 0.0000000000, -0.0000000000, -0.0000000000, -0.3962402344, 0.0000000000, -0.0000000000, -0.4594726562, 0.0000000000, 0.0000000000, 0.0000000000, 0.0000000000, -0.0000000000, -0.0000000000, -0.0000000000, 0.3710937500, -0.0000000000, -0.2709960938, 0.0000000000, 0.0000000000, -0.0000000000, -0.0000000000, -0.0000000000, -0.0000000000, 0.0000000000, -0.0000000000, -0.0000000000, 0.0000000000, 0.0000000000, -0.0000000000, -0.0000000000, 0.0000000000, -0.3828125000, -0.0000000000, 0.0000000000, -0.3789062500, -0.0000000000, -0.4492187500, -0.0000000000, 0.0000000000, -0.3554687500, 0.0000000000, -0.0000000000, -0.0000000000, -0.2320556641, -0.0000000000, 0.0000000000, -0.0000000000, -0.0000000000, -0.0000000000, -0.0000000000, 0.0000000000, 0.0000000000, 0.0000000000, -0.5078125000, -0.0000000000, 0.2990722656, -0.3037109375, -0.0000000000, -0.3774414062, 0.3679199219, -0.0000000000, 0.0000000000, -0.0000000000, -0.0000000000, 0.0000000000, 0.0000000000, -0.0000000000, -0.0000000000, -0.0000000000, -0.0000000000, -0.0000000000, 0.3701171875, -0.0000000000, -0.0000000000, 0.0000000000, -0.0000000000, -0.0000000000, 0.0000000000, 0.0000000000, 0.0000000000, 0.0000000000, 0.0000000000, -0.0000000000, -0.0000000000, -0.0000000000, -0.0000000000, 0.0000000000, -0.0000000000, -0.0000000000, 0.0000000000, 0.0000000000, -0.0000000000, -0.0000000000, -0.0000000000, 0.0000000000, -0.0000000000, -0.3315429688, 0.3376464844, -0.0000000000, 0.0000000000, 0.0000000000, -0.0000000000, 0.0000000000, 0.0000000000, 0.0000000000, -0.4335937500, 0.0000000000, -0.0000000000, -0.4575195312, 0.0000000000, -0.0000000000, 0.3693847656, -0.0000000000, -0.0000000000, 0.0000000000, -0.4033203125, -0.0000000000, -0.0000000000, -0.0000000000, 0.0000000000, -0.0000000000, 0.0000000000, -0.2675781250, -0.0000000000, 0.3032226562, -0.2883300781, -0.0000000000, 0.0000000000, -0.2463378906, -0.0000000000, -0.4916992188, 0.4030761719, -0.0000000000, -0.0000000000, -0.0000000000, -0.0000000000, -0.0000000000, -0.0000000000, -0.4831542969, -0.0000000000, 0.0000000000, -0.0000000000, -0.0000000000, 0.0000000000, 0.0000000000, -0.0000000000, -0.0000000000, 0.0000000000, -0.0000000000, -0.4306640625, 0.0000000000, 0.0000000000, -0.4533691406, -0.0000000000, -0.0000000000, 0.3771972656, 0.0000000000, -0.3786621094, -0.0000000000, -0.0000000000, 0.3222656250, -0.0000000000, -0.0000000000, 0.0000000000, -0.3146972656, -0.0000000000, -0.0000000000, 0.0000000000, 0.2954101562, 0.0000000000, -0.0000000000, -0.3813476562, -0.0000000000, 0.3830566406, -0.0000000000, -0.0000000000, 0.0000000000, -0.0000000000, 0.0000000000, 0.0000000000, -0.0000000000, -0.0000000000, 0.0000000000, -0.0000000000, 0.3005371094, 0.0000000000, -0.3222656250, 0.0000000000, -0.0000000000, -0.0000000000, -0.3710937500, 0.4306640625, -0.0000000000, 0.0000000000, -0.0000000000, -0.0000000000, 0.3171386719, 0.0000000000, -0.0000000000, -0.2663574219, -0.0000000000, 0.0000000000, 0.0000000000, -0.0000000000, -0.0000000000, -0.0000000000, 0.0000000000, -0.0000000000, -0.0000000000, 0.0000000000, 0.4033203125, -0.0000000000, -0.0000000000, -0.0000000000, -0.0000000000, 0.0000000000, 0.3627929688, -0.0000000000, -0.3771972656, 0.0000000000, -0.0000000000, -0.0000000000, -0.4003906250, 0.0000000000, -0.0000000000};
#endif

#endif
