//Numpy array shape [32, 10]
//Min -5.289062500000
//Max 3.236328125000
//Number of zeros 0

#ifndef W9_H_
#define W9_H_

#ifndef __SYNTHESIS__
model_default_t w9[320];
#else
model_default_t w9[320] = {1.2529296875, -1.0859375000, -0.4934082031, -1.8828125000, -0.7255859375, 0.1677246094, 0.8476562500, 0.4172363281, -0.4826660156, 1.1933593750, -1.1523437500, -1.3300781250, 0.2287597656, 0.4658203125, -0.6650390625, -0.2534179688, -1.3300781250, 1.1152343750, -0.1070556641, -0.5205078125, -0.0692138672, 0.8339843750, -0.8007812500, 1.2636718750, -0.1691894531, 0.4409179688, -0.6958007812, -0.7124023438, 0.5600585938, -1.6376953125, -0.5087890625, -1.1289062500, 1.7148437500, 0.3693847656, -5.2890625000, -1.6816406250, -2.3164062500, 0.8906250000, -3.3710937500, -2.1816406250, -1.7402343750, -0.7475585938, 1.8583984375, -1.4824218750, 0.0976562500, -0.1437988281, 0.3330078125, -0.3752441406, -0.0708007812, -0.1335449219, -0.8608398438, -2.5566406250, -2.9570312500, -3.8320312500, 0.6752929688, 0.7416992188, -0.0308685303, -2.5917968750, 1.8994140625, 1.7236328125, -0.5253906250, 1.5869140625, -0.2502441406, 0.5312500000, 0.6235351562, 0.3247070312, 0.0575256348, -1.0166015625, -0.8774414062, -0.4853515625, 0.2993164062, 1.3955078125, 0.0551452637, 1.0488281250, -0.6601562500, 0.6616210938, 0.9443359375, -2.8164062500, -1.1718750000, 0.1556396484, -0.2482910156, 0.3967285156, -2.0136718750, -1.6474609375, 1.7822265625, -0.9375000000, 0.7045898438, 1.7880859375, -1.1943359375, -2.4648437500, 0.6386718750, -1.2666015625, -0.1654052734, -0.0143966675, -2.2597656250, 1.2187500000, -0.6557617188, 0.0527954102, 0.3100585938, 0.2580566406, 0.2509765625, -1.2695312500, 1.1699218750, 1.1953125000, -1.9257812500, -4.5742187500, -2.9199218750, 0.0214538574, 1.5693359375, 1.6787109375, -1.3105468750, -0.8247070312, -0.7592773438, -1.5634765625, -2.6718750000, 3.2363281250, -0.7851562500, -0.4550781250, -0.1436767578, -1.9189453125, -1.4804687500, -0.7036132812, 0.1968994141, -0.2404785156, 0.1809082031, -0.3239746094, 1.5380859375, 0.4582519531, -0.4145507812, -1.9218750000, -0.2973632812, -0.3417968750, -0.6738281250, -1.1542968750, 0.6079101562, -0.7563476562, -0.5712890625, 0.8120117188, 0.0519104004, 1.0859375000, 0.4982910156, 1.7138671875, 1.0800781250, -0.5366210938, 2.4531250000, -3.0625000000, -2.5468750000, -1.0361328125, -0.5849609375, -3.1132812500, -2.4140625000, 1.6767578125, -0.6713867188, 0.2011718750, -3.0312500000, -1.3828125000, 2.6796875000, -2.2539062500, -2.1152343750, -0.0815429688, -1.0205078125, 0.6381835938, 1.3730468750, -1.6718750000, -0.5463867188, -1.1425781250, -0.2849121094, -0.2426757812, 0.2114257812, -1.2265625000, 0.1072998047, -1.9169921875, 0.0253601074, -0.1568603516, 0.7617187500, -0.0047721863, 0.5869140625, -1.5751953125, -2.1718750000, 1.1298828125, -0.7241210938, 0.3881835938, 0.4619140625, -1.5146484375, -0.1179199219, -1.2119140625, 0.7128906250, 0.5634765625, 1.3369140625, -0.9624023438, -4.2421875000, 0.2346191406, -1.4101562500, 1.9492187500, 1.1835937500, 1.2343750000, -3.2421875000, 0.2078857422, -2.3125000000, 0.5161132812, 2.1074218750, 0.2612304688, -1.4785156250, 0.8745117188, -2.0410156250, 1.2031250000, -1.4912109375, -3.2656250000, -0.3334960938, -1.4863281250, 1.2001953125, -2.7226562500, 0.5581054688, -0.6606445312, -1.5800781250, -1.1816406250, 1.2099609375, -3.6132812500, 1.3759765625, -1.9228515625, -1.3759765625, 0.6699218750, -1.2500000000, 0.1896972656, -1.1435546875, -0.1093139648, -0.0781860352, -0.1420898438, 0.7705078125, -0.5546875000, -0.1635742188, -0.6074218750, -0.4707031250, -2.0820312500, -0.4787597656, -0.9316406250, -1.4072265625, 2.3261718750, -3.8046875000, -1.6826171875, 1.7109375000, -1.4003906250, -0.5986328125, -1.8691406250, 0.5952148438, -1.3330078125, 0.2568359375, 1.2089843750, -2.5390625000, -0.4594726562, -1.4082031250, -1.1328125000, 1.6328125000, -0.0145797729, 0.8188476562, -0.1091918945, 0.8891601562, -1.5019531250, -0.1408691406, -0.6333007812, 1.0976562500, -1.5605468750, -2.5781250000, 1.9990234375, -0.1455078125, -0.1026000977, 0.2213134766, 0.2091064453, -0.1921386719, 0.0350036621, -0.5537109375, -1.3964843750, -0.2602539062, 0.4160156250, 0.7387695312, 0.6669921875, -1.5322265625, 1.5595703125, 1.9150390625, -1.7529296875, -0.5170898438, 0.7709960938, 1.6923828125, -1.0263671875, -0.0033111572, -0.5258789062, -0.5698242188, -0.6376953125, 0.7412109375, -0.7719726562, -2.3535156250, 0.5244140625, 0.2001953125, -1.4287109375, 0.4111328125, -0.3823242188, -0.9604492188, -0.0307922363, -0.1224975586, -0.5205078125, 2.0996093750, 0.5986328125, -1.5292968750, -1.3896484375, -1.3681640625, 0.2326660156, 0.0582885742, -0.1723632812, -1.5205078125, -0.1818847656, -0.3913574219, 0.8872070312, -1.2939453125, -0.8222656250, -0.1799316406, 0.3991699219, -2.6171875000, 0.5507812500, -0.1910400391, 1.5898437500};
#endif

#endif
